FANN_FLO_2.1
num_layers=4
learning_rate=0.700000
connection_rate=1.000000
network_type=0
learning_momentum=0.000000
training_algorithm=2
train_error_function=1
train_stop_function=0
cascade_output_change_fraction=0.010000
quickprop_decay=-0.000100
quickprop_mu=1.750000
rprop_increase_factor=1.200000
rprop_decrease_factor=0.500000
rprop_delta_min=0.000000
rprop_delta_max=50.000000
rprop_delta_zero=0.500000
cascade_output_stagnation_epochs=12
cascade_candidate_change_fraction=0.010000
cascade_candidate_stagnation_epochs=12
cascade_max_out_epochs=150
cascade_max_cand_epochs=150
cascade_num_candidate_groups=2
bit_fail_limit=3.49999999999999980000e-001
cascade_candidate_limit=1.00000000000000000000e+003
cascade_weight_multiplier=4.00000000000000020000e-001
cascade_activation_functions_count=8
cascade_activation_functions=3 5 7 8 10 11 14 15 
cascade_activation_steepnesses_count=4
cascade_activation_steepnesses=2.50000000000000000000e-001 5.00000000000000000000e-001 7.50000000000000000000e-001 1.00000000000000000000e+000 
layer_sizes=25 48 6 2 
scale_included=0
neurons (num_inputs, activation_function, activation_steepness)=(0, 0, 0.00000000000000000000e+000) (0, 0, 0.00000000000000000000e+000) (0, 0, 0.00000000000000000000e+000) (0, 0, 0.00000000000000000000e+000) (0, 0, 0.00000000000000000000e+000) (0, 0, 0.00000000000000000000e+000) (0, 0, 0.00000000000000000000e+000) (0, 0, 0.00000000000000000000e+000) (0, 0, 0.00000000000000000000e+000) (0, 0, 0.00000000000000000000e+000) (0, 0, 0.00000000000000000000e+000) (0, 0, 0.00000000000000000000e+000) (0, 0, 0.00000000000000000000e+000) (0, 0, 0.00000000000000000000e+000) (0, 0, 0.00000000000000000000e+000) (0, 0, 0.00000000000000000000e+000) (0, 0, 0.00000000000000000000e+000) (0, 0, 0.00000000000000000000e+000) (0, 0, 0.00000000000000000000e+000) (0, 0, 0.00000000000000000000e+000) (0, 0, 0.00000000000000000000e+000) (0, 0, 0.00000000000000000000e+000) (0, 0, 0.00000000000000000000e+000) (0, 0, 0.00000000000000000000e+000) (0, 0, 0.00000000000000000000e+000) (25, 11, 5.00000000000000000000e-001) (25, 4, 5.00000000000000000000e-001) (25, 4, 5.00000000000000000000e-001) (25, 4, 5.00000000000000000000e-001) (25, 4, 5.00000000000000000000e-001) (25, 4, 5.00000000000000000000e-001) (25, 4, 5.00000000000000000000e-001) (25, 4, 5.00000000000000000000e-001) (25, 4, 5.00000000000000000000e-001) (25, 4, 5.00000000000000000000e-001) (25, 4, 5.00000000000000000000e-001) (25, 4, 5.00000000000000000000e-001) (25, 4, 5.00000000000000000000e-001) (25, 4, 5.00000000000000000000e-001) (25, 4, 5.00000000000000000000e-001) (25, 4, 5.00000000000000000000e-001) (25, 4, 5.00000000000000000000e-001) (25, 4, 5.00000000000000000000e-001) (25, 4, 5.00000000000000000000e-001) (25, 4, 5.00000000000000000000e-001) (25, 4, 5.00000000000000000000e-001) (25, 4, 5.00000000000000000000e-001) (25, 4, 5.00000000000000000000e-001) (25, 4, 5.00000000000000000000e-001) (25, 4, 5.00000000000000000000e-001) (25, 4, 5.00000000000000000000e-001) (25, 4, 5.00000000000000000000e-001) (25, 4, 5.00000000000000000000e-001) (25, 4, 5.00000000000000000000e-001) (25, 4, 5.00000000000000000000e-001) (25, 4, 5.00000000000000000000e-001) (25, 4, 5.00000000000000000000e-001) (25, 4, 5.00000000000000000000e-001) (25, 4, 5.00000000000000000000e-001) (25, 4, 5.00000000000000000000e-001) (25, 4, 5.00000000000000000000e-001) (25, 4, 5.00000000000000000000e-001) (25, 4, 5.00000000000000000000e-001) (25, 4, 5.00000000000000000000e-001) (25, 4, 5.00000000000000000000e-001) (25, 4, 5.00000000000000000000e-001) (25, 4, 5.00000000000000000000e-001) (25, 4, 5.00000000000000000000e-001) (25, 4, 5.00000000000000000000e-001) (25, 4, 5.00000000000000000000e-001) (25, 4, 5.00000000000000000000e-001) (25, 4, 5.00000000000000000000e-001) (0, 0, 0.00000000000000000000e+000) (48, 11, 5.00000000000000000000e-001) (48, 4, 5.00000000000000000000e-001) (48, 4, 5.00000000000000000000e-001) (48, 4, 5.00000000000000000000e-001) (48, 4, 5.00000000000000000000e-001) (0, 0, 0.00000000000000000000e+000) (6, 8, 5.00000000000000000000e-001) (0, 0, 0.00000000000000000000e+000) 
connections (connected_to_neuron, weight)=(0, 1.90917971594899430000e-002) (1, 2.57751468684546130000e-002) (2, -4.10583502211920860000e-002) (3, -8.19519055180535360000e-002) (4, 1.01135255413282720000e-002) (5, -9.89990249127004060000e-003) (6, 8.85009778812673180000e-002) (7, -4.25781256344635040000e-002) (8, -7.92907726658995670000e-002) (9, 3.35021977648466420000e-002) (10, 4.87854011175841150000e-002) (11, -4.28955084516928760000e-002) (12, 2.42126468451715480000e-002) (13, -1.70837404889425670000e-002) (14, -8.19763195809173340000e-002) (15, -9.48669447730026150000e-002) (16, -1.17553712689186800000e-002) (17, 4.02954107566984020000e-002) (18, -2.39807132479654680000e-002) (19, 5.20019538998894860000e-003) (20, -2.74536136903407170000e-002) (21, -8.60351575320237320000e-002) (22, 3.50097661466861610000e-002) (23, -9.10400404191022970000e-002) (24, 5.69946297555361530000e-002) (0, -4.02404791152548570000e-002) (1, -5.87524422817296000000e-002) (2, 3.63159185098993480000e-002) (3, 5.81665047729984510000e-003) (4, -8.68225110593812130000e-002) (5, -9.64172377648537800000e-002) (6, 1.47705080325977180000e-002) (7, 7.45117198603111320000e-002) (8, 9.37988295227114580000e-002) (9, 5.15136726426135280000e-003) (10, -3.08044438183969760000e-002) (11, 6.54785166007059160000e-002) (12, 6.32324228172365110000e-002) (13, -4.53918463795162100000e-002) (14, 9.32617201397079040000e-002) (15, -6.11633309895296410000e-002) (16, 1.77856447962767560000e-002) (17, 3.30200200232866340000e-002) (18, 3.37280278463367720000e-002) (19, -1.54968264027957050000e-002) (20, 9.72290053550750600000e-002) (21, 9.27063002095565030000e-002) (22, -8.11279308964003580000e-002) (23, 6.18347177182840820000e-002) (24, 9.07165540861569750000e-002) (0, -3.56994634225884510000e-002) (1, -3.76342779045444330000e-002) (2, -8.68225110593812130000e-002) (3, -7.86682140628727210000e-002) (4, -7.17285166938381740000e-002) (5, 7.36877452386579530000e-002) (6, 5.74157723399366660000e-002) (7, -9.66186537834801130000e-003) (8, 7.11059580908113280000e-003) (9, 6.53686533178188260000e-003) (10, 6.98852549476214340000e-002) (11, -3.75549322002370900000e-002) (12, -6.54785166007059160000e-002) (13, 7.63183605122321750000e-002) (14, -4.51416022351622810000e-002) (15, 7.33581553899966820000e-002) (16, -4.22241217229384350000e-002) (17, -2.19543460302702440000e-002) (18, 1.68701174388843360000e-002) (19, -5.91613778346982140000e-002) (20, -7.04711924563525830000e-002) (21, -6.41418466589129820000e-002) (22, -6.29150400000071390000e-002) (23, -3.94531255878973750000e-002) (24, 4.53613288009364620000e-002) (0, -8.45275891501842120000e-002) (1, 6.10412606752106510000e-002) (2, 6.78405771827783610000e-002) (3, 8.32397473341188740000e-002) (4, -6.92565928288786380000e-002) (5, 3.93676763678740830000e-003) (6, -5.30700691501806430000e-002) (7, -9.87915053783581240000e-002) (8, -2.44018558323659820000e-002) (9, -2.02575686612362920000e-002) (10, 6.84631357858052070000e-002) (11, 4.95117194877821020000e-002) (12, 1.26708986263111000000e-002) (13, -3.95629888707844660000e-002) (14, 3.69323735972102440000e-002) (15, 5.34484871245695100000e-002) (16, -5.02197273108322410000e-002) (17, 7.15148936437799420000e-002) (18, 2.90771488707832760000e-002) (19, 2.31445315948803910000e-002) (20, 3.55346684982578150000e-002) (21, -6.98913584633373830000e-002) (22, 4.53491217695045630000e-003) (23, -5.34484871245695100000e-002) (24, 5.38940437718338220000e-003) (0, -6.80786142957003900000e-002) (1, 7.00561533876680190000e-002) (2, -7.80883800698575210000e-002) (3, 9.28344740395914410000e-003) (4, -6.76269541327201300000e-003) (5, 7.84240734342347420000e-002) (6, 8.58642590919771460000e-002) (7, 5.22033699185158180000e-002) (8, -4.57153327124615320000e-002) (9, 4.34448248661283290000e-002) (10, 9.35913099883691760000e-002) (11, -2.11303714086170660000e-002) (12, -4.98596198835912220000e-002) (13, 5.21545417927882230000e-002) (14, -9.28955091967509360000e-002) (15, -6.61865244237560550000e-002) (16, -4.45007330849875870000e-002) (17, 5.56030281722996730000e-002) (18, -5.20019538998894860000e-002) (19, -7.18811045867369100000e-002) (20, 9.47265639115357770000e-003) (21, 1.93176272409800730000e-002) (22, -2.90649418393513770000e-002) (23, 4.40246588591435280000e-002) (24, -7.32116710128138950000e-002) (0, 1.48742677997688590000e-002) (1, -8.59741223748642370000e-002) (2, -9.13269056577519220000e-002) (3, 1.48925783469167070000e-003) (4, -6.63269052852228920000e-002) (5, 8.24707043539092410000e-002) (6, -3.17321782072212950000e-002) (7, -9.04907240046668450000e-002) (8, 4.24194342258488180000e-003) (9, -7.83630382770752480000e-002) (10, -6.13403329452921750000e-003) (11, -8.36730969499512870000e-002) (12, -5.68237313154895670000e-003) (13, -6.41845712689246280000e-002) (14, -4.99816901979102110000e-002) (15, -4.08325201397019550000e-003) (16, 7.89550793015223460000e-002) (17, 8.95996107101382220000e-003) (18, 5.76416024214267960000e-002) (19, -3.26965336903413120000e-002) (20, 5.58532723166536020000e-002) (21, 8.35998547613598930000e-002) (22, -1.78222658905724530000e-002) (23, 5.49499519906930800000e-002) (24, 8.92395032828972030000e-002) (0, 5.42541511990748400000e-002) (1, -2.15270999301537810000e-002) (2, -2.08190921071036430000e-002) (3, 6.35192880558861360000e-002) (4, 3.14941410942992660000e-002) (5, -7.65014659837106590000e-002) (6, -1.69921877532033250000e-002) (7, -7.20947276367951420000e-002) (8, 3.29956059604228360000e-002) (9, 6.82434092200310260000e-002) (10, -9.85412612340041960000e-002) (11, -8.66394055879027290000e-002) (12, 5.77636727357457860000e-002) (13, 3.99780279394690300000e-002) (14, 7.97607433760276760000e-002) (15, 3.01513676367903830000e-003) (16, -1.40380861466837810000e-004) (17, -7.38342296158407410000e-002) (18, 4.66308600698539520000e-002) (19, -6.26098642142096650000e-002) (20, -4.22180182072224850000e-002) (21, -2.87292484749741560000e-002) (22, -5.11291511525087120000e-002) (23, -6.44287118975626070000e-002) (24, -4.19921881257323550000e-003) (0, -8.22998059138626560000e-002) (1, 5.35095222817290050000e-002) (2, 1.37329103608863080000e-002) (3, -8.64379895692763970000e-002) (4, -7.78869640512311890000e-002) (5, -7.61596691036174890000e-002) (6, 8.21228039581001210000e-002) (7, 8.00476086146773010000e-002) (8, 7.84301769499506920000e-002) (9, -2.45300296624009210000e-002) (10, -9.81994643539110260000e-002) (11, 8.83056653783569350000e-002) (12, 7.86804210943046200000e-002) (13, 1.87500002793967720000e-002) (14, 8.24584973224773420000e-002) (15, 8.71337903608946360000e-002) (16, 4.30053717345799670000e-002) (17, 9.37377943655519630000e-002) (18, 2.42919925494788910000e-003) (19, -5.40771492433123060000e-002) (20, 5.00488288707856550000e-002) (21, 4.04663091967449870000e-003) (22, 3.22509770430770000000e-002) (23, -9.10278333876703980000e-002) (24, -9.88769545983814170000e-004) (0, 5.56945809080389150000e-002) (1, -5.69763192083883040000e-002) (2, 9.55444350174730060000e-002) (3, -6.54296884749783200000e-002) (4, 7.34252940628721260000e-003) (5, 8.07128918277157940000e-002) (6, -9.81750502910472280000e-002) (7, 6.59179697322542780000e-002) (8, -6.18835458440116780000e-002) (9, -1.22375490104786880000e-002) (10, 6.10961923166541960000e-002) (11, 1.12731935273586710000e-002) (12, 3.91845708963955990000e-002) (13, 5.32409675902272280000e-002) (14, 1.83837893364398040000e-002) (15, 9.89379897555409120000e-002) (16, 3.54980474039621190000e-002) (17, 7.27050792083900890000e-002) (18, -2.42126468451715480000e-002) (19, 5.62988289639179130000e-002) (20, 4.38171393248012460000e-002) (21, 9.91027846798715470000e-002) (22, 6.47766122933717270000e-002) (23, -8.20312512223608790000e-002) (24, -2.66906742258470330000e-002) (0, 6.59667978579818740000e-002) (1, 1.67236330617015480000e-003) (2, 8.42773450058302840000e-002) (3, 7.50000011175870900000e-002) (4, -3.59313970197945310000e-002) (5, 8.26049816996601290000e-002) (6, -3.85192876833571060000e-002) (7, -5.37109383003553380000e-002) (8, 5.28808601629862100000e-002) (9, 7.41638194645020120000e-002) (10, -8.52417004889503000000e-002) (11, -3.22875981373726970000e-003) (12, 8.80615247497189560000e-002) (13, 5.59814461466885400000e-002) (14, -3.45642094994218500000e-002) (15, 8.17077648894155570000e-002) (16, 4.61547858440098930000e-002) (17, -2.84362797206085820000e-002) (18, -3.64196782770704890000e-002) (19, -9.07775892433164700000e-002) (20, -7.21557627939546360000e-002) (21, -5.64575203725325990000e-002) (22, 6.71936045168877170000e-002) (23, -7.23327647497171710000e-002) (24, -7.90039074272499420000e-002) (0, -9.03808607217797540000e-002) (1, 5.93322762747448000000e-002) (2, 9.92797866356340820000e-002) (3, -9.53552260302785730000e-002) (4, 3.54980474039621190000e-002) (5, -6.56066904307408550000e-002) (6, 6.63879404423823870000e-002) (7, -2.46826175552996570000e-002) (8, 6.10107430966309040000e-002) (9, 8.47106946216626970000e-002) (10, -8.34960949941887520000e-002) (11, -2.31689456577441890000e-002) (12, 3.56628423282927540000e-002) (13, -8.11157238649684590000e-002) (14, 5.24536140628697470000e-002) (15, -8.51379407217791600000e-002) (16, -6.71386728754441720000e-005) (17, 4.29443365774204720000e-002) (18, -2.61535648428434800000e-002) (19, 3.75549322002370900000e-002) (20, 6.84753428172371060000e-002) (21, 3.56445317811449060000e-002) (22, 7.61352550407536910000e-002) (23, 6.33605966472714500000e-002) (24, 7.15820323166553860000e-002) (0, -5.07934577881314910000e-002) (1, 7.34619151571678230000e-002) (2, -6.25732431199139680000e-002) (3, 1.10351564144366420000e-002) (4, -3.33557133876638550000e-002) (5, -4.83520515017517030000e-002) (6, -2.29492190919700080000e-003) (7, 8.67187512922100720000e-002) (8, -5.29846199301573510000e-002) (9, 5.74462899185164130000e-002) (10, -6.78588877299262090000e-002) (11, -4.98657233993071710000e-002) (12, 8.97888196973326560000e-002) (13, 3.04382328754400080000e-002) (14, 8.06884777648519960000e-003) (15, -5.88256844703209940000e-002) (16, 4.96276862863851420000e-002) (17, -1.63330080558807820000e-002) (18, -4.48364264493648080000e-002) (19, -3.57116704540203500000e-002) (20, -6.71936045168877170000e-002) (21, 3.94653326193292740000e-002) (22, -1.68823244703162350000e-002) (23, -3.95996099650801630000e-002) (24, -9.35180677997777820000e-002) (0, 2.65075687543685490000e-002) (1, -8.46252454016394040000e-002) (2, 3.07678227241012790000e-002) (3, 5.21728523399360710000e-002) (4, 4.44885260535556880000e-002) (5, -7.98889172060626150000e-002) (6, -3.09936528055914100000e-002) (7, -5.44433601862692740000e-003) (8, -9.73449721536781000000e-002) (9, 1.97265627939486880000e-002) (10, 5.76293953899948970000e-002) (11, -6.30126962514623300000e-002) (12, -6.16638192782374970000e-002) (13, 6.01013192549544330000e-002) (14, 8.52600110360981490000e-002) (15, 3.48144536437757780000e-002) (16, 2.18933108731107500000e-002) (17, -7.91137707101370320000e-002) (18, 4.07592779511105620000e-002) (19, -6.20849618626380110000e-002) (20, 5.41870125261993960000e-002) (21, 4.80529792316701790000e-002) (22, 4.06372076367915720000e-002) (23, 3.35815434691539850000e-002) (24, -3.71154790686887280000e-002) (0, 8.99292005587994940000e-002) (1, -5.41381844004718000000e-002) (2, 2.10632327357416220000e-002) (3, -9.61303725262041550000e-002) (4, -8.19580090337694860000e-002) (5, 2.43713382537862340000e-002) (6, -5.10192878696216210000e-002) (7, 7.39379893830118820000e-002) (8, 1.39465334109445390000e-002) (9, -8.44421399301609200000e-002) (10, -5.31005867287603910000e-002) (11, 4.11254888940675300000e-002) (12, -9.66430678463439110000e-002) (13, 5.29479988358616540000e-002) (14, -1.76940920605375140000e-002) (15, -1.20239259604204560000e-003) (16, 1.87377932479648730000e-002) (17, 1.34887697322483290000e-003) (18, 7.41699229802179620000e-002) (19, 4.98962409778869190000e-002) (20, 7.17102061466903250000e-002) (21, 6.46667490104846370000e-002) (22, 9.44641127357499500000e-002) (23, -7.25769053783551500000e-002) (24, -8.35449231199163480000e-002) (0, 2.07031253085006030000e-002) (1, -1.12182618859151260000e-002) (2, 5.76049813271311000000e-002) (3, -1.46362306868468290000e-002) (4, -6.08520516880162180000e-002) (5, -5.26428230500641800000e-002) (6, -2.82226566705503500000e-002) (7, 7.82531749941881570000e-002) (8, -6.09619149709033080000e-002) (9, -4.22790533643819800000e-002) (10, -2.65625003958120940000e-002) (11, -1.37145998137384590000e-002) (12, 4.18884283585612140000e-002) (13, 7.02819834691581490000e-002) (14, 6.65832529452927700000e-002) (15, -6.80419932014046940000e-002) (16, -2.31994632363239360000e-002) (17, 7.97119152503000810000e-003) (18, 5.16296394412165680000e-002) (19, -9.36828627241084180000e-002) (20, 9.37744154598476600000e-002) (21, 5.13671882654307410000e-002) (22, -4.84619147846387930000e-003) (23, 8.47106946216626970000e-002) (24, 4.14550787427288010000e-002) (0, 3.03894047497124120000e-002) (1, -2.02697756926681900000e-002) (2, 2.31933597206079870000e-003) (3, -3.43811040279433660000e-002) (4, -4.60510260768387520000e-002) (5, -5.98876962048962010000e-002) (6, 7.06420908963991680000e-002) (7, 8.45458996973320610000e-002) (8, -9.13513197206157200000e-002) (9, 9.19067396507671220000e-002) (10, -8.36608899185193880000e-002) (11, -2.31323245634484920000e-003) (12, -4.20104986728802030000e-002) (13, -4.07836920139743600000e-002) (14, -7.65014659837106590000e-002) (15, -1.62902834458691360000e-002) (16, 7.31140147613587030000e-002) (17, -9.27917494295797950000e-002) (18, 6.07543954365610260000e-002) (19, 4.42504889406336590000e-002) (20, 2.64953617229366500000e-002) (21, -1.38610841909212470000e-002) (22, -2.56652835855675220000e-002) (23, -5.02929694994236340000e-002) (24, 7.97668468917436260000e-002) (0, -7.14721690337682960000e-003) (1, 2.84484867520404800000e-002) (2, 4.30908209546032590000e-002) (3, -3.09448246798638140000e-003) (4, -4.37866217462214990000e-002) (5, 7.41394054016382140000e-002) (6, 5.84716805587959240000e-002) (7, 1.40991213038432760000e-002) (8, -4.74914557858028270000e-002) (9, 2.79357914319007250000e-002) (10, -8.99658216530951900000e-002) (11, 9.74853530151449380000e-002) (12, 5.72570809313219800000e-002) (13, 4.15100103841723470000e-002) (14, -9.18762220721873750000e-002) (15, -7.99682629103699580000e-002) (16, -6.04248055878997550000e-002) (17, -5.64392098253847510000e-002) (18, -4.15039068684563970000e-002) (19, 8.87817396042009930000e-002) (20, -9.46655287543762820000e-002) (21, -6.47094736204962830000e-002) (22, 1.00708009313166260000e-003) (23, 5.38085945518105290000e-002) (24, 9.54650893131656630000e-002) (0, 2.05993655413294620000e-002) (1, 4.40124518277116290000e-002) (2, 2.99804691967437980000e-002) (3, 4.55261237252670980000e-002) (4, -4.77355964144408060000e-002) (5, 5.07263191152560470000e-002) (6, -3.70788579743930310000e-002) (7, -8.71093762980308380000e-002) (8, -2.45300296624009210000e-002) (9, 3.37585454249165200000e-002) (10, 7.03308115948857450000e-002) (11, -2.22656253317836670000e-002) (12, -5.02380378579800890000e-002) (13, 1.41540529452868210000e-002) (14, -1.00158692898730810000e-002) (15, -7.58728038649678640000e-002) (16, -6.91467295459915480000e-002) (17, 1.08642579743900570000e-003) (18, 6.55639658207292090000e-002) (19, -9.25598158323737150000e-002) (20, -6.64062509895302360000e-003) (21, 4.85107429103663890000e-002) (22, 1.67846682188610430000e-003) (23, -8.56811536204986620000e-002) (24, -2.41333011408642050000e-002) (0, -5.49438484749771310000e-002) (1, 1.92687991152524770000e-002) (2, 2.15087893830059330000e-002) (3, -7.05017100349323300000e-002) (4, -6.66503916181682140000e-003) (5, -5.73730477299250200000e-002) (6, 5.97412118277134140000e-002) (7, -4.87854011175841150000e-002) (8, 3.49670415366745150000e-002) (9, -5.06652839580965520000e-002) (10, 8.89526380442475780000e-002) (11, -1.68273928288726890000e-002) (12, -2.24365237718302520000e-002) (13, 1.43188478696174570000e-002) (14, -8.91113294528622650000e-003) (15, 5.93383797904607490000e-002) (16, -2.01049807683375550000e-002) (17, -2.06787112456368050000e-002) (18, -1.32812501979060470000e-002) (19, -1.94213870081512140000e-002) (20, -4.84680183003547430000e-002) (21, 7.90039074272499420000e-002) (22, -1.82434084749729660000e-002) (23, 9.95849624214315550000e-002) (24, -7.67944347380762340000e-002) (0, 5.49011238649654840000e-002) (1, -4.95300300349299500000e-002) (2, -3.25317387660106760000e-003) (3, -5.59631355995406920000e-002) (4, 8.86047376484384590000e-002) (5, 6.11145028638020450000e-002) (6, -7.16491709895308300000e-002) (7, 6.21032724097858590000e-002) (8, 8.52417004889503000000e-002) (9, -4.96337898021010910000e-002) (10, 2.82348637019822490000e-002) (11, 4.43298346449410020000e-002) (12, -6.13586434924400240000e-002) (13, 5.28198250058267150000e-002) (14, -5.57434090337665110000e-002) (15, -7.83691417927911970000e-003) (16, -9.05944837718379860000e-002) (17, -8.14819348079254270000e-003) (18, 9.07470716647367230000e-002) (19, -9.08264173690440660000e-002) (20, -5.29052742258500070000e-002) (21, -6.19628915483190210000e-002) (22, -1.72729494761370010000e-003) (23, -2.31506351105963400000e-002) (24, 8.77868665425012300000e-002) (0, -5.85815438416830150000e-002) (1, -5.81726082887144000000e-002) (2, -5.12695320139755490000e-003) (3, -4.16564947613551340000e-002) (4, -5.62072762281786710000e-002) (5, -7.10937510593794290000e-002) (6, -5.79467782072242700000e-002) (7, -8.15124523865051740000e-002) (8, 7.74047863096711810000e-002) (9, 2.84912113620521270000e-002) (10, -8.57116711990784100000e-002) (11, 7.20764170896472930000e-002) (12, -4.38171393248012460000e-002) (13, -7.76489269383091600000e-002) (14, -4.37011725261982060000e-003) (15, 7.87414562514641150000e-002) (16, -3.42163091036127300000e-002) (17, 5.98754891734643020000e-002) (18, -8.11096203492525090000e-002) (19, -2.82592777648460470000e-003) (20, 5.87280282188658020000e-002) (21, 9.76196303608958260000e-002) (22, 7.19055186496007080000e-002) (23, 9.13085951106040740000e-002) (24, 6.09069833294597630000e-002) (0, 4.91943366705527300000e-003) (1, -9.42321791385438700000e-002) (2, 3.06335453783503910000e-002) (3, -4.40673834691551750000e-003) (4, -8.32702649126986220000e-002) (5, -9.87487807683464780000e-002) (6, 1.58935549243324200000e-002) (7, 3.13293461699686300000e-002) (8, -8.49914563445963720000e-002) (9, -5.03173835622874320000e-002) (10, 6.14624032596111650000e-002) (11, -4.01062017695039690000e-002) (12, 1.98486331082676770000e-002) (13, -9.54284682188699660000e-002) (14, -3.44543462165347590000e-002) (15, 1.05651857043085330000e-002) (16, -2.83630375320171880000e-002) (17, -3.99108892665935850000e-002) (18, -4.02832037252665030000e-004) (19, -9.30053724796380270000e-002) (20, 8.54492200232925820000e-002) (21, 1.28601076135055340000e-002) (22, 4.80590827473861280000e-002) (23, -2.71179203259634960000e-002) (24, -4.09667974854528440000e-002) (0, 6.31469735972132180000e-002) (1, 2.97973637252653130000e-002) (2, -7.24487315483202110000e-003) (3, -8.45397961816161110000e-002) (4, 1.17370607217708310000e-002) (5, -6.76086435855722810000e-002) (6, 3.40637212107139930000e-002) (7, -3.81347661932522900000e-002) (8, -9.12048353434329330000e-002) (9, 9.05700697089741880000e-002) (10, -6.31591806286451170000e-002) (11, -5.45715340163042130000e-002) (12, 1.09436036786974000000e-002) (13, 4.00573736437763730000e-002) (14, 7.72094738067607980000e-002) (15, 8.78662122468085730000e-002) (16, -9.72595229336548070000e-002) (17, -2.19543460302702440000e-002) (18, -8.90197767171230230000e-002) (19, -2.03125003026798370000e-002) (20, 3.89160162048938220000e-002) (21, -3.84460454947657130000e-002) (22, -9.64782729220132750000e-002) (23, 1.54907228870797550000e-002) (24, -3.64807134342299830000e-002) (0, 7.49206554132797460000e-002) (1, -4.77294928987248570000e-002) (2, -4.85107429103663890000e-002) (3, -3.77014165774198770000e-002) (4, 9.77355971594988660000e-002) (5, -9.19555677764947180000e-002) (6, -3.34167485448233490000e-002) (7, 4.50439459837070900000e-003) (8, -9.56665053317919960000e-002) (9, -9.85656752968679940000e-002) (10, -9.18273939464597790000e-002) (11, -6.95434580675282630000e-002) (12, -7.37426768801014990000e-002) (13, 8.05114758090894610000e-002) (14, -9.59777846333054190000e-002) (15, -5.90332040046632760000e-002) (16, -9.12109388591488820000e-002) (17, 6.61315927823125090000e-002) (18, 2.13317874272433980000e-002) (19, -5.49499519906930800000e-002) (20, 9.29443373224785320000e-002) (21, -6.89331064959333160000e-002) (22, -4.56115729452903910000e-002) (23, 2.20642093131573350000e-002) (24, 5.40527351804485080000e-002) (0, 9.19799818393585160000e-003) (1, 2.19421389988383450000e-002) (2, -4.54772955995395020000e-002) (3, -7.17590342724179210000e-002) (4, -5.89294442374921350000e-002) (5, 5.56152352037315720000e-002) (6, 8.79150403725361680000e-002) (7, 5.80688485215432590000e-002) (8, 6.19750985797509200000e-002) (9, 6.05529794179346940000e-002) (10, 7.36633311757941560000e-002) (11, -1.14379884516893070000e-002) (12, -6.11022958323701460000e-002) (13, 2.96386723166506270000e-002) (14, -4.83947761117633490000e-002) (15, 4.48547369965126560000e-002) (16, -3.74511724330659490000e-002) (17, -7.58667003492519140000e-003) (18, -7.18811045867369100000e-002) (19, 2.27600101047755740000e-002) (20, 6.89697275902290130000e-004) (21, 8.00659191618251500000e-002) (22, -9.37744154598476600000e-002) (23, 2.34252933178140670000e-002) (24, 1.90612795809101950000e-002) (0, 8.76464856810343920000e-002) (1, -7.60742198835941960000e-002) (2, -3.65295415599575790000e-002) (3, 7.61413585564696400000e-002) (4, -8.51745618160748560000e-002) (5, -4.30908209546032590000e-002) (6, -8.32519543655507730000e-003) (7, -2.03247073341117360000e-003) (8, -3.36059575320177830000e-002) (9, 4.20593267986077990000e-002) (10, -5.64147957625209530000e-002) (11, -6.07055673108334300000e-002) (12, 9.38110365541433570000e-002) (13, -2.21496585331806270000e-002) (14, 6.52954111292274320000e-002) (15, -6.26647958556532100000e-002) (16, -4.10156256111804400000e-002) (17, -4.20471197671759000000e-002) (18, -6.24206552270152320000e-002) (19, 6.43188486146755170000e-002) (20, 1.57470705471496330000e-003) (21, -5.66406258440110830000e-003) (22, 3.16894535972096490000e-002) (23, 8.51318372060632100000e-002) (24, 9.10827650291139430000e-002) (0, 8.60107434691599340000e-002) (1, 2.80029301047761690000e-002) (2, 2.62817386728784190000e-002) (3, 4.49340827008199990000e-002) (4, -1.02111817927834640000e-002) (5, -7.11364756693910750000e-002) (6, -3.75305181373732920000e-002) (7, 9.38415541327231040000e-002) (8, -5.08178718509952890000e-002) (9, 9.68078627706745460000e-002) (10, 2.69348148544850120000e-002) (11, 7.56652843306255820000e-002) (12, 3.78051763445910180000e-002) (13, 4.93591315948833650000e-002) (14, -4.80651862631020780000e-002) (15, 3.90625005820766090000e-002) (16, 7.34558116414518740000e-002) (17, -5.81848153201462990000e-002) (18, -5.45043953434287690000e-002) (19, 3.81469732246841890000e-002) (20, -4.08447271711338540000e-002) (21, -3.08898930384202690000e-002) (22, 1.08215333643784110000e-002) (23, -6.28662118742795430000e-004) (24, 7.39746104773075790000e-003) (0, 1.80847170663582800000e-002) (1, -8.55651868218956220000e-002) (2, 4.20043951571642540000e-002) (3, -9.61608901047839030000e-002) (4, 1.39770509895242870000e-003) (5, -9.05395521303944410000e-002) (6, -6.66748056810320120000e-002) (7, 6.66992197438958100000e-002) (8, 4.33959967404007330000e-003) (9, 2.02392581140884430000e-002) (10, 5.98022469848729090000e-002) (11, 5.81115731315549060000e-002) (12, 7.57446300349329250000e-002) (13, -5.53588875436616950000e-003) (14, -4.37622076833577010000e-003) (15, 3.68652349243348000000e-003) (16, -5.63964852153731040000e-003) (17, -7.07885752735819550000e-002) (18, 4.96582038649648890000e-002) (19, 7.65136730151425580000e-002) (20, 4.17968756228219720000e-002) (21, 7.70141613038504150000e-002) (22, 7.22290049825460300000e-002) (23, 1.87988284051243680000e-003) (24, -8.65905774621751330000e-002) (0, 3.82507329918553300000e-002) (1, -9.70886244936082220000e-002) (2, 3.89099126891778720000e-002) (3, -1.73339846332964950000e-003) (4, 4.61547858440098930000e-002) (5, -5.94543465890637890000e-002) (6, -4.51660162980260790000e-003) (7, -4.03930670081535940000e-002) (8, -4.93835456577471630000e-002) (9, 1.68029787660088910000e-002) (10, -6.74926767869692410000e-002) (11, 4.68139655413324360000e-002) (12, 7.08007823050138540000e-003) (13, 5.45471199534404150000e-002) (14, -8.60351575320237320000e-002) (15, 7.03735362048973910000e-002) (16, 7.67395030966326890000e-002) (17, 9.21081556693934540000e-002) (18, 5.88928231431964380000e-002) (19, 7.09411631664806920000e-002) (20, -5.56213387194475220000e-002) (21, -4.50378424679911400000e-002) (22, 5.15441902211932760000e-002) (23, 1.38000490337617520000e-002) (24, -4.00390630966285240000e-002) (0, -4.42077643306220120000e-002) (1, -3.39416508963950040000e-002) (2, -6.00524911292268370000e-002) (3, -8.96423353201498680000e-002) (4, -9.55810561117687030000e-002) (5, -3.82446294761393800000e-002) (6, -9.49035658672983120000e-002) (7, -7.26379405355146450000e-002) (8, 8.67309583236419710000e-003) (9, -9.45495619557732430000e-002) (10, -6.22131356926729500000e-002) (11, -6.16943368568172450000e-002) (12, -5.24047859371421510000e-002) (13, 7.69531261466909200000e-002) (14, -5.20568855413330310000e-002) (15, 6.55029306635697140000e-002) (16, 9.80896010710239350000e-002) (17, 1.39892580209561860000e-002) (18, 1.69982912689192740000e-002) (19, 8.07617199534433890000e-002) (20, -3.60717778812613690000e-003) (21, 5.28686531315543110000e-002) (22, 9.58251967404066820000e-004) (23, -7.87719738300438620000e-002) (24, 1.55334474970914020000e-002) (0, 2.10876467986054190000e-002) (1, 7.76000988125815640000e-002) (2, -2.71850589988389400000e-002) (3, -5.99365243306237970000e-002) (4, 3.81225591618203910000e-002) (5, -3.09509281955797630000e-002) (6, -7.25585948312073010000e-002) (7, 1.93176272409800730000e-002) (8, 8.07006847962838950000e-002) (9, 7.10021983236401870000e-002) (10, -7.96142589988448890000e-002) (11, -1.95983889639137490000e-002) (12, 6.87561045401707820000e-002) (13, 1.98547366239836260000e-002) (14, -4.60998542025663480000e-002) (15, -1.77612307334129580000e-002) (16, -7.16491709895308300000e-002) (17, -7.10754405122315800000e-002) (18, -8.65112317578677900000e-002) (19, -8.13598644936064370000e-003) (20, -1.22131349476148900000e-002) (21, 2.51403812339958680000e-002) (22, -1.70410158789309210000e-002) (23, -3.57727056111798450000e-002) (24, -3.68286138300391030000e-002) (0, -8.27148449825472200000e-002) (1, -3.54553227939504720000e-002) (2, -9.32312025611281570000e-002) (3, 8.97033704773093630000e-002) (4, 2.71972660302708390000e-002) (5, -8.96057142258541720000e-002) (6, 1.00036622584411820000e-002) (7, 5.49011238649654840000e-002) (8, 1.50939943655430400000e-002) (9, -2.83813480791650360000e-002) (10, -7.46032725960503740000e-002) (11, 9.00207532945387360000e-002) (12, -6.97387705704386460000e-002) (13, 7.11608897322548730000e-002) (14, -2.82775883119938950000e-002) (15, 7.59582530849911560000e-002) (16, -8.15917980908125170000e-002) (17, -9.32556166239919550000e-002) (18, -4.87976081490160140000e-002) (19, 1.98120120139719800000e-002) (20, 1.69128420488959820000e-002) (21, 9.01733411874374720000e-002) (22, -4.33349615832412380000e-002) (23, -4.15527349941839930000e-002) (24, 6.91894541560031940000e-002) (0, -7.08190928521617020000e-002) (1, 5.09399421653142780000e-002) (2, 4.52209479394696250000e-002) (3, 8.94775403958192330000e-002) (4, 5.81176766472708550000e-002) (5, -1.58691408614686220000e-004) (6, 7.61962901979131860000e-002) (7, -9.07653822118845710000e-002) (8, 2.37060550407477420000e-002) (9, -6.01806649592617760000e-002) (10, 1.20178224447045070000e-002) (11, 3.64440923399342860000e-002) (12, 3.21716313387696570000e-002) (13, -3.82995611175829250000e-002) (14, -4.82116706402848650000e-002) (15, -4.09301763911571470000e-002) (16, -3.61206060069889650000e-002) (17, 9.16748060535610420000e-002) (18, -8.48876965774252310000e-002) (19, 2.38647464493624280000e-002) (20, 6.18530282654319310000e-002) (21, 5.07568366938357940000e-002) (22, 8.85986341327225090000e-002) (23, -7.81311046798691680000e-002) (24, 3.47900395809119800000e-004) (0, 7.41088878230584670000e-002) (1, 9.30908216996613190000e-002) (2, -8.82446302211974400000e-002) (3, -6.02417001164212710000e-002) (4, -2.87536625378379540000e-002) (5, -7.21862803725343840000e-002) (6, 1.23474122933657780000e-002) (7, 7.41088878230584670000e-002) (8, -9.13452162048997710000e-002) (9, -5.22521980442434140000e-002) (10, 9.55078139231773090000e-002) (11, 7.73498546682276360000e-002) (12, 9.57946791618269340000e-002) (13, -6.95373545518123140000e-002) (14, -8.93188489872045470000e-002) (15, -4.52087409080377260000e-002) (16, 5.59509285681087930000e-002) (17, -1.13830568102457620000e-002) (18, -2.76916508032627460000e-002) (19, -9.42382826542598200000e-002) (20, 6.30676278929058750000e-002) (21, -1.55395510128073510000e-002) (22, -5.85937508731149140000e-002) (23, -9.60449233061808630000e-002) (24, 2.58544925727619560000e-002) (0, 2.50244144353928280000e-003) (1, 3.25134282188628280000e-002) (2, 1.53808596041926650000e-003) (3, 4.15039068684563970000e-004) (4, -6.33544931315555000000e-002) (5, 7.73193370896478880000e-002) (6, 6.33544931315555000000e-002) (7, 1.26281740162994540000e-002) (8, -5.19836433527416380000e-002) (9, -2.39013675436581250000e-002) (10, -6.25427255413342210000e-002) (11, -2.84423832363245310000e-002) (12, 4.97802741792838790000e-002) (13, -3.16040043771863570000e-002) (14, -3.17749028172329420000e-002) (15, -4.48974616065243030000e-002) (16, -2.49023441210738380000e-002) (17, 5.40161140861528110000e-002) (18, 5.82946786030333900000e-002) (19, 4.92126472177005780000e-002) (20, -1.53930666356245640000e-002) (21, -4.31518561117627540000e-003) (22, -1.44287111525045470000e-002) (23, 2.18078616530874570000e-002) (24, -3.04565434225878560000e-002) (0, 3.46313481722972940000e-002) (1, -1.84082033993036020000e-002) (2, 1.27685548777662920000e-002) (3, -9.31274427939570160000e-002) (4, -4.97680671478519800000e-002) (5, 7.74292003725349790000e-002) (6, -7.88513195343512050000e-002) (7, 2.25585940861492420000e-002) (8, -4.86450202561172770000e-003) (9, 2.34558108963938140000e-002) (10, 7.09350596507647420000e-002) (11, -8.06396496391244000000e-002) (12, -6.30371103143261280000e-002) (13, 8.91723646100217590000e-002) (14, 3.65539556228213770000e-002) (15, 2.52685550640308070000e-002) (16, -6.20727548312061120000e-002) (17, -5.06530769266646530000e-002) (18, 9.39331068684623460000e-003) (19, 1.89270022351593070000e-002) (20, -9.63989272177059320000e-002) (21, -3.72314458672917680000e-002) (22, -1.33789064493612390000e-002) (23, -1.17431642374867810000e-002) (24, 3.20373539930187690000e-002) (0, 4.98168952735795760000e-002) (1, -3.65356450756735280000e-002) (2, -2.14782718044261860000e-002) (3, -5.41992195576312950000e-003) (4, 7.50854503376103820000e-002) (5, 1.02966310128067560000e-002) (6, 8.60961926891832260000e-002) (7, 7.95288097788215960000e-002) (8, -5.86425789988425090000e-002) (9, 1.57531740628655830000e-002) (10, -4.57824713853369760000e-002) (11, -7.00561533876680190000e-002) (12, -9.88464370198016700000e-002) (13, -2.29736331548338060000e-002) (14, 2.68859867287574160000e-002) (15, 6.89086924330695180000e-003) (16, 9.21203627008253530000e-002) (17, 1.88171389522722170000e-002) (18, 1.72668459604210510000e-002) (19, 9.24682630966344730000e-003) (20, 2.45361331781168700000e-003) (21, 2.18933108731107500000e-002) (22, -5.32348640745112790000e-002) (23, -1.85241701979066420000e-002) (24, 7.27233897555379370000e-002) (0, 4.28100592316695840000e-002) (1, 1.10900880558801870000e-002) (2, -5.95275887776551830000e-002) (3, -5.97961434691569590000e-002) (4, 5.79223641443604720000e-003) (5, 2.94677738766040420000e-002) (6, -4.71252448428458590000e-002) (7, -6.79443369499495020000e-002) (8, 4.81628425145572690000e-002) (9, -6.66503916181682140000e-002) (10, 9.39331068684623460000e-002) (11, -8.63830579278328510000e-002) (12, 5.67626961583300730000e-004) (13, 5.08300788824271880000e-002) (14, 1.93420413038438710000e-002) (15, 9.79980483352846930000e-002) (16, -1.68090822817248410000e-002) (17, 4.29626471245683210000e-002) (18, -1.88293459837041150000e-002) (19, -7.67761241909283850000e-002) (20, -7.99560558789380590000e-004) (21, 4.83459479860357530000e-002) (22, 1.91955569266610840000e-002) (23, 3.27148442374891600000e-003) (24, -9.32006849825484100000e-002) (0, 9.21203627008253530000e-002) (1, -4.11254888940675300000e-002) (2, 5.91186532246865680000e-002) (3, 5.09399421653142780000e-002) (4, -8.43200696158419300000e-002) (5, -5.27893074272469680000e-002) (6, 3.61694341327165600000e-002) (7, -6.38732919674112050000e-002) (8, 8.33435071012900150000e-002) (9, -4.22241217229384350000e-002) (10, -8.57543958090900560000e-002) (11, 2.14538577415623880000e-002) (12, -7.77893077997759970000e-002) (13, -3.93676763678740830000e-003) (14, 1.63696291501764790000e-002) (15, 1.91772463795132350000e-002) (16, -4.85107429103663890000e-002) (17, 3.65661626542532760000e-002) (18, -7.73010265425000400000e-002) (19, -2.19848636088499920000e-002) (20, -4.24621588358604640000e-002) (21, 2.26867679161841810000e-002) (22, -4.29687506402842700000e-003) (23, -6.74865732712532920000e-002) (24, -2.91931156693863160000e-002) (0, -3.92028814435434470000e-002) (1, 2.29858401862657050000e-002) (2, -3.66210942956968210000e-004) (3, -9.89440932712568610000e-002) (4, 3.97155767636832020000e-002) (5, -1.60827639115268540000e-002) (6, -9.61181654947722560000e-002) (7, 8.69506848894161520000e-002) (8, 6.78100596041986140000e-003) (9, 4.63134772526245800000e-002) (10, 1.22070314318989400000e-002) (11, -8.35571301513482470000e-002) (12, -6.81274424214279860000e-002) (13, -5.06591804423806020000e-004) (14, 5.98815926891802520000e-002) (15, -2.59826664027968950000e-002) (16, -9.49096693830142610000e-003) (17, 2.98706059138567070000e-002) (18, 4.86999518975608230000e-002) (19, 7.12219248894143670000e-002) (20, -2.60620121071042380000e-003) (21, 4.54040534109481090000e-002) (22, 9.86328139697434380000e-002) (23, 1.65771486845187610000e-002) (24, -7.84484874970985400000e-002) (0, 5.51147469150237160000e-002) (1, -6.57043466821960460000e-002) (2, 8.12683117578671950000e-002) (3, -8.55957044004753700000e-002) (4, 9.90600600698599010000e-003) (5, -1.25915529220037570000e-002) (6, 1.67114260302696490000e-002) (7, 8.19580090337694860000e-002) (8, 1.10290528987206930000e-002) (9, -3.47290044237524850000e-003) (10, -1.96289065424934960000e-002) (11, -6.76330576484360790000e-002) (12, 9.23034681723038370000e-002) (13, 8.53027356461097950000e-002) (14, 2.60253910128085410000e-002) (15, -6.98242197904619390000e-002) (16, 8.24523938067613930000e-002) (17, 4.69970710128109200000e-004) (18, -8.52783215832459970000e-002) (19, 8.84338392083918730000e-002) (20, -4.62463385797491360000e-002) (21, 9.08996595576354590000e-002) (22, -9.73022475436664540000e-002) (23, 2.99438481024481010000e-002) (24, -3.67004400000041640000e-002) (0, -9.11315931548415390000e-002) (1, 6.24877938998906760000e-002) (2, 4.89074714319031050000e-002) (3, -6.97021494761429490000e-003) (4, 1.48986818626326570000e-002) (5, -6.48803720605428680000e-003) (6, 4.21142584400513440000e-003) (7, -5.10864265424970650000e-003) (8, 6.73034677997748080000e-002) (9, 7.83264171827795510000e-002) (10, -2.43896488009340830000e-002) (11, -5.26977546915077260000e-002) (12, -2.21984866589082230000e-002) (13, -5.91247567404025180000e-002) (14, -8.59619153434323380000e-002) (15, 2.92114262165341640000e-002) (16, 1.43615724796291030000e-002) (17, 6.29028329685752400000e-002) (18, 1.73156740861486470000e-002) (19, 1.79443362048914420000e-002) (20, 3.25622563445904230000e-002) (21, 1.48498537369050610000e-002) (22, 6.24938974156066250000e-002) (23, 1.71936037718296570000e-002) (24, -8.32397473341188740000e-002) (0, 5.74401864028004640000e-002) (1, 2.61230472642637320000e-002) (2, -7.87292492200322160000e-002) (3, 1.22192384633308390000e-002) (4, -2.97912602095493640000e-002) (5, 2.35778812107128030000e-002) (6, -7.79968273341182790000e-002) (7, 2.95410160651954360000e-002) (8, 6.32507333643843590000e-002) (9, 9.88952651455292650000e-002) (10, 6.43676767404031120000e-002) (11, 2.58789066356257540000e-003) (12, 2.84301762048926320000e-002) (13, 9.61181654947722560000e-002) (14, -4.26818854016346450000e-002) (15, -1.88049319208403180000e-002) (16, -1.37451173923182070000e-002) (17, -5.63476570896455090000e-002) (18, 4.58374030267805210000e-002) (19, 3.98864752037297880000e-002) (20, -1.52465822584417770000e-002) (21, -1.73278811175805460000e-002) (22, -4.93835456577471630000e-002) (23, 8.38378918742819220000e-002) (24, -9.34875502211980350000e-002) (0, 7.09777842607763890000e-002) (1, 8.15795910593806180000e-002) (2, 3.34045415133914500000e-002) (3, 4.02038580209591600000e-002) (4, 9.34448256111863880000e-002) (5, 3.14392094528557210000e-002) (6, 6.83532725029181170000e-002) (7, 7.27783213969814820000e-002) (8, 1.04125978114097960000e-002) (9, -4.43847662863845470000e-002) (10, -8.68347180908131120000e-002) (11, -4.13696295227055090000e-002) (12, 7.51831065890655740000e-002) (13, 4.46960455878979700000e-002) (14, 4.45617682421470820000e-002) (15, 2.19909671245659410000e-002) (16, -4.81018073573977740000e-002) (17, 9.58068861932588330000e-002) (18, 2.57568363213067640000e-003) (19, -5.12756355296914990000e-002) (20, -3.49060063795150200000e-002) (21, 8.89282239813837800000e-002) (22, 8.63708508964009520000e-002) (23, 2.38525394179305290000e-002) (24, 1.21337892433075470000e-002) (0, -2.53173831897584020000e-002) (1, 1.60766603958109040000e-002) (2, 7.10510264493677820000e-002) (3, -3.02551274039615240000e-002) (4, -2.04040530384190790000e-002) (5, 4.19189459371409610000e-002) (6, 5.03173835622874320000e-002) (7, -7.39807139930235280000e-002) (8, 3.52172856810284430000e-002) (9, 8.18176281723026480000e-002) (10, -2.99011234924364540000e-002) (11, 6.89697275902290130000e-002) (12, 3.73596196973267070000e-002) (13, -3.12316899185134390000e-002) (14, 7.01538096391232100000e-002) (15, -3.69567876600740420000e-002) (16, -5.84167489173523790000e-002) (17, -1.07177735972072700000e-002) (18, -6.87011728987272360000e-002) (19, 4.47631842607734140000e-002) (20, 1.36108400465673180000e-003) (21, -5.98754891734643020000e-003) (22, 6.84509287543733080000e-002) (23, 6.87072764144431860000e-002) (24, -4.50378424679911400000e-002) (0, 6.19750985797509200000e-002) (1, 6.30371103143261280000e-002) (2, -6.47827158090876760000e-002) (3, 6.75048838184011400000e-002) (4, -5.24902351571654440000e-004) (5, -8.82568372526293390000e-003) (6, 3.09082035855681170000e-002) (7, 3.42956548079200730000e-002) (8, 5.50720223050120690000e-002) (9, 3.72924810244512630000e-003) (10, -8.66088880093229820000e-002) (11, 5.17456062398196080000e-002) (12, -6.81701670314396320000e-002) (13, 1.46728517811425260000e-002) (14, 7.13562022351652560000e-002) (15, 6.21093759255018090000e-002) (16, 7.80456554598458750000e-002) (17, -4.61914069383055900000e-002) (18, -8.74023450523964130000e-003) (19, 7.83508312456433490000e-002) (20, -6.22131356926729500000e-002) (21, -5.97595223748612630000e-002) (22, 6.19873056111828190000e-002) (23, -4.74243171129273830000e-003) (24, -5.76232918742789480000e-002) (0, 3.27880864260805540000e-002) (1, -5.14282234225902360000e-002) (2, -6.79321299185176030000e-003) (3, -7.57629405820807730000e-002) (4, -8.63952649592647500000e-002) (5, -3.36364751105975300000e-002) (6, -5.92895516647331530000e-002) (7, -6.58386240279469350000e-002) (8, -3.87329107334153380000e-002) (9, 8.67980969965174150000e-002) (10, -9.79187026309773500000e-002) (11, -5.65917977182834870000e-002) (12, 6.95068369732325660000e-002) (13, -9.39208998370304470000e-002) (14, -4.36401373690387120000e-002) (15, 1.17858888474984270000e-002) (16, 6.79870615599611480000e-002) (17, 8.00170910360975540000e-003) (18, 3.39050298020993070000e-002) (19, 3.01513676367903830000e-003) (20, -9.88037124097900230000e-002) (21, 5.21545417927882230000e-002) (22, -2.32421878463355820000e-002) (23, 2.85949711292232680000e-002) (24, 2.18444827473831540000e-002) (25, 1.87744143422605700000e-002) (26, -7.09228526193328430000e-002) (27, -9.85717788125839430000e-002) (28, -4.50378424679911400000e-002) (29, -5.85266122002394700000e-002) (30, 6.39404306402866500000e-002) (31, -1.94885256810266580000e-002) (32, 8.89282239813837800000e-002) (33, -4.08691412339976520000e-002) (34, -4.72900397671764950000e-002) (35, 8.78234876367969260000e-002) (36, 4.97070319906924850000e-002) (37, 1.81640627706656230000e-002) (38, -1.68090822817248410000e-002) (39, 7.87536632828960140000e-002) (40, -8.54492200232925820000e-002) (41, 5.64147957625209530000e-002) (42, -6.70654306868527780000e-002) (43, -5.26733406286439280000e-002) (44, 2.14172366472666910000e-002) (45, 0.00000000000000000000e+000) (46, -9.61914076833636500000e-002) (47, 4.74182135972114340000e-002) (48, 3.02795414668253220000e-002) (49, 4.19921881257323550000e-003) (50, -7.58178722235243190000e-002) (51, -8.87939466356328920000e-002) (52, -7.26318370197986950000e-003) (53, 6.98303233061778880000e-002) (54, 2.49145511525057370000e-002) (55, 4.61914069383055900000e-002) (56, 8.59741223748642370000e-002) (57, 6.62048349709039030000e-002) (58, 9.54467787660178150000e-002) (59, -8.02612316647355330000e-003) (60, -3.25012211874309290000e-002) (61, 9.19799818393585160000e-002) (62, -7.37915050058290940000e-002) (63, 1.79931643306190380000e-002) (64, 6.79931650756770980000e-003) (65, 5.19409187427299910000e-003) (66, -5.64086922468050030000e-002) (67, -5.63964852153731040000e-002) (68, -4.97741706635679290000e-002) (69, 5.36376961117639440000e-002) (70, 4.37744147147896000000e-002) (71, 6.16149911525099010000e-002) (72, 7.52807628405207650000e-002) (25, 3.68957525029145470000e-002) (26, 3.16040043771863570000e-002) (27, 4.66308600698539520000e-002) (28, -9.31396498253889150000e-003) (29, -6.87255869615910340000e-002) (30, 7.08374033993095510000e-002) (31, 2.93884281722966990000e-002) (32, -6.16821298253853460000e-002) (33, 8.88061536670647910000e-003) (34, 5.19104011641502440000e-002) (35, -8.16528332479720120000e-002) (36, -4.65820319441263560000e-002) (37, -1.79443362048914420000e-002) (38, 8.35754406984960950000e-002) (39, -5.01525886379567960000e-002) (40, -6.07788094994248240000e-002) (41, 4.49829108265475950000e-003) (42, 1.46179201396989810000e-002) (43, -5.20507820256170820000e-002) (44, 1.22680665890584350000e-002) (45, 6.02355966007053210000e-002) (46, -8.13598644936064370000e-003) (47, 7.53723155762600070000e-002) (48, -2.52624515483148570000e-002) (49, -2.82287601862663000000e-002) (50, -3.91845708963955990000e-002) (51, -4.33349615832412380000e-002) (52, 6.99096690104852310000e-002) (53, -4.14184576484331050000e-002) (54, -8.49182141560049790000e-002) (55, -4.51354987194463320000e-002) (56, 7.71057140395896570000e-002) (57, -2.26989749476160800000e-002) (58, 8.72802747380774240000e-004) (59, 8.29650891269011480000e-002) (60, -9.76257338766117750000e-002) (61, -2.52441410011670090000e-002) (62, 8.28857434225938050000e-002) (63, -6.86218271944198930000e-002) (64, -7.89489757858063970000e-002) (65, 8.51684583003589070000e-002) (66, 7.76916515483208060000e-002) (67, 9.26696791152608060000e-002) (68, 2.86010746449392170000e-002) (69, -9.72656264493707570000e-002) (70, 6.09985360651990050000e-002) (71, 6.47949228405195750000e-002) (72, 5.58471688009376520000e-002) (25, 6.08520516880162180000e-002) (26, 5.49926766007047260000e-002) (27, -8.58764661234090450000e-002) (28, -9.50500502444810990000e-002) (29, 4.92248542491324770000e-002) (30, -9.80224623981484910000e-002) (31, 7.94616711059461520000e-002) (32, 6.23168954598440910000e-002) (33, -9.98779311757971300000e-002) (34, -6.93847666589135770000e-002) (35, -1.64184572759040750000e-003) (36, 4.47387701979096160000e-002) (37, 7.50427257275987360000e-002) (38, 2.09960940628661770000e-002) (39, -6.31225595343494210000e-002) (40, 3.49121098952309690000e-002) (41, -1.70349123632149710000e-002) (42, -2.52258304540191600000e-002) (43, -9.57641615832471870000e-002) (44, 6.27746591385403010000e-002) (45, 6.15478524796344570000e-002) (46, -3.35693364377220860000e-003) (47, 3.33251958090841070000e-002) (48, -1.13159181373703180000e-002) (49, 5.24597175785856960000e-002) (50, -6.62841806752112460000e-003) (51, -9.13757337834795180000e-002) (52, 4.48852545750924040000e-002) (53, 2.04467776484307250000e-003) (54, 9.66857924563555570000e-002) (55, 2.25280765075694940000e-002) (56, -8.63037122235255080000e-003) (57, 1.87133791851010760000e-002) (58, -8.37646496856905290000e-002) (59, 4.15222174156042460000e-002) (60, 4.24560553201445150000e-002) (61, -8.18359387194504960000e-002) (62, -7.11425791851070240000e-002) (63, 6.33117685215438540000e-002) (64, 2.03735354598393310000e-002) (65, -1.22436525261946370000e-002) (66, -8.95507825844106260000e-002) (67, -5.37475593946510340000e-002) (68, 9.19494642607787680000e-002) (69, 1.30004884749723710000e-003) (70, 1.66442873573942050000e-002) (71, 9.22729505937240900000e-002) (72, -5.51574715250353620000e-002) (25, -8.45520032130480100000e-002) (26, 1.85913088707820860000e-002) (27, -3.54125981839388260000e-002) (28, -4.05639654482001790000e-002) (29, -2.09899905471502280000e-002) (30, -9.99511733643885240000e-002) (31, -7.85888683585653780000e-002) (32, 3.26782231431934630000e-002) (33, 8.63769544121169020000e-002) (34, -7.79541027241066330000e-002) (35, 4.69238288242195270000e-002) (36, 1.01440431199080190000e-002) (37, -9.36096205355170240000e-002) (38, -3.86108404190963480000e-002) (39, -3.92028814435434470000e-002) (40, -1.74438479161835860000e-002) (41, 1.77795412805608070000e-002) (42, 2.92602543422617600000e-002) (43, 8.74267591152602110000e-002) (44, 2.97241215366739200000e-003) (45, -1.74621584633314340000e-002) (46, -2.39196780908059740000e-002) (47, -3.37646489406324690000e-002) (48, 8.09814465192175700000e-002) (49, -1.15661622817242460000e-002) (50, 8.90441907799868200000e-002) (51, 8.42041028172388910000e-002) (52, 1.00341798370209290000e-002) (53, -8.09326183934899750000e-003) (54, -1.15966798603039930000e-002) (55, 1.19201661932493150000e-002) (56, 8.42956555529781330000e-002) (57, -7.41577159487860630000e-003) (58, -7.11425791851070240000e-002) (59, -7.55737315948863400000e-002) (60, 6.11633309895296410000e-002) (61, -2.92663578579777100000e-002) (62, -8.77136243539098360000e-002) (63, 8.80615247497189560000e-002) (64, 2.57324222584429660000e-002) (65, -8.11828625378439030000e-002) (66, -8.19458020023375870000e-002) (67, -5.46264656577477580000e-003) (68, -8.65112317578677900000e-002) (69, 9.84497084982649540000e-002) (70, 5.71105965541391920000e-002) (71, -7.64038097322554680000e-002) (72, -5.25695808614727870000e-002) (25, -4.60021979511111570000e-002) (26, -4.37927252619374490000e-002) (27, 1.53625490570448160000e-002) (28, -5.40771492433123060000e-002) (29, 1.40808107566954280000e-002) (30, -2.15515139930175790000e-002) (31, 3.37890630034962670000e-002) (32, -4.25292975087359080000e-002) (33, 1.21704103376032440000e-002) (34, -1.36291505937151670000e-002) (35, -9.77172866123510180000e-002) (36, -2.12768557857998530000e-002) (37, -4.23583990686893230000e-002) (38, 5.38940437718338220000e-002) (39, -7.07397471478543590000e-003) (40, 1.19079591618174160000e-002) (41, -1.15600587660082970000e-002) (42, 3.33496098719479050000e-002) (43, 5.04028327823107250000e-002) (44, 1.79992678463349880000e-002) (45, -6.34216318044309450000e-002) (46, -1.61987307101298940000e-002) (47, -6.80358896856887440000e-002) (48, 2.18017581373715070000e-002) (49, 3.79089361117621590000e-002) (50, -3.30017094761387850000e-002) (51, 4.46777350407501220000e-002) (52, -7.47314464260853130000e-002) (53, -8.28674328754459570000e-002) (54, 1.70959475203744660000e-002) (55, 6.11633309895296410000e-002) (56, 8.52539075203821990000e-002) (57, 7.95715343888332430000e-002) (58, -9.49707045401737560000e-003) (59, -4.90112311990742460000e-003) (60, 1.19750978346928600000e-002) (61, 4.07592779511105620000e-002) (62, -9.79614272409889960000e-002) (63, 1.77734377648448570000e-002) (64, 4.44213873806802440000e-002) (65, -7.47863780675288580000e-002) (66, 5.36499031431958430000e-002) (67, 9.68444838649702430000e-002) (68, -4.09973150640325910000e-002) (69, 6.55578623050132590000e-002) (70, -3.79943853317854520000e-002) (71, 3.86779790919717930000e-002) (72, -3.24279789988395350000e-002) (73, 3.33312993248000570000e-002) (74, -8.89282239813837800000e-003) (75, 1.54113771827724120000e-002) (76, 6.12426766938369840000e-002) (77, 3.26538090803296650000e-002) (78, 9.62890639348188420000e-002) 
