encog,BasicNetwork,java,3.0.1,1,1317235227546
[BASIC]
[BASIC:PARAMS]
[BASIC:NETWORK]
beginTraining=0
connectionLimit=0
contextTargetOffset=0,0,0,0,0,0,0
contextTargetSize=0,0,0,0,0,0,0
endTraining=6
hasContext=f
inputCount=16
layerCounts=2,9,17,29,29,29,17
layerFeedCounts=1,8,16,28,28,28,16
layerContextCount=0,0,0,0,0,0,0
layerIndex=0,2,11,28,57,86,115
output=0,1,0,0,0,0,0,0,0,0,1,0,0,0,0,0,0,0,0,0,0,0,0,0,0,0,0,1,0,0,0,0,0,0,0,0,0,0,0,0,0,0,0,0,0,0,0,0,0,0,0,0,0,0,0,0,1,0,0,0,0,0,0,0,0,0,0,0,0,0,0,0,0,0,0,0,0,0,0,0,0,0,0,0,0,1,0,0,0,0,0,0,0,0,0,0,0,0,0,0,0,0,0,0,0,0,0,0,0,0,0,0,0,0,1,0,0,0,0,0,0,0,0,0,0,0,0,0,0,0,0,1
outputCount=1
weightIndex=0,9,145,609,1421,2233,2709
weights=-0.4341598412604853,-0.015272826646081141,-0.193023204596709,-0.2091835855153243,-0.1530918003819429,0.20863256829093038,-0.4137681240540241,0.037540179678382496,-0.33187458837945455,-0.15865278908026084,-0.08308524510045381,-0.11792392036489013,-0.30753149221934134,0.26793991772082315,0.011787105119440004,-0.3470766948134656,0.17987447769147408,-0.07480077784671742,-0.4167022357036736,0.009083091902693317,-0.30632277450368534,0.189315156265884,0.5541528271512606,0.6061856444746276,0.2976873526938043,-0.3910288876036054,-0.2443399981082305,-0.4030205249554018,0.01470381593595554,0.2613473938673754,0.04879023488336744,0.09031177707644113,80.61394333665953,0.07390960268909576,-0.22029718135850426,0.16104468760337107,0.3632130779391419,0.2583595310615816,0.007935399988741067,-0.13136225675259222,-0.04176410574229353,-0.20417814792867311,-0.07635121607452879,-0.23431102784999985,-0.5430268436611377,0.027126899566725815,0.12946774569421104,-0.07520596536517016,0.3676917928545801,-0.2667433182627065,-0.10009648422734439,-0.09267184735769556,0.16423793189505054,0.08536526134243767,-0.2633739729276099,-1.3334819451557816,0.8774624482373053,0.23685802969427378,-0.05406913503817803,-0.31021961422887145,-0.1487561927779731,-0.29422688421774856,0.0033314973496632763,-0.23360255877606872,-0.2923934795014036,0.11022348220038496,0.6592830445016199,0.011157167697822178,0.3339852781699172,0.2795761344995581,0.25686153265528594,-0.2888668392277382,-0.06280839781998973,0.14039404686106313,0.28838213570943844,-0.3274410441742049,0.27257222099508777,-0.1328115679650039,-0.09607933672542528,0.2362862660596726,-0.07286639809400558,-0.43741580106454453,0.24145456739331073,-0.08259875607373378,-0.9762808006892745,2.4675866299274936,0.16382306613911096,0.7698445759550111,-1.3500592142765573,0.8843235249856752,-0.2059199616746243,0.12324141039680835,-0.02932380205020807,0.10159781710080537,0.24821078664957144,0.3272061773868892,-0.23236305465465168,-0.4017446266504702,0.11491838065390816,-0.43696075005007795,-0.41075997100150236,0.27732553314336117,-0.2006116426863168,-0.15605225309812373,0.0012606883067749954,0.648317582986958,-0.33748197606592995,-0.21057190497048628,-0.016346876868033326,0.24110539291796776,-0.08861486671110981,-0.26289856508032095,-0.016155357614616624,0.1807923647870868,0.3369827453553391,-0.7316628007902086,-0.27721498677792533,0.28530946930579504,0.03681569038139828,-0.10160188583458865,0.3242583115402306,0.09584302828260295,0.014535711955403706,0.17982811406963745,-0.07633221608918106,0.37296318183284977,0.2109823254619323,-0.3646077478635834,-0.04517425085648748,0.032658561419926825,-0.3114727876620998,-0.15678352907314297,-0.035044337753615,-0.18395890927533642,-0.0710634920531609,0.06126139074246941,-0.28852408066818197,0.40536062424725117,-0.12115063621429853,1.292800371638403,2.0382494356633414,-0.9009953989968792,-0.13677448066529094,0.09055945017218464,0.184422857689657,0.2668511289716253,-1.7653323827445841,0.12369854932247845,0.15515224189769408,0.2217167897221158,-0.43405908779004504,0.053977374999617765,0.035110926573998544,0.2785687477495445,0.15824912764212937,0.2675928635100609,0.10602782429574151,0.48638383522034984,-0.03943191300972403,-1.3901196061515622,0.1047448496084442,-0.38209736159324253,-1.0105883368642938,-0.28596688635717116,0.44336498147639675,0.33863195103638133,0.14714227522024842,-1.1817526965461025,-0.12125375179700543,-0.6794053525159593,-0.15793442148403736,-0.974824504821579,-0.2375746713217594,-0.23065183984040732,0.012450447314353016,-0.12498731757391379,-0.06602068621770835,-0.059837454067177165,0.260326661704349,-0.5291625178846355,0.07686134374519421,0.4183797199595291,-0.33607395099620335,0.21913730056424394,-0.23063527077898954,-0.038982278712562254,0.015751043005348304,-0.12535144858462535,-0.3094625895100735,-1.515763640015131,-0.7548252362478343,0.3571382131744544,-0.3585242108618188,-0.2461011874317078,0.26751891884226725,0.05877123832489865,-0.0037041961655928366,0.12577358604680924,-0.42406404049291824,0.13783835786288895,-0.42561159243425123,0.24478427961621907,0.37361013615657446,-0.16676060993882783,0.2937171378189194,0.6055034818141319,-0.01951185620564993,-0.4552675603527407,0.05020285247726201,0.11158645449008041,-2.0308709505487625,-0.5423485764751361,0.034695545406823396,-0.30018519477457534,-0.33533904172946927,0.048599504397147136,-0.08174605411071464,0.5803934570557984,-0.047633826860532066,0.060180565139361424,-0.002371155321502772,-0.3049552884544211,-0.49848021533361825,0.5318762389698304,-0.19261185794863034,0.15961864219918517,-0.169039633048486,0.11112930112814577,0.6497945812269559,0.7662507491912599,-0.1582021316745964,-0.06130903028253989,-0.12084760075381724,0.44670615539486247,-0.4654612247534654,0.4749420827305753,0.003726405934032534,0.7479534294972451,0.025663232057338958,-0.12208749541734419,0.12988620341773824,-0.3258407284546934,-0.41593924098001445,-0.1754756410153223,-0.5747223441403941,-0.2555105880274795,0.37426391333324643,1.6104928246169155,0.7386396641609714,0.7983126652668712,-0.44117869114484537,-0.46396615418049514,-0.38195206571889,-0.26078256991312765,-0.6016315007186348,-0.31149427892669135,0.0733171301194911,0.15060622337243687,0.02445675401329476,-0.09486259615373681,0.30205628606102186,0.12673664976173624,0.43530924201843063,0.8703110666397637,0.04844500527724175,0.34184018424213963,0.02266299579518104,0.00031812200485509007,0.19046056978717363,0.5109644565319782,-0.37946279786831005,0.04900822484586036,0.44899738536813805,0.3433398205494005,-0.05491414600428781,0.06944387219630349,-1.6666926468127676,0.3286994934701189,-0.16345301538514953,-1.445007450192588,0.06701773792493138,0.23065978024584524,0.19170107865493302,-1.2325189883017622,0.23555943142464683,-0.025212372096382524,-0.3852290253273081,-0.07619804320225657,-0.11244409685976368,-0.046985582040346245,0.4310944743078421,-0.405320667955475,-0.010326913173553774,0.039985900550429346,-0.10221953362250664,-0.32022170726686444,0.29277381638797667,0.1715461247950588,0.011377527926398361,0.14567110375839293,-0.17441797463543413,-0.2846897351362478,0.24767116323624097,0.23517278723421442,0.3406712762935213,0.7503940158261202,1.5432917989556687,-0.4744425746278089,0.6272297136476356,0.204625661485017,-0.07926360334546914,0.1508741378670531,-0.7415858082069239,0.2960585446404776,-0.1343595338544652,0.015708472452305985,0.12613663062956387,-0.20108314214866202,-0.2747919730412591,-0.23749136196178924,0.2773979241352618,4.063978856489514,0.039385849989432335,0.3547264586358648,-0.1423694403309247,-0.4312509854833188,0.32995783384321964,-0.6012971894384069,-0.07208769948741561,0.10291916371304095,-0.44999614399542776,-0.11482345250407218,0.20129361270961424,-0.9069063073139361,-0.20298710587956947,-0.3133263761191598,0.2869307647893004,-0.054148411417671155,0.12998885010359834,0.1632713517338356,0.23199422271087042,0.17853334650873648,-2.6892133550649686,0.049836234451860736,0.4625980170777878,-0.2980911252288182,-0.10237874941296807,0.27466162280063483,0.11307417679669528,-0.04299834600202117,0.11878879440421192,0.1644101871583448,0.0629300511654884,-0.3105722526169592,-0.06735056462168519,0.2587274550979811,0.22433636564504544,-0.07392752630795296,0.05327530977960056,0.1723845800080732,0.40131388072657614,0.06628919789018689,-0.07868983332821289,-0.2207258603636111,-0.1272458909868041,0.08366991484799655,0.03794292780469793,-0.04059075226775969,0.3494425260938428,-0.19123808428245406,0.29698865618472514,-0.3107685526415005,0.14543206748755125,0.00247217722363997,0.2656386293762099,0.2101700637604582,-0.3993650378872521,-0.1201350938712968,-0.4728721815805973,-0.6057594308468185,0.011260870558149953,-0.9187275018502489,0.5792893274687577,-0.2294359449924033,0.046582697543945444,-0.21370649101726816,-0.13947171111986204,-0.5752248893237136,-0.1330837519918623,-0.09320835036704468,-0.011968575672278936,-0.07491822995025225,-1.2495526047682743,-0.4888957884945643,-0.12783173998464178,0.5329498876706807,0.2071588878234378,0.16777538707580247,-0.16436648601032652,-0.8804339982446181,-0.24895485038172943,-0.6863562744958023,0.10423029810595333,-1.8038590036376645,0.6462422917818762,0.0794139226803351,-0.16356321379702365,0.43794310263225894,0.22171021075682296,0.22200773904884877,-0.03677860263051071,0.33160465046402854,-0.8445118615152825,-0.002160434131428466,-0.4150452357039762,-0.41633659847423093,-3.37746496993814,0.005327574525828275,0.03820517027439837,-0.5440641296455796,0.4476097360003249,-0.7061954915829376,-0.2740249027090368,-0.16986883882798112,0.27305770545809904,-0.14013121840309173,-0.23702803227826014,-0.13974439469414415,-0.9665859307474899,1.4321880097079334,0.19724742502024592,0.4574990692875602,0.6195755973014742,-0.24165737104710075,0.3610030601720334,-0.0844388219316784,-0.35902367497536897,-0.1425537321622941,0.1282713915313461,0.19804041747559867,-0.07710492307143696,0.07953143659492488,-0.7511586600127352,0.2607224179856466,0.1706015286776504,0.10593006382357811,-0.19370603436694303,0.13085011546765676,-0.08788976733663725,-0.5068173499405504,0.3106279601571389,0.2782967052957653,-0.3278920317589453,0.5432019522233673,0.29818962047980846,0.20600550501282752,-0.09717039448093168,0.541054143909788,0.19300556032936966,1.7318734966710536,-0.32484841231189376,0.3268536317102893,-0.5309985762573316,-0.3634696582260066,-0.2341867861399875,0.3160276661500211,-0.02203234583881442,0.04793380339380959,-0.33276763944978793,0.13007009148216375,0.18719385398638275,-0.09577301790169288,-0.3703081498318799,0.24795176735631155,0.25777611290412517,-0.2870699999375198,0.23666807241779922,-0.2059263341127628,-0.09052014184869561,-0.4302393369319096,-0.9405446777321121,0.4473441370681315,-0.26339014517825116,0.17117482323498137,0.2352176154444568,0.052521650322852234,-0.09832127345770938,-0.1730665339997384,-0.50768579348853,0.48811732999933083,-0.02832081787321345,0.6360998570354103,0.09632841697801396,-0.15132493436041725,-0.8591455724163531,1.1541009995630993,0.5220403595304416,0.03476897945420847,-0.9245239857998956,-0.10303443241068444,0.3605279928907037,-0.28357205826494153,-0.20897586265880308,-0.03256487428131872,0.19493511477963507,0.314283790830739,-0.33455196390949865,-1.4827286636919452,-0.40435480034012095,-1.3271371221408113,-0.23295699319143687,0.11788487985435607,0.348590466471859,0.31662643865022566,-0.44434789384114104,-0.37392451911840613,0.49899300552771014,0.06721931568694806,-0.1643460781700318,-1.2314292497837354,0.13150165427644803,0.1276366559232035,0.1743761292841533,-0.23078779027883453,-1.0681341791774766,-0.3550754970973141,-1.100873702612908,0.5133456850574339,0.7360421379657085,0.13626816031672928,-0.09821500227032498,0.004946971097480937,0.7346512660646441,-0.21359268519939317,0.12993995344887457,0.7712704662874954,0.7531600856672691,-0.05111653049649354,0.5092462937794705,0.39166747081190617,-0.14251784209919843,0.5969872861812252,-0.3283986152613246,0.5296640996771995,-0.28167678592250517,-0.36103914942895593,-0.2109013114339694,-0.08802970573035943,-0.035775679463108015,0.6897135654231141,-0.26715413955699174,0.7502313549690023,0.11710077299249733,-0.18668362430977567,-0.15192480756442073,0.04793188706772369,0.5901822316727902,-0.15718076766115036,-0.21474861691018324,-0.10576506211924226,0.15953944829067052,0.4252023910825769,0.1410923370308296,0.14539385983145575,0.04032855633303617,-0.20079824352933331,2.275555855453021,0.12304631333791838,-0.25899018575408833,-0.17244590203215968,0.12862054925636834,0.01342200039050092,0.031789915037407385,0.042925344215227486,0.1861483167166517,0.13458330048754216,-0.09808723097685693,0.0849915964457861,-0.31698391360299516,-0.2989385293996345,-0.2456261316220233,0.6237939839816559,-0.20183920431771982,-0.3153356489201717,0.07601654884124842,0.2671201378806574,0.4808522521285718,-0.6900536356111365,0.08563087331598315,0.2548584285385827,0.4895413180945417,0.06960223026968416,-0.49899802760591183,0.06622624356966322,0.30573900820504923,1.1419358188604765,0.24883427260195262,0.27218285162089195,-1.118803029424775,-0.0992150466143442,2.651110126000198,0.7981793932168422,0.2540871007933698,-0.45112619081696936,0.2602689663434741,-0.08529268056450975,0.4402848352236542,-1.4693586879598362,-0.13694113903258395,-0.1647967076901305,0.3158700262682779,-0.12166239308951608,1.917478088863206,-0.8363393523228678,0.42349385728127314,0.11745424626209242,0.21190071905131502,-0.5711943431717545,0.9826216514855929,0.19823085830550122,-0.33727992718579813,-0.014706454851324813,0.2029458596299936,0.10204134682834687,-0.11435531612989609,-0.4480653287174345,0.18660706324990614,0.17893402827223795,0.35067774132626606,0.13044273654248978,-0.48667976922971057,-0.07458401727672168,-0.651956785907147,0.05768305177720398,0.6293891532422298,1.2763282053264968,1.7232535015043586,-0.10182735618524096,0.16828204579744183,-0.32846324619187944,-0.36638813923893854,-0.35106420188377363,-0.3497249098824963,-0.17439735953337565,0.15231463362630132,-0.5818452503218785,-0.026785099747408406,0.2624846858573539,-1.3009375692054113,-1.647984810271797,-0.31901060917946106,-0.5587289242204798,0.1676763352479996,0.2379167564197982,-0.007931494678838889,0.278353300558204,0.16329221303215155,0.010853880658844106,-0.5569733987459474,0.12940569244876948,-1.3373074262503293,0.08774657033675133,0.8726552436660421,0.24943744063947293,-0.033928011711174946,-0.8023967188636002,0.013262500263528614,-0.4068540729357986,0.06569880029060175,-0.08761227450478574,0.1113406541268367,0.42131332652671194,0.327019318107632,-0.0982194466885813,0.222296187952359,0.04125156101912815,-0.06450119502908654,1.3948676549060766,-0.047284951412586394,0.09626414702033026,0.39613481131600803,-0.10296958137799557,-0.08243913907943391,-0.2756662584193052,-0.7970012277271025,-0.39390696715928325,-0.0556348210729486,0.03552205902763099,-0.09460389951460835,-0.07237900772876824,-0.15057170767126304,-1.2891567574421037,0.046845639329783265,0.061683385332665465,-0.3176245577765845,0.12440794156213335,-1.6853426375022207,0.08601724882017078,0.37572171164900703,0.31835286502755894,0.6760392107165419,-0.1530633002817319,-0.27018878054766104,0.6687465292843638,-0.06608465368030585,-0.5312787173212651,0.6518152369035548,0.19776654366077592,0.10974834816713434,-0.9116321394009719,-0.594164255568891,-0.6061872911847965,-0.05194012590119166,0.5742352256831975,0.38049773814368126,0.08407821456377594,0.15591319383698618,-0.6900690412442455,-0.08991017053626754,-0.012330575308743718,-0.23056468294690866,-0.7996269963755264,-0.9371141147749981,0.0023712074816331554,0.25005689993748204,0.0943925120935369,0.2178885223122129,-0.1264334512314782,0.8257207109738514,0.17269699259420845,0.02229913686983803,-0.4692105441825603,1.04181961913871,-0.6970580454214266,0.17753644914896632,0.5896503386159441,0.300254075685064,0.14262189354362034,-0.3694709223933721,-0.05006845814680376,0.1891546396750657,0.4843053541486363,-0.5045147025887773,-0.2545756400023937,0.7951638425273513,0.20162971045150155,0.074080141880907,-0.46704108447391723,-0.2883087628498426,0.03737773121758256,-0.5466391626927034,-0.11971832085918072,0.764510814406315,-0.13778107622544317,-0.3091979774014361,0.18873326571638507,0.18570453773394127,-43.833429678960236,-0.1238278752473347,-0.1746811387186444,0.31053945916487763,0.10815178230063842,0.3718750426477923,-0.09025066221823905,-0.25439494537070056,-0.24400071737243634,-0.3620829933458797,0.006876971165742093,-0.18516419312778679,0.3645251991126445,-0.2831505772859633,0.5848687336999941,0.16774617952102158,0.2763484923095905,-0.16673687102692689,0.15028049348019876,0.20303775970530785,-0.2819688504985863,-0.010793300981544756,0.13736967930170615,-0.0010540250574945058,-0.32282940073231714,-0.05796037128602353,-0.14030469200098197,-0.17196242255875444,-0.2450705872939987,0.13348557598421879,-0.6950461737186454,0.47667595909723015,-0.2960037797199908,-0.27211766456051134,-0.14398770422313062,1.0328588092691104,0.12455080736712831,0.1272043083323217,0.791838988013839,0.1604849257343146,0.3945065861931892,-0.1058531493752113,-0.015143084970452157,0.13552204704613013,0.0797760446326875,0.08054943517078479,0.03254349405369074,-0.3120685617480482,-0.15058884030089825,-0.8143755343951228,0.8189918591377564,-0.14440210221176747,0.5332336588542034,-0.21531647083326996,-0.48247898892760777,0.21351958916335922,0.01908075407670172,0.1499249745987311,0.7375290774588108,-0.2628818687829564,0.024096576699866187,-0.4022509643753586,1.0380733819913752,-0.24538668167948396,0.21760501132145585,0.19824360142973735,0.38333313316221546,-0.027246340643326233,0.4615078512015631,-0.23052250745097427,-0.5004627246975049,-0.22935415991164415,-0.29277150815230135,-0.5680244254375483,2.4124302729465343,0.09235774520903628,-0.17114389832078056,0.1912443420735717,-0.4455032429640835,-0.15380144207241261,0.06711580831375795,0.26137471683149177,0.505921863668549,-0.006187174765407981,0.20846770448905988,0.017627356832487534,-0.8500668140694235,-0.3050740353243482,0.7483979839443867,0.796304405047861,0.09760027798750473,-0.5094089322882356,0.7037702278812307,0.9628512675183021,-0.32374954050765353,0.32551182045424204,0.22477754920862653,0.2507897594690552,0.5340099578055105,-0.6559196464703392,-0.8314438952236736,-0.5526502717322677,0.05859020358849852,0.18773268032139864,0.16922721792078071,-0.19212647917872894,-0.2561623350643046,-0.04681939816641752,0.36364983773592585,0.4183746599887601,0.5862807008631372,-0.2381402159794144,-0.10237772485530403,-0.45264982428007766,1.6412439912110741,-0.5021267707651488,0.040240769611473444,0.585181677575802,0.4993750374229808,0.8948908106019957,-1.6165565750992061,-1.9128879691384801,0.18623782500118208,-0.7097327109709327,-0.1545361646573707,-0.13114543091519756,-0.03404501962853952,0.5040874916996173,-0.20065521329258,-0.6525866614177612,0.9083543066996991,-0.01714399823524209,0.20980769268300262,-1.5904981860283591,-0.8962992443792798,0.1681337738923152,0.09910046528353945,0.03424192049026692,0.31072548224204644,0.3644198359912541,-0.3203980560105231,-0.16714201599955314,1.9060017159586484,-0.18070231293739114,0.028164215594565917,0.03531589744567237,-1.0368212584113234,0.9741214723900354,-0.23936708353944533,0.1725066868874507,-0.4584063743501398,0.2763883016588366,0.24158080383957006,-0.24949399820889456,0.017846838373878227,0.09982900856763843,0.0786413637231006,-0.13537367280122775,-1.3557566575210822,0.18494939503252716,-0.03942259622613628,0.3296597694438439,0.13626451138561216,-1.1227744345160091,-0.1661521494497748,0.15897523854508455,0.08526686512427592,0.7494178436028185,0.49798842531139575,1.0064724121633715,0.07609721888351954,-2.1038493055942507,-0.728696868690068,0.0005578985712979192,1.2676391348651066,1.7968082753247434,0.5214554120274825,-0.7820461728125846,0.16370623050365524,-1.0297032247712394,-0.1615303478282505,1.1750758463084519,-1.4619141282039019,-0.30996479331563637,0.33640809907465563,0.050949748239655986,0.054995849000952494,-4.742483054618624,-1.176063408306929,-1.1114004016967687,0.03003560119935511,0.09519172667885993,-0.9288888424635197,-0.5106776164513539,-0.016693398900892806,0.12754353516178346,1.5440709399552945,0.6881081979401973,0.04732125238303567,-0.4175730645801259,0.10286658156161271,0.4054080776105076,-0.16726662549066434,-0.08996129684026928,-0.3938089591597773,-0.006067364749342117,0.0144970443858069,0.37929816195869,0.39937073676507007,-0.10656788763301643,-1.6440148959809775,0.6717315476217116,0.2533982925321484,0.3977516586250451,-0.0818601817047018,0.3500929151085595,-0.0889149999247495,-0.6752040149665737,0.028531332295442833,0.1167169882297962,-0.5308636309008613,-0.5031208027268927,-0.18789892189044355,-0.3392868781053966,-0.6807809907668664,-0.6921445158999848,0.21643532732294524,-0.013328730038116762,-0.24319174745154812,-0.1803346540748025,-0.17495101058196333,-0.5885628998602872,0.7499608727508588,-0.5687907315000583,-0.24759062447645633,0.14137640180019234,0.061794578630430676,0.10078079654749254,0.6566730784010708,-0.19452378116953814,-0.01842302540965658,0.29931411642497074,-0.08448653672913355,0.16946929596353094,0.2849556703864231,-0.5939096422360973,0.0168639830395856,-0.1995457582471405,0.5716980599398463,-0.3090933373646006,0.608449555686829,-3.606649976061162,-0.08713298629637346,0.09679536493729596,0.5314866021261138,0.5748031802626627,-0.7794721123954251,-0.44995367828194316,0.02115137474924118,2.0179420033574527,-0.11141869036887016,0.042939803018405255,0.32964686101534585,0.15472786944128877,-0.09331736820654696,0.10764437336634579,-0.6726930690414425,0.20920094184926977,0.017045138459228594,0.42553550841573207,0.116253704664627,-0.5727244199512944,0.025686237746294326,-1.9778636918343062,0.20579557971190837,-0.05947453990255526,0.05119051393565034,-0.32264329278507714,0.6631832371798808,0.29603469562551016,-0.4909435605252568,-0.08520523390363519,-0.17675445666576528,-0.1246824677207308,-0.2816345208867565,-0.7378709315366593,0.1347330327385196,0.07751414023156747,0.43937188007577577,-0.14516380327920864,-0.0970948034807042,0.2353377446087251,0.18173833590683872,0.09685099807585493,-0.07107315605866112,-0.20209010631268165,-0.11764023905387158,-0.004165367332875376,0.37611194225515315,0.18140474761471986,-0.37424921847012327,0.26907502079555295,-0.2996566684518622,-0.02282254701733191,0.31875359608137793,-0.05904777545952668,-0.1047931857628629,0.5421292088614341,-0.24844810778410562,0.16516359081887155,0.30588068910116895,0.19547622458098893,-0.12123632825946169,0.1483445776985115,-0.3205554853693432,-0.13680020563488737,-0.26414298271480224,-0.1512213049014288,-0.11458643903741886,0.03140830315910012,-0.16801671230671522,0.23222428009383608,0.8683725389521528,-0.06208702376198804,-0.06351282149284303,0.1196897079871482,-0.18731078168514195,0.2320046610888085,-0.11980856937295603,-0.15066093517362286,0.5189546103496985,-0.1277403777923735,-0.1491644316679852,0.05783467488062491,-0.3321276556626445,-0.25039151137106436,0.3858896719743683,0.1780643783600825,0.14081338467010807,-0.012750015531952217,0.518706020155879,-0.20355672445287296,0.16283255476906305,0.013617440180723828,0.08299442772771602,-0.3312350618812246,-2.3763027953723457,0.019532928505651647,0.2563490390462818,-0.19246157902787617,-0.08189621372095383,-0.6487912198190245,-0.48234206779018957,-0.2881680204770745,-0.024648719984218262,0.577554893280411,-0.11970630557894724,-0.19108172033475324,0.1847179522892222,0.27796214298599436,-0.42289699089838806,-0.10116379240462273,0.32367387712415285,0.35993828634907954,-0.14901608192288576,-0.05137582159582026,0.29232020035760603,-0.5226710383881716,0.2193453612135238,-0.5703895350349256,0.1203651717229231,-0.14709194444175344,-1.1615354823119393,0.2128063013721538,-0.46300372385664224,0.6791333650381569,-0.20960836912442432,-0.12116069407265945,0.16164750249632337,-0.2511686167261082,0.10628923939974291,-0.11479895409568637,0.04784251360701008,0.01275621382725238,0.07077879557709454,0.28562633928983266,-0.02992618264265662,-0.2004880845441197,-0.20571552447020938,0.6251080378540512,0.1814584676568408,0.028637279218507554,-0.16796513688479375,0.40997073507029336,-0.14806975546015533,-0.13422883716752732,0.0031167398934660476,-0.39401949702336064,-0.2641524493895873,0.20690013491887427,-0.16603142834639642,0.4071437298110167,-0.3535158159690904,-1.0436062661491976,1.8590778934467687,-1.2418802540943386,-0.3850159512720937,0.23584733905275806,0.3917493914545727,0.2048113590677426,0.26612062974378553,-0.18764881029907335,0.8865143653482612,1.6452004577710668,-1.5136252647869919,0.003576012710186836,0.346623283260245,0.4518192731507261,1.1737327675056985,-2.7312169798306987,0.923965063825975,0.9197000926850432,-0.3037343603235357,-0.41975650473759907,0.13524142047733037,0.3378808608188119,-0.2816282071982629,-0.41800493568470126,-1.014099824378109,0.24887884408698502,0.8960249794266688,-0.14583225519897428,0.3016731847363568,0.19096058335877608,0.1777095893215181,1.4304343018353223,-0.24222868358503696,0.20685848641616378,-0.5635785620168543,1.6666642650169896,-1.3652976439943245,0.14961678761041827,1.129933735413904,-0.08257985785377701,0.1131294492682701,0.3647595302177855,0.3062496431925142,1.8021889701458154,-0.2913443831209452,-1.8140413897133472,-0.32964343734674595,0.930488626629349,1.4681760316074817,-0.14816772558605473,-0.43159418651209513,0.14643928421787145,-0.41774292104315985,-0.17094164266543893,0.02346092246744957,-0.11436518780285969,-0.05147216198177345,1.2474601173466031,0.5974518047669589,-0.17808473573452785,0.02288611947174969,-0.30985114774856304,0.6488408542436905,-0.0547683541517553,-0.015364054307194563,-0.12668931195824756,0.49407810332056595,-0.44333726903286785,-0.25806986258371073,0.5858228075246374,-0.07821810861360194,0.45105387552771437,0.4577752461495449,-0.3655154947379933,0.16917861245735233,-0.12856939165684278,-0.3565835801354041,-0.3267772180406871,-0.482042886932336,1.8269143810591681,-0.5728025231181351,0.7222271346693703,0.4630217948404292,1.0985387173852383,0.001926515030468848,-0.3068544590256979,-0.024555844678361857,-0.2764982303469508,-0.01858632884006772,-0.037792259630990595,0.11416503811800932,0.005699141757700185,-0.11966727802140141,0.3510656723878149,-0.500793157513151,0.11516607560868738,-0.3080896297343318,-0.01769004630523528,0.1952592988471855,0.050848720465885455,-0.038710619660169136,0.42821138746445936,-0.12340517742169972,-0.1842855541767803,-0.052166366470548176,0.20104734198307495,0.12665529389886368,-0.6012601804843101,0.48527138645906853,1.4238825982834376,0.11626020323059187,0.27241421235121316,0.43019808292416045,0.09519940700010042,0.19355055160821566,-0.7090876394136206,-0.08757122977365253,0.22901900752740734,-0.4220492239512283,0.13744582535536062,-0.4033601226175493,0.061938584253866696,-0.09740453700722336,0.0011042765654292988,-0.0016223256248675854,-0.45672416176111325,0.3025465007818908,0.3111522077791962,-0.7098078227340717,-0.31430399367730677,0.1331651262948383,0.39259459373952893,-0.03388288838806464,-0.1813033881255597,0.42914223530154016,-0.08327844426394931,-0.23631087127182865,0.08885610711162388,0.40247874231515085,-0.0733112645996342,-0.47772481718861604,-0.19286010402771117,0.24438101377615198,-0.2880366891245978,0.20689309395182384,-0.10780952155942236,0.00898199052757078,0.21470307342112857,-0.30213107097920083,-0.049574397756918485,-0.4058394237618487,0.2749742606403741,-0.5523444188723193,0.03258827776736566,-1.144965860762628,0.22880716764375458,0.03861307474759072,-0.30328882070804153,0.06313157546775647,-0.2536605457739712,-0.3059007997026285,0.47238329280994656,-0.24272253457105655,-0.18736674942562184,0.747482193727415,-0.05641096308469795,0.11226811122070328,0.09672198706983036,0.5911563191503583,0.25524816067782735,0.02717221760828927,0.15780809207930394,0.027671870382013422,-0.7943173394018997,0.15119778923101462,0.6225918468349664,-1.2075080395684075,1.2173098321936329,-0.22564231936981616,0.2872916807129138,-0.07763127547522482,-0.5299907768428742,-0.8825082230708889,-0.4116698161230864,-0.14466289816067693,-0.05582806459738609,-0.19295680083582092,-0.7684614038621714,0.06936184260530585,0.8506036338647395,0.19561927077311306,-0.0655231636267743,0.2355535920358845,0.2528890310548457,0.0007267902482629338,0.029597767056046678,-0.18971820058781197,-0.40744215331671885,-0.04004403850843095,-0.39100800565701693,-0.2572689999558313,-0.16320935602710038,0.7751439950920952,0.1609426690689977,-0.10893211940610514,-0.27162988400379656,0.1719970519759081,-0.20302176927938725,0.03846200612420067,-0.19663450528480952,-0.2192076107449969,0.11419084220397217,0.3199765803018971,0.05442036444344716,0.12121416358561488,-0.16664363195084947,0.15344041517205095,-0.38223275312384664,0.12892140568576094,0.2995214777314874,-0.1761773425291434,-0.26955190155164377,0.06840905460516376,-0.2059559499178868,0.6385629844165217,0.1869461891664054,-0.14188146003993662,0.14590662828632364,-0.15064210481451615,-0.14042509898770034,0.024980323980617957,-0.28527210591560564,-0.2512040509354491,-0.25316694976449855,-0.2874215369057586,-0.060375422018590155,-0.1738952846289483,-0.04482128556512603,-0.1774740174244066,1.0031183668943604,-0.09067376790939546,0.9224658822876857,-0.4772945836072697,-0.2750026403118472,0.2539696985528618,0.11860106728430214,0.2058893707534262,0.04695539190543249,-0.47662832666602084,-0.23089403088845115,-0.36352057720239866,-0.45660013133385385,0.09530776722725719,-0.28567238713429854,-0.00001464293694492934,0.020637388490309883,0.15066630606395304,-0.3254293949679224,-0.20574094565899656,0.24251387010139272,0.09843992919954186,0.12119730003094696,-0.20179507993165638,0.061019728756470146,0.1709243194299145,-0.2897923315560874,-0.19555981076013745,-0.38576437265115315,-0.009132829379868073,-0.2827286731222678,-0.49114379165696287,0.039442192214357165,0.03495038889760315,0.24396001002636325,0.10294633326756233,-0.24245651212028643,0.20054299116554578,0.18044957613170493,0.16791053640134115,-0.1958082762798067,-0.016929520218980487,-0.3011723534413061,-0.42627179744989413,0.11498547225845873,0.5767552169902733,-0.1376301257503673,0.499900348568451,-0.18713446140695578,-0.16969046061196394,-0.5414656721509576,-0.0624641680818575,1.2994184020338033,0.10680881456689535,-0.1692183959260521,-0.23112790085480328,-2.255318679143426,-1.4418177146535138,0.17845720773002957,0.13107981636068877,1.8502525163380725,-0.08394348952391509,1.2975346784946853,-0.355589118023129,-0.2276572750240655,0.6481475958797752,-0.2654324601900386,-0.38554036813706394,-0.16736993345759318,-0.043862384868636764,-0.14999857203688408,-0.16915280109122666,0.3234937093030845,0.07328913221396013,-0.16434414958436913,0.6025334673363548,0.0061534983271710605,-0.20507552104022167,-0.23130927100617002,0.7973553596014183,0.10076138756180278,0.05194637477425667,1.3182300800950622,-0.2700005374235964,-0.17091912333565967,0.14853011349438452,-0.17251782599212317,-0.42337032530662855,0.9800210253901208,-0.2185797527088129,-0.25925563532799845,-0.35939657370075423,-0.12375432892828733,0.157148879190331,0.2584822388481611,-0.2526411746504946,-0.6346321502023576,1.4518146951856843,-0.025993137436669006,0.057838910820968,-0.5450047094382953,0.23765384168964498,-2.0261055314558503,1.032494084864706,0.40414558801062095,-0.09451328894436492,-0.9686036668078035,1.1501175475417618,-0.13300865024630987,-0.013942172097794784,-0.14013998612046635,-0.23282885610448403,-0.11012187922546787,0.03797056761691054,0.15544996274032585,-0.08359366407056543,-0.11554406701883006,-0.29961571810600923,-0.41502110278486903,0.0662126233708106,-0.12950182392695916,-0.20153124435357575,0.11881799336822589,-0.11375034870954641,-0.20368872252010306,0.3768268845021138,-0.026762622954947565,0.17186772505252337,-0.21940108659530455,-0.08232661370561131,-0.2906336119273522,-0.20392556794490455,0.14562300635881878,1.5288217682068068,-0.13583817275322427,0.3224385516684144,-0.2859846649280922,0.4529834187136353,-0.6235450606536789,-0.005874480935167929,0.23123082692795494,-0.5098013838346968,0.22723691747802843,0.017113928572838468,-1.160199367116621,0.35117029980020975,0.7735873894751276,-0.058644653947398304,0.25073688033832175,0.3794472934947487,-0.055889409659543705,-0.5139112956153399,0.19665715382254179,-0.14964929231259985,0.19534786820107922,0.1951063271271325,0.023962569574824805,-0.615028313244246,-0.5439649518535764,0.6102236591323674,-0.2846043645201389,-0.002780968827456552,0.07438152031537457,-0.17093974117483157,-1.3141249284613437,0.4446428884515612,-0.553720892396052,-1.7157448534753652,-0.41588183249628086,-1.352986590672603,0.0480190695803178,-0.04628969040338663,-0.05669342093085169,0.09257869886338271,0.18561616355224295,-1.6127035004034656,0.15117881773712363,1.8883889899660486,-0.3411518455428083,0.21352930822741112,0.23298933906833655,0.46622966748228234,-0.12962060367743478,-0.964535724479486,-0.543809439497297,-0.2959147763848672,1.5147419402522635,-0.00638417125998821,-0.46505226372729863,0.32138822463867495,-0.11508532166666638,-0.02795715179314204,-0.1134202718601719,0.3587698483165588,-0.5948104331858589,0.015978432160411067,-0.37985532741453854,0.45020092537152095,-0.14115443037574074,-0.12933693024281548,-0.08085305766633169,0.16627558352329705,-0.36380694310181294,0.2153839991292986,-0.08771577546192967,1.551163073554541,0.2644111953448813,-0.046205908751434335,0.037541238412135886,0.18868625555995594,0.5961262427309432,0.5634466264912124,0.25886692358650987,-0.26190606933841926,0.5589591558890163,-0.29567937106058906,0.42997235750233725,-0.2751666198595716,0.3065177081858711,-0.17561454680328478,-0.02223473407281866,0.281057067701641,0.14622280471324423,0.3541037489843214,0.1758014361665196,-0.21368843098083645,-0.6929517395989095,0.22128562124580967,0.06066756883229936,-0.6661559645652778,0.024416577656172077,-0.11111028346272356,-0.13342103208728695,-0.09213378044416112,0.20238466709867436,-0.7499240328353955,0.2517488141023549,-0.24804346924037224,-0.236342627462797,-3.122246557785112,-0.4688071492232175,-0.1738102716656079,-0.1303281106117313,1.064959115095044,-0.49942250118720144,-0.2290570228017659,0.6104054485676188,-0.0969824531318102,0.012729608506609374,-0.22412698020187255,0.3088239294168619,0.3113858785665832,-0.21152528840146329,-0.038018336705805504,0.06613692735422316,0.2815070672202487,-0.37131318164043703,0.25829920391356387,-0.28682735243925417,0.3101401719831232,-0.19713555571772762,-0.14286790784503203,-0.04353500440139439,0.6205144233220365,-0.5202697624413479,0.03181072762592464,0.29060208939745175,0.20802223177029713,0.9715829007338495,1.1219847560525422,0.3374260666684412,0.19926917945428368,-0.7549161081885154,0.22088496209039996,0.02869637951184885,-0.06292606517950737,-0.100353035107984,-0.07726712617212626,0.1620132755525919,-0.32310792726912557,-0.13973085763027648,-0.29042720478819567,-0.7272258475599425,-1.0926064744737658,-0.09636134867537018,-0.6615894686937193,0.43079774502774726,-0.2273340646479271,0.04546949070645086,-0.43976066144811615,0.24551700678502428,-1.0066300744556849,0.0791335863811078,-0.08231481618571435,2.4673513865072842,0.7270954328113973,0.6321623869518349,0.3162631542549081,0.11207736554798721,-0.09506012109279878,-0.03149201228474891,-0.23965994264409854,-0.6538083896884989,-0.46267017162924035,-0.14456176184597502,0.5955755132459586,-0.16976796818525752,0.38796644315691875,-0.021312812586685742,0.02884868135241358,-0.8759632867965472,0.5277394627736425,-0.007367826050138349,-0.1660960234832136,-0.2881748436826626,0.2182247118597742,0.08020900938648014,-0.30765157625791933,-0.4534890775169991,-0.6167760855389588,-0.14243968042041386,-0.006012459367912866,-0.3761044548700843,-0.43371023273328707,0.08657098375396662,0.26212110671080957,0.26171489112390484,0.2551149917990328,-0.05372121927437669,-0.2776827127061922,-0.6531669505647787,-0.005163425377253978,-1.3328575902773077,-0.12065265088417945,-0.24283602128637122,0.07260591258707239,0.9574163065439728,-0.3865345121984477,0.19854697857396006,-0.27507092687980095,0.17985229383700418,-0.41659838151597745,-2.2962145935570675,-0.24526909505051203,0.2580367461287365,-0.059794566432982706,0.012906559927148025,0.05620312874913943,0.43749659359975634,0.0818815400607738,-0.3561109863979094,-1.5581640071152396,0.1849369616636649,-0.36204255806788177,0.11972549256477115,-0.2804420923894551,-0.3384429857366553,-0.2392249793089346,0.2856373691478935,-0.41556290983418037,-0.343908192317938,-0.5566891716336129,0.39888210264937823,-0.10131992036249342,-0.16671832228860917,0.2668836998582055,0.16428761970338357,-0.2494904105653163,-0.0263124732374218,-0.452822957822374,-0.5274712918664146,-0.7223390076708053,-0.0399792241320363,2.435105788470362,-0.19034473434299679,-0.22708118848175796,0.20603195384740183,0.8032697660916214,-0.5005882991928131,-0.21728057316024124,1.0056317582211545,0.3377108420166118,0.05196178206581152,-0.18478383255693392,0.5876769887440326,0.452629114420817,-0.06173895866347864,-0.24180099491533738,-0.4330971066148741,-0.061349155277049254,-0.09214697708243466,-2.1807280132164295,0.37202977335005716,-0.07205652693721494,-0.1389841362192963,-0.1361628720612156,2.134161605086159,-0.350528140484014,0.11241290790147962,-0.20563494481005684,-0.03532528247450518,0.20639427690509016,-0.21894624536487936,-0.4799431795211008,0.3853035164621134,0.2013464176506828,-0.2622647792068016,-0.266407469560337,0.2532599089804542,-0.4145932317743939,-0.40679616522193957,2.190988867129386,0.3244717149199611,0.1555980604770281,0.2869799869583017,-0.40162271150121437,0.04541020458172949,-0.09720027412715156,0.3570377527970558,-0.06370747515237454,0.07508809531197347,0.08342719934439526,-0.00705070408939346,-0.3738947257902578,-0.17804799004038638,-0.1543970862648551,-0.169330724266328,-0.9618065146120429,-0.9730994871391963,-0.08701788644127896,-0.32292017883664115,1.0127242246839965,0.08996709802990674,-0.5182183905773395,0.1580601865917747,1.2127297053428707,-0.9891233213577315,0.26530586830848796,-0.083472930917339,-0.03783333888709119,0.20167663252625162,-0.0938438797181376,-0.6851031281419502,0.06591259052917679,-0.4977996268528641,-0.18780208838665016,-0.14686867942831253,0.6115792300189489,-0.4057696550009836,0.84267199390975,0.4804450295826661,1.4064368326155214,0.07913912837751744,0.27621982813922885,0.7497196656427212,-0.568293588124825,-0.2840701964459716,0.5577916242394205,0.4808284172093299,-0.046750633000814446,0.07940618241743193,0.16496718520964038,-0.45162206461939713,-0.2046364226644638,0.11371451122625936,-0.02807732206717566,0.1675836047441967,-0.6592219329497682,1.1570978687565883,0.2247423122385989,-0.06149593134683529,0.1499215764419711,0.1356941901300299,0.2539375167085592,-0.1412930205296131,0.6550559779642764,0.20212566181510533,-1.2227333329504464,-0.03493540172195772,0.644781564714858,-9.44893008795222,0.06217747840132094,0.08606926327195569,-1.0306308543500728,-0.18545868961018497,0.7895087953487469,1.980204502223315,0.25559276853091406,0.7054216595081193,-0.3308257198402438,-0.21333766161366394,-0.20299965348678453,0.2180134782762475,-0.504381531563905,1.4140676468197773,-0.12488810004373185,-1.5504325131165564,-0.029824307004333372,-0.16812511790708964,-0.03499134773677594,-0.35085305941472616,-1.1713315336748806,-0.08444934312768675,0.1985845391308929,0.10055069776931762,-1.0602432092877385,-0.1968962776140351,0.4730686897209265,-0.6217974083580761,-0.19833778262888585,0.33055833282718694,-0.02239843441015817,-1.103969394210727,0.369478943756763,-0.21978076859251744,0.05800771785111118,-0.08693076312685576,-0.15613686919171071,-0.1332288806248676,0.0828374845808876,0.19892211649397762,-0.11362514721403352,0.312250420401213,0.25924130726404043,-0.15511553570218445,0.8555308420614101,-0.1838874365222481,-0.2666655099482642,3.596956862749148,-0.14595411245912782,-1.3805450439453688,0.054679249242997746,0.02043754349224346,-0.8420223023942199,-0.11118646986040154,-0.22876917772336278,0.4771707480010299,-0.1446812900067083,0.250980936140444,0.0944959499157126,1.034808926011718,-0.1528966099476908,0.22878708255972444,0.3100535160022971,0.5480055068631147,1.5127768345142298,0.7457276785593415,-1.8529786701196065,0.41053102498372507,0.8271365686986923,-0.4289087636514865,-0.2436346342370068,0.15413887388369163,1.0214867899906415,-0.36455858809327335,0.09399832513819502,0.2589776062979273,-0.22680251075458882,0.10476930052590615,1.6628821607470259,0.2580980478717723,0.4515932714856424,0.3973990968248852,0.12841401701277821,0.07716828626620556,-0.23054811008005952,-0.31477894145332924,-0.37360599353294976,0.24287297444267747,0.572965508739474,0.027899465755926254,0.3571691087187333,-0.2942438846569029,-0.6432959089024428,-0.6335634557414591,0.05829528272040367,0.5309057802635472,-0.37849019710283033,-0.7311757633785815,3.39867663141196,-0.3455054938508499,0.034153411948457994,-0.48647571590857003,0.03152677261107484,0.20509422555201803,-1.124963791105696,0.18388943924187798,-0.4392798001419776,-0.31405583766242284,-0.2232141828379797,0.21237047369148587,-0.5520613173007609,0.10196510318047723,-0.2667427339924704,0.2707166030992686,-0.1966582449936092,0.8659104077673319,0.4554581803523411,0.35085231348361046,-0.1373911946683398,-0.16115298334730285,0.26474715604939614,0.06241780596491913,-0.7669209588505513,-0.05711050800301576,0.012992369734089508,-1.2881842715661616,-0.10587061707641332,0.2958754289802379,-0.12069981779850786,0.08609490037445801,-0.5045390690577614,0.410375234979673,0.2717782373899619,-0.08816348685718435,-0.2574924765779517,-0.6337232941830493,-0.46739936454733505,0.25291182806896845,-0.10605958999101488,0.1724896547711154,-0.45513181252535706,-0.1980015083284084,0.1911449622404733,-0.20903737245198314,-0.19406817227574025,-0.3839787195395437,-0.23564018625498168,-0.19656060156466174,0.2042034367495197,0.6795703190900761,1.0682016574423898,-0.14372788639178888,-0.16896029986931302,0.17308974415345746,0.18634428180238274,0.2281895887451618,-0.3605558849695726,-0.37511215744536547,1.2486743399241405,0.34530550076375005,-0.17868544984175003,1.4833348167993254,-0.38494900256917886,-0.2064239531093707,-0.4747348996007225,1.2546184149068698,-0.11391297769226964,0.36926386165372055,0.36978164948865566,-0.5366835271324508,-0.011163028830953159,-0.2708057872563915,-0.9329438762995775,0.7203506967971371,0.10022597793702397,0.26786179787292286,-1.204357255370765,0.7433115377259314,0.058135045412347514,0.4772084209903441,0.1339359036701402,0.29192605533071586,0.1427620355349779,0.20215575769695934,-0.06108044417706491,-0.14668928390145256,0.06736035759548663,0.05577218384020788,0.2734809413273633,-0.1639907139528785,0.32035725217078764,0.19846268340195333,0.057269780336559876,0.18707591193247847,0.07711755469232519,0.2516759661898219,-0.1685030606147887,-0.4090186506204118,-0.14757247714331773,0.03925630264538508,0.009067801761455673,-0.07490071780383456,-0.07563895883453547,0.24194318214543958,-0.28622530353559306,0.4008443103033412,0.11636414136652475,0.5855096055758624,0.8878771710537064,-0.06949379057155287,1.124791794288208,-0.5566634489745504,-0.05586213039361745,6.296547028384564,-0.5630042586546321,0.31454936556012414,0.1731000237623443,0.2669607423254145,-0.2400813776820929,-0.9492206696975066,0.35545398928516236,0.029283925689646505,0.30869913524281317,-0.3665387260029532,0.1389240365977454,0.9184620604606101,0.26667769921456197,0.17083767230086422,0.0453799266933043,-0.41806198038215536,-0.6062206421093154,-0.502010395774259,-1.4705399706920654,0.07016264070770774,0.09429793181352952,0.4818173108592309,0.13441552701579418,-0.09670510920151912,-0.23345664751129488,0.21480980184967505,0.15124411816207228,0.045401162128935885,-0.12909557979104067,-0.33936799905562365,0.20151054391972892,-0.00000096258419034942,0.33960148629837295,-0.3651358933992117,0.12163263034894405,-0.5080713943295809,-0.7656092005608135,-0.26855261089858445,0.32065566497771886,0.3251048604599711,0.2655593985371996,-0.6463310246741057,-0.008237850256679042,0.04811369816366243,-0.16450963432395607,0.08207669863144516,-0.21217290491016055,2.504821242129274,0.4162815601577455,-0.02832563217060518,-0.28013330446030305,-0.3813335793105953,-4.852688574031971,-0.5183675696987065,1.4977932275737147,0.11397457326310657,-0.18422330685082772,0.41545048109926863,0.3588742105854044,-0.2361353022603696,-0.830863902621851,-0.45504894550376396,-0.017774607397601665,1.35107380872067,0.5071763317056365,0.5958325848689577,-1.3611067695862604,0.2513637256847647,-0.6813184654266754,-0.16620654053227735,-0.32392250460166544,1.8972883796570001,1.4569973361889494,0.019711255342504053,0.06911754184493665,0.5877089725291378,-0.4535659445166068,0.6063893901638775,-0.15425484153274197,-0.2626936319017083,-0.4020895979193389,-0.5635225193500062,-0.41097917557087776,0.009601518329776616,0.6751248491214362,-0.14235083146866698,0.12410430800770077,0.5927418065769139,-0.36210698288372106,-0.9186165172547431,-0.6732377940129334,2.5256853908099854,-0.005921241565597568,-0.2194970326339785,-0.022900102914968114,0.0775735207438225,0.830472174630699,-0.8445486371015577,-0.31747235079938335,-0.12575816899645692,1.4462509726163493,-2.1950182592665257,1.289080454890035,0.4066085435192209,0.050087707608694805,-0.4724610208984992,0.058345270665444156,2.044615113497312,-0.6144201828706272,-0.01925696107212366,-0.36006503525891154,-0.08329709815609801,0.21000545132189902,0.07966564868615253,-0.5719309099208935,-0.5404080146539177,1.7433977891730514,0.10339312022379973,-0.07265229916372015,-0.1170058266278683,0.0987146016292248,0.49644758449928633,0.0464192633677432,-0.30136719332454365,-2.565331735178606,-0.4285925087459795,-0.3017633982325491,0.18662045579000797,0.17215325201197612,-0.16628275701325634,-1.1772609160098138,0.2320028111967103,-0.029510558674163676,-0.10209692882921574,-1.7136102171231873,-0.37998342718089767,0.034318109088187526,-0.22345768631757337,-0.5306200751000498,0.11036955624654411,-0.06080417194062111,-0.5861968124130799,-0.7272163614496397,-0.5558077683491454,0.05124403658842054,0.49559596525965177,-0.24755142390568827,-0.8940741247191168,-0.06892921190846914,0.045040223036933565,0.1834109882429816,0.19578296848338278,0.12031047836235359,0.05202035167331683,0.8315980580162267,-0.3847245735693368,0.09941667994342251,0.021069857350753392,-0.01373264144314468,0.3654603510490996,0.3758087597644564,-1.2107176199962095,0.1695618571356189,0.2021700513653764,-0.14026020806276132,-0.21968370819632718,0.6248012441055281,0.47488779457210695,0.21246652664794857,0.33045383001824674,0.2120146074994414,0.2794571282272053,0.3738604737843579,-0.8551226520690995,-0.21729519146891063,-0.20169268406380356,0.018981422926016452,0.4437805471898899,-0.04516701416911765,-0.34233187833358525,0.17987954579034363,0.15323305980971216,-0.2967776474055443,-0.33791572008307064,-0.18020827295343902,-0.22776983866458572,0.2646982400013441,-0.11761004150550813,0.2756446133448458,-0.08828776760096929,0.43426873812056976,-0.012382898098136502,-0.05158164363400105,-0.08770720332074226,-0.2114865928158031,0.14824516769088955,-0.1025799344254269,0.3525798098692173,1.0386446990875895,2.607797008630437,-0.37022749369243707,-0.7244018476003935,1.1815579981261295,0.3515175439446092,-0.0702681135815025,0.15829655346046223,0.5320477475656091,0.367490407026246,-0.05373102554142209,-0.2450053867878259,0.0746707746879509,-0.19805852344866792,0.3428692365989617,0.27983194152982627,-0.33060986812424054,-0.11796148857300116,0.1523918129432641,0.38333056165806195,0.42602755220115435,-0.4455423548739435,-0.1755651639902197,1.2107352817623538,-0.4829813230246131,-0.028400007981130584,-0.65944751819087,-0.3389961434936021,-0.15479188648174955,0.147151481516394,0.9035585128053989,-0.7566279668675063,0.1472345085251164,0.3455159243855001,0.13803823523936676,-0.21268133626874575,-0.640158456598521,0.27678665332445984,0.19867968140342215,0.8466637365043886,0.5573284424567286,0.05054996026097534,-0.5081424407916914,-0.34670735258747454,0.1110323412009171,0.3644786363608971,0.0988705093827395,0.5531761942585922,-0.1563453268870587,0.2118317967046117,0.2920112999159907,0.06648337765186017,-0.19202114474332557,-0.4625849066944275,0.3428178668825201,0.14582385080320318,-0.17094567915582687,0.009089062738538482,0.4971724648662706,0.47213158994891097,0.23116212219684432,-0.21122230016482632,-0.1571141012044442,0.32374822426906646,0.06522530294316577,0.024488708523529603,-0.45346462848390473,-0.2983945867932632,-0.2355595454611421,0.4352990977915681,0.5950089312905276,0.5031331835836527,-0.06688317807713907,-0.3056681980714364,-0.28122297613532243,-0.25076080448331795,0.37772463572681075,-0.07827459766943756,0.5121084611752557,0.021366513101097714,0.5604733581152725,-0.25667983970120084,0.5994111914732142,-0.6152955951239767,0.9338740285736504,-0.3816943757293422,0.45520097868953635,0.4398439188938615,-0.1637577233977663,0.27182160857727883,-0.6536158542145608,0.4726406906042209,-0.5715438933433951,-0.41327635315427896,0.2238597877681966,-0.20173284681943052,0.046494992265279485,0.048698992518742094,-0.10075087848185729,-0.34464408293444476,-0.19347286020542562,-0.1467065128554282,-0.10252863891150518,-0.29258585485232036,0.27410094960896625,-0.3515906940308129,-0.9083634214592429,-0.07165235428793955,-0.013761658651838657,0.9208547092096216,0.5491718514328601,-0.6525338397564779,-0.60689837520114,-0.4392517881457755,0.17304361881021513,0.5009873345771175,-0.1913988545296099,-0.029354053706405772,0.4666488170641697,0.37175908766383486,-0.13342372374668027,-0.25173157105668575,0.859098348397892,0.35235440863155654,0.38785612009112574,-0.7732830117220575,0.1524672742737947,-0.007776432147678444,-0.1604040925312521,0.9155599486886057,0.17072353722903122,0.15839447966715564,0.029399914844449333,0.28942209799126145,-0.8723587104599372,0.028944997903338987,-0.6675008009717239,-0.1551599858450409,0.465324857759243,-0.23700180825103256,-1.2398802258334845,-0.7793511142020074,-0.472038249169052,-0.29267816422071474,-0.1789349190779037,0.25857138010162667,-0.765188851833028,-1.313804015312719,-0.5961218734623839,0.23909751012504024,-0.1744049557548379,-0.5978874297822735,0.3424835785819792,-0.3698459127549229,0.7380332377327846,0.11506027823977873,-0.4099931319526594,-0.6533423576514755,-0.22670781921302965,-0.3210954912406285,-0.270867213486087,-0.3866202623542392,-0.7027087694713254,0.11640272222424075,1.112219352188145,-0.23685738730027708,0.6726096498921489,0.20232313681940955,0.15907888902400788,0.07648169946150099,-0.10928032342204465,-0.6523644841158575,-0.20730910464049435,0.327905900948936,-0.37902168471052833,0.009561979615127534,-0.33871370195165096,0.3486427817202776,-0.2502753669814621,-0.6282617061008001,-0.015665654907956864,0.31704985313477124,0.086022898157851,-0.03108440591990326,0.2949390322673137,-0.3453698610605001,-0.35597287199250716,-0.26240358193330005,-0.6000898508742205,-0.32771431395575923,0.233683415052282,-0.30936165213428685,0.7083433662990131,-0.4134243178205659,-0.05379515362824134,-0.24461308881611268,-0.7382867472958901,0.12188672902663017,0.29306963043757595,0.40592864704285975,-0.13743828201231972,-0.13107950078839672,0.29079277283519567,0.3034605212890299,0.17231805901422428,-0.46688082073792503,-0.5765451904142419,-0.423421178871403,0.3462959322716818,0.09411853522775898,-0.3423120046232376,0.14293762879306415,-0.2911667064524417,-1.0568533423736355,-0.6427358224694972,-0.31088039759269476,0.41484771351011407,-0.2252530455098727,-0.5239823828721328,0.056423156452641815,0.40401999474487227,-0.2404970185228531,-0.20523703412452832,-0.3795621981806148,0.2839730604178385,0.12436273367022094,-0.015900714254987607,-0.16603228961398941,0.3864700969373071,0.3182287616317094,-0.025833972097253376,0.2422876965344869,-0.3598065387576998,0.5254854743701565,-0.3501449086958442,-0.1609437159134358,-0.16543103774056783,0.35448003016251234,-0.552630739295184,-0.414885751678063,-0.37070957609288324,-1.1615758833457808,0.13310779926498276,-0.06222465933587012,0.26772454746476093,0.3899195338262323,0.6927082742286533,1.0454084556608922,0.057198878013463586,0.22127732698556046,-0.21924176305776272,0.16275957477417108,0.008758405908491324,-0.4859233544509788,0.6858265036136069,-1.5758804231369696,-0.323097764160259,-0.22870686250847058,0.719833956252338,0.08307491413415237,-0.09237117263524407,0.4889992568116532,0.20973599368170204,-0.22396982489475606,-0.7735849248956211,0.7619038122600352,0.5387768326015339,-0.7671830246588187,0.02957431400669312,0.05876531964102931,0.6800019085320967,-1.2216242775768558,0.5182325045376102,1.0803891654506692,0.44665947661608957,1.0539983475290526,-1.4405643860509656,1.5604609966412721,-8.819251535936617,1.055196939711222,0.14224279896009176,-0.5139382374731433,0.2126308875951416,0.6479696152445188,-0.3043608888231779,0.26350080178984664,0.027473058393960453,0.2116572443861787,-0.34804047390615955,-0.28703188074598945,-0.25211251104123017,-1.1244961931380384,0.9171194345385055,-0.19060947498085476,0.5219853161020499,-0.20984789499026565,-0.25753609939530653,0.17641154513758492,-0.019560922704556026,0.40366435809647,0.10368157574544477,-0.4304417415774327,0.6842917939211852,-0.08273547505771178,-0.22607220554402102,-0.3526238486272046,0.17728481048977038,-0.2448059412918207,-0.5788241271645485,0.02913677953384774,-0.059877120588333804,0.3612840677760919,-0.0005222707700897451,0.24224262618838413,-0.31871464077938677,0.3056518332961639,-0.1455653081779828,0.47050484581733965,-0.55063427959733,0.12368317772774923,-0.15213928008016575,0.27149945086941324,-0.5125156301546224,-0.2717987150127453,0.023771724070015172,0.9060246266969993,0.9799043270752694,-0.4319883733963971,0.258758814065154,-0.20557182474344893,-0.08349699722718848,0.8860348380764197,-0.056745564946191214,-0.3944960866969043,-0.33756554403406075,0.280513581543572,0.732827376436303,-0.07144219518470805,-0.2907724105608976,0.42603835905099907,0.1331891510405124,-0.3822467708717807,-0.6894064263401033,0.35883244564329625,0.49370512754216,0.23081189500281865,-0.03481500296725778,-0.5536174618737805,-0.3929272250872464,0.047774913802232595,-0.16984614244020788,0.09357888569655329,-0.18867366838846927,-0.5330657616336146,0.2742583125596384,-0.08937721817937291,-0.34810928837811,0.008203243466227457,0.17786720493133024,-0.4275226859110967,-0.28200843355666855,0.016239361598855993,0.07053086557670507,0.7519129424750541,-0.060438791295776416,-0.2176058907011091,0.2996385457127788,0.2200401948573029,-0.5024874934907803,-0.10791170369065306,-0.48360101805022854,-0.19110037351127615,0.5114508174324177,-0.014916297624360432,0.14900619888509914,-0.40366264049335276,-0.4136554295830808,-1.0803648255403473,0.036014492768544945,0.6963677275325342,0.2383635265377842,0.06581523824903114,0.2172746918833682,0.11489856843706583,0.056121417676137667,-1.1413518957154944,0.339877070521022,0.42154239155354134,-0.3498805330330819,-0.46630316921850073,1.5960814458779802,0.8331838151315863,0.8587763067501044,0.4999711446248508,0.2795250504544556,0.6812990707149599,-0.4587034754138067,0.08331039354274074,0.14318003630443557,-0.10899803589051653,-0.08493040603139483,-0.4742818774433534,0.32950239244599105,0.08960171003635849,0.3209746317639006,0.16767340580194007,0.597802070141643,-0.3707819971947457,-0.35035020711913256,-0.11130194506719032,-0.3004327979747941,0.11989051447413035,0.2557358059814085,-0.38325622563133654,1.0991759442989,-0.2350978222749166
biasActivation=1,1,1,1,1,1,1
[BASIC:ACTIVATION]
"ActivationTANH"
"ActivationTANH"
"ActivationTANH"
"ActivationTANH"
"ActivationTANH"
"ActivationTANH"
"ActivationTANH"
