encog,BasicNetwork,java,3.0.1,1,1317061276015
[BASIC]
[BASIC:PARAMS]
[BASIC:NETWORK]
beginTraining=0
connectionLimit=0
contextTargetOffset=0,0,0,0,0,0,0
contextTargetSize=0,0,0,0,0,0,0
endTraining=6
hasContext=f
inputCount=16
layerCounts=2,9,17,29,29,29,17
layerFeedCounts=1,8,16,28,28,28,16
layerContextCount=0,0,0,0,0,0,0
layerIndex=0,2,11,28,57,86,115
output=0,1,0,0,0,0,0,0,0,0,1,0,0,0,0,0,0,0,0,0,0,0,0,0,0,0,0,1,0,0,0,0,0,0,0,0,0,0,0,0,0,0,0,0,0,0,0,0,0,0,0,0,0,0,0,0,1,0,0,0,0,0,0,0,0,0,0,0,0,0,0,0,0,0,0,0,0,0,0,0,0,0,0,0,0,1,0,0,0,0,0,0,0,0,0,0,0,0,0,0,0,0,0,0,0,0,0,0,0,0,0,0,0,0,1,0,0,0,0,0,0,0,0,0,0,0,0,0,0,0,0,1
outputCount=1
weightIndex=0,9,145,609,1421,2233,2709
weights=-0.06886378861713303,-0.13782991369465608,0.08991076586684521,0.20421934397494673,-0.18764214483990202,0.2915061293776099,0.12634954524346975,0.16772016364939316,0.0028707502479315278,-0.6546916320464795,0.32086363000645796,0.46239709035972953,-0.19283790198210918,0.6724015809559937,-1.0190121855459446,0.16837293461045194,-0.23858057714461334,1.3882597386838575,-0.02039604116258297,0.3493066362454255,-0.11093447423138347,0.13024079208814726,-1.6347272997241014,0.18603658757230165,2.0733523514580194,-0.08689577355189809,3.9738620771084308,-0.1216944496223594,-0.8473173246779324,0.5547815463958097,-2.132907679113948,0.011563848523873743,0.3063280625723112,-0.4362600917544067,0.27763946375783016,2.3181410529498625,0.2953011634355103,0.08730789642866268,-0.41669258447724633,0.0505514840848166,-0.10309226439356724,0.3632028411047462,-0.018520599656452773,0.1170084656350483,0.006519999084720861,0.22655198213493383,0.3057239222066658,-0.1689193797370431,-0.4425416770792354,-0.29227093260912307,0.589500718391445,0.274405910573366,-0.2863002389652969,0.2460559266419446,0.35430149998307064,-0.35238634735776936,0.0070446900768889,-0.14065794810559726,-0.03254714863774768,0.2900070502699905,0.25719828336521966,0.5829009518134813,0.5680263682441928,-0.17893064674276563,-0.20316633787690289,-0.004856500591611329,-0.1461451333969512,-1.745965930055982,0.46565189702561877,-0.46110859101319057,3.5177221609464784,-0.17526016395698052,-0.5224188372402085,0.3606846012970213,2.3161530835038877,0.10008501838562629,0.6197857309791952,0.47886198941767355,0.026393441946612316,0.03616322799452531,-0.3404162983141144,-0.06480907527712503,3.744863902393248,0.12347351537630542,0.15088572107332315,3.35714344851092,0.18648746373926486,-0.27899989391149127,0.11193949396292595,-0.15562944871576362,-0.015384283161391663,2.328167487117809,-0.5271945897446119,0.23260840652310444,-0.2715347379525746,0.14170609806676068,0.1040681016915852,0.03219145857126505,-0.06624612094064478,0.08351939484528957,-0.08981036271904423,-0.08293701427547148,-0.31787976817714064,-0.34165577557350985,-0.08812833368390495,0.02226730179612111,0.1150030148235621,-0.18144764289119247,0.03987408706835752,-0.24030495710671979,-0.29811619912279347,-0.15398992953743237,-0.28273375995810035,0.21948155978197142,0.4262590699931595,0.25370343276226603,-0.13266384588546168,-0.08730832730877672,-0.846285907737689,0.11324271304855847,-0.2919390495859746,0.18536356283743646,0.2523119162332421,1.5331049908409695,-0.7368055013545619,-0.1928302378429729,0.2882482339297368,0.21338261514870938,0.3310475067533771,-0.3611303985165672,-0.15731659792393257,0.14997856755879924,-1.020541063270835,-0.16445949476067578,-0.2881096119385675,0.18227012036963963,0.3038864601901225,0.07750678384186693,-0.09466909803549667,0.5476814910011083,0.036163952947465314,0.2752742581448096,-0.7047520079583462,-1.356851278095685,0.11510345525598574,1.6768518554751424,-0.45798308381849456,0.2563491503083059,-0.3952824461382975,-0.7512131600479715,0.26679541473315993,-1.738456992244066,-1.0033250064377233,-0.3219801331215026,-0.0859357477137618,0.2990808329861908,0.5030894903940029,-2.5339763701003992,-0.03454737695502508,0.503670402710515,0.5061158632751969,-0.4149725862504468,-0.17752239531779676,-0.24345299275334906,0.415927114426,0.07589786189837014,-1.3187095727192029,-1.9584192674910683,-0.1883338735754206,0.007192150374722896,-0.37252837475458245,0.28754349665521467,-0.12244285165180958,0.04170538165331091,-0.19292145158435278,-1.0267878416680571,0.15893915516934387,0.005100722844169182,-0.8809199400229837,0.05183724054717363,-0.09898290612234571,-0.3104969227828422,0.1769443095324117,-2.208955274822352,0.9258835642681137,-0.5029028405044261,0.1270143118202575,-0.3681097154233243,-0.13164308675732725,0.04190353811437649,-0.6044903508057051,3.3258898799950494,4.669228614045098,-0.30229377094952453,0.11124440943141804,1.123566232549984,-0.09090590811377142,-0.06248967547484563,0.1622765696317933,1.1392278539405543,-0.4915825225181435,0.2895396410194968,0.059003211740222924,-0.13945615855618257,-0.16839573704315258,-0.21805432508238554,0.42071657339843294,0.26685085987763285,-0.2856622236331183,-0.09917710552633763,-0.12454034885599358,0.14873873547058178,-0.10551432599598581,-0.2559803310983255,0.42357698384202913,0.34420492354239723,0.1266588150530968,-0.327259325507692,-0.14942751752320835,-0.15571072378028195,-0.5753704451592991,-0.3684425161846178,0.30780119283595486,-0.06047271889773672,0.09526396214397916,-0.030301846930304095,0.15837332747131588,-0.019758389700682888,-0.21490518118791857,0.00517304082859299,0.21675870579728668,0.09746229982203623,1.752866398364478,-6.015985196183033,-0.05365119567485006,-2.155673419479727,0.818444658519881,-0.30396222833242653,-0.6173769268357867,-1.0003626962586174,0.06714069875184674,-0.20624980871873067,-0.2051875355190191,-0.1652604619861243,-0.3515345863376998,-0.04073444585823929,-0.4746189651417172,0.10397153515057984,0.3747357588673895,0.1364766208395027,-0.2128421097671324,-0.8636687359567928,0.7615755871264832,0.06542124187478224,0.7511534272255829,-2.441948396175435,1.2197135462795652,0.05566222956718558,0.1439594320553229,-0.7453538595250331,-0.1656929062183741,-2.522630557958119,6.904368048085328,-0.19122888863800636,0.519026255578173,-0.6256939307336605,0.6339513678387052,1.6525996428953709,0.43673778140493563,-0.18680714483048216,0.04987261604736637,-0.07614334062219152,-0.632665878628605,-0.01665564987347327,-0.22454035844526907,0.0784688632705756,-0.04950253271210118,-1.025668725454965,-0.14498617879565084,-0.3653338769675733,0.5640070203834734,-0.22770453265828144,-0.07320990441789359,0.17359635517680008,2.4317956907381326,-0.34371717762554843,-0.12321472446044313,-0.08073172936114041,0.23177726262631454,-0.288941594760501,-0.15290671096205244,-0.2736859907567048,-0.025807087867509137,-0.04923974056326445,-0.11447088173164255,0.6479005822889279,-0.28463760350218487,0.9793482214413686,0.3493756564262854,0.5549311519313751,0.25548526221369694,-0.9755049902246966,-0.03213075686566677,0.5268766614677142,0.6906590402168278,0.009883633766083753,0.3590155094922889,1.1700301664441088,-0.45725122362467274,0.6414132678207346,0.08733489268956639,0.3767830994186212,0.5921035868495483,0.013137373296872427,0.0058219817733649835,-0.7458443744295588,-0.30900883142222907,-0.40688175859710557,0.24277805015892237,0.37823328781825266,-7.401028931063213,0.8088696531627971,-0.6409161818241463,-0.9921388613137556,1.31978230085371,-1.868946200238686,0.21012290650650303,0.4971737918446681,0.23975041680642048,0.20891289492357973,0.039103665253641846,-0.2672659669329114,1.2436683330529554,-1.0908743435632817,-0.7589513359094188,-2.055827694412063,-1.3235008677122504,1.0606916407316875,-1.4897989334626327,1.5534887125227512,0.39620499186721886,-0.2351632077290185,-1.4467107770322352,0.1938549511956525,0.2586270795181824,0.14163841904441973,-0.17173322513674688,-0.11689298804012918,-0.14315615656526157,0.010216024484495897,0.07702832407134096,-0.5045610495741837,-0.006476083270211249,0.03516634524751729,-0.14097565881469792,0.4111426463475462,0.4089108575761982,0.04187207592828147,10.053246320121485,0.6032568604925245,-0.12621409577739945,-0.2803011943074005,0.08771043361430889,-0.578862456676499,0.13059582123710134,0.06775375483592959,0.09237185523137738,-0.13705181093883864,0.25058557889481275,0.2594814248402182,0.08025294868955622,-0.26482804622275424,0.3670050536987583,0.39273578793117664,38.03808950062683,-0.2366989165410639,-0.2522721841108924,0.3757943743900969,-0.027765519634299723,0.07121712784467055,0.3105541571972377,-0.49362415828873835,0.616506111628623,-0.9014288716095479,0.12181056400488734,0.06334709164679199,-0.964331639646437,0.09784816130941755,-0.1834074552388268,-0.1736729237362141,0.37767061414173103,1.562820692301547,0.5046205936869036,0.6652070270045434,0.521953430209552,-0.00886162185553705,-0.04036989665967056,0.08694262832078549,-0.3908005390269811,0.0434539035514317,0.16507940454079917,0.10322188121482505,-1.3840511441562482,-0.5025579619039907,-0.3666808863258505,-0.02073345409066607,-0.4348129137126208,-0.5568899695590145,0.6902355457545261,-1.1937384066912353,0.2756388431798301,-0.07052221052843213,0.11410959088986532,0.12003599641605371,0.112379457872807,-0.10582792331485784,0.5629828195852336,-0.3440317573680378,-0.17420319117460317,0.12757953908769873,-0.27643607451098545,-0.058248784668185824,-0.03440960252987752,-0.011142344228102698,0.05590445021767799,-0.010112181046229957,0.48777834557725885,0.4407210997712094,-0.19899897953156673,-0.25482085245137875,-0.10081360525606399,0.1117250398606929,-0.08027467122155865,0.254240024272851,-0.06380080732313666,0.15780335606901358,-0.7621987582706614,-0.7603192606659315,-0.72593617961364,-0.2695342445861161,-0.44695241644583883,-0.29853072234397376,0.1599080506502906,0.742080889566434,-0.5012710537549101,-2.300978146039553,0.15843381585484836,-0.1507482873558544,-0.4699581304814264,-0.22661209707460583,-0.21504947043075426,-0.7320683164034921,-0.7050927147627427,1.482824306752938,-0.03713825458661276,-0.03108813567985474,0.2622418862357151,0.35411725887489554,-0.23513567762734874,0.11670538889681147,0.255266368774022,0.2807672770888606,-0.26408528805786174,0.1322721478728187,2.2942743887961985,-1.215721872085934,0.21282231080134675,-2.8622075228128803,0.19066189293626024,-0.5198799779048929,-0.7667070696219128,-0.8300523786927057,0.4969993431664771,0.43493742786113915,-0.04055753528443791,0.45919869658757917,-0.03626292772943579,0.0038174370841310146,0.32805299821302497,-0.02824767398039277,0.07548115153828602,0.20217065267303083,0.027667515227308575,-0.5097352679679447,0.025144068251741744,0.7086001694648286,-0.4650571127959055,-1.2773751220917167,0.5027803790297584,-0.29206675443267144,0.3445245917598122,-0.010389454535413341,-0.021149991921779077,-0.8029239909487693,-0.907513215457408,0.5421404091457893,-0.64627144303618,0.3265908009277185,0.006626184089669117,-0.0880137669442373,-0.2746056641588298,0.07954473330851941,0.3083338764862212,0.2678778285049097,-0.059694994176142026,0.0899449334077302,-0.2725472291967454,-0.3090130057945945,-0.2784886338916316,0.36559816849537924,-0.257760940729524,0.12270639507393805,-0.15382758065442984,0.27349261670177166,0.37105947122852284,-0.155629480596618,-0.3218327515574908,0.3265798919656557,0.012050731009342766,-0.09974760144883915,-0.0012469951200183987,0.13570026115074219,-0.30445586438314426,-0.11778414859120445,0.42972591722818443,-0.4225515701612863,0.04495947425043128,-0.44418116004840286,0.13330310863304856,-1.1247520032073435,-0.12316815674289774,0.06996968337668905,0.0285955755033557,-0.13068731909287362,-0.6644000546951218,0.31528375227495253,0.18293595940399032,0.3095539936595463,-0.3566547498120895,-0.09252579337678789,-0.06873736450634237,-0.20735094956433298,0.09728414350786697,-0.4893632483339349,0.3706823132712134,-0.05209844567538703,0.5856920392526334,-0.6329268855347664,-0.03807944961895326,0.08373896332979654,0.12067892413770041,-0.004364928083596143,-0.18480020457264246,0.17589532091528984,-0.09310238127747703,0.8192809215335709,0.9076964771214008,-0.7806342378428172,-0.2134757673079489,-0.5840739784946231,-1.290858145396903,0.13539860126895603,0.05439937852609831,-0.4730134624095855,1.8702244272113309,0.8720950257922303,0.34992141303468344,2.8417619626509216,0.603960434385239,-1.2668511369425295,1.2517657811184293,-0.3562616704939802,-0.5251042016416821,-0.24620345898484583,0.06751701030582728,1.1125588982964525,-0.6258160407856254,-0.35917757635102104,0.18602390536524754,0.21906110717538904,-0.16441189915463267,-0.08906098752701054,-0.13701253544878125,-0.012144563028555098,0.4805195840359317,-0.2659200985092695,0.37935295966096083,0.5470977041329551,-0.24686571806457083,0.081447117963663,-0.04705245459483588,0.060747895532412347,-0.13878406813830316,-0.5983458884330534,0.2891153639610582,0.6150260979799295,0.19300577918660614,0.46105933002787985,0.565117350990427,-0.39727031435137566,0.6521914321591138,0.46509643407487233,0.08544599977698195,0.1537354317295658,0.27858416466334057,0.1969769034299258,0.3393377032602775,0.8231336100903766,0.03295796192648665,0.21374428216435704,0.8029235654205877,-0.3946017945738397,1.3186028793935654,-1.3264940694747762,-0.07157614972955785,0.31072337473233136,-0.2502009767528137,1.2939034008700019,0.11113074998457662,-0.5047147622229381,0.5351681450710973,-0.5173141444436935,-0.39784895854428,-0.43076282820919803,0.10553784053120108,0.8933388645634277,0.33077288066667576,0.010952352091998902,-0.2576931216285844,0.40415626565302243,-0.24535015168978436,1.2175105659814516,0.13591138388072552,0.3556259469241336,0.07306354142235161,0.8111541431606281,0.7472189172609636,0.1873297240934686,0.0743591322675165,-0.49927483964782093,-0.20037182178562452,-0.27231923984532747,0.197752153552004,-0.27364791529788635,0.002036724342749628,0.09501935658848956,-0.6027968621343289,-0.3953828849760312,0.23776389913444698,-0.5299848229651999,0.49665085489464067,0.3339695528872786,-0.815068721665572,1.3757014939020253,-0.1567052752910304,0.17424077759033807,0.22764929711983575,-0.15304126868490522,-0.21557975877221314,-0.1233419567788931,-0.8168535460742391,0.19917830743059625,0.18626003157291524,0.2922915712230856,-0.4197353699896055,0.2586383448318183,-0.25507201332641055,-0.09042753728273083,1.4183941455669005,0.8778070870258216,0.18269487272581203,-0.7923456035943516,0.9080482802639367,0.17570644117149567,-0.14494949780397323,0.5930300932731584,0.592317813298532,-0.2484455380888616,0.30856845113500975,-0.5989641003465069,0.45317793683691043,0.11281413595381254,0.16327788194490592,-0.4409428013713234,-0.37373832456931044,0.03575851473624595,1.873603771786882,-0.09841099836514877,0.08629311718799557,0.4940238658828038,-0.21117356931491524,0.1113223217644172,-0.17212550677102156,0.12316467333833839,0.02089950582843881,0.08684998831705276,0.6992878420337317,-0.2614522589909795,0.14728857563748024,-0.03391102703362279,2.703062970727777,-1.2918431780556856,0.26065258395177376,0.5766389976174242,-0.5609384367863482,-0.5971575303983245,-0.013065531639118961,-0.41025869131704235,0.754314589066005,-0.2968766614081138,-0.11505118139476989,-0.6186986896447194,0.01141600031718744,1.2409793892038838,1.956854008449819,-0.18926005586636402,0.018605934522271002,0.14827914118588223,-0.2866506586526997,0.0679190241858168,0.12056877588226253,0.03911603778126435,0.6928878040954229,-0.21506665708124675,0.3940805929434095,-0.6366366211856671,0.9903017801460701,-0.2045028524109349,0.28629456761988065,0.9987051801030093,-0.20662607048504655,-0.3636179001335404,0.22521188647470028,-0.7985144922336561,-0.027692412359970855,0.3044410247407354,-0.06761398627267731,0.02510313983758127,0.399051713157393,0.2302200353946683,0.3519332776394839,-0.983786356156354,-0.35951577163436765,-1.0933506233077073,0.6881310113024642,1.2196115432975037,0.39474797235763653,-0.21239497221655923,-1.7436805885813094,-0.03151180901080437,0.22768075909566027,0.6172648666933889,-0.2663086446176128,-0.17269166341802547,-0.44058516440608486,-0.4031610855555053,-0.7383594664968121,-0.7638967767657051,0.3275661992309422,-0.3101962227739021,0.2291775065876365,0.04604723776732235,-0.0694262777662451,0.11007822902913278,-0.033757837767780303,0.28287915001880903,0.330325437771768,0.12232940674924322,-1.9259684861484185,-0.705218918399353,-0.688078988887755,0.10133833978740878,0.6102750463991868,-0.16796288986438387,-0.06729382487991309,0.1035582360378783,0.2195759548610408,-0.3130464179554513,-0.3115950773693405,0.24744563374209722,-0.4983776122971939,0.4996829934900155,-0.35261123938849237,0.3005307886823039,-1.9180469971812677,-0.3332465193222903,-0.2071958008509645,0.28653924296259264,-0.12369437094561847,0.41272790241639423,0.30332661612677536,-0.3913356418775925,-0.22807277534765172,0.36099256542739755,-0.23218062106481313,0.6714136246955124,0.33468924037981557,0.07091894311831286,-0.059672223252710765,-1.586309175646605,-0.15385919705461434,0.11853123505450806,-0.1865237910995156,-0.41868605960680816,-0.3096461647058795,0.25096046092969315,0.31656163684987704,-0.23033808183553278,-0.12256017030285116,-0.0420467937950435,-0.451036777141745,-0.0022668129390848975,-0.018847558099763708,-0.3581710355060065,-0.011363470550486214,0.46912098829756205,0.6727136826579984,-0.2091433542871366,-0.3488014487559447,0.3956039114817748,-1.9566660360268862,0.39583674221087894,-0.5792630530009072,-0.06038106189528327,-0.030621971423607126,-0.30005848669795626,-1.1015634255594977,0.9039090248505786,0.16463035951106283,0.29829108752266803,0.9318516086177945,0.32124690682036533,0.2635420804742572,0.914528203746485,-0.2530861493834844,-0.540738868679446,-0.08118434021664862,0.7913765768196073,-0.20808434106493173,-0.09432372774083286,-0.03934126481337342,-0.5359739873182782,1.3531987950449547,0.9991310101262226,2.087984220808927,-1.0594808781129426,1.3693443030765935,-0.9821442188707795,-0.21929729107579884,0.5087011222133629,-0.06048040393136979,-0.21149323648087945,0.24904917088661846,0.9938756846256332,-0.23253831269463965,3.3114271484954583,-3.6956389300775454,0.09134984051644918,0.16055338558383137,0.7743327390545133,0.5207186584081086,0.055744402056427875,0.10528831043422564,-0.17480343155904024,0.12606559678786022,0.14982819372266265,0.027232482203552576,-1.45894383406862,0.18234759939394718,-0.1741593023535461,0.08838833617973067,0.31999520269006587,-0.2849478906527575,-0.14007713361122723,-0.12415848987694093,-0.20407007033020128,-0.3987247726691454,0.19629998905949111,-0.07024933480266495,-0.06041080085748263,0.22986743030877854,0.1257475686994012,0.07011908495335564,0.8174390795783832,-0.6181749160139464,0.8037477880883874,-0.39716200080514436,-0.8855298149932893,-0.3832870742737197,0.2335604638836092,-0.5494976918645246,0.04517578327929685,0.3963873754185963,-0.35264164255845376,-2.40083927126298,0.5222343743798719,-0.08217969936728266,0.11018860329916226,-0.10505590273417252,0.1367521049578099,0.2907447585016251,0.2690800587703578,-0.24871404802325703,-0.4981842616380422,0.3685911647442637,-0.20893279294508438,-0.11136303238957679,-0.14412707020837665,-0.2463744831575239,-0.31289682519162687,0.1913753469170232,-0.20887905756793546,0.30222147623310897,-0.28631618995694824,-0.2890237013710932,0.38048743449313865,-0.40059918122024196,0.19015950460520703,0.3877412800389921,-0.09250593023109956,-0.07747261142833897,-0.0429128431129257,-0.17677595988878636,-0.2702039475628518,-0.3615584718690369,-0.16172583545928035,0.2942196437428416,-0.11060986999311236,-0.05893937926293928,0.09053347189518964,0.6531378928267496,-1.6339172022950372,0.16198566582226542,0.21206929911698344,-1.8441464468915416,-0.39391097668224745,0.7882078832397597,-0.32133724801669394,0.005550973917240595,-0.529915531849305,1.2391278370807413,-0.024283153443547447,-0.4312422594105396,0.8155376004438525,-0.5310805986135483,1.42921737615483,0.40287489981581814,0.05930059171574304,-1.496357028081646,-0.8151524614185096,1.4678794198710259,0.19605499641822213,0.5722983541540742,1.6060936894683275,0.10934969097183575,0.06950224369525561,-0.003681104715478475,0.35366805143405716,-0.43548763246708344,-0.3529296243840885,-0.31415402015273863,0.6002622448858884,-1.2792835176698172,0.05823216808219602,0.46729982393885044,-0.345339148361008,-0.5607100438775692,-0.023305712989498458,-0.7142199011567966,0.642260594640255,-0.07876885126487927,-0.011398473041208793,-0.039103681293040156,-0.21248320734302126,-0.09371527321132538,0.8222543987521772,-0.16109713323718652,-0.2540364439420135,-0.11911647286480533,-0.2806816442675506,0.20507713690424773,0.17325269148305483,0.4153128588917732,-0.26383151907926794,-0.24628232883631074,0.08725445763174756,-0.03994830968684312,-0.11303771126482733,0.34149372768349895,0.28176440415351445,0.1667228631640848,0.09201535333933854,1.712208674261583,-0.1393865324851766,-0.506141149419087,0.5126864047385422,1.5599539056831295,-0.22519919658062004,-0.6421197145266938,-0.981864050787384,0.562290865499168,1.5942751942442823,2.166745606405953,-0.35749638567647074,4.183335745533796,0.47456842678262495,0.04047845084027312,-0.1021707196453726,-2.853498941774799,0.15982437827991564,2.2765476682139796,-0.6226011864184635,0.09385418791990968,-4.186171744441533,0.014828464832200948,0.04836671552683248,0.4510301308644357,0.3336537426395905,1.6347127708285536,-0.011467092465147766,-0.029006401236608553,0.9413434607373997,-0.22947950351669855,0.6473098985934718,0.19182626867866542,0.5064216449999679,0.2892973001830868,-0.38568156178283025,-0.2640057096452458,-0.20197058215193692,-0.0038613708667102906,-0.21370481114364695,0.3912389082233622,0.21552935193715822,0.4494049682237695,1.5872425553840028,0.2013222048720744,-0.02293086159458127,0.7340985964986821,0.8074924467749639,-1.8453186913962574,-0.2631426721836811,1.701609702047671,0.02605106120013413,-0.3418681820937461,-0.005277977489752868,3.0192217356375957,0.5409616416708819,4.460356632905812,0.13920776632037088,-2.7696207771272006,-0.3323575917455417,0.8770404458710729,-0.41028237624339753,-1.0719003572939723,0.3498741015248595,-1.4814681571693649,-0.14179798236359525,-1.7454384561299445,0.8031043264705455,0.5640462562054716,0.43589920016225087,-0.9913979400173031,-1.062357839508734,-4.054570463009173,0.23860745017407511,2.6590529746280103,-1.4978661769502977,-0.8477368857696829,1.2824146354735124,1.020039303641747,0.08831431304996015,-0.04745573559528442,1.397819207094444,0.0759606525966967,-1.5459125856737888,0.007730526053940231,-0.18114136207824616,0.7005190257776399,0.5384717499462689,-0.051839902996920574,0.014702884515950539,-0.09003577802070843,0.47917364994203226,0.1581751778255276,-0.41771217313229464,-1.6995893349302849,-0.33052861213028123,-0.023591710856612966,0.4095790369452385,0.40462754349757896,-0.5193046703926547,0.16028017498748404,0.15914833540560386,0.19791364119116298,-0.5545788761642159,0.2547141453928606,0.4285151647177003,-2.4303534850805097,-0.40043882314389684,-0.5807657279949374,0.06792789891887287,-0.22561647773248936,0.15347448265918134,-0.38329735133868165,0.45686330381413853,-0.11656619790475678,0.0948709308242712,0.1659701936828341,-0.053180717999413644,0.08852395216248678,-0.09541158903714966,0.17121558633390238,-0.3125744920348768,-0.25754287302738355,0.3007528160360933,0.575942410408047,0.1328934440495994,0.02675642801540451,0.15499197837592185,0.08972423244359767,-0.01026652472987664,0.3366853467585459,-0.0279214269130325,-0.10066575316988546,-0.6613821569011736,-0.20415528308793882,-0.443279802676918,0.28915989452504026,-0.46911866211173125,0.09456296433635102,0.2108040951203079,-0.5894138413965265,2.1748235755570224,0.009115668617819506,-0.29166439939559125,0.10360412784042092,-0.5678656154548917,0.03820769011382233,-0.47765917210501896,0.34714880518749136,-0.25380676301814425,-0.009780970288760273,-0.02380908129917207,0.36251113878444763,-0.8676362808583362,0.1713231138975439,0.23911029632278136,-0.4461478129993655,-0.09540154983412845,0.6856047889834763,-0.45342031785514414,1.620357359419754,0.48063996548207666,-0.2466905825010189,-1.6964268618097917,-0.03342959545687827,-0.13381464892804726,0.29925081640032064,0.03232422401553886,-0.5302243700515427,0.008137670220482259,0.1492137120072834,0.03053975361917927,-3.0362109087258946,0.7830517404896903,-0.6490090857679908,-0.02555136759898338,-0.9603922917213475,0.007145765100491711,-1.3500167823087692,0.531708078830659,-0.3519651029178312,-0.5197909279328468,0.15160906719695202,0.05630841072670728,-1.1128206986511304,1.1821953545665949,0.7958567439679128,0.16873896790584209,-0.46816701505362884,-0.3769128673810558,1.7781997087491725,1.5238825561942282,1.1422112201875363,-0.2274217516744459,1.8515592517178057,-0.23808051126909868,-0.4889553515481375,-0.15304455134906275,-0.6067749128188671,0.5818953440513424,-1.5098666830823237,-0.7166164655829987,-1.0396239587969665,-0.3646712974464613,-0.6641111258455458,0.3430245663697073,0.260461193828133,0.4029054837405086,6.378669327444442,-0.3594658022052856,0.28854997423181444,-0.646138621406512,2.4682817679955904,1.2968674795268345,-0.1446065015458953,1.5158580812807299,0.2393561641895177,-0.28189869331243206,-0.2226402143333479,0.49976120569917853,-1.1550535949792666,0.22394848519789384,0.6020778601383145,-0.11173221729782476,1.3614076700757411,-0.010294127432800613,0.19133931960492773,-0.2650064265482295,0.09168815533418669,-0.6685897904563768,-2.2203100394974653,-0.22270355520784077,-0.8897408469389378,1.19194836664544,-0.19530210182956345,0.14469931144836987,0.3013631079563445,-0.1555725456871186,0.36245230255653205,0.32235689274030255,0.3103154060850752,-0.08916416161690309,0.4338712600188057,-1.5616524528294593,0.18966182573364693,0.6445712085682221,-0.44837569288947293,-1.0757845182830317,-0.4143628705302124,0.4292996489434246,-0.11930842658058698,0.6251320248837776,-0.5692250158928892,-0.01692096208993911,-0.04035353152239006,0.028581876478307792,-1.6043962217098515,-0.4446064210793178,-2.8732025955814837,-0.45063766636908903,0.2525479456404408,0.014884363111939101,0.09748561653342386,-0.9203751488485956,-0.394663038297101,0.5179113599504699,-0.12457450527923179,-0.634554549636028,0.3849351820297991,-0.31245411825127495,-0.9568056966570495,-0.6072341881556393,-0.5887187740416892,0.34446942567742156,0.43556360670583044,0.004991747913198332,0.21596576525324102,-1.8227196789929268,-0.34640940228217487,-0.22286909399006785,0.045096387893534845,-0.29518593564575857,-0.4453236337636917,-0.1954551610285597,0.8155671602562848,-0.7321062146742445,0.11842915967518498,0.0599096280352522,0.5938600099208456,-0.6149207635758652,0.23063213705323207,1.4123855268170873,-0.6584849325303046,0.0732284803251767,0.7502291443747031,0.166301701483186,-0.0958314380580748,-0.42065894845241325,0.12285877638016575,-0.4129934181020495,-2.2980970870692863,0.052895950886815805,0.27434968926670744,-0.29630303051800355,0.07827219732004215,0.23561140000346192,-0.11952189721169114,0.5081024071077475,-0.0999608273783352,0.3425612516820767,-1.7644769818546373,-0.04538728313466664,-0.046159339988929966,-0.1615199681071666,-0.13705331394561596,1.4416815839827977,0.8829528296654486,-0.2730946542747855,2.4850226021398782,1.0372223995748273,-0.6115876915060605,1.3523685600438833,0.15538876018197356,-0.5884673878759317,-0.48962614596788695,-0.5202392435932665,-1.6076831912034637,0.5986476988037001,-2.3092596328056065,0.3571746494035716,0.17803040084879793,-0.3500492017913767,-0.20646915657767223,0.2531555538351221,-2.4346362267291424,3.726048500063409,1.2938807147437632,-0.6204468595150175,0.5276507853352658,0.24423881373873593,0.2519944574474122,-0.369397960909926,-1.0707353297480295,-0.2926815889897864,-0.0537243622191867,-0.5772419576931538,-0.279041259742046,-0.18329926523716303,-0.32520370952661404,0.17863928125231038,-0.8822294649281486,0.26522053835668113,0.20771822698672757,-0.47319572323630216,-0.3506902042877355,0.4568419151103371,0.5346759394092768,0.05514885213773489,-0.6807333623227654,-0.09137473688325802,-2.2855955032631963,0.22624918650802636,-0.29817128600634346,0.8335330290414587,1.3966543940143348,-0.9214041418120621,-2.485949794312123,0.956495752292483,-0.2547724302551594,2.7804642767187593,-0.15945122297821882,-0.30027005355061126,0.04533737903222623,0.4377139070759167,0.265520827412886,0.06709260043322962,0.01336320386896585,-0.1684474954830669,-0.2501858928534559,0.21522428032924135,0.7389142495767876,-0.2347044424148345,0.4707735832493595,-0.2159561421546033,0.9520936529144429,-0.5225333529809488,-0.11840372857719839,-0.36179143210448494,-0.7560835609872042,-0.06009576683334181,0.23127561414276396,-0.2387220447260887,0.3469423757512137,0.1990403991220381,0.13821644478912393,-0.21820161807566424,-0.014848791642692535,0.1848181624072217,0.3174821360357667,-0.004391548284037931,2.811940413919419,-0.9538757604417312,0.6582446031077985,-0.5672326273137349,2.889197756115489,0.9459367664462578,-0.6862776022139644,4.076639041794719,-1.096730770272208,1.0421369208642146,-2.733855108857953,0.7756836183191846,0.04139558632471363,-0.19687223868880635,0.33049586409777426,0.07019089490685464,-0.4861268653727029,-2.4474044938404727,0.25454784099404026,0.24661739186687967,-0.08214082287613164,-2.366205574128843,0.16761580752322647,0.2338747501375412,-0.5974144544278258,-0.4988711920962263,-0.9529904994314135,-0.04081139675973438,-0.34629583526175756,-0.2116216700205801,0.053679050475276394,-2.346088788141766,-0.38202576518170767,-2.8663134413337428,0.33239380499345683,0.21863063812590652,1.2421368685727958,-1.0606491788629768,0.16867366458308752,8.761033142989762,0.0899560180099277,0.17161359262801862,-0.006438624853923877,-0.655610921168363,-0.22624320188227587,0.3947422027334903,-0.15352158256341705,1.027372626693571,-1.108899563029539,-1.0696996446092124,-0.2079483695915221,0.8672524522072971,-0.4904076931916465,-0.11506454452677109,-2.8886606991794643,-0.3496060383302584,-0.5257816178875223,0.10127979731386758,0.6116109358017668,0.29019685502197334,0.17920417697855548,-0.5135190921125632,0.7466223087911715,0.22609152709908165,-0.20114429473541548,-0.11918917147271776,-0.37447333557774276,-0.7606696320512055,-0.5975069430068286,0.47146170147025285,0.7319404268379001,1.5573303122138054,0.17053668668456834,-0.19778631691757184,-0.7349296673710871,0.0229390602284423,0.2648989086688061,0.5601734165580959,-0.07582670568450606,-0.16052421682072823,0.1545105378061074,0.045056271229511745,0.30191407287146227,0.7360721545559583,0.4182087271167773,-0.03691796586158662,-0.09412024271235533,0.5462603562752929,0.3487543103876176,-0.009648788627771207,-0.11511335214038125,0.08208807971723554,-0.07538503528967053,-0.21982706740621744,-0.04643674381453055,0.40806662155152956,-0.03870639276113564,0.34024410199151933,-0.3486455585218096,-0.2469349441922398,-0.08404097091001717,0.14285982688401064,0.29935710870117377,0.32306140944240913,0.35839843300669255,-0.07595969141787186,-0.2391986818646882,-0.501206381307843,0.28594959656127983,0.11253010272021614,0.009285997772386477,0.03057180952871768,-0.08258551323364276,-0.004837183921142887,0.2531475570407756,-0.16716619856323237,0.3290548445866246,-0.06902624337378314,-0.5740019169704352,-0.06547005411136944,0.27291606657416334,-0.29983084468560406,-0.051974423280251404,-0.33104410146862845,-0.19825123869562575,0.11671371951345264,-0.15245910967385778,-0.13747432139276589,-0.10286157647296472,0.18692492929632193,-0.1019351932240562,0.027466646571150534,-0.4635163797724275,0.18592785530414904,-0.14828207115223868,0.13838417436894404,-0.31461381957910284,0.08597490387306372,-0.19101809925416174,0.2754318215170861,0.3071976053897023,-0.28512136935519594,0.6034037639616143,-0.12030666723181702,0.06496964869325872,0.2743913515092224,-0.10519706370074929,-1.0288998717682252,0.6138833339594495,-1.4788881861933496,0.3310143481038458,-0.5323392716594154,-0.0026355181605557066,0.18344507013081815,-0.07593722281236462,0.5501785069125373,-0.34957003430952227,0.26224583500744464,0.3385552189213659,-0.313500739781795,-0.12176336524485624,0.4230623216040814,-0.1372573866759184,0.34343021944508,-1.0685608207656134,-0.08129399891238064,-0.1524170327865616,-0.37188669309540473,-0.2280274573127638,-0.031560365206718656,-0.1037615163896136,-0.5659179653798972,-0.9139199277239116,0.07395013491711297,0.2724500107443388,0.1692173592051142,1.058600023325379,-0.39187025711489987,1.8970432217414521,-0.2907236102715428,0.43810176444479126,-0.0007392027267779832,0.22837624223803057,0.01693053335196469,-4.237578354182073,0.14543289254746186,0.3275190448872806,0.08270422773554122,0.25340132625160944,0.3783846586971452,0.8109025363193976,0.4265944697728316,0.48398691982435066,1.5611818167561127,-0.45701746864878073,-0.8483041837659179,0.3008732118361204,-0.5251388668287081,0.945866483846808,0.9101070963288667,0.04853975444756902,0.5812823869005044,0.08181187686299013,1.0213289829336942,0.048925803395776235,0.3383288525089714,0.39293854692016633,0.29718254548589196,-0.6159956067318171,-0.21427384271438224,-0.041743287573169335,0.07181371216937034,-0.42885087076333195,-0.06758518107341151,-0.9934779618764296,0.4951758442274318,1.5291908526299747,0.011812046943418154,-0.48621989699110774,0.9141440056626633,0.4301010600039042,-0.3129074071498386,0.361129794341005,0.28427593572186866,-3.018205830003873,0.1674848964201655,-0.11528708480670091,-0.14600497986933386,-0.22004239946894605,0.18984936458125326,-0.6873197166412577,0.41445199539576066,-0.036572539414207426,0.237440100133042,0.2627526631965428,1.3407256148967508,-2.0672634845395232,0.08677435115956716,-0.028589872145120588,-0.45929770331358843,-1.7615566051444986,0.26018816353577495,6.828994106394397,2.4640891428290295,-0.41461043104164885,0.6772650462620543,-5.9401263892870295,-0.06637582163293322,1.0773341477810683,0.6665139491685085,-0.1906731206149512,-2.7960816793237906,-0.5264631451557924,0.12070058783191862,1.183027628576407,-0.3591755176605774,0.5077586927324338,0.5101213035238729,-0.1704528083818295,-0.013172751084265704,0.18449859107359093,-0.5056075815099158,-0.4967279549430242,-0.043702016766366064,-0.07536967793751509,-0.13936859708571575,-0.21510974152278195,0.23646195105055007,-0.09655028230081043,-0.32620292916672805,-0.10399525699159295,-0.5238260539654479,-0.6839454849221539,1.5417039144912041,-0.48151764349570075,0.5488273352460178,0.18955080801683605,-3.547635369270982,0.3493284951502661,-0.27712044357731613,1.057933789060214,0.26527614447735265,0.2469266415175219,0.08380182446862211,0.18206546547900837,1.7235633011579488,0.4918440216117134,0.12304976786441482,0.06709128811056432,-0.23243720592103284,0.011245924106651524,-0.020701520344407705,0.21896148928668277,-0.3662354205847752,0.3191052635950131,-0.6138335709627659,2.14816452268437,-0.34226316486040165,-0.0695384074873812,0.9185206047272781,-0.21460246310622458,-0.08734017892184061,0.12156937470346452,-0.13897052917120709,0.2725879497281119,-0.24300955572447572,-0.5827081620897623,-0.18419973031348796,-0.672140050763235,0.03382997902850664,1.0528782261440541,0.6554347560388848,-1.0891382957651272,0.29198237347193273,0.28869779686877567,0.2005154844347728,0.11798394628671208,0.6908492379859386,-0.31090209187806805,-0.1045630304315499,0.06524784465349565,0.013919601543965184,0.5861469034826453,-0.15950449101921457,-0.7061692377969373,0.20010163803741549,-0.08685355537633235,0.262512039600924,0.2646565172643257,0.13785375835904398,0.9917712963498667,-0.12923326716408262,1.1163352948763035,-0.24910663333743557,0.4142670340796604,0.4263275535745239,-0.3114689554770728,0.014170134099892682,-0.030687630212977015,-0.35936720919994375,0.01525637864829433,0.4301615441105405,-0.8948219257972944,-0.21782445653522667,-0.6523374615647972,-0.1943592972157601,-0.17195905091787766,0.23390511834480088,-0.002602820244903257,0.45159012643840624,0.17712885061712783,-0.6738048806309864,-0.010557038676599583,-0.06731927866585555,0.9306948194950062,-0.3367943892838576,0.23366812659760094,-0.24784421385641048,-0.056085036784424995,-0.4786920196832632,-0.049875566552406395,-0.041595927695967656,0.08875237463302832,-0.30554946427124047,-0.6582249599275917,0.24037874237330853,-0.2392480980796745,0.9094562274035658,0.6681906170430966,0.08715485922455865,-0.02414341467100605,-0.12925004558223707,0.3642058644900185,-0.32182184115487494,0.33395301256894605,0.395101262343755,-0.14076681563495264,0.29669267324179044,-0.07490093984517732,0.028867053930082407,-0.1459553686485318,0.255473058413775,-0.22198107803965852,0.19006767900342242,0.6314869988865505,0.19387391030537987,-0.04771075638871876,-0.16952479038345453,1.7421075636752097,0.22462918836287368,0.004596320726519879,-0.35648148645181243,-0.22296854859610732,0.8502278352622825,-0.44655480004174336,0.22843033100800186,-0.14084894371319565,0.006275242840251745,-0.042769399421649645,0.8117543163292671,0.26694810529656043,-0.08264606932460714,1.3261860345945355,-0.4005063692895778,-0.07684521145629392,0.36018494800355144,0.08689680980530919,-0.405576049179362,-0.2378607226496866,0.06415634629039597,-0.12128715231702444,0.10264139064874934,0.40377204464239547,-0.3946494179427893,-0.020508509378570294,0.44518257016780927,0.0403118916526959,0.025504808324446106,0.04866338798881137,0.20950244186611824,-0.20833535348053,0.006957899820649022,-0.04429104279130523,-0.6959051966600636,-0.13507564071947692,-0.0010158027823975971,-0.19036751963855308,0.4953231365313181,-0.024095976638762368,-0.15766715446311583,-0.22264420989314743,0.0840878243763024,-1.3108932848494137,-0.11647232483856995,-0.4420372601850392,-0.7384307493669701,0.2697108606303672,-0.9137767461021137,-0.20706364687054277,-0.1227225155499376,1.3513711306756153,-0.4413381959720941,0.38426421191214455,0.1759195299731363,-1.4835820179715593,-0.7307867723646859,-0.6056356902825389,0.7316790556752533,0.14397623426620107,0.5198220770928282,1.5516092741080922,0.17416483295803142,-0.23809268091570612,0.46540031426675266,0.4968576589577241,-0.307415629287961,-0.002218333378220796,-0.028742213697513164,0.09891340283183282,0.03206041035762554,-0.8292645884078795,-1.7583963019606936,0.0845603228844361,-0.025946461203104215,-0.8144611679945148,-0.07602239975244876,-0.3130642649604511,-0.26549625063742616,0.34123928446193064,-0.13805067797054643,0.00020915892255928277,-0.2179148232064374,0.003985618287427757,-0.19757421082082677,0.3031131410496418,-0.40521110567760377,-0.021523300113825826,0.04915232988958561,-0.17797404571097014,-0.07637631285774192,0.17167920041708037,0.01142052617584724,-0.050671195405763765,0.3199320924244495,-0.4826396074831211,0.1727829964451766,-0.009483561720757231,-0.26947163827597054,0.32798146635176567,-0.08361957528315732,-0.015726100006501383,-0.3561098419520735,0.26756875383488654,-1.108494320424014,0.34126194110467895,-0.8931231735362075,-0.6008441249568904,0.598177912422072,-0.3538382096524381,-0.843869963471361,0.35296912580619644,-0.1414127869303047,0.23642220480972267,0.2629206538935996,0.7209790305080526,-0.1393334201120941,1.0928915634518837,0.013170302807036132,0.5143969369142238,-0.39157966048300236,0.2053305374980049,-0.09534758139289216,-0.1661912854210261,-1.1181223445657373,-1.5972281711478427,0.22396861702575446,-1.4621848396582071,0.22965771921107733,-3.2618363751725914,-0.18536066514846644,0.3372404338644041,0.13205330498067283,0.5523056184636718,0.3256566670954931,-0.005390484701299538,-0.2677941482742902,0.8888761003888564,-0.27499405332396154,-0.10440505345398235,-0.1037249181878027,1.5064775746442942,-1.488331506688569,-0.6003745281311419,-0.866673701478081,-1.8467408282778428,0.3559932654551338,1.4781713517763313,0.07694668115977052,-0.51920885571073,0.18021956055119204,-0.10756038565307517,6.718863292799427,1.4891195022905885,-1.6318496179689055,-0.26827274340816515,0.3258332580210431,-0.14230048841648368,-0.14469494138238714,0.9003209504720666,-0.09545318261468011,0.2259969735100114,0.3411510416354666,-0.45820420710401216,0.6142749159777937,0.29776322041397857,-0.17454215999996472,0.33614782613909444,-0.39235140200870544,0.11171768540068895,-0.02579311950003206,0.1889826620424598,-0.30003455955344555,0.2106329804770331,-0.19718902820127257,-0.611881865517693,-0.20292801104704958,0.47070052348329394,0.18385146675887934,-0.06603565448553302,0.5939154962425498,0.1622173718796033,-0.08596220227708049,-0.5219044047734349,-0.10698799211066334,0.10621406849709747,-0.2544559692069796,1.1430724317026413,-0.5530264959251672,0.04709547883136496,-0.10918485106519646,0.17147759359989645,0.48587191911476063,0.23798550679014138,-0.3054516478070622,-0.0355309494386432,0.13501887830166376,1.7936481000552267,-0.009239862223523224,-0.27091600177015684,0.4536229073533034,0.16984609300844483,0.4394496188045877,0.26935830597667887,-0.33364254075928407,-0.3442931907953879,-0.44647386694746616,-0.9130976960755678,0.0315232035352366,1.5665398996485225,0.19171224173433757,-0.9367918822024851,0.00003632919326866011,-0.3377556698553645,-0.005922310406646316,-0.0806965499253871,-0.9375181485481942,-0.07776228658569286,0.2738477044216535,-0.4777175864988945,0.280409239415278,0.3565376060469203,0.08499660950652453,0.476469324667075,-0.09418714579206412,0.0016821434986174408,0.4227462766659637,0.1125062716559025,-0.15042895116309118,-0.41021012941399737,-0.503574984449513,-0.3359550901060665,-0.40709346737093277,0.6060858342845112,0.09368811212475645,-1.2470099332669846,0.8034562530938125,0.4701399629109319,-0.61426262081462,0.2850535029990824,-0.41014457024019235,-0.19124269055782764,0.1735379201030867,-0.3779193789186621,0.23027303801284638,-0.09221405415638341,0.7170354188531952,0.6370207404440242,-0.006764957546688864,0.1231603142845943,0.4173719789954214,0.002207248594122662,0.06228892856328325,-0.0713863274917335,-0.36448990796684105,0.2713929415552603,0.18327012743148594,-1.1452463833897397,0.9206692700962273,-0.15812105452109207,0.3716532370392136,0.574679003159915,0.010116510826404464,-2.02184036415584,-0.2993030436747272,-0.5502380064271412,0.1352215737746629,0.12961169085180047,-0.42960597834260683,0.03210135364731735,0.19483841946971395,-0.3352816556279623,-0.06864195987405063,0.13425228779359244,-0.30729776634622763,-1.1275636607556354,-0.3562600968252403,-0.647013675918207,0.3363080406244611,-1.9857831532474997,0.24843747396925978,-0.2974583791327207,0.42672853508681485,-0.04541060694493105,0.48215605520776994,-0.1795575908311522,-0.08725810782587891,0.15033922259913016,-0.08993241075837677,0.10050274696754001,0.4187652338517016,-0.18147858987767554,-0.03896558681050427,-0.12698483293356722,-0.4861229478296024,-0.3783446723813188,-0.6132645133703177,0.18236066857442337,0.22651143840581353,-0.23153161891124163,-0.48885796059372777,2.277014691393766,0.27846094721638875,0.14821566122649205,-0.6223721661794748,0.33563112882561164,-0.30777364115063943,0.17266936253716786,-0.06813702361679662,-0.783468138261842,0.725476584780983,1.409131678836387,-0.7638294992669583,-0.6658217126388407,-0.2610083226300528,-0.14203070041060917,-0.8877741131376123,-0.26863305110639857,-1.3481574126580589,-0.3514745643605928,-0.35429612097077057,0.1692523221811681,-0.9462835516833875,0.28071899415024903,1.7677584540431206,0.1055416277103295,0.4602963240735931,-0.02084975086391174,-0.13746655483210365,0.37426524264012434,0.02137063803583692,1.1340064961794944,-0.5409706072676508,0.0040609579520578835,0.968244938443187,0.17774365974316816,0.2519162613841426,-0.10408915528707663,0.02968103147336687,0.24427564211108052,-0.39993683572883376,-0.14276114963235234,-0.45848359707823955,-0.17984492172185104,0.7012333252795145,-0.2207900568463329,-0.04387366744758328,-0.16361825839594826,-0.45581008635024295,-0.1701922511653922,0.21152395860465528,-0.24240713794302216,0.10645674151551247,0.4268497043613171,-0.5201480388887252,0.5823600746169908,-0.09343293471060016,-1.0224945599551203,0.5180479083849503,-0.24206956103032992,-0.2305376452495934,-0.6034978354838608,0.47022399213473237,-0.26077639294096555,0.13989645249512642,-0.08770155047135536,-0.5694663684991944,0.2924748794935497,-0.2254516415868894,-0.5247377459030252,0.3372165567269093,0.1698949938575664,0.45627901588310443,-0.3239591955347835,-0.10579118938011377,0.07135648730518607,-0.4260097523274809,0.2757723835499836,-0.142440673294508,0.14518941784356829,0.2817794698527396,-0.5978501305727465,-0.5508654364459092,1.181630500533836,-0.2108748394189694,-0.3527113143946191,-2.5565396336209347,-0.4712288755373361,-0.3750085436139259,-0.23801135888435876,0.4630465576224133,-0.22108691323716037,-0.07648693627022601,0.042110948589999656,0.26141681013842893,-0.18275543415525197,0.7162490543970569,1.3609472661157498,3.261447072830836,0.2962300221183998,-0.08035723411857891,-0.12197417371433218,0.028142789377062428,-0.991798156395793,-1.1152001189486715,0.27285836754551074,-0.6982686724541999,-0.28647147608536966,0.4212832359640776,-0.5423895005580679,0.2002938007259802,-0.09123573621029975,0.23593387293081114,-0.7983259900652726,0.49934774473768745,-0.37137151368022997,0.13950056857370258,0.16962056514494578,0.5124521087559838,-0.44733362718895536,-0.0170555312971923,0.33384223917505024,-0.05161749861622148,-0.005068259826343818,-0.03631757093802997,0.1665536379646795,-0.2058319353997128,-0.09089453084715893,0.42646415466504367,-0.011696455999121447,-0.5398523247333816,-0.43602898338294094,-0.21676055810314335,0.318229015363803,0.3063490596276995,0.5350693691977945,-0.8673931237670678,-0.4382048413525598,0.005041117780149217,-2.070570756731964,-0.14266001136903583,0.43858517653655926,0.035558015765313845,1.3641289900341487,0.5255994328305936,-0.05008445972942512,1.4356038967226645,-0.3149932907759274,0.4365448862884365,-0.030854185768616708,0.22154389750875428,-0.290219082615504,-0.8190440975230288,1.0267999632945282,-0.1638647563641718,-0.46688504536118025,0.232557855631722,-0.2440962937130991,-1.2322559829868232,0.08428730877625602,-0.5322616074339023,-0.07165067888714165,0.13358417682073748,0.10096055703700789,-0.21698118961405502,-0.13002734435218438,0.4748562230244239,0.26910204991269726,-0.11565688544469717,-0.023191579395126023,-0.4339666851873338,-0.828763211497767,-0.5551542357808844,-0.9905471055330551,-0.22159316123121056,-0.5030213179173881,0.11140513529295412,0.36747084667799634,0.2881190239121277,-0.08756154763164099,-0.5543099183214539,0.24428443631100688,-0.5352758057915543,0.11253826564024415,0.08001490203208331,0.3824651765725146,-0.07193943459723993,-0.016655922607410688,0.635523064708741,0.45948138073597916,-0.9262958599681904,-0.7483706398650948,-2.058666919267333,0.6796742251433437,-0.49286812513492123,-0.27062669334014033,-0.006939174216392444,0.25509384018374215,-0.7644328308470946,-0.02632267700069518,0.6600181961898007,0.6561469035233715,0.4799588117097223,0.36902544462255343,-0.7052652995536663,0.16785131227266048,0.8442765149901278,-0.23410064680103443,-0.7302778694083346,-0.5929984209013882,0.2602981822463901,-0.0005877700093101163,-0.52117389333107,-0.29975090263650833,0.391395991040902,0.46283040038348083,0.3147282948195046,-0.08441740645646452,0.033339715062922756,0.25326704182886256,0.7048271666216912,0.6331678534717358,-0.10242924732717114,-0.5461136603937988,0.7053887890259332,0.3549010134655738,0.06860821380189991,0.1871840129529382,-0.4543026302306036,-0.21883400121350505,0.10098041665976552,-0.0913606483883987,0.136658010220228,0.09299164927942777,-0.031054039247105692,-0.3801764336101032,0.22855120323524356,-0.6202947687740811,0.12385126031622634,0.16680824832015478,0.544965414112361,0.05283101537879605,0.21894550872941393,-0.07449343365181683,0.05282830125241004,0.06145156944457678,-0.07662902440470677,0.18703758659073974,-0.3143874611655416,-0.15668724149267202,-0.020155599970370752,-0.01053040671540976,-0.031982056413465125,-0.5115525165470172,0.02461107381423988,0.18571737274993258,0.4387330855593184,-0.7218168532880035,0.19706710996804028,0.8254113463957214,-0.007672069722259755,0.7691144117517297,-0.20305757166502944,-0.21394959749525938,0.26737876037098524,-0.07267207127690091,0.016735559841133302,0.16897080338899928,-0.07523827538154887,0.16603334577719706,-0.31607182282521973,-1.8481045200425095,0.7310450739922323,2.2047184970243077,711.7047786795896,0.5497724777934513,0.6276706532610546,-0.9565471869920926,-4.618413162753762,5.177034759761751,0.6517083656674796,2.9621776720161073,0.0008060447360179271,-0.7710036773833289,-0.9263121719838517,1.2746795009275302,8.286857280328306,-0.8448357061351348,-0.3979186561773657,0.05744121684497555,0.4684804218678339,0.09867734734483366,-0.06305044657337877,0.23109148900484228,0.30864816076579155,-0.1793311253619811,-1.1906076898973155,-0.7115816771910406,0.8974014890846531,-0.0300850162905659,0.30807206385864455,0.3464686285728065,0.4756249295536915,0.3406286737719729,0.4704554218299304,0.30297782178539434,-0.4542731099463807,0.17560666623264545,-0.14129659570219757,-1.1778176478626048,-0.6470711937036929,0.17796671052174684,-0.4275401182366509,0.07692296238753493,-0.2837929639499809,0.33046446325549456,-0.0454515597860229,-0.3471355535872944,-0.4198966922384627,0.07634008354258927,0.11953360561017784,-0.21727173906164263,-0.3214018772044316,-0.745500048995397,-0.15475835099468535,0.4802064873637298,-1.334314377038309,-0.2980339414951845,0.24953172555944558,0.4100109003489627,0.4302026361626566,0.00318472468029842,-0.2289827126197534,-0.10494658762258657,0.2710591795436261,-0.12742893460680677,-0.3366043487945718,-0.4851609706360038,-0.338367024768343,0.1821319171423502,0.5099605653693984,-0.4154993373732644,0.2396568153084067,-0.9335247757663054,-0.2742800795210141,-0.21662695730335924,-0.29079221257284893,-0.5368706847421141,-0.5640876755063406,-0.2074714361552516,0.2863884950366298,-0.035742557668223277,0.513646412238854,0.05184085941199853,-0.038571475124486165,-0.20591207206606402,0.3278826838912709,-0.0669853290287082,0.01931168361173992,0.2412081157611838,0.18503720588784583,-0.41733964425768416,0.16735680795168717,0.09797701076241079,0.31483838400878283,-0.33012930466806406,-0.06581313159916824,-0.40554793450496746,0.3131180411400803,-0.32462762941418905,-0.6216669861027287,-0.10728338940185339,-0.5282988373425831,-0.033731209024927995,-0.1294234748963238,0.10418666305333517,0.5240095690212752,-0.3673978078087727,-0.4608457841370536,0.5079405352861455,0.6334138900684826,-0.05103983661069583,0.07498270395154724,-0.2783648392744399,-0.09823166613873091,-0.3159462028792182,-1.042009269237289,-0.3341400873786343,-0.6779804429776495,0.4859526726887387,-0.14631647421605998,0.09701726356605218,0.5658611087683135,-0.23315483254645591,1.146556682070888,0.5818516916191274,-0.5044325114326913,-0.24364322744040087,-0.3111088300569052,0.02577344221240898,0.3556950280464549,0.024625131598636527,-0.5452776411726953,0.06551840652275813,0.25283280378098216,0.23928259782018468,0.3657284795536905,0.43567980078552815,0.6805038389002896,0.09063832926255996,0.9612581886781395,1.0911871192636344,1.5043392365609503,-0.06590404840299899,-0.3431497493834951,-0.08286819804664339,-0.0646985797034637,0.14436903372853763,-0.30550644898702983,-0.19543120404489014,0.48241799453759265,0.10087593368327546,0.1868830356495729,0.12374862272921786,0.22472206384901267,-0.016382780432016877,0.17926326897355574,0.6759484974738111,-0.6138640433839753,-0.07122717887651234,0.021102360300412442,0.4641974188287597,-0.03641080500442145,0.10243660990061132,0.3506704827274149,-0.3226786112234593,0.17555962183470625,-0.4356331562352699,0.37387127184075813,0.36005064434177636,0.12159123428455974,-0.09482292053243778,0.3941349772647095,0.08380230650802481,-0.5382185840361651,-0.1419204495514073,0.37823398018123927,-0.290979206111394,0.2652270061106989,0.3215642568592734,-0.11668100780973366,0.5191011141164046,0.254057952660462,-0.2876680874566521,0.14718112697532368,0.14475661202832685,0.15985681314095507,0.4241900997848358,0.08283169035640238,0.11952888889822236,0.0619480321140402,0.41386803226308283,0.285088324858964,0.019698027636516114,0.3062965695064157,0.07571808852455424,-0.4528226568312403,-0.2373073092113455,-0.31176764801910384,0.20382404227484852,-0.028420718302336827,0.6222667627505841,-0.29761333280778574,-0.519048015168958,-0.32198554564239906,-0.38001137490513515,0.40972031366705,0.21776095859804487,-0.7355829251734282,0.5985673710128901,0.3577225438290028,-0.21180007915878868,-0.19591628072824058,-0.20549946640054284,-0.11135978979588189,0.07017346503459203,0.1494813709461471,0.061539856998070526,0.07925047767743279,-0.11866233007528733,0.07596388438512033,0.22112785494788517,0.17735443825658598,-0.13877054755075408,0.005563925932101545,-0.8122630063761995,0.4641976666411807,-0.5711779210897681,-0.4814079570692523,0.4399279403526616,0.2045102584437284,-0.0059101034822029545,0.3019085955483075,0.2697728377063888,-0.2475106751139007,0.34112237459685507,-0.3352603874905208,0.015140759340969754,-0.04370574948184059,-0.05034519681993654,-0.18754111513471378,0.08836591613801142,-0.20710452246194036,-0.07920117258343135,-0.3969363765220229,-0.1415004870932117,-0.38803288724741725,0.027020186549902785,0.15070149212844197,-0.25339584282888744,-0.2566042742362108,0.05983455854589635,0.24244690512186443,-0.15296183232624652,-0.3137091181012426,-0.3211890746969844,-0.8921794247408175,-0.02110341160026618,-0.07159796207524244,0.31040283942261976,-0.4264220321730721,0.16499294476376966,-0.35968808222279847,-0.1429580569228917,0.15860996312501383,0.263657536158538,-0.36199806433779474,-0.37406354350999077,-0.4341435005941056,0.4398883878214475,0.25593214414870064,-0.03594130968990844,0.2524080731111448,1.172411388457137,0.8455754518791709,0.9174343918141964,1.1288558278530003,0.20214807246924194,-0.24719270134063845,-0.05595361786787664,-0.06917551917084057,-0.135438702506829,0.46088758510434275,3.1737260292526415,0.7980417420202844,-1.1165196050323263,0.5660762582041617,-0.00529764245528997,-0.34490936359526664,-1.0120497504580088,-0.14962803074386088,0.712450403921198,-0.3205784581469053,-0.5095597680999178,0.20799542608669647,-0.5019060641576186,-0.007080369735582398,0.23744962684909862,0.6489845836654975,-0.4960369983024829,-0.3225458445517652,0.4769635531885186,-0.2891213267731648,0.2428571192798609,0.15604328377883667,0.42434749292196416,-0.09968272927278429,-0.22620759104806934,0.4537826265247522,0.29403050517957535,0.1598490868366826,0.37379762864687915,-0.2056544266818545,-0.940742921881483,0.028687768795726206,0.34405654462158203,0.129306829525056,0.22212707696976375,-0.25633970658777844,-0.17422647329962254,-0.13265412090083462,-0.49012346474067875,-0.1319988498773952,-0.11518015254707072,0.17434118723920017,-0.0951137448740639,0.4312233286639401,-1.071299451835401,0.2017039298083721,0.3726398814632463,-0.40065256917710423,-0.12007609816948885,-0.307092737782119,-0.2509230407171398,0.020111659964555453,-0.2080309235536985,-0.20206693034008474,0.662124338512653,-0.13572504162272905,-0.1396226115814752,0.2567188738957312,-0.3102880929163252,0.36058102224150357,0.1980615383902877,-2.134504023347718,0.42556469420742526,0.8281194666614985,0.19999422205389947,-0.18963969344610915,-0.4872195935929405,-0.11412274834855564,0.11501308529883868,-0.1755416330805582,0.034479406710673566,0.6451735756626634,0.9716868421384425,0.44423606577018476,0.21557534192858382
biasActivation=1,1,1,1,1,1,1
[BASIC:ACTIVATION]
"ActivationTANH"
"ActivationTANH"
"ActivationTANH"
"ActivationTANH"
"ActivationTANH"
"ActivationTANH"
"ActivationTANH"
