encog,BasicNetwork,java,3.2.0,1,1432373543063
[BASIC]
[BASIC:PARAMS]
[BASIC:NETWORK]
beginTraining=0
connectionLimit=0
contextTargetOffset=0,0,0
contextTargetSize=0,0,0
endTraining=2
hasContext=f
inputCount=118
layerCounts=1,178,119
layerFeedCounts=1,177,118
layerContextCount=0,0,0
layerIndex=0,1,179
output=0,0,0,0,0,0,0,0,0,0,0,0,0,0,0,0,0,0,0,0,0,0,0,0,0,0,0,0,0,0,0,0,0,0,0,0,0,0,0,0,0,0,0,0,0,0,0,0,0,0,0,0,0,0,0,0,0,0,0,0,0,0,0,0,0,0,0,0,0,0,0,0,0,0,0,0,0,0,0,0,0,0,0,0,0,0,0,0,0,0,0,0,0,0,0,0,0,0,0,0,0,0,0,0,0,0,0,0,0,0,0,0,0,0,0,0,0,0,0,0,0,0,0,0,0,0,0,0,0,0,0,0,0,0,0,0,0,0,0,0,0,0,0,0,0,0,0,0,0,0,0,0,0,0,0,0,0,0,0,0,0,0,0,0,0,0,0,0,0,0,0,0,0,0,0,0,0,0,1,0,0,0,0,0,0,0,0,0,0,0,0,0,0,0,0,0,0,0,0,0,0,0,0,0,0,0,0,0,0,0,0,0,0,0,0,0,0,0,0,0,0,0,0,0,0,0,0,0,0,0,0,0,0,0,0,0,0,0,0,0,0,0,0,0,0,0,0,0,0,0,0,0,0,0,0,0,0,0,0,0,0,0,0,0,0,0,0,0,0,0,0,0,0,0,0,0,0,0,0,0,0,0,0,0,0,0,0,0,0,0,0,0,0,0,0,0,0,1
outputCount=1
weightIndex=0,178,21241
weights=##0
##double#21241
   -0.535798734,0.1459679998,-0.963645911,0.2861699626,0.4565490538,0.5209861922,-0.1314276998,0.4172156431,0.2852467127,0.2359380919,0.2206159584,0.7885138707,0.4538273771,0.0975028264,0.390935619,-1.2234194055,0.6035906863,0.2170055628,0.6501366639,0.3072384684,0.903389569,0.3478801819,0.193997739,0.1106511868,0.4905213196,0.5382930502,0.0368295145,-0.2284005388,0.198826462,0.4431915854,0.1090685174,1.2551566294,0.6642083847,0.6019860976,0.0986972871,0.88484053,0.5310427835,0.123843458,0.7002274789,0.1134720366,0.143630514,0.5604631346,0.4050435916,0.0364577533,0.3551153061,0.4676379748,-0.4684039506,0.6762566715,0.2100046255,0.4884812256,-0.1894745023,0.5926441778,0.366298015,0.5966000534,0.3947531791,0.1446318829,0.4066007486,-0.2578145134,0.1556100944,0.2340581176,-0.2012824551,0.4755445073,0.5586070377,0.5257150817,0.4726669434,0.4782015146,0.2925642488,0.5880984828,0.5679382522,-0.1055609702,0.2448073935,-0.0915261398,0.0573997168,0.4852974162,0.4181631356,-0.0978646587,-0.1157139963,0.194372506,0.447283283,0.9483468877,0.2731242061,-0.2323566782,0.3050721748,0.2597737649,0.2092145965,-0.1038686038,0.1285310662,-0.2131844295,0.266584475,0.2843128962,0.4411295817,0.6479989993,0.2627585321,0.1804988666,0.5782765224,0.3060961105,0.1100739694,0.2884359303,0.4523746154,0.1554286498,0.4146544466,-0.0525438978,0.1646422697,-1.9486270594,0.2343690506,0.1836454996,0.1363167474,0.4425467292,0.2546872169,0.5381989154,0.3171782282,-0.1998904209,0.5561939758,0.1631899621,0.3905221061,-0.2015816784,-0.3781687896,0.4636836633,-0.240642634,0.3525823853,-0.7359256079,0.0528140733,0.2056055724,-0.1042591051,1.2292839376,0.1800444745,0.6230533841,0.3297665559,0.6307128015,-0.5232490771,-0.1402862519,0.3130834711,-0.1238736984,0.5435474406,0.1026095599,0.3972363004,0.6873530577,0.268340287,0.1323633197,-0.1978554668,0.2983981936,0.2580003713,0.1046172717,0.0982856557,0.2577036396,0.1859796135,-2.3961050949,0.2407689636,-1.8696429004,0.6132711993,0.1442243021,0.2351673273,0.6243224669,0.1580804641,0.4647440455,0.1985189366,0.12261044,0.442219225,0.211247005,0.3693397253,0.6096527003,0.4326481333,0.191684999,0.1252247469,0.20051191,0.1551775508,0.1078092911,0.056942253,0.2169621966,-0.2356585287,0.5227357773,0.4618879152,0.2968070972,-0.032991262,0.1800374797,0.129642024,0.4984142028,0.3655945213,0.4904821557,0.7438214363,-0.219479819,0.0122545934,0.8706030236,0.2894923097,0.606262484,0.2216164767,0.5630897994,1.0682478665,0.4931307214,0.1779728348,3.2029953584,0.4975855346,0.3869038983,0.2957378636,0.686363621,0.6144895823,0.2273760297,0.1723415404,2.222175427,0.1261863366,0.5850995126,0.1510028907,0.5002647545,0.1137084766,0.1785456134,0.34947717,0.5523205607,0.5267258512,-0.0269664687,0.2734484248,-0.0749882984,0.7441402446,-0.1214469377,0.6210308425,-0.2618218072,0.3208668325,0.0708551515,0.0949676596,0.4148200478,0.5121362776,0.034597443,4.1890635519,0.8409273303,-1.6011986417,-1.3354309726,1.2342681296,0.5379716186,0.4363081172,0.9893482277,0.0160225493,0.2338699055,0.220639246,0.3888402762,0.5461639094,0.5731635245,0.1181535481,-0.1630656258,0.1818466925,0.6971036296,0.5152370031,0.652796971,0.4494308762,0.3774341717,0.4998165521,-0.2606389092,0.448718189,0.6962236299,-0.179682912,0.2410791716,0.3721865694,0.8292859699,0.9100678482,2.5351794292,0.846137863,-0.1570164207,0.3338143899,0.4872247303,0.424185488,0.0508781355,-0.0634584327,0.1905724407,0.0237522873,0.4029757433,-0.1221646929,0.8173751931,0.317609622,0.6185465867,-0.0020302272,0.3386154508,0.1711520611,0.164684044,0.2040982293,0.4961704792,-0.0169288885,0.1615888865,0.78073897,0.3247634575,-0.4558222153,0.8508790885,0.3954609192,0.608433481,0.4292161853,0.4144865472,-1.9107982782,-0.3211817073,1.173357691,-4.7275247063,0.537016317,0.9103898694,0.5315513717,0.2945076546,-0.4635858292,0.3031938253,0.4475997693,0.6037316857,-0.1734903556,0.3351079931,0.2965855822,-0.1360215195,0.9547465549,3.8444197752,0.1361253757,0.0694450546,0.4299607007,0.4258310248,1.4553986975,0.1860851181,0.6936498364,0.0143708031,1.9903500363,0.402948105,0.3687507374,0.4788278441,0.6266853291,0.6296705272,0.4939760087,0.5092355745,0.2766086018,-0.0879740765,0.266461992,0.5377982272,-0.018272302,11.8044555966,0.294648888,0.723768379,1.2006768621,0.0964404028,1.6753113966,0.0113491375,0.4538130285,0.2885400625,0.7324750867,3.1256774408,0.0095636051,1.4355040047,3.7292675537,0.0381145742,-0.0002552558,0.4418523393,0.7462947778,-45.8194596506,5.7176334849,-2.3876126019,1.2923326175,-0.9317970953,0.5886620661,0.1133491348,0.3240973794,0.0873609687,1.9439160175,0.1974193527,0.354424043,0.5583319281,0.1545219002,3.7214328354,-1.1668358797,0.3222481909,-0.698212354,3.6379192109,-1.1366371669,3.2003892367,-0.477338293,-0.3107536139,0.0577559651,-0.2085471368,0.4250337417,0.1841700097,0.6027850958,0.6866242253,0.8566038662,-2.5014242676,16.3760344139,0.5637823292,0.4844438328,0.3232209374,0.2037602031,0.2115611031,0.1119281947,0.3530432892,11.0310001912,-0.8942232764,0.7336011054,0.4512923497,0.4124849091,3.0548950676,5.5559027623,0.0790633301,-0.0930505248,0.3118596647,-0.3316509943,0.2134036354,0.2700650834,0.0022886685,0.0026711432,2.4358881809,7.8236610233,0.4256956037,0.7992192295,0.6470695276,0.5615210894,-9.4543190598,-11.4213578906,85.2888377452,-0.1429478869,1.35952288,7.9173693844,-0.5710546366,-0.0796023048,1.4071765354,0.7990407384,-4.2769189468,0.1043589796,3.3808577435,0.4861337965,2.3084721141,-0.4734427636,-0.1069165865,1.0723205394,0.9901732739,0.1403527223,0.1046756977,0.6895008063,0.5601556267,0.3257887553,0.5718922435,0.3015228452,0.2965654264,0.0787792838,0.8653661077,0.3018177977,0.2763670206,0.6820758967,0.4932796232,0.7019551495,0.1690091658,0.5188420939,0.4052221551,0.3714688061,0.4610499851,0.5862658574,0.5299538936,0.5025805235,0.614915899,0.5274087397,0.7921377144,0.3389145582,0.5751803738,0.7250417124,0.0362245923,0.4780891293,0.6543025324,0.0426280005,-0.0454051109,0.8336592939,0.1068891966,0.1215019515,0.041502896,0.6695384926,0.4013387977,-2.6801045634,0.5313460813,0.3443905135,0.6832334102,-0.0546096637,0.3284509586,0.2691922154,0.5356381414,0.2450974139,0.508037607,0.0773737913,0.276014738,0.5875669775,0.2245989078,0.6190797304,0.0858549704,0.4510556839,0.6976501126,0.4645436128,0.3312789902,0.374412176,0.7614100901,0.8068580444,-0.3236232489,0.0522894049,0.6316431877,0.0496707778,0.0107123475,0.499336082,0.314414014,-0.0998550107,-4.1943246095,0.5679093056,0.4029743453,0.296729298,0.0410678679,0.3861601704,0.0432744649,0.4197373537,0.0093010165,0.2070586942,-0.0539157829,0.5442853557,0.4953571167,0.1086122165,0.5529174125,0.1791918661,0.0749658954,0.6671537709,0.3495181332,0.4677043284,0.535677707,0.0889520616,0.5013551534,0.2685481354,0.4927058929,0.2911093556,0.3249359499,0.3369846442,0.5717600954,-0.3104760832,0.2876347373,0.1466664496,0.1319859848,0.4627752155,0.3771952698,0.8286940428,0.3319979394,0.2767166279,0.132904944,-0.4309023137,0.4944780997,0.6810307087,0.3591881822,0.4854847889,0.6042970079,0.2810297039,0.5888423657,0.7553770698,-1.3052231297,0.6877512454,0.2291843161,-0.1737629266,0.4020861271,0.3824495875,0.5515757761,0.32745999,0.2669458419,6.2157770194,0.2490901938,0.8023340026,0.4651665556,1.183185238,0.8499029664,-0.1954999475,0.5074570853,-0.0186656913,0.4380112481,-0.5783942154,0.6146692187,0.1954388214,-0.1892679574,0.3191837474,0.2750209866,0.4559131231,1.4608991911,0.0906827936,0.6167124958,0.2386739652,0.7702533263,0.478721381,-0.6192217714,0.3185054963,0.4580415134,-0.005145696,0.6239267686,0.2339667612,0.2552007097,-0.6145385861,-1.0163515346,0.2403543121,0.2791364343,-0.5763223419,-1.7324455989,6.2647859239,0.1286762686,0.133684437,0.6040463694,0.0307513404,0.2814965818,0.3999861502,0.7468212964,0.9509396884,0.4230220431,0.0666320442,0.5226998244,0.5418709256,-0.024491055,0.6851247295,0.0358263095,0.4464559693,1.3082654562,0.0998808671,-0.4599389079,0.3106793291,0.2416337251,0.4937845898,0.551164107,0.5348850821,1.0643714823,-1.5824048336,0.6453637625,1.7687065302,0.1861815562,-0.8702322227,0.5181717496,0.2050516454,-0.4546250727,0.2904221492,0.4723004542,0.1780577747,0.0526979537,0.3407514981,0.3960910672,0.0192691602,0.7658315851,0.2764867812,-0.0925075268,-0.255273609,0.6269395089,1.0036282914,0.5040430461,0.2387002928,1.0799298351,0.1777020369,0.6953047733,-0.5984149711,0.2607549649,0.4108854166,0.2893492314,0.6510606858,-0.0156761564,0.2786291521,0.3497032953,0.6009671092,2.2936439748,0.3574997569,0.865664051,0.3970575011,2.2723378791,0.3454923966,0.4851858459,0.4656967686,0.6067989579,-0.6432928208,0.4623623892,0.3541977844,-0.3116125814,1.5358034847,0.7388373693,0.9524605823,0.7331473417,-0.1964915441,0.5187306974,1.0695450271,0.8818852688,-0.5031927597,0.2619222232,0.5195443443,0.0147636422,0.0326129361,0.6352351146,0.4624510936,0.6018846051,-0.2747986681,0.348693733,-7.034690091,0.2122567154,0.7277582722,0.2071984054,0.0831021256,0.3052334868,0.9770464859,0.4608337708,1.0067948401,0.7323585246,0.1061568535,-0.1969388897,0.779474918,-0.2006193313,0.6675366544,-0.237804042,-2.1019467004,0.0316595652,0.6900133301,0.1432821257,-2.3599694589,-1.3416622887,-5.6526784745,-1.0526659147,0.3123381722,0.6226613768,-2.2134463399,-0.3754524682,0.2103436871,0.3741295521,0.3498446283,0.197530519,1.0270184022,0.5169829312,0.0133914602,0.1419525946,1.7372656187,0.8890093442,-3.2920137293,-0.4440040505,-6.852374501,0.3364899143,0.175543418,0.3378876799,-3.0894617078,-0.0183994911,-0.4867559037,0.3524030563,0.4448292463,0.2091212198,0.591491486,0.9006055073,-5.3745789244,-3.0056139861,-0.5213179001,0.8334832434,0.4578190499,-1.1024469842,0.8844451474,0.9093511485,0.1256397459,0.6089581898,-0.4440851215,0.2938517986,-1.3867200974,0.4029687802,0.6366184305,0.5340611216,0.0892836181,-0.0935888837,-0.028174289,-1.2808407903,0.5049160448,0.2356746775,0.0728047694,0.5402636772,0.3039940675,0.0252039089,2.0250435675,1.1169023608,0.267752653,0.697945022,-1.2615451534,0.265723861,0.1574655226,-0.7357483173,0.7258031159,-2.023507909,0.134611955,0.2177269143,-0.9925685746,-0.5645860506,1.127314969,0.0083566894,0.538463104,0.4985635167,0.4121452609,-0.9076334966,0.3310752638,0.6803898012,0.5180939401,0.3649680073,0.5805704521,0.5235491513,0.3425885854,0.3216465339,-0.3730267011,0.7190613217,1.1351430412,0.0238392284,1.5469955937,0.170469823,-0.1899814045,0.6442519198,0.0219302749,0.6112738155,0.3238785534,6.3323624461,0.139464984,0.783995772,0.5700271648,0.1515999445,0.2035052176,0.2983325104,1.2842345796,0.8094661191,0.2547096049,0.7285262122,0.9553774317,0.3892700668,0.4078841335,0.2235263579,0.6803460359,0.5407102167,0.4198630101,1.0534849665,1.1939516344,0.7990400302,0.915955776,0.4402077466,0.5091288096,-11.0190585378,-3.3600215839,0.2076701516,-0.0852825832,-0.5712005658,-0.1540248528,0.0831566799,0.4801512454,0.1148076077,0.8434912219,0.3558831332,0.149219073,0.6752173528,0.0827519748,0.4207744712,0.6807655911,0.102055983,0.1592026716,0.0992926458,0.1934473426,0.1497249393,0.0528925464,-0.2914184911,-0.0243566535,0.2645208618,0.0370792708,0.0920888103,0.3971381362,1.1782266254,0.4312424593,1.7430666388,-1.7148656601,0.8064883348,0.4926956922,0.2975662056,0.2241498216,-0.0349143385,-0.542057838,0.7386888802,0.5450480624,0.4238237155,0.7020092948,0.7380089273,0.6821779146,0.281907512,2.7707367522,0.0548210302,1.298490745,0.7279828628,0.6222422118,0.2258401845,0.6976600212,0.0437673047,0.5994807042,0.7179240384,1.0101735159,-1.4652889441,-1.9547232644,0.3448019786,0.0346915944,0.2228229737,0.9524301205,-0.3157393215,0.1338847017,0.3518081676,-3.5253807381,-0.2176361986,0.615107093,3.5532081406,0.3808864119,1.3832340113,2.5897233628,0.4975961091,0.3982798991,0.3947302964,-0.5302627737,0.5359500701,0.436075189,-0.692477299,-0.5706390915,0.881801262,-0.1631799597,2.7251432162,-0.4484971465,6.5897725934,0.2522313639,0.4956405776,0.6997785112,-0.234718587,0.2863955498,1.6373244635,-0.2775970416,0.6560884341,0.6233172012,4.7053206841,1.9790276516,0.3484953453,1.9130976399,0.4783623447,0.945919304,1.0768675248,0.5674064467,0.1410614437,-0.2756978789,0.7012579318,0.5949318147,0.1968289932,0.2945307415,0.2135360076,0.3985007246,1.2366708586,0.8841815394,0.4555379868,0.181849491,0.0715708706,0.4931015534,0.1427845641,0.6588877706,0.1800916735,-30.2983125998,2.0829453366,2.0812827059,0.9813079733,5.4557306299,0.4644127704,0.4379744686,3.6140669315,0.5616414352,0.8671549765,0.4975340084,0.1837428645,0.6793592175,0.7164656191,0.3600572826,-0.0551921252,0.1503878653,0.1714769384,0.8421257132,0.5673538399,2.182144148,1.8175828943,0.1922974904,-0.2267679428,-0.019326792,0.8957527463,5.1748407278,2.6081771073,0.4270591195,0.2116672302,2.4286346112,3.2807517932,0.2289895839,0.5852712478,0.0227986689,0.1152746079,0.6478791292,2.2763904294,0.371735359,0.5320077482,-3.9329732629,0.0449847954,1.3483278216,0.8014582772,0.260683359,0.1629095664,0.7416866304,0.0280679131,0.4117304741,0.6067977528,0.4434300455,1.4146044274,1.2240149388,0.3017632879,0.6024670532,-8.2894263324,5.5267769473,1.7239474299,4.6514713394,0.5392648488,2.8224241628,0.442552381,0.8933990367,0.0321278221,0.8614557688,0.4866759529,-1.3039310093,1.7046416913,0.5420857555,0.2274396594,0.4013884927,0.4114036248,-4.0530919659,1.6607667656,0.477123413,0.4377014883,0.4224975095,0.4738213443,0.9291128317,1.0980395632,-0.0698255677,1.079400759,-1.293685878,0.8045168601,-2.9128248082,-0.3092278299,0.6884557008,1.1126552306,0.7405640231,-1.4648651855,2.0660171675,-0.0341833012,-1.5461746891,0.206620565,1.591192877,0.947810962,0.1389074579,0.0825931948,0.3613154162,6.7483881081,-0.7222892448,-0.3375453868,0.0193929574,0.222711589,-0.2386126586,-3.2532406567,3.3094479173,0.7572173504,0.285741589,2.5928523245,0.7478084548,-8.7703378057,-0.0269484587,0.8375260396,0.7416417582,30.743463026,0.3545538831,0.165609749,0.2473948778,35.6976057361,1.5615097015,1.6966863623,-2.8402141472,0.646424349,-0.1993367067,-8.2633363674,2.7376524621,-0.3290842867,-3.2264892075,0.0274792898,0.6217639376,0.5775456646,0.8458397075,0.1057719904,0.1368549141,0.0978081875,-0.4530595856,-2.3516491058,-0.5011467344,-1.9663494067,-2.1016840639,0.4897212125,1.0029131451,5.0507786982,0.7377183864,0.152896544,0.1325197782,0.546716135,0.8853191532,1.2650322459,-1.4836999747,0.1052312633,0.051664701,0.6083497805,0.4619300889,3.494586405,0.5672516895,-5.5234566468,0.1938812802,0.3662253796,0.7743269963,0.11729631,-1.2336388243,0.288193268,0.2623736368,230.6150215804,0.4138505945,0.7298169132,0.6605350588,0.5961765393,0.2666008903,0.0753761659,-0.1638367313,0.6032911046,-3.22497616,23.9719776772,0.9575322414,0.0221831138,1.6193965318,-43.3985891032,-4.751454292,2.7320288968,0.3729297222,0.7913940228,-0.6747959728,0.5211223043,1.8726458647,0.0103274788,-1.6911346068,1.2893821509,17.9995144809,-4.0467188646,1.0275756904,0.6459628652,0.5761381678,1.0976810056,-1.5277326159,-1.4305974141,-0.064675257,1.3419941607,0.4081975279,-0.6366771967,0.9310236192,0.199896248,0.4467256759,8.2512914897,12.0879844668,-9.5646816455,2.1299688406,-0.023160623,0.6397420234,0.3049838774,0.3567280293,-6.0025183291,-0.1400438673,0.2579047502,0.6951786092,0.1608417033,0.8776188149,0.7161027072,1.3057393849,0.1828039542,-8.6478567577,0.6426424403,0.9605720884,0.5364635858,1.3074362771,-0.051658301,0.6571328692,0.3793943826,3.2983680714,-0.1414444403,-0.4633822798,1.197644492,0.1358614089,0.3301521946,0.6953465659,1.7914656985,-16.4815664746,-4.9702647433,0.9485438732,-1.1943333543,-2.0199299009,-1.3733206686,-0.040204337,0.0261431032,0.2303840121,0.3057449144,0.6679198661,0.2568409082,-7.0865942423,-0.1574984567,0.318051217,0.5329262168,-1.2088847759,0.4776964395,0.4574337224,0.2235415985,-1.151952306,0.3512264048,0.8665928426,0.2519509217,-3.0911520574,0.6375165619,0.1166045105,0.6780984395,0.3191781876,0.5601231997,0.3828389733,-0.6886535377,4.6033241391,0.1188344634,0.7018208289,-1.1461721773,0.9708376937,0.2077258079,0.6260086628,0.2415551148,-0.2806385302,0.7399146193,0.1727826251,2.0024058536,-4.4543931315,0.8625670345,0.4755725662,0.8034576399,0.3504458941,0.5653142727,0.7704728163,0.5967425756,0.1031913062,0.5381900969,0.0174200392,-2.3526298236,-0.0948708857,0.0178600164,0.1625301001,-0.6859382398,-7.6311932023,0.7318435093,-0.2058409175,-5.4811933307,-2.9947300054,-11.6986870457,2.1700943973,0.2969785975,-1.0434031921,-1.3259733125,-9.6284777228,-1.0971177928,0.3786873967,1.2192235975,3.0819764368,0.6219556529,0.1400948882,0.6370609448,1.0037778659,0.2146411768,0.262069538,0.883149493,-0.0344357263,0.1367708019,1.3102345504,0.2499139295,0.7193796514,0.0582471655,1.2145070459,0.4582463271,0.5406695576,0.3349000433,0.4178664065,0.4591520199,0.6523221084,0.4835378075,0.1795548074,0.0685100133,-0.0870350197,0.8447877982,0.2121659328,0.4688710999,0.5288531322,0.7872842461,0.535407989,1.0438345586,0.8561678361,0.5634694912,0.5983269953,1.1239221453,0.3969624765,0.5393022738,0.1933104224,1.0493625263,1.4092102734,-0.0111590738,0.2826609441,0.4571995103,0.233876336,5.4198592614,0.6064701867,0.2729323765,0.1368362245,-0.117407067,0.7311105434,0.0690605444,0.1499968881,0.2040232019,0.1118217867,0.1747928488,0.4078758794,1.0133067862,0.9165888488,0.1013849259,0.8319760208,-0.2463641526,0.0460844772,1.5287758414,1.0765706549,0.4747482958,1.212282907,0.315701483,0.1475169879,0.3456358883,0.1659043243,0.7624861901,0.325355294,0.5451169335,0.7165967799,1.3890057982,20.9834469798,0.0746326525,-0.2089016562,0.4671664743,0.0225353149,0.0082197681,0.6406153902,0.2773125921,0.7961921482,0.663984681,0.4838671154,0.1007462301,0.4534533321,0.3088563564,1.6179006128,0.1338758462,0.3386138378,0.0409132336,0.2417821001,0.3937391856,0.0176879008,0.6525790894,-0.0399754691,1.3255772184,0.6762956361,0.1389085439,-1.6821056525,-0.9053111914,0.5254152495,0.366504809,0.5307237462,0.5771944225,-0.0766874609,1.3430586564,0.1479883414,0.3573775023,0.1937761617,0.7153070685,0.750260804,-2.3712316895,0.385423034,0.0084639429,0.7495036977,0.435172766,-0.7579586378,-0.0645276755,1.2430412983,0.3923432854,-0.7424521979,-0.5135075066,0.5654255822,0.2559741847,-0.1175878924,0.7628292809,-0.8292497451,-0.2673873874,0.3785657748,1.4570009268,-0.7748153271,-2.0368978029,-0.0453935574,-0.0943048984,0.5106851055,3.1587754874,-0.5628254108,0.0731280126,0.712459247,4.6771285757,0.5776585131,-0.6966826991,10.8482536525,-2.4453768261,0.3071355513,-0.701390781,-1.7587395753,0.4021917427,0.4512744112,-0.0310795413,-1.6858487319,-2.5278349043,-0.1326668222,0.3472262707,0.8384956565,-6.0044663521,0.2265206388,-0.3322498013,0.5965489428,1.462978586,8.2686818513,1.6478460393,-4.7764909313,2.2782745612,0.8455482438,-8.9383167821,-2.120862311,0.2480374278,0.3184872158,0.0625691485,0.0189169496,0.1558691458,-0.1414473524,0.6198283167,-7.032347839,0.4526938747,-0.2019080009,0.854418335,-0.5429840014,0.0999563519,1.1614134403,0.8674467197,0.5016427278,0.2039057376,-3.0849708349,-0.6986108113,-1.8818670763,0.1695151944,0.1465428367,0.3688696302,0.1648927457,-2.497699083,-3.1096320297,-0.9274338285,0.5387863649,0.5823313718,-0.1067463393,0.0913112781,-0.0211674019,2.6943409394,-0.5868656292,0.2936216145,0.3439090089,1.5683259469,-0.2380619961,-0.2880709881,-0.0510332151,-0.1149066601,0.4903797545,1.2634700287,2.086171127,-0.651166513,0.4290468452,0.4471363699,0.7008568279,2.1184293587,0.2213722755,0.209450425,0.4871083736,0.4820772156,2.466465508,-0.9350296761,23.1349114913,0.3799466663,0.491837592,-7.6809348232,0.5479687627,-0.444198135,-0.7039041719,0.2502077564,-0.4887918005,0.3313965509,0.5628405954,0.5204939361,1.062535826,-0.3082571576,0.6677651593,0.6894633863,-0.237690023,0.9628938408,0.4392765419,-0.3246803969,-0.7191844136,0.6729548479,17.7093323056,0.4475324917,0.2120776151,0.1441107051,0.8744534966,1.3207616391,3.6668777575,0.448534338,0.0354455091,0.6537085635,0.715340851,-0.6217815972,0.2181316919,-0.3689746548,0.306021442,0.6983695138,-6.5684243009,0.4245453115,0.2775932651,0.3096992571,0.6160410239,0.8076288354,0.7780944158,0.8198227266,0.3271424142,0.8042624097,-1.8970312334,0.5366923642,0.6028971448,0.7567778857,0.954933941,-0.685402824,0.7252721978,0.2076406403,-0.7572758721,6.1698029993,0.093139756,0.2106984418,0.7196941026,-5.0169880153,2.4932027033,2.0518185427,0.3797894802,0.1712123283,0.1450859232,0.5039613899,0.839026608,0.8849728742,0.8266428515,1.0955591871,0.4081132859,0.5569440329,-0.06025903,0.2947611725,0.6896669163,0.7332670648,-2.2533371327,3.1939863946,-0.0630397794,0.0544891969,0.6845908158,-57.6461167643,-0.9193338094,0.9731177303,0.4434123878,2.7290691589,-3.6821572193,0.5916697918,0.7021797731,0.1944547543,0.299469757,0.3342106206,-2.5463712058,0.1486085814,-0.0273786224,0.6506205048,-0.2318379765,-0.3402524877,0.0110094675,0.2483118247,3.4331595836,-0.1833457519,0.2208051402,-0.0880087924,-0.8412261529,0.0528530642,0.4803411868,-0.136966782,0.0718099041,1.122835839,-2.8498377851,1.5837519709,1.0382918591,0.2161019498,0.0799999221,-10.2449161028,0.2607698615,-0.8294497681,0.3561290422,0.9343146348,0.2303159661,1.3966864567,0.0369470502,0.2214207261,0.1093114665,0.0123384507,-1.4652379531,-2.6363639107,-1.4779841639,0.6352837223,0.7681476336,-0.3384256959,-1.1514534669,0.529390232,4.0384824441,0.807675203,1.1243293497,-0.6509006704,0.9409862498,28.4841190971,1.1395784444,0.4338594775,0.6156183506,-0.598165244,0.161891451,-0.7027903638,0.3106764615,0.5868684814,0.0650250563,1.7560065811,-0.1552368976,0.2750154056,2.4543695354,0.6031375738,1.327491758,-0.8895705817,-1.0635711433,0.6873115056,1.4412116709,1.4172401642,1.7985947847,2.8806597751,1.7159984234,0.6135321693,0.1562373083,0.6146801234,0.1292251693,-0.0103005489,-1.0921273876,0.5198032071,-0.0034600329,0.4742897245,0.5089564027,1.6372732064,-17.1683001187,-6.7271168461,2.3942675081,-0.1211574737,-1.6110143305,-2.3401667955,-0.9085114936,-7.3778233067,-0.2074583097,-3.440463038,0.3329782371,0.2464625676,2.0063849421,1.3986148451,0.6437134983,0.0875845339,1.490431217,-1.086418196,0.9736365101,0.5349851905,0.6258767234,0.9332841557,-0.4395458572,0.1133312973,1.9139657444,0.3540010997,-0.6026581254,-8.093166469,-0.6462558781,0.6472532032,-2.9830496782,-7.5464800662,1.1557131864,-1.0677605382,0.699129742,0.5045847846,0.6057905278,-1.090229301,0.0864120024,0.3283122899,0.6207166316,-0.3991210898,-0.2548999115,-1.082670655,0.5080624567,-0.0985904397,-0.0989058657,0.1325844955,-0.0653648457,2.0029032051,0.1863270999,-1.4631088777,1.6161057453,-2.1935319237,0.3084996526,0.4067737439,3.6859726981,-0.5326258809,-1.0219635141,-0.1196289769,-3.6855294602,0.2633639377,-6.4270027956,-0.1126283128,1.2844441035,3.1184458804,-4.2274876522,-0.7383067895,-0.7997846481,0.2770456149,-10.7778108514,-2.520442541,-7.4705574984,-0.46030748,0.1293285529,0.1863063524,0.0415520719,0.449263062,2.0325964203,0.2989714425,-0.1698660785,0.44071702,-0.2620150844,0.4188676957,0.5094525914,-7.90442987,0.6293251226,-0.5274239104,0.9007388433,-1.2399780143,-0.5042425711,0.0490389927,1.6153668999,2.6515681462,0.6214029799,0.2835057391,0.3265959759,0.6382005029,0.0395438033,-0.1008302816,0.327432727,1.4438740642,-5.1714617599,0.4903952017,0.574527712,0.4743389255,0.5279781219,-0.9435502833,0.1253705702,-0.5274932381,0.1243903625,0.8308240913,2.3003489631,0.8362168514,-1.3597130565,0.0679599952,0.3396070194,0.6972937798,-0.2882875844,13.8826345437,14.5529118704,0.7424599436,10.8201769866,0.2805353453,-14.1929953272,-2.7023375288,5.6113425965,9.8614770708,2.1274740989,0.8021959229,0.7537780415,0.8108679558,0.2148112664,0.6307133519,-0.4356809244,0.5653755279,0.1570927817,0.3642370464,0.3478452428,1.0379826127,0.1517932992,3.0584840032,0.1494126517,-0.4637235916,-0.3704651159,-0.0651620379,0.588285165,2.8647707061,0.5549338592,0.5134927519,18.5965496314,0.2692324294,0.3972371518,0.0590395032,3.0776777975,-0.1571173814,0.3363453456,0.3189157035,0.6751342696,-0.0220259123,-0.4302469789,3.3732734529,1.8036069957,1.8038191995,-0.0615474688,0.7266845074,0.0835768114,0.4173921731,1.4878772946,-0.5525067427,0.1268491093,0.5271025234,0.5998552552,2.4930034735,0.7316422683,-0.0959168417,0.8817483523,0.3484467887,0.1224912302,-11.9202237204,0.0854028588,1.7890280604,0.6321879373,0.547491439,0.8151502175,0.9393534307,0.2008940992,1.923921643,2.825931414,0.4076409168,0.5362481858,0.5790735242,3.7903968432,0.1603086507,0.4631422791,4.6501419394,1.1062549718,-0.5160085931,0.2793300464,-0.3162493635,-0.2224316616,0.0891346718,0.2337959697,0.6488441978,-0.3644025346,-0.2551534927,-1.3096445143,0.5107959884,0.1461654422,0.876999395,0.7501550776,0.6197432951,0.4930641895,0.4010193207,-0.2999996319,0.3687798323,0.4834500662,0.636728239,-0.3306184938,-0.2521527446,3.4905129924,0.9072837121,1.219393229,0.7261580977,0.295171293,0.6747471333,0.675495416,0.1932014695,0.8161444383,0.0267369541,0.196997502,0.604566257,1.2652412186,0.3929129672,-6.5557354644,0.0993836901,0.3693847133,0.3392554345,3.5801078173,-3.8057594126,1.3177724912,0.1106762477,9.5144178464,0.5398951605,0.0777769318,0.0358232014,0.1411003104,0.5723594007,0.0897859797,0.4355169463,0.3618910027,0.4745730207,-0.594554577,-0.0326232063,0.4591926907,0.4171328783,0.6031516104,1.3729460767,-0.357140929,0.5303643278,0.4671096826,1.5683912642,0.2991164595,0.4962745932,0.5467006761,0.4831717858,0.5130618105,0.5805461595,-2.91484362,0.1170517393,0.3897302925,-0.0448136657,0.5012617401,-0.6052622766,0.656590796,0.0243088905,0.6356708076,-0.6727229743,0.0552593706,0.46029666,-0.0759155195,0.2649825334,1.3057122782,0.3245201317,0.200959994,0.0131022157,0.5909871034,-0.6994991192,1.0862959095,0.2817860176,0.1445092154,0.1829094521,1.0885449917,-0.9036184064,0.2735120761,0.4988953307,0.1484553066,0.6884918428,-0.2178048265,-0.0974965275,0.7015001668,0.267926057,0.8296479833,5.5424732263,0.7864939442,0.367559657,0.4074680762,0.0812202677,-2.7179096187,0.3444755914,0.2469057216,0.7226672778,0.9490546649,-0.0729004929,0.4649886829,0.4892311414,0.4366552256,0.5853578896,0.6111271659,0.6896447521,0.3265626266,0.4602675783,0.4200546355,0.3883941172,0.0058271483,0.1896019583,0.3989295181,0.4517814382,0.6210721044,-0.1599467144,-0.0623348005,0.5053651249,-1.8002981559,0.476173133,0.4775226997,-0.0567147108,0.171081447,0.4554956148,0.214435028,0.4929148633,0.4877070167,0.6321942005,0.5426240635,0.9426789061,0.3445359994,0.3523117433,0.3592268469,0.156385023,0.0336017866,0.0186245326,0.5164567805,-0.5522438195,0.5465107038,0.4704384656,-0.072567304,0.2695330024,0.2814720089,-2.9240845748,0.1963506656,0.2399812526,0.59527953,0.0329935958,0.8993234686,0.4270578646,0.4311273724,-0.038034072,0.0118621047,-0.097669005,-0.1189925756,-0.2184491625,0.2046611617,0.0287757792,0.2995187234,0.7665631077,0.7063671288,0.9147251345,1.1059806215,-0.073558946,0.686997942,0.5339977116,0.2970021539,0.3673616284,0.0841549694,0.2525599087,0.5604414497,0.8777126909,0.3790634288,0.7180870479,-0.4145952966,0.2907862313,0.0010686603,0.6515502316,0.4078527537,1.0360567208,0.1927354557,-0.0583320588,0.2038952858,0.5832211605,0.6687991065
   0.8494690268,0.5333319798,0.3327496448,0.490365841,0.6597623328,-0.0502776067,0.6089672178,0.300502019,0.3521868681,0.1667032977,0.3269534788,0.2826187364,0.5503355326,0.5560483271,0.9782637978,0.3679614909,0.4473141917,0.5108037626,-0.1897696109,0.4222924209,-0.1315751631,0.2963026389,0.9209121294,0.1817675859,0.1841782996,0.514129496,-1.061478917,0.6752135889,0.4911736318,0.3132534876,0.2280284465,0.7579319807,0.5026572945,-0.3298690825,1.6064309372,0.1520612669,-0.0741283512,0.8260949632,-0.3819545484,-0.5549455447,-0.0298703267,0.6530106856,3.7663879468,0.1378890782,0.0358109748,0.348211671,0.3594119346,-0.010616686,-0.0044603805,0.5279732118,-0.4031862888,0.8127194358,-4.0882354518,0.5465552719,0.4539467005,-0.076972892,-0.0332051221,0.4207906216,0.6515832812,0.2907307175,0.6890322115,0.0472274573,1.1526992376,-2.8055219845,0.6871634945,0.5505947305,0.6163138492,-0.2441787395,0.1784765914,-0.0510090592,0.0713996339,3.0282548697,-0.402247305,0.3065037831,0.21601411,0.0573766364,0.0114412961,-2.8926582862,0.8322315934,2.460061195,0.4879282727,-0.4899749314,0.5672746017,0.3941466837,0.4651123384,0.1895157649,0.5994152955,0.219924259,0.3914378852,0.5635587032,0.7821121827,0.5140590391,0.5325864555,0.9593344631,0.6218059315,0.3697869538,1.9283646384,0.3278241058,0.3420733804,1.8258803949,-2.4903055739,0.7705806848,0.1779155314,0.5393275935,0.0770695803,0.3180617023,0.4063266432,0.2854438899,-1.8738510704,-7.5334988372,1.0938684082,0.4182020502,0.3769935354,-1.8874437901,0.2291098158,0.0601826903,-0.0474587874,0.3978429205,-1.98746319,0.5087845608,0.2049155313,0.6612978978,-0.1021606936,0.069057428,0.2113056201,0.0423045518,0.0689993663,-0.1836251569,0.3330978952,-0.0373570449,0.0323952917,0.3599272999,0.4894877006,-0.1546134608,-0.1008036894,0.1980358004,0.7586769986,-1.3613333829,-1.3074710317,-0.0029445056,30.2246810692,2.8047595043,3.9629103404,0.425255757,-0.3788358502,0.3566077501,-0.1062192978,0.2103655182,-0.9020823944,-0.1896995809,0.4109149708,0.0645395908,0.0210842541,3.6512292327,-1.3183491464,0.3816060859,2.2802172991,4.8069925034,6.4439083946,0.8858770638,0.2965383119,-3.3744441662,2.4072153726,1.2000453364,0.2393398952,-4.861240515,3.0701241997,0.8656953809,0.2398670485,0.5746162835,2.9448304119,0.4765645476,0.5352611817,0.3736444253,0.9226042416,1.0660161563,0.6095185645,-0.2547005229,3.169033607,1.7911831845,0.4944841666,0.0840479319,-3.7933843708,-5.2221714744,0.6156536911,-0.0227717217,0.6710272951,-1.1588385194,1.2481596361,0.5912936538,0.8048052481,0.6381163321,0.6722360182,0.580338759,0.6880070089,0.3256301024,14.2073904136,-2.0307622429,-5.5957593033,0.0388191702,-5.5939343133,1.7313267667,31.395944136,0.1459635326,0.0704091413,0.8986725881,0.7347345711,0.9952308239,0.1983089203,0.8706044995,-0.7891840494,0.0729238164,-0.9113983415,-0.9173659359,-0.1672653149,1.9345456001,-2.1242948382,0.3898302416,-2.6491203797,-0.8132356567,1.6556851663,-3.508670873,1.8931986822,0.2739058639,1.2133683202,0.9874190944,0.0223220005,-2.1317563155,7.9645432847,0.1158419708,0.6381230558,0.4570969925,0.7040545199,0.5501924897,0.3075671846,0.5608130722,-0.3274187746,-0.1038807406,0.472868869,0.3201608406,1.4253564924,0.5539969465,0.2534176122,-0.0316442314,0.3059032133,0.9735589212,-0.8412335452,0.0333447257,0.2325142068,0.5737894797,1.3867381372,-8.7756319735,2.5452566483,-8.1773230764,0.4355476494,6.0503764794,0.2727565127,-3.430080319,0.0840859138,-0.0304047641,-0.2353767044,14.3403300663,1.8740156033,0.5566221406,-1.8267717324,0.4948128989,1.038205856,2.9963870725,0.7914421789,-2.0248186388,0.1759435739,-0.7202897742,2.1007562337,-1.0401262992,-0.4485549891,-0.2920634167,4.7788043254,2.2337702392,1.007114769,-1.6188373696,-0.3935830542,0.9766777806,0.4066335914,0.3376067371,0.7775044381,-0.5240694916,0.4782706076,0.2688733828,0.404908478,0.71348927,0.2616372162,-7.0691156606,-0.141293374,0.2103221212,0.9606476598,-1.7321693528,2.4419500976,-0.5008252985,0.2505637642,0.380824416,0.4133166792,-4.8399481958,-0.2285658942,0.137060961,0.6146296686,1.301366893,0.4038059232,0.3368567969,0.2272495017,0.7373166242,0.5987472398,3.6271198213,-0.051486487,0.3887733468,0.8887903584,13.7499650413,2.9927192065,20.0250320199,-5.2000022609,0.0560803589,-4.1971474547,-0.3512436593,0.2472912861,0.4647013258,0.0419908469,0.6128467686,0.5450247082,0.1965306206,1.3274280149,0.1389649027,-0.2084625239,0.0595611187,0.0445564033,0.4937405552,0.6685375872,-0.728923438,-0.6223548419,0.6251969167,0.3453213403,0.8031887702,0.4567979795,0.181690688,0.2447293112,0.2540534645,0.4799767091,0.6166777887,1.1224251812,-0.4439375779,0.8016995807,0.2942168869,-0.1448712426,0.6598602837,0.4830034443,-0.9801622869,-0.1897502438,0.4492559777,1.7783935076,-0.0302458031,0.0258582593,-0.9034888542,0.0044753189,2.9019268019,0.3736625987,0.2023950021,0.6991161291,0.2851412413,0.3399957343,0.473551443,0.2265038223,-0.8477998438,-2.8819274544,21.7553312599,0.3536012518,-0.4488857183,0.0382125867,-5.488223262,0.4914642466,-4.3578800044,0.5452351397,0.1247588222,4.0102308879,0.8498165344,-0.6313911647,0.0833865801,-2.7663372434,0.7312360983,-2.7076904762,-0.2272588803,0.4928656178,0.6738896675,0.5745376854,0.2797530045,1.2578842446,0.2112992574,0.5042418962,-1.0910648178,0.0104721371,-0.499514887,0.6388358376,0.063989119,0.7361005408,0.4630494835,-0.2344153507,2.1276480996,-0.3416015862,0.0553527374,0.0151723507,0.3242260932,0.5627411209,-0.6898706986,0.604885178,0.2585249561,0.5711658311,0.620332727,0.7244058954,-0.0467622296,0.9801102607,0.3495371658,0.3881653322,0.9729362036,0.7006563305,1.0468192457,0.3527526268,0.5452051998,0.4092891708,0.6960230245,0.4059384225,0.533198683,1.0799553298,-0.1070640113,0.30710222,0.6138366722,0.7668686548,0.6407588193,4.1247304901,0.3672998221,-0.8994280877,-0.8302566138,0.5718694233,-0.5304557351,0.1330681323,0.1134409401,0.4905646761,0.2775545654,0.8383061761,0.8468257898,0.8151194786,0.7118127643,0.792279327,0.0285523371,0.2947076703,-0.2471550623,0.8462847158,0.3218746445,-1.0059686082,0.2994527604,1.3732671288,0.9300449756,0.1262877482,0.580489068,0.3473346639,0.6394520906,1.1609767323,0.2355660699,-0.1716667526,-1.1631683795,0.8486532546,0.0513727364,0.0746831936,-0.1744359265,0.0781100815,0.0907252626,0.3904109111,0.4297473508,-0.2270288144,0.063745846,0.6140935667,1.836314548,0.0134287927,-0.3289974624,0.6317476314,0.5819643578,0.6733602092,0.5655145292,0.3266172475,0.2640363493,0.6490298988,0.7464721523,0.650601688,0.2437911853,0.3287631071,-0.983472547,-1.6316828257,0.5534714539,0.2306441211,0.6109635584,0.3723899116,0.6260457578,0.7999151311,-3.314845174,0.3098502408,0.7595318895,0.5676844702,0.125818433,0.0216632924,-0.0943162683,0.4394311966,0.2725329755,0.3926798572,-0.2525692255,0.2095192395,1.3247017513,0.5880961368,0.1398473888,1.6095197041,-0.0502487751,-0.8022044716,0.3017266754,-0.4459001944,-0.4122665398,-0.0687821668,-0.0301014285,-0.6221656501,0.6686596012,0.3867201091,0.2751547317,-0.4309387258,0.1349393976,0.4181357453,0.5816652599,0.2922623016,-0.0086346277,0.3294891194,0.6674856383,-2.3049445435,-9.7709008665,0.0816751416,0.4803483543,-0.7774908611,-0.9746959937,0.3354500193,1.3806679598,0.5868212397,0.6562430674,-0.2668576396,-4.9161393421,0.2089894444,0.5717107307,3.9688764177,0.6582345374,0.402321742,-0.0637077899,0.2273944747,-10.2767277327,1.6682576423,-0.0431210803,1.589304631,0.8987887205,1.0581354756,0.2758235365,-0.38439103,-0.4893268071,-0.8982282485,-0.1147839489,0.2181266687,-1.8054791275,0.5044152541,0.2389902934,0.5901671735,0.8816850888,1.146100525,3.2203110447,0.6453762775,0.1898646705,0.2338098251,0.1359920188,0.300951438,0.5580928344,0.4696913908,0.2306607348,-0.6057291212,-1.9169529715,0.6941842515,1.531916113,-1.0223821241,1.224837809,-0.1980562726,0.3074031027,-0.3350434788,0.2866310102,0.1004266344,0.3302821202,-0.0794073831,0.0336782927,0.5728010468,0.1324736425,0.472813903,0.4753495637,0.690793981,0.0786063344,0.2938840017,-0.0302047842,0.1664398706,-0.5872070906,0.5269069585,-0.1211286815,-20.8669729827,0.6773905884,-2.6849791773,0.3769716147,-1.0908294541,2.9458705715,-2.5934652134,2.1688368169,-0.343785304,7.1568989795,0.3258236671,1.6607770331,-4.4230212189,1.2117482677,0.6336068835,-2.1506260676,-0.9832953669,-0.0238225883,-0.2659585315,-0.0163656413,1.6663095803,1.1939760354,-0.5283705453,0.7050984879,0.2116626323,0.3099459361,0.8115217258,0.7537638662,0.0593544557,0.1910082126,-0.0050543542,-2.7358548746,0.6660572656,0.3848306619,0.530549449,-3.3049577724,-0.0124307022,0.2636672477,-1.537512402,0.6593020944,0.611280372,0.1367114305,0.5544166604,0.2920072426,0.243956554,0.5521209757,-0.4796817495,1.2140105442,0.4076114614,0.5054459301,0.6385719588,0.832589657,0.6471512233,-0.7808935084,-0.0042499004,0.0552039722,0.7862757282,0.3888600714,0.4612356288,-0.2287925869,1.2266275246,0.1495062981,0.2912157617,0.5846513841,0.5021458098,-0.0733516283,1.1407927948,-0.0294970654,0.9912444391,-0.9578420876,0.3234607259,0.1070369767,0.0975014084,-1.0214942117,0.5141959965,0.7274824506,1.03741739,0.9330747284,0.4142009905,0.9562659598,0.1116455781,0.5728547145,0.210068699,-0.3237543307,0.3506160103,1.9600577159,1.6321851619,0.5020810856,2.1214459727,-0.2640682166,0.1878548359,0.4928346683,0.5117289063,0.59491553,0.1607379935,1.0855265267,-0.2047555971,1.3649054122,0.3043274805,0.1973358342,0.4301182596,0.1116629546,0.5441652587,0.3824002041,-1.7411226115,0.0513693527,0.6466171457,0.9473252274,-0.5198274127,3.1095628548,0.1199713194,0.2398636189,-0.0047577569,0.111397981,0.6217779918,0.101564417,0.1589224384,-0.0111698475,1.7286305884,0.2808369061,0.3514970809,2.1049818228,0.2619278907,1.0551659207,5.0200289511,0.6441232096,0.2250586593,-1.619294111,-0.127999549,0.1687267404,0.8238979059,0.4484070956,-1.7693233057,2.0308000692,0.2464368772,0.6431178822,-0.0971469673,0.3474160158,-0.4839907293,-0.0112124589,0.5646573211,-0.3372286561,0.5752033833,0.6611363112,1.9358500714,-0.0176144247,0.8929041314,0.4204658952,0.5157084833,0.7005976054,0.0730645426,0.0264053717,0.5334101295,0.1800978106,0.6470338891,-0.2683746334,0.6466222973,0.2216715043,-0.0651926881,0.6393753775,0.8616836439,0.6421526201,0.3179003532,0.029764262,0.1315146404,0.4769699823,0.5983467954,0.007787776,0.3821483146,0.5686383136,0.4618645147,0.4757700878,0.6432541977,1.0727956886,0.2716919737,0.837563101,0.0975530427,0.2128741858,0.3182514563,1.1554536651,1.6546130014,0.3020046708,0.4103605032,0.0106687435,0.5444309174,-16.0221928902,-3.3114015627,0.2109906711,0.5444434517,0.0437395538,-0.6772699064,0.2757591314,0.2394548664,0.0531401323,0.7836708142,-0.0354831065,0.5452025743,0.5796305402,1.2735729737,0.1449412807,-0.0231551122,0.5314697079,0.7706768348,0.7639045716,1.3371668748,0.1576571765,0.5246310203,0.1106245061,-0.0955009242,-0.0417855021,0.4155917397,0.0677513664,0.1610640054,0.3208776287,0.4344989881,0.2463361609,-2.8851433347,0.2310363489,0.3523903217,0.09697678,0.0462069195,0.1589757388,0.6473322171,-0.003675722,-0.0689110842,0.2883069688,0.9365047332,0.2975602747,0.7432612075,0.2508196565,7.4248419824,0.0107457023,0.1797767198,0.2989878347,0.3862526061,0.4633392637,0.2448197825,0.265293045,0.4071090677,0.5155468954,-0.0459448236,0.2819537031,0.6606486678,0.5796548229,0.1717540123,0.8312249275,0.4780691974,-0.4215643845,0.0741100094,1.0628088313,0.4418807697,0.0571480179,0.2118656562,0.0742189758,0.1049498447,0.2938001227,-0.2655545037,0.2691086883,0.1712333795,0.4016395113,0.0388395718,-0.8905561048,-0.5068975359,2.1295811963,-0.9944521697,-0.9001783554,-0.2121741033,0.7312133386,-4.1870927549,1.8238972036,0.1001357432,0.3773238359,-0.0299260855,1.0356947352,0.0303183498,0.2594018008,-0.9747883975,0.7212658831,0.5668229725,1.4593519352,-0.167432722,0.4486379488,0.4298778056,0.673520693,0.9848273592,0.133277771,0.5011052264,0.8183388783,0.5765919917,0.2070156329,0.7056599826,0.411658577,0.360420298,0.6217309873,0.9820141871,0.6323561178,0.3525125126,0.5336304862,0.3572965841,0.6350643655,-0.065775256,0.515130659,0.3217594629,0.185605497,-15.8710811558,-3.5913461156,-3.7235600269,5.9446109727,4.1763956561,-0.0470135994,-0.0854854519,-1.8671915754,0.5565529367,0.092817407,0.1549143912,1.0270892293,0.5914691771,0.8061747219,3.248283334,-0.1908197363,0.7636884538,0.2688965184,0.6095025173,0.4917202226,3.6299547381,2.1884277359,-0.2249649055,0.3962566617,0.4328258168,0.7646097118,0.2013952648,0.6897794496,0.1905790306,0.7464000224,0.2560928833,-1.8722898613,0.7954158295,0.6752927656,0.5236342741,0.5350399176,0.8569403232,0.2103612496,0.5294622664,0.1891002152,0.5050095742,-0.0274127634,0.4048569417,0.21721386,-0.3388174246,0.6266622216,0.4523410267,0.7287234567,0.3620740257,0.5376766383,0.5824120144,0.5178891733,0.9709192807,0.1565452895,0.709724762,-0.0274259686,0.4451949947,0.458138045,0.4878378816,0.0894360904,0.3830195739,0.6060173903,-0.023589484,0.0274065117,1.289004946,7.4026270105,0.6078104693,-0.0728247414,-0.0945456927,0.0310353059,0.0056895743,-12.679126332,0.3309405459,0.3014655696,0.2015470101,0.0726177788,4.4320322701,0.3018280397,-1.4983308722,0.3738554641,0.5301190896,-0.2665942137,5.9991208105,0.2915105769,0.2919537923,-2.224119323,0.6618290733,-0.2928305033,0.0400238351,-2.3010113838,0.4793367213,0.222306726,5.8996695992,0.992042882,0.22788934,0.3449184554,0.2052991906,0.458308632,0.3687393355,0.8266187289,-0.1989812938,-0.2067073608,1.6406476412,0.6210518499,0.2477362571,0.7033549046,-0.5724014872,-0.067356058,0.1663064102,0.7241941579,-0.0726329086,2.3568346893,0.0121265031,1.3605222802,1.2981354087,-0.997296023,0.8020196388,-0.046325351,0.6286154223,0.1363968304,13.2628978101,0.2145189148,0.6020928279,1.6245302154,-1.7198674033,1.6719433554,0.5343343096,0.2744825874,0.489776072,0.4358556229,0.9846438995,0.5166595113,0.5995998142,-0.2022104835,0.3055705553,-0.4141282438,-3.847835028,0.0636616528,-2.414287838,-1.0950317771,0.5707677349,0.0786306605,-0.4902873747,3.102320475,0.6144753493,0.454895949,0.9901587531,0.7599723247,1.1366125083,-0.3822593935,-3.7677059524,19.0590027115,0.0718998757,0.3842416569,1.5802398452,0.6675339669,1.2115379724,0.4393671226,1.1628920657,0.2708399786,1.043962955,1.1526247937,-0.2064842593,0.968018445,2.0750788544,0.5535964217,0.1580073388,-0.5080264243,0.4412771823,0.1402051366,0.1808450438,0.787579976,-0.3329209572,1.6688574202,0.9790359315,0.927363273,0.3695250755,9.6878130637,5.8011040431,-25.8757693477,0.5060387807,0.4062906137,0.2598368076,0.8976156387,-25.8026215893,-1.6539241051,1.3808656344,0.1402695496,0.6705375547,0.2218012121,-1.2821428435,-3.5834641457,1.5642597742,0.4087597723,-0.4530719828,1.1774200091,-0.4183244888,0.4770020961,-1.2091764384,-0.5680143074,-0.1464809345,0.1346107634,0.7012311712,0.8832981019,0.1994811843,0.2370792378,0.1250855681,2.9016279568,-1.2541362663,0.7355260588,0.3645738498,-1.5223252438,0.5812304242,0.0979578082,0.5776154526,0.3583758478,0.5351588914,0.0890538341,-0.7349340703,-0.1107878309,-0.0832962962,0.1482226247,0.4347369216,-7.9394088113,0.8691067823,0.1809836514,1.5382507162,2.1600323257,-2.0118960121,0.1510980148,0.3715155609,0.7035856753,0.5390079314,0.7548143566,0.7979045068,0.4667041245,0.2548026442,-0.0239200694,-0.933446421,0.9367530554,0.09445552,0.3397003512,-0.2669154535,0.3824355616,0.3513020185,0.046265712,-5.6114778811,0.6500929984,-1.2121055192,-0.2983612717,-4.2346589934,0.598717197,0.8730448766,3.2687791105,0.5619076605,0.1703922405,4.0779545492,0.5639642158,-1.7531245442,0.7174903141,0.3725425429,0.2502518635,0.4198813212,0.2886200936,0.1937695387,-0.0133827234,0.7554528307,0.4310924569,0.7674713158,-0.9313989949,0.6588592897,0.7608974869,0.523619485,0.9446913601,0.4417955354,0.3107056328,0.1676263821,0.3268414713,-1.2162582646,0.8806333866,0.5001001987,1.8067141499,3.588314098,0.5727529494,0.5725431933,0.4365154054,0.0980856882,0.3890245752,0.027435747,0.0602955629,-0.2688128076,0.3907993698,0.7212064316,2.0438731284,0.5681414357,2.8702527565,0.0481135025,0.7696044732,0.6256564929,-0.2504395774,1.8033558483,-0.1259894313,1.2431566115,2.1686482489,-2.0555973345,0.2852465155,0.1985250088,0.4848746572,0.3085239593,0.3392677454,0.380420547,0.0576433595,0.3729153097,1.1373751603,0.2742252016,-0.748556335,-2.5824946281,3.7091289502,-1.5902974465,1.39350158,-1.8733092819,0.599603172,0.4745703809,-0.4233064484,1.7706498962,-1.6581499089,1.1184401842,5.2506631759,0.3904490393,0.6262597609,0.3268792122,0.0111950905,11.5195635457,0.5634627962,0.3033016562,-0.0567043227,-2.8714882513,1.6006038041,5.3855291169,-16.7685315059,-1.5659454215,0.8068844046,1.379193001,4.8669893624,0.4556349344,0.2212328234,0.7798668483,-3.9190783509,-3.0458069726,-8.8134028131,0.5302769583,0.3126614885,1.6339121027,0.5295766827,-0.000487707,-0.0708590828,-1.0119995222,-120.6903858044,12.3119135755,9.3161702425,1.2725048439,-36.5153776324,17.2964318361,0.5306421101,0.4250466255,-11.6683198335,-3.4922605886,0.6223662735,0.7502198641,0.5651801195,1.8939977065,-2.2548813248,-0.0167420961,0.7079118987,-0.0993783162,0.7473828911,1.5027389668,5.1070105176,0.7389869852,3.6203288884,0.8637234674,0.4326029053,-0.0921215351,0.2053513441,-0.2479156185,0.2008756819,0.6168655207,2.829797498,0.8131327192,0.2750122388,0.4174997587,0.2260342426,-1.8718646268,-2.172881752,0.12253748,0.1647079747,-79.671373848,-0.7052716212,-0.4105378353,0.6070056514,-1.0598589596,0.3013167106,2.8838051695,0.4380094144,0.0692419702,0.0129052963,-1.6105176947,0.2932872331,-0.1407532026,-0.1398324385,-0.1246669361,0.448159163,51.371761827,0.5779419061,-3.3199315445,0.3167580867,-0.0523195878,-3.9643811694,-0.2019243365,17.4644110694,-3.2201948116,0.9944845333,-7.9713305238,1.5980156768,0.8988333046,0.8497781216,-2.1112655114,0.368961781,0.5150007656,0.449645636,-0.2100131908,-0.1468892163,-0.0822172389,0.2010869514,0.8954199361,0.8811114583,1.164652204,0.131317901,0.5070145499,-2.45643,0.2341029836,0.4425039376,6.2387492205,0.3451246192,0.4688164075,-0.2585684931,0.2181916986,1.7481813147,0.6933201586,0.0947848931,0.5667690611,-2.1044417662,0.3063789665,0.5190141566,-0.028804601,-4.0732568315,-0.0739913681,0.4840545029,0.3079297059,0.4667622255,0.047734052,0.4004811014,0.878295021,0.2530040698,0.5239664618,-0.005769606,0.9114920304,0.641130387,0.4404833337,0.2860257372,0.4937417849,1.1092402499,0.9012564794,0.3616267104,0.2178561513,-0.1684442361,-2.1833311558,14.0906080814,-4.1611180575,3.3044285227,-1.8997048749,6.1098236772,0.6668344853,0.2253829881,0.1693169907,1.1315772116,0.3217379316,0.4411166696,0.5278282167,0.2648129411,0.1001175653,0.1575453476,0.4834946324,0.5156923203,0.2435174418,0.6923291739,0.7220086268,-0.0247318633,0.3461251379,0.0340275886,0.3751521809,0.2173441958,0.6919197578,0.2621024407,0.8538583488,0.091460889,1.4782650799,-2.7347961573,0.6856415745,0.6881202531,0.6368890113,0.1242865831,0.1962582133,0.6304577188,0.9418801777,0.3804001453,0.7287483336,0.2307855964,0.9174595867,0.3546217354,0.2205656203,0.5837928495,0.7323882157,0.3602591767,0.0880816844,0.2037746293,1.0416903832,0.724076066,0.6200749758,0.6089351586,0.626865927,2.0920503344,0.3238142063,0.3859596835,-0.4208348265,0.116559946,-0.751898973,-1.5818882492,-3.7751750749,0.6901079301,-0.0868461384,-9.471373539,1.7952713008,0.6834642656,0.273595999,0.0138183109,0.0686329969,1.7652244819,1.7025385523,0.5200226947,0.0807437211,0.5772658022,-0.2841742943,-0.9963699961,-0.5351539226,0.1015765987,-0.0861463938,0.0761634392,0.5732381887,-0.4557172255,-7.3105984561,0.9753961237,0.5540222105,-0.0048891121,-0.4198266792,-0.050952066,-1.126953275,-0.6630997799,0.6790304683,3.0174092008,-0.5561586954,-0.060261107,0.1304665719,0.853522784,-5.6838529026,-0.7213076061,-0.6303344263,0.7183970118,0.9299138097,0.284642661,0.6784514224,2.7281060556,0.6574532437,0.2820655092,0.0070670628,0.3688821959,0.496169679,-0.5167852454,0.8454765645,0.9630627479,-0.7219407935,0.0951537863,0.5453993657,0.7373436324,-0.1816139281,15.7055458227,3.6837594671,-16.2632153186,-5.6781687545,2.6107261602,0.4657231557,-1.1102329034,1.3202527089,0.3731778461,0.9448136476,0.1712931171,0.7939443024,0.6038425449,0.8602425529,0.200239194,0.4052692958,0.3562095462,0.5487970609,0.2251596462,0.190241629,0.1236839154,0.9158177556,0.4453864555,0.154732409,0.0361472066,0.6498503338,1.2585723439,-0.0426692262,0.6967415364,1.0396113423,32.9388522572,-0.9186603073,-3.871931141,1.5790550595,0.5755365038,0.0542594938,0.8444424252,0.3044661882,0.3785391443,0.6499249063,1.4397707013,0.7427978723,0.9945418605,0.1995847983,0.0291514756,0.2452558386,0.2156095028,0.527891847,0.5146038826,-1.373520605,0.4850070935,0.4523923611,0.0358745034,0.5828230317,0.6350208424,1.3971141848,0.0057045725,24.2617431018,-0.8881451868,1.6454267948,0.184505247,2.5897723518,-0.2683387497,0.4528418796,1.1127958628,-0.0791886915,1.4975987633,0.5977281897,-2.2074308698,-0.1391784443,0.4968760054,-2.2436374135,1.1926106702,0.7464712097,0.2271297898,0.2152667814,2.1473151992,1.0594306123,0.1713337996,0.0363780191,-8.4918168809,1.0787086921,-0.3753065667,0.9136936865,-0.0980125262,0.3240958926,0.742257598,0.4255946273,1.4786408156,0.5713562734,0.3626302678,0.0293676939,-0.1155593353,0.5568589992,0.0807187423,-0.7074720455,-0.2241604783,0.6184366705,-0.1857825245,-0.0207887807,0.0369233737,0.0578990257,0.4510872787,1.0441088961,0.7388429306,1.1148027647,0.7140331216,0.7373050789,0.4940397172,-0.7819988977,-0.0965891073,0.0826660158,0.2515238612,1.3033770857,0.3891717079,-0.1374608838,-0.01051908,0.5525384385,-0.1054510844,5.2353432925,-0.0943214346,2.480217146,-1.9574492694,2.6928256876,0.3152351901,0.5689955557,0.1686367627,1.6631026376,0.3793192865,0.4097995901,0.8326801464,0.4990015888,0.5775907178,-0.0034277289,-0.9411066665,0.9071526376,0.4498603611,-0.3018388715,0.8070100071,-0.2477377587,3.1229176746,0.2628893227,-0.3654041308,0.6821656112,0.5584555419,-0.4898222419,0.1440542749,0.5360312131,0.5548836475,-0.7576349554,1.0903821149,1.4493485649,0.4203120669,0.03737819,0.4619721615,0.3781372811,0.1989865387,0.4750006105,0.0546582408,-0.0445265997,-0.4027175036,0.4360572536,0.004178739,0.7097770001,0.4381555483,-0.0932793793,0.0052931777,0.2722886544,0.3695366715,0.3618509574,-0.9149312854,0.2198019945,0.1048261231,0.6197029505,-3.6050231648,-4.1993212993,-0.2685870399,-0.0587837559,0.5762937563,-2.3185379968,1.2972798815,-0.1868540581,0.0992429487,0.6665170269,0.5687926596,0.5824725928,0.1102209648,0.9018714037,0.5293817939,0.050410805,0.0624232911,-0.5657217073,-0.2775874005,0.5201093384,-0.3267321654,0.6791941575,-0.039848611,6.6828130819,-0.5694754643,0.2487508001,0.3188626896,2.1509669563,1.0352309929,-1.396561806,0.4616840261,2.2119433892,0.5269892278,1.8549170176,0.448415888,-0.1608793153,-0.2968173843,0.1267035821,0.0934776773,-6.2620140501,0.4506607961,0.296710633,-0.3948286976,0.629840198,0.794073154,-0.8048569342,-2.0399927829,0.1023231052,0.2984089665,0.6943044661,0.1390510991,1.5758803938,0.7847508043,0.7761489369,-0.0720799655,1.4771594863,-2.6348452734,0.3304392954,0.4134674931,-0.9912437531,-0.0733970225,0.1904136636,-0.3817407973,0.4742533858,-54.4156094001,17.5249349612,-6.4570418438,-1.8106388365,1.9269383691,-5.3939360911,1.3896388882,0.2914274256,0.0245393945,0.3928888905,0.3620152708,0.3605247681,-0.2103079025,0.5682667761,-0.3703222154,5.978621871,3.3689874371,2.4129284637,0.7409078474,0.7043930595,0.3773809331,3.6377837739,0.2338478807,-2.6609324681,6.1141579578,0.5625533255,-0.0679566478,-0.1009496271,0.0858037907,0.260515447,4.5563231539,0.9819857106,-34.0274017017,-5.2583368456,0.1379448809,0.3416305759,-1.3965810028,0.158781441,1.0487818044,0.4388861468,-0.7951687548,-0.1980547679,0.1771461397,0.7409527982,-0.9985588558,-2.0493827667,0.4731436774,0.216848865,-0.4210092784,0.2178366652,0.1354558551,-0.3729672979,-0.0371478349,-0.8543456735,0.1231559844,-6.302600936,2.4741181689,0.2899990614,-1.9500226984,0.676533834,-7.4184358606,0.6480680003,0.7865462413,-1.871022649,-8.1123688562,0.5145415887,2.0191316805,6.7058063693,1.2900484574,-0.1049963473,2.0860215305,0.0866272981,-1.5178951941,1.0706631579,0.7548730238,0.0841600065,0.4620854324,0.9356429453,-0.0452223719,0.15595689,-0.4069430711,0.050403328,0.322208263,1.0762559095,0.2608099824,0.8584439131,0.6893805231,0.3670469255,-0.1141615989,0.3083354472,0.0456474677,-0.5434626021,0.5966208193,0.3223702026,0.7775582948,0.2977509762,-0.2502107199,-0.3260904852,0.124018762,0.8298543646,-27.7709078098,0.1568965072,0.2005555171,-0.1656657299,0.4122318816,4.0382389845,0.4633778761,0.5013282264,0.1194572968,0.6293083872,-2.9595472843,-0.3349050959,0.2678490882,1.010644179,0.1422172645,0.1343039008,-0.7796584133,0.0226983643,0.7681130146,0.8723981735,-1.2282681635,-1.2765366805,0.4684254286,-0.9613828726,-8.2826529241,1.0739208263,-0.0074016805,0.1418457849,0.4281025043,0.3528179319,0.2840881529,0.2945413952,0.6744786897,0.1606437862,-0.7486235842,0.2413807198,0.5170379815,0.7813183415,0.8619030681,0.3895709252,0.3049157685,-0.517100124,-0.4041068362,0.2881170115,0.2159990925,-3.4220869132,-0.3696909632,0.1166364113,0.8869853283,0.1416960775,-1.1519229248,1.6662563267,0.4156949519,0.7292045018,-0.0596113152,0.9962536427,0.1592340044,0.2880506746,0.0169756015,0.3970335086,-0.1057803939,0.2727118302,0.2016092839,0.2982342754,0.1841857968,-0.1197998875,-2.1848720031,0.0542225291,0.709800132,0.1466471111,0.6053390505,-1.2971869846,-0.0512127219,0.7066543008,-0.5385988713,-0.1810208497,-0.1712793085,0.3214436654,0.7222336082,2.9735483119,1.8684561419,-0.5724208306,0.7120961477,2.3673938664,-5.8683055894,0.1932702453,-0.4907492325,0.2840535101,0.2687781696,0.2751232885,1.9876042371,0.1327736918,0.1473459708,0.4262939821,0.2162397401,-0.047849917,0.7720788311,0.5496257088,1.085125298,1.1555695396,0.1457259858,0.6641511651,0.5227593087,0.2463219703,0.5161003846,0.6241527081,-0.1236009262,0.2094635699,-0.8578754935,0.6370531703,0.3282627285,0.0070430569,-0.3756718499,0.4520021563,0.7320246418,0.0268146229,-2.4391441784,0.121080722,0.4406338339,-3.0479021455,-37.6022004398,0.3325863241,1.0736304023,0.7004801047,0.3178043196,0.3745108689,0.3511787138,0.0159521207,0.5519563909,-0.4467826868,2.5741347287,0.297314926,0.3845666604,0.2328762215,0.3022719072,-0.4232021664,-0.4475913006,0.244209018,4.8956566872,0.2885471537,-0.1386269507,-0.4853623885,5.1247376873,0.6409630161,0.6165616288,0.4976215204,-4.7376135018,-0.9424481653,0.2730595163,0.928305362,0.1215553043,0.2948163922,-0.129765086,0.1863470758,0.9355268274,0.2676312473,-0.3391400528,1.0291098978,-0.0387736153,-0.9632505588,0.5515525462,0.1216887075,0.8295656788,0.1456238973,0.0463927787,-0.2542893552,0.6442943969,0.3793059185,0.7749889657,-19.053525102,-0.5756189907,0.2758176718,0.2216411586,0.0492376671,0.6243977512,-0.048879653,0.4290237209,-0.9978165428,0.0616231648,0.2533017686,0.2656349388,-0.2599870929,-0.1022005643,-0.2235256844,0.8234094314,-0.4668243029,-0.5285071863,-0.2283292372,0.3921017673,0.3288024232,-1.0255490675,-3.4289463244,1.3053671466,0.0043356214,-0.4083003135,0.3136772716,-17.1893259332,0.2998927571,0.2763914532,1.2421033258,-6.6341445255,0.3497421286,0.7474574621,1.332160607,0.4067223379
   -0.6376698859,-0.5120825386,0.5857926884,0.8510803384,-0.4475160996,0.4542362742,-0.6326732026,0.0822295375,-0.3071112845,0.7922548606,0.4358556483,0.1408615231,0.4566095224,0.8744042106,-1.7646778929,-0.8804171637,-0.4444181903,0.5363203883,-0.4274802168,-0.3784168153,-0.3476206849,0.7469651529,0.6024140652,-0.1314119841,0.1175411693,0.512903435,-0.4905848679,17.5863127635,0.6479304942,0.575287034,0.5841326892,0.2195757823,0.9820719485,0.7619122463,0.6935559009,-0.4646427725,0.36442313,0.5402507806,0.5847052408,0.0903624324,0.1589982009,-0.0723178391,0.6918018681,0.0629626386,2.7745554464,-0.3058769274,-0.4409364825,0.4938734318,0.2545326492,0.1844247002,0.0768337142,-0.0106984016,6.004697252,-4.0541401802,1.4401360391,1.9562120919,-0.706157267,3.619741479,-0.3106694402,1.0768970292,1.0100879861,0.5964690307,0.8604574879,0.8476112348,0.8171630829,1.7680661003,-0.1534622326,0.3962375291,0.8517190222,-0.61083422,-0.1743873075,-0.2411782627,0.3834021102,0.6176991841,0.7081360885,0.1976925158,0.5111217125,0.2991519844,0.0404815192,0.4280563908,0.4839997254,0.6975189701,-0.7746109372,1.8485227401,0.4640446279,0.7509653702,0.6398010638,-1.2788391172,0.6121556986,0.1455559149,0.2834307728,0.5834626213,0.2496785687,0.4376072596,-0.1582706621,-0.5814794615,0.780618266,-0.0926586557,0.4972926973,0.6581278661,0.6268942791,-0.8448803073,0.7194891884,0.3470142886,0.6022644471,0.5536778538,1.0666347584,3.0261532784,0.2070587683,0.848474591,4.0123411699,1.6881648499,0.1954906576,0.4765905208,8.8275187997,0.4980007258,2.4422224769,3.123167963,0.4235287008,0.1750842343,-0.9255109572,0.1803414049,0.5615670709,-0.1156808817,0.469595675,2.4401772866,0.4185910359,0.0370868652,1.2112507251,0.2095539636,-2.8487646143,1.733905062,-1.2004750521,0.6175007353,0.5487480037,-0.25441773,-3.7848943412,0.6569957014,1.1688454195,0.7840270544,-0.3592618597,4.6838090323,0.8536558585,-1.5913812824,2.4679445851,-0.4598074519,0.2290794427,-0.6445596181,3.9376853978,-0.8407170043,-1.5452278126,0.5633841407,0.0497449435,0.6302144046,0.6553105608,0.4534344503,0.2114164387,0.5766654733,0.6560229263,0.6888003607,0.8675244435,0.8449288282,0.5787256129,-0.661340996,0.3753658117,0.3390067894,0.4907636571,0.1508955732,13.8258095403,0.4352155624,0.0801737653,-36.5537406073,0.8319065756,-0.4342045826,-14.8944266981,-7.8635664014,2.7171636772,-10.0563784808,0.0412074033,0.2528641407,-2.7231189034,0.1387020272,0.1356962644,0.6188891531,0.3994663704,0.2743303531,-0.4972558786,0.7646780331,1.0283448113,0.3260461557,-0.7794710022,-0.129901985,1.3927604563,-10.0268736361,0.3027324798,0.866052565,0.0541642402,0.3448825182,0.42722148,0.51611822,0.6277330492,3.0226556443,0.2211478535,0.3340651638,-0.7705865121,0.1435787191,-2.8030929644,-1.1235510615,0.7141160114,1.3629710272,0.1934525621,1.8647536682,0.2442246617,1.1885478873,1.510801709,0.050205025,3.4068660901,0.4681110893,4.6090893985,0.2250953491,0.1089211937,0.3308766416,0.2888895832,0.70967277,0.3110890981,1.0808881754,16.7694353673,0.0268842142,-7.7184810828,0.5188100591,0.0985099234,26.3294954586,20.8674272837,-0.805703915,-0.6684059092,1.0838826005,-1.453827539,-3.7302867492,0.2563293718,-0.4696866434,0.484247918,1.3962571509,0.4056629192,-2.4856179839,-0.2945715753,-0.1186071055,-0.4738327075,0.0870255453,-0.084678568,-0.0791899117,-0.431149072,-0.1012308673,0.7348943223,0.6188922313,0.5695229163,0.491196539,0.2896805787,0.1038353057,-0.081424334,0.5682021503,0.3715482806,-0.0199757838,0.0388641126,-0.1265268749,0.8706534154,-1.2716240084,-0.05808257,0.5144004731,-2.2690395798,0.7018297978,0.40322625,0.2992451302,0.4943978718,1.2769513509,1.1122235634,0.8056299453,1.0407999206,0.6641862837,0.1201000783,0.5796695692,0.6988168207,-0.0770818325,0.5074234015,0.391319555,1.7471803869,0.6501875368,0.4206882564,0.1179468373,-0.4189172261,0.3022981466,6.4836774427,0.3807828635,0.3279169072,0.6989055352,-0.5516790835,0.5791172436,0.3091111425,0.6410264167,0.1790562143,0.3736923249,0.3678685024,0.6156307228,0.5187875318,0.4593696521,-0.1499440881,0.0231765537,0.9601394243,0.4547637384,0.646748693,0.766007458,-0.0388269076,0.6029761091,0.5274013289,-0.0313391643,-0.5421513354,0.4950273885,0.3829600308,0.493849354,0.6143947266,0.5970112,0.2059748936,-1.1564155439,0.4361962812,0.3468865356,0.5080988463,0.3731575664,0.2799344205,0.2578340746,0.6288100613,-0.4354652231,-0.6289988146,0.1643831541,0.850297697,0.3604674779,-0.2955674873,0.5230584435,0.192865683,0.5477114492,-1.2155466474,0.2496282108,-0.6557242357,0.287929673,-0.1097048192,0.28858496,1.0164300342,-0.3582046401,0.119265542,0.0071229358,0.1986168614,0.1049223835,-0.435396266,-4.4435549366,0.9867004373,2.2402627401,2.0649608976,-0.4904555896,-3.191343695,0.22955887,1.80853368,0.1165012805,-0.8409319165,-0.1387167229,-0.4868683766,0.1400622608,0.7950871293,0.2962840838,0.5342995778,0.5483782496,-0.32086521,-0.3228978042,-1.673316177,0.4929484185,1.3656421145,-0.101667991,0.3899351646,0.4245200021,3.1143865236,0.3363024318,-0.3171579342,-1.9409331022,1.1149116538,0.1435515103,0.6597658667,0.5533441157,-5.7488653793,0.9530166342,-0.8483025725,0.5171976574,0.6130102479,-0.1393588945,2.0954598556,1.4908041353,0.2102287887,-2.0916264355,-0.2595162803,0.4196288553,0.6806982473,0.5392104212,0.6911397952,0.2525789034,0.3444896456,0.4588241734,-0.0361097653,-1.5008964426,-1.5614792378,-0.2517506797,0.589420499,0.3367050716,0.3340244969,-1.7008219172,-0.2489114782,1.0187027236,1.9420032264,-0.1466207824,-1.2519300279,2.4158344594,-1.0195336275,0.4340359506,-0.0021591116,0.62948302,0.7076051395,-0.1968762723,0.5090600112,0.5386692406,-0.903235738,0.3135090279,0.8164630231,0.5732306433,0.5472851197,0.7776460433,0.4279240658,1.2108180319,0.8215478579,0.2100866031,0.1145754673,0.1945255428,0.5761023891,0.5100634991,0.384376619,0.3368216781,-11.9345529834,-0.0176809234,-1.744135832,0.6639580714,0.7305539263,0.700473051,0.5921205535,1.473506935,0.9599418029,-1.9116975769,-0.1036315216,0.1977578267,1.0841741607,2.6215686474,-1.1831465416,0.3279463617,0.3404635514,1.745728157,0.9231596831,-0.7226608728,0.6517962971,0.3191120639,0.2134540932,-0.0200315719,-1.491277326,0.2316261428,-0.3934551839,0.3567439596,0.3551412536,0.2632072699,1.6613072103,0.5652737276,-1.6996151284,-1.9884636747,5.6366274499,3.0349585242,0.6159473701,2.7953297264,1.2832744985,-1.6292892421,0.1328492478,0.3831297129,0.2505546728,0.2374187467,0.7107738259,0.6390227322,0.158699309,0.7124106559,0.2468199898,0.6543548899,0.4423811624,-0.6424157982,0.3889678084,1.2904506682,0.4270642306,0.2018743826,-0.0251836383,2.1285272093,0.1588541099,0.2811132119,0.3081394705,0.0882825701,0.7880140695,0.0522071531,0.5782116695,0.6730781567,0.6750546416,0.2899691158,0.7051938031,0.3998854262,0.6992666206,0.7938602437,0.116211258,0.5664578272,1.7362905006,0.8635814105,0.5156231899,0.1701489857,0.1806420224,0.3774807022,0.6304666484,0.2935763172,0.6159053622,0.0530201071,0.4841570951,0.0295220338,0.5703896207,1.1818411528,-4.1324165719,0.0961555525,0.0814216946,-1.6085640728,-1.148852737,0.299460316,0.2048632585,0.1034047467,0.0175989055,0.5707340121,0.5786644225,0.3874011239,0.2665860159,0.8085541311,0.2972167079,1.6144691211,-0.2450960423,0.5726645959,0.4172550823,0.7462119516,-0.0544933929,0.4564385698,-0.3486057352,-0.2718643575,0.529029445,0.6176244875,0.5125042633,0.3847271073,0.8298808848,0.242191985,1.1112846572,-2.3124183933,0.2118311821,0.4530190093,0.3420924147,0.0786720277,1.0311357039,0.2914224467,0.6044467932,0.5266997872,0.4674260711,0.6478807407,0.3162990097,0.3125600036,0.4741209032,0.4843289282,0.3620385556,0.2682620948,0.6949644526,0.3437797248,0.4721260365,0.4607264723,0.024498623,0.6797815206,1.0162572426,0.4244248059,0.6284822823,-0.0698120833,-0.0164975904,0.7132674223,0.6902885046,0.1370776787,0.3680145515,0.3492003,0.4682300089,-0.4683857477,0.8128878872,-0.9904642379,0.4870462667,0.4911185364,0.2664549971,0.1737786893,0.3136621807,0.4799361078,0.5176804189,-0.6287401494,-0.2256984966,0.9426218901,0.4306814009,0.4334265395,-5.4541032755,-0.1160296448,-0.966643166,1.3929201608,-0.1179261665,0.1455570406,0.3358630268,0.5713641046,-1.746120228,0.6440973605,-2.1575538751,0.559696139,0.3487214752,1.1790006275,0.3600265307,-1.2209689035,0.2064272387,0.3407632575,0.3436480308,-2.0835817659,-1.9432464654,0.1737470126,0.3104196156,-0.6214971566,1.0699969528,-0.3516712681,0.6876223398,0.4335517056,0.3619934774,0.5734995648,-8.0405200504,0.0972866689,0.5747419809,0.6673150658,0.072012081,-0.354998704,0.2741445468,0.7286176835,-0.053362581,-4.4150489035,0.5359970707,-7.7210412594,3.3705239507,1.7883827543,-1.227388871,-5.0072752087,0.5609645092,-0.1805159376,0.296302338,0.6392044879,0.7389131988,0.4606505207,0.7171153531,0.5857131028,0.0806728225,1.4068985025,0.6712643343,0.8465598526,0.7094305287,0.4814677318,4.1886537439,0.5103345151,-0.0768130111,-0.2372324323,-1.7818402985,-2.2652914002,0.4033686153,0.9405575266,0.9299277544,1.2715799599,-1.0040521609,-0.1974169996,0.756141354,0.5195263886,1.0516423985,0.5561351437,0.272428782,0.084730576,0.2206293575,0.4052154463,-0.4292720041,0.2971919686,0.1696608208,0.4564903356,0.6243440451,0.0861661541,0.1688128446,0.6262063639,0.3033921915,0.5908945833,0.1572687819,-0.1732457098,0.1571809585,0.4460958729,-0.0335380154,-57.5615313411,-2.086451254,-0.255935681,0.4345607273,-8.5864875441,0.4303171959,1.8545875896,0.0043141582,0.0229035094,-1.7661677187,1.0819487296,0.5311199336,-0.9077684914,-0.1704297971,-3.6614409462,0.0143570627,-0.0459098191,0.3583257278,0.0720931951,0.0755765432,-0.0754967358,-4.2872910859,1.4542065248,0.2037242654,-1.535002337,-0.4707991319,0.2324734052,1.3337173511,0.5567173823,0.4439374862,36.3879652759,4.2478689966,2.7766915661,0.2537939853,0.3922090383,0.6017394343,0.292244569,0.3140882866,5.8233592435,0.017042202,0.3585378423,0.5966051611,0.4662404051,-1.5517843973,9.2339507498,-0.0080647047,-0.0877942587,2.2070680102,0.4907540016,0.6075903354,-0.1047762862,0.7039350235,0.6225940342,0.5684794102,0.2303661304,0.3918451258,0.4727350574,0.5088407619,0.3113385108,-0.313402641,0.6729241089,-0.0987463529,-0.1283165635,98.7387660935,-6.6516421964,12.7513130329,-2.4920055101,-3.7724080221,0.4909041867,-0.6764850804,1.4728223091,0.7055723674,4.8499736455,0.5416819086,0.1197601393,0.2001276766,-5.7798083175,0.001020825,-0.345068823,0.703179611,0.4498041833,0.945103638,1.065854043,0.3233068732,2.3204168031,-1.5394032175,-0.4034361087,0.1743238563,0.4111869122,0.5676500197,0.1155225484,0.8769662529,-0.1480472318,-3.1861057716,1.7114350867,0.619041424,-0.0903274878,0.4693630193,0.6152707661,2.2123381584,0.3928502361,0.6981434636,0.2099394359,1.3644428222,-1.6485487331,0.9057471304,0.2513183276,-1.2500892902,0.2503064321,0.1972286345,0.752650442,-0.2039764164,-0.0918981041,0.7650696374,0.3216420202,0.0077287168,0.26903597,-2.1389822059,1.079657819,2.8088654005,4.2365112917,-1.6020706111,1.7255616256,10.7473252152,0.6662106149,-2.5967879087,-106.8661349539,-0.5577613823,-15.9597184631,3.8932225767,0.3179370642,0.0250797828,-0.1858296181,0.6548951673,0.0599179761,0.4050703364,0.1534817424,-0.6112286147,0.1378278516,0.1853006228,0.6441474431,-1.8876498823,0.4839258493,-0.3769517521,0.8978400501,0.1256403481,-1.3358011574,0.7252500949,-0.5515177104,35.4435476901,1.183052886,1.3938648182,-2.3125689943,0.5995551165,-0.1429672817,0.2817465391,0.6046501351,-0.743103967,0.6073086801,0.7175553689,0.3620791534,0.5035132351,5.8381781354,6.0587412703,0.4085989189,-19.7189810048,5.3508318042,0.0484955514,0.8894311823,0.5288825636,-0.169504434,0.5690015853,-3.1148520815,1.9755430731,2.8326842279,1.5778309516,-2.331587963,0.107981631,1.4035465747,0.4829004887,0.5837734231,-4.1566985867,-65.9640463415,-9.0115662927,-1.0128806481,-1.8787708923,-2.0268232478,0.2780864441,6.0323563419,-1.7141643814,2.4877460332,0.4100131864,0.6619198413,0.5819453065,0.2869354168,0.9217615395,0.03682515,-1.2041175627,0.0928458098,-1.3457745475,1.2289655962,0.3712288733,0.8240344969,-1.9046558749,0.8194068895,0.8117942327,-0.5855836377,0.7845053674,5.1272050488,0.2849348418,0.2243844423,0.0970861044,0.824824803,9.7780942459,-10.4432524684,0.0521658479,0.5221700328,-0.9718739136,0.0347493975,-0.1740212719,-0.0034480995,0.6309942302,0.1261214664,1.1096511205,0.7119060206,0.0378228117,-8.9308569013,-2.3029514489,1.8375385871,0.2979977481,0.2417626731,-1.0955695422,0.3928331123,10.8674411701,0.4661736769,0.8724982631,0.2086832575,-2.3362261822,-1.3078941621,0.4685105893,2.0574100718,0.17775355,22.1982157802,-5.2650683818,-0.4871806034,6.326387017,-8.7705284076,-21.3321206138,0.3296012107,0.6570773333,2.3448903257,1.2975874969,-6.0562428663,5.8257839263,0.2850570322,0.1046046892,-1.6051434077,0.4362843897,-0.5952719573,-8.5391683439,-3.8056880428,0.2274145529,1.3586904496,-0.9702481218,1.0451559293,-0.465039832,-0.0637782292,0.6094274802,0.693409538,53.8954322367,0.8091153367,2.5622468254,-0.1192089056,-0.4245752261,0.4376009284,0.1582390202,0.0572320545,-19.3370360774,0.0740457503,0.3577917857,-0.990592188,-0.8136726535,0.4257669112,0.5588549056,-3.1726139917,1.9579256424,0.6361419599,-0.612410196,0.106683496,0.896065412,0.5299294225,-1.691054422,0.3610837242,-0.2496608011,-2.0267590709,-3.0627802405,0.5721060711,3.1110815681,0.0187680785,-0.0104962564,-0.4502389119,3.0074315891,0.7828790299,1.139426825,1.0913509483,-0.4900961311,0.0869671172,-1.3146603582,-1.5526361184,-0.0167752552,0.0709019146,0.0437974025,0.3187525124,-0.102824417,0.6468301172,-0.4184388207,-0.9295727176,-0.0952517358,0.9846196462,0.5002780135,-2.4829986792,0.9073115185,1.802579358,-0.2470432987,-0.0531058287,0.3374305872,0.3602066616,0.4114031306,0.4451997915,0.3896282923,0.0881442106,-1.2416803018,-4.4980225581,25.0692549055,-1.1681385428,0.4733811053,-0.2164757804,0.4507480369,0.7545607137,0.7084278965,1.1358699033,-0.0125144109,-2.8016313809,0.5886137775,0.0425350708,-3.0498464628,0.2423756013,11.5974805388,0.5539513529,0.362803227,0.0746636698,0.5537078712,1.1006790506,0.7062921154,0.6199693421,0.0181938177,1.5264953776,3.4651381421,0.1549209909,-0.0704953919,-1.7901057428,21.2426403545,0.0867068694,1.5533242226,7.3293405387,3.7651875548,-0.115057773,44.488605686,0.4395827371,-0.2381814632,0.4421453485,-15.3498978557,-2.3905484478,0.5457151715,0.3516980349,-1.8719005024,-0.0758310768,0.727722916,-1.4989672956,-0.2251561037,-0.8537155581,-0.2909387191,-0.7520112345,-2.5896521655,0.7780385148,0.4764712681,0.0954427866,0.7048768976,0.499587551,0.1562158585,0.3628234078,0.3820092108,-0.4216890811,0.854903939,0.79661612,-0.8471914308,0.0709563718,0.2899503558,0.0694557283,4.1828076976,-0.3235585424,0.0510549631,1.6717058141,-1.7203956362,0.520422586,0.4950142644,-0.8707952506,-0.5865362658,-0.0373475017,0.0744798596,-0.2047858752,-0.0793296715,0.0979978361,0.6952856549,0.2566576118,-5.4746510584,0.2726161364,0.1510937641,0.3031936882,0.5520424296,9.9066739794,-1.842310108,-0.874685466,0.4651214244,7.4589648538,-2.2036952899,-0.2114036385,1.1364106292,3.311546944,0.4754370822,0.6186267295,0.5148141475,0.4254732366,0.734253605,-1.4345285354,-0.1225942516,0.1618474966,0.5891483709,-0.9509528011,0.5464293667,0.6451598152,-0.3268183255,-0.1726685608,0.2315782376,0.4406623539,0.5606651031,-1.2004800363,0.375813735,0.8379133961,0.5274422198,0.1787475285,-0.4713505407,1.9290311985,0.3010876709,0.6856018233,-0.3663241682,0.0250125466,-0.3441408199,0.2995049946,2.4301138972,-0.2155807581,0.0205784278,0.3112417972,0.7103081708,0.7049414296,-5.5863443302,0.0860140648,-0.318359442,0.3559475773,0.4440408275,0.1159713479,-0.583251071,0.4955714831,-0.1824943742,0.7915657213,-7.5236434318,-1.0283765111,-0.1999060026,0.6701796521,1.6493196836,-0.1275460096,0.6268964744,33.0163443457,-0.1515807592,0.4499922511,0.0634586862,1.0933804927,0.7077146764,0.4375115658,0.4860526263,-0.1723833043,0.1617591471,0.2634522794,1.3172833298,0.3758948197,-0.1743387356,0.6123839121,0.7481137957,-0.4010232524,-0.0686366321,-0.2131156236,0.3455481572,0.9305435477,0.7532998006,-0.4255279054,1.7995801325,0.177848913,0.1652139093,1.1385523674,0.6455098842,0.2335401763,0.1225843165,-0.1240614988,0.7037967209,-23.180174432,0.1244137605,0.5994670986,0.2120563512,0.5392687507,-0.1006161387,0.6012997298,-4.1888811966,0.7559397111,0.6433110675,0.0835696842,1.9566592571,-3.0491166433,0.1166541733,0.4860865645,0.1977849929,0.8470437973,0.4197838486,0.6957387368,0.4758456009,0.4213107168,0.6035353474,0.2719615216,0.5062580751,0.6750524849,-34.6317160377,-29.8458791885,-9.7414810614,0.3355904784,-1.1536921468,0.7511558963,0.0139523951,4.6383955935,0.1111342209,0.6298111733,0.4735161642,0.6215317141,0.4060873396,0.3448024757,1.8133155121,-0.3749094334,-0.2716242783,0.1049381166,0.1496998299,0.3302809253,0.4820019136,0.0530347115,4.7646882782,0.300041224,0.2699773514,0.0362554455,0.2728750643,0.2764693925,0.4928107553,0.9056743028,0.7899358738,5.0024419233,2.1428464634,0.2295030632,0.6619107855,1.3141801969,-0.0663413215,0.6177269678,0.8094396815,0.3209219919,0.246975182,-0.7865760819,2.8252372111,0.8505466304,0.2082582661,0.3897532101,0.1103459039,0.243477097,0.5183957611,0.4541446379,0.0937722355,0.2511400911,-0.5832211501,0.6288039163,0.3467125112,0.0160448976,-0.945124436,2.8019393744,0.273590682,0.9639331466,-0.197450145,-2.4363798419,-0.0098528464,-0.0334637449,0.9529143475,23.7687546564,-7.3391587051,1.4115228535,1.2988549115,0.3977825851,0.0132019898,-11.1650392867,19.7503241628,0.4208402041,0.2435038336,-0.6663560096,0.2110870231,-0.0443396773,0.4046359562,0.3335781132,0.8807321978,0.0258393653,0.613252928,0.1516811172,0.2002642034,0.3646831977,0.6419588597,0.6669186353,-0.0245313465,0.5472058929,0.1410169854,0.502151077,-0.1537110427,0.4381951576,0.8458945202,0.5291560542,0.0784236687,0.1114123881,0.5323919013,0.3635999489,-0.0240557874,-0.6172802262,0.0709676731,0.0873106011,0.1791329602,0.66149065,0.4717065704,0.0448369685,0.2679772077,0.384913534,0.0237312567,-0.0186196389,0.5264147267,0.4940061423,0.7518426902,0.8840061987,0.3065095403,0.2060401213,0.1950629912,-1.887142227,-3.2782274847,2.3325849859,0.4335115872,1.7943720841,0.0276095485,0.4145202907,0.0537292635,0.1806473018,0.753796442,0.111317621,0.2386296216,0.1203877116,0.7359176672,-0.2335108063,0.3157981699,0.3289360107,0.0985173906,0.3064023959,0.4148294008,-1.531373924,-3.2697044376,0.8412462573,0.4441964141,0.6804907397,0.4485192475,0.6965066874,0.1195518988,0.3772984595,-0.0223689657,0.4305217462,-8.0037426068,0.3276739419,0.6614896469,0.0726086195,0.0430762778,0.0165613213,0.4778276465,0.4170715857,0.5431380763,0.1316623439,0.4243724744,0.2203996453,-0.0111408785,0.286870956,3.1750273498,0.5679870285,0.2171305843,0.5366694875,0.1232414639,0.447770743,0.83086176,0.3064048917,0.2399376347,0.8208084266,-0.0341648043,-0.4717534244,0.3220037445,0.669658276,0.3540922268,-0.5187115265,0.3715109474,0.949610381,0.6692422797,0.7809363803,-0.2114032,-0.4757787818,1.0596836813,0.5323541758,0.3194243764,0.4164108238,0.7940499671,0.8724866682,0.4763443759,0.6809187506,0.5857745537,0.135869782,0.7771807611,0.2986476967,0.5946932094,0.4861303805,-0.2302559447,-2.0068583722,0.3023762452,0.6079410111,5.7282670627,0.8120620713,0.2578926386,0.5397839763,0.2708552746,0.3211273953,-0.7101472508,0.7364068736,-0.0352344937,0.129981578,0.5078090839,0.1278768945,-2.2778981868,1.916905658,0.9781318012,-0.3668222187,1.5849962967,-0.3554292497,0.5623756807,0.8083030645,0.1784713371,1.7273127803,1.2847713717,0.2570099892,0.1403877575,0.0442630369,0.9337859475,0.2880761145,0.4936154402,0.2026711265,0.472678576,0.1557920187,-1.5801775401,0.4176178048,6.3791912731,2.6928555385,7.1977884995,-2.2837198234,-14.4931148283,0.1743174447,0.1965423664,0.0202330082,-1.1599874171,0.1543593642,0.4776577654,0.5091499478,0.2246768387,1.746052605,0.5188761188,0.469142188,0.4959790012,-0.0931060477,0.0548622049,1.7145223805,0.5293407359,0.7788569305,1.4530143009,0.2674111883,0.4787108663,0.5808529257,-0.0182596661,-3.3092569563,-0.1188291303,0.7517185248,-1.4994319939,-4.4028300567,0.580297261,0.3252619091,0.4580974684,-0.283360329,0.4028527813,-0.0023574895,-2.5754808636,-0.4030127363,-0.178763824,1.4031341969,-0.1106646023,0.303589609,0.5574976902,0.247697585,0.3120325398,0.0542817301,-2.6212272968,0.2582160057,0.220611259,-0.9144002143,-4.1974614442,-0.297026491,0.3916525082,2.3255669539,0.0650091378,-5.2955191602,-30.1845830405,0.5350623163,3.3822501236,0.1340662063,-1.2801422152,0.2031601815,-0.332675197,-1.1787253253,0.8021817184,-6.962623658,-1.6093651917,0.1907162453,0.4658614654,0.2671479154,-0.7293167876,-0.2226946475,0.8452678848,-0.420077053,0.9952133748,0.7666285155,-0.9614173751,0.2230294817,0.4260023405,0.6163389873,0.6788778771,0.1229141986,0.5432641331,-2.0445518251,0.2991575147,-0.6632811608,0.454393828,0.7447794695,0.659832264,0.1619542504,0.6146892015,0.2753744196,0.4903971765,0.8207193001,0.4754620461,0.4018702577,0.125138442,0.6869698293,0.4437698294,-0.1152900183,0.4368669867,0.7528733444,1.2455889296,0.5003021011,0.5695021002,0.8737873026,0.4290343547,0.3521817288,0.7616830216,1.4023659209,0.6087114893,0.8919070911,0.3900559243,0.7379068747,0.8073715768,0.495410591,0.2894858841,3.2378422874,0.0425416343,-2.7259474281,0.0208744972,-2.9625949032,0.4056646029,0.3037838288,0.3434097467,0.3248836731,0.3008443903,0.8924750012,1.2397255446,0.4788371378,0.6120463397,-0.0894487461,0.6460030305,0.1016842316,-1.3235856673,0.4271261751,0.3199024538,-0.1903813872,-0.0308409202,-0.4025178075,-0.3680949307,0.4389347675,0.518972991,0.0584029167,0.669710949,1.1189085265,0.7067909079,-0.3114547952,-0.4670019356,-1.5146546529,0.2898129114,0.1181511899,0.4394803579,0.7622541905,0.5884470026,0.1973181893,0.6572506578,0.1854400191,0.6054204035,0.0426041887,0.6557470865,0.2352182918,0.7726020583,1.0062753811,0.6253130926,0.584350756,0.314323894,0.3995064389,0.7452908481,0.5698326152,0.7912272879,0.7900428749,0.1322657801,-1.0993459651,-2.6994501989,-0.3068814665,0.6066926664,2.8400277171,0.0271210689,0.5877414671,0.3252916682,4.2585733194,10.0878724129,-1.3736345092,-0.7961597947,0.8038070342,0.4754070295,3.1122503293,0.7855984365,0.5574595373,0.4548596638,0.6683636194,-0.8119779502,1.4692580901,-1.4527431136,-0.5073741413,1.4819671232,-0.2231874832,-0.3605141489,-0.7433616102,-0.1648653462,-1.3523290439,0.3066299261,1.7236969495,0.3176402144,-0.9878196766,1.5515852477,0.4442675032,-0.8072931462,0.2069346616,5.8926528211,0.4978062513,0.2755615324,0.5401124084,0.3747457439,1.0617259103,0.7804174922,-0.4657163212,26.9442779015,7.4898567342,-0.1495780803,0.2676469295,-15.1296270401,-19.0027095593,-0.0368208413,-0.0099352856,0.5759228919,0.4423075241,0.9366982278,0.3942126735,1.0371047863,0.874841223,4.4545005259,0.4921023503,0.3745909653,0.3683786141,2.7245853237,-16.3358282221,8.0340941722,0.0271861496,0.8463863839,2.6983697142,-5.6501997752,-0.1507125312,0.1683433063,0.084540399,0.5447623414,0.0749372539,0.5565741316,0.7878423861,0.101709328,-0.0476698944,0.0477068512,0.1965614875,0.5084000178,0.3457741394,-1.1671310846,-0.3579543876,0.7446016279,1.0534278103,0.3491871628,0.8496547392,-0.2131016857,0.2133594432,0.4740414324,1.1281868327,0.5123091656,-7.8986770301,0.9166515549,0.1709182768,0.1810500806,-0.5738639997,0.4823010131,-0.0732653686,-0.7228200545,0.8339034623,-0.5784963066,1.1791364613,0.5214718947,0.5310343067,2.5962527453,1.741787611,0.5145899532,0.2358316473,0.2417579818,0.1646380551,0.3180403496,0.0267203756,1.0785486101,0.8841898285,0.5398273779,-4.3730450883,-0.7925700197,-0.0543046575,-4.1611995538,0.8580719707,-18.1666278544,-0.5676552052,0.1056820853,1.4600067586,0.552086828,5.4466921304,0.5028354703,-0.5962221125,-0.1207345062,1.0800291779,-0.3212291248,0.0387876383,-0.0684825048,-0.0509098977,-0.1211696527,-0.640083259,-0.1279869526,-0.3948884715,0.2350567488,3.4528909831,0.2753179281,0.4440595637,0.2169084062,0.804800116,1.1384879319,0.2909266422,0.2912308576,0.1766777674,-2.4294952936,0.3153782603,0.1590331148,0.3166198021,-0.1475943011,0.6181059469,-0.0468244145,0.5892998814,-5.7102503049,-1.3728915309,0.1316696101,0.5755420649,-0.3103095317,0.6798760189,0.5043639427,0.5067884204,1.8499201874,-5.8748903451,0.1534228935,-0.0792930276,0.0745167182,0.4799405554,0.1755497085,0.0604091966,0.7108061073,0.4465326107,-0.4351324538,0.5028459425,0.0296613079,-0.8598412186,0.3974267605,38.9096170948,6.0437074001,-17.3269563243,4.6892379607,-0.3184059604,0.0797091505,0.1078429269,0.2951635578,-0.3509105208,1.2411891246,0.0977803819,8.0389568106,0.2343741114,0.8402973552,-2.4655239578,-0.8606554284,-0.6183642575,-4.4543531165,0.2165661783,0.164218398,0.312229149,2.8500933107,3.733016858,-0.0651186783,0.4911534354,-0.0718592036,0.4303952089,0.6517415179,0.821811264,-0.0669277174,1.0272891206,0.8960062238,-2.1323618424,-1.0136666717,0.3244017192,-0.3017696421,0.6292117968,0.6879048049,-2.6188297243,0.4843820365,0.5891362874,2.9100856957,0.6480828224,-3.9084408878,0.2547064735,-0.4016980669,0.4628266411,0.6256431597,-1.3719107852,0.2425839062,0.8712624884,0.1946419741,-0.1951185735,-0.365765766,0.245797323,-9.0674972842,0.8234520068,3.6581368306,1.0285518355,-0.5419664303,15.7230805702,-1.6987325075,0.2695997259,0.3636633036,-0.5307741827,-6.8911373281,0.5748386026,0.0496578836,0.3669733221,-0.8072665049,-0.4084249447,-1.5612553596,0.2676323437,0.6982592248,0.1869934149,-0.2335331823,0.2488670413,-0.0331904096,-0.2802155909,0.2969133264,1.9427963765,0.1279016341,0.2679809397,0.2744007012,0.508057712,0.4312010162,0.07443628,0.6297266443,-0.036275881,0.614466966,0.7619704419,0.4787781721,0.0457944983,0.3294983965,0.3160489055,0.5430714929,11.0024254942,0.0759470305,0.805752462,0.0923376906,0.6903492885,1.7194125032,0.1705734011,0.2131841102,-0.2864766626,-2.5261562534,0.2566828814,0.8779095205,0.8336662809,0.1743675235,-0.1294796829,0.1989605279,0.0564183903,0.4674999618,1.8695567627,2.9632963212,0.2405477989,0.304666164,0.6217941225,16.610672527,3.1232833555,0.2052959345,2.793401097,0.6340842258,0.1455947697,3.268616639,0.3855236987,0.4590320469,0.0705031519,0.3542066157,0.5588580635,-0.5222919186,-1.7069201356,-4.0542419235,0.46698332,0.5019092298,0.5877520046,0.764910261,-0.4084181434,0.0018918106,0.922630545,-0.0828802949,0.0516141992,0.2513498847,0.5021745537,0.1657886996,0.4187264275,0.3536318676,0.4019594423,1.6234098346,-6.8301077027,1.3958861394,-1.5812963958,0.419862366,-0.0883342037,0.6726206287,0.7770088189,-0.0157178481,0.0878880442,0.5164443585,0.4942899484,-0.318053087,0.6917587572,-0.1689457502,0.7568629762,2.1367216599,0.0712270866,0.4197990809,0.3551799978,-0.0062578564,0.1447699362,0.0974292401,0.2506756022,1.2548002553,-0.8196414171,0.7532746491,-0.3290973625,0.6657976656,0.2010401268,0.279308704,0.1370593477,0.4760681403,-0.7773080552,0.1909981116,-2.7164115916,-0.1892953141,0.6501757847,-0.0964317187,-0.1678640644,7.5448347878,0.8796618183,0.5088519633,-0.0379197887,0.3160865823,0.2804351592,0.0912940757,0.3371275694,-0.8130512828,1.3632951475,-1.3453657853,0.1146341459,0.7820490592,0.1545512174,0.9084528398,3.9265187514,0.2904992982,0.2553917688,-0.1027861278,0.4597839231,-0.045298593,0.113262769
