encog,BasicNetwork,java,3.2.0,1,1428435218458
[BASIC]
[BASIC:PARAMS]
[BASIC:NETWORK]
beginTraining=0
connectionLimit=0
contextTargetOffset=0,0,0
contextTargetSize=0,0,0
endTraining=2
hasContext=f
inputCount=52
layerCounts=1,79,53
layerFeedCounts=1,78,52
layerContextCount=0,0,0
layerIndex=0,1,80
output=0,0,0,0,0,0,0,0,0,0,0,0,0,0,0,0,0,0,0,0,0,0,0,0,0,0,0,0,0,0,0,0,0,0,0,0,0,0,0,0,0,0,0,0,0,0,0,0,0,0,0,0,0,0,0,0,0,0,0,0,0,0,0,0,0,0,0,0,0,0,0,0,0,0,0,0,0,0,0,1,0,0,0,0,0,0,0,0,0,0,0,0,0,0,0,0,0,0,0,0,0,0,0,0,0,0,0,0,0,0,0,0,0,0,0,0,0,0,0,0,0,0,0,0,0,0,0,0,0,0,0,0,1
outputCount=1
weightIndex=0,79,4213
weights=##0
##double#4213
   0.5446394748,-0.3852346375,-0.3455704899,-0.5047670137,-0.5896296886,0.7912941223,0.8757524384,-0.4621581838,0.5190220942,-0.6497487371,-0.3672534833,-0.3373800689,-0.4754549645,0.4649002974,-0.3829869552,-0.4125903777,-0.305979012,-0.301705608,-0.442572065,-0.3245307257,0.4586762128,0.3642917615,0.7197026736,-0.4980556337,0.4937790348,1.1364893419,-0.4967792681,0.8845477953,-0.6456952872,0.2731243711,0.4045541763,-0.9850324039,-0.6032774045,-0.7152667975,-0.4527936885,0.5384407281,-0.3742316718,-0.3516957596,-0.4552483796,-0.3458342925,-0.6642613624,1.0659726112,0.7221011539,-0.2811186926,-0.844720627,-0.6559338493,0.3816401237,0.3875018695,0.4345523217,-0.6798599835,0.7096020973,-0.4951363522,-0.7972852303,-0.2820850426,-0.6172338566,-0.5399842224,0.8122882326,-0.5000799957,0.5714747999,0.2297856005,0.3977446808,0.638689009,-0.342388739,0.7858577026,-0.4292392129,0.5380831063,0.6576277687,-0.6794392036,0.4936156487,1.0167106525,-0.2157083695,0.644495982,-0.5394327192,0.9238965203,0.6720602735,-0.3465822236,0.5362512781,0.4839713702,-0.8907804811,0.0841351405,2.3303487558,0.2817233903,0.269126265,2.202754133,1.6865285155,-0.6208480632,0.9846621672,-0.1038592709,0.1318084768,-0.0935065489,-0.0395456943,-0.2076859525,-0.2957395079,1.1813705986,3.0561296485,0.0800554787,-0.9721065203,2.1430151171,0.1823360269,-4.0866068742,0.5426017951,0.738734316,13.8308766139,1.7641282919,-17.9445641786,0.3123756681,-0.8162848668,-6.0665732332,-0.3339089154,3.3438750499,0.0841097814,-0.2491617944,-0.3933642644,0.140663238,0.7943382034,0.9610139053,0.2529708802,0.1877974494,2.4732376346,-2.819060282,-1.2029514852,-0.211905859,2.615024086,4.9184995549,0.7863471796,-0.7365632272,-0.7753960569,-0.2397158903,5.9552442019,16.2868445317,0.2275584906,-0.0726317845,6.0044838084,5.5050348215,0.7962122991,-2.6367030952,4.2937655285,-4.7055453209,6.8249441487,12.958375107,1.2743800051,0.4583537352,-4.5061862234,-2.1979860187,-2.4826172274,0.8410857941,12.6771476018,-0.4319176516,-2.6685669403,-6.8772328243,7.6566678151,-12.2221366227,1.4357009046,-19.0987000922,1.083306875,58.1101034504,8.754246236,12.1008155336,-8.901570737,-3.694923866,2.9028366341,-0.0151769983,7.5216930145,8.0390112805,-3.7866143102,-4.9605727266,-0.7638764746,4.8878853265,3.4150020342,1.4292576533,5.076504563,-8.1662473682,-3.0473937268,-2.0210051446,-2.7452936435,17.6884943089,30.4484981481,6.9185685274,-12.6048129295,0.9518842348,-2.0255621044,-2.0936997596,1.0748009287,17.7268785862,-2.8219834609,3.3843235863,1.4560128127,0.8178108543,1.0373222755,-0.8195377061,0.3295288,1.5246250785,3.7768904506,0.8478701753,0.259558803,216.3000904404,0.0984728933,5.1311693157,-0.259171819,2.7883120069,8.9712593765,-0.7200133179,-1.4228437985,-16.5560081782,-6.9178552698,-9.8587792801,16.1297603527,4.1992039394,1.1302280256,-6.8290492935,-0.403833919,1.9152192667,6.0264769201,-2.9812969276,-3.9143155281,3.4995699381,8.2400198117,-1.6168156401,3.9085865982,1.5599949845,0.812235063,-0.8399799283,1.02228714,-1.7205299104,3.0520902935,1.386296846,-6.6790165738,-0.3163516251,1.3160650303,1.1752990423,-1.2404656186,3.2595165972,2.5782607194,-2.6262808372,5.0249695437,-0.6566685537,-7.6624372697,0.5034667539,2.6543004952,3.5982089815,0.0603086288,-1.5673826841,-3.5229670605,0.9450566269,-0.9159541556,11.8530410932,0.0318267737,1.0393793387,-0.0063060015,-1.2547938033,-5.8799858057,0.4791424332,-0.5708640483,-1.479691672,4.3971039899,-0.8893242226,9.7783129537,12.5811360519,-27.723816244,20.9098357852,0.1203434277,-29.5343995428,5.3299502453,16.8419586336,1.9196733537,-5.6071245611,-0.5264519686,-1.3053493359,-0.3088775453,-1.5601343623,-0.154115007,2.3694784804,4.4269151037,0.0104842305,0.5979475071,0.5441998559,-0.7275695749,2.6151589992,-0.623249376,-3.7369713883,1.151945921,-0.6299290883,-1.144967669,0.1127981482,-2.8519694381,-2.5416012267,0.5033394534,-0.2390376165,0.5635071501,3.7526013824,-1.4674421745,0.0498352919,-0.0966628081,0.9505893824,-0.2269428129,0.592413319,0.762259787,0.7392921133,0.8174669656,-0.2751748225,0.3466386182,-0.4554977602,0.3660671681,-0.1828065294,-0.3665654302,0.2869836439,3.1471251877,1.3066509888,0.5020916196,2.257931019,2.4608833233,-1.1472208725,0.0992454663,0.4938328923,10.2439304747,-3.6937221542,1.6981029756,-0.7377183598,0.6516439292,1.6590381436,1.2397739942,0.3601056846,-3.4837323823,-0.0530510114,0.6004418043,0.1451779818,0.7636510034,0.3924947052,0.8411971779,1.2213690699,0.9839879892,0.25720174,0.2791295303,-3.1858717689,-6.2389332693,6.1471722256,-0.9498157232,0.3041585146,0.5726739658,0.8908825916,0.3143708503,1.7190005238,3.8694104512,-0.133422968,4.1551492636,2.617675697,0.4488191099,-1.7925660349,0.9024546471,1.9457169822,-0.4718466774,1.89212225,-0.0616470874,1.8062331476,0.2197237641,-1.0492684707,-0.5496826337,0.4682036864,-0.0473985777,-0.998998564,2.9532990585,-0.7139325494,2.5182981276,3.8213236451,-13.3258404315,19.9230146135,1.8170531067,-2.8631955074,10.0643885486,-6.373833869,0.3582288456,15.2748284367,-0.1411002029,-0.2859860183,-0.529987116,-11.5317965363,0.0571006448,-0.6001399528,1.0868285024,0.084377035,-0.420351225,0.4059238716,-0.3931442744,2.3015131394,1.4246223795,-0.7687524714,2.1351002882,-1.011042131,4.2678244613,1.1758499303,0.165205877,-0.1317750678,-0.0081843952,0.9034736283,0.763332903,2.0759813841,-1.9749262381,0.6065741142,-0.595902979,-0.0977110181,-0.6889652189,0.7086896793,0.5858063503,0.2657189328,0.9298227144,0.1960951528,0.2178325936,-0.3247713897,0.2229583277,-0.0403314584,0.4540750385,0.6778115419,0.1648906574,-0.6433853774,0.4706346475,0.3926843967,8.5645175184,-3.5820856654,11.0498671172,1.1235464294,0.5471489066,1.3402516966,1.6720469046,0.5033860215,0.0184362723,-0.1134409035,0.5034052514,0.8406013716,-0.6364367726,0.677524941,1.2739482835,0.4634630914,0.6369465542,0.7857488703,-0.3561035438,0.959785331,0.7647863383,0.4236141912,0.6135018296,-0.1526090762,1.3961529801,1.064268315,0.4527238596,0.4977228481,0.3427647789,-0.0599228319,0.7481810829,-0.1766336374,-1.5525769028,-1.4216871847,-1.9402309708,8.2392959165,1.1064447524,-4.5669629946,12.7619025708,-7.70758801,32.1326308499,-12.281933974,2.435763539,3.7148396568,0.8042172637,2.3273367394,13.1247277009,1.5998115788,4.9556782161,-5.2422123413,5.4516739835,1.7113706416,-3.4669054797,-10.0504204513,-19.3720692065,5.6421936104,11.5353237586,-1.6518925219,53.6921804909,-7.147342851,-10.184796871,0.3641839548,3.8608286338,0.1266290686,-0.4378048637,3.7699260523,-2.6526375858,-2.2648401364,-1.7802014892,3.3829804277,5.126783259,-0.0039440575,-5.793404811,-1.8418071519,12.4442613748,-0.9609913553,0.4714307771,34.0426990021,-2.0417638524,3.7677064549,-2.1854850859,-0.4175404279,0.7160638733,3.8417327288,-3.6179744961,-13.0769829006,-5.4248071078,-0.0599265652,-0.6816022065,0.6600471512,-0.1655849947,0.4250083333,-0.184833653,-0.3801399198,0.0588402145,0.2902898995,-0.7553792345,0.736807141,0.2670913163,0.1020556253,-0.0709896851,2.9591493865,0.9474296673,-0.1643936468,0.2052200293,0.9902275394,7.0988687789,-2.2041680897,-0.1832532945,13.648858799,3.043857939,-17.9636724235,2.9428304336,4.7832540561,0.3563673567,0.8098846094,0.4044021585,-1.485794387,-4.0034732935,0.0091600654,0.722853548,0.1564152367,-0.2837711557,0.1882620524,0.6010872035,1.3376093767,1.0226173391,2.2497769762,-0.9190743358,-3.3861540963,2.1799045592,9.582357151,0.2053217808,0.3306807308,-0.5377974802,-0.1469221444,1.1889591497,9.3924191404,9.81691985,-0.6515428114,0.0508972827,1.4206409169,-0.9541946454,-0.0815069376,7.2821170255,0.6425043624,1.7286892867,0.776834923,4.2879914277,-0.4920816969,0.2307059729,2.2496938722,4.9109666551,1.0312369512,1.5259719483,0.6214247426,0.0971549496,-1.9562771464,2.0971925982,-5.8156027943,-1.1838859544,-9.2219610206,14.4660083966,1.1534657077,-0.9959611716,-0.9693056902,0.4545715381,2.9296055292,-0.1390875297,0.3477590504,-0.0460622429,-0.4858070778,-0.3758608855,-0.4551814161,1.0589702393,0.7252379336,-0.2976248959,-0.6228508,0.6020972846,5.2279232487,-0.1330990358,1.8320174087,4.9348398981,0.5511404772,0.1744201408,0.2706088632,0.2708547935,0.8485533537,0.3576688585,6.228463011,-0.5752211915,-1.1514474923,-0.4236424762,0.9445320249,-1.4492475427,-4.3713321374,-1.6668594155,4.4262536675,5.6110839799,14.0883395877,-10.1873483854,3.6793059799,1.005898348,1.6255958155,-0.0346118797,1.0914514664,7.817626303,3.1004444233,-9.1715935167,11.3161525606,10.3080326091,3.1933080051,-18.5314065616,-27.9322987197,5.8894917566,40.9260665351,1.0428726947,-2.6787678866,0.7264079702,1.472817016,-13.7395261467,0.8141178062,0.4188883659,-1.4167746899,1.6357455348,0.1614345861,4.4120213613,-9.6015375091,9.7217115958,2.8297517391,-0.0256845524,-1.6994222746,-4.7062001062,0.180463427,13.9784290314,3.4030181811,1.0247971287,0.5038719466,1.7534965149,-2.1716048584,-3.6041179097,-0.4471381908,0.548860208,-0.6607535935,0.1692354172,-1.202750583,1.6586168827,1.3545525691,-0.1377654075,-0.7124613144,1.0141237539,0.1310036363,4.0423403857,6.3968312808,-0.1461648576,-1.1530441697,-0.9750443154,0.0436552895,0.066947085,-1.2231366636,-0.9908415497,-3.6689432527,1.1728866467,0.4549087964,0.5721521567,13.5666298762,0.7374665982,-7.6774198801,2.4536582014,-0.3857742523,-2.3865845173,0.2310311685,-28.8663311795,-8.1419037006,-4.0111100826,-1.0919632586,4.3592798455,6.2153493355,0.1056296436,0.4974342935,0.3532128572,-5.0534943917,1.9469452992,1.3720203252,8.7847355579,3.5557120727,4.2561246662,-0.3317868698,-0.8777835313,-2.410939108,1.2812103971,1.4388127456,-2.784728001,2.482494617,-0.5549860397,0.98992412,-0.1286333133,11.7313168557,0.1046710719,1.4966286182,1.7634028139,0.9045208949,-1.8033299962,1.6614858391,2.2752509374,1.7935061906,0.707442089,-0.4756470944,0.8030687099,-0.4356636155,1.0753312116,-0.8945642764,-0.179481109,0.05454813,-4.0046970074,-0.8286794269,0.0751298562,-2.7562198081,9.6680331999,-3.6438263963,-0.2798108536,-0.7520102717,-0.9819312723,-12.7746296592,0.545317773,0.4166271505,18.2248383862,-0.7142773851,0.1987859859,0.808584201,5.7160089583,0.0304924007,0.6169808931,-1.4001084902,0.3624026037,3.2102165315,0.6778099116,0.6020145659,0.4406358811,0.3916061124,-0.9776534541,-0.0169503541,0.4515300827,3.8257079797,1.9421843018,-1.7235261621,0.104920319,0.3232846894,1.3937139504,1.311315772,1.5417722959,-1.7062124933,0.7508478866,1.8794876891,1.4416073002,-0.0878770364,0.5205986322,0.5872288144,0.1209701366,-0.5930933987,1.222970692,0.0362792353,-0.2978172224,1.3020563178,0.3696567104,0.3948227514,2.1206933057,4.6092896343,-0.3462411423,0.0156759102,0.0793558971,-4.4507748224,-17.0341864232,-0.1981456807,-1.4208132148,-0.2668247158,9.0270702815,-0.5995273535,-0.4115623358,-4.7597949062,2.3009587314,0.5080724522,0.0602834207,1.5649953712,-0.0603466763,2.9011408295,0.8885255459,5.1031697858,1.9335850982,1.5994512447,-0.543331862,0.5723525605,0.626728648,3.1158247717,0.0338378902,0.8017084062,-0.7727886771,0.2799571919,-0.0735224484,-0.6980664167,-0.1922770607,0.3694330704,-0.3411233434,-2.5837915916,-1.0870945528,0.3864520706,2.179883027,4.4145666132,-0.8273716756,-3.5912536884,-0.6147414832,4.3229494815,0.6970511733,1.9495711775,-0.2106497909,-0.2419276813,-0.6059916965,4.3276383877,1.3732415091,4.1072384774,0.5216545969,-1.3168960238,-1.1716116779,-2.0447477275,-5.166296538,-0.7475469331,8.6552271184,2.2603290522,25.7157520591,-11.6212123946,0.341850302,2.4327932779,1.1377019295,0.3095849448,-2.6224781004,-2.2890309065,0.8516138285,-0.0095072563,-0.0760677988,-1.5081981542,-0.3583651065,7.9159517634,-1.0020916292,2.1956566822,5.1031687297,-1.7469346077,1.3478656532,2.2412388965,16.441160752,-12.479057415,2.0157599089,-0.6394300319,0.4326114393,2.1887253221,-0.7130574504,0.946739091,-6.978287279,-0.8252598097,0.1688402597,0.6824618795,1.6154539685,-0.3793810814,0.5473301173,0.5501253892,0.5858544044,3.1860115936,1.7396786445,0.9181163297,0.2731981773,-0.6396426791,-0.3951312072,-0.0176884145,0.8058668625,0.9197433845,2.0702222997,3.0139594059,2.2583574713,15.4400655331,-7.1507203952,-15.9004230908,0.1122193027,7.6312016461,8.2126307025,3.657030582,-2.6614455311,0.4006306219,1.9189945304,0.546944578,0.2385233608,-1.1065319034,0.7021297784,0.1868481701,1.4241967935,2.2438301392,-1.8399901548,0.5485258822,0.1928793799,-0.0278251538,3.6990794958,-2.5714783657,-1.7358542839,1.0831743437,0.5259531084,0.6137637139,0.4834651785,-1.0494937451,0.7308670158,14.1709469525,5.6080665968,-6.133305258,-0.5054111175,4.1605186017,-0.8641852471,5.1815195202,-1.7102685486,-0.1134560823,0.3130660863,1.3063780493,3.8452512147,0.1346169194,0.488815436,-0.9775415955,8.3048696179,-1.4252505085,-0.6125112755,-2.7836847788,1.2482271234,-3.5411956258,-4.3783260314,7.8373245845,-0.9245639511,-0.4481214383,35.7181769204,12.3199021423,0.3746404845,9.8202172998,-4.633989739,2.9319432418,20.7613476119,3.0867054562,1.1016757167,-0.374365589,-0.6944344923,0.4916671233,-0.0648115354,0.82921738,1.9400931854,0.8751125745,0.2038787203,1.8330456627,5.5565862142,-2.2583210914,3.9413248924,25.1751434325,-1.9395348218,3.6800895709,2.9533369239,0.3589765854,2.0773591593,0.6143115024,2.3487935143,3.9458782287,1.3524571503,-2.3033489949,-0.4139434479,-1.4045160016,0.0071297742,0.3320553121,-2.0180792765,-1.8515129335,-3.4913039534,8.8435376179,1.3576134658,4.9043446909,5.3718766536,2.6094058238,-1.2251800041,1.2145285163,-1.0477595226,-8.5721167485,-1.0345240468,15.0297516478,0.5969388256,0.5111164855,-1.6897729856,25.5013360066,-0.1157848826,-3.8985640842,21.2354854851,-43.7556814909,-0.4638525789,51.2889779629,-3.6208799676,-0.3098421597,3.9003124258,47.1211976871,0.5711977806,4.9229082328,4.2882435682,-5.387656671,0.6165100542,-0.0763162727,8.5966138309,5.0414572913,-0.8502139951,-3.2363968195,-0.1165614238,-0.2303805746,6.9456924291,-2.278742018,0.7257718274,-1.3302621107,0.1325598783,2.3162690348,-20.6624780587,-18.3414483872,-0.0721761103,-4.3526924368,8.0713513414,-4.0639733336,-7.609283094,5.3518337463,-5.6957961659,38.1059107243,56.4982404227,2.9973496666,2.4968090457,-2.7381103068,1.6942233973,-3.2303708827,-3.6069670658,-2.2225936858,-3.825431564,-0.9065448742,-4.4575606599,-1.4957690989,6.8540429078,4.170252947,13.9346390013,6.6854357552,11.3243101475,-149.4484184502,7.1557147463,4.5564018595,26.7839757859,4.4848947077,-2.6851436893,-1.88335086,-2.979980511,2.9313627184,1.1848146033,-3.9063128092,3.5436477272,-9.5181597203,-10.3137803638,18.6307049676,-1.3867065299,10.8832070359,4.8324381956,1.70405628,5.0413909275,-6.8009864617,1.3341631193,0.0887982833,13.2968415504,-3.9340308154,-2.6757383506,4.9486008735,-5.4923017241,-5.6131721756,-2.8339238056,-1.1939705074,-3.5331082717,-3.3852339878,-6.9390269691,11.2939783816,-3.2464174397,2.6988473046,2.946323798,1.1865579225,-2.6762741419,-0.9342786828,-3.2617109677,1.9958588075,-1.390388735,-2.8531610917,-1.9239350094,-2.2952330283,4.9360202764,-16.9888589137,-4.6284563967,-18.7523707237,-2.0608434105,42.0294817845,-31.5834817073,46.1675267508,16.4352565837,3.592051315,10.8965722993,0.8238625399,1.2813118123,-1.7645574404,-2.2892232678,2.2586229841,3.5301193423,0.5625772843,3.3963326129,-1.2375327233,6.2767156947,2.0999651742,-2.5665188157,-0.2413469177,0.1524198634,-2.7510839393,-6.4884917322,0.5197977733,-3.5610031158,0.5278338211,1.8668869922,1.3229395838,56.4921262533,-6.1703227974,-3.4219930528,1.8938644786,-0.8223343376,0.2868867276,0.7337688257,-1.3124759877,0.5780309411,2.4019040018,-0.7799411782,-0.1867783887,0.1285718351,-0.0041867333,-0.5969125358,-0.5331949643,-0.2842601479,0.1341453051,-1.1558530876,0.0500193724,0.5891039973,-0.3314331003,-12.7286428201,-2.4395181862,-25.9639108015,33.4270579402,1.5631459775,5.7902547542,-9.865145556,-5.6828318737,-3.5677823679,1.4853942664,0.1710948714,1.9472199673,-3.6022777414,-0.6745388004,-0.1928834418,0.0535080873,1.1286205426,1.031898906,0.6704667685,0.8199763,0.4091075316,-2.2429684027,-0.9677517043,-0.4607463829,9.6453927856,-16.3782858486,0.606914124,-0.1235375005,-0.4713900349,-0.0711332949,3.8309312419,-0.0121271459,-5.3076767827,0.1420361687,0.5557131216,-1.0333565895,2.8839535335,0.3223466973,-2.9437816041,0.7878449088,2.848187417,0.8374531153,-0.1326498961,-0.1998057681,-0.0216677507,-0.0547900065,-0.803337886,0.7658149431,-4.9553142872,0.9835050864,-0.6052754797,-0.7265023056,0.5701066963,-0.0008514677,-13.8568670746,-15.1402518803,4.207114796,16.8168537292,-2.0230924367,0.3280084289,8.6497868077,14.7556983939,0.0604050578,-1.9786243446,2.2597892681,1.0238657113,-0.6702595314,2.6041126282,-0.7297606782,0.6180688353,-1.4618229539,1.7784323516,1.515904855,2.272963444,-4.1076756776,2.3631102035,2.4175086146,-14.5370165004,3.1134738417,-1.6864666609,-0.3430615808,3.1255669182,4.8507108337,-0.4125162915,5.8853893639,14.0558941235,-0.207727809,-0.0108136397,-0.4208661044,0.7714959811,-0.2146573212,0.1439268732,0.651575888,0.2712924462,0.3598241167,-0.4182458862,0.1474202751,0.0787170237,-0.4757064633,0.6441161134,1.4996179604,0.4814539121,-0.3585542196,1.810369552,0.1690022999,1.9333929621,7.8111097783,-0.2604168806,0.143813368,11.3186285912,0.704853191,-2.3128841929,0.0177093531,1.348792029,1.7232253293,0.3497586939,1.289401533,-0.2378766241,-1.5340877011,-0.3952366523,0.6805281408,2.2162137789,0.1939367157,1.093421072,0.3452926622,1.9332810499,0.5011994882,1.8821258032,0.6771804447,0.7579660823,0.7873008239,0.356506171,0.7413459618,0.3572459301,0.19446762,0.1433359055,0.6084806695,0.6268315062,-0.4669963128,-1.1233837027,-0.1369118632,-0.7563866884,1.0856740192,0.176044384,-0.9753939039,0.7013633379,2.4088580826,0.8036961637,0.0606838361,0.1925025343,0.2442211948,-1.0047345094,0.0414024322,0.0020320837,-3.1686776616,4.4357548355,-0.4993733186,-3.0552970479,-0.1243904652,8.7480114436,4.5447082245,-8.5826660271,0.7847741146,0.154144432,2.6256384898,0.0572898849,1.1594244049,-1.7473236256,-0.1135933547,1.7034959767,0.084537362,-8.7918968966,-0.319410095,-0.3768249376,1.4704444651,0.1479711492,0.7522554234,0.879312313,0.239484752,1.8421353095,0.7550712929,-0.000755755,-0.2418446339,-5.6365769791,2.6609844497,1.0905549709,0.0610636751,1.5987397679,1.5425189512,0.3977494289,3.5573769206,1.6559841354,0.0173899755,1.1619735006,-0.6582526857,0.0573806171,-0.2886667292,0.1857892486,8.1305097724,0.5715451198,0.6801385178,0.1090722282,-0.3771342493,0.8427695496,-1.6308919995,-1.2553130637,-0.1167027057,-2.739552334,0.1213363199,1.3917528778,2.6213032322,-1.2850716415,-0.373255982,10.7348317108,-26.7190732092,6.0248947547,5.7211145319,15.5302898691,0.7482082052,-5.0605360014,-2.599364112,-0.3965123348,1.2223469458,1.4287012007,1.6693932546,-0.489128881,0.0691100618,1.0312606066,0.0750964217,3.1951808693,0.3026701091,-1.4083827653,4.3084906183,-0.1527321709,0.2918073929,1.6052345479,-1.0498290141,6.2341420453,-0.4519285423,0.2457895172,1.7222980081,1.3387978501,0.4213634121,2.2274734821,1.5832016823,-0.8672100789,0.5241304205,0.3100043456,-0.4711132026,-0.5107258121,0.2681758782,0.699346517,0.2955081229,0.1165989578,0.1613332467,0.7985799355,0.2731183018,-0.1386064851,-0.4906370638,0.1391716298,0.2006973202,-1.1339091352,-0.2342819512,-0.4634856587,0.1635305417,3.87537173,5.619519739,-9.5270535667,0.4491198444,0.3552509864,0.2200388316,1.0694318975,3.7553235257,1.0953086594,0.3487663914,-0.006385758,-0.0028235325,1.3016935435,-0.2221550776,0.6207854625,-0.4454918287,0.0946325093,-0.0115033452,0.1310170668,0.28808366,-0.0890038911,-0.6582129628,0.184170392,-0.5601098803,0.5080536154,4.486012686,-0.1911264404,-0.2817207441,0.3850191983,0.2817576774,0.0522941304,-0.2122311547,-0.8227546983,-0.3225075178,1.2745350607,1.0268248804,-0.9045871344,-1.1558295891,-0.2248269863,-0.312425364,-0.6003540698,0.143948278,1.6242927881,0.5204176716,-0.2611641275,0.5546707586,0.0645395245,0.3764526728,0.5231461484,-2.8611105628,-1.9090511727,0.0263628072,2.2382016221,8.504248778,0.461270084,-7.6844129168,-0.4163220368,-0.3524771011,5.2317994479,0.4395855465,0.1333175182,0.7085252065,0.3949850916,-0.3181184125,0.0553490013,1.1160942889,0.1209191061,2.739422965,-0.0912885557,1.5071996252,-0.5573723611,0.2495261219,-0.3870067171,0.0236683028,1.3064590627,-3.1056978085,-0.1180633839,1.6068182498,-1.6627439911,-0.0872693951,0.7125345549,0.2664186539,-0.0959848548,7.4437199103,12.7364450481,-0.3492809322,-2.0085325778,1.2073799456,1.0093905026,-0.6105842699,0.0262283883,-0.2364827452,0.6406957542,0.6475870113,0.4610423978,0.4263087104,0.150659976,0.162502566,0.1726532072,0.0860895256,0.3026580515,0.7248472889,0.272433576,3.1612181599,0.2138912634,-1.4875310707,-0.0970196111,-2.2776973206,-0.2141114186,-0.2448763661,0.4341248835,-0.122296149,0.4235595366,-1.6113210504,0.6046019325,-0.6060853684,-0.7249725618,-0.6599661189,-0.6746462949,0.1251111981,0.7836611349,0.1087343488,0.1496664159,1.0748849155,0.1651333341,0.5716758044,0.2285805897,1.2105795906,0.1300869719,-0.3249450203,0.0092869371,-0.1191200987,0.3262628954,-0.0762026823,0.3903409587,0.0149948041,0.6263489735,4.6026292597,2.6794627593,-1.2799231772,1.0156179533,-1.2835202077,-0.6659891987,-0.7660443558,0.1741159288,0.781895963,0.3498836064,0.31817963,0.4185629608,0.6063924243,-0.0686505209,-0.1625403426,0.6048720449,1.6003972192,0.5675943153,1.9910314151,0.3276633458,-0.1958568623,-2.0674571909,8.9197278738,6.5081103761,-1.1097345934,8.1021207733,0.5162401729,-0.7655896412,2.0232461924,3.130610914,0.4729980915,0.3453370335,0.095573609,-0.1224329472,0.2382930846,-0.4831878704,0.5561845864,1.4570292874,-0.9368480944,2.5713816797,0.1057906375,0.0579840389,0.1899341267,-1.4845036847,0.4600044821,0.2738663932,0.0082612971,2.578234285,0.2216592867,0.1895006139,0.7160341227,-0.024394582,1.0044671129,-0.1444290345,1.3009082515,-1.0103598291,-1.6332505364,-3.3528638607,-4.09453158,0.8540514051,6.0981751566,-9.0912117169,3.5666610266,5.3778668122,-0.6749865058,0.2268701976,0.1586199906,0.0492209127,-0.795384511,-0.0461248632,3.1201854078,3.6726152121,-3.2521872084,4.2601716525,-2.428152604,-4.0272299935,10.1542319589,-7.0021376305,-0.0666268172,-17.3466812971,19.3943899667,-37.3807376645,33.1090313802,2.6680502643,-3.846542962,-0.783998127,-0.8429543081,16.5804069476,-0.3915369174,-2.9068332129,-2.0436603801,0.354193598,-5.7608100268,-0.3757894808,-0.8636408219,4.6183196349,2.7364236211,1.433490679,-0.0575248757,8.3454724772,-0.7613642797,-0.5517057371,-0.7146583796,-0.1059686684,-0.348484227,-1.8899237593,-1.3149566996,3.8511866579,-0.299250967,-1.1204762339,-3.5103726405,1.6745407208,-0.2911082604,3.0640475252,2.1668062952,1.5664896347,-0.0435710268,-0.3753925579,-0.2688367545,4.7201534938,-0.4341387738,1.2001368286,0.4710923695,-4.2223411284,1.5642898218,-4.6013220882,-1.1235351738,-1.324643011,6.5989768875,-7.5454035597,3.3851948139,0.3670792896,0.6865113772,12.1064921403,8.2632765971,0.0059104586,4.7941710644,0.2404295895,0.2868290573,0.60500619,6.2908757723,-0.2759226223,-0.0309810733,1.8424586658,3.4891139112,6.7086703605,0.3868311716,-1.9305297073,-1.9991667426,2.1760363017,-0.6540501781,-0.3344025705,-7.6922008537,-1.132875777,1.2145312257,-1.2123684978,-0.8552948755,1.2870857058,1.9173477959,0.2766060118,7.9714182497,-0.9911005022,0.4883085971,-0.1250052338,0.9161736944,-0.1733449282,0.7055181048,0.8719605227,1.0037466833,0.306283459,0.5683312714,-0.0380822648,0.2420899167,-0.5135213796,0.4196701222,0.6377459437,2.4377771954,0.908251325,-0.5350152833,0.2342205531,-1.1418568206,0.6073549202,-0.0584723883,0.0022812378,1.9063078176,0.9221999634,-1.353304047,3.2688096384,1.5453908552,1.7511105417,-0.0061763534,0.2411808482,0.8838907865,0.3736258682,0.0881108498,0.4672066509,0.6816264445,0.5717463107,2.3180277297,-0.2023744163,0.574443755,0.4326242867,1.4003195901,1.0648121425,0.5157765711,1.4309214747,2.1977934553,0.3081652371,0.1559903102,0.6946569518,0.3340605303,-0.5294592118,5.3086255545,3.2703064865,-0.7320382285,1.6705238913,1.5887242715,0.6611683744,-1.9832892079,0.0107290353,0.2920868003,0.6920063433,2.965939563,1.060631845,2.4041141782,-1.145687824,0.3034463597,2.0314847997,0.5665572523,-1.7352867883,-0.2500385188,-2.0956938837,-1.1184506124,-3.2491608576,2.0030377411,-0.4591577155,3.9540581481,1.2849673486,3.792221418,-4.986352341,13.0539116805,0.6348692559,13.6486480771,0.8195614704,0.2895284801,-1.0944336653,-4.4770184419,-0.1424161675,0.6816108966,0.6563283709,1.1343907154,0.9602301295,1.0485250386,1.4075307784,-0.6999585933,-1.4563869656,3.0875137163,-1.3886716368,0.4130016048,-4.3467418002,1.6320669863,2.3735229986,0.5619250021,0.4396881388,1.4587837978,3.9854846601,-4.7012532461,-2.1836776654,1.5088681935,0.5902528507,-0.81843332,-1.0459691425,0.9255023261,1.2337352814,0.9768749341,0.8765894865,-0.6104561689,-0.2072744583,0.6404821882,-0.36970863,-0.8951116218,0.4108918939,0.310469574,-0.470098332,0.6788745033,0.7359296678,-0.7466533935,7.5905838107,3.1001191118,9.6579222199,4.3613326438,1.0917652882,-0.4705589214,-1.8663255692,-1.4968151495,0.2147175516,0.6353782022,0.1487193182,0.9197651038,-1.3149786781,-0.0853146233,1.4504578654,1.0362742744,0.794750843,0.9047158134,-0.1656616493,0.3859604338,0.6716621361,-0.2412104423,-5.4254463784,-0.3062101077,1.4552075272,2.6020911584,-0.1102901956,0.1094748134,0.7970253538,0.7921175603,0.0660143229,11.7886317977,-2.7775566356,-1.2038346779,4.3571194708,1.720744576,10.1046930422,-6.9253953687,16.5241856112,-10.8408702488,71.9297614607,-4.8056677678,-2.5129520679,-1.0138655452,4.2322159014,-1.7318597529,-5.6942224938,-0.1045503741,-0.0658005141,8.9400924557,0.2715983005,0.7840600785,10.9644441462,-11.8940007958,-72.6528825697,2.4505690718,-3.8983361338,-5.2484131002,47.0416719248,24.2606848365,3.8797680589,6.4277844625,3.5750382791,-2.6203840369,6.6873312958,3.4346579903,6.6296381335,-11.6183312796,-0.7529834934,-18.7650545822,8.9866568092,-4.1953825123,0.9504080279,9.1909279232,-0.8750750924,3.101654811,2.9841981264,1.9919130369,28.4840103558,3.1045251588,6.733450055,1.6220261515,-1.0830196045,8.3725637424,5.0049576956,-5.8354982096,-9.4853711782,0.4492475126,-1.2396066148,0.0714245042,0.268786386,1.023900585,1.106940304,0.7094023439,0.6874332038,3.0713847259,1.1163857075,0.7884973191,1.633482918,3.6617500687,0.5342532167,2.4050768488,-2.4622097048,-0.9625328953,-4.2551499753,6.9414050429,3.4133004627,9.917687075,-4.9087278811,-5.5095550174,0.5400820723,3.6703126401,-2.242885486,-0.5167344646,-0.1960386315,0.1489648451,-1.1899043596,0.2450304856,3.6471082477,1.0819230768,0.5075996139,-0.686931147,0.1468403375,-1.6921699138,1.7536866593,1.0173827994,2.5568713007,-0.0489049237,0.5897577764,0.1747195367,0.011209094,2.1311985473,-0.7149916876,0.2922982868,1.9868967857,1.267884081,0.7941448695,-1.5299252143,-0.1082255934,-0.5727469569,0.2940443864,1.6017729517,-1.8398917197,-0.2242889607,0.715937056,0.2475991425,0.7223988382,0.4403877653,1.7428564109,-5.2379657989,-0.2797235233,1.7843098677,0.6643208334,0.8694252209,0.810160544,-3.9727996556,-5.5063474177,1.0517753644,13.5771341475,-5.2135802685,-8.9826879632,1.9502605263,0.6565547111,12.5597579411,-6.0074386689,4.4089673267,4.2121401529,0.5214949557,-1.4001637685,-0.3500813667,0.8464967419,5.1146237801,-0.4433985069,1.3128326677,1.8119264074,1.2677615356,3.4247170288,1.2034167284,0.4502360791,0.3799178141,1.7468126243,-0.0454057141,-0.6250977193,4.5264553327,-0.6125746714,0.1525909573,0.6152314545,2.1554409683,0.0519408596,1.0098289514,5.6119616918,-3.948564508,-0.6809758095,-0.2438263291,-2.4153174373,0.3223696075,0.5913048991,2.6471339207,10.2689799478,-12.1157488274,0.4618329748
   0.3568543082,-0.6394938819,-0.593203902,0.8842271094,0.9775528393,5.865764036,0.1301616397,-0.0911241434,-4.5153471128,-1.6991873569,0.5857821244,7.7450260062,-23.7338074836,50.2241442322,20.4251347178,-3.4642546658,-5.9495470396,20.8472798386,10.4683281162,16.8772642162,3.2074464763,-2.0135456317,1.6126899336,22.5479987477,0.3935465099,-1.3125237109,1.2476736659,-1.0328860635,3.4671326727,-0.440863394,-0.8111938608,-0.7398078956,-2.2833854822,-9.2564716661,0.6123852586,-8.4978905514,14.1133656763,0.5288353187,0.3602581106,-2.3546622693,1.2934319025,1.0471834786,-6.8622247661,-0.6434223121,-0.4129334148,1.8633825765,0.7283117335,0.2945871962,-1.5679087045,0.5061267325,-3.3280752113,-2.2027049497,-0.0181963364,0.0043151086,-1.4973769242,0.0407122301,-0.2638661485,0.2827070077,0.5624645016,0.4999652337,-4.2871171486,-1.5275974426,0.164475195,0.8586544074,0.349774452,1.6661965397,-1.1591541312,-1.5108275675,0.4714132459,1.3185358874,-9.0319228399,0.5081953314,5.6495393434,0.9968406247,0.8144219224,2.5767261691,0.0934701869,-0.2652768321,-0.8912767868,-0.6256301474,1.2616491462,-0.1326101842,0.603787069,0.1848802904,1.8573703352,-0.8914227215,0.4001716781,-0.4309653303,2.989722791,1.8568370369,0.3688007729,0.2342667839,0.7576365211,-0.4967745764,0.3534374711,-0.1944368524,2.4131859052,-1.8141342886,2.4883092057,6.2917263086,-3.6278332116,-3.3427601137,-20.3273961971,1.5847632921,-11.6680986441,33.2589641134,-0.3860785078,-0.970846162,2.3903950636,2.9506475262,-5.5529245979,-10.9351669357,-21.7048899942,26.5745008597,3.1954103713,-2.0551687399,-2.7149873871,-24.3501035035,-34.9523655478,20.9550869905,3.8244046503,-2.3862424933,13.8658287356,-4.0526716109,-19.6161923069,96.3485597436,-6.2489557301,4.986151498,-0.8425226453,2.2797934596,0.9695606017,3.3699295217,-6.1538726887,-1.8446713541,1.8164928434,0.8207166964,7.9159614317,7.9668936876,-12.0825535073,2.5118772767,-10.3624591365,12.7649661187,-20.4061371695,0.4850978416,-3.9103826206,4.0742191475,-0.6788555285,-1.1271028122,-3.1063250506,-11.2161509997,-3.4276445806,0.0410752825,-11.2423932381,-3.6227949028,-4.3982714648,-5.9148992437,20.9091508398,10.3379932454,78.3524819858,3.5251422759,3.6323925508,-4.1088372432,-2.6898620069,-6.3599727198,1.8016614118,14.8841619519,12.3196064053,-7.0358403362,-2.6454470549,-0.0106228137,6.8339386069,-14.3837721838,3.5564761492,14.2447287032,5.0166116942,-24.1876687362,-7.0040377644,3.30449299,52.9341843043,7.9652747678,1.9087565275,2.7972605773,-38.8192112528,5.8254205776,-3.0763606048,0.9116467801,4.4346410834,6.0063858463,-4.2550261385,11.7733919233,4.9894489523,-5.531813408,-0.1089105916,-2.3766827208,1.5039564296,2.0414370246,1.967867002,1.5804602918,-2.3111994868,-3.6545981013,-0.9779974044,3.4031648818,7.7136911472,-6.7209828104,0.9922635279,0.1747761944,-0.142774485,-1.1415759984,5.2515697523,1.6531165431,0.4687202862,0.8118999169,0.796237479,0.6839565653,0.5410822244,0.663282218,-0.6153288652,-1.5599020004,1.6580356461,-0.7832796206,-0.4723073352,-0.1494574543,-2.3321223597,3.5991598062,5.3734242032,-0.7552790657,-0.088541766,2.3039162891,-11.794632564,-0.0964393084,1.9341327397,0.7763570637,0.2360776666,-0.2186592695,-0.4655590586,-1.4970456121,-0.3933157516,0.8410949286,-0.1198267203,-0.5992324632,2.7549436059,0.220004911,-0.3823592036,0.580156955,1.42928163,-1.4449412566,-0.7442068349,0.3659101913,-2.2254413083,-0.1597510716,0.643347976,0.9606562693,0.9070207242,-1.379407289,2.0375898351,0.8870692605,-1.8574956078,0.6305725893,-0.1460994947,-0.8509860408,-0.4216864464,0.29245672,0.4841153649,0.9392490639,0.9960086919,0.7022391284,0.417531146,-0.2796176992,-0.1205426426,0.8627042495,0.0484492172,0.7468409462,-0.9599269455,-0.4908416832,3.8156525354,-0.8001322841,-0.1170609337,0.3399358775,16.2563028923,0.512655943,0.0398417936,-1.9551940278,-0.5036816407,-2.5709601032,0.4062390092,-0.8413583938,0.391698868,0.5732463665,-1.2750624933,-0.3651736292,0.9685806935,0.3412382008,-0.2859755225,0.3710017446,0.3616750377,-0.9908783281,1.3420629076,-0.2492822602,-3.0811825125,-2.0679704696,0.4881633794,-0.6809856869,0.2088743917,0.3697759688,0.9017303445,-0.3348481331,8.9282146877,5.2197277365,-1.372500213,-0.4442904825,4.3370622192,5.0785537969,0.7054345252,-2.4579145542,8.9733913956,11.2436468704,-3.0469453062,0.3458848954,3.5898047061,2.3857528979,-0.7253569502,-2.276855323,3.6079070897,1.0143089745,-3.8280681097,2.6726404279,0.8923131234,4.6504143941,11.0989762719,-23.42595195,15.5156565555,-41.144056528,-3.6464425318,0.436540297,86.4296766429,-1.2561038416,5.1355488885,5.7567710745,-1.5467133328,-1.950195791,0.220826802,8.0788925888,2.3875834637,-3.3081254049,-0.5771536312,-0.3025862563,0.3787294293,1.0248740074,5.2384659791,7.8962721074,-0.9758377801,4.9769981414,36.8553561728,-16.5644080413,-6.7965684124,2.1324827088,-1.511016973,1.206638352,11.3119875396,3.0122173916,-3.2384768129,-3.3692112824,-1.9573985418,1.8020444568,-0.152561488,1.1364862678,-0.0494154152,0.7090339109,-0.1924526492,1.1716013596,1.1580565453,0.5834028596,1.9967987409,-0.5063208034,0.3932754931,1.1760798269,0.2193046252,0.2871582923,-0.5478808908,-2.1536007373,-1.948035777,0.3121414616,-6.2935885644,-6.6993041308,-3.5515977097,0.1674877254,0.8070318313,1.3717154918,7.30526677,1.6614778373,-1.0060420993,0.3973284788,-0.5481872524,-1.1995465534,-2.2474394222,0.112424291,1.0421257734,0.146266751,0.3191221012,1.5700673225,0.3769242293,0.3293224177,1.1764794115,0.3335967051,0.1531196285,-0.120727559,1.6388993418,-1.8969316114,0.5129909451,0.1751741013,0.024631585,0.1191738468,1.1019910537,0.5086980803,2.0609802175,-0.0445977308,1.3787982305,0.3657558563,2.1603164014,-1.3273708035,3.9149148188,0.3369901905,0.2110561928,0.6594366824,0.2013390027,0.6958965556,0.0363894955,0.8887428824,-0.8174299642,0.3649453353,0.3082166101,0.326343552,0.0668643097,1.2279055952,-0.1644264726,15.0189281216,-2.2503884373,15.6456795661,1.0854426192,0.3818696911,3.3089818708,0.4833644737,1.2520703785,5.8074629616,-0.0670189238,0.0682582429,0.3232009607,-0.4784766625,0.6166791248,0.2684540706,-0.0423102404,0.4031098527,0.9624915519,-0.4297295834,-0.5255148247,1.0465408664,2.2859639967,0.544536881,2.5649074271,-0.3619790884,6.10059606,0.0453993291,0.0835562207,0.5162682654,0.4150560869,0.8586990382,-0.0473227785,-0.0264306838,-1.1113638409,-0.7241180378,-1.4506112189,1.9672339422,-1.0103406706,-0.2600592623,0.8657345504,0.4820959238,3.916042606,-0.1511259643,-0.3682303035,0.2812604209,1.6222834269,0.1283626552,0.184767564,0.8180006043,-2.9682848299,1.2853583672,0.7920622969,-4.2272442954,23.3517460743,-1.280840567,39.9360406857,-3.3149767025,-17.7985031349,-23.655820521,16.3823746382,2.1977142014,4.0671307062,-0.4310975739,-0.9407420618,-0.4009187076,1.0092377886,-0.5796929787,-1.2799182781,1.7052100001,0.3202605931,1.337147641,-1.71373535,-0.3289660923,1.8798319414,-0.3808078223,5.4088340681,-0.7299003694,-16.6166911628,8.3240460777,0.2556799334,0.8672004493,1.0746237425,0.3622688949,-0.3622576095,40.0853178867,-1.8853921329,-1.7735090037,0.9006903942,1.6319651796,0.0447345616,-0.8215107383,-0.9797195859,0.1946956205,0.5778069549,-0.2366365355,-0.2627125704,0.5073509993,-0.0835994325,0.6445173521,1.732370617,1.0259713663,-4.5668010927,-1.4956351422,1.2045102544,-0.8767927587,3.9169831446,9.1854024908,-8.871871915,2.8918451277,-0.1171057529,0.6504788912,5.0301088635,5.0565129277,-0.9677606847,1.3819701685,-0.724727483,4.9469981286,2.5203697907,-2.4247834299,0.6928575792,2.1961798403,1.9954225929,0.4821231848,0.6388126959,0.302612061,-0.0463181111,-0.3291592924,0.9298155421,4.6020720861,4.5245390285,-0.4219556595,8.2898960777,0.0082335189,-1.6536910854,1.8069212566,0.5267651169,0.4946038132,0.3044298323,-7.2561597586,-1.7278814157,1.4704255317,2.3667474947,-0.7427324062,-0.5794536663,8.508763285,1.2140693289,-2.0611930169,-1.8359980395,4.0446068321,-1.0010578343,-0.8305413094,1.8712836888,-0.2035946775,0.7586253648,-2.8463333637,2.4870116808,-0.4932535262,-0.7257219443,-6.8313635766,5.2600994151,0.9913944762,1.9327920122,-0.2657925096,0.3885719199,4.5649259694,-11.5878664965,-3.2548882112,-9.2111020052,-1.2559667443,-9.1660573661,8.2685078019,16.8466434549,-0.6658794756,0.2508970372,7.1076052686,-4.0864455422,3.7442679824,1.6920320892,3.0570291747,5.397305362,-0.2086393316,-3.5062624047,-0.9535077695,-12.6103473156,-3.8042956911,-0.0820104836,-0.9111059323,2.8051648693,0.6188859805,0.3031996684,0.1109096336,1.1752072544,-1.1007547731,3.6959832065,0.3078900205,-0.0296268599,-3.3362859595,2.9642156437,7.1406867398,5.7510931595,2.0221995561,1.5823850033,2.1786491893,2.11811475,0.2197795918,1.6219026568,1.9797045366,1.4562463749,-2.4845211574,-0.7770675419,0.7243577316,5.0379947312,-1.522367665,-1.4868069378,0.4933850685,-0.4651422979,-1.7005748508,30.6916139304,6.5161732697,23.6090270099,33.397835069,-1.906387085,-1.073871074,1.0023659398,2.3256432174,-2.3303918558,1.251254342,3.9389374465,2.0605178313,0.800945539,-0.8811980819,-0.7200699405,0.4881760594,2.1596680074,-1.6423215816,-3.3740638519,2.0805561877,-10.5595165097,1.0809546495,2.2059524916,-0.11152485,0.9222399607,1.7255969583,24.709523178,6.8867976179,-3.8588228912,1.5818568941,-0.6517591063,2.8691880082,-0.1218364981,0.6589422807,0.0481834451,1.2947274591,0.7691329478,1.0875935459,0.6460055013,0.1362262547,-0.5336234894,1.2383073824,0.2151033823,0.1604571598,-1.2000649369,2.1399244503,4.0505422138,2.2184725975,3.4722518672,0.8951111684,2.8179979947,0.9967024485,0.8759377491,5.7675367142,0.0483101695,2.6025706567,6.0359271777,1.6241623024,0.9435161846,0.9785377319,-1.3174383523,-0.129834718,0.0805035434,-0.5140847085,2.5926384614,3.0843801073,-0.0597322678,1.0092612459,0.5327738603,-0.5129222793,0.9247720514,0.7119579489,3.4496528562,-2.1936569895,0.9821430774,-0.5002776763,0.5508200687,0.3416509893,0.2036060683,0.8600228893,1.6996455797,-1.1471427902,-0.7571125308,-2.0603872397,0.700712712,-0.9708200341,1.4563521818,1.535677499,1.3537767583,0.6948625356,3.0285891704,0.1838722407,-1.1489954326,-0.0331555512,0.5452635849,1.2569478267,2.8667590066,-0.9451243596,-4.6016120625,6.2951929378,1.4574328094,5.4340178313,-0.0709816989,3.1777462984,13.2060255775,0.6118065171,-7.3062780462,0.5912401417,1.1889081245,0.383437613,0.3322377251,-0.8072328193,0.1340632165,-2.1258090398,0.1095289084,1.4508830939,1.2311864834,0.3203510353,0.8368607965,-0.1416473604,1.2466073847,3.6465754982,1.8921336117,0.0349636342,-0.3215763725,1.0482843244,-0.206127058,0.7699563356,0.44327117,0.5134873368,0.0180663422,0.6042385422,-0.0427593207,-4.5882598644,-1.2615196567,-0.6025530693,1.6468525137,0.9299563678,-0.4803772528,1.2640592941,0.9708226458,1.0941831606,-0.1824930909,0.0217406885,-0.2580744176,-0.0764036723,0.8162939363,0.1823681575,-1.0339333567,0.1627327826,0.0498372005,0.0879000981,-0.1805735453,3.7698225835,3.0744341649,6.5924128912,-7.98855909,-0.1056777485,1.8302321112,-6.008193818,-1.2083736928,0.4583976002,2.2480844849,0.6383032384,0.4427025652,0.6064515144,-0.8154038385,0.8945891958,0.4694674472,0.1168805791,0.4993792121,0.5739167142,0.0862379935,-0.9635391627,0.7488565962,1.957742323,-1.5093637132,-0.726073624,0.5031023306,3.5903939988,-0.33033224,-0.1509866858,0.8308241885,-0.0545313531,0.254630766,1.2160609877,0.9491923999,-0.8735628189,1.093220926,2.4002606875,-4.746041995,0.2810644658,6.6821980578,-11.1304461457,1.9907128325,5.67538536,0.6459779532,1.8824319087,-2.6381040266,190.3656695763,1.4253253513,-0.737062812,2.4664901202,2.138741476,-0.6225820868,-0.192763219,-1.2549557636,0.7449471815,-23.1824839804,7.4159691233,2.6888904887,-0.1704088851,20.082533362,3.5596904453,10.797803686,2.3746719054,-0.0247798652,3.8602625385,-0.7588567295,-12.0227403762,0.2513176266,1.9494635735,-1.641305902,-7.0402032585,3.3379755145,0.188280904,5.6515506836,1.05604115,-3.1564410887,2.2789360097,-1.0641262958,-2.9993352139,17.4926049172,0.1922958724,0.9854380862,-1.8071011701,1.222201616,-0.5874915779,-21.211840626,4.5687715075,0.3029881347,0.50405476,-0.8670548026,0.3803126718,-0.0423258366,-1.0712331949,0.1949349235,2.1879805326,0.0718798293,1.0319592935,0.4219797599,0.9315200481,-0.0179218582,0.3689293293,0.4633186992,8.4701662854,-0.1266563961,0.3924737912,-1.081053533,1.24460274,7.5255508486,0.0577850647,1.6312508142,4.1011316543,0.8469885736,-2.2756576584,2.6895287515,-0.6518379566,-0.5250834941,-1.286695577,0.7934510823,11.2494840797,-3.5403735901,0.7685511267,0.2465672027,-0.59192686,0.7830971442,-1.0823332553,1.5357114344,0.3423546292,2.1780880687,-0.5213320245,1.0139443858,1.1684184244,0.2462104372,0.2966325869,-0.1037708074,0.1275677176,0.0238388675,0.6014390694,0.8272437887,-2.8861523258,0.287353839,-0.4346665266,0.433607403,0.4163417292,1.4556233289,-0.9866949707,1.0607511884,-0.0073932761,0.9303109254,1.9440898835,0.6545038112,0.5243260608,0.4713197462,0.2462906844,0.5492556102,0.0557697349,-0.0981283879,-2.557062243,0.2620349576,1.6530485765,-0.8796207799,7.6256045481,0.0237755854,-0.5879898616,1.1024795885,1.0914298926,-0.1303611924,-1.6146835943,-3.7468196829,1.6786437279,1.1012621476,0.3965412267,0.1213513023,-1.6842024103,0.2545161817,0.6684053381,-0.364815943,0.0697648759,0.0961661375,0.5419470331,0.5580229194,3.3369071249,-1.8640942949,-0.3422184067,0.960175616,1.2471389751,0.4233768687,-0.0968256031,0.3741377684,0.8327116986,0.3344511004,1.0788790697,8.2914237719,-5.1792405003,-1.4619171193,-0.7408642797,-0.3237763326,-0.3272945419,-0.3252548826,1.0802757918,-1.9852990153,0.6116463733,1.9654172258,0.4912905734,0.2991015239,0.1658494351,0.6025468153,1.1172819966,0.2823840722,0.4369160528,0.441738944,0.0677863223,0.5784117349,0.3607562876,2.7295962201,-0.2174451762,0.4207315396,0.6290056051,0.0881383285,1.7178011258,0.7129387742,0.2019052451,5.303049777,-0.0201946277,0.0368242672,0.1716220524,-0.0172815214,-0.3367134775,-0.8408091401,-0.2827250885,0.4747249699,-1.3049830168,-0.1707696625,-0.3043948325,1.5804124399,0.3308512153,0.4375346952,0.1713208678,1.7326734416,0.3247595614,0.539552348,-0.1932865297,0.0206312786,0.3648637674,0.6258686421,0.2041253048,2.2641159954,-0.7094783274,1.7442649165,0.7755512708,0.4070738071,-0.4787118458,0.1428654078,-0.6429204061,-1.4927645424,1.1251583559,0.2138531157,0.4930780514,0.3082020443,-0.2439479888,0.3603114394,-0.4655768759,-1.6101123293,1.6931947252,1.5590383467,3.5756057954,-1.6694407759,5.1601798491,-1.2373126159,7.1642030257,6.6835203808,0.1399212092,4.5395850164,0.3705985538,0.8374630041,10.2927812004,0.7200953381,-0.4086186569,-0.7794416104,0.0557968895,1.023465729,-0.2003081935,0.2231908061,1.3776064767,-1.0212378312,-0.2769392378,1.2042369395,0.5554794702,4.1450284267,0.1707942742,0.9292402958,-1.6416019608,-0.7328494314,-0.0137066538,0.3195488615,0.8375649198,-0.0740284656,6.1408150093,-0.7652516538,4.4152178693,-0.9820230978,3.0913109195,-0.5983401869,1.7072828856,0.3016140677,0.4641466669,2.1134540883,0.3684761062,1.9210598661,4.19904789,-0.3712033265,-0.7390663015,-0.2765218228,0.8068193959,0.7632623653,0.5517913035,0.6699244587,-0.7308550578,-2.0014103469,-2.1378493462,-9.583182104,-7.3046823402,-8.425557901,6.6383026844,1.2264799963,-2.5593169455,3.0826567674,0.2241888952,1.1822745185,0.206240993,0.4728541205,0.6060322046,1.7367892722,-0.0921077206,1.2850907647,1.7685893195,-0.1243312192,0.0558052666,0.5817839314,-0.6156591805,1.9533591363,1.6061442409,0.0376172352,8.9740510212,1.4755564426,-1.2492998287,-0.3048831608,0.037338015,1.2398359776,0.0333216193,1.1423612626,1.7818019008,-5.351892142,-0.4531180715,1.4786136579,0.3897090442,0.6481935416,-0.8482024144,-0.6950779664,2.1840724531,0.8827495481,0.9168887371,1.9550351176,-0.8169297684,0.8152821001,1.0461117813,1.6345789536,1.7840634872,-9.0565384044,-3.1618319627,1.6858328994,19.9515776844,-1.1900855356,63.5877657065,-8.9783845791,-5.9843733469,2.8828486494,3.8132838181,0.8839878582,3.4420522082,3.7571849743,24.824083222,1.6373124135,-0.0949534815,-0.1145830102,0.9412809657,1.0457721071,2.463901572,0.0138034483,5.084915563,9.1907450683,2.2169518733,5.1463862883,1.4471868281,6.3193676499,1.5761284614,15.4407130245,-9.1533328971,21.8136054871,2.8603788137,-5.5292255443,3.3797627918,1.0038433367,0.7890878165,17.8680668949,-0.8035391741,-1.4985295637,-0.663758678,1.4192735475,0.3699647434,-1.6689548142,0.0962822386,-1.7123696196,7.9699622264,-5.5994518228,9.1734209593,0.3753979724,-0.2528854845,-0.1185539937,-1.1762700539,0.7703611266,-9.9397637341,-7.5919111808,-0.0024693918,-1.241101028,5.1487703017,-0.1508992,-5.6862843829,-1.1418644469,14.7242755719,-85.4249613768,12.4292080058,22.8718923407,2.0240058384,-2.6383692441,-1.1002083543,-2.9664233648,-0.2628699089,2.6224216543,0.4030750341,0.2832777008,2.784129568,-0.3810029492,0.9258718332,-0.5199708616,-4.1761738161,-4.3260288681,1.1043683987,-0.1878488744,14.2587776437,-0.3154974404,0.3750831078,-0.5129899029,0.7949591709,-0.5013429046,-0.2532724744,-0.0704333842,-19.1516726632,-3.3900705879,-3.6902223059,-1.3334668722,1.8776208628,0.6211661031,-0.0972388367,0.4951407924,-1.6300236319,-0.4376133137,7.4170716777,0.2701195932,0.1387306275,-0.1849046786,-0.2565642972,0.3835060835,0.3531487728,-0.2265807036,0.7772411671,0.0604167801,0.4576777656,2.2328656236,-4.2500887821,0.4047251441,-6.4050289429,-2.8321485987,-0.7785035677,-1.1781779433,-1.1640767127,0.6775171113,0.4102288699,2.7098047376,2.0337446708,0.2623167852,-1.9127360614,0.8571620078,1.3529070679,-0.496698298,1.0189066928,-1.3540639712,0.0629786627,-0.0852061968,1.7360437776,3.2212780892,-0.8173355503,-2.1905103534,-0.0368270355,-0.2552044314,0.3348252775,-0.6903127852,0.5401174453,0.0004425539,9.6702452254,3.7304431925,-3.5956343429,-0.8345794951,4.6808990593,2.8783530374,-0.74496452,-0.336853795,5.5531644245,6.4742591943,-1.1108047755,7.5177746636,0.1029666898,10.9655736956,3.3828529547,-1.3265927362,-1.3214058235,0.6921241246,-0.8184144828,5.2495255768,1.6156067015,1.3415151114,-2.0696781499,-2.3978513453,-0.4065005395,5.9114299688,3.2986700432,8.0451620808,30.3050172776,0.4900746767,30.2122114029,16.8931578969,3.0915454074,-1.8317790526,-0.2643476487,4.3941105954,-1.8341660918,2.4406228376,-0.9465922559,4.1472390515,1.5037270157,-0.2553137208,0.9915142131,2.291562165,9.5309684608,-3.3937768968,0.3991721276,-0.9259147483,-1.651935547,-0.2665786066,-0.4461464149,2.4263533547,2.460865795,2.2104586886,37.8963864559,1.875199708,-0.58665499,1.3032642877,-0.9991019929,0.1675760463,-0.2246035446,0.4686067258,0.1878662366,0.9151375028,1.5543028815,0.6639073939,0.2674390335,-0.4260010014,0.6809866032,-0.2120615192,-0.306785719,0.1221579946,-1.7193909479,-1.8794240242,-1.2541314708,1.1556637187,-2.3669814479,-0.6966938125,-1.0325492504,0.7079864834,1.9763224025,7.8949936666,6.7668147918,1.5936941393,2.3349732547,1.1860340515,0.6513134106,1.1070863948,3.2777874467,0.2271037062,0.0619711841,-0.3953196198,0.3490807281,1.0844944488,-0.0936078014,-0.0662367777,0.3156889849,-0.8728009875,-0.1633419794,0.5134455947,1.6887865865,1.2190194066,0.7651136434,0.3431414855,-1.2436542826,0.2218164521,0.6452062369,5.1025020845,0.4029698269,-0.9322986208,0.4614066018,1.8287895037,2.0176030676,-0.2635334721,1.4349380823,0.1956585688,0.1830631487,-1.4629420439,-0.2505257023,1.1671941326,-0.4538428103,-0.0054662835,1.5974287224,0.136408046,1.0948450598,-2.6881267893,1.7198329343,6.2112041116,6.3437928414,8.0148813949,-4.7799708073,-13.2942902572,-0.180892227,1.3120818939,-8.2669215312,8.5670456345,5.3684026501,5.0471521098,0.4305588926,0.8369282929,6.5178927423,0.1729674966,-0.1169329935,1.8448453663,4.0705600109,2.7007812384,0.9330314355,1.7335104504,-1.2601862523,0.9122645819,1.7187934808,0.8236375835,3.9202188629,0.9405905513,-3.1959580493,0.1657576681,-0.6378653228,0.0448022657,0.0551192866,1.4881326619,-0.2983856622,-11.269424625,-0.1688683415,2.1200000796,2.3706339502,2.6929795908,-1.0082495624,-0.0347026082,0.0728781653,5.6270624105,0.7723529261,1.6587232167,1.0557853209,0.2635113836,0.6109214597,0.8566726694,-1.1772681992,-0.4603590337,4.452722544,0.7993960468,1.2413491137,1.2384634099,-15.6041127523,3.5862705926,-0.0473569013,0.7420349807,0.3322044679,-14.4466065223,1.8369127547,-20.5780473514,0.9378701686,-1.1639452612,-3.4325634761,-0.5505737496,-0.7359160854,0.2451383892,0.3729598578,0.4813508625,0.7095317342,0.9877566362,0.2108772018,2.3092555235,1.1835548406,2.8855731274,0.8685553578,0.2024710705,5.1115250259,-1.1255527351,0.3700518967,0.6931077881,0.3020150886,-0.5854270041,1.1450735031,-0.1336093623,-0.482670277,-1.4988653015,1.2792257345,0.7869661707,2.1216292984,-0.7726785223,-0.4957275798,1.4684691151,0.5049559678,4.1270828594,0.8517000692,0.4466956177,-0.8747236755,0.7715147133,-0.7209450039,-0.4426002814,5.0136656872,-0.9742332417,0.4370213129,0.0889011373,-0.3622680773,19.0983650177,-0.6358182265,9.7021539717,1.3711575243,0.6843420028,15.601624727,2.1838881891,0.0289447992,-5.7235866607,0.9651217886,1.289763778,-0.319918677,0.1767272809,1.2041665121,0.5957627129,0.7649359944,-0.0887837086,-0.6696609055,-0.9576767539,-0.1168770249,2.2474507009,3.3107400347,-3.4460353066,2.9745157973,0.3668493143,1.2115865361,0.3222666729,-0.259927622,-1.0996754822,0.2577686846,-0.0312173228,-0.5724442857,-3.8422196704,-1.6370270037,0.4521381595,0.8597764685,1.2086751415,-1.2723406154,1.6423528951,1.9585313864,2.1029417681,1.2211703183,-0.3661756637,0.2872130632,-0.0778657005,0.760735916,0.0561662294,-0.0059303461,1.183436892,-1.3842827561,-0.1349981521,0.4016430657,1.0067094194,12.918562137,3.8987852918,-0.5870484818,0.6665856997,2.0374629813,-0.5816973323,0.1897426027,2.3488069019,-1.239810586,-0.8797738982,0.0014074788,0.0402497226,3.1757077642,0.1838370806,1.4818074171,-0.1218310871,0.9463701025,2.3535550615,-0.0713619815,-0.5377846104,2.4059400223,-0.2659528198,-0.609742038,-0.7109663227,-0.5722885465,3.2872089255,0.0316261917,-0.0026602597,0.3613247701,0.7468226562,1.2112005575,-0.6009487161,2.0554582479,-0.7883660161,0.3786103798,1.0785797614,-0.178616001,-0.0301856537,0.9438741058,0.5821402123,0.0302213775,3.4840670509,0.8444384018,-0.0614954717,-4.5078645032,2.1689459638,0.4976782416,0.7669851095,2.3690195438,3.251166338,-0.4393751175,-0.0667357597,0.9982445869,9.0534286006,-0.2852124867,3.2887223041,5.0608678116,2.2080376283,-5.0802489772,0.3424764382,0.0869797615,1.7891648644,1.4462042143,1.314408618,0.2472174543,0.2086775071,-0.9039448604,-0.1731916125,0.3540458983,0.8013461384,0.2581696724,-0.2883666005,0.6247445668,0.4641106635,2.2269001109,-0.3090097106,-0.2899862664,0.6555303653,6.1874573176,-1.7691432897,0.4524921982,0.6740817035,0.410967432,4.6877870769,-0.0954978965,2.9108859592,-1.1927355608,0.0218509753,0.5823693077,0.7064272447,-0.8539375712,0.4755251307,0.6071480453,0.2991087524,0.4079118193,-0.071771718,0.554355954,0.0986958115,0.4835273765,0.5613456107,0.6731227769,0.3359457137,0.5599339147,0.0345158653,0.267786541,-0.8488816875,6.7499376803,-0.2048791367,5.7366639193,-0.0536004707,0.2970877931,-0.8402626935,0.5418054823,0.6119965487,1.5982958607,1.0154796858,0.2442064715,0.1608314326,0.4994906226,0.6763188671,0.6498877192,-0.1213309485,0.1403616293,0.9599337629,0.0571561112,-0.139240055,0.1476010321,1.0986169647,1.3083901273,-0.0067708302,0.0502970148,0.7682912081,0.4954630455,0.2391255219,0.3024115064,0.0478320988,0.5498898495,0.0167672387,0.0588946784,-1.4642208514,2.8464216532,-19.3539191024,-3.2766332926,-0.0261550775,0.9885483089,2.6933046056,23.4692566068,4.5827353114,3.1396556401,1.0691749642,0.3933650391,4.0872665747,11.4696757428,26.6402278808,-7.5711351681,7.0271186304,-2.3586447739,-2.7769281689,-2.7166654106,-2.2884086968,-19.3998601543,7.3248764341,7.1799140721,3.9475754196,0.088006198,-4.2193828702,-1.2817044557,-1.3215151852,-6.7750575396,-2.9730971934,14.8833233508,14.3239737789,3.0734728796,-1.4533107953,3.1735813212,12.4178872624,-2.6463243193,-3.6621163205,-1.6311425944,4.9658295269,-1.8854512772,5.4875666139,11.1574062088,-23.6362088836,2.5424475542,-0.8882559091,0.8161344969,-0.9785345072,1.7196521824,-0.0459149979,59.016411371,32.8020652375,-0.6847866645,-0.3783600808,1.4900058638,0.9361211129,-0.4118540998,0.7334138682,0.2796505682,-0.0050953519,0.3243183777,0.7910990816,1.3705340436,-0.0386044155,0.4226480613,0.3353229129,0.5529024061,0.3274867862,-0.5485442485,-0.1080765902,-0.6603863034,-0.4328225291,4.7595353796,-1.0131925016,6.9856716907,0.5093606619,-0.4341688571,-3.5888526961,-0.808256462,2.3268362512,3.4865466721,0.3026453824,0.5567815686,0.3368651117,0.3936825279,-0.0700069189,0.2863630325,0.4326466618,-0.9223474686,1.2910191221,0.3036019279,0.0695702999,4.120704856,0.2367386838,1.1586698459,2.2188959375,0.3853398777,-0.166298853,0.0408184332,0.5018708143,0.5066563332,0.3535797048,1.0387262149,-0.316658929,-1.2979689102,-0.875472088,-0.0853717697,-0.3561235749,0.866078877,-2.4009374493,1.7278182682,3.7629667379,-7.6566077453,1.0302849251,1.0796617067,0.9711673983,0.1540254744,0.5647569812,-0.3977644346,0.3678284709,0.9768614084,-0.4055447475,-0.2054744293,-1.0472636147,-1.2494282477,12.7981452959,-1.2607721746,-9.299532399,8.0057793047,1.5413830039,2.6620356981,-0.8049988439,2.251358382,0.6949075682,0.1309461653,0.8606535771,1.8423670429,4.2262684355,0.8206833129,0.1159428586,2.1322389241,-1.9527548339,-0.3261919167,0.3873091921,-0.1139971396,2.9288288528,2.1059591596,0.1223224865,0.0992567691,0.2723033963,0.6089161491,0.9911531345,0.6077206846,-0.5074808414,0.2845582239,0.7049871651,12.0139423038,-0.5073777068,-2.6021241559,0.5374011582,1.0179104552,0.1941773335,-0.2015204585,0.1846143282,0.7660930893,0.509993315,0.8647841184,-0.3312337232,0.6114720378,-0.7358138804,-0.4262454492,0.8749763975,0.1117909845,0.2066014488,-0.5159985507,-1.854320198,0.3329902374,5.1047327123,-2.1842708622,-0.1602337199,-2.1185762479,0.6944602966,0.5512669814,4.7984669646,1.3178061787,1.3965056711,1.8788115235,0.5147648617,0.2349932691,0.3923083825,-0.5065123594,0.4265060779,0.2389197682,0.9454017655,0.3003500585,0.3888726937,-0.0660349485,1.31774451,1.3579365097,-0.079600948,1.8444063819,0.0122442155,-1.0370927289,-4.2906962442,-1.0251177772,0.3128093049,0.3834510935,0.2596574486,-0.0295460915,1.394202201,-0.8231103792,-1.302846107,0.6098540472,-1.0287149438,0.2535842396,0.0092632893,0.8581949733,0.7689141091,0.1445634671,0.4486233029,0.0583270792,2.1108676924,0.3708060537,-0.1225304902,0.7974738785,0.0785328227,0.8026878264,2.4311647819,-6.3720361307,-0.4417359508,1.7440053612,-4.1121826587,-1.6680946058,-1.1639346958,-0.215658933,0.5723283268,8.6741211094,-1.6278385117,0.9664858305,1.1759356073,0.2346158437,0.2881397032,-0.0057606491,-0.077707918,0.267129116,0.230828458,0.4851713081,0.5690453187,0.582072252,-0.1683441064,0.3206071557,1.4664718327,-0.0035201915,0.1195435952,0.0823899688,0.0885190839,1.0526449394,0.9156228075,0.8975655055,0.4963893304,0.9623630865,0.5510374907,-0.2569179347,-2.3728575935,-0.4607289463,0.0931313875,1.2416047718,-3.6197996607,-0.6451763175,3.6918559817,2.5225834459,2.2423151018,0.8595342501,-0.0110000662,1.8918432719,0.0566474632,0.5532574237,6.1546786951,0.5683025968,-0.7776774479,0.6351204313,-2.8461924911,-0.2333993741,4.0978973126,-7.7239605618,6.3823351167,-1.9097327957,-0.2525867134,-6.6890793474,4.9815516496,-18.5399413894,-17.9300183665,2.9091055898,-1.5597254552,-0.3300372123,4.2316316835,-4.6171843623,-0.3635820326,0.0987889147,0.872978731,-0.8036550652,-2.1990386816,0.6112534703,3.7636429744,4.3183275963,1.3421033603,1.7712777786
   -0.5200758571,-23.428420611,-3.6326448595,0.8878572405,-0.357523238,1.9206294472,0.9132939417,31.5783900375,7.7117484143,-3.5166770584,-0.1440071578,-0.0779082471,-0.1164490245,-0.5937934771,-0.1212673174,0.1341401122,-1.3343202533,-0.3010431434,-0.0532152783,0.0513471821,-1.1447844358,-0.2389666746,0.1288460358,-0.0387364985,0.0164435871,-0.4112641175,0.5494673361,-0.2097655791,-0.089104712,-0.1754436726,19.1773853131,-4.7139511999,12.7130845999,6.6981869543,-2.0748230262,-4.1523665935,-1.4640602893,-1.4753289396,0.1611418044,-0.3499005063,0.16968496,-0.0762856096,-2.7124778184,0.8139791769,0.3201869988,0.3449953798,-0.8609354691,0.4024264701,-0.0681142268,1.9397502055,-0.3804732169,1.6542391399,-4.0516381486,-0.3672924608,-7.953660887,9.1503169518,0.2875093679,0.439095543,0.9472075369,0.4171802508,1.8654414142,-6.7735422836,-2.036438333,-0.3290074775,-3.9421234052,2.9057708865,0.513739975,1.1695757129,-9.6923205689,6.2930536582,11.4854006885,-4.0905801006,1.3809468007,-2.1168208043,0.7394195571,0.06310445,-0.4264796422,0.2363557123,3.8174394236,-3.5166021941,-0.553293885,-3.0546123578,4.6791626052,-6.1295147193,-11.7639808332,-0.6095002462,62.2573247924,17.7843127322,-21.8568479298,5.8684681615,51.376814807,46.6607427779,-4.0709769302,-2.5901415793,1.2045816261,20.6239360831,0.4758353527,1.9028114343,1.9431764082,4.0380414326,-9.976551244,1.2408943825,-0.7269242929,4.5100881015,1.7322849334,1.3834080087,-10.0763769871,-12.9533279019,-7.2526830945,0.6487732001,1.2393668327,-1.7807198337,-0.7295444568,-0.6903163135,-15.9454931964,4.6269822017,0.0253247438
##end
biasActivation=0,1,1
[BASIC:ACTIVATION]
"org.encog.engine.network.activation.ActivationTANH"
"org.encog.engine.network.activation.ActivationTANH"
"org.encog.engine.network.activation.ActivationLinear"
