encog,BasicNetwork,java,3.2.0,1,1426362204197
[BASIC]
[BASIC:PARAMS]
[BASIC:NETWORK]
beginTraining=0
connectionLimit=0
contextTargetOffset=0,0,0
contextTargetSize=0,0,0
endTraining=2
hasContext=f
inputCount=115
layerCounts=1,173,116
layerFeedCounts=1,172,115
layerContextCount=0,0,0
layerIndex=0,1,174
output=0,0,0,0,0,0,0,0,0,0,0,0,0,0,0,0,0,0,0,0,0,0,0,0,0,0,0,0,0,0,0,0,0,0,0,0,0,0,0,0,0,0,0,0,0,0,0,0,0,0,0,0,0,0,0,0,0,0,0,0,0,0,0,0,0,0,0,0,0,0,0,0,0,0,0,0,0,0,0,0,0,0,0,0,0,0,0,0,0,0,0,0,0,0,0,0,0,0,0,0,0,0,0,0,0,0,0,0,0,0,0,0,0,0,0,0,0,0,0,0,0,0,0,0,0,0,0,0,0,0,0,0,0,0,0,0,0,0,0,0,0,0,0,0,0,0,0,0,0,0,0,0,0,0,0,0,0,0,0,0,0,0,0,0,0,0,0,0,0,0,0,0,0,1,0,0,0,0,0,0,0,0,0,0,0,0,0,0,0,0,0,0,0,0,0,0,0,0,0,0,0,0,0,0,0,0,0,0,0,0,0,0,0,0,0,0,0,0,0,0,0,0,0,0,0,0,0,0,0,0,0,0,0,0,0,0,0,0,0,0,0,0,0,0,0,0,0,0,0,0,0,0,0,0,0,0,0,0,0,0,0,0,0,0,0,0,0,0,0,0,0,0,0,0,0,0,0,0,0,0,0,0,0,0,0,0,0,0,0,1
outputCount=1
weightIndex=0,173,20125
weights=##0
##double#20125
   0.438738055,0.4543455922,-0.5105658942,-0.293926627,-0.3740301784,0.4926838418,0.551003776,-0.5208869077,-0.3366524329,-0.3153568374,0.967097453,-0.7290671439,-0.3055189614,0.4986086713,-0.3591420978,-0.4297602496,-0.2861962339,0.3334311981,0.2773800343,0.307536049,0.5069879973,-0.5425417475,0.5453405691,0.2303167278,-0.4779279117,0.2853156791,0.3224156006,0.5333147893,-0.7597682282,0.4067425037,-0.4041822763,0.3336263924,-0.1703665498,0.5411285075,-0.3138618584,0.4257563738,0.6227676169,-0.4261670565,0.2337809883,-0.3433609914,-0.2670578306,0.3551218588,0.4215463379,-0.2094803006,0.4449866662,-0.3900047968,0.5394956836,0.208069906,-0.6807122672,0.2928412192,0.4955102743,0.8796811889,-0.5293853553,-0.3850203862,0.4268157846,-0.3584811671,0.3906063909,0.5493203552,0.2573034362,-0.2170689813,0.2524325604,0.4247007478,-0.4000413771,0.6477893726,0.3337444448,0.6233203967,0.5806803524,-0.2287998292,0.4963550004,0.2140489276,-0.3853375344,0.2331638523,0.6823516799,0.4569465738,-0.1784965971,0.3928752893,0.5855487152,-0.2256601454,-0.2027711612,-0.2745328095,0.394104064,0.3225712512,0.4231501707,0.6491653098,-0.6128755542,-0.2839270996,0.2490361022,0.7555553226,0.4152209745,0.5780755461,0.4139158974,-1.235162752,-0.3694009467,0.3125190249,0.4102193612,-1.2420787565,0.5889714765,0.3373350303,0.3317712512,-0.4409726976,-0.4960075776,-0.8323438824,0.8393472595,0.4558329139,0.5543934023,0.3970293801,-0.4097116004,-0.5758821869,-0.4104414979,0.2028554878,0.5013434122,-1.4549673485,0.4469343435,-0.7563089509,-0.2150473907,-0.4801069298,0.4116558229,0.2874857063,0.256699156,0.3628275391,0.2931289317,0.2180585773,0.3491356643,-0.5202809336,0.3573605452,0.2347719608,-0.737036288,0.5554230847,0.599250874,0.6891639204,-0.333739651,0.3214493013,-0.222988254,0.4796469996,-0.4343292644,0.3120812,-0.2628281913,-0.5212745297,0.7529067058,-0.3136329778,0.1593899882,0.9653427939,-0.7282566977,0.3706193735,-0.5768618081,0.3452536272,0.2589638045,0.2930575258,0.6440945471,0.4459520933,-0.4963328078,-0.8833865314,0.3402337756,-0.4518671891,0.4331926212,-0.2410201828,0.5293746486,-0.9732907494,0.6506212727,0.4493008406,-0.400976831,0.3468963135,-0.6187574965,0.4109742223,-0.3214475676,0.4599641277,-0.4707847829,0.3309055642,-0.33605936,0.630041042,-0.2674019844,-0.4914506728,-0.2091756053,-0.236777318,-0.828075984,0.4621702246,-0.0625794539,0.5585639003,0.3019896299,0.3028452289,0.3496196276,-0.5428149311,0.6540775685,0.4148956492,-0.5933182233,0.4167222548,-0.7880962036,0.263781673,3.3911422077,0.2433620099,0.2892576346,-0.4137302638,-0.0519066956,0.4201557445,-0.2208525683,0.1670287471,-0.0297235026,-0.0248497748,0.4224532779,-0.0561358415,1.2819871585,3.4346858066,-1.3049149711,-1.2764382424,-3.0882063451,-0.3328247443,-2.3324938907,0.800125911,1.5673490423,1.1600043903,1.3855305055,-2.1845758377,-1.084700653,1.7525076901,0.7739870287,0.5387437951,-1.2662007922,-1.1019382192,0.2435443621,0.3604300731,-0.6537441808,-0.5400463829,-1.0136277998,0.3093318632,-0.6388807123,-0.0007672302,0.6632377621,0.1039247956,0.1366935424,0.7037894409,0.3368014816,-0.1062691276,-1.0668676207,0.3367043616,0.3755571307,0.5490881715,0.5796868503,0.4889048338,0.7650252106,0.2311398346,-2.1178331319,-3.4864239675,-1.052532827,-0.2087312574,-1.7309136125,0.1685542428,2.1439540989,3.7936298574,-0.6456006152,-0.9369674869,-0.3926827811,0.1700068387,0.1041256253,0.4467939764,0.5721484552,-0.5477746739,2.9454982876,4.8908547105,3.5102561579,-0.2584949524,-1.9047624036,1.587537292,-0.7547807364,-0.7461499849,0.9983835786,0.5623489316,0.1631738721,-1.7304494722,-5.1315084046,-5.0294866594,3.1522089566,15.8361800778,-0.5485985961,-3.6003511337,0.6869453286,-1.3076443643,3.3894182753,8.596947181,1.1933050095,-7.0236013724,-1.2440114692,1.0289972769,0.5469938344,1.4271925432,4.4700313989,-3.0030096011,-0.6333188276,0.5027165857,-0.9017033335,3.1686684961,2.5704258358,2.35468527,-0.5086780786,-3.2078131329,4.570454022,8.4219810408,10.2655676989,-5.19128653,-0.7059711269,-0.7274385195,-21.4968674946,-13.2753925317,40.978600255,-3.0097461528,3.6679373563,23.5516919056,-7.2548023292,20.5213636441,0.2174139132,1.0455748747,0.7959071697,0.7996359681,0.1623768562,0.9882806788,0.3251825152,1.58023453,-8.8250514236,-11.5405107091,2.8343066626,-11.174786666,11.4189479637,-10.6440513197,1.983904056,22.9760413719,21.8812827101,-0.7284505056,1.9693615065,13.5377461326,18.0140536534,-12.8342845185,-26.9532065274,-9.4951298324,15.8363991725,6.2139762478,-5.6868732323,27.6844508209,0.5046836908,5.4423130217,-0.1463126874,0.8454890938,-0.3570115127,1.5542581464,2.4165292566,-0.2482264052,11.5111786991,2.0132059065,3.5623502612,-1.2622561489,0.3170907896,0.4319177866,1.0131348944,-0.3788194829,17.9476680869,0.545199164,0.5208482895,1.260243121,-15.3370341136,0.2071395323,-0.1333891453,24.6608735073,14.8921979889,39.4433355202,3.8388180041,7.4538989301,-0.666063806,0.8810345179,-4.4008669083,-1.8473322585,6.0605586006,3.5188906172,2.8343004358,2.667716476,-9.1271677868,-8.2152091538,-1.8603802851,-5.5845879962,67.0295281295,-67.9964959728,43.3653646746,20.1698320491,-11.3337602934,-44.3731742264,1.0725157223,-2.5032857792,2.9849858692,4.1529996679,54.370744074,-63.2019755102,62.028793052,17.997132201,60.391067684,15.6983972406,-22.0412141376,-92.8527846862,51.2363462175,47.5729770081,-45.8913380744,-1.2503097801,-10.3872710266,-8.9920506255,-53.0921583359,70.8850054623,-18.1546779036,0.5346134124,0.739382398,-0.379610089,0.7835792028,1.0349633737,1.2110860055,-0.8084446474,3.1130987872,0.0915126104,0.0799736381,2.6089421487,1.6321182345,-1.7262145063,-3.8550404266,3.4492543314,6.8524510648,-6.2365580364,25.6858753493,-0.8047890305,13.7192000667,16.4850946289,-0.0311172965,0.3750556727,0.1824103768,0.001912972,-0.5744166391,0.1728961078,-0.2620003458,-0.1601699921,-6.9522748321,-0.1805846041,8.2335220341,-2.0624643595,-17.8249387692,8.8634766531,12.439729848,0.7906176859,8.8345965819,0.3127867659,5.4920237251,-6.8606186229,-0.112839093,-0.1652445719,-4.6868042447,8.4828665067,0.2371158221,-0.3821890912,-0.0313522397,-1.5462330834,-0.472816461,-0.8214141004,1.283472108,-2.1980115397,0.0294820624,0.6388022375,0.683258365,1.5103097854,2.9546572308,-0.0507951541,0.6898583283,4.8198142157,0.3188317558,0.405168904,0.5291133384,2.5416154954,1.0888157688,0.8382017791,1.7079242897,1.7579493631,-0.1229610451,0.6031783092,0.1802625966,-0.2693696253,-14.2513462019,21.0855289292,0.6047406566,-8.8423512933,0.8010974174,0.2857610399,0.1568446376,-1.0611434354,0.0428871348,1.5959495228,1.2965907455,0.6037139476,6.4094112397,-2.0756647148,2.2955193834,-3.0346976259,-9.9611849945,9.4847189356,6.3871600488,34.0321836876,-6.5251801423,-0.1051275926,11.5707251654,15.0147855527,2.3482719708,8.0602097578,7.1665077242,-22.8123456348,18.1503682478,-13.8730383533,16.5072768988,37.8490572392,-41.4086740702,19.3790770249,-20.3284617841,-13.178658382,-7.4301069595,1.3259092355,-3.0519816175,-0.7770773427,-17.132645994,19.5802618986,1.0689198226,3.7989017848,-1.0068227675,-2.1390537099,-0.4274692083,-2.1350146206,0.3334013543,1.1173934772,2.1749164087,1.0154944776,3.196686933,-0.9572505558,0.2361007917,-0.2334462882,-9.2714158708,6.2934217707,11.6884769337,0.4030873224,13.3288608301,2.905622764,0.4830754826,3.6854230331,0.2743966555,0.1730125667,0.9651319679,1.9557528455,0.5794820549,3.0869973121,1.5656669838,0.5216280198,-9.6614271388,-0.5524129708,-1.5974145139,0.3266264131,1.5074067716,1.0511497987,2.4810296962,9.4264969177,-4.5217327168,-0.6411012726,3.004550817,2.692386463,17.4173222142,1.5912654371,15.1929020728,-18.8692011386,-6.5707378304,-0.2412163088,-1.3758215085,1.7933756821,3.2939476445,2.5417201421,1.014292611,-2.6024141781,-0.8607683927,0.1023526892,-0.8070886956,0.2630574456,0.3164837489,1.83735888,1.0694298401,-0.6084614163,-1.2624972725,-0.421887214,1.0135908864,0.3187737426,0.9442421805,0.6948230769,0.3173244787,-1.8822448864,-11.962111728,-7.5849353233,0.8302827164,-0.5601587324,-0.0897914116,0.9965465923,0.0416781231,17.1858197547,0.3048381068,-0.8487075299,-0.0430927627,-0.0573158966,0.5352926321,1.0523787296,2.9562616078,-0.3960466347,5.225937923,14.5691296425,6.3439210898,2.8684338612,-6.1938634792,0.289364501,3.238180675,-0.8987332268,-0.2597441403,-13.1012726191,-3.8387272773,-5.7395092698,3.6907819381,-89.3447764003,-34.5567896241,75.6446711946,49.9650117583,-28.8636078568,-27.2535227759,12.7062732876,1.9292309669,-26.6504659402,1.4402271509,-7.84814879,-8.0248867547,5.1765213487,-6.9393222578,1.7924056348,-1.1292656108,-0.1111389584,9.1838309776,10.3962372371,0.3485189173,7.1011694943,3.7741007056,0.5780952505,-0.7437713826,1.0195928259,-8.7185463193,-28.8376501772,-14.1264926725,4.5669348425,1.6738972948,0.9150016077,14.7148665835,-10.1987658104,12.6027288893,283.0404703831,-19.4365628039,-2.089110779,28.8919709275,-15.7657845598,0.6130952682,0.5559134729,-0.5735643858,0.3459589962,9.8975366324,-0.3213929263,-0.6721407596,-1.4555906568,-32.675442502,-8.4513160571,19.7226276715,16.885647938,-36.0586775296,44.5096038951,14.1894545895,-12.8112962738,48.3315087841,15.1124448863,0.4295293983,-3.042792561,3.4466132713,-7.9360509964,-26.1063627104,-2.4673977794,7.5850192208,0.9396178818,-9.6446045126,22.8723645177,-0.0096876908,0.933824742,2.5926391313,-6.9742621259,-4.363400232,7.6411273886,3.1846782457,0.4574445079,22.6761657221,8.7177626202,4.4407168072,9.475891016,-0.0101173045,4.0911361281,4.1810701014,2.954477808,18.912049824,2.4638388381,0.2209629307,-4.635377611,4.4256442047,5.1152774631,-16.3105626239,-37.9068438649,83.1264072712,20.8795691352,4.3639213111,13.4388401971,-4.0285580738,-2.2931401627,4.5469455276,3.6986884835,8.2527959108,1.8999225298,0.6882909506,7.4484835681,-6.1267998441,40.2716293848,67.0641713706,-43.6720694705,297.3803256307,34.0217013963,16.392664238,36.0300241197,-14.9924416872,2.8725469274,-12.4402538246,29.2591055528,-0.1177452881,25.2120907955,-49.4210656097,-2.2762099534,67.0013563872,26.6821978192,-14.427007926,-104.6525314694,-118.2404787824,-17.1910176579,17.2794993006,20.4186292657,-37.6717300774,58.99583956,81.8910183753,16.1331448757,3.4117204458,4.9228033147,-49.1178000084,-10.9077310304,0.5936061128,1.4933991501,0.3280715536,0.94033387,-0.1261914593,-0.6851422923,0.0147252424,0.3104924912,-1.5740252992,0.6152343425,0.8839969522,0.1466690074,0.1482097829,-0.3998762349,-1.7319885587,-1.7627729038,-1.3562336618,-1.9887256075,0.0596668954,2.3020447483,0.2295137959,0.1739567933,-1.0134941999,-0.2454766164,-0.5464387149,-0.2493758312,1.1217176343,0.1256353109,0.7472235868,0.6854769159,5.0614791333,-7.0923136481,-0.3920185335,-2.0907171995,6.7671770393,0.2915803919,-0.0722758215,1.7526745946,0.4337703146,0.006214341,0.8964792153,-0.5611113239,3.3177409432,-2.2118731699,0.3043849337,-0.4986645312,-1.9640297818,7.8301539072,0.2424641052,1.2902789582,0.0154695254,1.4175892937,-0.3631433082,1.7433898154,0.8887035161,0.4048165097,0.7947068924,1.6031913645,0.4462424187,1.3715587939,0.1413870028,0.9191468415,0.3402928616,0.3747439642,0.5622731391,1.3208273568,0.9581219198,0.5914219767,1.1366401365,1.8445431549,1.5335995371,1.5921224466,-1.4342343942,6.2521118365,0.6346613184,0.6401817487,-0.8530769318,0.1264164018,0.3413315993,0.0919252932,0.751345099,0.6492900916,-0.2524996816,1.5729554604,1.7482137825,7.1042382921,24.8725183525,-13.1906520248,-7.512148435,13.6261011484,0.1306779542,4.4137291837,-6.7143133859,0.1014769423,0.8373856051,0.4739969155,0.3436820937,-0.1133234967,1.3469394385,2.4105751634,-0.457880673,-2.7270060686,-3.5575919921,5.4221496095,21.6994143382,-12.7357335916,-5.0371722994,-16.502794536,4.6554806754,-0.2109477505,3.3846749162,-7.2475839751,6.9509465789,-4.9333371053,13.2844450502,-1.6443494663,-0.6111054411,0.5417328736,0.2613984923,-0.1312540991,-0.1563923999,0.0267476666,0.6761045957,-0.4449624427,-0.2920789074,0.0690528251,0.0349805015,0.0074810226,2.996135084,-1.3066624806,0.7316469248,0.2655497381,-0.0909389996,-4.4621577074,0.1760771802,3.4710151944,0.819352891,0.4530591786,0.2746492649,0.10560812,0.2262651933,0.0225483689,0.2285467593,0.3632620955,-0.9320500417,-0.1446223522,-2.4872395727,0.1664093247,2.5989712518,-0.027311536,0.3425907041,2.7614909716,3.2629560731,4.1586421404,1.8030731598,0.6791167364,0.7684357993,-0.8780949972,-3.7357877183,-0.5081158502,0.4854015445,0.290193415,0.3721047022,0.1365917653,0.0864252374,0.7678325464,0.2720308988,-0.5585803212,0.9148046942,0.5259119275,-1.2213903056,-0.6404436821,0.7094329755,1.1248096977,-0.2812889732,0.554018482,0.3684083129,0.1389198115,0.6863792183,-0.4178213807,1.459161304,0.4117154438,0.9449721478,1.0354931368,0.8745956217,1.329828722,3.8313672031,4.7493142611,3.0119915779,-1.3713866689,0.1353026349,0.5005540032,-0.1411875944,0.3834796025,0.7419024895,1.0179126103,1.41379919,1.5817522282,0.5238341414,0.5148202289,-2.2640922427,11.6427861636,23.2115304964,22.1972020266,-1.9051908435,-7.1636081683,11.4319259404,-5.5961622087,2.6306041862,3.4556936801,0.1733733479,-2.4977797077,-6.6267418112,-0.4829854913,-1.065589658,10.1374984265,1.6856997171,1.235025599,0.8364048389,-5.6146688626,18.1631499437,12.5852235959,-19.0532194571,7.2501680004,-4.7004881761,-3.2781072037,3.5922839671,3.0315780567,5.2963171556,-7.9964103304,7.3525441727,-2.2323221066,0.4139621971,0.3672296439,1.2328282083,0.0149899909,1.6386870048,0.8406856475,-0.3541687358,0.6050893033,-0.4956288403,-0.3902164772,-0.1878438638,1.7918417789,-1.6260188736,-1.2225641154,0.984945056,9.6283402889,0.6469866428,-0.0960277047,0.2730465557,-1.7260843594,0.2373619456,0.1421883054,-0.7615146935,0.1908262356,-0.5565670996,-0.4366890621,-0.7856586433,-0.4500905006,3.6688248413,-10.1285411782,5.1065356871,0.9964785842,-1.6099867346,-2.11917298,7.2169626168,-1.3784701256,-6.3033319445,1.4823036891,12.4428303207,1.5472360398,0.428643108,1.2621227494,-1.9688137907,0.1852522942,-2.0401061689,0.463415113,-0.1636949331,0.004253611,0.5939053657,0.054838412,0.705577705,0.3945341484,0.7181863324,-0.423014945,0.8547740781,1.6324200354,0.0328966181,1.5163580711,1.310307498,0.3579503904,0.5869054972,0.8108594463,0.8965276323,0.2409268173,1.1549389105,1.4427989942,0.2981981145,1.3744885503,-0.7962808816,2.5376343899,5.3491222652,0.2533298251,2.5363929445,5.9237719972,1.3759351296,0.6779433003,0.3379283497,0.6331661515,-0.0760145888,0.9193451055,0.5447551113,0.8190814141,0.8112174128,-0.6737224655,2.5954499244,-3.5638779361,2.1335703809,-13.9705892517,17.4156075662,-15.255010384,8.5583834502,-4.1387501373,-8.1788409679,-10.8583082375,-3.8565527031,29.5818513374,9.686848552,-12.7158079846,-15.0095781848,4.6278278118,4.7679219121,-2.2720206389,-21.842888277,1.3546955413,19.7874243171,7.0673410045,-7.1061057666,7.2555681334,-2.8837129596,0.4030317731,2.4011358198,-10.9596269557,-4.3962731475,-4.1753126164,-5.0671192325,1.1767361638,-0.8564324925,-0.85541111,-0.8789024727,1.9696375692,2.1046997091,-3.639674552,1.0068988263,1.0021271312,-0.4782083411,3.3357257892,-0.2310390017,0.7399680303,10.0989981036,-20.7263950641,13.6697445521,5.0573385729,-1.3115199211,5.6841507628,0.0334376682,-23.7007299144,-0.1581368834,1.6038396065,1.3050625606,-0.3157203269,-0.43738765,1.9425633674,-0.4853392605,0.0069393634,-7.6686534439,-16.9085330404,18.7439426261,-2.077868515,0.2444375619,1.2439134942,-4.2323295614,-5.5100920313,8.6093722807,-3.3489839338,-40.5320118094,0.8062452698,53.1728103362,-2.1301865757,1.1441234041,0.2421046071,6.9050442509,5.9021487521,-5.5623410787,0.3295299838,3.8562347659,-0.0751261195,-4.8620772151,-2.6169230185,-5.8718646648,7.2552703452,2.7481174486,7.691012989,8.339491946,-1.8547222687,-0.0228682703,2.6557828323,-0.1321316549,0.9941923385,-0.0002407239,0.8609799424,0.3549730656,-0.333098063,0.4843900147,1.9705247319,53.731014331,-4.5109892554,29.0739384028,5.9063705595,-13.5047615648,0.4970235477,0.5529528829,-3.5251153727,-1.1408607376,-6.3653311306,-0.5946993633,1.2275119264,0.1677913927,2.3265113268,-1.8883665149,-1.3117323416,-16.3127266731,-14.6604179818,-22.2474683505,42.5637438649,16.5362601165,-10.2442542571,24.7051260262,7.1293792364,28.1989636042,-14.2238532347,27.0019637868,-20.669327113,-6.8205647742,2.4008656977,-26.7251935247,38.7902454456,-20.7460835125,22.7648160058,26.5479275549,-8.9105394869,20.5878599166,-6.6706585174,23.9406875059,-37.9349664846,0.162599372,-4.7828541084,0.8565898115,-20.2256616665,1.7005982333,18.0953126307,23.1738269583,4.8465415181,0.1594562652,0.386207826,-0.4138771972,1.202747376,-0.9122927871,0.046407249,-4.4356691527,0.3091695554,0.7415225832,0.4766593187,-0.4215346614,-0.5938361464,2.911681997,-5.2611627183,2.8667067787,1.3856659226,-2.4503043822,-2.6765163008,0.326672959,-0.271586037,0.6603674841,-0.0913813091,1.1098376171,0.5746164925,0.277478588,0.3197007931,0.5798222649,-0.2254577483,-3.0496705166,-0.6281903388,-1.7989443688,-3.3624884322,3.4428163388,-0.5938288251,2.3201616626,2.4962068944,5.129960781,-2.6880493526,7.8817675678,11.1771560458,5.3539952321,-15.4738141606,0.9037178605,-8.3667129554,0.2362278469,-0.3890626301,3.704541992,-0.3976264279,0.1743571037,-0.0036245607,-3.6671879988,-1.6531972345,1.2697426504,0.5180573842,-1.1689509664,0.8876151588,0.1122187397,0.7908794719,2.2123216593,0.2988607084,0.8950697222,1.1409744158,0.4759122926,0.7916782492,0.1497669828,0.2716177245,-0.9348730699,2.6551003591,1.3745730773,5.1278789235,1.1321544296,0.3606557126,0.7705964171,0.399383079,0.4072535871,-7.7481599725,1.3545284783,0.8345844879,-0.4680634598,-0.2291518315,-0.237087548,-0.280798516,-0.4163103373,-0.6148729594,-5.6968144467,5.4633338094,17.1250215359,-2.1282634522,-3.7835525167,-1.3438393705,-4.1715613428,6.9452873278,3.0286430225,5.1580353106,-1.1868821941,3.7870813522,12.2996501921,3.6397022018,-1.8985175073,-23.4819642428,-12.6007674583,16.0884874563,-2.6758165885,0.3174120099,-4.2515891642,1.1133276183,0.3542699525,0.2793287601,-0.9817309607,2.0418045869,1.5576820092,11.7463440973,7.9940340255,-0.1784065171,-12.5012506597,-1.8573264918,-0.4552069263,-0.263774013,5.7396159538,-1.3409890139,1.9539839185,-0.9869123178,-1.0802441624,1.0639945613,2.2266775978,1.3704549799,-1.3971799922,2.9647627499,-2.1243469658,-0.9243121432,2.9497143658,3.5635733025,-3.1954744289,-1.0724771879,0.6128284861,-4.2455801953,-5.5894473821,-6.2619210003,-1.5511138158,-0.6331783303,-0.2809949311,-2.3795198298,-2.6437522457,-1.7078472956,0.707920501,27.4994915732,-14.4974551079,-6.7017665821,-2.2141127417,-4.3033843667,-1.5253118334,5.2685709154,3.6715048131,7.5818774818,1.9508437894,1.2970963276,0.8532517721,1.780685485,1.6018698376,6.7812269249,-1.7495760746,-2.567084953,-0.0759029209,-5.2526156997,-0.0204906005,-2.3067658048,-2.2554686684,-0.2898202164,0.3718156419,-0.0789665099,4.5828469491,4.7015406327,-6.5339473296,2.0559434004,3.8601350359,-0.0804717379,0.6422688478,0.0272278898,0.613136418,0.1089671349,-0.5304481804,0.3414964219,-0.5447873322,1.4932442224,-0.3706496824,-1.2468784157,0.2421401858,-3.0280214568,-1.758475433,-0.8888572977,0.1998724732,5.3265718934,0.5557229692,1.8131899344,-2.7153118194,-2.9595235763,-1.4813190256,-1.5120781154,2.7581181231,0.8905825603,3.4938618359,3.9673390622,1.612183729,2.7931842283,-2.7252639059,4.9602876285,-3.714917629,2.0155600258,-11.7776427281,-0.8713567367,-5.4068236329,-0.309317355,0.6574793183,0.7686065498,-6.0036189871,0.6376378894,-11.0370438213,-12.3896526452,-4.7308115163,6.7602064095,22.133895075,8.32649856,-10.2431394964,-6.8744433495,2.723853164,-0.5777850648,2.888130609,2.6578581431,-0.8038848338,-0.0817089703,1.9628340852,-6.8646422305,-3.2503877419,1.0087035243,0.8189972575,0.4972381671,0.4131303044,-0.0854596752,0.3367198095,-0.309100693,0.7067433513,0.8778118349,0.3828921492,-0.2572714756,-3.8505347117,2.6732264373,-5.1934836182,10.94961357,5.3901487595,1.1429156817,3.4864888113,0.2251739452,-0.1429163365,0.3948511804,-0.2757545626,0.329982194,0.0844306367,-0.1506101309,0.4409620538,0.1317433283,2.72986946,3.4608514422,-4.7660577077,3.5325885333,0.5054223022,-0.1054684265,2.6376912532,2.4080125622,-5.1007279138,0.4007588601,-0.8723997705,1.0747524588,2.3813148425,0.745281683,2.3079165411,1.8010945992,-0.0400932957,0.3297230018,1.8322787557,0.9823546193,-2.1591612271,0.4055845633,0.4941249793,0.5854691976,0.4926272814,0.3128205457,0.4805944254,0.3174999086,1.1862013145,1.9014301492,-0.2232545008,-0.3711916522,0.345897636,0.0074304877,0.2706495037,0.8806727223,0.7959062451,0.5333677002,1.1101706561,1.0485213581,0.0666998745,0.3409972959,-0.0457517651,-5.1268765863,0.8308580866,-3.0005800605,0.4690482889,0.8014921574,0.9419335305,0.4123001869,0.6434379601,0.6663417654,-0.509013561,0.2028355963,1.7421313236,0.6814903705,-4.4927407987,5.7851960727,-10.0884943733,8.7752513399,18.0769992547,-5.6323055613,0.0120211143,-7.7515098289,7.9009562992,0.8143012222,27.4922266761,1.0997141105,-0.0736314504,-1.4404401962,-8.8914098798,-14.5069595237,5.213397952,0.1524845673,11.1778583524,-9.8766655922,-6.9689780058,-2.9856552046,-4.6109862155,9.2830550158,4.236268371,0.060155107,1.0906171372,3.5908297894,2.7945892909,7.2594276866,-4.9300135246,-0.0819442351,-0.1161121353,0.6928691899,-8.4740014988,-0.11155579,0.1024092716,2.21973388,-0.758952942,2.7269614938,8.6852832824,0.7169585422,4.0700691487,-0.9195531082,32.5454093183,6.8774773145,-0.8835999288,21.7736118841,-26.2267881814,-8.1864444768,-23.5426997468,16.5682081505,-0.005500402,0.0720702275,0.1548203051,0.8678537262,3.3891585589,2.8183198333,0.5502164594,2.3626967473,26.1999361151,-13.7534093388,8.998430628,-19.6764020405,4.8745177776,12.0576978607,-25.0994823566,-0.7759093549,-9.7000746775,-5.1112712442,19.745423193,3.5629916019,15.5337557153,10.2419400217,-22.2245109416,6.0752913468,7.7193248497,8.0886061311,-15.1313525151,-4.7247118157,3.8819316156,-5.2521959374,1.0847883635,-0.5342515944,-2.0828276758,-0.1653220219,4.2693974316,-2.1563054004,0.6922948768,-1.6631311223,6.7970059637,8.8964688022,-0.5240768202,-1.4470515748,1.1956468972,1.5102614463,10.9330691758,-1.4502163483,3.2671164593,-3.2934067512,-21.9410800263,0.1878260998,-2.4426933354,-7.0209139828,10.8501348311,-15.0378266979,-7.8535648988,-0.7395013706,3.8984907155,2.2514958625,5.2978556914,2.1359505318,11.4660632707,5.3690965194,2.4786175318,-3.8887383974,11.3879697662,7.7932622472,-74.7053372199,59.1082678486,-72.4810545413,-18.8708976286,27.1786594781,-36.7164242546,-17.6724216958,-4.5897962548,-16.6803649069,-11.3670785529,48.7729975318,-41.4040245885,4.3008303848,11.8843127282,20.6085911301,88.169743868,-101.7119782065,162.2722304466,68.7911788904,-21.9000058071,49.1349661531,-16.7326159706,10.6699404998,5.0674574869,-25.0036436292,23.6172300419,64.6516658728,16.7461169339,-51.2083688529,41.7765033529,-0.4603028069,-1.1144662507,0.6496779515,1.0030265986,0.1227645295,0.8069700157,1.1830459953,0.1174192349,0.7139855054,0.1637384563,3.0820801233,-0.633232438,-0.9753437156,1.4490137331,-2.4959669259,-4.1521909172,-4.2300378664,-9.0532747165,-1.6782814772,-4.0009137638,-0.2687426511,-0.2215063344,0.2544151202,-0.2393113715,-0.1267698711,0.3292835528,-0.3457448002,-0.4253276452,-0.3060803403,7.2032611949,-3.5139966202,7.4471841336,-7.9634577376,10.4658930111,3.5421760488,-0.5226955897,-1.3966222894,0.5289611664,-1.5914234894,0.5593403601,-0.6509555901,0.4948274342,1.8252381014,0.9811215755,-1.1386106563,3.2083073329,-1.8702448972,3.0449414684,-0.9180051654,0.9481475839,1.2984495257,4.4841113233,1.1780896869,0.0004184801,0.2623236043,2.8559723956,0.0513038926,1.778965225,1.4105733881,1.6736836656,0.2743513936,0.616809199,0.970151477,0.4941556278,2.4449435549,1.0774408837,2.2052964631,1.7986108613,0.0704270784,0.4861662738,0.2754541613,0.282315685,23.1195134591,11.8053189236,-0.4397703818,0.1762942408,0.7978560123,-0.173161175,0.4137041765,1.1027509571,0.0961026181,-0.2805484307,-0.4591735043,-0.1563334047,-0.0054766024,3.5766103812,-14.780498597,114.6185428407,21.7432424032,32.0587825808,3.0595351078,2.8340388247,4.259525149,-2.7438565361,1.2204487938,21.2201780963,10.544158559,-5.4196684142,-2.6995044694,6.4222370038,-1.665199238,27.9580956752,-1.9105884938,8.07137344,-12.0028171701,57.9931976354,-38.9054941324,-7.6535809488,8.9818883754,-42.0817003881,45.3596605231,-21.4869913125,-2.3201635718,0.8675197534,2.4184807314,3.0576452017,-0.011733843,0.2878410688,1.1767056843,3.1158093774,1.3445595649,2.3052533086,-0.6830793066,-1.5969298761,0.2410515294,0.5992664983,1.1485038022,-0.7314514332,1.3954146683,27.4408868026,1.6723075994,-3.7389456724,-2.6052235766,20.871800009,0.3402066604,8.2042856949,0.6913469608,0.3398229823,0.7969479706,0.5509479982,0.8022888756,2.2298080805,1.2852294901,0.0101448728,0.5446951467,-1.9917562328,2.3090748172,13.0631512272,0.972084956,0.2158317789,-0.5298785096,-5.6491667359,-1.5404882702,-5.0520648091,0.672162488,4.134771214,-0.1679232088,-1.4438840415,0.3204375239,4.5965684121,0.3706590688,1.187039446,-4.9370403158,0.6697122453,1.472351475,3.9573850674,0.8887769659,0.8778680423,1.5381853754,0.116621108,-0.5281926934,0.3580244081,0.9973324386,0.3801297997,1.115579405,0.7301076753,0.4450839435,-0.0480140799,0.6982164052,-0.0453810264,3.2976301908,0.9782312842,1.5343721395,-0.0189217589,-0.8821148655,11.7772372787,-8.9837586898,-28.6892659338,-11.9760220339,0.0361338715,-2.064800744,2.4737143542,0.9218504243,0.7212450549,0.304560797,3.3802735459,0.9972763757,0.8027898792,1.2589097526,1.5827584428,-13.3442126846,-16.3670110372,-9.8388159343,62.4807493172,4.43565482,-45.3404768442,9.41599113,-10.2010394894,-3.0572386152,-1.6256021427,-24.3349099884,-0.2856319922,-19.8515581076,43.7566322259,-0.1909753208,-56.7867410101,19.0175764548,-49.6290935463,-10.5361134725,87.0593175136,32.6777080666,-1.3846859943,-17.8210671116,-28.051267825,14.1012615475,4.753082026,19.1146563994,0.0594780676,1.2430599746,0.0024574701,11.4299115611,6.7780862368,0.4776397528,0.8393057343,3.3466315993,0.0740043671,-0.0232542671,1.4070353898,1.3314177514,-2.0227485276,-1.8122540667,1.1310385649,1.3515664156,-0.0719892722,1.674501632,5.4695911246,6.075961446,-16.9323264297,37.7396694452,-2.6792496081,6.4594991253,3.4929748218,0.0889077745,0.5587871685,0.4828978907,0.1827408727,0.3642088918,0.2971272664,0.2109134955,0.028270954,0.2419066755,4.278642714,0.764859567,-5.188904223,9.8998999495,-10.5826811017,1.8478104765,16.7584064724,-1.9735131365,0.9372057033,-1.8636324264,-0.5078578276,6.6301300011,1.6174646373,1.7485226869,-2.9749229406,3.6410938798,-1.069164654,-2.3458013125,0.266355307,2.6474780569,-0.1953780639,-0.5026305604,-0.462759729,-0.3944184858,0.4925861349,1.1691312135,0.8787631277,0.1424104831,4.4795006327,-1.3623553591,4.2952450134,0.0590062211,0.6774211469,0.9993619566,-0.1261856504,0.1020775108,0.528591548,1.08107889,2.7680620044,0.2705220788,-17.0606176942,0.6151344593,-0.4345006647,25.6995881035,6.7042924723,1.900724521,3.731810117,-0.7934978018,2.3070536186,4.3542903652,1.3732752179,1.5130027418,0.8217031604,-0.7668267929,-1.6017121536,3.6962205645,13.1614084033,36.5716113062,43.4358601899,42.8127191675,-20.3398456682,2.5589959527,-16.5337088262,16.7157031826,-10.0024593069,-23.891080062,-30.2488356858,-26.1376756784,8.7412246159,0.6811142756,33.8534613304,2.77135873,11.1178485369,-46.9282054086,29.700489617,0.8713230589,-8.4891592166,6.8343508406,42.9486079641,27.9092010868,-37.4536021947,-9.5417584978,-24.168640881,-10.2285523704,0.7654953141,9.1442650673,0.6367318643,-0.6594716168,3.2228513671,3.758484728,0.8104582305,1.8394169422,0.5181942921,4.2720151402,1.0145220531,-0.6864412767,-1.666092595,1.9119846296,-8.7566471209,3.6429717197,-1.0564754137,51.072352143,1.7779900308,-8.6437177855,-2.8464436441,-0.7895893693,-0.4949042271
   2.8655623956,1.5820179901,0.4666612325,-0.6060135561,-3.9494838336,-0.4932209279,-0.737590672,0.331451785,21.4169936477,7.1859639151,-26.6795455281,8.848200111,-9.8806655412,17.9995647228,14.8704079918,-8.840813348,-15.6988117509,34.4437531176,-4.3097892586,1.8995757408,-1.260878961,6.3520978739,0.9234852798,2.3864418975,1.5171676061,-2.0759074458,0.2070685881,5.0853652527,1.9831716549,0.7123322426,6.3726057159,0.934441919,-0.4393010149,1.3071102774,-1.7708343452,4.415092172,5.2584717307,-1.9870003196,3.850848853,3.905568023,1.0920502588,1.2495495007,1.4902405306,5.0238139936,1.3742505049,1.084525044,0.3486621716,-1.0593679784,-3.4562678866,-0.9482041945,9.2142455789,22.6689628733,1.538828823,-1.9109114042,20.7791366031,4.7842934682,-2.8167350441,0.8995005313,-0.5014910363,0.270081108,0.9086995612,0.7166574575,1.1144173705,-0.4937545827,10.6797873661,-51.0124710998,-2.9674858432,18.8614849385,-20.2710186734,-43.521162055,-24.9948360639,0.1636938354,28.10355014,42.0963890371,-1.6427125143,-12.7723271986,-12.4186096304,23.9990844135,-16.4362607268,34.8547026181,29.6158891997,-18.0764335289,-22.2330387576,-35.5939700397,40.174245678,-2.4018063563,8.4577625772,-6.7603371806,-61.7385226231,-12.8415465231,16.186870609,15.9644690436,41.06233763,6.6363579954,4.3007227733,-18.1779940837,-1.688411371,3.4425168534,2.6971634312,5.6255022329,7.9815998362,-0.531956935,5.3172717923,-1.6923368337,4.5694252741,-1.2495134982,8.3351563597,6.1727711662,-0.6365496015,-2.9405115513,-12.082165467,8.5854586095,135.8266324816,43.951591583,-15.3757451786,4.9909520882,4.9139274205,2.1005491576,0.5383880531,0.0168960421,0.4678512395,0.2265569276,-1.5293302812,-2.7726172222,3.6264362352,4.2253360411,-4.3023183198,-13.1679992267,49.3325781036,-45.178438482,10.6124933421,-14.9311514296,12.0461302686,-2.734093421,-19.9115450903,32.1544284948,28.9354576524,16.731425882,5.8714336808,5.9932668052,-1.5828119732,-0.7448845873,9.2995385287,-8.5487093264,1.1299565115,0.2439810541,3.3764625398,2.7791089299,-0.7763794388,0.2023112705,-0.6062180092,5.8098759099,0.8973583466,-8.6847691745,11.5084835895,6.6108485727,0.1350475145,0.3045017681,0.6270850494,4.4215625389,4.1774073648,6.4811398497,2.8362459669,1.0382964241,6.1369471637,-0.0878839426,-2.3180942643,-32.9432127456,-15.1747086883,1.8266597152,-0.4922859293,-6.8478845516,-0.8540842163,1.3545095963,-4.5067421565,12.7778049176,10.376056656,4.5260404724,-3.8071413144,-0.5562412041,-9.2394617789,-34.8443854795,9.2367270152,-1.7152099155,-96.0881084154,229.6166247131,25.5669253286,-30.7132451407,-92.7084473423,2.863203039,-39.073085829,33.9152825133,45.0913096774,33.4700615232,-20.958657483,16.1663733639,33.0750046209,-54.9119647724,55.7105045455,20.6594353416,42.8554452395,67.1485204072,-93.4195573474,1.5718172814,21.2438041158,-31.3117673281,-8.5778392305,32.3448095528,-109.370674156,25.6920147048,32.6908537902,0.1604411287,0.4239313981,-2.617403598,2.9633416415,-4.0493003738,-0.4568453889,4.5388415285,8.9543285849,5.649045179,-1.1333074319,2.6730279604,0.2313412294,-1.4415487532,-13.7769239192,-20.045231119,20.8748617108,8.9038160562,-6.4459653757,-1.5019367665,1.3759437908,-32.7717314548,1.0390507338,-0.341663165,-0.5288918635,3.0245761471,0.3835788202,0.7393151138,0.5278610732,1.9311651087,30.3259380019,-12.4775018004,3.3325056554,-0.0504596139,-5.595289555,-6.0027574865,11.8740261461,-13.6975674313,-9.8415429508,-6.0967921426,-16.7032458916,11.4600957367,0.7105960247,1.8036378392,0.7480665249,-17.6634146854,11.0274331935,-6.4730640196,-1.9980464325,-1.1992803818,5.0524183822,-6.5115364251,-4.6291466925,-2.4452964708,4.3174131425,4.0140593135,-1.0774884226,1.6686327031,3.1430958851,5.1510440479,1.0326401375,4.4502286152,0.1194704705,1.9937676516,1.0021586129,1.1945237269,1.6414226561,1.3314874206,0.2010140856,0.3082392558,2.4032043028,0.2350338423,-28.2074094522,-57.5208230003,-22.4758137492,29.8332720675,37.9212314765,14.8628070662,-0.7526041926,3.6730794386,0.0630608343,2.5497821458,1.2681084645,0.2371002608,0.8724557289,1.6620228724,-14.4842066658,-37.382139509,1.4890035105,-39.0334041337,18.4602730666,158.6364559508,-12.4276654578,2.8797968137,-1.2360152439,19.0282449095,9.0962895985,30.7250774155,-0.2031833189,-47.5828208799,8.3711450005,-9.5220538404,21.7688237226,28.0790156736,8.4663899292,-30.6145830217,-39.7609154552,-24.1650008684,0.5381430701,20.2684518013,0.0569846234,11.5552623814,8.6419692426,4.7120162222,29.3013128812,-20.9705523651,-5.776231261,3.235815638,0.5039964527,0.5415124239,3.2406147919,2.1442988074,0.6473295675,-4.380950051,0.0931662087,2.0908930479,-0.1011779519,-1.6175445897,-1.1478531202,0.088912502,14.2640561398,9.1458561607,0.9936160267,19.6841069722,3.8870849961,1.1259217705,-0.0471915763,-0.0454520148,0.0300141026,0.5002077269,0.5526921058,0.6554752267,0.2327250966,0.1814131351,0.1057773057,-0.5988401911,-10.3544487767,-1.1221123784,9.7770540652,-12.5555008025,-2.286206192,-2.0992588551,1.4921097164,5.1641375833,1.0238139743,-11.9727798832,7.6201939349,3.217948823,-0.8709840436,5.3097485392,-0.7709476144,1.2214107162,0.6690240816,-0.3414857024,2.3510078724,-0.7284240279,0.7883625645,-0.4263403863,1.1539861483,-0.1998838007,0.024803583,-2.0272626549,-0.4546854691,1.5317557546,-2.6105326526,1.1035430004,0.1951195574,0.7067055834,0.190315894,0.3712042593,5.4963731276,2.2404916649,0.377865112,1.0993311636,0.4781681768,0.5190434439,1.407565099,-2.0346185202,3.6500036914,-1.8220811823,-1.7878902133,-0.2435137749,-4.6598374683,-7.0442660059,-1.6436532358,1.2949356337,1.5934012005,1.0128999656,0.0069345478,-0.3311091305,-0.7264264875,0.2982073295,-21.3678202504,-3.4402839058,-12.4977746442,-19.304204733,-9.5044936563,3.4601965783,-1.629426969,-0.7000510195,17.8736926813,-0.3346765285,13.2324850588,11.2828060541,0.4563497557,6.2062504114,-14.6874540284,-18.8478684044,2.5792314593,-10.8800209444,21.5633130416,-2.8149371543,-22.3179488229,2.4344419893,-5.1504044185,9.4648536199,30.8877982239,-8.2325312718,-4.3322480258,-6.1680077179,0.1626127553,17.3716624538,0.0415888306,-6.9693706309,-0.4139809685,1.108491832,-0.4358523527,-0.0625105275,-0.3128418865,-0.6016793175,0.401558086,-0.3992792593,2.1463463266,0.1061266204,-0.1682182208,-2.7654201133,0.3846026609,0.7005788353,-3.2483453371,-0.5700266655,2.6962381977,0.2904653637,-3.1242587205,-1.0296757981,0.4755295711,-0.0634600444,0.2937261525,0.0567204315,0.3813991919,0.2648536546,0.2784989386,0.2980317897,-0.3018724425,0.0916293888,1.5897067823,1.6823384724,0.1045873985,0.4974375163,1.164667143,0.8388417327,3.6766361151,0.4759721449,1.0415614583,-2.0290923521,0.6842961689,0.3642102176,1.8821703954,0.355985169,-1.0955565726,-1.0265162088,0.0401701541,0.3483914102,0.6833354465,0.6438759836,-0.2544933885,-0.4670101728,-0.4797249101,0.2185529943,0.2938759641,0.2520108715,0.7488569477,0.7358072429,0.6664063751,0.2336913496,0.4608196906,0.5445863301,0.4661216556,0.6838896031,0.436192294,0.9045301336,-0.1516100875,-0.0704734637,-0.7480071901,1.4829273638,3.0282714384,1.729156118,0.3635519384,0.2332957512,-0.0784416047,3.8652943669,0.0914513132,-0.7805369914,0.5922351649,0.1655247422,0.121376869,1.0074023095,-0.4547439361,-0.0555411426,5.8662123897,-2.4653744581,3.0612700092,-4.2158691239,-4.0393177927,-1.192349115,-5.3496081461,2.4586523549,0.3704759694,-0.5104695418,1.5693144581,-0.0389927048,-1.265685642,-3.7880660936,0.8486196495,-0.0065422276,-6.5700210895,1.6485910264,4.1080287215,-3.8718895601,7.5178487174,-0.1875845219,6.1208714395,-4.135878682,0.3946116294,0.8811166318,10.3269504942,1.9406055343,-1.8545174761,0.6709254388,0.1478590266,-1.1313322533,-0.1573275681,0.5608312766,0.1434798672,-0.3176132911,0.0750624046,-0.3818306678,0.0908055895,0.4990713978,0.1293580247,-0.4351840156,1.1000233865,-1.4421132799,-1.7195019636,-2.2938008407,-0.1078547381,1.7531501042,-0.2992470616,0.3204470635,5.856188176,-2.3566352236,-0.4075266539,0.4972910575,0.0946969194,-0.2884772957,1.0451955645,0.4753603992,0.7027058858,0.6436633046,0.7972996277,0.2383109945,-0.0226255215,1.2323140725,0.2430301963,0.471771251,0.0920087377,3.8637043754,9.225133614,0.884288966,0.2464626164,0.5773061462,0.6745613882,1.4296498671,4.0302292199,-1.7360203317,-0.2271549383,-0.0205789054,1.3698450146,0.4258180009,0.2130958222,0.3182646862,-0.1949735689,-1.4232336408,-1.9483846194,0.1556789644,0.3048433115,0.9742822936,1.532495228,0.5591869519,0.7638576019,0.8636215603,0.7115651108,0.6771081826,0.5205988062,0.7624145298,0.699766331,0.5863250628,0.8841247389,1.1191121597,0.1378778799,0.3550534385,1.037295453,0.8009776349,1.0546150383,2.4509372959,1.3586468211,2.3834458963,-1.7109200866,-0.0939372162,0.2294888494,-0.1559744887,-0.4692976215,0.3597529719,-1.3484931677,0.3364393443,-2.0642205431,-5.0831647712,2.7191244054,-1.8549359508,-2.3285964078,1.8889261,-9.226505767,1.5450482545,-4.7967674201,-0.6663428106,-0.8342814511,5.8167035476,12.3233744209,2.0725217493,-2.3223561146,-5.4049480506,10.7382706411,-15.2044746912,-5.982227356,-10.5268722499,5.8985908329,8.0032227366,-1.1446061416,-2.2222976133,-0.2330380888,-5.1944036756,0.9134936704,2.2301039902,-0.0011899666,4.8135048599,0.6286940188,-2.5619809623,-0.1408362317,-0.3469988611,0.9877264234,-0.6012825387,0.1589300626,0.333141487,2.1424584621,2.8543065047,-2.6260489475,1.4592141114,3.3052193726,-0.3498177359,1.9591160709,0.266655575,-0.7982906549,12.643306534,9.2403036015,13.5919753376,1.1944688532,-1.1124937675,-0.0447741191,-0.092208268,-0.4104999218,0.170096469,-0.3619320386,0.0746702333,0.3368396674,0.8329665104,-1.0336829244,4.3084795948,-4.4458991335,-7.2998075791,6.1212408068,0.3984106477,-0.3922335864,7.0572433225,-16.0206710388,13.158816508,-1.3086578494,1.3108088398,6.7478342686,0.365043548,-0.0213799015,-2.9000612946,-3.0336868021,0.6183060967,4.9011807215,1.1820041689,-3.0024902192,0.8392398957,-0.2890508064,-0.3739445066,0.0503539474,0.8313022621,-0.1569828103,2.2963575268,1.7943970379,0.9938872219,-0.0584511358,0.3526583163,0.5816566008,0.287799154,0.1270011217,1.8134659357,1.3620736728,0.3125791575,1.6733240064,1.2924765004,0.1214415674,0.1819796008,0.0129277063,-17.5993690798,-6.002094447,7.9951905927,0.7123799673,1.2580733714,-1.6544335804,0.1164249459,0.8749067494,-0.152668653,-0.8425217614,4.022811632,0.8674307179,1.4327524578,0.5836965141,-2.1406100886,-4.3339929762,-21.3479335983,32.5954658985,-20.1512995189,16.9066066176,-4.2920898749,14.0002142191,0.5241755206,-4.2246951519,-11.2827748881,0.249847378,0.7422912091,-7.2146276296,-6.2410540525,-16.5753611231,15.4531358571,-14.6506726854,-16.2228767539,8.4939638955,-2.3947179057,36.2085841817,-2.9679679147,19.1702424339,9.8202033207,14.4175094696,0.8405125301,9.8564509415,1.4292568734,-9.0901222716,0.208135067,-0.9905395611,3.392310164,-2.5977580555,-4.4793298686,0.6233662703,-1.2390176899,-8.0039893207,1.6474860892,-0.6066375807,1.3940035964,-1.2924826503,0.0476791485,18.0993005444,77.4355861887,10.8102411289,53.0651543874,27.8731335663,29.4660786973,-17.592838502,48.2951652531,-5.7915506811,-0.9076903746,-1.142763709,-0.6982441978,-4.8887270729,-4.1348441969,-1.1134404269,-2.5224117846,-21.4156541257,27.658822544,8.2215592207,-8.953224706,-0.2403200351,-17.9724117272,-31.4304130106,29.1097410072,-15.4766808527,3.8495022452,-28.1018535589,4.5373373373,5.6818400757,0.1480582869,-1.7853151754,4.8568591623,-18.528664208,-3.9747987215,5.2949837385,3.5568155733,-10.0771414187,1.0446811246,-1.2721677925,3.326075886,-2.0939734794,-0.94795056,-9.7057954548,-1.642668632,-0.7727987067,-3.4797602645,-2.7058859783,8.0659575809,-10.9974589016,-1.2859345972,-2.9705672155,0.8038861118,-0.2856887291,0.3573091781,0.9029008859,4.9769462342,29.235292934,3.6890630681,-9.0011137088,-11.8688711243,-2.9819579998,-0.893316089,-4.6597529283,-40.0558045987,-9.3845245368,-26.4486797378,0.0216343851,-0.2921688781,3.2407726327,0.483294261,-0.4055257644,7.4850092674,-6.2203649461,-8.9142346359,8.4703817636,28.0347201319,-79.4401998267,-90.566148329,8.0552578871,-25.2430851816,-29.8008069654,14.5293790214,10.6221675105,23.9036438093,4.3542382675,39.4153191314,-35.9371986901,0.139251997,-47.044812071,-25.9375672421,47.1631103725,-98.2633196144,132.993213888,-12.2479063229,-28.6926143718,-59.5381863156,-54.3315073098,-56.7283683579,-22.6598791397,2.8422688671,23.4503116971,-11.1379369887,-20.0749039731,36.5200226165,-2.4076779955,-0.1817672226,-0.2655459394,0.3292311694,-1.5546969438,0.5459298362,-2.5986714547,6.7558082163,-2.6076362048,1.6495935366,1.99949035,3.1614225589,-2.2199257228,1.1874958668,11.0789701315,46.6594158122,-25.0243488668,13.891748178,1.6217067948,-8.3869619886,0.9350774708,0.3908874201,0.0817105624,0.1286616892,0.3818697459,0.7215959316,0.6951597185,0.1616715057,-5.9313357941,3.129834882,5.4538225454,6.5678445833,-7.0812152284,13.103570546,-8.5701706058,-7.1483644412,0.1354952129,-1.2240134591,0.7458273431,3.7543136025,0.4289965769,4.4104902324,1.4309737401,-1.2604393148,0.1043461816,1.0678337055,5.3494858102,0.4749192674,-8.6202118099,-0.1134833821,3.0098644128,3.1056246009,1.0350550673,-1.9517271788,0.518319281,1.5780435589,0.3892424296,-0.3212194477,1.9535163066,0.2482386814,-0.4070182747,0.2472400589,0.3048228385,0.5868143855,0.18386925,1.7155123951,0.5818990554,-2.1886753216,5.1765623988,1.6263150092,0.7097616313,0.688460598,-21.6793601298,1.4811748921,4.277461454,-4.2545157679,0.8155756355,0.7224785688,-0.5101857705,0.4000146019,2.3458704202,2.3371954756,1.5352930735,0.619137117,-32.7093861604,-0.6857172539,59.0673035217,15.853378817,45.5016160605,60.0361144192,2.6487383663,36.7398938082,50.8291142819,-30.1591858716,0.3266227789,3.3750801306,0.4766017361,-4.6475102149,-16.7470357921,1.2203945919,-7.239209731,-12.1575599917,0.6880979909,26.7460734245,-32.4603644657,3.3235372615,44.2311818018,-28.0442441147,45.735047494,6.4785515298,0.0404291009,2.8943226534,1.201164482,3.7576483278,6.9316552725,-16.1039748956,-0.4524358048,4.2118926409,-0.9843542144,1.6297533079,-1.313554922,-3.88104339,-2.6963025828,-0.3395602759,1.0123502705,1.1622329292,-2.3965327393,-0.9451488259,-1.4943523223,-45.3759848212,24.2426738562,-18.2946932636,8.2648548287,60.5931345761,-6.6389539329,4.1411462561,0.8206513523,-0.1956548249,3.3034519964,0.7677236137,0.6451942092,0.9300079787,0.479724665,3.0471210389,-6.4349321914,-21.4518758628,4.022106083,13.6008732411,-2.0130928739,-9.7909507362,-1.9682055676,20.4987916374,4.8936506192,20.4005824249,19.9689889518,41.9241027255,-7.0829132912,-12.9376164816,-5.871173411,-15.6116935566,7.9661520682,3.1811755093,3.8938803379,2.2454159971,-1.9843888527,-12.3500483661,-3.7004557356,0.6940314292,-1.2825415995,1.5539351146,-0.1349885599,1.2679290355,3.1302960557,2.9503616247,8.1080947697,0.7764404258,-0.2990611627,0.2309008811,1.9910755785,2.3634152394,4.2995557503,0.9722327382,0.9165178945,5.9359417934,46.0207229161,-0.7328418542,4.0003074852,79.353891665,-79.3197128711,-9.2968558438,6.3041267859,7.1045360976,2.0902668985,6.6143325173,2.5087748872,-2.186666942,3.0702378429,-3.6305725614,-1.3157687806,-0.2984668621,-7.3437851231,-28.3935644703,72.9219122368,9.4644332718,-13.6207858512,-10.8345326165,33.1256740684,-12.4999292631,26.9062690953,0.8449509598,-4.676918441,2.8743496063,22.0853691225,-10.4112452798,-0.0116498776,30.9357817608,-40.2165392648,-30.4523311776,6.2085237953,129.2005867799,-2.5388634107,-146.3191836261,93.7793506236,14.9567027829,6.273001203,11.357045174,-0.0886290288,13.3838831967,15.0466891516,-11.2516028802,3.5237409439,24.5275372682,0.1924175428,-0.1825277182,1.9173201392,3.1541650931,3.0264941476,1.149936655,9.0775803928,5.1184251181,0.0252523128,14.4391899956,0.3002660273,1.7688667118,52.3567891568,-23.5758863557,-19.6460720798,-88.281125048,134.5636890861,-6.1583417504,8.1756174001,4.4421806429,-1.5355082207,-0.0665862503,0.7999184453,-3.8026977231,-0.0236107171,-0.4994332177,0.9302420177,-0.0330480118,42.7566679892,-20.9612254978,-31.8950772802,8.5557381664,3.8213028046,0.6322420448,12.785556815,-32.257631541,-8.2673389606,-21.0515238235,-20.0283131827,-14.6665936108,-6.9019462104,49.3037623276,13.7211195821,-0.3472634429,-3.314931758,-21.0334334171,3.5860150209,-1.8449550886,-0.0368459784,26.443063941,6.3212985857,8.8014756436,2.0256131041,4.5316188443,2.8634785544,-2.3528125804,1.1627343552,8.0357179777,-1.8912249794,7.2798879074,0.5805270999,0.7514392684,0.412352118,0.2381919223,3.7134352317,0.9839757184,0.4443167804,0.180302804,-1.694091385,2.7882765543,-7.8905460388,-15.1389282172,39.935688724,21.2764404435,-17.5201269898,10.0253516893,1.9005718211,1.8458576977,2.2635432788,4.9194720078,1.310801866,-1.9293379661,-1.7084673904,-3.1744536835,-15.7321850718,15.2432018434,1.0443381701,26.8979986891,-113.3283617197,74.7150738831,0.4291294501,21.1525413683,-61.7288237394,-28.3820445539,-14.6940654825,-43.2315690474,24.1054820754,37.3595030913,33.3893019436,-5.697883506,19.5172742709,20.202960639,58.7047313612,16.5063065568,-98.9969780351,46.0492361509,-17.0833442165,30.7298247943,65.7735863146,-44.4906058365,-90.9683475698,10.0201251632,-10.5637497076,-23.445207395,21.4264042178,5.1381373472,-0.9798469262,0.7908077573,0.3678011945,1.7015108796,-0.8166049134,0.0044892519,-1.311561395,-0.4654008815,-2.4618786628,1.5976874242,0.3242346572,0.0658266115,1.8979705078,-0.0305501489,-6.8122157717,-2.8634304625,3.4254422124,-2.2916382712,-0.3273244046,6.9469148647,-0.0519617977,-0.2625161694,0.0175222574,-0.3445068678,1.105310769,-0.2791009876,0.2988487819,0.12647545,3.9790585727,-5.3596898084,4.8552910591,4.5791756284,-0.7400303073,8.3419568976,3.421857121,-0.4313587641,11.5736128781,-1.2575653919,0.4005336587,-10.5548464728,-5.3283433611,0.6416207139,2.3233148769,-4.6226811299,3.6266960303,-1.5038324371,1.4486536277,1.4465570098,3.2453803404,-4.8368214452,0.9612656403,-2.1316367264,0.2206727416,1.0837886201,0.4482498569,0.4302883632,-0.21429679,2.3420348649,-0.6315468088,0.3939182389,0.399763663,0.5509304726,0.5384387182,-0.2758607574,3.6552367256,0.7650673495,0.5653948813,0.2233023379,-3.3535971644,0.2100820299,-0.0566862218,0.5713291987,4.1268111845,2.2863203075,-1.864111646,1.0844457413,1.9700369646,-0.0008766353,1.3183417453,0.2644269257,0.7314691037,1.5960133992,1.3177281745,1.0107071431,0.971400513,-5.4794202641,0.8485260094,-1.0523546158,18.6624740724,4.4881631265,26.5468151951,5.2344425203,13.5585260531,-0.6118970794,21.4202433988,-0.7542099637,0.3475423876,-1.7306169445,-18.4005815464,0.4949693572,17.764634396,-0.6502841901,-6.6665877464,8.666460626,-4.9742023925,-12.7267491754,-8.1731207219,15.3915868151,-1.964222327,13.8012144207,7.0410053599,13.9425030805,-3.5810240351,9.7725670701,-2.6984139083,-6.2562075213,-0.5744356694,0.1522120133,0.7298384388,0.3168376634,0.6160338611,-0.6103410395,1.7464119954,-0.5094359113,2.2370897755,0.7922674574,0.4500793333,0.6724788958,1.9594955075,-0.3427116841,3.1362845604,-2.6052771059,5.12069802,3.1284721919,0.0347698753,-1.0179871357,0.1600060337,0.1646934805,0.426751451,-0.167110401,0.5306485501,-0.1237610386,0.15465782,-0.1206368524,-0.3863763301,0.3125508773,-0.8054488948,0.5592886064,-1.7793401357,-0.6114439042,0.2853307698,-1.5587007931,0.0960666772,0.8537965277,4.4025677655,0.8962172234,6.3472581479,0.6786679236,0.3096359625,-0.1054878193,-1.3295166587,0.4116499707,0.4004909945,-0.377153878,0.3086407934,0.4212709483,0.5869814253,0.7930793391,0.4616551475,0.4648676735,0.4624243742,0.4340988747,0.4774802775,0.7207818894,1.8455372478,0.675829612,0.3316486722,0.2093297159,0.1375816818,0.8764575045,0.9691343331,0.7294260132,0.9471783143,0.430917001,0.2014769097,0.6179170258,2.2535201158,0.4714474137,-0.0967619457,5.2707225749,0.4890126379,1.0664552026,0.1987035569,0.2192262675,0.4826672483,0.2576270378,0.7761722081,0.49299789,0.851164752,1.3239986378,-3.0642470097,-0.3555750901,1.3145467581,-8.2765380403,-4.4519879225,11.6149135337,-2.1070770878,-0.4438615945,-4.3716285719,-0.2638914856,0.1235848595,0.7824118576,0.6973818034,0.2685514243,1.9530602376,3.1131103687,-12.9510197655,-2.5982487099,11.7547076664,8.1967260058,-7.4736139361,-9.8790980163,9.6040807603,1.5945227685,4.1332724214,-0.7402847489,1.9674962404,-2.1086541472,0.6602418503,2.3888841866,-2.1785110911,-0.0678625504,0.3781091277,5.2562332117,1.4092253609,3.6952352405,-1.8789146108,8.2565790616,-1.5717236013,46.8975104486,14.7374947857,7.8600527887,2.7594974449,0.403977926,5.1234823798,-9.7689590643,-11.7956914116,-77.7225856746,-3.3824942324,7.1832745434,18.1719271242,-4.4094262606,-0.924613932,0.5028024895,-2.4126334884,4.4922880217,2.4330058606,3.1397747186,-4.6953324935,-3.4243260183,5.7176667786,-7.3518440693,19.7907803006,-8.9824065634,3.0186438904,-13.1950434239,5.2929734356,6.5430881377,-11.0089365686,-16.3008725571,-28.7860247133,-6.5944066461,14.7448028794,27.7877778449,-3.1690055385,33.2282399016,-0.7031322959,-5.4796874659,0.2898282512,13.2824670943,1.6958483034,3.1986405522,9.1655184479,4.6398286731,-1.6082640103,8.1163572006,2.5775343471,0.171089757,7.8965301249,1.2317825785,3.9203589602,1.0593052282,0.5966655545,1.0574191223,3.2691623182,0.5706284454,3.4076233682,1.4534716698,2.1744979422,2.704766107,-24.430697148,0.3333038262,-17.0852200818,-1.9481682491,23.4048858799,0.7290256822,5.1313299863,-0.9140214327,5.088389461,-1.7239899138,4.2420243012,-5.0146836276,4.6621868076,10.3206200992,-0.9391842691,1.3047604496,9.9328872097,58.0820154147,-9.6397829385,-102.4467388912,223.7507001056,57.8358132011,-45.349971764,-5.3368903957,27.7221386991,-10.0460615781,52.5173308841,6.5226159381,-26.1144562621,-77.53634179,-32.7799463142,42.9587931897,-28.2036982866,73.5615732152,-39.9407058429,-8.7300572524,-3.9952985217,-149.5106345538,53.4959514506,56.1107797949,1.1842839301,2.9691770578,29.3442758518,-43.2766221831,-6.8978114271,-28.3784255458,11.5928725477,15.5492838535,-1.6123894325,-4.8447285999,6.1400791551,-0.2025152118,-1.9870233746,-2.9966736221,4.4222667744,19.2387741702,21.7066618151,2.073966161,2.7619041343,1.5019661032,11.6531363338,-11.0697194032,-22.6702993752,-23.753561107,-4.3279147131,25.0744665906,5.526726877,-10.7823115536,2.609056803,2.7419127144,-0.0930913884,-4.2864430741,1.147140073,-1.8874512786,1.5451809648,0.3468760299,2.3883274401,15.5346656458,14.7567472356,8.4917638146,-4.9869487274,51.9418833531,9.0087666709,-22.3032302801,-1.1446101936,-0.4839022597,1.4293632959,-6.1620249049,-2.2299923054,6.2804793377,9.2224713039,-12.2808256316,2.2477850093,4.2584816992,3.7840260389,-3.6627151863,7.5199640485,-3.5619736023,-0.0563678833,1.9048213573,0.0991495561,2.4494207525,4.0763490445,0.3974252737,4.1961098997,10.3162126286,5.3379861329,8.0263772407,0.0373861941,1.5344092516,1.1150667087,5.9400348255,2.6296407012,0.5887958387,0.4479417498,5.2150366748,4.5724514762,7.8490457455,18.7090836648,11.5176580435,34.1770371938,7.954408117,-24.4014179722,-3.4891346066,1.7349589953,2.5156846224,4.0990724365,4.3954362038,-7.3688846991,9.9564786725,0.1690020273,-0.5384975417,-6.4268270519,50.8478913356,-4.422133064,-22.304019959,-85.2613932749,-8.8756088882,-5.7482411903,-59.6280029872,-48.0971065322,-22.8746892217,-4.0819481709,-11.9597886727,-38.8225526812,18.2020273398,46.5433006337,52.458600325,-43.225935995,48.729910388,10.6239071445,-20.7450750579,95.7652869356,11.6090053782,-61.2747109387,-7.9982377841,-11.0540451725,-56.8225152581,-16.0358855548,30.4574829665,22.135506404,26.7791765162,21.1073631063,-3.392408022,-0.3340796812,0.4084454828,3.4530675249,-0.0440467256,-0.6385152125,-2.4234878286,4.323155924,2.8611656744,0.7814337469,-0.3022736243,0.1463034097,0.1818129844,9.3573453348,-4.8452663019,-14.7591976582,1.9539738805,2.6691965454,-10.865250849,-0.4562400533,-6.0004729344,-0.8557616578,-1.2304581279,-1.336416885,-0.5308822646,-0.2694710517,-2.4732454388,-0.3228683522,-0.030669369,10.3602119662,1.4418590898,-0.3820205281,0.5885927846,-0.0728441315,-9.0011829998,-4.207881645,-0.2473948216,14.9250468754,0.2244346652,0.6011666765,1.572192829,4.255278652,-1.7792219015,-2.444172802,1.3672966628,-1.5654346408,1.2660989181,3.2314941343,2.2842133696,-1.2278994821,-1.5143716853,-0.2425324806,1.5734198294,0.2287243015,-0.055349765,-2.6295904533,2.0282430706,1.3076854385,-0.0644139966,0.9850462008,-0.1606373522,-0.5132321581,-0.2889503487,-0.2034689408,0.6718220205,0.5772661294,0.5036108928,0.5937608463,1.8270198512,-9.0127986199,0.1432719638,13.770405719,-1.3459347253,-7.6766117349,-4.4126522511,1.358551486,-0.4221937099,-1.853112623,0.2282727126,-0.5234423169,0.1013826551,0.2473378097,0.7907183245,-1.937464033,-1.4643499304,0.2008641593,4.7945257737,0.364130915,3.8154815443,-4.1911827876,-10.5435254577,5.8473198664,2.134495613,12.0374080868,0.4937191479,-6.8336772864,-19.6618200249,-19.7322625142,-1.8159183816,29.6929833815,-5.2215362949,-6.3711047085,-4.0245821109,-27.1942019243,-7.195602037,14.8704834816,1.6511485451,15.5761241822,-4.7641867521,1.2900745604,-0.9751800973,13.8979414801,-2.2582423872,-0.6020633231,-5.5474657536,-14.1103403096,-4.781111405,-1.6014794143,1.9003722114,2.669842464,-2.0808681666,0.2087576214,2.6031123086,-1.9695406706,1.0219919658,-1.2086767359,-4.5555792446,-2.934808873,-4.9154973936,34.9723077354,0.2030662144,-3.7310202628,-3.3285937382,40.0175335885,0.0343317037,18.6120078618,12.4527696262,0.2315976041,-0.3936819124,0.1800960363,5.3702005584,-2.6859191023,-1.6866318042,2.0329377379,-3.1736414932,-10.028282876,0.5678729159,-36.8594738895,1.4636720955,31.1306405542,4.3886161482,20.3880528536,-6.887581277,10.8879991597,5.4446792942,25.0248795124,2.7844816441,-62.4150173528,-30.9114252257,18.83300989,20.7694968312,-0.9855483887,-5.6242868281,-0.1594793728,6.621790202,10.9355296608,0.6375849572,-6.8260063108,5.5039745657,-1.2419867954,3.315613539,-0.5140866321,-0.221117166,5.5131555773,-1.3116515438,-2.135666448,-1.364273221,0.1820829568,1.0010600184,0.8383777494,1.0235618846,0.8252020148,-0.0052537317,-1.2577231515,1.1522986421,0.1851214574,4.0719226273,18.877642403,5.2137316547,10.7565097506,1.9684712579,-7.6638843578,-0.9343185221,-5.8159561927,0.7735386021,4.8655346829,-1.6324888809,-0.6008111815,-6.3110016544,-1.3316990433,3.5374771345,72.5043307195,3.7955462536,1.4537539001,5.1739705083,10.4558089773,10.6113846688,-17.4364470836,-8.8796196369,32.7187386815,57.9885354827,-14.2650389963,-114.1654355222,75.1188194927,-24.0315645369,15.2293927976,36.3625534294,-184.4477404385,13.4441630417,36.3292971751,10.4361305657,-24.2588436782,70.7905617608,-23.248764567,-56.6984074672,-2.1079965655,-8.6869498378,0.2279645204,8.5209479202,-3.0494772316,6.5610756883,-30.2316459302,-5.0675480663,0.2584469511,-0.1272673592,1.1364029667,0.6476524046,0.1819732675,-1.9708813875,-0.3369267306,-0.0363763034,0.4943609757,0.4478575043,0.0469318464,-0.0204835496,-0.1277087679,-1.0199059404,0.8896678999,-2.9822517491,-0.8832487733,-1.3923047949,3.9125450573,0.280313984,-0.1587428478,0.3699920746,0.3111016569,0.1948451348,0.2742887508,0.0324308292,0.3222584693,0.5214073334,1.0467063926,0.2183980894,-1.9558282666,6.1655935794,-0.0251758018,0.5758045841,0.7162417822,-0.2868622197,6.0833783448,-1.3000428959,0.3783551531,-1.1734702987,-3.2140867228,-0.1863050502,0.2976120324,1.647691826,-0.2556147385,-0.8607702371,0.8789342254,1.0072045763,0.8011070332,0.3025235271,0.5100652569,0.3523216643,0.4357486234,-0.395593599,0.4736825552,-0.13241695,0.3899985954,2.8242614417,1.3856559168,0.7669914905,0.6855892383,0.6752564394,0.9244110537,0.4027478345,1.235406155,1.6591626239,0.4834714144,0.722143599,0.7151120412,0.181195561,-0.0072367223,4.4635134836,2.4998248828,1.5837527439,0.6828961254,0.1651792514,-0.4433992261,0.0875958607,0.6996355494,0.7569509502,0.8529064277,0.2505591948,-0.3495779189,-0.7199653237,-0.0091272662,8.3422941266,14.8005080627,6.1221395888,3.5290013709,2.9517968114,-6.1128222401,-3.4829849389,1.9040086706,-0.148320885,-0.8582530538,-0.0318533252
   0.1384087741,0.7974901148,2.6602377458,-3.7102468506,2.9721929004,1.6852824616,4.9037168591,-2.1020522452,1.6380497837,-1.8752437931,-7.4974137325,7.7699118788,-0.9972721669,-6.6151562108,2.5601812827,0.5382200543,0.1966675165,-1.6211751776,-1.5375927979,7.7243325086,0.081546542,-4.3349170062,4.735585403,-8.0647298315,-18.2781583809,35.0767580945,-8.806725558,8.8837998284,1.9685832392,6.8693598146,1.9007505995,1.6203369511,-42.7171267795,-4.6017256961,-46.763698921,-25.8765632914,-0.0769943953,11.4033018312,-52.2480106872,4.7623998366,0.701924977,-1.5838118804,1.7990696739,2.9951249061,0.1241496039,3.392858784,-2.0310419853,5.8277801301,-63.3718063043,-14.6787355647,70.4599782231,8.5068921959,31.07050242,28.6059288851,-12.6965591942,-57.4482272177,5.2168208391,0.1622603538,-4.0184672068,-8.7663300601,30.0559178647,-0.9871218988,-13.9739634318,-11.0282724643,-15.3650443908,-3.2566948597,18.1703199112,3.0443764228,-6.5467421829,0.7849941025,-0.8917024035,5.3361048238,-5.0912798828,3.0952770538,14.6463267768,14.7235756181,11.6047923102,-2.22572672,-0.4048485215,-2.7383385144,0.581362026,3.7373585989,28.5328227981,0.1534498773,0.3246823525,-0.3505518184,-12.6641575544,0.2480685667,-0.49024298,98.4151409551,71.3220975476,16.5072647386,-32.5560680648,-1.2831707399,1.6243745508,-6.6437337455,2.2745952338,2.9718765751,-3.8618931466,-2.4265431249,-1.1398861569,3.5745132367,1.4065950048,0.1491320424,-38.5957463086,29.5817984736,18.4580435359,55.3941637563,69.3832499955,-10.0198375755,-29.8045523405,2.1307592833,-55.2577361251,9.3277230938,21.6104476888,-10.7770472794,49.246599231,36.101713472,-179.1828457937,1.8614134644,0.8046576951,8.4894063232,-31.1749496737,-22.9908705997,196.7360181947,-4.025228654,129.9352804366,18.226220908,-49.2637543972,-85.9123813417,-37.7601687447,72.5862712386,26.4530576086,48.5708681807,18.1528500312,-20.0627539478,-0.6343197377,0.7250352701,-0.5315752016,-0.368945758,-1.6420802276,-0.9862748997,0.3356848845,0.2396188522,-0.9731583984,0.8740854848,-0.738862727,0.4866854429,-0.9434527867,-6.312539496,8.0637389218,5.447508467,-2.0531162853,7.0458696618,0.1427123909,-0.592842357,0.2695324983,0.2121826849,0.2950110025,0.0874213435,0.1594834611,0.688887645,0.1980001867,0.7904014714,2.119378488,0.4147207342,-2.299826381,-1.6655110183,1.5237841118,1.28028153,-0.3938230961,-0.0798686578,2.802237004,0.8120705954,-4.7261377995,-1.7452993547,1.218644398,1.5804526404,1.3402400912,1.5167635335,-0.5405664159,0.4085258176,-0.4496349119,0.1415411916,-0.5859534775,1.1091189424,-0.3756951696,1.7682282819,0.2020788798,0.8221232109,-0.2085627585,0.0990772945,0.5497145858,1.332357131,1.8008709987,-0.6044506453,0.4264093466,0.1754836688,-0.1403777638,0.7147245822,0.4978209192,0.6835040849,0.1015378522,-0.2836387182,-2.6716565005,1.5805687645,0.4662577617,4.5555416576,1.9068140939,0.6626846585,1.5960256524,2.2961170915,-0.1361252578,-0.7936532785,0.2050550478,0.132614646,0.3519041935,0.3611617306,0.0376781333,0.4964909884,0.8433695055,0.4085228958,-3.1394580749,13.9064330164,-3.3736767716,-7.2248354264,-2.4211617741,-5.7035898019,0.1683271637,6.1248894629,-8.6130978247,-14.8891984542,-1.131561696,-0.4955727572,0.4269676175,15.7948307209,2.9290868071,-7.915318242,-5.2872538405,-0.0561864933,1.8920977699,-2.0339218875,0.1560163415,7.6773300035,6.7315167227,3.1768746462,1.3915680877,-0.6938637432,0.5126400835,-6.4215143869,1.6275563371,2.2865750415,-0.1464491097,-0.0147100277,0.1717988386,-0.4929809067,0.2356169313,-0.6954830755,-0.0050306394,0.3393624456,0.4557016443,-0.0214704082,-0.5901614615,0.3991157671,-0.5645736294,0.4968788685,0.1141240765,4.2590942064,0.7516317462,0.4364529814,0.7113062346,-1.6968421752,0.3794604958,0.5559016575,0.4765094736,0.2850131558,0.8467060372,0.2663680481,0.4888132964,0.5560019648,1.9440203659,4.8977199141,0.5062703614,0.2236306901,0.1896056125,0.3959646,-0.991166353,0.2231582247,-2.2950522357,0.2105619731,-0.8514265764,0.6904738008,-1.260537983,0.6701253454,0.0559412365,6.2473885394,-0.1793071219,0.2743943915,0.2868286364,-1.6010913515,0.2949128672,-0.8683761435,0.0359344794,0.1127220921,-0.5036172033,0.3342012142,0.221620248,0.2459764425,0.8810451477,1.1043891597,0.3222390914,0.8408960916,0.066446648,0.1218433847,0.7048033954,1.1570670951,0.9408543833,0.4164389707,0.0255765994,0.0150579378,-6.3549334233,0.1509446342,0.023201656,-0.1889411979,0.6914919435,0.3301558484,-2.877472052,0.7027218296,-0.8700197535,-0.295426155,0.9647117833,0.1872774796,0.4079973882,0.589982279,0.0585892748,-0.2206319219,-1.651474439,1.5510399406,1.1849868345,-2.209714946,2.5656969099,2.8304655246,2.4197177534,2.7050993049,0.4982266568,-3.002132369,0.1491917588,3.3030238189,4.3099174274,-3.8469076417,-16.2041601101,2.7227966969,4.8384455016,1.6657441636,-0.0091119721,-0.2624099057,2.6463268791,0.0716317314,-9.2839998187,0.4685255775,1.7496599296,6.3873303929,1.5324209784,2.6622038226,0.7308206489,3.2827667677,8.3029961376,0.1404755152,0.3731590257,0.1017210558,0.5056597641,-0.823445948,0.2578057612,-1.1101679775,0.1886452636,0.5439651176,-0.2819289478,0.8515441266,0.3940671554,0.3972116867,-16.7338516069,0.3201331408,0.2090994384,5.9746061276,-1.9079804903,8.7937150099,0.7074628117,3.8027565641,0.3895033705,0.6321216151,0.4350009523,0.2725890058,0.4051165916,0.4472284889,0.4408538102,0.0869477572,1.317058452,1.9552684415,2.9199788264,-1.6083005135,-8.6595481892,2.5921441889,0.6004920213,0.8602959865,-1.1724288348,0.9505890839,3.6843955598,0.584421779,2.3396633392,-1.967928165,0.172420429,1.7138671695,0.7964485222,0.0913366643,-0.5671063583,-0.1688129271,0.0414445058,1.494736825,0.2102967831,2.3852187407,1.1659268165,1.6944327461,0.1432570958,-1.483443548,1.3619252899,1.3790788174,0.1318424497,0.7623869715,0.1067177572,0.5159266496,0.6621174684,0.3430387185,0.8237190277,0.5192627321,0.1132704386,-1.0829042658,-2.2156006342,0.9805182524,5.3593063108,-0.2853221674,2.6654270695,0.9886630757,1.1467800795,3.6411683437,-0.180834666,-0.2392081304,0.8137468886,0.2361717092,1.7194214641,0.4365354554,-0.5997846904,-0.4521779972,20.7854264954,-6.2077660021,-3.8694553452,37.6128763782,-7.8456067536,-4.3524521579,-2.9330818389,-6.4600033192,-0.0703683634,-5.8416254895,-0.629985453,-0.9629697918,-2.6670914761,1.0950675695,7.601216336,-6.2804916389,-3.0194652617,0.0750850628,16.9969603611,-8.1848319359,0.9518599724,-13.9011794193,-0.5056043629,0.442398852,6.843161618,-1.9051309457,-0.9918134735,-3.3073976428,-1.8027165672,0.5913786048,4.4298927867,3.4784940637,0.4251492808,0.3919170844,-0.8969863257,0.3773691486,-0.8341042265,-1.0806985465,-0.3644066643,-0.1253934038,-1.3761364875,0.3176989559,-0.162045066,-0.5990090983,1.8336927725,6.1061160542,-4.4873572108,-15.0036560472,-7.2387062752,1.5446833583,-14.5012557637,-5.6309969305,-0.1446401552,0.3254660621,1.0779110227,0.9236367158,1.3121053092,1.7372077381,0.397828594,-0.8160785183,-0.2660391327,1.5859190675,-1.3491355517,-2.7288303997,-2.0042907352,-0.9054530201,-6.8024867941,-1.9363057245,-10.2366019025,0.3816351598,0.2644974846,24.7714122482,2.2549903471,-15.4333544744,-0.4360288003,3.9457152644,3.5842772659,0.2315192216,0.4554248336,0.1462629334,2.0453117566,0.8698350275,-0.076905605,-0.5535046728,0.5507086578,1.2281949432,1.3361348322,-1.459326432,0.3171382164,-0.11234214,0.0765198705,-0.211404337,1.8708679794,0.7122848702,-2.2670834402,-1.0423606628,0.0827124436,0.4800900677,-0.4243036041,-0.512426764,7.6881267167,0.3864182155,-0.3193758144,-3.6395774701,4.7612403164,1.9235291645,0.771308927,2.8569347405,-0.0170067398,-0.1328524387,-0.7983473077,0.4674868255,1.8285389085,0.7526083661,0.0853690268,1.2229737728,-2.5927521056,1.4938588169,5.5730837119,1.0599900578,-1.8774049937,-3.2972048701,10.138602594,7.1180066727,-28.3075978215,8.8456142461,-5.0021104979,16.1257566636,-32.4561694509,-1.4847170679,-20.6042786849,-9.9742363628,2.629147265,1.9804675271,-7.8683737278,-8.7887184681,1.9042210245,-2.0975906477,0.4589161191,-1.6021009921,0.0007435452,-4.9789854746,-4.4716489609,-2.8697994051,-1.1651029485,3.9918882611,1.5119900525,4.6015369474,-0.3501785705,-0.3908150096,0.9466755336,-0.0228709614,-0.3594236014,0.2279392887,-0.0564496527,0.6556398169,1.1140752867,0.3626733758,1.3688508529,0.3763818737,-0.3213270155,0.0403881123,0.2096987662,-2.2886880427,-8.3053222313,0.5654384896,0.4408717869,-0.5556657998,1.1243738895,-0.6724248233,0.1048894021,0.6005407935,0.1084928865,0.173782771,0.5112886832,-0.5413198426,0.6880099674,0.0977296334,1.6909014102,-1.7379867293,0.3409498266,0.2853279721,-0.474188471,0.0805523141,2.8882548884,0.5620064395,0.9591576602,-7.7684723826,1.3210743771,0.1131717501,3.7784922386,5.2200275643,-0.7996883903,-0.8015655867,0.1159622034,0.2074960926,1.0431336315,0.4301593468,1.0434062277,0.0785708917,-1.5256186076,-0.3637080347,0.515746455,0.4394087287,-0.396248816,0.9576294157,-0.2494525481,0.7211314571,-0.0042867472,0.6970429422,0.5468598773,0.3016015165,-0.2294140554,0.2843824543,0.0678175066,0.5898273029,6.6791630124,-0.0764071194,0.3526300141,0.4623375886,0.6852063063,0.7170619807,0.7855346643,0.9966798998,-1.1056370065,-0.8873340483,-0.0082514489,-0.3326159892,0.1720069918,0.0675628005,-0.3345161128,-0.1584260562,-0.1056289902,2.4823969567,-2.0746898762,2.8459887114,-0.1366739273,6.8329164876,5.4807599302,0.1526105459,14.2441456589,-2.3011518546,-3.7397596899,-0.2269725122,-10.1312144061,-1.0411300512,-5.3691103553,10.5154577387,-0.1840207664,4.2905781434,-1.0132972825,-1.9982465258,-0.5518094966,2.2986875954,-0.8774734106,8.8136206922,-0.2137895613,1.3631828279,0.2446478457,-12.8695906157,-0.5976494244,-0.9242623412,-5.3441376708,-2.399441295,0.6225387609,1.9834097224,1.1805081563,-1.8167731514,0.4731018787,-0.2888265874,-0.4186763697,1.6293561196,2.1701342606,-3.9783511595,0.6306539639,0.5703898613,6.4197581776,11.2015506946,-0.1758733998,-4.7090914414,-1.0301341507,-0.8343747428,-3.64486066,6.2685001982,-1.0593058813,-0.1233885157,0.0905943096,0.3767497708,0.7456446377,0.0970695295,0.8534128125,1.1648079731,3.4682707348,2.4106239296,-0.7348725171,-7.4028475812,-4.0171205782,10.3883313331,1.7599192529,6.1577721684,21.1865382479,1.2046417248,0.8343696747,-1.4350854162,-3.0946868354,-7.1326904231,-0.1050395972,-2.8651558281,-1.7534105127,-1.1938854978,-0.0929152673,0.1387682609,0.0732736142,-0.8202608318,0.0054191863,-3.1206487563,-0.6724673271,0.9432795973,0.405256544,-0.004034167,0.811291078,1.5828836142,-1.074553138,1.0638855384,0.463361562,0.2152829322,0.426913704,0.5528123103,0.2397468854,0.9079876548,0.6832515388,0.5174211688,-5.8823439759,-1.9991142357,7.309515622,0.2729615232,0.0519976454,0.9798726345,15.2808290178,5.06885636,-2.7695449048,-2.3254269375,-0.5954143268,-0.8259646652,0.2336534924,1.3616374782,-0.1743044784,-0.8389727884,5.0696087323,-1.824724344,-10.881292,1.1874750472,6.2037163564,13.71478911,-0.7456451454,5.4673916843,3.8988575181,0.9038055341,6.9332953121,-12.5759701603,2.312758639,17.1419819411,-0.9125267284,10.6804144199,0.7057249688,5.9386024178,-15.9510418294,3.5957959536,-0.7416403201,-14.3062478369,0.7239763763,14.4046593261,0.7137493578,-1.6384716183,6.2096724329,-5.1419493688,-20.9738230973,-7.1744443792,9.8288889805,-22.7316202814,-1.4077890982,-2.662571881,0.7265662538,2.7792763433,1.6233331326,17.3861743087,8.393672106,13.6810253147,-11.0630870359,5.5296362845,-0.9867336465,3.7405592318,1.5411318858,31.103772729,-9.4319918497,103.2501570762,-7.8442254937,-26.6470613586,72.0888369917,48.3150208612,-0.0250596389,0.3289086496,1.0825545137,-0.2697858339,8.7199647685,2.0321667635,1.4674689558,1.9260257547,47.0274756851,-24.6943691457,10.3350969427,-11.2176724779,13.0811479112,20.7110541397,10.4293560733,-19.1974843534,-1.0040741276,-14.1431600498,-28.7478549925,25.5796687742,-8.0315517479,15.7884894437,45.3268955164,46.0146135614,17.376190888,1.4528252936,-7.4496306142,-3.1881165746,-4.0051331742,-2.1801813978,3.6429099843,23.4561030749,2.878193227,-0.7135102322,-0.174558733,4.7009674382,2.0358314602,-2.6606967475,0.0165616047,8.7883640653,-4.0324628295,0.3466259392,0.9847455029,8.7005701735,2.7396861424,11.929712127,6.5991103616,-0.2534148597,-7.053777841,-4.0597581279,0.3166279534,-0.3532829405,124.9362801072,-107.216028095,-75.0387274757,49.2808648297,0.6956523566,0.7914965671,3.7007650585,14.0331053215,-2.0973972538,4.4914762135,19.3284064418,-1.8194973502,-20.0008341749,-23.9403722203,-90.0759850832,-23.2873268018,36.5093840128,315.3840111636,127.182051922,138.3497507734,-5.7583650809,-47.5803634574,-23.5910878912,-9.0782434893,-8.733698136,24.1345657101,-119.22590302,105.049792949,27.9029815988,5.3258656775,40.7385878664,-41.821606062,-22.8688905795,105.8603935746,22.4518886164,43.7112061987,-22.1014141212,-175.1083660093,96.5877615391,36.617450318,42.1026044027,21.497471353,18.0022090509,50.2171592905,0.8206812448,-0.2446851867,0.2871563268,-1.3897028333,-1.0288697277,0.2008556617,1.7542615359,-1.8831790807,-0.4087354134,1.5817232145,1.7609270806,-1.2615209307,-3.7943363866,9.9132431527,-4.2035140401,6.9238256682,-0.1570739841,0.3360668409,0.358939116,14.4986804786,-0.0643488963,-0.2561571293,0.3210611623,0.2697447879,0.1153642633,-0.0347006421,0.2349530392,0.3108186532,0.2528273371,-1.8157779445,2.9851151753,6.4564227156,-0.0082119995,-2.7047411236,0.1373685993,-1.3817505309,-8.9942439783,-2.9405321189,2.5834697068,0.7563688411,8.7303356099,1.4258484868,-3.1558345838,0.3482719718,-1.3019998728,2.0793115978,1.0300142852,-0.1088958867,1.8957333573,0.6489887594,0.4853057067,-1.7990024466,-1.6030100637,-0.7184459948,0.8734742377,2.0454906979,-0.4718538976,-1.1729135203,-0.2625902905,-0.9297636244,-0.2320957329,1.5783933633,4.1031091733,1.1497434883,0.4686395496,0.4438841648,-0.0260781144,0.0844515335,0.359708855,9.8464235625,4.2387618602,1.4516044306,1.081253201,2.0875900595,0.1145006492,1.2988805451,-0.2527737756,0.0957302759,0.5125196903,0.2417975942,0.5236221057,-0.5081627038,-1.6535039884,1.3626945955,-5.815112283,4.3957092272,-0.123007639,12.514707829,3.6500380937,-4.5968778781,-3.5821621055,-0.304426685,-8.0689024563,-1.0109754476,-8.020613205,-2.3231008662,-6.6430764711,3.8354102279,0.8125444687,-2.6014166562,4.4516104734,-1.8757459067,-4.3925396188,8.2931679075,14.2168410106,8.535899079,-5.9839684294,-9.6132177846,-4.5363624697,-0.2397843177,-10.4668773799,-2.1986284569,-10.9887723526,4.3875924628,0.1683115742,2.9511557705,0.0298255334,-0.6571141235,0.1218942503,1.4478264193,3.9202963418,-11.1349024219,-1.9338586564,-9.6773960372,-1.1032730635,-0.5379284434,-7.4489411452,4.2132384286,13.0907057522,0.6510760871,4.2400794661,7.6260751245,-1.7699826261,3.3519075785,57.6887568254,20.0182589054,0.576678643,0.6645367371,-3.1080175227,1.3585315994,0.1489964811,3.1524116065,0.6345047155,4.0835532147,0.9805441354,-0.6205330599,-23.6148968011,9.1557089743,8.6490138753,11.1832029954,-1.2637257032,-0.9104883738,-3.6964216515,-22.7883609246,-19.3200610116,8.1499077959,0.482292478,4.2723260648,20.9354219292,-17.6375261889,-7.6610842198,1.650907409,0.9145899871,-5.4301014726,-7.2787468877,-4.098656358,7.0471331572,-2.1393662162,2.7856143804,-2.5795619693,2.5935057461,1.9632978471,-1.2659453463,2.8486957413,5.1077310965,-3.02588764,0.2282283022,-0.162735444,0.4890248933,0.5774531456,0.9348708293,0.0435332457,1.0230170444,3.9101340173,-38.5035034678,-7.5237230299,2.2388148939,0.5999440936,-46.5882308754,-4.4271711111,-5.2776894078,-5.6061856185,-0.1917393662,2.0095127899,-1.2873180733,-2.1877635376,11.1571414498,0.0885053523,1.9986474016,-2.4816437035,-37.2328283801,1.2263151537,190.8567584003,48.5074278872,20.2207061653,28.5387545717,0.0256015971,26.7433189948,-86.5162184908,-20.773984085,1.8501545564,23.8956443141,-20.7121500088,14.0945059522,115.7722118475,-22.3153626663,-37.569262624,10.2643793174,-9.6327242885,62.287663324,-0.8935719673,-108.4648120441,47.0805969741,3.0278211266,8.7999187818,1.0734751615,16.7383214428,19.8203926288,40.2910423233,26.4833010673,-15.6656901207,-10.6853942189,0.8171398134,0.0689356419,0.6407384132,0.3589332419,-0.9080766405,-0.8121339179,-1.0066886295,1.1928245122,2.0432454854,1.0291091978,-1.1209603336,0.0576121848,-1.6358681934,-2.2859312042,1.5740979698,9.029061548,14.0846994954,5.2388123856,0.4485435419,-3.318173808,-1.18313226,-0.1061956185,0.4663771756,-0.1750975535,1.6082600433,0.861695489,0.0377424049,-0.8570620895,-3.0958541705,7.4384391652,3.9775844769,-2.9340842845,-1.168109149,-2.279412143,-2.7287420447,1.8441807787,-15.0525649903,4.7461628551,7.6650885866,-0.214024829,2.2429721466,12.3363083384,1.4771646003,-2.0566420087,-1.9782283238,-2.7809442801,7.0910481682,0.9299684856,-0.6006234194,-0.4441592937,-1.4877259022,-0.6941673008,0.5111889695,-1.5046344284,0.0545715217,0.2720765983,0.2021539712,0.6594862511,0.466067924,0.0654357424,-0.3548271955,0.3780430691,-0.1103737497,-0.1772470588,-0.0390644374,0.0890980562,-0.5626265801,-0.6658207233,-0.0125110245,0.9410795766,1.7394714177,-0.5631480297,0.6097269763,0.786488401,0.3041752921,7.3901465105,-2.495682253,0.6999329377,-1.6518242019,-0.2427239627,-0.3593568408,-0.8010588068,-0.108084445,0.3808012866,8.5959106823,-24.89971784,-15.9427462942,-15.0742607296,6.2723591032,-11.288075246,1.0809759672,-4.9831928972,-19.9942010386,4.7874432132,-10.7944600361,-12.1904453896,4.4061401362,6.1773224943,2.4283698429,12.0481875337,2.8855803667,23.1408137699,-4.4079246177,-25.4232305499,7.6536527944,-23.5649917588,-20.3134401078,31.1777263455,-14.5908347685,-36.2817886851,-18.5406488066,-0.9397482483,15.067945824,-3.0609510544,-0.8064146249,-0.377583252,-0.2949308542,0.7026606568,1.0069053372,-0.2541564088,-0.1076305081,-0.4706597687,0.3302010001,-0.5174207063,1.135863932,0.2250641262,0.3522815313,-0.5329062218,-0.3955347837,-1.9025219205,0.8066184636,-0.6995452514,-2.496842861,-1.9831332893,0.3299035498,-0.977789493,0.3257427583,0.0235175763,0.6640694325,0.1243123442,0.8156923036,0.4326884415,0.3668912078,0.4658484735,2.6451953981,1.4197628998,-4.3952562077,0.3703015664,0.2363243899,-2.3322361326,0.5463712422,-0.3269538144,1.3346376811,3.5737360583,0.8605666789,3.7694222296,1.2064815781,0.0939321097,1.4223374148,0.8251294799,-0.1279614215,-0.5003160857,0.1061141663,-0.1066601899,0.9043440974,0.3197402157,-0.4259293075,0.8192868385,-1.4407877756,-0.5457386112,1.050306901,0.7857208741,0.888126684,1.2185170021,-0.3720083205,0.7179007352,0.4298210962,0.3645090752,0.5370484526,0.2022029585,0.0950971721,1.0035193679,0.7093297338,1.1761599414,3.2927074082,0.8735619131,-2.7201892983,0.0496667325,0.1863139992,-0.2280392802,-0.7550157426,0.8643272896,-1.0586430149,-1.6299632543,0.0210754816,0.5589364279,0.4030452843,1.3193120142,0.0845791721,0.6334359241,-0.6911742605,0.3105631878,-5.2372535724,7.3973608132,-1.8284136797,5.409797998,-2.7823033355,8.0254228253,7.4383859087,3.9182676654,0.5201130915,-14.7883279358,5.8493979518,9.4266140215,8.5362937031,-5.6923258732,-3.2429655104,1.1132482912,-0.7442312391,0.4951215749,1.5316060703,3.4787029801,1.2322697546,16.9999080818,4.9847536815,0.1889268468,-3.6700201733,0.3100248329,-1.9893156595,-1.6710012474,3.2898984395,-9.6529676716,-0.2631484896,0.7323174896,0.3535853539,-0.8326864753,-0.0064925859,0.1123257499,-0.4516659694,0.6143130452,0.1004097695,0.3776104857,0.5097428365,-0.3618499022,0.1390548463,-2.5015803174,-1.7917420752,1.9621274373,0.2288137363,-0.0636569987,2.039919176,-0.1095457641,0.0626899145,-0.0887577457,0.6716796432,0.3954583349,0.5381537871,-0.6930708824,0.5428564876,0.2827479611,3.6863226084,1.3172294775,2.5171279816,0.2490654741,-0.9171090665,1.6559527828,2.2650716167,1.0407874722,2.4186966171,1.060510988,1.9140700669,0.2665046261,-0.580507676,-0.1889401046,-4.9782246938,-0.2457543202,-0.9732137922,1.1490723619,0.4615894405,0.5176634895,0.3867383747,-0.3906386493,-1.3118640831,0.020455474,-1.3945771093,-1.0409865063,0.481908933,0.5637648266,0.0772494982,0.7487692175,0.403949092,0.52939557,-1.5327604163,0.1465859513,0.0072234646,0.674586081,0.9098956037,0.7021952785,0.201541974,0.1203031427,-1.9255687383,2.0847461777,2.1813915718,-0.267940756,1.1137800225,2.601130107,0.906643664,-2.0127878698,-1.6658929391,0.2456645064,-0.0804227537,-0.3958563082,0.2488140714,0.3867799099,0.1667676365,-0.2972164923,2.4974590387,-1.7367638945,-3.2608178175,2.5173969734,-1.3649715712,3.5373251859,-0.4237496351,-2.125711552,2.8563799701,-1.953794452,-1.5446180882,0.1007445332,-1.5950891385,-8.8681918334,-0.0757996215,11.4739879692,-7.4763837831,6.5728026961,1.4135188291,-8.0333959069,5.5587452895,0.6628487153,2.1321987033,6.076266663,1.2155678064,0.7957568764,-0.7249444789,-0.4003905631,0.5502856609,-6.7227205158,3.3834765266,0.8461974497,-0.401477209,0.5647502545,1.33148308,-3.1850218369,-0.0281781979,-0.1587174681,0.0516299886,0.4603934825,-6.4761243843,-0.4775924926,0.9212060441,3.1090704496,-5.7887289436,5.9127434126,13.623303048,-4.3659141926,-0.8763499278,1.95547437,2.2884261156,-0.7218476497,-2.086670405,0.9500161785,0.4647408061,0.6567389912,-2.6023570993,1.1047125653,-0.1958906062,-0.5414204543,-9.3021257002,0.9194297507,4.0035615336,7.9734672966,5.3647258809,-14.9834153578,22.88392177,-7.7925931224,-4.2117893923,5.1537487825,0.303163056,0.6636154029,5.6138595571,-6.6748205186,6.516464776,3.5859559057,-3.1351595996,-0.4276965045,-0.0289721436,-1.0497290924,0.457978067,-0.926512976,0.4198853314,1.8870374427,-0.9234113563,-0.0372241322,1.532623146,0.9539444638,4.5470218916,0.814524491,0.426519619,0.8034883585,0.1403839083,0.1877650063,0.5822880023,-0.1342602945,0.7924511859,0.5215339122,0.3543281541,1.1086431512,-0.415066679,-12.333242086,0.3365631733,0.0932014071,-0.8892714861,3.6281002419,2.222869841,1.5569381278,-1.0498348581,0.0299784349,0.4326936429,0.9123832787,0.4512156556,-1.1909931647,0.4585943718,-0.4231645809,-12.341390276,-4.2559895996,-1.0550681512,8.8808615048,1.1891746325,4.6507850757,4.6446317068,-6.7696300358,33.3801243063,-14.2150630573,6.2705736659,13.0653185372,-2.7262357839,6.9602570828,35.9150703219,-39.4843841749,19.3621989153,-4.2708960444,-4.3450422149,-0.4486455789,26.3995069065,5.3014483471,-23.3274513662,14.9664117536,0.1879803222,-2.1417480994,-3.921941914,-9.2836000728,-22.4025740093,1.5764379958,7.7845403938,-17.5536723732,0.9494179246,0.521024641,1.0791242339,-0.0609870918,1.8691700206,0.4535061551,0.2507599155,0.9509045539,-0.6915600226,0.471658514,0.6858839728,0.4122209882,0.1995774093,-0.8863513839,-0.0547382307,19.4711006096,3.0113520854,0.3462485626,15.564801739,2.5311565014,1.4346345347,0.050882368,0.2366849492,-0.7069454483,-0.6394036296,-0.3902128651,-0.598785825,0.1482532189,3.3723182549,2.1697227165,-2.7771203116,-3.1996680263,0.9857427279,-9.8664064595,7.0179811984,2.3466453597,-3.1482048057,-1.2006886514,-1.5735677487,-0.1255001441,-1.5986815878,3.6065535245,-2.0843707111,-1.2031906796,-1.0091659429,-2.0963546289,4.5667373335,1.6093627958,-0.9550493354,1.4154694283,-0.0130262656,0.860393305,0.6493818915,0.1020095746,0.3205796076,0.1517924228,0.4969644896,2.1992946989,0.7545700544,1.2505484107,0.0065610054,0.448587324,0.3671389161,0.6096882981,1.7538527779,1.120714059,0.9554958798,1.3824634938,0.0177343855,0.56761423,0.1518760357,0.2752614376,-4.7045218748,-0.7496216255,5.9769454101,2.3494718659,1.0833861953,-1.3196755771,0.5108294972,1.698237393,-0.1928626239,0.6841002384,0.2061548908,0.5253976947,0.2676496929,9.4472041478,-4.1968620583,8.389322803,-8.5578561216,46.7452189215,0.4149387475,-8.6689575593,-17.6029255132,7.0759150485,3.8002738218,7.7929557338,0.2028687915,-2.1772153139,-5.7179778768,2.2362244048,5.9273558424,-3.7653542208,5.6352676301,5.0927683339,25.3710324147,-2.0920840044,0.7569489702,3.8620346797,-4.3948476963,11.347928148,-1.9507507377,8.5571403583,-8.1997415613,2.9337270441,-0.8520054297,3.5188250804,-0.5840847554,5.5601807557,19.6892530872,-7.5805128884,-6.3998947674,5.7918848713,9.3117589313,-0.3315857673,8.7151768736,1.0658043089,-7.5498618098,-2.0365966766,14.7251636732,11.0818529402,84.707875754,-129.3520324569,172.46719825,-6.6996360093,-1.3184737006,-44.0488446718,1.0409115483,0.0652405608,8.3514902129,-1.1968353134,1.6545976157,-6.8711057102,1.8284847046,4.0279492939,-12.192279454,48.5053009887,-43.1323352429,-38.1662293146,-31.0418695827,-12.3930300057,9.2547473143,15.4306494794,-62.9840075783,27.9193122088,-13.4773946031,-24.5788252318,198.9668969069,-39.1821211848,-74.1118633329,-5.7837477695,13.2512525389,-12.9100383283,-1.7318191966,5.0141961018,-11.7831127821,10.5419198207,-17.9384664882,-0.1910829169,-2.0326423478,-2.6939816803,1.0851291811,10.0958385182,7.6643666334,-6.4095874846,3.9757295365,27.6168118302,0.1363491425,-0.323619206,1.186355738,0.9432184658,0.1303868473,2.8244030466,6.2148055704,3.182530603,97.9964630314,0.3255158574,46.8110344118,-8.3813121094,-35.4177062153,4.711687676,-18.1676287794,4.9346592611,17.9494525227,-1.0924797213,8.0546263588,-1.0398947488,7.7675873119,17.2393965975,2.6926143653,-2.8156298945,26.3396338086,0.9817688941,-111.5724381646,-21.3793084604,380.6043616986,-87.916809094,-37.1136325987,101.2018317416,-9.9374252669,21.0348706444,9.9538511669,1.5826477665,-10.0828901582,8.4804229841,-29.8688870229,-13.9002414516,-6.3347043569,-142.4327080092,39.6041565178,213.3991735949,109.5888664788,-123.1405112713,-56.3949390322,29.857313613,114.7543847621,25.6532923496,-14.3940956138,151.7192044225,-51.9419253725,40.3375572882,35.186447471,26.2526358568,0.3089617152,0.4701528203,1.1072580873,0.6940686104,-0.0459500534,1.2518845388,-0.2621854874,0.0673006391,1.2094338595,0.433860233,-0.1566660259,0.5723983822,0.1251492462,-0.1560843187,-2.9114908198,-2.0111038999,5.1942541593,-3.1877911083,4.7425260674,1.0604234773,0.5953590376,0.5798330346,0.6006683834,0.7061625378,-0.0592346928,0.3709614054,0.0945916214,0.0708105859,3.5020016245,8.034139358,-0.4858621641,-1.1189914328,-7.8289018614,-2.2271811253,3.5294972425,-0.0375138268,-12.1595469402,-0.9220316102,-0.2942020152,-0.1372776848,11.0040619483,0.9104085269,4.2155795557,-2.9941762736,-2.7579303579,0.1589306946,1.4345325811,-1.3999097537,-0.0595115514,0.7252449266,1.2569157133,0.9167595957,0.6483516838,0.6245822099,0.0009006493,0.8218249103,-1.8999408808,0.8949242168,0.4729912156,2.0272586942,0.0700600208,0.8451130074,0.0485111134,0.7136759985,0.745370548,1.1957172001,1.0885925891,-3.0641036996,0.1485581324,-0.2544361038,-7.5436956616,-2.6651735697,12.1701910028,-3.5906432369,0.4442364171,4.9956171549,-0.1639850827,-0.4479263459,-0.0385382541,0.1722894456,0.7651478327,0.1252394016,1.291249853,0.7055517192,3.2651077483,-1.4273531068,4.7404153108,14.684015309,14.4641375577,-6.0361056199,-4.7810595402,0.6677633938,33.3010504583,6.4417675142,0.9681345834,3.064575352,-0.3873197204,-17.281867985,-9.0380865347,-10.5336455123,12.2490593464,0.2359502473,-14.6028972762,-21.4918032046,2.7823182666,11.3715634156,-1.8606753562,-2.1964584565,1.6291721489,-0.1753655583,-1.5794325712,1.2042226025,8.8332655851,-0.4508114051,0.3768127942,-2.1560835126,-0.2564067476,1.011415749,0.5713271151,0.4331513217,0.1541267788,1.2514144061,1.0221386241,2.4760898145,0.1805741571,0.4093957905,1.6034873601,0.7476436553,-0.9891536743,1.2802016079,-1.3731451579,-4.3198864158,0.4588563093,0.0071536588,-1.0685379708,-0.0153212623,0.0405053091,0.0940100668,0.2129448655,0.5673427575,-0.0878950663,0.1058137435,-0.0257552637,-0.0584992882,6.5038779477,0.6194477778,0.7632698656,1.1185993227,0.0597436398,0.7286308602,-1.0169487774,1.366981025,1.9702063799,1.0761877408,0.5330358646,0.1973003225,-0.1252337094,0.4789314578,-0.6711575083,0.4186019886,1.9907336819,-1.0572139241,1.5389616433,-2.1334256522,-0.5917504573,-0.1753351718,1.7502935617,0.7858186924,0.3064743588,0.5241893865,0.2745607866,1.0583281027
