encog,BasicNetwork,java,3.2.0,1,1430853433661
[BASIC]
[BASIC:PARAMS]
[BASIC:NETWORK]
beginTraining=0
connectionLimit=0
contextTargetOffset=0,0,0,0,0
contextTargetSize=0,0,0,0,0
endTraining=4
hasContext=f
inputCount=48
layerCounts=1,19,37,73,49
layerFeedCounts=1,18,36,72,48
layerContextCount=0,0,0,0,0
layerIndex=0,1,20,57,130
output=0,0,0,0,0,0,0,0,0,0,0,0,0,0,0,0,0,0,0,1,0,0,0,0,0,0,0,0,0,0,0,0,0,0,0,0,0,0,0,0,0,0,0,0,0,0,0,0,0,0,0,0,0,0,0,0,1,0,0,0,0,0,0,0,0,0,0,0,0,0,0,0,0,0,0,0,0,0,0,0,0,0,0,0,0,0,0,0,0,0,0,0,0,0,0,0,0,0,0,0,0,0,0,0,0,0,0,0,0,0,0,0,0,0,0,0,0,0,0,0,0,0,0,0,0,0,0,0,0,1,0,0,0,0,0,0,0,0,0,0,0,0,0,0,0,0,0,0,0,0,0,0,0,0,0,0,0,0,0,0,0,0,0,0,0,0,0,0,0,0,0,0,0,0,0,0,0,0,1
outputCount=1
weightIndex=0,19,685,3313,6841
weights=##0
##double#6841
   0.5233451224,-0.4839779324,0.4300900077,0.1088065835,-0.2923497381,-0.3987694455,-0.1409382937,0.3670410834,-0.4511034105,0.8671649469,-0.0691718113,-0.4698828272,-0.1480540067,1.1671714061,-0.4234534844,0.6063289123,1.0182367246,-0.099082765,-1.2235756801,0.8692763481,0.4321948587,0.3056613633,0.1505115779,0.2940521004,0.5936482377,-0.0428308035,-0.6502908185,-0.1371037686,0.5055315821,0.6087082542,3.321200155,0.5596047719,0.9920624458,0.1143293618,0.6106596603,0.9828838917,0.9340779403,0.5921223172,0.2964219756,1.334490257,0.3766445101,0.4054778882,0.0136393123,2.2719129024,-0.1666494024,0.4917038392,3.6688117401,-0.0103619396,-0.1422983245,0.6392623375,-1.5627778123,-1.0455813535,-1.0150282786,1.3874529938,0.4427432055,1.0383619237,1.1900376966,-0.0896585041,0.5285308625,0.0578049186,0.8833665636,1.0079588916,0.9533977234,-1.7550663587,0.4493601346,0.6233329321,1.0474788927,1.5538332862,-0.2691745292,0.5113316135,0.9464575433,0.2107857096,0.7131850486,0.9978840199,-0.3726082022,-0.5029274196,0.226469457,0.0604143515,0.5347521897,-0.0336312438,1.2824005648,-1.2186526344,-0.467492106,-0.0933051701,0.0464766284,-0.0154236374,-0.2745357197,-0.0947032829,1.8461537392,0.2877396617,0.895819915,-1.1486937625,0.0993024668,0.2818820322,0.4042036982,0.1210009826,0.7403850139,0.7316923636,1.1548619657,0.1506608271,-0.1281124112,-1.095513472,0.0244780853,0.476406398,1.3636156704,-0.3766096415,0.5694622304,0.7518701978,0.459421154,0.7719403479,0.7505625737,0.3165425925,0.2902098317,0.9279591501,0.6531729941,0.4560946681,0.2670932163,0.9727244322,0.354847598,-0.2511537073,-0.0387909029,0.0478897946,-0.1964202164,0.3978878553,0.2811670598,0.203761181,-0.0580179127,1.0555315975,0.5293190411,0.5743867971,0.6020129561,-1.1100686219,1.4770768995,1.169199113,1.2107431764,3.5996235656,0.0252853607,-0.4320082422,1.2245201864,-0.0961983673,0.3987498474,0.5160149398,2.9607739985,3.7190119712,-0.759448126,0.3164269908,0.4172305399,-1.3590054644,-0.1703880547,-1.2227185925,1.0049204269,0.7054663415,1.4908981362,-0.0428663946,3.5931766903,-0.2530093645,1.0677254065,-1.4405758511,0.2782476242,-0.5058011246,-0.49245452,1.5735790916,1.8913480714,-0.4013302522,1.5129571552,1.1335504332,0.5856789574,0.5661785691,-0.3320426618,-0.2430341185,2.7179466952,-0.163615488,0.5565156917,0.1308861273,0.6666238703,0.1394403977,-0.2056262541,0.2070795285,0.8911756529,0.4729557495,0.7709695756,0.4245661286,0.9185496542,0.8047151411,0.2156514711,0.6488588234,0.3581412694,0.4640261492,0.7640084726,1.9247382349,0.6331699831,0.6766803767,0.6999282809,0.3386558066,0.7120945958,0.3292504773,0.586291065,0.7520020933,2.0213517837,0.3995499298,1.0033484387,0.6977524385,-0.4681407405,-0.4733493853,0.0646632839,0.4588194261,0.8850144078,-0.8957623185,0.3186462888,0.3762269768,1.2892782086,1.3341310433,0.1026529324,0.4195827919,0.2453235678,0.6593091295,-0.3835837141,0.0565840582,0.7894512786,0.1941826071,0.6884389476,-4.5659690309,2.6110692867,0.6378004784,3.1031202685,-1.5537531089,0.7152943533,-0.0830932796,0.8571716706,-0.8217960288,1.2390871515,0.4558489863,-0.6366772117,0.7235122313,0.6602114912,-0.3535270419,-3.7779435367,-1.151445278,-0.382754685,-0.8387466031,2.6554723805,-0.2314883575,1.0274954523,5.5453672485,-0.1856121043,0.6574740698,1.3103067386,1.9600505323,0.1978467423,0.4800036293,-0.150674168,0.1596407344,0.4431645533,0.5616243849,-0.4961037279,-0.0609548154,0.1173173137,0.8183427947,-0.2417158068,-0.3298856013,1.9024540241,0.8595119172,0.5346979997,1.2142579769,6.2876179141,1.9630108769,0.5809834623,0.9666651027,-0.5735035844,2.4298698381,-3.1243576868,1.7719394452,2.2104538943,0.4721204202,0.4988448313,1.5846750135,0.6982909822,-0.7517656751,-0.2244462161,0.4607640847,0.1438235767,1.4839248742,0.5489357338,0.2143330969,0.3035984291,0.0264375976,-1.6576367713,0.6524786399,0.8572113089,0.1990777595,-0.1943227114,1.7692429596,0.7225378139,-1.0182399169,0.3290386181,0.5233706501,1.0343681618,-0.176492121,0.7866746634,0.4649606774,1.2422704283,0.1395185697,0.5072036706,0.5307249709,0.5584660701,0.3895845795,0.0484700026,0.4742057473,0.2438415154,0.4066044924,-0.1046630659,0.2668470588,0.4103023581,0.2069992266,-0.016872789,0.9557730724,-1.1744923544,0.1242065358,0.3705524051,0.0874744131,2.4519643708,0.4936047243,0.3432362026,0.4989432157,0.6503172938,0.7435810251,1.7959196314,0.0239588737,0.085619914,0.8126019429,0.4703863924,0.5725351713,1.1042192795,0.2855444953,-0.2061726287,0.7708924458,0.1776021714,0.4693224137,0.0759802459,0.9688039494,0.4012970477,0.2615200175,1.7320873693,0.0607451996,0.0249761868,-0.0986190948,0.7459874923,-0.2989074571,0.367666204,0.6048079608,-0.2764439299,0.3537259656,-0.6795817517,0.5622520404,0.4435355056,0.1442520906,-1.0212937376,0.5347412752,0.2602273727,0.2352507635,0.8691385369,0.1830686088,0.4212270663,0.4242269447,3.2588632779,-0.1263505756,-0.9419259631,1.1777656413,1.7917332985,-0.2362683627,-0.1043200219,0.1288979241,-0.7609464426,0.8334836675,0.5954704385,0.4671716098,0.0711940739,0.2046551199,0.4166330206,0.2022503103,0.7124989535,-0.3765117765,1.5817184533,0.6806768168,0.2483362564,0.3858018722,-0.0456720019,-1.4979646288,0.029768155,0.6472807265,-2.6081516736,-0.2342108311,2.5325965547,2.0343652393,2.3219077785,1.1418423047,0.6334140618,0.573508542,-0.4391121397,-1.4643518095,0.3154015942,0.8279875058,0.9592220403,3.3036464605,2.5834447597,5.4456901527,0.8206455659,1.0599734556,-0.1744458206,0.4729423047,1.0190693357,1.8879111261,0.4658277732,0.6079778408,-0.1058571143,-0.4020642748,2.6542302048,0.4535511504,-0.5394493319,0.5380915644,0.4873448789,-1.5764039968,4.0821105913,-0.1450160864,1.4782990113,-0.1168183052,1.7917349269,-1.8421596446,0.3612998127,-0.5531994524,0.335809488,0.522616474,0.9092257678,0.4454061128,0.9683876324,0.1038305762,0.792347024,0.6171577796,1.3756257063,0.1212202258,0.1869041791,0.1027704521,-0.3451138751,0.2210109775,0.6437044404,0.4221380269,0.3138285451,2.2229298936,0.4163759087,0.6948834326,0.7030436558,1.7543281323,0.6199830634,0.2049444578,0.748858237,0.131955203,0.7106043505,0.7431038035,1.6675532069,0.0904797006,-0.5920640077,0.608652178,-0.3756981818,1.1589260111,0.8610959278,1.3914289324,-0.4679173961,1.5582387575,2.2944809249,0.6751938717,0.7441549068,-0.5572352458,-0.0854201058,-0.9657147869,0.5737009161,2.5482222245,-1.7773844951,1.6352020409,1.8567573904,4.4983443056,0.2249797136,0.419018031,1.004572434,-0.2403541559,1.3802686108,0.1037115401,-3.5558914117,0.1333423523,0.0930467723,0.2424719909,1.2513145157,-0.9032417762,-1.376029289,3.899996042,0.0231263575,0.5960698794,3.5988822655,1.6929330364,2.648554941,-0.4975235065,0.6538924571,-1.5208922066,-0.7891081024,-1.6542387562,0.4685520427,0.0879043799,-0.0101692369,1.3818266684,0.3088721229,0.2684984851,0.5437920254,0.2623526732,0.4936835982,-0.1578882399,-0.0353703669,0.4658343749,-0.038888872,0.3896169054,0.2682338452,-1.604603274,1.039677809,-0.1362478107,0.0650612792,-1.1121935079,0.6642368489,-3.3666384099,0.6084091443,0.5081248519,-1.6550975684,-0.4483872906,0.1360111433,0.5556843739,0.5343942621,0.4726909333,0.7677330125,0.3126659597,2.8386119961,0.6210071569,1.2673042189,0.712061849,-1.3221984694,1.0922801984,1.0011413207,-0.0622641553,0.3196994478,0.7507717398,0.7060820209,0.8153673209,1.0275785383,2.7505065754,0.8850699575,1.0848142795,0.0362538173,0.7222044341,0.9033955049,-0.1646014217,0.2095708871,1.0999754924,0.6965404561,0.9251047396,0.513559039,0.0982059875,0.1783019039,1.7930472759,0.2342400917,0.1363128968,-0.1003519543,0.3105011766,0.5786786875,-0.5142419577,0.9603387367,0.546669658,-0.5152889015,-0.4347444965,-0.5325107433,1.0891835762,0.0972018971,0.0114235924,-0.3879972481,0.0721574801,1.0211059443,-0.1591982785,-0.3390631469,0.5243135217,-0.2726855031,0.5431689318,0.0543385221,1.170935461,-0.9892918183,0.9822056779,0.5514365705,-0.1406235178,0.234350442,0.6727882033,0.4220702813,1.1278646672,0.3531855223,1.2778158086,0.5814942068,-0.448685134,0.4423662509,0.6913303388,0.4572582631,-0.4565316925,0.3493341406,1.0284747225,0.2333459852,0.4914296576,0.2145133252,-1.3598645637,-0.7675936932,0.612915889,0.0108443813,0.6926822044,-0.4567063501,0.2390677942,0.2568679525,-0.0669153668,-0.519823473,0.0421065351,1.0324712147,0.8289253694,0.5989421199,0.0856319022,0.1450551549,-0.078342512,0.6051361438,0.4724706568,0.7836072228,0.4574510277,-1.5018496349,1.6285066005,0.1418975807,0.4777443348,-0.2668970271,1.3989235763,-0.2964281778,0.6010844357,0.3885331315,-0.5636757124,0.1602930037,0.2643162306,-0.1558766285,0.2859112182,-0.24967032,0.2629121123,0.3947077281,0.6338444038,-0.1793861298,0.1146742028,1.0024860942,1.0795578018,6.3834375932,0.348360978,0.7272847095,0.4910035467,0.5360832913,0.3960884864,0.2044312677,1.9223131887,0.5272411056,3.6272821927,1.5027396217,-0.1494500255,0.9544572881,0.0561660895,0.5710607105,-0.1999509209,1.5306887641,0.8946887859,0.0325054529,1.1402242567,0.5158834228,0.9601601049,-0.2476677395,0.77860139,0.01998048,0.2967868086,2.7789854084,-0.4963163992,-0.0747215876,2.0906651479,1.5561112358,-2.3331790212,-0.6852664012,0.5310736902,0.4130628113,-1.136609035,1.4170690393,0.1838864032,0.6105544263,-0.69111125,-0.493144177,0.7036756871,-0.1865134386,-0.0731488914,0.2616975199,-3.0752376663,0.5549495083,0.3333290158,-1.6780567023,0.8145678407,-1.5555990688,0.0556215628,-2.4441390585,0.430992536,-0.1742992284,0.2204180709,0.6086621497,0.6761055964,0.5573751681,0.8730995897,-0.4593095349,0.6773995273,-1.2002605366,-0.3995396698,-0.2564966477,0.3297825694,1.0986285478,0.5261381488,0.5053262416,0.3025040957,0.3546184673,-0.2244543896,0.5691316571,0.227082794,0.6203706548,-0.0313050249,-1.1314282267,-0.3997825977,-3.5809339716,-0.6485620319,0.4312317906,0.092577081,0.4595396983,0.5955295874,0.8552842424,0.5697200371,0.1519305495,0.2221102061,0.712565831,0.0918457806,-0.1214840175,-3.4904917082,1.7136212686,-0.0588155261,0.7792239911,-0.1946464613,0.6083697361,0.1457715229,-1.6230709855,-0.1436770164,0.7251571963,-0.8272501829,0.9508455861,0.5285237662,0.1631938994,1.4022961018,0.3682006633,0.0401113159,0.9259749181,-0.5465622895,0.4262613008,0.3246710718,0.6453482879,-0.1531608824,0.8284573644,0.478327366,0.4762619263,0.0768972039,0.6189756265,0.4159392151,0.2842670932,0.4919870294,-0.1428835834,0.4937061296,0.2823545197,0.4963244371,0.2473690735,0.1408567573,0.2853866764,0.2908292767,2.141097146,0.1333242696,0.6387247233,0.5112233844,0.3923891064,-0.0499205988,0.9179987222,0.6746623564,0.2119395517,0.7738084874,-1.5972570749,0.3676596456,0.2620061822,0.6237981197,-0.0924731794,0.6322996242,0.6366350756,1.0648041797,-0.093744389,0.0661358717,-1.4130823715,0.2981194728,1.3686559622,0.6387795279,-0.2534479938,0.8976718675,0.2961281659,-0.0257762428,0.3287378755,1.1827140773,0.3819092619,0.3243778667,0.0128586491,0.2364321647,0.6585638187,0.4822095327,0.9329388194,0.5527943886,0.6688274045,0.084116446,1.7299828504,-0.5721840642,0.2326118745,0.7501424222,-0.3571867376,-0.6234909588,0.0970384754,1.1547232563,-0.5717546328,-3.2788133473,-0.5494053482,0.4591050126,0.6611411148,0.8673881834,0.3002600923,0.6349800085,-1.5499248588,2.1895362827,1.1418430864,0.1651709883,0.6625409295,-0.0764883431,0.406905666,-0.1094555658,0.6891675858,1.1091515955,0.8792054485,0.0174615332,0.4501933246,2.6061753122,0.4483496763,-1.1114223128,0.264588144,0.3937158219,0.3782388743,0.1011244829,0.7380562623,0.7319683052,-0.5925597367,0.1515140899,0.277013739,0.0447913409,0.2385682778,-0.5953779842,0.4808693895,0.970417293,0.6688788992,0.8653073046,0.0662005737,0.0946547288,0.6733811544,-4.0498660067,0.6526160956,1.0759149878,-0.0729932351,0.3309184157,0.5453836404,0.3679204499,0.8120590432,0.3564241846,0.6237533069,0.2738396214,-0.0874375196,-0.3583555522,0.7111646516,0.7016482583,1.6568718723,0.2241150332,0.3048772134,-0.183336876,0.2095244685,0.1232181313,-1.3484073689,0.3139966137,-0.5253172993,-0.5328559087,0.3378511268,-0.1971852157,-2.0181519297,0.6488895525,-0.0994200339,0.224726312,0.346582256,0.6967919249,-0.8017669038,0.4205529543,0.4999196504,0.4570848786,-0.1472428161,0.1757367857,1.1110446531,0.0734127128,0.3993972767,0.7942727941,-0.1483392328,0.5303057167,0.3167325568,0.3057563714,0.8457582068,-0.8742894102,-0.0932475452,0.4222145506,0.8091722038,0.7044919061,0.3775019444,1.4863043369,0.7527243822,0.8689440056,-0.2719589291,-0.372497662,0.2133357214,0.2422873259,-0.1679961406,0.905161027,1.1152297946,0.5548201131,3.9227177967,0.2743623143,0.650269227,1.379662623,0.036585473,0.5911200581,0.7375298406,0.7813240159,2.8101901278,0.9105415768,0.1836232314,0.0728033771,0.9944406822,0.1813032324,0.247523031,0.7571110242,0.0448859656,0.8265895356,0.631402279,0.8624279563,0.5321344669,0.6085865194,-0.6310806612,0.7224415303,0.457261971,-0.2073987123,0.8357101615,1.2590409754,0.6526623383,0.4847921088,-1.2208979211,-0.4073507805,0.0661099826,0.7464932805,0.1519326485,0.3178936074,0.1578662837,0.5557709625,-0.3254423547,0.2667354783,0.3073340658,-0.4011349596,0.3377992924,0.1429059796,0.5499536859,0.361096425,0.5475658688,0.4717839698,-0.035743139,0.6786224214,-0.1019373206,-0.1995250109,0.6208993129,0.607265905,0.0339663072,1.2002537312,0.214031757,-1.1858736289,1.0535065109,0.4982361959,0.2458598629,-0.5030521503,0.8316409417,0.3616664865,0.5991732787,-0.0230096652,-0.2100956602,-0.104147955,-0.0747703216,0.308642143,-0.1916798579,0.4367159122,0.83047905,0.6174773014,0.5419063693,-0.0865401362,-0.1248712738,1.9582484238,1.7313561932,0.1714275769,0.2281306265,0.1943853993,-0.5131783214,-0.1345755743,-0.1654650903,1.624772504,0.1070573674,-0.5189940825,0.8323692136,0.9675237315,0.3814064453,0.166950247,0.2977598531,0.2805215387,0.2521152066,0.5441210363,0.3270506172,0.5959280789,-0.140556351,-0.0610444427,0.4080414268,0.9951200936,-0.6924909974,-0.7932771543,0.8219910305,0.3160697331,0.0354965785,0.5397771701,-1.2815463772,0.3302849812,1.0588045434,0.871631315,0.2488098871,0.3301136767,0.4384865395,0.1175420575,0.1694151911,0.8506466943,-0.2068437866,0.1026073639,0.898826775,0.1791703377,0.3652326721,0.3219441847,0.3297321815,0.3782445555,0.2822258918,-0.1098626733,0.5026578898,0.2187112499,-0.322526384,-0.2583683367,0.5990880254,0.0409780882,0.0997503527,0.8027484793,1.3114927958,0.1200235551,1.0798482099,-0.6760000207,0.0741294305,0.5638551465,0.2997322832,0.5532167236,0.5527192579,0.9650378479,0.2374378468,0.5296445603,-0.0514601507,1.7079388972,0.8378713256,0.3300215949,0.8922170604,1.1339923305,0.0147224735,0.311119483,-0.7012355255,0.1619453518,1.5833734299,1.0615421768,0.367129502,0.0343671383,0.2693620059,0.4889029864,1.4742689512,0.4433360755,0.6055092364,0.8189999955,-0.8486774623,0.0910407647,0.3916189693,0.2236875523,0.4578650664,-0.1068284105,1.6038522402,0.500648933,-0.0140867085,0.0895906976,-0.0383075123,0.5333315985,1.3289139807,0.9430531026,0.3036220548,0.5797272706,0.5817529669,0.8083725061,0.6042787141,-0.8475728448,0.0319867222,0.5576818978,0.2651876301,-0.302037384,0.4247232866,1.6016285591,0.7458468138,0.5372388105,3.7015348052,0.193447861,-0.3838693861,3.1349791915,1.1071012753,2.4510556969,1.756812196,0.3917800298,3.7399647434,0.775816147,0.2515954961,-0.3307674526,0.6483028179,0.6930107459,0.6402141017,-0.3679968024,0.0850580829,0.1340198964,3.5558151504,0.1455300768,0.0227821634,0.8989532933,-0.1124828102,0.8367571481,2.0494570402,0.0730891556,1.7924427381,1.1215242221,-0.6092997029,0.4941230179,0.8174827235,0.8581854655,0.7166101283,0.8318649741,0.5763797998,-0.030254143,0.9441211459,0.4531879804,-1.5469899349,1.922009352,0.5363166691,0.6700855763,0.8192196535,0.3764532675,0.1154480436,2.5583406858,0.7590375137,1.0543611044,-0.5502170463,1.0252347162,0.605922485,0.3148395817,-0.6441795173,2.1689190179,0.4135787813,-0.0428361791,0.2314708194,0.9249567311,-1.280548182,0.2401844493,3.4103786168,0.5257678448,0.5782486923,0.4519296618,-1.1527641654,0.3807737019,0.4993275478,0.1812910047,-0.6696843832,0.5806416503,-1.8911876008,0.338659335,0.365594166,0.6655005648,0.5959169524,1.2394250835,-0.0397774093,-0.3983163875,1.3737718013,0.6534268954,-0.6315112998,-0.4224065444,1.3865130233,-0.5610029218,-0.04672346,0.6823449538,0.1379566028,0.2956049782,0.1918339334,0.4312515464,0.1251883141,-0.0940567265,0.8537608884,0.3436902774,0.020208423,0.3012464116,-0.163670885,0.505579817,1.0921877837,0.519955909,0.1892099276,0.1688852703,0.9323430498,0.1012586074,-0.2031554334,0.7230091021,1.9143142354,0.1399500025,0.595685844,-0.7445171974,0.2218114931,0.5193001212,0.7272773835,0.4055702608,-0.1810559347,0.5293699528,-1.7889647673,-1.2190341067,0.7116700332,2.8094046223,0.3888539431,-0.7755491297,0.4196823709,0.2030100497,0.2713039814,-3.4716474101,0.4590166154,-1.1363032424,-3.1629476177,0.6864236206,0.0167661244,-0.2771866333,0.2842053414,0.8137104036,0.0028680475,-0.5648097913,0.2235110888,1.9038764406,0.8901672772,-0.2257453788,0.5828175815,1.4951961542,0.2640327725,0.6121061326,-0.2667484415,-0.343106929,-0.3057243748,0.7378278168,0.0524534169,0.3280405521,-0.0006965173,0.6096459471,0.1557472699,-0.1379058175,-0.4474963591,-0.1214132923,0.4018815706,-0.8653450398,0.7153582839,0.7396386433,0.2092413306,0.9031474542,0.3774919154,-0.1564584479,-1.0797633779,-0.8134683622,0.4618656478,0.4215351354,0.3431556711,0.9587621404,0.572359821,0.1691776005,1.1475755361,0.7949389588,0.163329579,0.9171317472,0.5722217169,0.6284578164,0.3611648209,0.538258162,-0.2310274765,0.3336906143,-0.1772771385,0.1591012295,1.169944094,0.5823523777,1.5503175736,-0.0663874984,0.6482664704,1.4076966183,0.2625027766,0.5971286506,0.3097754546,-0.0235067114,0.1098732667,0.6588009237,0.2844128752,0.9212938521,-0.1242176143,0.9974144042,-0.0910196795,0.1037570952,0.7812888701,0.5688023345,0.960411955,0.1013330578,0.4527069104,0.1615335155,0.1471431503,-0.2983233334,-0.4091463948,2.1626931314,0.6016292298,-1.7746862757,-1.48186462,-0.1033462176,-1.1656374408,-0.0667978147,-0.2041163834,-1.1606341287,-0.202140352,0.6501889907,0.4501920021,0.4293066921,0.2254966076,-3.0926127137,-3.0107242397,0.0590763752,0.2403251819,0.1383237,-2.4503261159,0.8328578296,-0.1570643046,-0.6251817986,2.0994836485,-0.3065900181,0.6686356782,-2.1999103101,-0.0341601042,-1.5278196829,-0.3934154105,4.0983206774,0.3020947168,0.1879689706,-1.1003762168,3.0007981191,0.2970332497,0.1718395055,0.4234428194,0.4443554475,-0.0673444268,-0.1701531848,-0.3748378376,0.482503265,0.8592539281,0.4211810448,0.0974549687,0.4967911095,0.5232230631,0.0803061617,0.4939975577,0.3666105029,0.179095579,1.2118110698,-2.0441373359,-0.2818533344,0.1746644427,0.0136471211,0.4945988649,2.0970057304,0.3164124799,-0.456172879,0.0415047586,-0.1872213569,0.3425560787,-0.8374272547,0.4061022734,1.4924345787,-0.0141056451,-0.2162008333,2.379907433,0.4230107817,-0.8991376262,-0.0068234998,0.2396050581,0.144131101,0.3551829168,-1.137910728,-0.1980936756,1.3492380728,0.4253764157,0.1513323516,1.0655155708,-0.0479348106,1.5786986264,0.4067489512,-0.2337104411,0.7704207493,0.0933691896,1.0856904597,0.0977867166,1.5658191436,0.0565599387,-0.6325066347,0.9622620906,5.6971899725,0.4517711873,0.405259272,-0.3806041082,0.1860167915,-0.2850643228,1.3802520634,0.3704160215,-2.1597943363,1.5069397675,0.6429812623,0.3152115616,-0.8774877183,-0.0875416572,0.2224463542,0.6343373769,1.5290555513,3.0807834535,0.2620470318,-0.2092003722,-1.9448777372,-0.3041208186,0.6975841012,-0.8596130743,0.394113387,-0.1260943572,0.0709000968,0.6043638243,-0.0337656333,1.9317182324,-0.9298972505,2.35760605,-0.0130362089,0.3572866767,0.1725536449,0.7069310653,0.7870061648,-0.1647577797,1.0079613548,-1.6715550986,-0.7594605617,0.4702971759,0.5908257918,0.7050111727,1.563572715,1.3223609432,-0.4844683799,0.735347008,0.8904929854,0.2895472728,0.1474601654,1.2160989231,0.5765386569,0.7159023382,0.5904768209,-0.6496174574,-0.3152848176,1.3010211072,-0.2423363824,0.4115212361,-0.3988034111,0.3586811466,0.4004239876,0.4141278046,-0.4604028913,0.5293289862,0.1227471862,0.675880693,-0.4546632177,0.2986846158,0.7759037864,0.107104237,0.4987524121,1.397004028,-0.0456052068,0.5199141089,-0.2154922539,0.3005922742,-1.8122545622,0.1136429702,0.0949863866,0.4044609345,0.4443800821,1.4992517096,0.1369656123,0.0504547808,0.5972117198,0.8392010337,0.6050158005,1.0906177689,1.0601196858,-0.2787682493,0.1365072826,0.0813182781,-0.2534397425,0.8558375325,0.4245829618,0.3681422215,1.0278112711,0.703926162,-0.0966868191,0.8112529804,0.7032711973,0.5887553028,1.0456064903,-0.3945660012,0.3816799807,-0.1632895987,0.2470400784,-0.1835789828,0.4893300146,0.6117334056,0.534418541,0.4711429867,0.1124800524,0.4298270459,0.3678887285,0.8927904709,0.6727342477,0.8903143454,0.462663139,1.4276098312,0.1971112372,0.1393463625,1.4462790517,0.2179748812,-0.0832677643,0.9531647771,-0.1191019348,0.6064674599,0.1391592886,-0.6400502907,0.1593027365,-0.3447909857,0.2652500262,0.11885315,0.0135439342,0.1368932042,0.883792617,0.0976680049,0.2025544928,0.1909590057,0.319196067,-0.1151407951,0.4460345522,1.1953359354,0.2836410067,0.1883208224,0.7993454528,0.6685764585,0.3607852879,0.8026547441,0.0126043917,0.6991345578,0.6768545933,0.1455858373,0.5421199476,0.1212969715,0.975219277,0.0870678251,0.2880147504,0.2686270217,0.5124662055,0.4570574726,-0.1011348542,0.7857267668,0.2081812052,0.2289714253,0.1391919285,0.2600381029,0.3619639249,0.5578693443,-0.0106904087,1.1091509023,0.2701094483,0.5542784693,0.8505222494,-0.0390848204,0.1039530241,0.0480030613,-0.0235511689,0.108898849,-0.0793816792,0.4936978656,0.4996534665,0.3207176923,0.3769269924,0.5277534541,0.6622806569,1.5171749615,0.2650153687,-0.3116307987,1.2458013321,0.6415435393,0.0224400434,0.1030290714,0.4147795879,0.3809883837,0.3924626359,0.9233196471,1.3809786056,0.3833900732,-0.0560778161,1.7454657948,-0.0435500791,0.7074648005,0.136619515,0.1049479351,0.8350721456,0.9381042415,0.6365507948,0.5862866026,-0.072101054,-0.112298022,1.0487360058,0.3087459736,0.6349842243,0.3329427762,0.2445546674,1.1808206072,0.2750267103,0.512014832,-0.0447689211,0.0636646263,0.1326383285,-0.0635831323,0.1874992357,0.7545101559,0.7085491036,3.5731570935,0.4360377894,0.0611672894,-0.0097708436,0.3453370943,0.4178548702,0.7453217761,0.947332212,0.0602516841,0.0937272657,0.2187607518,0.5515357869,0.851112119,0.1579562275,0.1917344205,-0.5968739788,1.2852418596,0.7490146644,-0.2861559132,0.4417745329,0.5323072735,0.7997815521,-0.5731753609,0.3286563739,0.4687298826,-0.6658899216,0.3978117379,0.3294442752,-0.1893335245,0.4477627477,0.5141173366,0.1516180693,-0.6949716429,0.5714954169,0.1486541452,0.3702756187,0.1772766852,0.7727804611,0.7370892483,0.8575087537,0.529849154,-0.0114503682,-0.704466559,0.2427965323,0.1060200011,-0.9684375156,-0.151698579,0.7411418572,0.3358125275,0.2318916807,0.1027682447,0.6113937433,0.2042730878,0.5328716505,0.2710919204,1.0049368395,0.1656010877,0.3829433624,0.4095686494,0.8007573891,0.6162868759,-0.2424245029,0.6773654414,0.7395263066,0.4876097287,0.1978211294,0.2639544891,0.5892494983,0.1768078773,-0.0427898023,-0.029290441,-0.1125350694,0.6264979529,0.7137964734,0.5289668284,0.0459487055,0.8919572783,0.4941665752,1.4888313106,0.4992266695,0.3454908998,-0.1513784022,-0.3662624673,0.9983865802,-0.0722357295,1.234864858,0.448297367,-0.8536224341,0.0345788921,0.8779840236,0.9420763489,0.5566335774,-0.2790762664,1.2155069975,0.4746906414,-0.3559051615,0.6046777244,0.0383163217,-0.0558125552,0.3196798489,0.0424920358,0.1095578678,0.1614560064,0.6306255048,0.5726701289,0.8592671023,0.4894218695,0.2253479025,0.5418070218,-0.2413907578,0.4097810038,0.5956723228,0.3308153559,0.2663378734,0.7573369398,0.4672302066,0.5625154608,0.6951258799,0.292706691,0.5397906558,0.9619163477,0.09496106,0.2914210879,-0.1665589455,0.5106624606,0.7070029591,0.8993155517,0.3258998531,1.2064000463,-0.0824254953,0.458363988,-0.5834430948,2.220862173,-0.0298592808,-0.7517686366,0.9327186525,0.4118130476,0.1704453061,0.4296415356,-0.1152686393,0.557890865,0.2699557727,0.5996978841,0.1246419633,0.4506509095,1.1367119503,-0.5457578339,0.3564864249,0.5976331189,0.6956696786,0.3226398517,0.7925958595,0.9865876753,0.4607354541,0.1142147514,0.3632512537,-0.3466658928,-0.0122444712,1.6030820634,0.1634592626,0.858961248,1.168851922,0.4937103907,0.6941224526,0.7084892644,0.004705405,0.6744178241,0.5784896189,0.4872537177,0.44909203,0.1687735667,-0.1747843343,0.053102885,0.3109516313,0.052419748,0.9513769825,0.110534776,-0.2266029845,0.4049073583,-0.0883290118,0.0728364958,-0.7531632442,0.3997800238,0.5127438974,0.6444871251,0.1470766487,0.1786821566,-2.023931215,0.0178826729,1.0232836388,0.2596087649,0.3790131808,0.4973552587,0.9196023784,0.1176722044,0.5223964543,0.3189305344,0.3132579074,0.8786002025,0.5421474059,0.292869199,0.2380001502,-0.5665971246,0.2536057063,-0.0698549972,0.6290719897,0.0992978229,0.1552376153,1.0739742633,0.4564111922,0.8466468917,0.2071021873,0.7698966453,0.6828191428,-0.7899627053,-0.0227374229,0.2006402989,0.7046791748,0.7080892834,-0.1141974381,0.037480189,-0.0050540357,0.3474732382,0.5946479502,0.5646779566,0.4497707962,0.6122488432,0.4863217039,0.2534108699,0.0357572999,0.3194533605,0.4845415855,0.1972310506,0.3355792265,1.1970874612,0.287150159,0.5804794301,0.3444595644,0.5423605684,0.1438760903,0.5833577914,0.0712845764,0.6042692658,1.1939836531,0.1862215873,-0.8562313678,0.1640726001,0.2560607878,0.5755787669,0.198787644,-0.0488646838,0.4475501645,0.1810230821,0.8949212078,0.4167846778,0.4884649328,0.5873955979,0.5282467182,0.4283887444,-0.3936689489,-0.0623963987,1.176233472,0.0999593595,0.2094247201,-0.9074795417,-0.222300173,-1.2061918466,-0.3280704265,-0.9155348423,-0.3026274271,-0.9905852565,0.3760695411,0.5252870551,-0.9231727328,-0.4930060225,-1.8842364163,-1.7980929058,-0.7091441411,0.0731917058,0.3118973997,0.1536838973,1.0125455826,0.6855772562,-1.8724572526,0.9789283865,-0.7507653719,0.4709392714,-3.4148762728,-0.2238919148,-1.0763955033,0.6311113462,1.742469837,1.5524552123,0.5712276308,0.0227786896,0.2412032315,0.6713253735,0.4534885321,1.4388407931,-0.1144912838,0.115695097,-0.8677093802,-0.60731409,-0.9199637592,0.3428619673,0.7764304039,0.6080315941,0.5683252193,-0.7479534973,1.0954258352,0.1478042348,0.6518175745,-0.10074475,-0.0729383582,-0.0454594836,0.4622947833,-0.8590535487,-0.7428829769,-0.1103782913,3.125540507,0.3504121739,-0.8089744558,0.0414638207,0.0544554695,0.5896554781,0.2051867736,0.8636382491,1.0696164399,-0.004457525,-0.6641935394,1.9183774216,0.474925293,0.4958910655,-0.072315742,-0.7354248809,-0.1256493329,0.1171219089,-0.7768063758,-0.2955288703,2.6031759778,-0.0148214276,0.0702324916,-0.0973492771,-0.8658968642,0.5266950727,0.798416185,0.1821641475,0.1270589485,-0.6887485109,0.7035348105,0.2539191478,0.5294504837,0.0228036471,0.253672391,0.5072626305,-0.176351593,0.4698925199,-1.2317356356,-0.1959654756,-0.1525539406,-1.0227807244,-0.6463650892,0.1361417941,0.6472088901,1.0735397294,0.5264742619,0.5012759996,-0.1312111259,1.6044366099,0.3482176404,0.364600607,0.5708932727,1.9372389151,0.3854938202,0.0781702907,-3.1834605228,0.0163786879,1.9541828517,1.1621431343,-0.9467053448
   0.3472000032,-0.0489648428,0.1226682834,1.3966909253,0.135095608,0.2821270886,4.3587379849,-1.7771596804,-0.0576786301,0.1743538352,-0.1378498434,0.5265559558,-0.1847484795,1.0134105292,0.4029037527,0.6876793439,0.2442326008,1.0533730724,0.6062257566,3.3812808732,0.6550999144,0.3301895718,0.7166185897,1.3791766366,0.3360629766,0.7697804613,-0.1542962055,-0.6427979864,0.2769031394,0.4140151479,0.3340209113,2.0147512087,0.3968485141,0.7822173024,1.0607053509,0.9399933455,-0.1934807947,0.7030836228,-0.8128953777,0.285660929,0.2246801739,1.0210930393,-0.0679262931,0.2629156506,-1.2333149976,0.8217542123,0.3527417309,0.1549545536,0.4834717964,-0.152809415,-0.2889739604,0.1711921556,-0.0625005226,1.497487743,0.8562449219,0.4982979214,-0.2158217514,-0.5713417082,-0.8020450588,0.3700563499,0.2045178617,-0.2969318363,-0.6479765489,0.6059749436,0.0637868918,0.3031078659,0.7226898529,-0.0215712901,0.126596084,0.3008828153,0.0839528016,0.1887393177,0.4874491573,0.3121462677,-0.1359968137,-0.4007209455,0.2866190243,-0.5688341178,0.3936673318,0.1422197816,-0.779594329,0.2900390465,0.2029084353,0.1001186415,0.6737210632,0.8372110376,-0.1684171167,-1.1483749585,0.1045188168,0.2416020886,0.1971705872,0.4216760286,0.6012999673,-0.1130315226,0.2478950663,0.3566095888,-0.3466573769,0.3651556243,0.4311376701,-0.4096485284,0.0025405764,-0.5590650388,0.4329010664,-1.5866908312,-0.9266849358,0.7784694907,-2.5125094901,-4.8555023183,-0.2824045547,0.1273461714,-0.0294876882,-0.3984900029,-0.5251930094,0.1353443221,-0.0869028607,-1.000191896,-0.0776407491,0.3143991223,-2.5469306519,-1.0532877915,1.8068929643,0.4585322279,0.820121738,0.1040779391,-0.5104499186,0.6976719892,0.0383722897,0.7113250612,-0.6508212571,0.596619334,1.2925633009,0.848032727,0.3936223222,0.3286927265,0.6003778172,0.0972143194,0.2478356583,0.5543332162,0.4905847881,-0.8158004083,-0.2200506952,-0.5792273673,-0.7241483917,1.0070601719,0.302058994,0.3260539626,0.4828190389,0.1566769633,0.2811960503,-0.6860492977,0.431641674,-0.255984644,1.3422254476,0.9612609986,0.56748788,-0.9598638793,0.8520416413,-0.6907957703,0.6521452553,0.6157654974,0.3094295031,0.1311655527,-0.5177052026,0.3458358025,0.9413668281,0.794052519,0.4721172139,-1.4910991255,-0.1024589517,1.8794500555,0.3738834793,-0.3147285464,0.1530292664,0.9050570961,0.7443503675,0.2178169173,0.2150226681,1.1215065054,0.7621284252,0.2624189028,0.1101798552,0.4049993771,-0.0373113656,1.483870292,0.5343410865,1.383522658,0.5127488226,0.4994048027,0.066983677,2.1985847936,0.6649994653,0.2390233959,-0.2908827524,0.5747740568,0.7702107818,0.1121157706,-0.5894074872,0.3650180517,0.6811704456,-0.0609797509,0.5815433098,0.2068531623,0.4245849566,0.0938852726,1.2583727526,0.743403,0.5186241129,0.3941102011,0.8645962702,0.4693882636,-0.0522887809,0.8401484949,0.7725822713,0.3885040385,0.3241728569,0.5537147257,0.6740778741,0.3828227759,-0.7580934899,0.3154122264,-2.8244361244,0.1683921101,0.8752839841,0.7833317327,0.2677544304,0.2422091749,0.1330404603,0.771458365,0.9559231865,0.5113930341,1.0193696773,0.228719015,0.2318769966,-0.0062348174,1.9013052036,-0.1993724954,-0.1371582256,-0.1526690224,0.1669794592,0.0896544155,0.5420770612,1.7906306297,0.5514718648,0.5643107698,0.5448295207,0.974970873,1.4130649271,0.928738603,-0.1326410874,0.0922507653,0.0265657409,0.5683592978,1.0495372632,0.4109258924,0.5728235636,0.4312040296,0.1606961478,0.3580562594,0.4451342431,0.0797361747,0.7366021896,0.1329993908,0.3716546694,0.7545863554,0.5359169855,0.6329438543,2.0353563661,4.3913156414,0.525017416,0.6135259344,0.0672517525,0.346805967,-0.186188784,-0.1309071946,0.5355300054,0.3325008115,0.6192032176,0.2889967529,0.6849588463,1.7206293809,0.3104508165,1.009217546,0.3065855919,0.7359815132,0.0984935866,-0.8042958849,0.3191725123,-0.2959528895,0.13766,1.6990106576,-0.4204932392,0.065938668,0.6963484636,0.0195895118,2.09384257,0.3503637762,0.0631954762,0.2993943767,0.1544631291,-0.9497678763,0.0453667158,0.6399252281,0.9738173633,0.0391920014,0.3823161248,-0.7891888687,0.1176331812,0.6979939295,0.4070290703,0.5714445183,0.6328307717,0.7206426784,1.0288992129,0.241145628,0.6200180756,0.7158722894,-0.1326450472,0.0212967123,-0.1965777481,0.3714872847,0.1720496274,0.6200349783,0.0921295374,0.0771422022,0.4152256953,0.4914586742,0.457200254,0.2690102368,-0.2531389263,0.6982621424,0.865295937,2.6337208089,2.846294502,0.5311218416,-0.3793209864,0.6115180216,0.3395480932,0.7795526183,0.2373427637,0.5056082343,0.2566600691,-0.0674940148,-0.3680047276,0.5085779655,0.4099997159,0.0113925385,-0.4615657241,-0.2423717159,0.685076942,0.0864661038,-0.157643222,-0.3952190701,-0.0261774836,0.4127491108,1.5418896082,1.0033168137,0.506484691,0.6304995885,0.1203514786,0.3905338789,0.0208849052,0.8042808294,0.6866125813,0.6192970012,0.6877174576,1.5130974301,-1.3588815906,0.333237363,0.552677965,0.730693549,1.0670501726,0.1506918367,0.8736251842,0.2973940255,0.7563441193,-0.0049040582,0.8205396556,0.3174548947,0.2731658345,0.9289092742,0.9120247625,0.5697657743,0.8653001265,0.579406612,1.102658652,0.1491702277,-0.0489000057,0.8805717376,-0.1538582321,0.0184288491,0.7263779015,-0.1175199488,0.3533629115,0.3111074181,0.3938408899,-0.3164898596,-0.9568089144,1.4652860855,0.6802329237,0.1022739509,0.4566128966,0.4462990622,-0.0132925396,0.5480527578,0.3901619773,0.4661126443,0.3241914653,-0.5921311361,-0.2059710152,0.3486208276,0.4652151206,-0.11439242,0.5468572984,2.8568728088,0.0977461839,0.0934287415,0.1190386101,0.6201110689,0.0630115419,-0.1216957778,0.4872514946,0.7757995152,1.0262646495,0.433552691,0.4874307143,-0.0825965502,2.6652330933,0.6748771483,0.3628910977,0.6147957034,1.8185248954,0.298623734,0.1910992156,-2.2393057981,0.0806102486,1.3012985092,0.3830262709,-0.0099794355,0.8050122618,0.6744582868,0.243214304,0.8606095755,0.4580807122,0.6993004459,0.5154147972,0.0999924779,-0.6321968199,0.0600192356,0.0038599391,0.1011338954,0.8980233696,0.6859713519,0.5194573504,0.483413594,0.5881083483,0.0649927498,0.6466698118,0.1006666327,0.1844629555,-0.061871878,0.9018635992,1.0169065804,0.1276126622,0.700044873,0.1270660039,0.2176239774,0.4358094296,0.8923069003,0.2393271635,0.9016228655,0.255074006,-0.2278399276,0.2002304146,0.5751551793,0.6692570196,0.8007994991,0.1778803102,0.7901224865,0.3728249313,0.525890257,-0.2848290307,-0.0789646876,-0.0279136378,0.2071171328,0.7188509372,0.4387101826,0.2961487416,0.3364637829,0.34884229,0.558403324,0.6594682512,-0.0399495705,0.2981597908,0.7947036086,-1.0931694799,0.0146723535,1.1381622368,-0.0523286347,0.2863878405,-0.5026330245,-0.2193163376,-0.0201716483,0.7741548716,0.2381720884,0.5817609811,0.5085478281,0.7458772847,0.2425006388,0.13640077,0.1951277989,0.762577653,0.8359620802,0.5864910909,0.1158814394,0.6002095205,0.2767143136,0.0811916754,0.4627717542,0.4945457604,0.3497941583,0.41456469,0.4834799296,0.3561364534,0.5845085386,0.1871114306,-0.6206085595,0.5326568214,0.4281655999,-0.6904389856,0.9161976579,1.0250028678,0.8306554169,0.9996868869,0.259037144,-0.801468415,0.225671448,-0.2826391636,-1.1199667675,0.6324903437,0.1115811,0.3004535272,0.1050785857,-0.1501091618,1.5748736834,-0.4290655252,0.3443024446,0.6072665159,0.3596900275,0.641595338,0.5809071158,0.1289777171,0.7177598352,-0.7544445244,-0.2216912545,-0.2440381876,0.1827170053,-0.1106270848,-0.1614986898,1.4141046171,1.1157714003,-0.0921858157,2.5013077916,-0.4511094191,-0.5560607909,-0.0786567292,1.1691065834,0.4157678764,-0.1631738434,0.4665874154,0.4316212706,0.3518190882,0.319872618,1.9613353645,1.3096161942,0.2775614198,0.6213143511,1.0341110359,-0.1594033214,0.5928706154,-0.9761213277,0.5282375352,0.6656538996,0.5810343346,0.117225962,-0.0275859736,0.2137870921,0.3603381877,0.7614793954,0.6791200948,0.3328731239,0.8357295925,-0.2768460407,-0.6132963021,-0.0372074372,0.1090149084,0.4588639675,0.5069570113,1.1402013881,0.2557755673,0.3919672858,0.2758480487,0.5873360281,0.3278950519,0.7178912693,0.0796154358,-0.7214622781,0.7451419768,1.2965940946,0.7522926264,1.0000105871,-0.1427358653,0.8115426689,0.0035585296,0.1735495844,-1.0338696937,0.5173067887,0.1754734822,0.047803579,-0.0055371024,0.5440812865,-1.191727935,0.3787899714,0.2669670078,-0.0100522581,0.791313089,0.0572841776,0.1401036922,0.24278245,0.0510237823,0.4597089845,0.4183490373,0.2399667536,1.9815819298,-0.0175579227,0.8514503634,-0.6348943179,-1.4772063435,-1.1966096361,-0.4478532646,0.3659559424,0.313928506,0.7307302348,-1.3535372472,1.0025822359,-0.5131126481,0.9848854087,0.661583085,0.7098827368,0.6698438444,1.4448367658,0.6742952991,0.6803191043,0.0033251253,0.2348397405,0.7241369892,0.7091334621,-0.7684489956,0.9567190524,0.5795586016,0.886016348,1.6154725556,0.5539178637,0.6351032149,-0.227583082,-0.4205565874,0.1334863094,0.3780356728,0.3293209339,0.3178006579,-0.1215494004,2.0059511128,0.6215855523,1.2825548883,0.3088313451,0.5383243602,0.5729154176,0.2801390178,0.6887752972,0.1699730333,0.0755001012,-0.1407231771,2.541413057,0.2973565504,0.7012862137,-0.0276585586,0.6449133073,0.3921447021,0.4767381559,0.1692518065,1.0163216011,0.5246288228,0.4777534621,0.5364543491,0.0644545024,-0.0242080907,0.5858702948,0.9467762965,0.8331895298,-0.0336368281,0.6727076887,0.6450650177,0.7594331703,0.6088289391,0.3398975683,0.3382471184,2.2471486719,0.5390523844,0.567552996,0.6693316264,1.5125649129,0.2286598718,0.8713236795,0.5558229027,-0.0256938252,0.3062603376,0.4077647978,0.105632333,-0.6454927376,0.1751902687,0.3148537866,2.1068558418,0.1564499021,0.5318558676,0.2190585285,0.729164778,-0.0549933288,0.3741774182,0.0746857661,0.7938281604,-0.109710919,0.7046911931,-0.2455516072,0.3315128149,-0.3264017922,0.7630478897,-0.4654003257,0.5837947497,0.0864358948,0.4815824958,0.3853803711,0.424732357,0.7317430049,0.1834493471,0.1291474415,1.9377022857,0.7235535054,-0.6239109812,0.0773335344,0.4501052887,0.1828275354,-0.0409317944,0.1566004699,1.0980821469,0.368523674,0.08151075,0.1137748934,0.1004693888,-0.5388943793,1.1260927572,-0.0516190855,-0.0158764232,-0.0402031476,0.8030227463,0.1073002661,0.3587540778,0.433207403,1.4643697213,0.5788058868,0.8804040441,2.0169854811,-0.7945873982,0.6061789032,-1.4263577559,0.743254767,0.0586611195,0.3977804983,-0.2318213216,0.9478560752,0.8237647864,-0.657305011,-0.0727823438,-0.0989907183,-0.1440467154,-1.7215148074,-0.5288948183,-0.0489729875,1.4923122497,0.6871613852,0.3610290149,0.0295182124,-0.1948224969,0.9026427348,2.3171712082,1.0995522303,0.6067180279,0.7649978541,0.7397181727,0.3776917643,0.355264635,0.7256444972,0.0913274389,0.6926301894,-0.2870789788,1.6662723463,0.6195196602,0.1691587906,0.0302464403,0.6904762625,0.1056533457,0.8724069567,0.6706159788,0.0213113978,0.3546507946,-0.2540074357,0.5323902779,0.5321555847,0.1559560498,0.2431622052,1.1577126059,0.4896510239,0.9154711985,-0.2390039017,0.4971795121,0.2706116308,0.1641624623,4.319602671,-0.1683136255,1.0984348584,0.5511695127,0.3105826389,0.728446442,-0.0939020007,-0.2401136554,0.580433376,-0.2707952779,0.5743645966,0.622605061,0.5275829693,0.3450741865,0.9967244011,0.7608438199,0.0092803513,0.1882772788,0.1855114161,0.5358387392,-0.944159972,0.2145842848,1.84151661,0.0440822164,0.520399683,0.1775747619,-0.1536451866,0.5285719035,-0.0142410121,0.4094823466,2.1055448706,0.530932007,-0.2368829778,2.2930508455,1.0941876172,0.2799760526,-0.2923953042,0.4815149778,1.0446271153,-0.4316177744,1.0092193006,0.6674577247,0.688995754,0.7503092533,-1.7421608899,0.7722535405,0.5151933856,0.564777204,0.6558796995,-0.085145547,-3.2698810852,0.6614432843,0.7611455169,0.6714664803,-1.6646772519,1.1600692819,-1.3991779629,0.3975503702,-0.772167892,0.9053671606,-0.0672784807,0.2243918567,0.1454211264,0.4091377926,0.4688832543,2.9869330685,-0.6155763723,0.7103183827,0.3697538087,1.768718352,-0.6682574685,0.1018671531,-0.0830083354,0.5177566946,-0.0032240806,-0.4092063324,0.5600217984,0.4116445405,0.414550536,0.6298845119,0.1333185013,-1.8495568603,0.7508402292,1.1188471672,1.0460145803,0.2729348154,0.8275802234,-0.1679592124,1.7474284694,0.6578326082,0.1447027631,1.9373088093,-0.4679827502,1.115906199,0.3436893407,0.562290229,0.5315333053,0.9005195486,0.0004815516,0.724879677,0.2433148243,-0.9594518658,-0.4368008881,0.9371318377,2.4931014983,0.2894462743,-0.2137133087,0.4444464143,0.4162520498,-0.7667371086,0.612690402,0.4492300294,0.1111468853,0.6763250973,-0.5807855933,0.0507382258,0.9787852774,0.0758249613,0.1400419009,-0.4051593245,0.4905005951,0.5677040598,0.034868731,-0.2831519468,0.47753659,1.4287632838,-0.0338860207,0.5260450208,0.5887258171,0.5750451755,0.2913784071,-1.9093662751,0.6532252117,0.6041533558,0.0880952924,0.4578126134,0.431505937,0.3046906333,1.7666439418,1.1455693681,-0.1125315365,0.9941288566,0.5663765045,0.6573465375,-0.410718235,-1.1724060294,1.5095885309,1.2070047064,0.21569715,0.2189100107,-3.182952643,0.394617949,-0.0656778018,0.9111708314,0.3788289098,0.0597975097,0.5416117964,-1.1114180755,0.2535298528,-1.1057400424,0.8874603138,0.4966112979,0.022518288,0.2160026004,0.0146402433,-0.6068817762,1.1472253234,1.2382930469,0.1128132251,-0.8264466143,-0.3453896511,0.3837818972,1.0673081044,0.1694413262,-0.0442850935,1.5104993461,0.3569176818,1.7200219703,1.0502659262,0.8642455998,0.4473828186,0.1813491754,1.224325471,0.3042536595,1.8057411698,0.2939041475,0.1982781862,-0.3737635655,2.7704299596,0.2877902487,0.5838613594,0.9198121721,-0.0214885528,0.6496944744,0.4803152481,0.5889763382,-0.0524205213,0.7059701502,0.0052485598,0.7737563996,0.0104250069,1.0968215719,0.0187856174,0.1673398252,1.13156807,0.5061894179,-0.0847229583,-0.2066609156,-0.7741204097,0.1694336613,-1.3534719968,0.7754905009,0.0250683359,0.355324526,0.8242514126,2.6059286692,0.7090956012,2.0091203328,0.588086455,0.4310556344,-0.259746181,-0.9861248012,-0.1315006714,-0.4262586169,-0.1142930929,0.3216619955,-0.7607903808,1.3600569762,-0.1924026348,2.023149961,2.0263635465,-0.0880629484,0.9507332741,1.9914782696,1.0434577453,0.0700285055,4.1662728655,1.5185756667,-0.022517583,3.469396878,-0.283627905,0.7006921021,1.1477650452,-0.0538634839,-1.5096690801,0.8041127667,-0.9277189416,-1.047899183,-0.4048524028,0.3573838208,0.9915948479,0.5634223164,-2.1441689281,0.2166986523,-0.1258663252,2.0296320333,1.4045785143,-0.1268193584,0.0574581282,-1.4401884233,-1.3432993976,0.1002877938,0.9549877317,1.0981555363,-0.7419011293,0.0257829761,-0.0156919561,0.6800045924,-0.0556660356,0.9744958509,-0.3408025337,1.6827800144,-0.1080495361,-1.0717489674,0.0806532257,3.9366929511,0.3897015319,0.5873426486,0.4645671064,0.4937021916,0.0401535806,0.8128919774,0.2908945494,0.3666533497,5.3044093343,0.3689911235,-0.4647495849,0.7039509615,0.0343772933,0.4116693928,0.6070603406,-3.5691030782,3.4853767778,-0.3787937079,0.3496489709,0.4962835128,0.0179313999,0.4409038185,0.3645518751,0.0068907709,-0.2914395133,0.0562281141,-1.6315826348,0.0530479348,0.081221087,0.236377771,0.2061238909,0.3309460712,0.3273503476,0.1037715711,0.7572413229,-2.1873573561,0.3395120816,-0.9016434234,0.6394776648,0.1736237018,-0.0090358279,0.9012149,1.4825942186,0.4668656226,1.3040175406,-0.6573365681,-0.2172668388,-1.1028667346,0.6432902694,0.2448884216,0.4134936104,0.9145205095,0.8760311208,0.9920121713,-0.1860587741,1.3676549622,0.0850217987,0.7086374971,1.07362524,1.0688503831,1.3475198761,0.2740579916,0.1526606959,0.1122460311,0.9864269966,0.7882474828,0.4795078474,-0.2925926901,0.0706473497,0.3853997937,1.2599044217,0.6728673098,0.4663942432,0.8244992287,0.7533355041,0.5990825349,0.034769084,0.0182801179,0.4287215122,0.6051341064,0.0441024413,0.2502592546,0.0565244017,0.2185175499,0.4155359014,0.815240715,0.8279105931,0.1264211794,0.3521696682,0.4075815235,-0.3081681212,-0.0925194755,0.1285492964,0.4928818962,0.3640733286,0.2181772702,0.5263482558,0.9991123786,0.1568922913,0.9273594216,0.3934170908,-0.0023739321,0.3574785204,-0.6920381967,0.3855511377,0.5696783393,-0.0684779436,0.2883860519,0.0680942121,0.1818459183,0.4136235655,0.0762615659,0.2394862483,-1.278455625,0.2232216239,0.3548648843,0.1639418922,-0.0069051706,1.2616778561,0.508632208,-0.0760769882,0.5104481202,0.8847841346,0.5767626136,0.257531696,-1.2134170014,0.005935394,0.5604648811,0.0288107217,0.655886719,-0.0834248741,0.8415600836,0.484685062,-0.3295152243,0.6903600441,0.6142261542,-0.0339210853,0.5978831238,0.1232162687,0.0868544952,0.5606973539,0.695540091,0.1887301498,0.5550349543,-1.5627579487,-0.8871454844,0.4173713764,-0.101016571,0.2085594892,0.3975996909,0.6645939085,0.6411911142,0.5191841983,1.2636350553,0.7971422896,1.1908254531,1.2654962045,-0.6547275804,0.3082886299,0.3436938347,0.5945157387,0.2843615635,0.1885911018,-0.5979630888,0.7049749914,1.5450736683,0.9109505916,0.3165684386,1.0479216181,-0.0551591075,-0.1708855864,0.9217673915,1.9880730219,-0.247615552,0.2976107055,0.5308217713,-0.0854550964,0.4472535266,0.3238275363,0.2114217411,0.1466916281,1.34719034,0.3511527806,0.3529250989,0.5151177641,0.3290572012,-0.0549687258,0.2062985168,0.6000257199,0.5706067758,0.2592023666,0.6983432812,0.3463351559,0.2474961722,1.2677084316,0.3068513446,0.1344369544,0.3960192644,0.1699422075,0.5346141106,0.6280057888,0.5582897484,-0.0934752977,0.1750572884,0.2091832411,0.1201384925,0.4089482048,0.1485910696,0.1763538764,0.0058797292,0.1385214376,1.1639082033,0.8234431983,-0.0639067409,0.8037974796,0.8431231983,0.5306607378,0.574628455,0.3985606497,0.8588005132,0.1701039156,-0.9943041394,0.8893292333,0.2818660475,0.462007901,0.2469865148,0.2512633795,0.4175955892,0.1787466304,0.716511072,-0.9846436138,0.2075540836,0.80429313,-0.1043373849,0.8404666206,0.2849911948,0.2481955499,0.2614548956,0.6352803841,0.0706591333,0.3547015636,0.1677419017,0.639746981,-0.0549442874,0.6629383807,0.0070511941,0.2165908411,0.2482778156,0.4516232063,0.0164448842,0.1450458599,0.2424727709,0.1027137385,-0.0095021685,0.6745622839,1.0629337625,0.642435901,0.0271392069,0.9373762305,0.1255284458,0.9604565192,1.3628284104,0.6935512285,1.296509253,0.2280304934,0.6009837679,1.3457074774,0.2633652152,0.5761833075,0.712350284,0.1935167824,0.49622427,0.2336263931,0.311220044,0.247353515,0.8305835563,0.151669386,0.9444915593,0.6724978042,0.5903424069,-0.3730546643,1.8667062333,0.7144306045,0.6277158482,0.4695953176,0.1531243172,0.2006271315,0.4314059282,0.2802348052,0.5190796679,0.2676316119,0.0023229449,0.4363881501,0.3274053642,0.255154699,0.2260177652,0.1185801807,0.4375346013,0.5528922495,0.2499933773,0.0620979298,0.3643781898,0.3305765106,0.6435867357,0.5525309438,0.9561517125,-0.0963780811,0.7227179719,-0.5520419626,0.6461280068,0.0562577993,-0.037755292,-2.5359503276,0.7692750155,0.6820252977,0.1758022428,0.7192834065,-0.0861566486,-0.0961073625,-0.8484924407,0.1507052244,0.1273008701,-0.0159971458,0.6719543203,-0.2288280626,0.6508776436,-0.0454672104,0.5440808872,1.1201321587,0.0581516724,0.2948391583,0.1673428701,0.8635670943,0.624421717,0.1329581346,0.0958536857,0.8038843103,-0.1769264775,0.3912554776,0.0459092362,1.0318385105,0.2914817312,0.2357820287,-0.110102736,0.8187186251,-0.236489782,0.1168659935,0.0174843162,0.3102890328,0.0878151176,0.1496708927,0.2283837036,0.8860778124,0.4680270216,0.3053342233,0.3204443927,0.5403087946,0.3921748904,0.056172849,1.4087271235,0.3217893724,1.575857665,0.9704037821,0.1020831208,-0.0148285772,1.1401459915,0.5484927812,0.8668566299,1.383318521,1.9983418911,-0.3268284547,-0.3230988385,0.134013479,0.88829116,-0.6782805994,0.6649762427,0.3990014344,0.4202885012,1.0570731868,1.2435004878,0.6751376757,0.5329679694,0.2652066422,0.3029957719,0.3140058189,0.5469014501,-0.0498755157,0.3370499019,0.6814927311,0.6789392119,0.2702031818,0.3811949965,0.0784503574,0.2595091623,0.2609311792,0.4058541718,0.1982240206,0.7850622638,0.4409710598,1.5553705155,0.2100174315,0.2750713652,0.6668512704,-0.2479508961,-0.0683844337,-2.3477237302,0.7882123985,3.6958887722,-0.1064864095,0.9571295116,1.616242103,0.9434320656,0.2399687796,1.0290225191,2.1866341344,0.0875072466,0.0560109306,0.261486232,-1.5921343744,0.5233606495,2.6336758351,0.0222313284,1.2549062647,0.9755867507,0.8488563943,0.8127462081,0.6589901834,0.5490386951,0.2324311518,-0.5198827472,0.3536789574,0.8473520529,-0.0641812462,-0.74741042,0.5212179464,0.2268435923,0.5886636355,0.2796155065,0.416246776,0.2979443399,0.1391643845,0.5529748846,0.5198800783,0.4093810922,0.6541648338,0.3662276691,-0.3133044581,-0.1671405154,0.2433156033,0.0337749762,0.6362447243,0.1207247358,0.925918341,0.2080214627,-0.3318967486,0.2212954655,-2.5028994491,0.0293154711,0.265642172,0.4409299446,0.3875294718,0.2356624972,-0.0821245241,0.4859537301,0.316847359,0.8834042626,0.2415095486,0.1173648118,-0.0338600573,0.5071891501,0.5046968804,0.4386489867,0.0709286126,0.2777886685,0.5462595075,0.590219059,0.4974939799,-0.5890059782,0.143106937,0.4900590926,1.2010673131,0.3202763683,0.5831910402,0.474633936,0.8459798161,0.20775164,0.6241430591,0.6307748285,0.6793448627,0.7034390429,1.4023601371,0.2093791944,-0.2063018976,0.3886711338,0.1992990056,0.329896443,0.0954982307,0.1671693636,0.4385228691,0.657111604,0.3039111256,0.2430807325,2.4919175593,0.2342006096,1.3081495559,-1.6712037555,-0.625386407,0.65727716,-0.041977121,0.5467071873,-0.2642359489,0.0517583739,3.630978625,0.077777511,-0.9751200017,-0.2251299629,0.3985029365,0.1471483319,-0.4904310498,0.1656110889,0.2289674504,0.0829167756,-0.0463433743,0.5036421074,0.8349491533,0.6878759109,0.274243282,0.5960571465,0.6113250298,0.1594946384,-0.0724883763,0.4417939097,0.359390012,0.0261797554,0.597778132,0.7166620356,0.5499704959,0.8016439381,0.2918634498,0.7249430887,0.7236287666,0.2098764601,0.0653156507,0.6859957746,0.4274226251,0.2711558485,0.5371035301,0.6547688733,-0.0449809335,0.5364462777,0.5835298097,0.9909329664,0.2057200902,0.3967987255,0.2670141997,0.2075371523,0.6940357351,0.9763302182,-0.0774641714,0.0500169284,0.6746235132,0.8887456924,0.0810897642,0.3432086608,1.0383141334,1.1079088408,-0.1485689663,-0.2613873987,0.4244637893,0.2467369313,0.4752467926,0.2233292056,0.9301752229,0.6774476279,0.3528106008,0.2471390567,0.5221465537,0.4992661693,0.1963129315,0.0381332184,0.3844510862,0.0786200501,0.0630002404,0.0970781772,1.3357493221,-0.0905847281,0.2344841546,0.3854378789,0.1842190112,0.3778667748,0.1548398707,0.836054985,0.1940018207,0.3482161342,0.3760587304,0.5077972775,0.4150717523,0.3224786986,0.570734579,0.2194257561,0.5913810253,0.3427396269,0.3534631799,-0.5333197897,1.9372591004,0.9650666924,4.1114834606,-0.7428897896,1.0021751961,0.8765609269,2.4645714754,3.1396062075,-0.0742651593,1.5271018319,-0.1786234117,-0.0249769916,-0.1721979143,0.099350413,0.1056421751,0.2951288569,0.5534284228,0.634940828,0.5796789904,0.2929446224,-0.0891689011,0.7851252381,0.332394888,0.3140352566,0.2035639831,0.2629779153,0.1595409573,0.8614775338,0.2045604533,0.733572787,0.1528084625,0.688577719,0.2784970324,0.1325312205,-0.3042030305,0.3089785015,0.8887153438,0.8231301224,0.4478650973,0.2702011242,0.1379688658,0.6497807444,-0.0908102279,0.474315428,0.6340610653,1.0333293817,0.4475106905,2.7525583566,-0.4615113957,-0.0659617557,0.5077022615,-0.1554687894,0.8225245588,0.3651638237,-0.7233997982,1.7701796326,1.6097210638,-0.3242605751,0.7848327244,0.9174939579,-0.0776338102,-0.3442386061,1.0569226555,0.5149120782,0.2598515338,0.5191262839,0.4140965539,0.6321155995,0.51000443,0.8810796499,0.0625614876,0.0133255516,0.45491029,0.5282381966,0.0194384419,0.7521102257,0.2062482735,0.7065769383,0.0957309395,0.3403200924,0.9343586613,0.3188923415,0.0840018012,0.4029205834,0.7642297197,0.4634870091,0.9763241711,0.6480080736,1.2085124623,1.1495780574,0.4087755931,0.1983784241,0.2917077054,0.9083111592,0.7651935484,-0.9383219867,-0.1998718603,0.8797398025,-0.2570737393,0.1776703215,0.2661670893,0.6078973099,0.4468352369,0.0464757653,0.479429588,1.3049373413,0.3644364991,2.2736302465,-0.3789239214,0.1985389797,0.1138469335,-0.2059342565,-23.2291802963,0.4536234997,0.6288701078,0.7100558897,0.2376296477,0.7858578811,1.7073220471,0.1616176196,0.5194063239,0.3881768755,0.6892631331,0.2903775864,0.391512884,0.0444357696,0.6536914679,0.5471870099,0.3304357471,0.6277181653,0.0675135698,1.1394706261,0.5022449675,0.3074101718,0.7692864954,0.7798449325,0.1719763407,0.5561922146,0.2119758101,0.8334117841,-0.1469113433,0.053263984,0.3474069451,-0.2748888213,1.8953281485,0.171653384,-25.7866802746,0.163089568,0.1559997454,0.5901594076,0.4806937732,-1.9955899862,0.4149897934,0.681252976,-0.9518976652,-0.5392255112,0.3307726667,0.3334977505,-0.1567582791,-0.128988486,-0.0440931057,0.6089653027,0.3693345972,0.7453491592,0.1113422115,0.4578870516,0.134948331,0.3825453593,-0.2810372438,0.4604023449,0.8444278614,0.192786452,0.7685149885,0.7471456219,0.1648795709,0.3465224725,0.4500165171,0.8154820958,0.3444436442,0.4331081593,0.7676535341,0.036258138,0.1931581723,0.2115341598,0.3282953587,-0.0651647332,0.1487225353,0.3810394377,0.172683847,0.8552502843,0.7876967269,-0.0703203031,0.4756142499,1.169788968,0.5939359112,2.1190187569,-0.4941283473,0.2856469216,0.92625506,0.4791635478,1.7639459288,0.4459207421,1.1429928396,-1.3949914948,0.7612339007,0.6437356075,1.5564671209,-0.2391067213,-0.4985455047,0.4809481342,0.3887696623,-0.3685029782,-0.1237603922,-0.1397771619,0.6164575285,1.0088882664,0.7453044981,0.2851294558,0.6468232331,0.300266785,0.0344887853,0.5283534477,0.7656560996,0.5065572437,0.2129790077,0.7058909971,0.5977457618,0.0392045675,0.2287761515,0.6305341153,-0.5164016395,0.4699591059,0.4829005819,2.1198299936,0.589739589,0.1467844336,1.1049884359,0.7947320211,0.5957124855,0.3558642778,0.6350459553,0.5243643868,-0.028274289,-0.1499181004,-2.6394487662,-0.1571338492,0.4112894892,0.2687999827,1.9822661912,0.6068892245,0.9675983338,0.4524001868,1.747794887,-0.5863264175,0.318734024,0.960292624,-0.2634223497,0.263167299,0.7438626068,0.1451725551,0.6014699114,0.2815823292,0.4162142452,0.3946799134,0.3111600366,0.5867941456,0.4431759315,-0.0433753079,0.6393054049,-0.0168084501,0.4793201519,0.709306384,0.1716209909,0.5001813858,0.0618912148,-0.0203682573,0.2774962956,0.0005985816,0.0254710872,0.027428873,1.6160837227,1.0046962283,0.7050431397,0.6601602337,0.5000870228,0.6147525985,-0.0716527012,0.1050683012,0.8330026062,0.1387448664,0.2456527428,0.0836864802,-0.8636260235,0.5478755335,0.3386976654,1.4031984103,0.9099496939,0.9259355496,0.199888957,1.1286093925,1.3085188973,0.3542931618,-0.0172981454,0.6346843205,0.0255995168,0.4484850272,0.0812788122,0.2524529711,0.7121144672,-0.2136726197,0.3645884792,0.1479638069,0.950285757,0.50884439,0.3212891437,0.4935129886,0.3540931074,0.6873745276,0.5807364442,0.4527283168,0.5436313747,0.0496920517,0.3120058701,0.3720765742,0.4690381817,0.5280498621,0.2588604945,0.3349860972,0.6427681086,1.0176997348,0.5988926366,1.0350125165,0.4060139149,0.3388551569,0.2432420067,0.8033146697,0.5253833684,0.6122854403,0.2916100799,0.4145411512,-0.0165130032,0.667419518,0.3394437428
   0.9345504413,0.2118953695,1.0582924213,0.8814923291,0.1368098594,0.1407509917,1.0461538495,0.0704935831,-0.4141285333,0.3061223901,0.5506300707,-0.4880406326,-0.4629195384,0.3195619333,0.2282659911,0.3808857949,0.1756865866,0.3653456258,1.3539158009,0.579671919,0.7654432138,0.125914591,0.2154846766,0.1798850304,0.5109526311,0.5497286319,0.4537566178,0.4781854415,0.229729119,0.2482673349,0.3478472797,0.752342409,0.598738609,0.6004877028,0.4111980631,0.3465543636,0.3833574532,0.1358320339,0.3320210027,0.5208265834,0.2053786691,0.2589588561,0.0998429605,0.8296886573,0.1988442296,0.516903636,0.2825103005,-0.2184643553,-0.6492852269,0.8858841111,-1.660451756,1.0113526978,2.2292635889,0.1784046844,0.134771275,0.2671055014,0.4797463737,-0.5880774355,-1.934487707,-1.530755538,0.14282921,0.421471633,0.0647342488,0.620257201,0.9216850611,0.440563457,0.3700586032,0.9411790955,0.1010045868,0.1047047029,0.2424122628,0.7861195728,0.4433877475,0.0502027241,0.4241915384,0.8354631778,0.6494300231,0.4218352353,1.6614540953,0.1831907484,0.3455622616,0.4306929386,0.7937704204,1.3973444126,0.6630940616,-0.0339771254,0.6425376514,0.3727161358,0.5263586535,0.0356321622,0.6225351092,0.741085647,0.3407245575,0.6150913867,-0.2128522854,0.4439919676,0.8048565853,0.8551248068,-0.6222674164,-0.2582914094,-0.2017971962,0.4688532749,0.0124745872,0.3104169818,0.7878557443,1.7582372259,-1.0437721545,-0.776913294,-3.5430350221,-0.3372160048,-0.9836315664,0.2091357441,0.551017904,0.7898900554,0.3071127639,0.3739109879,1.0750264125,-0.5077269808,0.3478088185,0.1613969681,-1.096621213,-1.2948190026,0.0910740985,0.2190284367,0.6756567505,-0.2161129036,-0.052382344,0.315889389,0.5934098814,-0.0087210242,-0.6763211773,0.4164484505,3.9416282574,0.2511012029,0.3658722009,0.2065609374,0.7630071131,0.2107675837,0.1227429811,0.7133594833,0.0697287209,0.851028688,0.6969332281,0.6508098709,0.8508564178,0.8304443857,3.8419148003,-0.3131143109,0.9509099593,1.1274543175,3.8295378713,-0.3212792755,0.8852071585,0.8899655122,0.0955675029,2.4960985162,22.6686931794,2.3533600912,-0.6817932963,-0.198466774,0.2653931081,0.6141216324,0.0217169232,0.6728389855,2.4093024443,0.0599764981,0.6738866364,0.8197867187,0.6769587451,0.6887699172,0.0276224604,0.1545637593,0.3484341161,0.5495752918,-0.0905253579,0.3647025314,0.1079505122,1.1995655744,0.1240230941,0.3296048247,-0.0128600965,1.7274499645,0.52073875,0.2097810316,0.1222913673,0.4347632624,0.5134072979,0.687985198,0.3785249741,0.0674764828,-0.1206348752,0.1157660622,0.2310534067,0.2604361169,-3.0404184533,2.1080758158,0.2538710214,0.4541313983,0.9764816031,0.3512099252,-0.132861051,0.1566702251,0.3482555428,0.1792041642,0.4878639448,0.2088486168,-0.1147984729,-0.2641995343,-0.2333191601,-0.0459727003,0.3681719604,0.514972549,0.7514115031,0.5926819163,0.4777684025,-0.0534220712,0.6542433421,0.4758755155,0.2174926335,0.5362112567,0.3714682734,0.7788156011,0.0937214655,0.9937320534,0.5672807874,0.6713824118,0.1469086631,0.0788783142,0.2783957423,0.3786667457,0.2125041436,0.4583306363,0.0335930474,0.4442993871,0.6753788218,0.6990445799,0.5524204893,0.9913969477,0.4015716015,0.3431282441,0.5769889746,0.096573588,-17.7048043152,-17.6688895397,-1.168002264,0.6557576359,1.2399411709,1.0658188758,1.6123662925,0.7448497834,0.3461647643,0.7444848351,0.1750871345,-0.1407520815,0.9709464175,0.9435321684,-0.4222527654,-0.3601718067,0.286715849,-0.0018832449,0.3103244004,0.5691670347,1.3790766734,0.243379268,0.5086650024,0.8739664349,0.497337797,0.3333813598,0.8936594104,-0.1209256246,0.4329733046,0.3087192358,0.1813743625,0.607522979,0.511718869,-0.1568597206,0.348820797,0.3166303015,0.6939188009,0.8000150369,0.857090696,0.6992446892,2.0215539219,0.5506291897,0.4048657512,0.3198866204,0.712685995,0.3047216176,0.5180397346,0.3682140588,0.5948508381,-0.5626278954,0.5179922216,3.2968562106,0.8183972575,0.0620822914,0.8166579198,0.3447332274,-0.2706851147,0.4535772726,0.6382770202,0.260474412,1.3180124167,1.1173113304,0.7344971948,0.0213276123,1.106291746,0.0341529835,0.2595194452,0.4600226258,0.3390493502,0.5531282568,0.8567830632,-0.4612922919,1.2150872606,1.4608109222,0.287805284,-0.3323943249,-0.5494447658,0.2478104267,0.5240610702,0.2829679638,0.6854433934,0.4909232303,-0.1676948469,0.8449335559,0.0705575125,0.0627193305,0.7751157426,-0.7483649375,0.2871592864,0.5371008738,0.2264716768,0.6932870855,0.084814374,0.1186887438,0.8368706959,0.3023321492,0.3429859862,0.514063826,0.721531623,0.1444962384,0.7825074885,-0.4936132092,0.5436274586,1.3961944786,0.659909543,0.2944229889,0.6215889777,0.9928361193,-0.1031169966,-0.0948881337,-0.2603573108,0.8973141433,0.2322090585,0.335953182,0.6600319594,0.2708202717,0.8131658192,0.2487561439,0.6534954909,1.254849571,0.5715619746,0.5774258057,0.7114171193,0.9950673334,0.2872142385,0.067943454,0.6478028432,0.7792461881,0.4218924104,0.6462676229,0.1273977146,0.4626899412,0.4314290094,0.1790445826,-0.1514268529,0.729712105,0.1933775248,0.334725967,0.0641048137,0.224999856,0.4326915876,0.590768666,0.4853359691,0.6136334116,0.5402270542,0.6673726766,0.447381917,-0.0783455543,0.2543345942,4.4098827327,1.1495301144,0.4813355871,1.4069653395,-0.3431213981,0.3459795912,0.6743296394,1.5128329545,0.2044462094,-0.0696586357,0.2799018899,-0.1017920768,-0.3282329169,-0.2757004453,0.3310181857,0.4661052109,0.1339922497,0.6873620217,0.2326481324,0.7518477406,0.2043048693,0.1155612637,0.2180391705,0.2684367484,0.6634616108,0.5853469734,0.0500767382,0.2943901228,-0.0247810717,0.2158375882,0.6710617411,0.0782688378,0.6235153794,0.158875526,0.11562192,0.3615407267,0.1539801228,0.5646915411,0.4203148462,0.3530209702,0.1100176223,0.115866442,0.4301232736,0.5761978028,0.0705451428,0.6876962323,0.780733398,0.7552376759,0.0144853775,-0.1118071073,1.7218487993,3.6079588877,2.4461365224,0.1737431413,0.4462704761,0.1900184928,0.314151901,1.2997179768,-0.2058318121,-3.5508053754,1.1380861544,-1.0416750729,0.3426828495,0.8321330131,0.7475968224,0.8095474572,0.925106913,0.4301719691,0.4991183647,-1.0084498855,0.8641230579,0.4305751777,0.9305497502,-0.5435931175,0.221233355,0.2610558195,-0.033914274,0.8488375123,0.4271222707,0.0144669176,0.0755825798,0.1451909686,0.709170595,-0.2403188491,0.6876603779,0.9387139081,-0.3422653664,-0.1314767125,0.5928398086,0.1348957309,-0.1394108217,-0.0286996873,0.3488620439,0.3530271485,0.2280113464,0.7631350493,0.5588265557,0.4505921361,2.9942057925,0.8382564142,1.2396901859,4.3642202616,0.1604837245,0.2264385213,0.0728067517,0.7888061916,-1.4172932367,2.4687950894,0.2492316974,0.9138053735,0.02619774,0.4150213651,0.714668502,0.5737794775,0.3242877655,0.44553964,0.8881010413,0.9787423834,0.7518458246,0.6316810174,0.476927939,0.3577833507,0.219194167,0.5332547697,0.2054291673,0.3088642028,0.2394537778,0.489840194,0.6133210263,-0.0543874426,0.4465500163,0.1961036374,0.7479261805,1.3123970895,0.5276056435,0.0587980345,0.4971011571,0.1929693182,0.3734422246,0.1942425461,0.1736374354,0.9961546938,0.8966133733,0.3661378312,0.2007566002,0.2241016841,-0.4814114414,0.1781057621,0.4113320147,-0.6988084624,1.0365318974,1.3909401071,-0.9392757281,0.1167099696,-0.3871079303,-0.8641438339,-1.1271707831,0.1845817529,0.0205366792,0.1361734042,0.4509443763,-0.0145238906,0.5162426296,0.1959593092,0.0506740236,0.2256180291,0.314620226,0.4826950334,0.3658331547,0.0495738872,0.4082932396,0.1848645039,-0.1298250839,0.502236846,0.5230850566,0.5675289894,0.6057320444,0.133009818,0.077438308,0.6077778672,0.5665261645,0.8903127241,0.464610277,0.4829954702,0.1092233169,0.366543796,0.2985057064,0.5692732884,0.5679680379,0.4785195513,0.4231838681,0.7687746813,0.5507703231,0.2964595899,-0.0494656834,1.390212032,0.206796153,-0.3559594327,0.8040228024,1.1754923826,0.940773911,-1.1773612012,0.3148093705,0.6824015992,-0.3289296164,1.4784206969,-0.6677394639,0.1308746499,-0.1536346891,0.1636309594,0.0254872811,0.4316925133,0.3090494551,-2.0507132879,-0.2097906649,0.1675498485,0.3530315816,0.2802266966,0.3823054373,0.6106810745,0.2409321029,0.1737132313,0.6214967236,0.7442518007,-0.1531249159,1.131470104,0.8612184201,0.0733432591,-0.1107258999,0.5836602901,0.0282777923,0.3928194392,-0.706548673,0.2695433642,0.0789271187,0.3396477862,0.0081752783,0.6924548512,0.2623977326,0.8784963796,0.2077051871,0.5809836684,1.0958119293,-1.9645555717,0.2029717321,-14.9396086413,-0.4224030261,0.8271838487,1.1399998019,1.1765472085,-0.8099696798,-0.1266209003,-1.6561497697,-0.3085754704,0.6197254773,1.4870109959,1.0549435732,1.2174726516,-0.7195597272,0.6884488422,-0.0146498041,-0.1230353209,0.5223905435,0.5938732732,0.2138107808,2.5670151918,0.5593689132,0.5347217881,0.1650529207,0.4503634312,0.6443960928,0.4307405948,0.3693644802,0.1165612592,0.0124568229,0.5313311659,0.5036955649,0.4078021921,0.6045673835,0.9150894599,0.3040964617,-0.0251150061,0.4332253382,0.4830773499,0.0181026412,-0.0529291701,0.2000750507,0.6260005209,0.5917166044,0.4686521204,0.4925511557,2.0000906846,0.3816526168,0.5446722592,0.6064164028,0.0453001775,0.9113849011,0.0756157647,1.0082690049,0.1008919159,-0.9390567944,1.4835880405,0.3473939692,-0.7736009859,0.3066142503,0.4867013925,2.5499245779,1.9460098492,0.3781116623,1.0717716911,0.1071645419,0.5216240081,0.5910828806,1.612080782,1.0161121553,-1.2759767817,0.9975959134,0.8917005004,0.8864465155,0.8637732579,0.1037178452,0.6780984311,0.0534721788,-0.0967141423,-0.4060194517,0.7133029123,0.5877440756,0.0919788776,-0.419826695,-1.8891647474,-0.0429330916,1.4640372481,0.6634439069,0.3185754117,0.1486521163,0.3078185128,0.7369952611,1.9564651896,0.86941878,1.4746181447,-0.1917677457,0.5659401097,1.3981118384,-1.8518306112,-0.6113982573,0.1618076128,0.775165285,0.3696624648,0.1688009206,0.7166306743,2.7002162124,0.1121247919,-0.1265140123,0.4783544521,1.8917692506,-0.2427090683,0.7903124549,-0.1073597334,0.6414642871,0.9058208763,1.2291476845,0.8730215282,0.756004254,0.3233750418,0.9418789991,0.3095981516,0.5091936967,-0.4031487061,0.0028993518,0.049056604,-0.0679609766,-0.335584468,0.3315073249,0.4660136185,0.1502732534,0.0568032955,0.3330185976,0.4990526819,0.7088120364,-0.078626009,0.0582665418,0.196645508,0.3354559714,0.4134426667,0.0025082829,0.6991605407,1.5825628926,0.4616725461,-0.1282528485,0.674581383,3.3932619634,1.0272897952,0.9965144733,0.2721147482,0.8783462029,1.1258346189,0.0561343468,0.0733864045,0.6873569208,0.8083453634,0.9031950182,1.8878048466,0.8849534462,0.6815312223,-0.4342581175,0.05957347,0.0345021876,0.7744335877,0.2159889198,0.4504666586,0.5850869876,0.7975316517,0.3718386959,0.8384686782,0.1259008313,0.2979137128,0.5552884919,0.2846866387,0.0379129184,0.1354598526,0.226277525,0.0486573066,0.6338842799,0.0806968433,0.1922250129,0.6423375776,0.6017592417,0.1971266831,0.3314399448,0.4019309963,0.4207756839,0.4369691936,0.4733630252,0.4593607997,0.3040868689,0.994687094,0.7471429702,0.6446425621,0.4755724188,1.1149450465,0.5080775818,0.2155686224,1.0609271317,0.7165425879,-1.1614687448,0.4913322311,0.4921771533,0.4669310893,0.681619409,0.7706070587,0.7946225087,0.4688814776,0.2792334998,0.2336857675,0.2579761593,-0.0240930739,0.2106405387,0.6715170744,0.1470516264,0.6110282379,-0.7662845792,0.3457709722,0.1964865804,0.6569592317,0.1943183679,0.0768918665,0.1881258111,-0.029719385,0.3122327778,0.0213371437,0.0200765769,0.5712902653,0.3540723473,0.3180417921,0.1320789141,0.5155062256,2.3051606331,0.0472445462,0.6568568526,0.6737518901,0.0189339441,0.2145646383,0.1934791198,0.1574596022,0.4708385079,0.5314629151,0.2381362658,0.2114711825,0.1489658976,2.2227970106,1.0406478403,2.1901093087,0.6039299268,1.105697534,0.390544521,0.3250192358,0.3550455056,0.2240868175,0.6997903021,0.5388295901,0.2173077589,0.0580226669,-0.416643796,0.1607059419,0.7323677526,0.6304157309,0.5586107305,0.1732990393,0.7300816555,0.9831738643,0.2793035822,0.5903119507,0.4335271249,-0.0093587319,0.0028866299,0.2215468164,0.0530454796,0.2446031221,0.5518638453,0.5525375851,0.4235939683,0.0623160032,0.2447591527,0.1492482589,0.2531225607,0.7985703856,0.3415894105,0.0563850702,0.7721266519,0.7075664944,0.5237180317,0.1071582386,0.56604025,0.3198716406,0.3718515109,0.0836895257,0.0230355536,0.6951797183,0.4566329201,0.6311535236,0.6842622022,0.2791347145,0.3355508122,0.8144385042,1.6255996508,0.1270796153,0.6124216784,-0.040361556,1.1753242359,-0.0343173524,1.345454874,0.0526507033,-0.4771569674,-2.1897556985,-0.0883955341,1.0843225784,-0.5323385535,-0.147297902,1.3364128973,1.2822574344,-0.0137742921,2.0856522824,0.8052665568,0.232002549,0.1988250653,0.0605530332,0.3609995301,0.7977590391,0.3200554407,0.5350598595,-0.1865120771,0.6508313872,0.2097489633,0.3659439292,-0.7366013561,0.6811037221,0.6435592714,2.0261344952,1.3941154199,0.5865856625,0.2315253409,0.5216337574,0.5819148835,0.9854218535,0.6386500677,0.3449582235,1.9772769207,-0.1630847647,-2.4050904017,0.4321298774,-1.1949329748,0.5526811323,0.5093179207,-1.0871309151,-0.8674232516,3.7750264927,0.6890739599,4.0359261873,0.8749133487,-0.4139670182,0.3312605964,-0.3839074634,0.2250040335,0.2826644806,0.8081323012,0.780050954,0.5967830136,0.6002088043,0.3663549215,0.4820841458,0.8232640969,0.1751167012,1.7473553319,0.0712803341,0.652545815,0.1246904957,-0.2676975629,0.6570639895,0.8073662728,0.2131116812,-0.217853659,0.2440424372,0.350164041,-0.0692875562,0.3983194948,0.0437230739,0.4150419457,0.7954520812,0.7961600356,0.511159804,0.6502015015,0.7494245695,0.353552462,0.1931379229,0.4610126982,0.6325273503,0.5025922914,0.7339296649,-0.0550678916,0.2234910893,1.3292490305,0.8145462114,0.2874746928,0.8021262893,0.4655399327,-0.2797253231,0.2024036216,0.5721443637,0.1326477005,0.4143643652,0.5873971491,0.450999683,0.2391219807,0.3193252099,-0.0625511079,0.3068714554,0.7146650663,0.6225579871,0.0220366705,0.5459203235,0.0366994809,0.1562406398,0.4397248267,0.5193783915,0.3697891385,-0.0534544177,0.5624825345,0.1579197082,0.3439649053,0.649446652,0.440506466,0.100526929,0.4119763812,0.34474678,0.4273520311,0.632523632,0.2323514012,0.0666072875,-0.0479662823,0.1807955899,0.3036077468,0.5082095015,0.4469029615,0.4278355894,0.665798142,0.8521877639,0.5387938333,1.2260560524,0.6813130741,1.3352265889,0.9042654343,-0.4068251037,0.7240793676,0.7519482199,1.7104724907,0.0016424872,1.1527737754,0.2577400327,-0.405867759,0.1324636377,0.1915744175,0.4204839907,0.7314651815,0.548086971,0.0811263503,1.6005427178,0.5394428562,0.2300961663,0.7301371306,0.0720011044,0.4540771605,0.130413554,0.4187088876,0.8647162935,-0.0425122817,0.6823697058,0.3233591636,0.2578310426,0.1597925557,0.468007386,0.3363436406,0.2582765764,0.1694140713,0.8582518056,0.7056655546,0.3840934139,0.1406721494,0.4876840564,0.4973575961,0.7325032751,0.6361403372,0.9284323654,0.4935747296,0.1265921147,1.3566445426,0.2084655326,0.6093454033,0.7068969639,0.7781238104,0.6409346676,0.2257393899,0.1900678783,0.4506333741,-0.6548919978,-1.0750106211,0.9527261166,-0.5402315664,-0.1634742191,0.027719044,0.3184906786,0.3329451537,-0.0478219312,0.1675139258,0.054195951,1.4137755741,-0.1067183906,0.5378863454,0.1296391658,0.6988507162,0.3398961099,0.774004983,0.1100100725,0.2991080844,0.4272519945,0.3335297322,0.3849896005,-0.041004374,0.0498267045,0.0675397823,0.4692529785,0.3237627684,0.6420863169,0.3784654684,0.2628509848,0.0501275805,0.4337873554,0.6161067387,0.2439949076,0.1291400702,0.1613990925,-0.0187341703,0.7482025471,0.1477840749,0.5668622521,-19.3456453784,0.8910373464,0.2331526172,0.9633133479,0.2751649024,-1.3984987095,0.2675946567,-0.3727211182,0.775202769,-1.1264545817,1.6412382238,0.57220815,0.3691355616,0.011119316,0.7767950168,0.5415656446,0.2447799335,0.5180326121,0.8136614244,0.3666451215,-0.0881596873,0.7219702431,0.4420643955,0.0916911985,0.0537491671,0.5973390832,0.6209294467,0.3304072559,0.074379328,0.3155842096,0.7749122823,0.0865016933,0.4159736062,0.4228014285,0.1002989998,0.2473871076,0.2848107669,0.2194981755,0.1922151936,0.334568389,0.2159321336,0.3034095305,0.5776483045,0.6818129284,0.729303884,0.0382158608,0.4965310354,0.6770878643,-0.2722063209,0.3270078091,0.9719675086,0.5137556154,0.4962225036,-0.1638513921,0.5618645416,0.7894111602,0.8151573206,-0.1930690361,-0.1464104097,0.3019564423,1.0369782042,-0.4579686536,0.0148666617,0.1546222427,0.3241555407,0.2698579098,0.156962907,0.6824527587,1.0824078231,0.787433225,0.6639045685,0.4631073208,0.5144607639,0.3294178938,0.2725016182,0.1787423695,0.0517205658,0.2654951995,0.4672178007,0.3656967034,0.1318026981,0.0462361561,0.6309613116,0.1802307899,0.3119739113,0.307610885,0.4019173351,0.0703182459,0.2887479194,0.1229871398,0.2387447589,0.1246405349,0.429592142,0.4041131269,0.1751149887,0.5345854312,0.4479438503,-0.6225025264,-0.1214305866,1.9705600316,1.1418628653,0.0560599727,0.2520288152,-0.171379571,0.5556927304,2.8917832316,0.2451195261,0.9142803666,0.1557242389,0.6423460017,0.1681038331,0.5249587608,0.5379116891,0.5329550587,0.1962238326,0.0409833609,0.2563013295,0.6215768692,0.6816032067,0.055827961,0.1326778948,-0.1133428677,-0.2633511855,0.4413711818,0.5673957478,0.3043912404,-0.0574273469,0.2647527032,0.3374079382,0.4454144489,-0.3352043945,0.3896316456,0.4355312734,0.4597379271,0.6490579329,0.1254396445,0.0539132216,0.2611072031,0.6284256432,0.1784248332,0.4774591697,0.9249019886,0.398485623,0.485020666,1.0737433156,0.5603691905,-0.2150682835,0.0501533157,0.7042237425,0.8546863748,0.6966261543,-0.8572193164,2.1761313773,0.5622644274,0.8102703651,3.4074707734,-1.4559386906,2.4743992768,0.4523845225,0.4583334304,-0.2222690343,0.9818221942,0.4274026114,-2.8662067749,-2.8660794796,0.2078619533,1.3515286317,1.0137543761,1.7153233221,-0.4574249584,0.6105930159,0.4311602172,0.5559339882,0.9979970465,0.9111775877,0.5610363831,0.2101376392,1.0180237431,0.4451242651,0.7200592315,0.4810005441,0.7948843876,0.8210360838,0.1353833138,0.6588787809,1.2803866151,0.7413722988,0.9808302275,0.6384544777,0.3567358089,0.4583406737,1.2555388789,0.274067004,0.0506284303,1.3181321761,1.3907127064,-19.0344098519,-0.1274047841,1.5010287781,-1.1884116705,0.9734008829,0.1550390694,0.6184024028,0.7740212719,0.449431709,0.0676376444,0.0122418932,0.0693733811,-0.0200732289,0.3525193368,0.0420924914,0.2608700658,0.6593743822,0.1879768339,0.7758316013,0.3995697275,0.7504710121,0.6266609467,0.2854967752,0.0611962476,-0.0587535675,0.1778346063,0.9728040266,0.1494305193,0.24809917,0.4521402577,0.3045737302,0.1841529985,0.8628099868,0.5591398314,0.6528537142,0.485519587,0.056287452,-0.0754315321,0.3349730184,0.6638707361,0.6734785648,0.5939068888,0.8347965683,0.1766167346,0.6748746976,0.3323165003,0.4820240943,0.3495134999,0.8867613018,0.6416016735,0.1001775092,0.6630122437,1.4345671032,1.6855402041,0.0102269233,1.4995885949,1.1474678642,-0.2446472968,1.0147233035,0.4324231844,-0.7958230359,0.2872229707,-0.3042591606,-0.2339192537,0.5979517887,-0.1297680165,-0.9957449667,0.5268825697,0.8345414095,1.4418084665,0.2634373568,0.4679461983,1.30243965,-0.10045609,0.3422198766,1.0414231908,0.0638345714,0.0973432895,0.5947132841,0.2703914193,0.7611529862,0.0734603394,-0.0529463641,0.3284814552,0.6841484468,-0.1966668264,-0.8141416142,0.7556244813,0.3411006981,2.14595483,0.6220104457,0.5777523675,-0.3061464203,-0.385007306,1.2787586611,-0.0289922793,1.8489296691,0.9041306141,-3.0629254138,-0.1375013849,0.3889863582,1.0256580031,0.2394360209,0.5712962586,0.3406549748,0.812236362,0.4305362017,0.5658266719,-0.0077104632,0.3832435247,-0.0780248894,-0.1855571695,0.3914355998,0.6766246332,0.3986791354,0.7003256566,0.2254585333,0.7653438565,-0.0289720987,0.2859601642,0.2202677882,0.4877224545,-0.0767018814,0.4600336704,0.8018224735,0.517922015,0.1148479233,-0.0407136727,0.6633140054,0.3265290573,0.5831399017,0.3279681925,0.5181716928,0.3257365032,0.026364694,0.2756082555,0.3476385025,0.6013668016,0.3591556265,-0.0696738898,0.0956235308,0.4156239879,0.6208749402,0.6728229261,-0.0073892764,0.4056703125,0.2681621697,0.4282422984,1.6257378315,0.4883697589,0.6123313956,0.4695541668,0.2514696736,0.2008877849,-0.2626667477,-0.0809319216,-1.0780404481,-0.0943586622,-1.1582699426,-0.3137339229,0.2866475146,-0.0182318549,0.5181373,0.193568179,0.4666570779,0.7885440722,0.2268386939,0.2159776691,0.0860401226,0.4368203207,0.4801207315,0.149283018,0.5043072788,0.5089453117,0.2851084836,-0.1793931135,0.0877876387,0.1915187418,0.5640174299,0.3475449444,0.5383219774,0.2856620614,0.3026457431,-0.0438972603,0.3180637535,0.2023421465,0.0482967318,0.0083178197,0.5308516648,0.6115684254,0.5317107599,0.6704054941,0.0376040671,0.4061130164,0.6034800436,0.2368741136,0.1478483512,1.1349694517,0.755869842,1.1896235174,0.2668315592,-0.0828048416,1.2452790584,0.0966085879,-0.5797370505,-0.771330221,1.1511631015,0.6884236149,0.0491766128,-0.1919439114,0.594376532,0.0895368502,0.0595658411,0.2992770823,0.8475856011,0.8836413258,0.4093828316,0.6584973541,0.0686997778,0.5558840051,0.1638766613,0.6671355471,0.0634488235,0.8936468916,0.2270508242,0.2794463547,0.7133373168,0.2547423593,0.3443244056,0.5937361878,0.0580085975,0.5507934616,0.1674381945,-0.0795042679,0.4308866916,0.7439063703,0.4413494215,0.3422231702,0.4918255611,0.1988090204,0.3992668666,0.5859380171,0.4104083298,0.8499331506,1.1042085167,1.2493882151,0.673016215,0.4360296037,0.5280290853,0.598415039,0.0073682376,0.4177693386,0.6372046255,0.3598147943,-0.1807627903,0.3398250928,0.346179722,-0.4724076281,-0.0779668123,0.4760523161,0.6116381313,0.5463649058,-0.2012407041,0.6061097818,0.4513519756,0.2917043155,0.2999472799,0.616703326,0.6360910316,0.4255985076,0.0766408284,0.2851553703,0.2431405621,0.0239721918,0.2834291421,0.6686193925,0.420464707,0.4385654265,0.2283762621,0.3291828433,0.569056785,0.2901304113,0.6991233988,0.7509080301,0.5841546317,0.0248352922,0.1727944946,0.1756280725,0.9473872225,0.4212217249,0.2963877332,0.7242193622,0.4921678193,1.3101342312,0.2951132269,0.7498763453,0.773597499,1.4580285651,1.1834032675,0.0830276912,0.4359065783,3.2569701509,-0.2453471742,1.737273023,1.8984913239,-1.0910815534,-0.4214609977,-0.1152816956,-0.5762880337,0.6679468159,0.34393023,0.4454174008,0.1801816152,1.6044713873,0.5759854774,0.6537968669,0.6334973217,0.3517850648,0.6652277044,-0.146081445,0.5576067147,0.4367447598,0.4412298079,0.2562952587,0.6378413916,-0.1149727745,0.1021771329,0.2854834729,0.3800256899,0.4847436926,0.727584586,0.1861327622,0.7265281465,0.1802297617,0.5288616271,0.0290304409,0.2754418194,0.220792109,0.6490714163,0.7354076853,0.5688040163,0.3902929789,-0.2160229708,-0.4854411329,0.7667975076,-0.3250129979,1.4227224847,0.310359798,-0.1375573803,-0.3123231012,0.9210183012,0.1667552323,0.1584759659,0.1133051741,0.3669959019,0.1500964297,0.4967560428,0.4483384153,0.1718714873,0.2782874778,0.1067195435,0.9181071554,0.4644398299,0.5901857421,0.7526344122,0.2210917787,0.6900611996,-0.3164510058,0.0843854732,0.4327369684,0.5067900235,0.2547536441,0.050995764,0.535649322,0.0463922148,-0.2386575582,0.3472414095,0.0071010091,0.4457080688,0.0216159648,0.2067351871,0.1311440995,0.0539103199,0.3246256641,0.5438072455,0.7709793332,0.5733972393,0.6454202805,0.7781046841,0.0475658714,0.4440706428,0.082956108,-0.0823232382,1.1304746877,0.6460615558,4.3140431767,0.685749962,0.3824515711,0.5478383976,-1.7511378603,0.6429272138,0.25884851,0.3711601281,-8.9253293975,0.2912654972,-0.2012339225,0.024399356,-0.056086134,0.6691182061,0.4552965727,0.5006243118,1.3413930191,0.2783482937,0.2256031498,0.2547338004,0.1403822653,0.2578875283,0.0869432573,0.2432935631,0.1577447365,-0.0129730367,0.4556064698,0.4399196262,0.2397860083,0.2545114058,0.3836352956,0.5639583385,0.4708282898,0.5673882684,0.4636654442,0.4836677213,-0.0881530648,0.4809751707,0.1390540452,0.4330387924,0.8406359406,0.7199371924,0.6492834752,1.0867440379,1.1872116215,1.1388394493,2.4198088781,0.4647806407,1.3554207604,0.8486211921,1.7464584461,0.240586968,-0.2464252895,0.534322373,0.2348161293,0.1226403179,0.465948402,-1.0909773265,0.6163655377,0.4837730343,0.1262336393,0.4320907549,0.0456227526,0.2187762622,0.7241334367,1.5930556001,0.5478567311,0.7036808809,0.1332830083,1.0281663803,0.0392573243,-0.1056128617,0.287370146,0.1847183027,0.3805956949,0.7037696623,0.1133323383,0.2789735568,0.5425158735,0.79516769,0.2795077733,0.799716204,0.1531948382,0.5638625769,0.5581960608,0.1778384563,0.0066222438,0.218380764,0.6422081628,0.5537442066,0.7722123726,0.4484916869,0.264512379,0.2236505154,0.6310328056,0.1175280144,0.4464194316,1.9674316359,1.0355813227,0.3774421458,0.8216189508,0.2844190905,0.3064003635,1.010874828,-0.3450760068,0.1013416676,0.4658226437,-0.4134821472,-0.1661156998,0.2155899468,0.2048325431,0.6921245827,0.3924715856,0.6246913439,1.1637196046,0.03388585,0.2817422967,-0.1400421728,0.2660972562,0.2261542607,0.6329928427,0.1561735935,0.7506985486,-0.0076298519,-0.3088800612,0.0505970172,0.1089387666,-0.0227427923,0.3372376505,0.5484575164,0.0063309866,0.4393799071,0.3999487011,0.4711459091,0.3656135593,0.1485494555,0.1434373937,0.6398949673,0.4320674358,0.368386741,0.3712441187,0.1571826639,0.1982272994,0.307302764,1.5610691934,1.1482650882,0.314676947,-0.6911805062,0.2693191386,0.0456062034,0.2816272963,1.4010281789,0.4681704879,-0.0667817065,0.2981098501,-0.527329152,-0.3804709334,0.077875384,0.6605403158,0.2390764425,0.2927440282,0.0453506683,0.8472183116,0.9037558942,0.2831693927,0.7234464493,0.3552685606,0.1741330943,0.4253278921,0.0488814717,0.0526322977,0.4978031875,0.5433004345,-0.031316268,-0.5274048408,0.5171056246,0.3359969103,0.2109933418,0.2883393634,0.4087750935,0.2468765203,0.2830946769,0.6525965443,0.2970732033,0.4803467041,0.0473960928,0.1851809098,0.4089525526,0.8373024165,-0.2232660877,0.6759149183,0.2695290417,1.1714237433,0.1381041184,1.9613449132,0.5622126164,-0.5969286449,1.5056581603,0.0952455803,0.9685936078,1.6834640235,0.9438683896,-0.0414465663,1.1083648867,-0.0186042297,0.3399176286,0.3878640837,0.033234168,0.4320941769,0.2267185256,-0.1244440813,-0.6038470959,0.5410219338,1.0028773975,0.6479029325,0.0899961735,0.1836095051,0.3486288984,0.530941663,0.5072153652,0.6081017128,0.4329226052,0.5937421225,0.4032674942,0.6359618092,-0.4077906176,0.4253187619,0.2710086036,-0.5283587095,0.5639121197,0.3551394278,0.1579543697,0.5452688591,0.3573854977,0.5500327581,0.4432290743,0.3777350155,1.2998706169,0.526946335,1.1468378902,0.3335483774,0.1694639892,0.3024190195,0.1733298606,0.3252107707,0.8772425603,0.0801489488,0.4131701436,-0.2767960054,1.1474378275,0.2708816424,-0.4668891634,0.0700690839,-0.0950346951,0.3652110649,-0.1318595674,0.4739544592,0.3511234999,0.2131609315,0.0106597249,-0.0008202966,1.0236347225,0.4772271363,0.6527772089,0.3592248744,0.2440531649,-0.4142961901,0.3884368766,0.5713413441,0.5584139867,-0.005180053,0.3549292465,0.5439526718,-0.0536418681,0.5267537826,0.6715975776,0.2675138275,0.4628564339,0.1055596657,0.1787413013,0.6035766225,0.3760570912
   0.1724660891,0.7933678365,1.5039953768,0.5721791394,0.6257975314,0.2531804287,-0.6196039181,-0.0104680131,0.4169380679,-0.3797523507,0.4706025515,0.571809655,1.4613090751,0.2959023362,0.5994294562,-0.2258941529,0.003087773,0.1866833144,0.1444428013,-0.8521312516,0.622901946,0.0612757456,-0.0491107071,0.2378978635,0.6965946064,0.2473015698,0.617889153,0.1750432682,1.6910267918,0.7246200399,0.4663814048,0.7132090297,0.5254895678,0.262112748,0.7309383666,0.0808250049,0.3612897511,0.7109297625,0.630562048,0.506894066,0.5304988727,0.2777506994,0.5388093516,0.5721734844,0.6813665886,0.8531879975,0.6633466363,1.0105842743,0.7096325636,0.360869258,1.2692874424,0.8756895193,-0.1386395512,0.4279357615,0.8362829567,0.4561648167,0.3448516712,2.1093030355,0.990112681,0.4319783858,0.3949945086,1.8581331165,1.496272546,-0.6404795389,1.0154024694,0.6352800017,-0.0695159339,0.4324558323,0.7348039482,1.7925779369,-0.8236771758,0.326570783,0.4353743999,1.0060768542,-0.0851730537,-0.5514154023,1.6259675661,0.4996561088,0.7332409748,-0.2643577281,0.3333810205,0.8132509164,-0.7109264233,0.2336236691,-0.522042119,-0.6960815297,-0.5692932731,0.0843030802,0.1747373783,-0.5952836254,0.2082485285,0.4574249589,-0.0326855494,0.8515322923,0.2108754791,0.534793507,0.1481705063,0.0526918977,-0.1316725254,-0.1891906993,0.2451150808,0.5469886378,0.4798937231,0.7365673759,0.0958213585,-0.3439653114,0.409486206,0.5965219123,0.1993893575,0.3710414951,1.7674866363,0.574412038,0.9290255845,0.5738709448,0.6407728438,2.3104191487,2.7123951923,0.8209814989,0.4152595419,-0.2051230146,0.1007052827,0.3511974797,0.0988885155,0.3372668841,0.6183479472,0.0492242431,0.4867935496,0.4958386067,0.5515655215,0.6594295445,0.453621748,-0.3258713578,0.7320458759,0.030662912,0.4092548651,0.385101856,0.628698815,0.7747062133,0.3111609046,1.2786165069,0.1804388787,0.4598788232,1.0464975868,0.6440739457,0.6848545809,0.5228962499,0.1702682507,0.1763137185,0.0798540978,0.3966162587,0.2438074482,0.3800682617,0.4149190545,-0.009056642,0.3636296384,0.55101085,1.1321348065,0.6280112497,-0.1275926229,-1.4596745323,0.3615025892,-0.1321864988,0.4593794074,-0.5510069762,1.3516098388,0.0578911953,0.8368244632,0.4573311969,0.6398202711,0.076833875,-0.2921502439,0.8333814645,-0.0518355542,0.7613131225,1.515037551,-0.1175671469,0.514381817,0.88833006,0.9612874207,0.5616548808,0.0328611518,-0.1494611001,-0.1095643186,0.5869750292,0.3919727299,0.0189159521,0.8261431688,0.5288343987,0.5182056013,0.4024113693,0.5418474116,0.9614444472,0.3138808634,-0.2337803742,0.2199039376,0.1575603382,0.6535703628,-0.2390968634,0.5089724336,0.3517395222,0.4335403355,0.821718941,0.0471628954,0.3182756247,0.0702419769,1.1856987195,1.986106155,0.755603711,1.057966903,1.2456251895,0.4969905647,0.6796499553,0.4785207538,1.1619510116,0.0410546657,1.085184045,0.4602516713,0.2443599345,0.3104919097,-0.0170747544,0.0904532724,0.3606698503,0.3907419187,0.3745337061,0.7701717664,0.3010411705,0.7108894507,0.5878295376,-0.0151244326,0.6852239046,0.4196440252,0.2770321504,0.0174889871,0.2525418936,0.0940276237,0.3975618041,0.5378729459,0.273133322,0.0682800914,0.3870262722,0.5676576752,0.3234547624,0.0633283486,0.5706415844,0.0843712073,0.3079181803,-0.0221993461,0.172707426,0.7882860562,0.587309553,0.464754332,0.6669815298,0.795800323,0.8221479466,-1.6848279021,0.5963108679,0.4205441457,1.1945385347,1.0073824966,1.0810424163,1.1024025125,0.3047835589,0.5802326495,0.2710877628,0.7138219143,0.1328999107,0.0472639455,0.1298203555,0.0233536688,0.2798608065,0.3043950754,-0.2180506146,0.6266914554,0.4746958664,0.2736058406,0.6180465611,0.2776105042,0.1156105571,0.5808753032,0.2879886095,0.0066716431,0.5308030886,-0.1820596896,0.5051889855,0.1400436711,0.2426470761,0.192844439,0.1105448844,0.6152439373,-0.5672705753,0.0042836218,0.6447712006,0.0485021624,0.14433969,0.4726446008,0.1382735392,0.2853150024,0.033977873,0.682735144,-0.1406074734,0.1496215922,0.0558342706,0.7091234316,0.3103309474,0.5953741556,0.873824968,1.4792121344,0.7743504251,0.6128812435,0.8327502349,1.718188267,1.0722536736,0.224416656,0.0513001739,0.7404796573,-0.1070033685,0.1934446746,0.0830930686,-0.0847802624,0.3253016791,0.3991587254,0.8419885318,0.9847361024,0.4914173671,0.4839872645,0.4479416203,0.6865476421,-0.1920230349,0.5143185254,-0.0424845788,0.1643863058,0.5179338355,0.5532735259,0.6095702341,0.5710329105,0.0985233519,-0.042975457,-0.1553308914,0.7360679026,0.585714833,0.1211931781,0.7194699073,0.3633948867,0.4279299577,0.1303125869,0.1882552187,0.8627148479,0.4527209085,0.01146172,0.2217957237,0.2331453957,0.7961344212,1.4446461404,0.8548674947,0.6060691117,0.8031038967,0.7454903277,-0.2846918095,-0.0103127884,1.3878924342,0.0962410435,0.446387011,-1.7032186975,-0.5390622177,0.6855099414,0.194576492,0.114131173,0.4828627927,0.6281305601,0.3564742799,0.0958587351,0.866806008,0.5484333487,0.996739555,0.1854915796,1.1778314727,-0.3311077259,0.3363366305,0.6830026337,0.7386284199,0.2835367211,0.128316925,-0.00420276,0.2586786871,0.6534674449,0.3498668296,0.3906338224,0.1133661336,0.2063898293,0.0153783914,0.1289326666,0.124858844,0.0715428045,0.1301584042,0.2692984967,0.8616231843,0.6674892972,0.4268690364,0.1994722586,0.3340672201,0.4823953928,-0.1122174311,-0.3365551333,0.5422560857,0.813737095,0.5824537927,0.1527614744,-0.0148183636,1.1188436615,0.2632673097,0.0109408704,0.5047405963,1.1896379672,-0.0489581553,0.1252247862,0.1399839086,0.3485271037,0.1372060439,0.0392594762,-0.1937898671,1.2016809553,0.4477900239,0.0359193118,0.5667378436,-0.0739115741,0.1795102984,0.2142375243,0.1270337316,0.6082833361,1.0394177123,0.3123657638,0.0236714799,-0.2627586668,1.1568312752,-0.1610093589,-0.0272284739,-0.0115738527,0.1263503185,0.2834056248,0.0139896977,0.3578425062,0.1490630677,0.1183461023,0.6597751243,0.6505306464,0.3090936903,-0.4197542337,-0.3498853568,0.2833652871,0.3390484137,0.6561459543,0.3412862789,0.280841151,1.965312292,-0.1320471413,0.1876822224,0.1384603387,2.8406936873,2.3307070587,-1.0876003569,1.2046360931,-0.2086910866,0.0820790611,0.2141980971,0.9136772455,1.2792685652,0.7498225698,0.0517448247,0.6917620724,1.5963303552,0.6282042074,0.662887736,0.6525799071,0.1762410183,0.3880582893,-0.4785700086,-0.0629980803,0.6022821308,-0.0317897437,0.199696785,0.537173151,0.1869496561,0.1889477325,0.0658340813,-0.0870450505,0.282160206,0.0401711267,0.1896318729,0.7641722199,0.0558095771,-0.0093247181,0.4736923202,0.4526721673,1.9349723945,0.7957791962,0.6339604245,0.255510502,0.8097998645,0.5868442782,-3.2092187078,-0.1831533124,0.7849470005,0.8346016993,0.6512432549,-0.7555917405,0.7685370201,0.6794149579,0.4151971908,0.0958640891,0.2308608756,0.0365746256,-1.7723001971,-0.0968629954,0.0255698814,0.6400335584,0.276232598,0.6655812475,0.9867886953,0.8921968348,-0.4597067663,0.3913178426,1.0756206473,0.5187343298,0.2876353164,0.3870717376,0.2433621642,0.4471122426,0.1757886473,0.0182627128,0.3861682886,0.5511585142,0.4013023009,0.053303019,0.2652672694,0.2676678723,0.4132572484,0.1032669746,0.1821347499,-0.001953635,0.6937075861,-0.0492703222,-0.1798594327,0.2762193885,0.9171630047,0.3774664825,1.4003324831,0.5273617895,1.1746131164,1.5230893095,0.9033645134,1.046094088,3.4455669964,0.4592232822,0.4031626035,0.3843734815,1.5406379566,0.1155097336,-0.5798909737,-0.9042483505,0.1534263645,0.5663994799,0.602875397,0.457917698,0.2473761116,0.0790853142,0.0780754999,0.227341866,0.1529188976,-0.1262204018,0.8046753455,0.0328473168,0.3906738799,0.1979350731,-0.067801197,0.3181102139,0.1941536901,-0.1878053034,0.4266200562,0.4716772293,-0.0108798792,0.0999055026,0.6939347743,0.1045319043,0.1200380973,-0.1080589389,-0.15940486,0.274140862,0.5191332825,0.2285901324,0.277930017,0.0012853391,0.8349974619,0.2642025906,0.194250691,0.6455642886,0.5701400842,-2.0679608788,-0.5921216932,0.5300593685,0.1805518501,1.4311292777,0.4725828386,1.4201093804,0.6775578002,-0.4901308058,1.5800157408,-0.0711327373,7.4965737831,-2.1006434406,0.3772735923,2.9605323466,-0.9644203656,3.4752715711,1.4957593861,-0.155126737,0.4524974942,0.6096117436,-4.8066531103,-0.8471343001,1.228521456,0.5189422934,-0.2787157954,-0.5843375241,-0.0862367851,0.2497222025,0.6698373004,0.3829436324,0.2519554724,-0.3597892159,0.9873798647,0.457029154,0.1989144404,0.8559312912,-0.2920854291,0.2633028305,-0.3165400577,-0.1462127003,0.3517852987,0.2023904561,0.3989402424,1.1466582818,0.2307301172,1.094193877,1.2531692156,-0.202774901,1.3228754093,-0.1831708101,-0.5077943828,0.5354652113,0.9858006886,0.7251729137,0.4760871822,0.591712764,0.3213436561,-0.0437411898,0.0224459166,-0.0285546413,0.3973049039,-0.386293435,-0.7716761415,0.2031927584,0.6182685221,0.1849936246,0.4643349964,0.3534715084,0.692222051,0.2122292247,0.7505752344,0.3355502747,0.5966635034,0.0230271658,-0.0773582233,0.5727673315,0.2288823139,0.2687878441,0.4003596029,0.6035492605,0.1815508393,0.3614111689,0.2223336604,0.3415737957,0.819822278,0.483671195,0.5488621504,0.6715511153,0.3135898604,0.379033187,-0.0524330185,0.2921421346,0.2244109896,0.5824788984,0.0671438016,0.5660738124,0.321101818,0.3489241095,4.460058941,0.3946158799
##end
biasActivation=0,1,1,1,1
[BASIC:ACTIVATION]
"org.encog.engine.network.activation.ActivationTANH"
"org.encog.engine.network.activation.ActivationTANH"
"org.encog.engine.network.activation.ActivationTANH"
"org.encog.engine.network.activation.ActivationTANH"
"org.encog.engine.network.activation.ActivationLinear"
