encog,BasicNetwork,java,3.2.0,1,1431302148063
[BASIC]
[BASIC:PARAMS]
[BASIC:NETWORK]
beginTraining=0
connectionLimit=0
contextTargetOffset=0,0,0,0
contextTargetSize=0,0,0,0
endTraining=3
hasContext=f
inputCount=113
layerCounts=1,81,170,114
layerFeedCounts=1,80,169,113
layerContextCount=0,0,0,0
layerIndex=0,1,82,252
output=0,0,0,0,0,0,0,0,0,0,0,0,0,0,0,0,0,0,0,0,0,0,0,0,0,0,0,0,0,0,0,0,0,0,0,0,0,0,0,0,0,0,0,0,0,0,0,0,0,0,0,0,0,0,0,0,0,0,0,0,0,0,0,0,0,0,0,0,0,0,0,0,0,0,0,0,0,0,0,0,0,1,0,0,0,0,0,0,0,0,0,0,0,0,0,0,0,0,0,0,0,0,0,0,0,0,0,0,0,0,0,0,0,0,0,0,0,0,0,0,0,0,0,0,0,0,0,0,0,0,0,0,0,0,0,0,0,0,0,0,0,0,0,0,0,0,0,0,0,0,0,0,0,0,0,0,0,0,0,0,0,0,0,0,0,0,0,0,0,0,0,0,0,0,0,0,0,0,0,0,0,0,0,0,0,0,0,0,0,0,0,0,0,0,0,0,0,0,0,0,0,0,0,0,0,0,0,0,0,0,0,0,0,0,0,0,0,0,0,0,0,0,0,0,0,0,0,0,0,0,0,0,0,0,0,0,0,0,0,0,0,0,0,0,0,0,0,0,0,0,0,1,0,0,0,0,0,0,0,0,0,0,0,0,0,0,0,0,0,0,0,0,0,0,0,0,0,0,0,0,0,0,0,0,0,0,0,0,0,0,0,0,0,0,0,0,0,0,0,0,0,0,0,0,0,0,0,0,0,0,0,0,0,0,0,0,0,0,0,0,0,0,0,0,0,0,0,0,0,0,0,0,0,0,0,0,0,0,0,0,0,0,0,0,0,0,0,0,0,0,0,0,0,0,0,0,0,0,0,0,0,0,0,0,0,1
outputCount=1
weightIndex=0,81,13681,32947
weights=##0
##double#32947
   0.3899744473,1.3739589882,1.5025037155,0.9049058287,0.3156270041,0.6312034158,0.4025487136,0.8243434151,0.4787376349,0.2338322061,0.315287237,0.6562659595,-0.798155335,0.2560668945,0.5415258382,0.3322620947,0.5904467425,-0.6172427236,0.6938077603,0.3906026667,0.4683429561,0.3879281837,0.17880449,0.7698414724,0.4114033268,0.8287668935,0.3459403998,0.2798135168,0.5408801387,0.4739573634,0.5812559106,0.8017143612,0.6370657764,0.15673977,0.7462710746,0.2588693172,0.9363891335,-0.653123275,0.2019869457,-0.3152151901,0.7899472247,0.7496702414,0.5026391139,0.5812742415,0.591847636,0.764385947,0.5034220315,0.7822888161,-0.492196068,0.5424905813,0.528199908,0.3737742204,0.6102116519,0.705634431,0.2782202751,0.6233823752,0.0746562254,0.2758035396,0.5458541232,0.5187435139,0.5015262363,0.4737317942,0.3498964259,0.603731408,-0.2757206796,0.4290825902,0.4579503776,0.5736750965,-0.9884515022,0.1585236052,0.4054266266,0.6392603534,0.5846040094,0.1822744365,0.6889894304,-0.8700259391,0.4158809573,0.3847224193,0.2260195464,1.0655074248,-0.5295440259,-0.2906606907,1.0051587942,0.1732517291,0.1535609826,0.49878297,0.9403109786,2.1220780253,0.279662444,-0.2090797064,0.2200092261,0.4408188708,0.0493308676,0.8121953513,-0.043853217,0.1971034736,0.7916902722,-1.1876140416,0.9690272113,1.9811062227,0.6200764609,0.0585451671,0.6496887682,0.5288448223,1.5364472464,0.1734242216,0.5798874417,2.0212955486,0.4268404809,1.0665198568,0.7201616979,0.1640287562,-0.0012789917,0.3287777006,1.116065236,-0.1311457428,0.4406233482,0.5918712215,0.9873491886,0.302005894,0.3251694248,3.902266219,0.1463928614,2.2663239003,-0.3872525408,1.3222966158,0.381366062,0.5672391405,0.5899059092,0.8093475654,0.0654748482,0.8847191698,-1.4118631613,0.5826688202,1.3933552561,0.5624056685,0.6719196401,1.3287227009,0.2490602183,0.3075032768,-0.0815088773,0.2699920877,-0.1823555403,1.6113311036,1.4123337422,0.8427988339,0.120030497,0.6183522719,0.5494603603,2.9561862767,-2.1207203766,4.7179782811,1.8462756352,-1.3749808404,-0.4776854388,-0.0313754333,0.2379577766,0.8792509726,0.4938544388,-0.9762422844,-0.2030272733,0.5072389995,-0.2907462368,0.0447658288,0.2463449911,0.3903242833,0.6443123156,0.0165909145,0.492285586,0.6837608375,-0.203404034,0.2551950676,0.6746969992,0.3072401884,0.5712603004,-0.2615534499,1.0485291867,0.7387274143,0.7073738927,-0.0629295626,0.6816425182,0.6825695948,-3.1712888794,-0.1066313879,-1.1296116471,-0.6335610151,0.4626491979,1.0799425397,1.0283314963,0.3764985256,-0.5343588089,-0.2134655376,0.6869324793,0.8078596383,1.0626231598,-0.2719302449,-0.8366572803,0.4120885707,-0.7281465145,0.0638174054,-0.4101433125,0.3776849245,-0.9443162105,0.6398400064,0.6794980327,-1.9007993334,1.0416511168,0.4537901853,-0.0845738224,0.3450677505,1.1196768155,0.4215216868,0.0448695695,-2.3136417617,0.9129804066,1.322083271,0.1547496499,0.2069817571,-0.778140907,-0.733070472,0.2721622699,0.8473294023,0.8307066478,0.3537756518,0.2391045188,0.0312382046,0.7206171025,0.6786709883,1.1027713027,0.5765903467,0.7890894904,0.2552706428,-0.9419259451,0.4367718811,0.4269437415,0.3015598587,0.6079702312,0.7166848563,-0.0256564527,0.9181424645,1.6583395476,5.3046382315,0.3927151709,0.8083788675,6.1882269025,6.4816147151,0.8261863885,-0.1307091191,0.3466208938,3.5647536704,-0.260237478,0.049525528,0.7499921701,0.2415840657,-3.721427993,-0.0131604874,-0.1397687774,0.3848240758,-0.2876571776,0.3643540692,0.2022024439,-0.4720582436,0.2211698924,-0.0690160209,0.3423190584,-0.1233072802,0.2545403767,0.513346957,-0.0468507651,0.0266176647,0.5051690724,-0.9642373092,-0.218662254,0.5373958951,0.4876678574,0.5234849375,1.2332104738,0.3570183627,-0.1279705458,0.8220316463,0.5714247999,-1.3972745843,-1.6111884531,0.5317345171,0.9582725088,-0.8442179397,0.6362561073,2.0431807055,1.1861542245,-0.3986228756,0.0949685036,0.4748071729,0.093010234,0.3347138903,0.5042439896,0.624095843,0.7421123654,0.1771476871,0.0141733625,0.0678729642,0.4419636396,1.0494159228,0.1518230014,0.1889920424,0.8179640663,1.080341651,0.1001012533,0.1913460514,-0.2384186772,-0.2446930761,-0.7878250345,0.4018851929,-0.9849105086,0.6528161609,0.1668077513,0.3848451209,0.8057566327,0.1541609405,-0.0854875658,-0.0674530271,1.1477016947,-0.347541916,0.5865889402,0.5313741238,-0.8068012602,-0.481723579,0.5966247812,-0.0884318997,0.5946804839,-0.0747196062,-0.1276026327,0.5061450356,-0.0069494473,-0.9888770557,-0.9377261945,-0.1897865083,0.269184925,-0.3501591224,-0.5286142295,0.677942945,0.0196195582,0.6245947068,0.1825072173,-1.3958242156,0.2398273268,-0.9779358542,0.4701082034,0.0820583068,-1.9013444744,0.5690376213,-1.3939678981,0.7814040117,0.3494586187,-0.7957292162,0.7014550139,0.0229608305,1.193989074,0.4113390774,0.8516773479,-0.8932690683,-0.1392620541,-0.1460462513,0.0498685959,1.0533342726,0.0288534796,-0.1374491049,0.1707794058,0.8892489351,-0.6488956198,0.7279833752,0.3173968226,0.2675328021,-0.2215576246,1.0316952413,0.5180359235,0.2489689822,0.0659674447,0.1259586749,-0.5010145373,1.0175830938,-0.2627107074,0.8228476245,0.3210101659,0.3716436529,0.550612787,0.5696343771,0.1070881586,1.2386389848,0.0392273796,0.0918976657,-3.4131128467,0.1680851259,-0.3914673869,-0.560167671,-0.0711861234,0.696975804,0.5560939746,0.9401453689,0.1346555166,0.3755808792,0.0403618041,-0.0934076345,0.432660534,0.1538876215,0.2227132292,0.5066033408,-0.8397468632,-0.0448139721,-1.6057468625,0.8126803584,-0.107236564,0.401535631,0.1266115548,-0.0411984299,0.6758038585,-0.1169393969,0.3028838384,0.7015544259,0.5371767296,0.2917585205,-1.4882964786,0.4400493822,0.7669767877,-0.3106129452,-2.3283438664,-0.4488430126,-0.2234681114,0.667259722,-2.9192867878,0.504367212,0.6856477869,0.0297110791,-0.7182332939,0.5613275012,-1.0838674067,0.5876311065,0.3948116579,0.1331709578,-0.0614683067,-3.6587761845,0.2496312292,-0.2914742868,-0.3469743309,-0.3894264179,-0.1833630529,0.5736895215,0.9900309594,0.3915561378,-0.272448053,0.6958933697,0.7702376696,-1.3419684468,-3.3110867846,0.840671617,0.6144207504,-0.8083177,-0.3312156896,0.9545140368,0.7119577834,-0.835071755,0.1844800355,0.208554024,0.0858139743,0.5024149676,0.3328447856,-0.3963521567,0.5098055701,0.5423992455,-0.0882172404,0.2122387818,0.3311585186,0.7516229899,-1.0402588133,0.749046071,0.6192842799,0.8213396757,0.3872726639,0.4173500571,-0.3337119079,0.6718287049,-0.3315860323,0.5378807087,1.7494753054,0.2798724084,-0.0566440432,0.0697071561,0.745869482,0.0879040701,-3.9441666962,-0.0219919894,1.2235314479,-0.048596772,0.7760073764,0.0867754098,-0.3372141492,-1.4270475655,0.2083579993,-0.3737224394,0.6797630738,0.5977258433,-0.1103430642,0.3472063692,-0.0289867533,-6.8305700695,-1.3828471586,-0.0655489391,-0.2882274733,-0.2028229435,-1.980647914,0.6392732923,-0.3563021127,0.3143985094,1.4367070992,-0.4769964632,0.4557248588,-1.5226136283,0.9342571956,0.2076800078,-0.8766769995,0.6062105026,-3.2109960432,1.7104218957,-0.0968827938,-0.6998473886,0.0973584896,0.2074266571,0.7127324655,0.1994391839,0.406847532,-0.8989277325,0.0084807161,-1.1375985719,-0.3713249003,1.5762452174,0.0321945268,-0.0372349275,0.4045941115,0.8525783566,-0.5633902397,-0.9629933187,0.4062714062,0.2355098179,-0.1067692323,0.5620407831,-0.5751113261,0.1609145425,0.4320196918,0.3116632453,-0.3249508076,1.0887934933,-0.1866632977,0.7500769417,-0.1630592897,0.4713638128,0.091368096,0.6127920199,-0.9764126937,0.4795600307,-0.1717117177,0.4272259518,-4.3310787708,0.1139161036,-1.016846787,-0.1506096093,0.568026548,0.4826771747,0.5719861701,0.4576144771,-0.4775469976,0.7194773892,-0.6511070598,-0.2864040297,0.1273538559,0.4501531001,0.3431038843,0.7223191117,-1.183944056,-0.0208915343,-0.1927768058,0.4317309147,-0.1345212078,0.2442555064,0.415651763,0.5243058208,0.0193896887,-0.2559102969,0.4867700256,0.1792201076,0.207756217,0.2558812117,-1.0130500934,0.1344015994,0.3886176575,-0.0014516322,-2.1550937784,0.5379466576,-0.7798429795,0.1491272792,-0.4676178691,0.3159934867,1.3321299017,0.3709620222,-0.3903838672,0.6002515055,0.6524564824,0.465588489,1.1419684587,0.4356110814,0.2631033799,-0.6580388645,1.2350290209,-0.122844561,-0.5572888248,0.7686482543,-0.7521663336,0.4605156675,1.1062136783,0.6100503135,0.0357281642,0.7494432782,0.0637903945,-0.432583469,-0.2801213185,0.7746943427,1.6236187839,-6.486274602,0.4137516029,0.999073799,1.1409454196,-0.0079672972,-0.1309420908,0.2345409598,-0.2349651108,0.5028335518,0.1906937248,0.4608011953,1.0863879641,-0.2029599941,0.1577984588,0.4427613019,-0.1826123121,-0.8027923972,0.2025743592,0.4326690281,-0.6070730571,0.8136602841,-0.1523535232,0.8393941131,0.4237429786,0.1748658239,0.3601163823,-0.5631040188,-2.8510370167,0.218671226,0.1593367719,-1.8834968324,0.538127244,0.1252196388,-5.7126463619,0.35436393,0.2971388973,0.7058982083,0.8089167008,0.7247809336,-0.0486007271,-0.4488457349,0.5619531609,0.1636930217,0.5552888001,0.7210810054,0.2975828391,0.6037486412,1.0149371312,-0.1139068067,-3.1760965828,-0.2996532238,0.3233974253,2.5333916311,-0.325468701,0.0864793877,-0.1264607248,0.6444444181,0.345836656,-2.8618970321,0.007247046,-0.3484536824,-0.1987064515,0.0562811335,-0.1111350219,0.3607120645,-2.8286319888,3.8386471524,0.653464349,-0.2031400393,0.4294086667,-1.199257051,1.4749620671,0.1981078702,0.3831487262,-0.4042572367,-0.1131530124,0.6269977438,0.0626201492,3.5666425878,-0.3216621977,0.4445810648,0.3702221059,2.4337113537,-0.3846095573,0.3881889578,-0.3984913547,-0.3800471372,1.0260399683,1.7984311178,0.1837902765,0.0390676991,0.4893169533,-0.1094130403,-0.1924744833,1.7817712804,-0.0520959343,0.475456045,0.4227153825,0.6901195498,0.4176789739,0.260834593,-0.9192117382,0.5873249807,0.0281578538,0.0649528336,-0.5650754984,0.2021188351,-0.2660429612,-0.6507160471,-0.2585418071,0.4559092184,0.6195832235,1.1576608355,0.8142710383,0.5701653459,0.0081325171,-2.3527151365,0.2564679198,0.8068463461,0.787168168,0.8105817851,0.1456481518,0.6709550021,-2.3833882186,0.7999738433,-1.3033368505,0.2219689656,2.8141361709,0.0158676174,0.5966696192,0.3600587276,0.3354983032,0.5384576285,0.244985961,0.0936544467,-2.8811758398,0.5639270508,-8.7530929482,-0.6632077016,0.6041281063,-0.0327748354,0.7305976036,0.3008180377,0.0611703102,-2.7435536814,-2.1041083883,-1.0641055282,0.3878474269,0.5142061182,-0.9814349942,4.2208202088,-2.2717605244,-2.158033085,-0.4377241687,0.5539283045,-0.3254003084,3.3001180005,-0.6055209252,1.4815381007,0.3371228733,-0.5686047715,-2.3347382621,0.4411438774,0.643068273,-0.153648723,0.2361882384,0.0787574718,0.3409249168,-0.2398054115,-4.0754118939,1.3081059852,0.3851734891,-0.0213784096,-8.8641591809,-7.0303122005,0.5811694221,-0.8387618883,1.5131980585,0.5877396183,0.3199962117,0.457122782,0.1376899943,0.7257843818,0.5689682761,0.4115719131,0.2919194755,-0.0709887486,0.4711152236,-0.3614435212,-1.4092440031,-1.9080728618,1.7954693526,0.0181580764,0.4026672129,0.4738006811,-0.0317148514,0.8645792794,1.9461605032,-0.1376899746,-1.7385896084,0.3006167523,-1.8024980151,0.1687652444,-0.066048435,0.1592376757,-0.139929954,-0.0738195367,-0.1671880621,-0.3346611016,0.7133690299,0.5873260039,0.2219502923,-1.2864844348,-0.3397446019,0.041766429,0.2788285535,0.148404607,-2.9806918267,-0.1647259586,1.2526172791,0.3100015191,0.5541964492,-0.4019607111,-0.2867111982,-0.3153624984,0.8670829274,0.3610069495,0.6630223892,1.9228308795,1.4331449922,1.016685257,1.3595839678,0.8025229281,0.0434018882,0.3454104424,0.2307698745,-9.1432799498,-0.2025033421,0.6748401602,0.1757377701,-5.1509441308,-0.7715662425,-0.2892913506,0.4447917213,0.5426936767,0.5235118094,0.2919381717,0.6784117692,-1.8298003035,1.2747147881,0.1640215699,0.3931772081,-16.7998619341,0.0535284446,0.6775507288,0.07970274,0.3255324801,-1.2186943952,-8.3700425162,0.2839512496,-0.0169343774,0.5092505078,0.2306568918,0.1400388492,-2.1147507111,-5.2673459487,-1.147038727,0.1012328349,-2.4980152344,-0.7158935146,0.289054423,0.2293541609,-3.2613557996,-0.1705959377,0.6431167142,0.5386829941,-0.2207160752,-0.3453610351,1.166247942,0.9380303648,-2.4810931885,-0.3263870828,-5.7380997032,-1.559629771,-0.3919183479,-4.0005975323,0.3581829612,-0.1221041586,-3.1218194518,-0.2732584404,-3.2158112138,0.1393739187,0.0901712577,2.556723902,-9.3833527007,0.0290926856,-0.2719597306,-5.0806983317,0.7477208326,0.3029471827,0.3795338736,-0.0691014375,-0.6276518557,-0.5283314193,0.5607785464,2.5830104499,0.5085258058,0.1347965031,0.3211853585,0.5423140848,0.256659497,1.1300150547,3.8140577409,-0.3791903246,0.4414219466,0.132904846,0.0936886933,0.4892279439,0.7020425628,1.5571474385,0.6099389602,0.4889587952,0.2355416214,0.5328231987,1.1938458526,0.629736226,0.5092416748,-0.7319338928,0.6866307051,-0.4881843058,0.8386208711,0.6757328773,0.6581611205,0.604866673,0.0698822334,-0.0830339228,0.511926203,0.1934818316,0.5455812827,0.9031101745,0.3266148304,0.0014788744,1.5322499341,-3.1569664938,0.8397658088,0.3673139506,-0.7784648639,0.0899846726,1.0527978359,0.9125336038,0.6350659995,-0.7155604855,0.7205937402,-0.2708349941,0.2362513632,0.5566939521,-0.4563714358,4.4245127915,0.1655999347,0.946772432,0.6492566129,-0.1173014591,-0.1975063487,0.0248320658,1.5845573876,0.2032539418,-0.1508089028,0.0588875621,0.6170170983,0.3954917597,-0.2881496626,-0.3217885205,-0.6907070145,0.4446389755,-3.1738509919,0.4984243221,0.2932360159,1.1209489758,1.6818802907,0.2964193783,0.3926673383,0.0448976054,0.0574582085,0.0206982191,1.183249496,0.2596369364,0.5073339495,-0.1543820657,1.6059808351,-0.0171497531,2.34353149,0.1545548953,-0.2166769451,4.1266866265,0.7596570335,0.7683639452,-0.6242382126,0.3646342108,-0.1023035167,0.3128420066,0.1780769978,0.631957485,-0.002823985,0.5131139477,-0.6518854808,-0.2031594486,0.4191184882,-0.420257353,0.4156524956,-0.161029723,0.1452557907,0.7036163366,0.9115708254,0.965345234,0.1537938971,-0.3939560699,-0.1824710018,0.9026900896,0.4210026819,0.6067836345,2.1501118756,-0.3435715007,0.4914976155,0.4732323871,0.3731415477,-0.4963504535,1.0416918048,-0.2455886239,0.5372143475,-0.5575011898,1.0481320754,2.6513963441,0.4126527489,0.2716663006,-0.3418424635,-1.7236430869,0.6873711749,2.5870618211,0.7761105316,0.8314081149,0.8322001071,0.5176850686,-0.2186447952,-0.9626612549,0.1440054739,0.9638607874,0.1335345643,0.5827880835,5.392015882,0.1444659047,0.3964466282,0.86739673,0.7375106691,0.2132812247,-0.0914691339,0.5372403227,-0.1950751062,0.5721591976,0.226265622,0.2153308727,0.9178904492,0.1629358951,-1.9724450184,-1.6746363428,-0.7005338018,0.4586865766,-0.5762948447,1.2768603794,0.5702613722,2.035923622,1.3173058785,0.9953349333,0.2364470646,0.5513348694,-1.0743155977,-0.0248343279,-5.727557782,-0.9691816886,0.4490997194,1.0234375407,-0.0366330547,-0.047645938,-0.1340336191,0.4608963868,0.3254757175,-1.2184638423,0.7034352176,1.4922843382,0.2030312532,0.5622781769,0.3745534152,0.204275544,0.0834546703,0.4288147027,-0.5095318142,0.4322177887,2.2032317696,2.0583767493,-0.5137718472,0.1136749693,0.0965632693,-0.7170564095,0.2128610089,0.5008765525,-0.1810894571,-2.8309286701,0.3016336553,0.3404285173,-3.5761696194,-0.9969768598,0.1994961973,-0.2369599007,-0.0905711033,-0.1085550939,-1.1727391186,0.4914391449,-1.087846152,-2.9630444078,-0.130304472,0.3200603552,0.0345218052,-0.7497314158,1.0753725857,0.1246340172,0.3180708099,0.1256136364,0.3160480722,0.4780315532,-0.1157272469,-2.4087517327,-8.0721379242,1.4019030153,0.2924935971,0.5827946123,0.3120456658,0.4892109395,-0.3025601859,1.4056223648,0.3279157055,-0.0864717436,0.3685905914,-0.8908841928,-0.1251206817,0.3548132499,-0.6253872329,-0.5216014219,0.1792216148,-0.5559180282,-0.4584642665,-0.8116766378,0.4043513835,-0.0026530899,-2.3124827368,0.5063697588,0.0936508623,-0.013080238,0.1551613295,0.1202796401,0.4199794224,2.9199539684,0.0043577656,0.2619809204,-0.4209403899,-0.0449364483,0.6165565498,-0.1922925489,0.5353118457,0.9193501706,1.2566836512,3.6274405281,0.828367679,0.1924038556,0.1553621731,0.4549632706,0.238724184,0.0284441834,-7.1448648378,0.4063791896,1.1364242859,-0.4657396015,0.0698679883,-1.1160238222,-0.5859335277,0.0619802709,0.6563389883,-0.9225069286,0.502020058,0.8576256057,-0.0205122922,1.0762730965,0.2950034577,-0.0816980309,0.3313493238,-0.3708862832,0.0974769605,0.2007363605,0.3302013013,0.1435751394,-1.6396682624,0.4311832996,-0.4524546295,0.2232628468,-0.1696710858,-1.2921471235,-0.6748736362,-2.5561088861,-0.6274337725,0.3360868758,-0.7163047961,0.0086092918,0.1778073701,1.283186426,-12.6833088527,0.5406658017,-0.0222307441,0.7070250416,-0.5047306458,0.4624014155,-0.1612399368,0.696575216,-1.5870592274,-0.6133831279,0.3415893736,0.0821002223,-0.7688233897,-0.0249658155,0.6269994133,0.0876988747,-0.5693500273,-2.9480064663,0.1675952504,-0.0396994902,-0.453062802,1.8869210428,-0.2792112096,-0.1314138257,-0.1725543336,1.0550216242,-0.0047841109,-0.6104565285,0.1813240452,0.1119111593,-2.7705654376,0.0451544609,0.5971546855,1.6148825723,1.3522195658,0.8295309848,0.3396730474,-2.1501152836,0.0430815675,0.1350076297,0.1195053338,-0.3145510342,0.0547098241,0.3955366628,-0.9150920753,0.2824791489,0.6991996015,-0.2936203455,0.1846409556,0.7219497983,-0.0083205669,0.1222436397,-0.058922889,1.0070921609,-0.2474135927,0.0739172104,-1.4700944747,-0.2105452398,0.8709780928,1.1537101242,0.0964939636,0.121382081,0.9504593125,2.1350451074,-6.2556261599,-0.7827356381,2.364298163,1.2852627316,-0.5863104698,0.7806341781,-0.1206200978,0.2600697662,-0.0711680834,0.3965357974,-0.0279014424,0.2884416146,0.4342633124,0.6728142198,0.7832525328,0.3361697888,-1.6289297741,0.1129465546,0.3227424301,0.6095260304,1.0313114429,0.1360168521,0.9029159151,0.7610601303,0.4707181134,-0.0067342833,0.9901879603,-0.3465963184,0.0143504678,-0.4666009423,0.0544226595,-0.1534888768,0.1595917335,0.4981904062,0.3721473215,1.5676541349,0.5162144215,-6.0802211057,-0.3313361492,0.853464663,0.4019324704,1.006457252,0.2055014301,0.0213899008,-1.3655401225,0.3446901707,-1.4839386695,0.9656126903,1.169870226,0.5741600867,0.3318440353,0.3349312154,0.2574373745,-0.1654032872,0.5035282565,0.091669829,-0.0101611355,-1.1010132334,0.7585953881,0.4614384816,0.9400379483,0.1846240129,-0.2761875326,0.5647158171,-0.4724892925,0.4395224466,0.46365135,0.4716658221,0.2577193362,-0.5245977743,0.8515392062,-0.4596932314,-0.3858701808,0.6278129601,0.3214836956,1.9830488131,0.3015080502,1.0785485387,-0.773751369,0.0098923873,0.2656938907,0.0428401859,2.1092238662,0.2879910689,0.0913289139,-0.2685850708,1.0871588907,-0.2050765078,0.0414549962,-0.2501461136,-0.0642358072,1.0439315213,0.5649405991,0.2974255156,0.5192032922,-0.6231159282,0.4500414698,0.0562806107,0.9829433621,0.5448393876,1.1214363431,-0.1443770976,0.4770202216,0.6920037449,0.1606751699,-0.2628570107,0.2640533964,-0.4912805816,0.5486731792,-1.4135368566,0.6424826888,0.0687348832,-0.1148282822,0.0216464879,0.8785614774,0.8073685515,0.4356019397,0.26275708,0.5445656927,0.0364619865,0.1814955047,0.3381593226,0.6214541319,0.9012534367,-0.1047328898,-0.1396665914,-0.0870338577,-0.0902047037,-0.9326072797,-0.1040765494,0.6807802088,0.4801538734,0.6503241234,0.2276248105,0.0790166385,0.1632501826,0.8384184395,0.4870765241,0.7392171896,-0.7853905823,0.2043050493,0.5317431018,2.5628531165,3.0138501584,0.354448085,-0.190141927,0.8053781972,0.2699605394,0.384247145,-0.7782122536,0.445678374,1.8859467572,1.2782394531,0.1995866356,-0.1290936138,-0.5390158299,-0.2409933749,-0.0381086764,0.5149781248,-0.0263700374,1.346533342,-1.8915965897,-0.5896759116,-0.0650778469,-0.141614873,-0.1124385517,0.6120044381,1.6684926444,-0.0911297434,0.4755050343,0.1563892575,0.6353090254,0.0548782349,0.0260755083,0.2802413817,0.6797606413,0.0536985474,-0.9203682945,0.3956110345,2.4782795929,0.017742448,0.3548021613,-0.0540473828,-1.3797697372,0.5658320162,-0.7870423441,0.7301234168,-0.7456474909,0.0369688406,0.7463202296,-0.5098226926,-0.004260266,-9.0321982198,-0.1889927823,0.0254162722,-0.2524129538,-2.7484473298,0.6213574438,1.1372609179,0.9238232589,-0.1853949759,0.018301374,0.3627657627,0.7463539591,0.2135692551,0.2203715897,-0.3306686095,1.118760841,0.5290274642,0.4255965633,0.25078352,-0.1598793373,0.4132454167,0.3442998677,1.3389915668,-0.8185540571,-0.1893079884,0.2137415754,-0.1055515331,0.2352218213,-0.1335469216,-0.8016580336,0.6213142488,0.6589526621,0.5466774691,0.4213738846,-1.1104747358,0.2711873467,0.4975854686,0.4536103358,-0.2490896253,-1.4362392931,3.6617419475,1.2940080773,0.8988356629,0.89196902,0.1375791708,0.3236970514,0.0946873185,0.4094689602,-0.0275560915,0.0276237607,12.878459612,0.1084178108,0.1636203165,-0.1383453481,0.0978620085,0.3031521389,0.7990757145,-0.1290849599,-0.1577012465,-1.6599916831,0.200216286,0.7589178814,0.333994504,0.5951606741,-0.2864611858,-0.0380129531,0.2602065291,0.1786151086,0.7040541012,0.0924559214,-0.3153064057,-0.4431727347,0.399269944,0.5707148852,0.157076197,0.9057261927,0.2716259547,-0.0202098517,-0.2183541987,-0.0916897377,0.4409697989,-1.1046615857,-0.5538444247,0.7172160843,-1.0903028513,0.2098309978,-0.4197008927,1.9104158271,-0.0053782305,0.2442338659,0.518801191,0.9336821556,0.3591579377,0.6147870505,0.1436238087,-0.1584970395,0.3224993119,0.2097595661,0.7146663534,-0.1153138439,-0.1732313947,-2.2501910983,0.4245754406,0.0075255958,0.8300912162,0.2613794962,-2.5242822397,0.746704498,0.1825840877,-0.1808319723,-0.1009632375,0.4124071964,1.5745941081,0.6830373903,-3.1289098269,0.3200748474,-0.2279156245,0.9197065336,6.6322081987,2.7410939451,-0.0568796732,-0.5690268961,0.7580379028,-0.4012486523,0.4622496218,0.3157103597,0.3143642698,1.0857570162,-1.1011163132,-0.8017483842,0.0542435559,-0.5829600961,-5.9332439981,0.0247228441,-0.0145727797,0.658316182,0.6914927168,0.5237570665,-1.4121647072,-0.7105762489,-1.1336185902,-0.5411182413,0.6017901551,0.869362105,1.5311318073,-0.1703710591,-1.4531027965,1.9337228159,-0.0609884875,-1.0739444799,-3.5209493728,7.0469876239,-0.7189514909,0.0460466463,1.0281343816,7.9851848538,0.1714335788,0.3805404644,0.3428114339,0.2110898936,0.2505202396,0.964909672,0.4140652278,0.8299017807,0.3897339094,0.1588213912,0.7626948742,0.2373957512,2.1759815182,0.2544863714,14.0148671313,0.7351982302,0.9342945508,-0.4879298253,0.0604458672,-0.205986621,0.6107480846,-0.7946068954,-0.1543991933,-0.0947669834,0.2138769465,0.1763766562,-0.8512420776,-0.3952793532,0.0925211221,-1.2156959873,0.6314530001,0.2506812007,0.8016573699,-3.2956408965,3.4767027184,-1.2565747425,0.4332371875,1.4311196181,-1.9278470559,0.1057580464,0.3483362737,1.7222383166,0.4646186202,-4.4218843276,0.4700779738,-0.2692035558,0.0569642279,0.0580969645,0.1372243495,-0.3520135151,-0.2047176154,0.2227700554,1.3707155172,0.6000723564,0.0507891281,0.0814389448,-0.1022699888,-0.3257634329,-2.9934098608,0.1484274421,0.4137024176,-0.5388653816,0.7807267195,-0.4434367945,0.4990445854,0.5065513458,-3.4473674974,0.4129134683,-0.3175160733,0.1933948798,-0.3625721196,-1.1490778766,0.9891243193,0.2782174861,1.256525966,0.2514991334,-0.8759544102,0.5505808772,1.7090445759,0.9886351808,0.4730015475,0.1735384396,-0.1395594307,0.0115284393,0.9113315254,0.3863514695,0.4593923653,-0.1309022725,0.5083234197,0.3121573076,4.9706243894,1.035265216,-0.2490434274,2.3328842185,-0.10871065,-2.4600094994,0.4595643154,-0.9072361814,0.6408037221,-0.5633487274,0.8935894846,-0.1401697846,0.5239108006,0.5907658608,-0.2309001524,-0.460706137,0.5434946892,0.0004538744,1.2971812642,0.4702106413,0.6340723248,0.5682105683,-0.0124545989,1.1896519428,3.9933441671,0.1001094917,-3.8167671084,-0.0795639893,0.7577149027,-0.0870467763,2.722482518,0.4288059114,1.0606075427,1.2203308183,-2.1658183656,0.3170091554,1.515587941,0.1189638714,1.5473597316,0.1936281037,-0.5502349994,-1.1180287415,1.447562543,-0.0241724145,0.24348445,2.2520856604,0.0375321388,0.1152876038,-0.0479559565,-2.8974897555,-0.2584333776,-4.3663598666,0.0414774379,0.7205542095,0.5459933351,1.1767618021,-1.5955556825,-2.4846840816,0.1458826043,0.3160769887,-0.377049989,-0.1967208208,2.2426920633,1.9765404155,-0.3285109787,0.6128559372,0.0474086411,0.5532530341,-0.1840671399,0.8606462816,-1.8834460068,-1.4420486915,0.6007779314,0.6732221663,-2.1305205852,-0.9397664564,0.6225686796,0.1523433741,0.1923597237,-1.6034877105,-0.2032282291,3.3333929971,-0.0243455893,-0.0849535972,-1.3193210219,0.6109280764,-0.085676463,-58.4927811754,0.64360712,-1.4520980835,-0.0552895946,0.6229916706,-1.5955944901,0.3463738138,-0.3928393919,-0.1540133418,-2.323401089,1.4789878238,-1.4719509256,0.6198979927,0.1831414452,-2.3963703276,0.2873927424,1.4957888985,-0.2114129362,0.138832923,0.1989430923,0.2640227177,-0.1627505245,-0.1070566405,-0.4207865289,-1.441355942,0.0622321834,0.1352324782,-0.1884480624,0.1210791208,0.6126493166,-0.5051279934,-1.0866385903,-0.1721898597,0.1823501775,3.4583320105,-0.6652828805,-1.5732807573,1.0528090453,3.8036056884,0.0538386424,0.7107684798,-1.2026633855,0.1744532784,-1.4952562193,0.2933778249,-0.1442895686,1.3675856673,1.4754840153,0.2007003621,0.8387982512,0.301961749,0.8194543606,0.0194226088,0.3269278869,0.1926962264,-1.7987379707,-0.5330279728,1.0899796655,-0.2129664197,-1.0307356176,-2.1685265465,0.0691913321,-0.425768415,1.8477604993,-1.7950272995,0.1982388717,1.128430001,-1.5549575841,5.9837416421,0.843700418,0.0461896602,-2.3030731092,-0.1951947316,0.2939134909,-1.2243990046,0.643473019,-1.5567829131,-5.8427860862,-0.3903575768,0.2392510526,0.1578871233,0.1154896614,-0.0015378773,-0.1982808696,0.0128361203,-1.9801490543,0.4450376429,-1.1044935863,-0.670408167,0.0684456987,1.0095485617,-2.9092975292,0.5097535537,0.425980847,0.9143311493,-0.1126559731,-0.3094935591,0.118259574,0.7131692117,2.365386436,-0.2541072053,-0.1883010906,-0.1311976721,-0.1274791804,0.1841905038,1.3167446247,-2.1686371856,-0.1533737211,-0.0958964542,-1.270596204,-0.0645274215,-0.6999316058,0.8594991744,-0.3579444797,-0.4414467126,-0.32610539,-4.4924467409,0.5458607978,0.1254445231,-2.0361516295,0.6580884628,-0.123142824,-0.5207601466,0.047408795,1.2739881657,-0.3190611185,0.1193961746,0.2287060858,0.1301799017,0.0093176752,-0.3267910936,0.5648587772,0.1517213668,0.3473368639,0.5437385601,-0.1397075765,0.5333498622,0.434770277,0.9300906567,0.0994481198,0.1448968048,0.1391693793,0.9112256564,0.5631731516,0.0297647122,0.393183436,0.5969859352,0.4639507538,0.391152998,1.1674432522,0.1158493322,1.0514544549,0.1899418021,0.62154093,0.0477234699,0.4706706751,0.5513092476,0.2774627385,0.2773500706,-0.1747516605,0.0096652736,0.4874606708,0.6341115857,0.8589494901,0.6080273527,0.0677780547,0.1409108558,0.7229121244,0.9247275636,0.5500839949,0.5359889871,0.539574446,0.3362926002,0.5575126361,0.2903660586,0.3994485597,1.3502001662,0.7076123044,1.5945573638,-0.0002543333,0.2840982604,0.346455595,0.3078490955,0.2741620538,0.417041952,1.3222173052,0.0968583149,0.4106227597,0.0632054261,0.6891041582,0.5077373807,0.6303465594,1.5646457568,1.7635699129,1.154716624,-0.059019142,0.5764800263,-0.0401643211,0.3958725169,0.8671453238,0.4669598146,-0.4719021329,-0.1175665781,-1.1298961391,0.3252384457,0.2368576899,0.7036724602,0.1149096983,-0.9011422082,0.754329058,0.1991713938,0.5939180756,0.2694796936,0.2003291759,0.1057109707,0.0434850912,0.4701605965,0.4756335607,0.7735879577,0.5186004044,0.5953892211,1.0045518019
   0.7154150967,1.3546695443,0.009331042,0.2646460515,0.1340511039,0.3257635025,0.5742466489,1.0666073039,0.5812558205,1.4278779208,0.0298335244,0.720028312,0.5552938602,0.8437675688,1.1063052453,0.4668820547,0.3387426001,-0.1101668278,1.4802446567,0.0383928907,0.0929569141,0.4249036287,1.057232653,0.664299372,0.4567777817,0.1109705957,0.6934831342,-0.22975762,0.8496070605,0.6027394961,-0.0188542691,0.5429778981,-0.1035151278,-0.2850293034,0.2692750555,1.8791867927,0.0092464968,0.1465480915,0.4698359911,0.6952955673,-0.6901689316,1.5442961077,0.9359220075,0.3973591001,0.5576896027,-0.0701046515,0.4067841704,0.5753686704,0.2892680741,-0.1406307542,0.7541396565,0.6732165099,-0.0482334793,0.3302145833,-0.1918669145,0.2634036576,0.1004633046,0.3697669242,0.6530466933,1.5631002963,-0.5340740096,0.781158452,-7.2717821122,0.5767974062,0.1708776413,-0.0080171407,0.3766948923,1.3031864856,1.9336229386,1.053824565,0.4968393742,0.1463947537,-0.2319764387,-0.6265009125,0.6509763478,0.1474555515,-0.1665897609,0.0177892239,0.0579178029,-0.3839848124,0.1974492847,0.6542050077,0.2959474429,0.7587586665,0.2545038034,1.1595168872,1.24085409,0.6019271588,-0.0831721095,-0.1637793932,0.5894273038,0.3339656448,0.2573172216,0.1582779758,0.0461207405,-0.2216784351,0.6703627495,0.8328228571,0.2958383453,0.1908881602,0.5748089198,0.1912645492,0.164568446,0.2986069643,0.4746231415,0.7743613803,1.0307685776,0.4356494613,0.236436275,0.2334132776,0.6376657833,-0.8505455476,1.1221460406,0.6790198147,0.3816984494,0.6600749337,-0.3805769296,1.1785320415,-0.0757627916,0.2790668148,0.9069244406,0.1155974863,0.7588128734,0.0822825752,0.4750985667,0.1315443488,0.9313485518,0.5194657067,-0.4722928374,0.5562942968,0.1866797879,1.2217420811,0.5001286903,0.0398949227,0.2903195879,0.6997275876,1.2525814314,-9.1252041429,0.2547698663,0.1555900285,0.3690840762,0.4814255673,0.8954576962,0.453973652,0.4749129193,-0.3085932669,1.2777145067,0.0395282985,0.1236695545,-0.3197727677,0.3968239714,0.6740122545,-4.1243227381,0.2921757352,-0.508505539,0.0243774778,-1.3650771938,1.1589904793,1.0536996781,-0.6319533316,-1.7731967098,0.5875435023,-0.2166218231,0.1796819032,0.1477714169,0.2251155963,0.0833903351,0.3080626415,-0.0029042815,0.4008918719,1.0800293507,0.0610442072,-0.100625917,0.3859182722,-0.0175341225,-0.1984307435,-0.4582339917,0.6532288326,0.8573394343,-0.6964613061,0.5286322192,-0.2617149019,-0.6261498062,0.8290977756,0.2437077104,-0.0215056296,0.2020116043,-0.1095998896,-0.4041848935,0.542484057,-0.7971813043,0.2737056418,0.1720648628,0.214719311,-0.2645072098,0.2897965482,0.9709372604,-0.9583783058,0.2530892565,0.2508148721,0.2314228562,0.8148947966,0.2195251039,2.1078518392,-0.4376465831,1.2672614374,0.6991705,0.3468130238,0.1839588777,0.1425632205,1.0065570507,0.4823363706,0.0206660278,0.4349278884,0.4103557964,0.0864781359,0.3962591826,0.6136846576,0.4723631506,0.4728552861,-1.6761591562,0.1638784523,0.2036960493,-0.3941614019,-0.4052892006,0.5112802686,0.4295924865,0.172909211,-0.3906330807,0.9202155204,0.0713287213,1.0542360669,0.3908485243,0.0980151792,0.4559111991,0.478379108,0.3967130855,-1.2082147392,0.7287685884,-0.1409618889,0.5327985665,0.8333810985,-0.7873402005,-0.2663405178,-1.0634498093,0.4417650675,3.7546851223,0.097902851,0.1779600161,-0.5608555424,0.4686033838,-0.3407282305,-2.7047898394,-0.2418186332,0.617900805,-0.0425189469,0.1836556735,0.2094269439,0.4908112971,0.3206022683,0.1502404764,-0.0540232283,-1.0286728436,0.530222953,1.1330153188,-0.5307666856,0.1763530728,0.1686940244,-0.128108886,-0.2085601496,0.6333688763,-0.3733658025,0.2011812741,0.731085415,0.7631997319,-0.8619990866,-0.9711482491,2.3991114286,-0.0678382876,-0.471931474,-1.1755482317,-0.4174353559,0.4144965203,-0.1247203457,2.7067113382,-0.6940507104,0.456735864,-0.2861582207,-4.0024253437,0.8557500515,-0.0198821059,0.1507816448,-0.1019064711,-3.2622499958,-0.711002749,0.2228071694,-1.2444208304,-1.045732065,-5.5239265156,0.0491036772,-0.2851741625,0.2416385267,-0.388931984,-0.1828255956,1.4038334017,-0.3037843163,-0.5163474158,-0.4196322567,-0.2998254974,-0.2485066515,0.4261802964,-0.4877402311,-0.1782654426,-0.0202312033,-0.2173976274,0.3152863157,0.3261616431,0.6399569588,0.0653443666,-0.3109474017,-0.278337158,-0.4496416931,0.4973988621,0.0291086883,-0.7190007202,0.4090422268,1.0334304413,-0.6296047516,0.2181995015,-1.7085590531,0.1795651264,-0.5881756167,0.1921382324,-0.3307834297,3.4704262887,1.8056776056,0.5355160818,0.8709606015,0.7609834956,0.2251338975,0.1314232357,-0.523140311,0.1143658476,-0.1282884776,0.1836161394,0.8841657713,0.0456096673,0.435554267,-1.4973715493,0.0319610002,-0.5803703978,0.2640764927,1.1922462781,-0.0424881186,1.0570983834,-0.6126263865,0.9279458473,0.4866223092,0.2100981688,-2.6085851152,-0.644692265,0.0668754642,0.1731418156,0.5480187661,-1.6316631312,-10.9358412897,-0.0589612718,0.3980533776,-0.1159247958,-0.0787701556,-0.751857056,-0.7404677137,0.3980725139,-0.6413903733,0.5072966462,-0.735828654,-0.6956345536,-0.3197994043,0.2738184001,3.0329089096,0.6626270263,0.1740222707,1.2058901298,-0.4726958511,-0.4333522662,0.4404828156,1.0250626475,-5.5680045033,-0.643580711,-0.2519438333,-0.1788661658,-0.5057767841,0.0810853233,0.8170738779,-0.0585943037,-0.3083160464,-0.1887825951,-1.5891486059,0.0890251615,-0.1600853519,1.1335563342,-0.8826187234,0.0025405742,-0.6213766963,-5.0959997115,0.4158884889,-0.7747286468,-1.6122267884,-0.3069367414,-0.1763702365,-1.482120721,-0.2028735273,2.0760563349,0.2567870402,1.0561907337,0.3068601078,0.0950803232,-5.2446374928,-0.2945561222,2.056380503,0.1028509774,-3.3560600498,0.0267734628,1.1287102739,1.1449158676,0.977735839,0.8523256959,0.1028710383,-0.9076603844,-0.8977668736,0.572674155,0.2830833261,0.4365894649,0.2579291571,-1.445198192,0.0899602353,0.0357886042,0.6439115652,2.9591078478,0.1227669213,-0.3385281653,-3.524162265,0.7666064254,-0.0260985473,0.189402295,0.6462602712,-0.7030332655,0.3003484114,0.2057565646,-0.4444532039,-4.2855787797,-0.3877618462,0.6011460596,-1.4577475521,0.4456430954,0.7096006733,-0.1144788151,0.7212519528,-0.363354963,2.6540278267,0.619330943,0.205986684,0.8296461052,-3.1101000997,0.4458491019,-4.0809710323,-4.2504010101,1.2291533218,0.3569659864,-1.7519075431,0.4278542408,0.7642197809,0.6238928254,0.1866455053,0.5394740029,-0.3287399018,-1.4381273323,-0.0057764026,-0.5690627879,-0.9909444712,0.4394217842,0.167573121,0.9550416002,0.3889468721,-1.7293143085,0.3847816227,-0.0305515575,0.3305411433,0.1286054125,0.6262759073,-0.109836049,0.3893338448,-1.7158986571,-0.1068486767,0.8607479198,0.6546510499,-0.3003221123,0.825323898,0.6608505643,0.364170746,0.2174379226,-0.4835180384,0.4738725082,-1.6459004388,0.1647365474,0.5412481138,1.0808740486,-0.0862565922,-0.1251194794,0.4504417269,0.5842213171,1.8833357916,0.0374141468,0.7275351603,-0.7492127187,0.1919802591,0.3750611476,1.1243207951,0.9617747821,0.2450233523,0.2168466265,0.4195770649,-0.0916016325,0.0565032235,0.2432777589,-0.1600757467,0.2892570644,0.2762996109,-0.0103416211,0.2465590033,-1.0131538439,-0.1680912875,0.0746074203,0.1443525599,-0.1019643178,0.0662869849,0.667984665,-0.0515319419,0.2916033006,-5.7072506013,0.3780619958,-1.7666030847,-2.1733265705,0.5073054909,0.5885810541,0.4124439816,-0.6684638236,0.5522728833,0.2801378249,-1.01224767,0.2282777996,0.7594694596,0.1981029325,-0.2332412372,0.7360225898,0.0201806835,0.0471276224,-0.3689253623,-0.3322241375,0.514932498,-14.8718444222,-9.9930587685,0.0592253246,0.0406517218,0.2643350669,0.8487320354,0.3757913935,0.9749790657,-2.2032486878,0.2396308014,0.407828788,1.2687629222,0.2712149288,0.1433171341,0.1254257293,0.5157815675,-3.3618706168,0.2558411064,0.4004011419,0.0481776284,-0.0481932992,0.7024899252,0.1098938195,-0.788234096,-0.0542419318,0.2539869853,1.0788288969,-0.5780647971,-1.225621647,-1.1589725141,0.0000982938,-0.6578245562,-0.6674707108,0.567700567,-0.0153798405,0.2334536906,-0.2332703026,-2.0726755693,0.2466182032,0.314920035,-1.0785081794,-0.1657244257,-0.536818396,0.7343215686,-0.4624375676,-0.6469236329,0.1899926232,-0.2586127825,0.8353970112,-0.3607141647,0.8948289534,-2.5768969403,-0.0378974134,0.5780973701,0.5362208453,-0.3628776421,-2.2903695636,-0.3425486436,0.0718800564,0.0414127538,-1.1616680416,-1.8053409949,0.5226728625,0.4262531822,0.1932466774,-2.1639045961,-0.792377364,-0.8690810281,0.3624872033,0.3374882567,-0.1111708244,-0.1716218943,0.0964476096,-1.8333165312,-0.8705686195,0.1552369636,-3.8393637956,-1.6464912285,-0.0609158089,-1.4193050477,0.8297555589,-0.8063497852,1.2286591301,-2.4658630943,1.6453730674,-0.851885193,0.1478413577,-0.2713750189,0.1384609098,0.3691066286,0.0085027387,-2.0980591196,-1.6996363106,0.0003259483,-4.6539354883,-1.3161613975,-2.1200030948,0.3619965324,0.7522721379,-0.061226756,-1.2569696598,-0.7188092809,-0.0992409712,2.1816821976,-1.4531319667,0.5727356526,1.24905189,-0.7468025735,0.6500281501,0.1050206994,0.2668231729,-0.3356414628,-0.9043869966,0.5748355059,1.2464818589,1.9041691345,0.2297439921,0.5229942283,-0.2531929613,-0.5215013767,-1.8864258483,-0.0722576228,0.0348294416,-0.1005546455,-4.1378448608,0.606306988,0.3178968785,-1.9367706329,-0.8883413922,-0.5131514263,-0.0646036093,0.7120179735,-0.5443651521,-0.259463775,0.4602643827,-0.8383952539,0.3812007023,0.2509204279,0.0226268156,-2.2780495933,-0.8069202804,-8.4283279078,0.4124548027,0.2844085098,0.3185342952,-0.0552215363,0.2048355865,-0.6406496271,-0.2723373651,-8.4487242079,-1.4173539782,-2.513233051,-2.4021796392,-0.3542853934,0.2800272177,-0.8897067486,0.180767285,0.1478394693,0.4316969975,0.3108808016,0.2746826152,0.261738598,0.9923073932,-2.3506362614,-0.3342684264,0.2344245402,0.638929416,0.220584139,0.5000862925,-0.1535108998,0.3748936778,-1.4781064285,-3.0301640043,1.0078057537,-4.5012871341,-0.179225399,-0.8598512972,0.2333788021,-0.8485049297,-0.764751463,0.4906197087,0.2057353067,-1.1958310447,-11.5785228751,-0.068307141,-0.3243895651,0.4398344135,-0.6499052209,-0.2186256526,-0.9197670278,-0.154148318,-0.1706333592,0.5807128361,0.8988545394,2.041273018,0.2439407719,0.3319909736,0.5024802762,0.1811162047,0.6340080781,0.4459488508,0.4781356439,0.3645114967,0.2565341081,0.0178650664,0.2189619738,-0.0129486739,-2.0099166945,0.6454214655,2.1612143278,0.5741830132,0.0472363643,1.5105651464,-0.3487940156,-0.4950574895,-0.1509533366,0.4142494248,3.4628031637,0.2437686852,-0.7601229137,0.2525765209,-0.7671851916,0.2203777609,-0.3187639282,0.4632086602,0.3327000876,0.2457069031,-0.6727265413,-0.0692331683,0.9001376555,1.9234758158,3.0202282567,0.0789793678,0.011860969,0.5848711727,0.5582673733,-0.0278456288,0.7295345015,0.7512154586,-0.1045059134,-0.0059726609,-0.1025992504,0.1452816026,-0.0468067811,1.490695113,0.7702974188,1.2690579342,1.0933364943,0.1873553675,2.1431949124,0.6486853414,0.5419382731,0.5639788494,-1.0113016781,0.1999633069,-0.2531612961,-0.3268443949,0.3300972857,0.2604583162,1.7914542928,-0.1805466485,-0.4252889454,0.8858917885,-1.3110234666,0.4372323723,1.6846034825,0.2441256696,-0.1953327669,0.1550135754,-1.1628088509,2.888690107,0.2055938911,0.0565286946,1.9703057319,0.1845999071,0.2313215444,-0.3294691714,0.5241527801,0.0086074932,0.3502921466,-0.346219322,-0.8866197372,0.0870436996,0.3064816934,0.8331098972,-0.3529058438,0.1757486197,0.1033066652,0.7057026896,0.1702829869,0.4894992908,0.0683721928,1.0781077448,0.5136542499,0.4336207379,0.4971288783,0.302088399,-0.2401051061,2.2838048995,-0.090219953,-0.5412100494,0.2320720763,-0.1567838064,0.0687392865,0.0650686324,5.3127686127,0.6593351741,0.1346192694,0.8190792345,0.5084563713,-2.3461517768,2.9375131477,-0.0859141355,0.8784843247,0.388014187,0.8314419897,0.4779529872,-3.5412351207,0.6575288517,0.3477710402,-0.1608607287,0.3903307859,-0.1952779734,0.0587331841,-0.0764474852,1.4534155776,3.4915956843,0.0475942412,-0.0034615741,0.2106766773,0.296412216,1.5052256641,-0.1913166755,0.698279416,0.6420455489,-0.1136178187,0.0736702371,0.1693430804,0.3219433744,1.8422919623,0.7234143954,1.8893354374,0.5324285971,-0.1014929273,1.9461929796,1.7875279202,1.3372808001,-0.2842518654,-1.686837015,0.6827279883,0.2593267534,0.4323911236,-0.0238368553,1.0801476761,-0.0091416261,0.3557415781,1.69835573,0.2340983202,0.1442372863,0.1719715319,0.6666632976,0.7548003755,-0.7493746121,-0.586860211,0.3791720492,-0.1773689981,0.4344096991,0.020127855,-0.4311022988,-1.4303817474,0.7476064446,0.4243595072,0.4285389191,0.4171706874,0.4487562971,-0.0971330788,1.2236700427,-1.8704380962,0.3448358541,0.4180006212,-0.0619806278,0.4761052192,0.2603108286,-0.1101875346,-3.3475871164,0.3298729039,-2.6882693012,1.1590444434,0.4658354152,0.2881326096,0.8585437577,0.0106745201,0.4605574676,0.0833393691,0.149571416,0.8106018556,2.7443313846,0.2043435098,0.3775196272,0.7209067874,0.9186486,0.5331934561,-0.0954417319,0.8770247857,0.5832703821,5.3372153535,1.0940417138,1.8919549952,0.5311797762,-0.1477627252,0.576079556,2.1570471128,0.1305550719,0.6160158446,0.7111493099,-1.1457638081,0.5237654418,0.0356668303,0.3120760157,0.3552259857,0.3331565964,0.3025348976,2.3175833682,0.5220180688,-0.465440809,-0.9029405545,1.8797507745,2.7216013595,0.446276746,-0.175676788,0.388941605,-0.0776683413,0.605159864,-0.715712341,-0.0352042713,-0.2591518229,-0.3701595209,0.5562276026,-0.641614208,-1.2722905599,0.3307861083,0.976585308,0.4644145367,2.479196945,0.5038320162,1.0094460197,0.0058099466,-0.0474202227,-0.4155098386,0.4732258618,1.6510812958,0.3666024507,0.4621081842,-0.0070711612,0.1565529456,0.0660248831,0.4123257549,0.5064034789,0.0550325508,0.0957918392,0.150178915,-1.0875375623,0.7371502428,1.4864096521,0.1428232917,0.1475493511,-0.8527500776,0.6266853867,0.0849131503,-0.2393296952,0.0699260806,0.0637737782,0.0326595061,0.1692128478,0.1383668085,0.4829331173,1.3566368821,0.7551260598,-2.5407801746,0.5722581593,0.6405053703,-0.1806280031,1.9171776877,0.1450063566,-0.6849702492,0.6467594211,0.6760973409,1.4991970836,0.2396980191,0.2482004238,0.5315381734,0.1275647516,-1.987386526,-0.1079233369,-0.2369717335,0.1669073716,0.2522443796,1.2119810715,0.3751301763,0.5797762081,0.0778219349,0.9865843909,-0.0059692086,0.6604476388,1.1777717111,-0.1530549346,-0.2134659281,0.4465589673,0.9083554085,0.4387605635,1.4611882947,0.0338407087,0.4264513465,0.8697438176,-0.8711405164,1.1610387143,0.816904008,0.3010124513,0.8365104951,1.5405305809,0.0243202885,0.8741088379,0.7877134088,0.3648511711,0.7489425234,-0.7157590374,1.1341303409,0.714536864,-0.0422030151,0.7447884215,0.4551967954,0.112071678,0.0886797147,-2.2295840023,-0.1877670822,0.6043101237,0.8203040293,0.1045158721,1.6588935928,-1.5219432913,0.576625493,-0.3629742031,-0.5636522267,0.6440202823,0.405161442,0.3851730778,0.6079346219,0.7747477177,-0.053709423,-0.2976803168,0.1176515719,-0.3671495512,0.424036727,1.1018946794,0.2290108134,-0.9156799724,0.4745997461,-0.2218719406,0.7651630735,0.2293910748,0.5758224821,0.4761236707,0.8656970784,0.2411808805,0.4744879652,-0.7733993147,-2.1824138248,0.2859704928,0.2392679071,-0.0523946754,-2.2170523336,-0.5951540197,0.9550415979,0.8874353144,0.2480731034,0.3080908598,0.1616331132,0.6517349926,-0.4689900002,1.9568687752,0.5797659936,0.7183265115,0.0651548148,0.4970289358,0.1125903631,0.2318764293,0.2149949476,-0.7080582108,0.1511970777,-2.1566552796,0.3714085272,0.6073984991,0.1962029324,0.3835245342,1.0708619477,0.0362669525,0.6994571833,0.4805909073,-0.1877024769,0.49699772,0.5679407236,0.5373156222,-0.2038144358,-1.1192836821,-0.8517788029,-0.6286309404,-0.2910674841,0.4754705565,0.5317250897,-0.1603693832,-2.107091098,0.2872936515,0.1041124357,0.2023949859,-0.7285916421,0.0961324037,0.9323583075,0.3265050516,0.2458753218,-0.8127805226,-0.0207308845,0.0379108572,0.3094968866,0.1214150886,0.2875609513,1.2396637736,0.349215039,0.4668128272,1.1161266069,0.4640106677,0.528682332,-0.041492472,0.042804984,-0.9318983133,0.1726712571,2.6343044773,0.0781471647,-1.048652561,-2.5970969626,0.4214039819,0.6417122202,0.6735668537,-1.0811122188,0.226356522,0.5452357985,-0.2834207795,8.0924643851,0.6124889739,0.6589758004,-1.2447770542,0.1445708513,-2.1340104414,0.3309181622,0.5893286979,-0.0373629802,-0.0229836993,0.2377364868,0.2585336965,0.8909515588,-0.1019383271,-0.0607115061,-2.6214656493,0.2695296768,0.5692910318,0.0232216452,0.8068265128,0.5447116768,0.0350725694,0.8277492019,-0.4529753884,0.6372898151,0.7177673897,0.6134256661,0.3220046667,0.1587743442,-0.4847494534,0.6838975042,-3.2290018112,0.2040677515,-0.8229979161,0.8630894532,0.4875118849,-0.4719650304,0.5611772709,-0.6141497247,-7.8682069138,-0.0107533412,0.3608520481,-1.663979616,0.7319792647,0.7436848141,-8.9616317503,0.5740356536,0.4010348018,-8.1915347804,0.6384681639,0.3536652247,-0.0079175405,0.1788419162,-0.3008947332,0.4221758114,0.0954998767,0.3256205662,-3.0135003342,-0.5889594372,0.3156228017,0.725380441,-20.4081492364,0.3452581544,0.2089869316,0.6471630653,1.9377242931,-0.1413520058,0.3807960136,0.4928429022,0.3744288312,0.1713759196,-4.4017314897,-2.0299039017,-0.8515717983,0.1907236776,0.6837034016,-0.1948887931,0.52286768,0.1504159036,-2.2351508542,0.4868068009,0.4586837897,-0.2024989959,0.0564600595,0.85161351,-0.5948559637,-6.2700188638,0.262011732,0.7092320446,-2.8041062311,0.9660611322,0.8742372281,0.2342185889,1.358914877,-2.0435618708,-0.7622922878,0.5384275697,0.0611011097,0.1108010168,0.3809270883,0.3763683515,0.6654138302,-0.2459108918,0.7174548223,0.3108099158,0.3601603976,0.3587041483,-0.7041181335,0.302904236,2.9958753001,0.3089215208,-3.5121433683,-0.9202338878,0.154783145,0.6777521272,0.3191345121,0.6769631034,-0.0290444858,0.4403812687,-0.6650712267,0.4040297302,0.3911695078,0.2572554312,0.0713903371,0.4765412451,0.2840980185,0.3097179967,0.2839131372,-0.7723076235,-0.7970532752,0.094307207,0.12962907,-2.6408205862,0.7899883578,-2.2689398736,0.2232644327,1.9994209015,-0.4997017446,0.7342131919,0.9732750425,0.9694416135,0.0070961504,0.2928910351,2.0933022489,0.6151485495,0.2052384356,0.0957378251,-1.6547173758,-3.2597478917,0.7049023006,0.4870312004,0.5181801608,0.5161160365,0.1550438953,0.2085037492,-0.5219549686,0.5032049703,-0.0445113147,0.1865560116,1.1145758939,0.4367067137,0.078199258,0.5858393395,-0.1729049871,-0.2350963854,0.5577946551,-7.4794340192,-0.107393646,1.2801744926,-3.1211880659,0.5327287001,0.6503335228,-0.1538119845,0.3956388106,1.3850699005,-0.5909434173,0.3034841929,0.7328446514,1.8616145817,-0.8091519844,0.2647278288,0.2257760936,0.1775629585,-0.295697191,0.5454893295,0.5075349103,-1.5907460228,0.5185375125,0.1115122849,-4.1406793371,-0.8631965123,0.5812024677,0.7227856771,-0.0387697315,0.9905976356,-0.0317115306,0.6618955213,-0.5387879824,0.4202413786,0.7463776921,0.635322053,-6.4578981831,-4.5073552429,-7.1318865404,-0.7942517629,-0.5096099835,0.1254731358,0.3438348183,-0.0956789277,-0.4448317047,-0.6445823862,-1.1648541513,-0.0542850335,0.2163111272,0.8101793347,1.3573251487,0.2754652667,0.0635074879,1.5421122616,0.0399201365,0.6157066749,-0.2889873168,0.1837694485,-0.0491271651,0.4139515582,-0.0020825083,0.1668733176,0.476572899,0.3906273855,0.2660077921,0.9243268944,0.4132280018,-0.0295023416,0.206809765,-1.9359817474,0.436539642,-1.6962505574,0.3417394424,0.3808671965,0.7128768756,0.4059122242,1.4330209439,-2.5916295934,0.6000313864,0.5151433667,-2.3004139813,0.5625922215,1.6113305892,2.6699315535,-1.4553896385,0.2875768341,0.3744989202,-1.2023772548,0.3877328909,0.3104998402,-0.0937072931,-0.3292736464,0.3270624578,0.3772332938,-0.4183059559,-1.9472051179,0.3880008192,0.4924114772,0.5443313629,-5.1284167208,0.0647000297,0.7276352843,0.2959386416,0.3396177077,0.883752253,0.8002074629,0.7053218048,-0.4511109543,0.7594273045,-0.071526648,0.3429168768,0.2377765318,0.1584610131,0.1232071982,0.576690182,-1.4886612462,-1.5157120943,0.1874053932,-0.6161552255,0.0337834153,0.7636951052,-1.630838572,0.4478612364,1.0184871656,0.3121473259,0.3082221889,-0.0091809545,-2.3574022691,-0.023311612,0.1783548517,-0.4197298088,-5.2478469229,0.4775366612,-0.0908799698,0.1491462873,0.3285314725,0.6300434325,-2.0242167585,-0.047627513,-0.3225469167,0.3314950512,-1.8868064686,-6.9369306538,-0.4967891636,0.5506677391,1.5611882188,0.320684575,0.4336765457,-3.0130286832,-0.2818157492,-0.0192545742,0.585279157,0.6587507391,-0.3533789265,1.7280197964,0.8354105335,0.245822896,0.2460540146,0.708975069,0.1716470995,0.6143015903,0.5216834472,-4.8901844294,0.2496605243,0.8907259936,0.1270202956,-0.3243104245,-1.9192842236,-0.042312253,0.2160538428,0.5275906426,-0.0077774391,0.6028714646,0.0523441594,-1.8043807107,2.6099620611,-0.0048709949,0.5492349857,-2.0093941271,-0.1779942527,0.2635042381,0.4724120141,0.4412076064,0.6011043805,1.778130987,0.3424423157,0.608407474,0.2894040797,0.4854622216,0.2695910852,-0.0023486046,-3.9566692181,0.1845988421,0.6496214006,1.2587060678,0.6316115076,-0.0858964166,0.4760959854,-4.7124260764,0.4201936932,1.0836003152,1.1294966976,0.2277493072,0.4676804493,-2.7686192339,0.4844848412,0.9950257061,-0.0768823005,-0.1515582331,0.9821607452,-0.2836456922,0.5786888132,0.8735526853,0.6110790305,-0.088869869,0.1235206427,-0.2933687053,-0.1192436594,-0.0190655907,0.9677241031,-5.5948427207,0.1212809097,0.6346633487,-3.5029809441,0.3814178537,-0.0027080646,-0.6939640846,0.1414655278,0.3178352455,0.0583180163,-0.8907397467,2.1323402422,-0.0741168393,1.9872233988,0.0225981655,-2.4276134337,0.8857409911,0.3638390807,0.7203105162,-0.2833649543,-0.5445483465,0.366126628,-0.292750551,0.2857305827,-0.2086279546,0.3498509129,0.6717155342,0.5358991846,0.4251481357,0.4395149724,0.0698435324,1.4455194633,0.0139515924,-0.1118457416,-0.0312727394,0.3460754527,-10.5908603897,1.6334066502,0.7298846321,0.2232566068,0.2673279197,1.6925226713,-0.5590961075,-2.4520756094,0.9048723846,1.5408924271,-0.198590635,0.0489193466,-0.6766166942,2.3052541394,0.2763068631,0.3193152154,0.4071415883,0.566942806,-0.1064967406,-0.1085230313,0.6297818061,0.9739488863,0.3571489001,0.0575541401,0.098959276,0.2652679668,1.3906190478,0.8588581459,3.0682144699,0.888308902,3.5160297699,0.7511783617,0.4832091421,0.1247873848,0.5616893908,-0.2239574652,0.3575314109,-0.259292907,0.5114470822,0.5571048264,0.0520600972,1.5272783243,0.4923295143,0.0598140946,-0.035483003,0.2939983399,1.3523175976,-0.0849345931,0.3067538028,-0.1629176155,-0.6322577906,2.189742331,-1.2171198529,0.0893103798,0.2305248385,1.0753270239,0.2633400915,0.6445156613,0.3272833786,0.1992013799,0.7624293496,0.2159821836,-0.030994211,-0.0713341763,1.0972328595,0.1872089576,1.1246521672,0.0555780476,0.1845336019,0.2769868902,0.113938583,0.2159365296,0.6622610241,-0.029125065,-0.0594870998,-0.0494713989,0.3656851956,0.6415617832,-0.1141313237,0.570747901,0.0615610409,1.6608147339,-1.8396060167,0.5227864615,-0.0112896391,-0.2755392832,0.3741786156,0.28255578,1.3988220563,0.5386680788,-0.2606866529,0.6912030602,-0.0174074794,-0.0107292543,0.3568463285,0.6686140218,0.4765649572,0.8911758115,0.7487604093,0.228069046,0.1497296923,-0.0635664879,0.9500836302,0.1153820191,4.6096698492,0.9093294813,1.7227220711,-0.6040362905,-0.1418972751,0.6748572122,0.0231728303,-0.1606060756,0.5230799786,-0.6389435923,0.1933139059,-0.10167597,0.3007102209,0.1058484807,-0.19523807,-0.2439058803,0.2259376154,1.2665175312,-0.1839873561,0.0965860418,0.5945267307,-0.0278432676,-0.1087612566,0.3045682517,0.3926437219,0.4742866645,2.457348767,0.6865405672,0.3519257695,0.2147024523,2.9126519047,-0.202787416,0.5304072355,0.2882126925,0.1332223203,0.3442565537,-0.6099156287,0.148451913,1.0512647033,0.6169429286,0.7051911893,-0.7454475035,-0.5999348698,1.0815324373,-10.5654253244,-0.7207568671,0.2154673318,0.0532386954,-0.0483711171,-0.3952253995,0.5464233304,-0.322944407,-1.0051998158,-1.0080696392,0.4318076655,0.3559014646,-0.3041072852,0.4676460202,0.326736306,0.5309738954,-0.178511872,0.7988149685,1.2148628941,-0.5565673258,1.722932051,0.7994163642,1.2758879222,2.1144912385,1.0922883433,-0.3762986307,-0.1792235815,1.1938879436,-0.9927140787,-0.0193829088,-0.9684281783,0.8554147975,0.4104231341,-0.1017810282,1.6202882926,-0.8096547572,2.0318687267,0.5410409957,-10.1015081514,0.7077349346,0.8314630381,-0.5261363804,-0.4760935551,0.746651632,0.0541272971,-0.4839228829,-0.0262808964,0.8316792046,0.9580680007,0.4464630457,-0.0086247703,0.7234617509,1.6044206529,0.1662361677,-0.0215018406,0.2493227742,-0.0361908821,0.1413004052,1.1473932379,-0.1080095877,0.7185766579,-0.8639249184,0.311447693,-0.6188184478,0.4464999977,0.2282567473,-0.8556954518,0.1182151137,2.6739281684,-0.2362483425,-0.6496253261,1.3247714065,0.4466029019,0.6687146716,1.5990403292,0.1209261707,0.3767755431,-0.313149988,0.6576731476,-1.0223097657,-0.2745784505,0.4841180627,1.3008370296,0.819100209,0.8720061587,-1.5003930613,-0.2063891444,0.1115037859,11.4387363728,1.6555851657,0.1363065923,0.5121696655,0.3278583857,0.1662321791,0.7859282384,0.3899786575,-1.5987212419,-0.0239007755,0.6986729863,0.1250591044,-0.1883128841,0.4958392103,-0.1708653823,1.9899261915,-0.795985561,0.1894472563,0.0452552928,-1.8942938947,-0.4412973113,0.2900015789,0.8007278727,0.8271716596,-0.5777125071,0.533364851,1.0959852977,14.6813439632,1.0222676992,-1.4469233734,0.1357518,4.3334300359,0.6820531165,-0.4662508858,-0.219257442,-1.9291425035,-0.0136444809,-0.6886558212,0.8141299142,0.7503282592,-0.3619606934,1.4874179495,0.994105256,0.5316016532,0.6417412936,-0.7786974547,0.1487669112,0.7560226116,0.7498311776,0.2517285481,0.2853044086,0.4323712255,-1.3919230274,0.0253290906,0.5352238404,0.5227586237,0.3062343303,0.7303002824,-0.022602472,0.3045032928,0.2630460452,1.3235028082,0.6553524236,1.1659849717,3.2188420486,0.3030825909,0.504530079,0.1560426729,-6.1335472925,0.4788612532,0.8871728225,0.8580102658,1.7151508774,-0.5433727235,-10.8052699705,-0.2757600522,0.3162021917,0.1444534149,0.1896097919,-0.1350233531,0.5943651149,0.5131971526,0.2881529355,-2.6185103555,0.4239341706,0.0004712689,-0.1165159151,-0.9030498444,0.6340016019,1.2478190989,0.0162550924,0.2895226959,0.4901536135,-0.0309228382,0.4606543031,0.7138499472,0.7588557388,-0.203807803,-0.7586458929,0.4710492891,-2.2890737511,0.9207394256,1.5497331656,-2.9167005613,0.0948928384,0.6507421233,0.4614136937,0.1858299844,0.783900356,0.5280162107,-2.8226682531,0.1226591076,1.3592050159,0.4884783527,-0.6914012482,0.1485038171,0.2246092042,0.6744091782,0.0367118594,-0.1294104998,0.7420993915,0.1656771003,0.6605739098,-0.0244570457,1.0500162075,0.561332955,0.0420114575,-1.5793086945,0.1895280468,0.2133757453,0.232165501,0.370429069,1.1043257353,0.0430749814,0.3963427272,1.7946391155,0.363983486,0.4000905467,-0.1053245126,0.0920802444,-0.0477610476,-2.5171631983,0.2366266937,0.5873031539,0.2161596744,0.4468502833,0.9515793486,-0.0195571195,-0.0470447731,0.7999773565,0.5233208287,1.1796827844,0.19457648,0.5533652139,-0.4790369809,1.2092497783,0.3311552189,1.995267061,0.243565683,-0.0455379098,0.8772961973,0.7305418029,-0.0542963346,-3.327315816,0.4920351215,0.1683758613,1.3064299546,-0.2571587792,0.067277719,-0.8868212014,0.6653273236,-0.4288338433,-2.940568059,0.2099917352,-0.753110918,-0.644926124,-0.0566088947,0.1431301089,0.3829838393,0.0298164289,1.645472933,0.4707560554,-0.1696377947,0.384958596,-3.5279081564
   1.096675025,0.2005697431,0.6255675171,-0.0579662239,0.1444220835,0.3504339128,-0.2236447668,0.6409860323,0.2011721037,0.0818797404,0.7608146073,1.0995800862,-0.1481704158,0.420628697,0.768311287,-0.9521662413,0.7482858765,2.2057850359,-0.1300661558,0.1326358051,-0.1634970544,0.3216811353,-0.1652218068,1.3044358675,0.7047630299,1.1736569203,0.1816080798,0.5790039926,0.0672546133,0.6842106339,-0.3595592677,1.1003338803,0.7967259863,0.3985862567,-0.0855922617,0.1606116368,-0.1434300213,0.1506899721,0.3565558114,0.1468016211,0.333159833,0.5278807418,0.7352542343,-0.0019684229,0.7136104943,-2.7052617015,0.0037691346,0.18541546,0.7929018161,-0.2126704492,0.4769289868,0.8891010833,-2.8922568481,0.6754567987,0.4487372629,0.8107085157,1.2630612918,0.0799638159,0.5643231791,0.350625175,0.5200366198,0.1773721011,0.3500416073,0.2612206083,-3.1586135258,1.6960875356,-3.5899690061,0.207513837,0.4071220073,0.190719302,-0.382364126,0.7119719933,0.2304649738,-0.4031567492,0.1182187945,0.034344259,0.496467369,0.7086738066,1.146710945,0.3375826396,-0.7656753375,-0.9616049769,0.4473030921,-0.0642120399,0.6211604335,0.5831783515,0.0922412282,-1.7623971961,0.5688835966,0.5346237822,0.5608896593,-0.8793311184,0.1370816664,-1.927320482,0.1252619088,0.2962496543,0.2189995815,0.8189948831,-0.3700466024,0.5341710033,0.370609784,-2.547457084,-0.6324392599,0.099297845,0.7400109792,0.1366260323,0.0738905173,-0.0857410827,0.3007274416,0.6652568536,-2.2503866938,0.5851066543,0.146706123,0.0221376037,0.268093713,-1.1006328867,-0.0478178765,0.2864795107,-0.4758672453,-1.5956322079,-0.3226089406,-11.2201032705,0.5644144361,-2.5341814015,0.0795347778,0.2698010003,0.3489706373,0.5904948302,0.3061430461,0.1057374179,-7.5811351197,-0.6584312389,0.0807867577,-0.5579297289,0.4607223114,0.1699475476,-0.0962946523,-1.4621239121,-1.6703762641,0.2845094903,-10.647276569,-0.3923825027,-2.0603309984,-0.2132940669,0.2899558203,-17.3960021442,-0.733541096,-0.9670336645,0.0275620983,0.5803416886,0.0737863099,-3.3154660252,0.1195038615,0.2776714926,0.8168717068,-0.1329239165,0.3902594512,0.2160184607,0.5773762225,0.6584844858,0.5662645581,0.7914373205,0.5663652511,-1.0005334171,-0.1887352634,0.3184404349,-0.5339414985,8.6863542177,0.2586387327,0.6237650672,0.4073971584,0.0134182779,0.6247014825,1.0412619027,0.1684756906,0.2570708821,0.6172878805,-0.7206208738,1.2423358457,-0.1482776787,0.7341482741,-0.5765913877,-1.2574572953,-1.4044439981,0.2008448846,1.081988569,1.1496093844,-0.2575016919,0.2519272794,0.5036664359,0.4189181956,-0.3756648839,0.1727067166,0.1750402531,-0.1900668335,0.6175648611,0.2618326199,0.6554552139,0.7966722615,0.4590970143,0.1429244362,0.0485935482,0.5278838807,0.0087662902,2.1688839729,-1.4357200696,0.4856437704,-0.0033724655,0.4154096478,0.1088389687,0.2370916904,0.1102909574,-5.9173664105,-0.3168623591,-0.2593347445,0.2308172763,-0.1864673373,0.0365448794,-0.7124134837,-1.9504337484,-1.4578475828,0.538545062,0.2745034046,-4.248234532,0.5767959761,0.6975562129,-13.0734771648,0.684218896,-0.5597227993,0.4466675656,-0.5150294308,0.125132974,0.5793734512,0.4051693245,0.6364355986,-1.3230985898,0.2187387395,-0.1579565425,-3.791477898,0.6572936573,-11.4050683455,0.2445959999,-0.0272365708,0.4688821772,0.8610674258,-0.1629069452,-0.0622003402,-0.1964441733,0.4403206892,0.7702946149,3.7853125764,0.1170116556,0.3477161726,-0.9223381354,0.6272218365,-0.2835842794,0.6253194168,-0.6527791732,-4.1107674308,0.6530673773,0.4443604195,0.3918898679,0.217598871,0.1762100893,0.6101812903,-3.9732406465,-4.0289925402,1.5802337387,1.7732269393,-1.273187317,0.2921348932,1.0682465529,1.7832673965,0.2018752096,0.13769729,0.7707219825,2.1799971321,0.3540185135,-0.1198424357,0.1684571232,3.4563424934,-4.387980713,-0.7096691397,0.3454642018,-0.0296771147,1.0205330503,0.4785189673,3.7170031166,0.7755108374,0.5876383283,0.379526896,0.4816491475,-0.5374487966,0.8284617761,-0.1120684872,0.0866626018,-0.2401556671,0.7181683385,0.4709971226,0.1433211327,0.2514205645,0.689950822,-0.7326933854,-0.5479803492,0.6769777245,0.5108247296,0.9411036517,0.0226116336,-3.7218076527,-0.6403212628,0.5841946947,0.4347939307,0.414327662,0.2440781634,0.00930826,0.6243249268,0.6204649541,-0.0311819262,-1.4040509472,0.1762455542,-0.876856445,0.3900838667,-0.3368115936,0.648497132,0.1438849228,0.183120455,-0.3130681773,-0.0863684187,0.577728138,0.0865455196,-0.0153333273,0.3730301557,-1.2500157922,0.2700472295,-1.0247241816,4.2732132165,0.7120196698,-0.2282235845,0.5833916967,0.3157928168,0.5875451078,0.0345048275,0.5645740628,-3.2892199725,0.0208990445,0.4437657729,0.1873485635,0.4250738954,0.6047476445,0.08601449,-0.2433826896,0.8991412646,0.2892530361,0.4023457009,0.3003078933,0.0436326984,0.1820934735,4.2279045423,-0.8915070423,0.4398284265,0.108182463,0.6414862759,0.5719303379,0.7627449263,-0.2761146481,0.9159438497,0.0015447804,0.8167069517,0.2162770143,0.3694133461,-0.1403670605,3.9760261087,-0.1965681175,0.7573850825,0.0476157128,0.0793057251,-0.7756774145,-0.3235974317,-0.0246595097,1.8674534811,0.411202973,0.3528266102,0.2258526247,0.1019635514,-0.8543684692,-0.4115597516,0.6275407401,0.3469577798,0.819857447,1.1677049625,-0.1052338621,0.5082407051,-0.2604859524,0.8139082415,-1.7462837268,0.406250677,1.7407303855,-0.0525702973,0.7892362122,0.5691842763,0.5349635189,0.208820853,0.525460717,0.0374242229,-0.5796600704,0.4706714697,-0.2269195322,-0.9774386775,-0.2774927647,1.4834501679,-0.0690935213,0.6151717017,-0.0248082347,2.1993787857,0.4582682304,-1.7786910278,-0.0773267702,-1.0604444798,0.8444720418,0.6707707078,0.2204956527,-0.179803274,0.6018452965,0.3334300555,0.7062226629,0.134048424,-1.1105671901,1.1066291829,0.6316021447,0.2990602355,2.7695784275,1.8286082377,-0.0997961559,2.2616933413,-3.7820802205,-0.2084769283,-0.6874188301,0.1576574281,1.9526148998,0.3026537489,0.0222332209,5.4069377592,3.1170568908,0.4166415452,0.4214122779,0.5121097888,0.472467927,0.5729028416,0.0107293944,0.0253021491,0.5460239218,0.2719019894,0.0579988312,0.3114689279,0.1857214568,6.3944476705,1.0130797142,0.8825395392,0.7911130087,7.4905222638,0.4766212812,-0.1603058673,-4.0832633189,0.3545045699,-0.8180666151,-0.0144371725,-0.0338849405,2.0008070509,2.1452038065,-0.2215477059,0.5698634465,1.4237206031,-1.202678836,-0.1109530994,1.1588885205,0.2562850951,1.5366553151,-0.4699992896,2.3870947728,-1.5908897898,1.6443670409,2.057076763,0.2552723161,0.617805852,0.6738030587,1.0240348135,0.1272583951,-1.9525965049,0.3475721204,0.4821463742,-0.220905809,0.1812177492,-0.4199617178,1.6512271838,0.013696578,-1.0188536016,0.8107099423,0.1479725144,0.4021938973,-0.3812799736,0.7842389026,0.3969274375,-0.0182247586,-0.3155530375,-0.428864348,0.9919120873,-1.5869621159,-0.8150702431,0.2175334525,-0.6331615383,2.3539035764,0.6093354863,1.2280190446,0.2233424617,0.8592096181,0.7249481655,0.5655653627,0.388119474,0.669806764,-1.1899074014,0.3035460861,0.6508056075,1.9231534692,2.895806061,0.5580064128,0.9522675494,-2.1301255027,0.7743950732,-0.7623742554,0.1825602765,-1.5535859303,0.3686141525,-0.3887357999,3.2456400919,0.350545988,-0.2655545695,0.336620993,0.059211653,-0.7119442771,0.3810313796,0.3239009991,1.1575831183,-0.9892551991,1.7396637237,-0.737239579,1.1108494699,-0.6009901772,0.2085217174,0.1882133864,0.7531427139,3.3225668,2.020127237,1.2655272864,0.6395280565,0.346419893,0.1541172333,1.358362341,3.4715562198,0.0784179225,2.2484999971,0.6236729296,0.2350387115,-0.3001877529,0.1197991737,0.5921940652,0.6233320538,0.2811560064,-0.2579087781,0.685659505,-2.3321709413,0.2032083887,2.3803712537,0.4951992179,-0.3237899403,0.0363574327,2.4119390603,-0.1668878281,-0.3624538642,1.2942481686,-0.2316406332,0.0843265711,-0.3635566696,0.3765298581,0.1876541374,-1.0785447359,0.2409066036,0.1288745423,0.496782748,0.1589839386,-6.259555925,-3.7921645248,-0.4814786176,-0.3362191327,0.1348977737,-0.2603840025,0.7191745085,0.7739247996,-0.5660354815,-0.2621291734,0.7186351559,0.4589865497,-0.195671279,0.3983297043,0.3244084455,0.2881363132,0.4403125526,0.5539139636,-1.1389393923,-0.3778141414,0.7346104556,0.083949923,-0.2003193277,-0.2571217074,-0.1906181677,0.9654587201,0.1228373456,-1.8281462207,0.5558101658,0.0497760867,0.3409845355,0.2957196862,0.7737243297,1.4376583007,0.1139442052,0.0537386495,-0.1781308758,0.6829701603,-0.7007411689,-0.0202648026,-0.5656660604,0.8402928312,-1.7880684695,0.6081610221,0.4748621818,1.1785107036,0.2134920652,0.9990733088,-0.0055805876,0.6394697866,0.4090247864,-0.5277655969,0.5405542408,0.5840095746,0.3454230319,-4.5477640037,0.4199531517,-1.1850149031,-0.2792690294,0.3941817701,0.4625101787,-1.3123951281,1.7018155005,-0.4007650413,0.4741450578,0.6638836666,-0.0929369159,-0.6396154999,0.7483324868,0.4130218549,0.2231567811,0.3006759631,-17.1311421997,0.1090833212,0.2106225765,0.367560811,-1.2786238369,-0.2913736567,0.5963018546,1.096653269,0.410240411,0.4283529111,-0.02468027,0.2655121067,-1.565513656,-0.0984213896,-1.9558151302,0.2809897191,0.9742393128,0.5057399271,0.0600664777,-0.6858939826,-0.6226146379,0.4158952985,1.0707828084,0.3659955152,-0.6040010371,0.2427502996,-0.2897568577,1.669835712,0.7932035585,0.5193306298,-1.3110063464,0.4903918577,-0.4251309706,0.4999951839,0.1181214103,-0.7476552711,-4.996509118,-0.0608291273,0.350044177,0.3940073185,-0.3532113187,0.3191928764,-0.1337629608,0.14073531,0.6878624211,0.652983897,0.0109756971,-0.6128461498,0.2928598524,0.8256588917,-0.8961320193,0.1341389152,-1.4917538751,1.1528020874,0.3060114768,0.2032960177,-0.0939119661,0.84571574,-0.0321792759,0.3904896453,-0.6295355827,0.1043633184,0.2895872888,0.962770463,0.9838590222,-0.6066751907,-0.0604183791,0.2787322153,-1.9424264172,0.3797860048,0.0135386147,0.8988033593,0.3090138338,0.3686064377,0.1476541625,-4.8824534843,0.3088191281,0.23160594,0.6423877067,0.2598962426,-3.194594345,-0.6416710422,0.2995007624,-0.1587990245,-0.473400751,-0.8561058525,0.0772563528,1.3543968881,-2.9727887818,0.0610995384,0.263948115,0.1712516188,-0.1609858556,-0.5862149282,0.3258782513,0.0892295895,0.6675632202,0.0134994942,1.1949585572,-0.0992683204,-0.1513990561,-0.1482096106,0.2015896198,0.4118392662,0.3835224129,0.3762785059,-0.9374687526,0.1042935818,-0.0145112008,-4.0803262971,-2.6081104566,2.9906658068,-0.1087403034,-17.8855822554,0.2704676083,0.6905274671,-0.9249400105,-3.4751942953,0.7605924977,0.5026909761,-1.4713774179,-1.0825148557,-0.1824148592,0.9313638658,0.5557301106,-1.0224168752,0.2406056733,0.5253505613,0.7074740852,-0.3659165363,0.879092654,0.4439006334,-2.2024039263,0.5036485181,0.0608124693,0.3777912181,-0.5382061739,-0.110112277,-1.1603399512,-2.1752558372,-0.4002792478,0.1914424747,0.4898640137,1.0653487625,0.2912102068,0.6202910791,-1.0016252852,-0.2022312045,0.4277133451,-1.2785709627,0.0403119549,-0.1730741446,0.1114624982,-0.0140796686,0.0855292399,-3.2908733057,-0.1328323993,0.5867056484,0.7589973459,0.2086174552,-0.4644816475,-0.1205158459,-0.2693754915,0.2222164701,0.2757476109,0.1403540227,0.4402433049,2.029271409,0.0338240653,0.0432780105,-0.3812807006,0.3689176542,0.309685936,0.6997925591,0.5363372567,0.5348041286,0.6790706361,1.4789509013,0.7264112462,-3.3224173089,-0.3814041495,0.0434826219,2.3712725807,0.024219557,0.5691521469,0.2883278313,0.837847246,-0.8204991159,0.2000597541,-4.0420768617,-0.142344156,0.4326626082,1.31842926,-0.15051876,0.2274158269,0.4591370818,-2.330664351,0.6290566285,0.763968693,-0.8536852166,-0.3921412597,0.165971224,-3.1047700447,0.0737334775,0.8463419215,-0.882233414,-0.1926933373,0.6164370764,-1.2245342445,0.5494884047,-0.2239715693,0.1032789808,-0.5482074069,0.0158849748,0.1000419124,0.2307972196,-1.8048203679,-0.5414724376,0.5268206549,0.491696333,-1.5958921764,0.9713022572,-0.4390645828,0.3746935107,-3.15053953,0.1652543073,0.0495238827,0.5007292269,0.0383677028,-1.7539799103,-0.2622992851,-1.3039041023,-0.5624030019,-0.2422759207,0.45554378,-2.8834465327,-3.5643505127,-0.2736027899,-0.3764439486,-2.8537255979,0.1764450187,0.5351550633,-2.224407537,-0.6314347043,0.3243662115,-0.5000980381,0.0492345005,0.442904549,-0.1928499745,-1.2911387557,-1.4321070597,0.2345632727,0.388282506,0.7469626853,-1.0481175425,0.3871627139,-21.980506782,0.489310216,0.0661959125,0.1444243596,0.6265215143,-0.1641043281,0.190833292,-0.1035179261,-0.4608261302,-0.4303997649,0.9591167851,0.5210428691,0.194475833,0.4265205672,0.4402008079,0.6420245238,0.3374963243,0.5438475452,0.2904975087,0.0167647432,0.1440074351,0.5869148317,0.6956511376,-0.078101713,0.4689124251,0.5472216741,0.1115337636,-0.3540460397,-0.1949634121,0.0392127388,0.969181851,0.894351998,1.0383452071,0.8869228222,0.172096558,0.4043220674,0.1635842188,0.0780627528,0.5300463267,0.3187293292,0.8744741663,-1.0763745083,0.0340513016,0.7265116093,0.2056974234,-1.7867933628,-0.1163654212,-5.217586105,0.8156682212,0.1763833069,0.1109649664,-0.0276041189,0.1657863143,0.8963756759,0.5655851374,4.0337572718,0.6823892251,-0.2832586834,0.6630025803,0.2588252082,0.2370542371,0.4118740319,0.0960900328,0.3388302346,0.1270763745,0.4145542724,0.9972402835,0.5496150284,-1.1954519001,-0.0356116095,0.4476162101,0.1349463801,0.5362877369,1.7248838599,1.4266351669,0.6138435533,0.2368734108,0.984663924,0.2729627061,0.5312388588,0.5186155999,0.1821517575,0.0946897701,0.4890271626,0.4758028728,0.0238055087,0.5940373622,5.2888736658,1.3665361065,0.4753720077,0.4038059605,0.6327804788,-0.0467301976,-0.1240611814,1.4048242077,0.2130185013,0.6645139112,1.4424532486,0.4063928455,0.7861894602,0.0215240176,0.7736425212,-0.3225870331,0.0303035676,0.6891192242,1.0896757356,-0.1328361625,0.4834294114,-0.1721274385,0.7047370353,0.4621471327,0.4837283737,-0.2329925742,0.5084729707,0.1812449512,-0.1462592634,1.52392964,0.9581914924,1.8964249427,0.1475594789,0.5524532349,0.2101767585,0.3030501994,0.0277018167,0.5384449915,2.6650073713,0.8159898338,-0.1864742705,0.8597235633,0.6772826676,0.7593665577,-0.2569195019,0.6393024846,0.2342500129,0.6226643504,1.1529744055,0.9860282796,-0.1083022335,0.6646047082,-2.6040257071,-0.2634206119,0.354769655,0.3882595292,-0.0490212439,-0.3939924838,-0.2632814272,0.5277532971,0.1857713541,-5.900942207,0.3707672971,0.2545686042,0.3266547908,0.9286362097,0.6118919324,-2.0700494731,3.2548264063,0.7315941845,0.1272188977,0.5848378203,-0.1472038846,0.9023442859,0.3178642467,-0.4185472506,0.0196210941,-10.9198839584,1.8078396439,0.0553857511,-0.2475916118,0.3902027822,1.0096039502,0.5230659939,-0.453042591,0.7931820826,0.2904820764,-0.7274699058,0.2103742433,0.7333416799,0.3387992788,0.0493917521,0.3997394992,-0.1735619202,-0.5845867782,1.8809225827,0.247442287,1.0744015618,-0.3812663824,0.6516017774,0.2435173392,-0.1733951212,0.3733450926,-0.0705515152,0.0588553722,0.6852505523,0.2499661759,-1.8400181989,0.3209052184,0.9663661774,0.5397621573,-0.4045143731,0.1389892123,0.7099082118,0.287864946,1.2767314922,0.1916098261,0.1284555761,-0.3242938378,-0.4057922148,0.3638028654,-0.3371659305,0.5796443881,0.1806317377,0.5315477618,0.2922335543,0.6298640822,-0.6452864156,0.369917009,-0.0952261756,-0.3302851765,0.7096189686,0.9918335301,0.2083547614,-0.6146293412,-0.3010057937,0.9248574,0.9345179413,0.1556708879,-0.7855787756,-0.2170739074,0.8928664911,0.2277552889,2.7039736774,0.5054531455,1.3529271597,0.6936337136,1.8366652661,0.1918178869,2.3479497083,0.2189969998,0.0033989939,2.244613667,0.3411370861,0.3123224234,-0.3623513987,0.0941263788,0.2307686759,2.3139256376,0.0617369496,0.0354527004,-0.6159838237,0.6195806946,-0.4658256548,-0.2680632021,0.3204501643,0.0320912284,0.2838185196,0.0287604877,1.1790761652,0.5421214339,0.822701854,0.4323765394,0.407174665,0.553948803,0.0616811977,0.3959079167,0.1473446874,0.3767962665,-0.9688121184,-0.1140305054,0.2949323792,1.2860083556,-0.0443564124,0.9357848481,-0.3213674476,0.9504711477,-0.2568448051,-0.9762595831,0.1395486496,0.2770762231,0.1555409355,-0.204108645,0.9448757146,0.9263952633,0.3230832132,0.4894668923,0.6049461824,2.6605101186,3.9162407101,0.6288085153,0.5286146972,1.1442249231,0.3233939159,0.3275181841,1.5250184808,0.4941445287,1.3641385524,0.0814460112,0.9583280426,-0.2013446015,-0.5420608234,-0.1552909584,1.8467661433,-0.5296743981,0.4399795452,0.403787701,0.6577277111,0.2544495332,1.076260128,0.3950309479,1.2136676204,0.7577159473,0.4485075375,0.0798386138,0.5069538225,0.965555604,0.0410527188,0.5689824635,-1.5227261665,0.5369593467,0.9089859885,-0.05446815,0.8969216291,0.193239197,2.5345075619,2.9348175978,0.1769754487,0.1680620549,0.8566278819,0.5374779545,0.3015493305,0.2200307627,0.313381631,-1.2177584474,0.7666572228,0.6758456778,1.3181173403,0.4813128225,-0.1362559996,-0.6816927162,0.4501775503,-1.0439913526,0.795222505,3.3613839156,0.3188567859,0.2007249811,-1.7484447745,0.0304914819,0.2121041463,-3.7996322296,0.0173798989,-6.6098963069,1.2225838302,0.7899952579,0.0162403082,0.0152633798,0.3241657446,-0.637104301,0.3734440045,-0.0105910593,5.1988322729,2.5786504139,-0.5896300136,-0.2041666412,0.8953895508,0.2679818649,-0.1622253575,1.702924443,-0.8207743482,0.0258623107,0.5413739038,0.9190494801,0.3742539451,0.2059469848,0.431317436,3.6650780045,0.7647031323,-2.6991422427,0.3984216972,5.43313038,-1.4513179426,0.0649612079,0.896840617,1.2840726951,0.5888692024,-1.0409981662,0.1183888055,0.3182811349,0.9899912531,0.1461392931,-0.7475774058,1.3029618529,0.5065839515,0.6228202096,-0.5446733997,0.4386889736,0.6341066068,-0.3455387137,0.5619810272,0.3914693117,0.6242207844,2.6315775293,0.6226787077,0.302267633,0.2949603066,-0.204837346,0.2822139245,0.2698341204,0.3063861926,0.2672090973,0.1795194607,0.0876729756,-0.0396659248,-0.1977499707,7.1261239298,0.2006107964,-0.177387466,0.558352097,0.7864988695,0.1849173216,0.8480584451,0.1014237968,0.5259850688,-5.6903930522,0.7435889467,0.3505845689,-3.4487889362,0.2254440537,0.3793853251,0.7740952697,-0.0030383549,-3.2981132156,1.8740440969,0.72204035,-0.2065476895,0.7048212951,0.5689581579,0.5348305001,0.37980158,0.25542184,-0.886538073,0.2949676713,0.7580804205,0.5839506227,-1.0387757883,-0.6684265196,0.5597504453,0.4634843117,-0.1909072272,0.0187457069,0.6156390686,-2.9068676277,0.2981456952,4.4377727236,0.5884715844,0.4551229984,-0.4350315631,-0.518486384,-0.8439949764,0.1798680666,1.0038308742,0.431403517,-0.7778451734,0.7749271067,0.0516121797,0.0431173673,-3.0203347526,-1.5122323303,-0.2597287751,0.243931914,0.2771398533,0.2645477424,0.4762268206,-0.1469802042,-0.01695274,4.6443559208,0.4302154985,-0.1068422027,0.4154661211,2.5047453065,0.3783914161,1.0227918478,-0.0098304733,0.6723040445,0.3722261693,-0.0614825924,-2.613940849,0.5132741003,-0.2623650766,0.3710200187,1.0413129286,-0.482962604,-2.6861833663,-2.7001383984,0.1728266137,0.3613211744,0.3712296236,1.4294309581,-0.5482842759,0.0033763777,-3.6106946505,-3.4379902305,0.4360207065,-0.0316157018,0.1245307537,0.4211268795,-2.7640530225,0.5666169851,0.4658102204,1.4626787736,0.3700163263,0.7845494341,-0.1156935731,-3.0650446775,0.4680092158,0.2265790499,0.0414435735,-2.4614861785,0.6002126544,0.7051728628,0.4196061335,-0.7894961068,-0.1302751299,0.1973784955,0.0642280743,0.3480104528,-0.0311065637,0.0686247343,-0.3093625715,0.7803420065,-0.2378352774,0.7421004345,0.4886910128,-0.7264291411,-0.5458621951,0.4343654113,0.3320908885,-0.0338453373,0.4108046727,1.0564511237,-0.1774931641,-2.8671780399,0.9890926513,1.1004076295,-0.0512539888,0.1688576253,0.8829096829,1.2134950561,-0.7699741542,-0.0601288354,0.0333434013,5.5600378806,0.842175903,-0.0150411121,0.0835963299,0.8146705132,0.6155906286,0.3421981862,0.5398708624,-0.0506718337,0.3964829602,1.0986109517,0.1209606589,0.621350094,-0.2580383546,-0.8327522675,0.297626335,-0.7961643194,0.5829840272,-1.5194278481,-0.1869273587,0.0848290059,0.0081774337,0.0310547423,0.1418386304,0.1336766921,0.0767079885,0.2100109841,0.4696673815,0.3228701069,0.1528771749,0.4875342832,-0.0131680727,0.1290876033,0.2472503401,0.9414183178,-0.7007064686,-0.0361814947,0.2022532573,-0.3191077374,-0.3101199807,-0.266967857,-0.1485774363,-0.4315125089,-1.2288496891,0.4187992639,0.7210190713,-0.4208544659,0.7963278097,0.0511358622,0.2627267537,0.5162312143,0.0319267617,-0.1938696601,-7.5131655801,0.5754484932,0.4844946952,-0.1786446769,0.7318669194,-0.3262591099,2.3561770081,0.3516149939,-0.4224029144,0.065858925,0.0801277529,2.4307734573,-0.1965323023,0.3630005882,-0.7170251617,-1.0482133004,-0.3459169507,-0.1780097648,0.817494663,-1.1169484035,0.2157629028,0.3174951602,0.4211170885,0.1103926043,0.1749897562,-0.2585506348,-0.0874476282,0.2310132583,0.3813112638,-0.0845107262,-0.1368110193,0.2356597955,-0.0522873407,-0.3888372709,0.4839127907,-0.1966872038,0.8413845627,0.3295648283,0.5184836878,0.3235042418,0.7624854517,-0.0448770762,-0.2843070408,-0.2974783423,0.2340861364,-0.114963154,0.2691576716,0.5350520748,-0.5427229381,-6.4191318514,0.8814104349,1.4940600662,0.3675294399,0.5351418717,0.1254175521,-0.3340000633,0.1934493989,0.2507974564,0.5363625017,1.1566910667,1.8019965509,-0.5999437696,0.1629865967,-0.4690093367,0.925568999,0.4555009408,-0.33875744,0.9592394299,-0.2375307807,0.2541310242,-0.5935401649,0.2711480021,0.6747967288,0.4253982404,0.0625318726,-1.0377640448,0.5668452862,3.7307864524,0.5820491797,-1.1369660913,0.2223474405,-0.0470093435,1.153578824,0.0198046991,-0.4494783592,0.2895133212,-0.5769239452,0.4467559204,-0.5054179752,-0.4369768584,-1.2061724813,0.8800044347,3.5956048056,0.7422896531,-0.3783923345,-0.3387490784,0.0346001431,0.4670715998,2.8877651771,0.0463074243,-0.184561319,0.207832067,1.6328852767,0.2796303619,1.8280732101,1.4228818428,-0.430243326,-0.4311943515,1.6250945726,4.2029007686,1.2278305864,0.372355702,0.4866616162,-2.5407514337,-0.3651730055,0.3049995052,1.1622409248,0.3508454806,0.5697750853,-0.3332789858,0.9561692245,0.3465758212,-0.2630781077,0.578231309,0.3570162106,0.3344102512,-0.2373858715,0.5991674921,2.6537509835,0.4963434302,-1.334229075,0.1196025558,-0.2866602314,-1.048379562,0.4065156442,0.6041844588,0.2429424485,-0.2599813458,0.6063100676,-0.085118182,0.3146125079,-3.5258226206,-0.9800274284,-0.5205647085,0.6727648596,1.4316778809,2.0707879296,2.8392653698,1.440337342,0.2999275479,-9.3814221569,1.2589405825,3.832486977,0.386523074,-0.4360847308,0.1486986946,0.3764990726,-1.3543201627,-0.0348434295,0.4287728352,0.1638665703,0.3293549817,1.6951561156,0.9451366571,2.2871629973,0.2569796979,0.9845117894,1.4055563282,0.2336301569,0.1815587286,0.157337777,-0.0498446562,0.3557453785,0.0588782302,0.8145899596,0.170787729,0.6516396683,-1.3264054358,-0.1144891875,0.0983817912,-0.061694877,-0.6911017785,0.7905079473,0.6172793718,-0.665810213,-1.3688729879,-0.8886880806,-0.3251341454,1.761527144,0.3653797335,0.1232007056,0.0205939212,1.1874833172,-0.8825247013,0.5894685154,0.4071592939,0.061745888,3.409887778,2.0308210782,0.4796069073,0.0233237087,0.7392275745,0.1265736905,0.2732466001,2.087959824,-4.0004084574,1.0124578228,0.6978974238,1.9119623972,-4.2025552352,-0.6097081677,0.2125347788,0.0676675824,-0.8588195121,0.3953630098,0.0757520887,-0.3323646409,-0.2721039098,-0.0037637971,-0.0035854162,0.6508839161,2.79264806,2.2970831039,1.8227399715,1.7560793284,0.3680496081,-0.1827056054,0.1748321707,-2.3226195724,2.8373679897,4.3066616488,0.992965439,1.0526951509,0.0164095331,-0.4000150078,-0.1051903998,0.540433674,-0.1106602594,0.3325235539,0.7804016666,0.4561987559,-0.8861934108,0.3296427995,-0.6158987587,-0.1732338388,-0.9147086187,0.5373091269,0.1512809168,-2.9719525945,-2.1542078715,0.2759847786,0.0988871953,0.4860449029,-14.3885606249,0.2025148482,0.753543756,0.7969729517,0.1740762578,0.2120407458,-0.124721459,0.6871489871,0.6836973613,0.3899818781,-0.0034099096,-0.1514966398,0.6298895163,-0.0079304676,-0.2146325132,0.465281873,-0.0441551555,0.0690678427,1.8666094788,0.3887962428,-0.3536413382,1.2185893421,1.5373798062,-1.7294152633,-2.0560597387,0.2226286615,0.3803839684,-0.2577312935,0.2690821399,0.6156703301,0.865502358,0.2424697027,-0.11737425,-0.0440666043,1.1391439686,0.4851846855,0.1484213103,0.145845421,0.0234073601,0.0630215315,0.4598056562,-0.5464179283,-0.446279265,0.902929536,0.8754731307,0.4150361643,0.1321498791,1.1145643862,-0.0094009978,0.2453130869,-0.4006127044,-0.1358874628,-1.916991901,0.2796722305,-0.4559625034,0.4185180757,0.4085408414,0.3459236371,0.3845201846,-0.0025565296,-0.1931137787,-0.2951600973,0.1191688853,0.3088387959,0.3973172405,-0.1148024544,0.2191069354,-4.8360870134,0.614851661,-0.0578565641,0.1655528127,0.7936290644,-1.3888960806,0.6085310127,0.4214886687,-0.0751067471,-0.3581249529,0.4739465057,0.4832432608,0.2762098424,-0.3741144258,0.737357702,0.1960623942,-0.202828104,0.2113415433,-0.0173048847,-0.0119360333,-2.0764487696,-0.102927679,-0.2221241464,0.0890869949,0.0681763167,-1.3953446925,1.2608148153,0.2225536173,-0.4370993873,0.1462644247,0.4764387529,0.6700322818,0.1529579172,0.5642282563,-0.245497603,-0.0121418844,0.6410724483,0.1013955162,0.8796426764,-0.7798884479,-0.747803466,0.0005689135,1.2947614115,-1.3428125678,1.0336674387,0.0851741774,0.1490520141,0.6021891562,1.5098952331,-0.217555681,0.2140841929,0.3640559437,0.2799552157,-0.0041050417,0.6780485051,-0.2010732842,0.5418498786,0.788327441,0.0869006109,0.2441220261,0.008819181,0.1695951264,0.397001255,0.126748025,0.4456362515,-0.3681329682,0.0515885532,0.1150449079,-0.5849169117,0.1490591562,-0.1440223266,0.2836678678,0.5516049786,0.4886441744,0.2260081376,-0.0285276475,-0.3995164937,0.2778101787,0.4007554572,0.4804889682,0.0082710934,0.2937472461,0.553726229,-0.2783060248,1.0182892627,-0.0916104398,0.7828199167,0.5943106666,-0.3916880838,0.2998705944,-0.9717094802,0.3891980456,0.6127203569,0.0296518908,0.1029208876,-0.4226180379,-0.7905618783,-0.1730933874,0.2169253148,-1.4333368277,0.3856440962,-2.1461287928,0.3313285149,0.1208745514,1.105198907,0.7956460573,-0.2594747603,0.215920569,0.3181054425,-0.6956349792,0.9135357305,3.2833378761,0.2952107065,-0.213482824,0.3320549892,1.3208178474,-1.266017486,1.8572695863,0.3822244255,-0.3462907007,-0.1676230069,0.410611942,0.6864141806,-0.6677401488,0.7754484464,0.8000284423,-1.9882055125,-1.6284080944,1.0001464749,2.8525344029,-0.236820264,0.0760387595,0.396703839,0.4285129258,-0.2388130653,0.6685450277,0.7333698631,-0.5966152492,0.4099840273,0.4710767255,-0.351333806,4.5057992837,-3.4441690701,0.0655277637,0.6690285597,0.2993857476,0.7611281362,-0.0764244118,1.3356131861,0.2152523279,1.0849511532,0.6608780516,0.7322176341,-0.2042830202,-0.3172876954,-0.4419691903,-0.7753729046,-0.2055097273,0.3389914513,-0.0433954788,0.5567138826,0.7384443228,0.2269128037,-15.8731008199,0.2666893864,0.5157831283,-0.0920959146,0.8710270005,-0.4092424454,-0.572480944,-1.120695855,0.7736021961,0.1651686738,0.5458736467,0.57461389,0.9901813518,0.7965573893,0.3525369397,-0.5062772451,-1.885034007,-0.5469999577,0.1920332709,7.6096720449,-2.6255292416,1.072796808,-0.0618888919,0.6183877728,0.8594263722,-0.6388879272,0.6049056841,-0.7118086012,-0.262096273,0.1761123464,0.0771624435,0.2733180042,-1.9912687914,7.6151605229,0.1150172567,0.206394544,0.010793107,-0.1182897926,0.5440746696,0.2553747993,0.7242856567,0.1041738003,0.5700574992,0.1216054801,0.2142842885,0.8071027717
