encog,BasicNetwork,java,3.2.0,1,1431275635454
[BASIC]
[BASIC:PARAMS]
[BASIC:NETWORK]
beginTraining=0
connectionLimit=0
contextTargetOffset=0,0,0,0
contextTargetSize=0,0,0,0
endTraining=3
hasContext=f
inputCount=25
layerCounts=1,19,38,26
layerFeedCounts=1,18,37,25
layerContextCount=0,0,0,0
layerIndex=0,1,20,58
output=0,0,0,0,0,0,0,0,0,0,0,0,0,0,0,0,0,0,0,1,0,0,0,0,0,0,0,0,0,0,0,0,0,0,0,0,0,0,0,0,0,0,0,0,0,0,0,0,0,0,0,0,0,0,0,0,0,1,0,0,0,0,0,0,0,0,0,0,0,0,0,0,0,0,0,0,0,0,0,0,0,0,0,1
outputCount=1
weightIndex=0,19,703,1665
weights=0.7475717187,-0.5889329445,0.6790323861,-0.3989684649,0.3177597079,0.4862410714,0.4043688475,0.6482553381,-0.4082147484,0.4438553206,1.0139257814,1.011500525,0.567795896,-0.7512866271,-0.4545747952,0.413787409,1.0445893656,0.7585767411,0.0491712231,-2.4082997706,0.7439457602,2.0030813469,-1.8466680178,1.6806888325,-0.7315756128,2.7083713069,-3.4068851636,2.829201976,-3.1650580705,0.1714021844,1.3826541702,4.0927430106,-3.0627958365,-1.4156315741,0.1407429157,-0.764647857,1.4742798387,-0.7711882875,-0.9769627669,-2.1248320479,-0.4203538659,0.0665567286,0.9995706949,-0.3740816049,-1.2327257984,-0.2088766912,2.311172326,-0.0226616442,1.4946792489,-1.5499104991,2.4304314518,2.8304471534,-0.0698192545,-1.5990348554,0.5969886418,0.0292002996,1.1971140228,1.4043744787,0.3140590663,0.6283888987,-0.7990665506,-0.0605169675,0.2617145945,-0.7970233316,0.3117766859,1.6491400876,-0.0033788082,-0.035654957,0.1925243898,-0.4880889048,0.8357317618,-0.6807280221,0.0914125838,0.8229577391,1.1438114147,1.0105293143,0.8577845783,0.093675221,0.4679598694,0.6953382516,1.0665006144,1.3358571359,0.8793983788,-0.8509243782,0.5847518598,-0.5979265617,-0.0485052063,-0.2284710362,1.8992357782,0.5396595694,-0.1648921993,-0.2733736172,-0.6304177945,0.3638364309,-0.5538848546,2.5968508217,0.804620403,3.2061853118,-0.3744796216,0.8766325506,0.52747678,0.6889670684,0.8543074259,3.4656531463,0.7000007593,-0.3079746529,2.0328651631,-1.2426037497,3.0149396256,-2.7493337605,-4.0693312297,1.374760932,-0.6726556954,0.8296250711,1.0171982476,-1.7597946739,1.5865375166,0.8986949419,-0.2519777953,-1.488866026,-3.709129611,-0.2568317023,-1.9367669074,-0.3560795699,2.4048026224,-0.3563271516,0.163715949,1.241077013,-0.9919853168,-4.5999623704,-0.1460058321,0.3329658419,1.1386654108,1.5716909519,2.1142375262,1.2046648623,-2.1675428287,1.2679690533,1.9649745023,3.0934934829,5.702971337,2.3736912338,1.4011057646,0.3546366364,1.0797266116,0.2113775544,8.3296879293,0.8281267185,-2.1384737134,0.0360828967,0.244833447,1.6768100017,1.323810969,-0.3704868925,2.0127848468,-0.5206678115,0.8377846169,2.3610693641,5.3791994435,8.5738976602,0.7225037199,0.6920581748,0.9123130317,-0.5998391038,0.240614888,-0.4125236987,0.8159391643,3.7572227118,-1.4742948957,-0.7998832086,0.3188580004,-3.412728897,-2.4566786112,-1.1149085153,-4.196522959,-1.9959166205,-0.7538594033,-5.6972833733,7.146587959,0.9225744471,-0.3428257987,1.3650986172,2.4252308996,-2.7645197448,-1.6886209674,2.1327119318,-2.2639987698,-0.0120092693,0.7691811037,-1.5897361032,5.5106543309,-2.7321609917,2.119633203,7.4293060654,3.6518689625,-2.7768081097,-4.8925948763,3.9290961956,-1.2244247436,-0.6064068262,-2.1052701611,-3.9492896242,5.4886330837,10.9051033008,2.5014648229,4.9760826704,-4.4794700549,-2.0274286423,0.3169953088,0.3640355473,-1.7910122536,1.321766199,2.2450790339,0.9961589465,-1.946239807,0.4628234514,-2.0668178847,-1.3798468331,-0.4210692025,0.8237805337,-0.031996571,2.3777388414,-3.3003431547,-2.5622499364,-3.3631182279,-0.8058165232,-0.3786911215,-1.1882465888,0.8516730145,-1.2434243384,-0.7731700652,-2.7681424095,-1.7858688893,-0.5743926586,-4.7686208794,-0.5746241733,-0.4561653988,1.7559677168,-2.8736784543,-0.1376663852,-7.2050075535,1.8495799368,0.1597580633,0.311339271,1.8627719922,-0.9741159637,0.9450111599,4.1641225261,-0.5202224124,0.3813074094,-3.2000430443,4.256425499,0.4186714098,1.4577396607,1.1351067288,-0.6336903166,0.2300876175,2.8334087356,0.5481480964,-0.6122787552,5.5615080582,-2.8111963219,0.3573023764,1.1837914108,-0.3236502834,0.0336089155,2.1645239012,-0.2282096031,3.4151187632,-4.1610568242,2.836920768,-0.8951383075,-5.1528335288,2.0741031188,-0.0745375905,1.2305419273,-8.8947926324,-5.9717446131,-2.5479592027,1.4796649752,3.4303028902,1.2858297806,-1.4086222094,-1.042986451,1.1108414722,-0.7881753101,0.7695588436,-0.0111270432,0.4059047635,0.5199569791,0.1260886808,0.5031115757,-0.5842803192,1.4011983936,1.1010202082,0.1858115401,1.56113073,-0.7256263401,0.3504948033,1.3235484981,0.5691000283,-0.478930384,0.662269681,2.2158899006,0.1566428619,1.2343404884,0.9531046365,1.3169028561,-0.1180860331,1.2456198227,1.0906802072,1.9480709853,0.1166725515,0.0617982502,1.2306135185,0.0806427127,0.6341384547,0.9012042794,-0.2761197982,0.2427209386,1.1851781347,0.6994708635,0.2946460289,1.6208358527,0.7889188625,0.8623537407,1.6121768092,1.2449877393,1.3138638211,1.8058879242,0.134942554,1.9620930449,1.3366847282,3.7703542053,0.3726016872,0.8390201457,2.7247326893,-0.0414339594,0.6707069866,-1.2969819277,-0.9066649095,0.4709062709,-0.8769017403,1.0478771365,0.7285270361,-0.1779603481,-0.6574095077,0.2896201852,-0.5475590446,2.2903572283,1.1946163942,0.7022082391,-0.0322139494,0.5331848081,-1.4514865725,1.4888774306,0.0072655607,-1.2014595687,2.529086578,1.4270761926,0.0829305074,1.7425297218,-2.7655671387,3.6291501807,-0.3656686395,0.770614644,1.9209576451,-0.8572477368,2.1282649741,-1.3336828252,6.2118745002,4.3590165344,2.3236199422,4.0351507619,6.3571868258,-3.7173748832,1.2239207474,4.1641190099,3.3114796348,-2.8878539168,-3.3019507427,0.8242330952,5.1208127043,-3.0348025385,3.6642176337,-0.1817328109,4.269108759,6.1779931621,1.5501569259,0.4479812962,1.9359492744,0.0145456105,1.6049658159,-1.3306832056,0.5026523001,5.2449652906,5.0812453892,-3.3127731473,0.7008724675,3.2323385789,-0.8147112383,-2.6159535221,2.6946328824,-0.3080103622,-0.4939040492,-2.8703408969,5.0453387417,-1.7474267361,0.180416508,-0.9140011913,0.6367651925,-1.7581913074,2.4553592789,1.8420958679,3.1730434862,-0.4445929661,-1.0144090038,-0.0083013246,-2.7803587786,2.4147559842,-2.8882927985,0.0023613972,-0.8592710759,3.0759134541,1.2690280991,1.0105888228,-2.2948013843,0.7707056364,-6.0101784853,1.721837013,1.438354582,-4.2698104216,-1.5345493262,0.0806234654,-1.554386928,-1.2313860213,-1.5012767313,-1.8558325304,0.6596144479,-0.1520527631,0.4760408877,-0.4089746997,0.1374982671,0.6855423011,1.2568308948,-1.6901455314,1.0921531946,0.4428664436,-0.5887574596,-0.9217434906,-0.4877611839,0.3204919409,3.0996070479,-0.6196129122,1.1343415108,-0.518339902,0.6306833913,2.8463605111,-1.8729735981,-1.0957035248,-0.052428342,0.1230266099,2.9481683014,-0.6125061773,-0.3756449511,0.460978501,0.9939335812,0.8812417569,0.4573962883,0.1289861876,1.3527468049,0.9154722494,0.4253168712,-0.6761734392,-1.3928596471,-1.424321165,-1.5777587768,0.7587332473,-0.1513162205,2.3644416308,1.4867294086,0.9580161306,5.7432874764,-3.190960444,0.1933271664,0.2892389024,1.3144389975,2.9556722836,-2.6259713492,0.4619340429,0.1639915928,0.6576326296,3.5258412658,0.4594684453,2.3624573939,-0.0875154228,2.5892277018,-0.4748410637,-4.9363954313,-1.2003935737,1.4851528802,1.2430136983,-0.3788343802,2.2918167203,0.2462455673,-2.2961954296,-2.1042211111,0.9410223023,0.8961959106,-0.0474221328,0.7141496849,-2.2008877191,0.3499041437,-0.1755873298,-0.8375925741,0.519493101,-0.340678377,0.4779307611,-0.6308367589,0.0605067461,0.5511595946,-0.9378766808,-0.8516224563,0.9255506352,0.3180002367,-0.2487067463,0.0010358913,-1.0653161168,-0.2247663586,-0.0223881322,0.2529960745,0.1097392657,0.6811767098,1.5192134104,0.0418959988,-0.7380412433,0.9067999798,-0.4202966634,1.1189762866,0.903607578,-2.2143727402,0.5672387649,-0.2912572272,0.09873847,0.94355192,0.4706776796,1.251039886,2.3497075321,-0.1766859698,-0.4453852168,0.5024638799,3.5566865921,-0.1358438758,1.3898515898,-0.5423079364,-0.5937873732,-0.4449377333,-0.074934274,0.9738409367,0.6504132208,2.4926501285,-0.8109014916,1.3787574539,1.0971232191,-0.4144183975,2.38460383,0.3501349503,0.8190775937,0.8305316112,-1.2250221499,-0.4351384636,-3.4054143844,0.9051953546,1.6421570027,0.1385500598,0.9937190731,-0.7052441549,1.8634834229,2.1425384875,-0.695534131,-1.6052595096,0.3990550724,-0.9103569499,0.7610843406,-1.4279530423,-3.1258482531,-0.5273049419,0.5408427716,-0.2514105178,5.2451243343,-0.6954150052,3.1952454494,-2.8878295037,1.5184687237,2.2477296726,3.9645581434,-1.0167154707,3.0137246339,5.0777631547,4.6245571987,0.969622461,0.4709051582,3.4765111523,1.9201282813,0.374368932,2.5484236204,0.1432842804,0.2178395859,1.8597770684,-1.7211756784,0.6777650458,3.1139180499,3.5859611628,-2.6216407748,-0.2144261997,0.6625787881,-0.6342370041,0.3160591507,-0.4767091199,0.6311031825,-2.0442011706,8.9737983436,2.8164921778,-2.2718562655,-2.2715359101,-0.4346980472,0.5593435609,0.1146625242,-0.031751934,-1.7742147527,-1.6963772967,-0.6452994886,0.2049835993,0.3517120027,-0.0912098844,-0.328124214,0.9095478779,1.1024330547,-1.1191032331,1.7579809431,-2.0406414095,1.8457505966,0.8929076517,-0.7831682238,1.1938074126,-1.4106601052,0.8829617169,-0.2546460921,0.8098388546,-1.7733405943,0.3539103676,1.6949774558,0.2062403345,0.759054873,0.3036163688,0.0754757382,-0.4177279505,5.3057997054,-0.5033353295,-1.0793426996,-1.4284702905,0.6841522431,2.03386714,4.0554416416,-3.0070704547,0.2631916456,0.1184739518,0.5535683337,-0.2836019626,0.2487999616,0.29856027,-0.9753425856,0.3824750836,1.3257777496,0.1369942492,0.3171008953,0.7690318172,0.1732839716,0.4684717746,-0.0461088945,0.1537146685,0.2815844396,0.6872222853,0.7016544351,1.0093118217,0.187473678,1.013059904,0.8498886386,1.0414646446,1.1235969059,0.4244597435,0.6176536014,0.6708284046,0.1839373578,-0.2857610484,0.2405301948,0.8360326496,1.225706786,0.2179301626,-0.1040547713,-0.2907656565,0.8132647561,-0.0121112776,-0.3369114224,1.1368739859,0.2078206132,0.0535837754,0.4028513826,7.4659431597,69.7524564393,1.3414044605,0.7274775137,0.6405442374,-0.0106588872,13.3442735076,0.1466474773,-0.0065879985,-1.7427809227,-0.5156783784,0.0196737437,-0.0678700069,-0.1223913598,-3.4150666297,-0.3500386664,-0.3381558252,-6.2731095374,-1.7920343295,2.1991780048,-0.573309773,-0.0170165787,1.3423098716,6.925967207,1.050061446,-6.8895442762,18.7249502176,1371.2618231342,10.942408091,0.3022135952,11.919072543,-3.3307011659,21.848845896,0.5584828667,15.552539324,46.016857928,-8.6829516472,3.5451754605,-1.2735420898,-2.6298054947,8.7223752538,-1.5353546192,19.661671137,-4.9235072583,-26.6046368894,2.0996815069,-0.8069171636,1.3699225636,-1.5378276402,-2.3162901168,2.4761141282,5.9563454108,-2.4134448215,191.0636392455,-4.3374317118,1.040645451,0.7085539203,2.4814181966,-5.9577298648,2.3954278181,17.7295583913,-5.0379824106,4.5155490991,1.4128588396,2.3654932622,-1.946549773,1.6241029529,-2.4956569222,-0.3805651933,1.8283189475,-8.3901736723,4.1737506908,0.9708158803,1.8681991196,5.1809579567,0.5958155462,1.6074493655,8.9434963503,-39.4577701092,-737.8637542209,1.6425249777,0.6037208609,0.5551141824,5.1156311874,-6.397311506,0.6770269497,3.0402354873,-0.055141327,1.4290312034,-0.6322549869,-0.0993700068,1.7411188706,5.5575235212,0.0028605429,-0.7593782517,-6.5729724063,-12.6497808186,2.7802685412,-0.525991303,-0.5332292065,-0.5160366699,-0.4077921646,1.2218013742,0.2116795649,-13.9408838399,-510.469863203,2.8392531861,1.1407802048,1.5939996825,-10.2281197214,0.4169583967,1.8368519227,0.2626555864,1.3724790872,0.2834395624,-0.699934668,0.3263847025,1.9004245075,0.3571564629,2.113370035,0.3576527854,-7.3886550326,3.8889487951,-1.969226949,0.8634388882,1.781784279,-6.1049795417,-0.1625712468,-0.7113789195,23.4225244481,-58.085067639,-502.5219427284,8.0236043495,-0.3483472301,13.4354226723,58.4852925539,-60.6275759788,1.618014885,13.2610700785,-36.300188717,8.6268906452,1.3023063939,3.8992142402,1.6364254036,-4.0904619644,-2.4651242933,-23.1189448082,12.6336637792,63.5670224049,16.5923710352,-0.867018566,1.4148620408,0.5498154267,0.1451781458,0.3783468877,-0.9382451153,4.9468843256,-84.7504738161,-1.7624435038,0.6396434287,-0.265949079,12.6884946185,-0.5250260752,0.2122102573,-6.1607900065,8.4673540996,0.9650387934,-0.8113697684,-1.54423586,1.6205289685,-1.7621328231,-0.0625009843,-0.4830463145,20.9479416097,-0.9162133983,4.6174288149,0.3613065508,-2.9829562752,-5.6943368321,0.1339535334,3.8352344519,-2.055116604,5.2888232709,64.1067954513,-2.6177028842,0.4112606973,5.7302158166,3.0710552214,35.0269868355,1.0915570331,2.4244132417,-21.634893191,-2.9292588398,0.5835455357,2.4925067779,-0.6591526694,-1.0382020886,0.6661484741,1.5332635779,-31.9627887027,8.541780997,-7.1373255405,-0.59688706,-1.4370729901,3.3858125978,-0.6733520241,-4.7111485897,0.6249563629,-5.1021258825,-52.7965068222,-1.4577476177,0.3241699646,-1.7619703408,8.853074377,-1.0270494206,0.1896811043,8.6838348162,-16.8574296893,0.7491435554,0.4238059028,-0.3056712403,1.2815440295,-1.7546233554,0.849780003,-0.3252618845,-4.3474225683,1.0999375368,1.3399697256,0.0899384281,6.8711043961,0.9271998977,0.4249898335,1.456251682,-1.3769755741,42.0209433359,-617.6741450103,-1.25186128,0.896991764,0.3338823555,-6.7308396313,1.8960732844,0.9523297765,-9.0506817737,21.482671327,3.7748884397,2.2150677136,1.3783735486,1.1454268949,-7.8059457556,-1.318586553,2.8731452844,-7.7927986732,-15.3155972426,2.1320639709,0.1540095627,-0.0504876283,5.0840599433,-0.2755337525,1.6324221471,1.1771412408,26.8854584639,-1235.1566774504,2.7647732372,0.0432990585,-2.7558838504,-29.319327053,1.6058533528,0.1797625693,1.7704442877,-11.9159995712,1.5724246839,1.0355263642,0.502606628,0.3964813418,3.1030460743,1.8201791364,-0.5842451221,0.9221235859,9.4511118855,-5.2938586663,0.6689954458,-1.0407319665,2.5636081602,-0.2370229342,2.0936251449,-0.047953109,9.3100523645,-172.2398439463,5.1939840216,-1.2700334721,0.3408258284,2.3886718999,-5.6165601992,0.2771351582,10.1401346438,7.343987368,-1.7052315193,0.2735882823,0.479728292,0.3675870539,2.0630247839,1.5413068885,-5.465010728,0.6641688947,-1.3776924264,-2.6762227724,-1.0756621582,0.5173943832,-1.4476775938,-0.3306807505,1.5758251904,-1.7196242365,-16.7302220399,-315.3746896678,0.2529581624,0.4270321577,0.0480693678,-9.4008863851,-15.1065273068,2.4140949729,-5.2418724996,-4.1160731037,0.854244752,-0.2255851834,-2.2359671369,-1.3211205364,-0.3179406342,0.2854233057,2.0577793822,-12.3281836132,16.3406353402,-1.1401878121,0.6404613912,0.1601740977,-3.4161200951,0.806161358,-0.5010747001,-2.3566298039,5.5913897663,-175.31483392,2.3047392214,0.7086963842,-0.3390390936,-4.9103876339,5.2357421113,0.2375563372,-0.7538151814,0.1872746701,-0.0885013962,0.2122516774,0.6494631108,0.3559114034,-3.2106794447,0.6560645931,0.1200844368,13.2197814789,-0.6219199388,2.0609190258,0.1193165364,-2.1600058793,0.3084462634,0.24080048,0.9203004055,6.5019352289,5.1759656376,-229.4304509754,2.836699009,-0.0485772455,-0.29186391,1.7919377735,-8.3772120981,0.7222298791,5.7920155446,-5.591691612,0.0049958956,0.8914889974,0.3861332347,0.1868567647,0.7125920267,-0.0031570975,-5.3743290536,1.5246122076,8.9393245569,-1.1236459201,-0.2571428289,-0.2785656687,0.5891039175,-0.1550044945,1.7385540237,-5.4059042861,2.1884679925,-453.9321963987,0.9961773178,-0.7791963108,0.6968726779,2.4301541639,-3.881352567,-0.5422001645,-12.402324032,11.8428036798,2.8943717346,0.042836092,-0.1108549379,-0.9229409155,0.1802095279,0.0628022557,-4.4638052219,2.6279352858,-4.9777994935,0.8756536805,-1.7125095652,-1.2754064529,3.5530902194,1.6853652383,-0.4423488145,-12.8195905104,-86.568202968,-657.6784945645,-2.7975362626,0.7857386433,6.3956820093,-26.116164354,62.2171742422,1.1182917648,14.6190957816,20.9974268663,-0.537540994,1.2116048811,-1.0290913495,2.4952739725,-9.125878924,2.381139584,16.3648848323,-9.7838803345,-28.7684179175,-9.1992466963,0.0583292253,-0.2660372217,3.6486004943,-0.2692265596,-0.1762526619,3.0223891726,10.6099696998,-394.7056302174,0.6870202799,0.4781881506,2.2925450685,3.8819178258,40.9213739932,0.5196541617,8.3408168933,-2.340416363,3.035288681,0.8972327268,2.0670910675,-1.4159942099,-0.0436106848,-0.8301745328,-4.798601555,32.9785792524,-19.0933352487,-2.7707653667,0.2725985675,1.2294215236,-0.7953829485,-0.2129737875,0.0887989416,3.1978713643,8.6525452139,509.0143966725,-6.9384515206,-0.4266155109,-0.0710655699,2.1173548387,-1.5343496406,0.1252319107,-5.9673739937,8.8669975584,-1.8481263697,3.2023701076,0.2642887396,-0.1174898864,-1.1486568153,-0.4144922077,0.1745984885,-10.6623527135,5.8253935062,-1.7146014388,-0.8346459987,0.3682324019,1.3805957292,1.0417206442,-0.5669945963,1.9375919437,-2.1529256334,-24.8031827065,0.741191318,0.6166321926,-0.0600139909,7.4571292516,-6.4932671966,0.286498711,-1.6533075768,0.4289209463,-2.7085078447,0.1761961841,0.4895286401,1.083066005,-0.5372881846,1.4759360449,-3.6728812525,2.2469691587,-2.0167223176,-1.5527915485,-0.3257250619,-1.3463683012,1.4687047889,0.4281893028,0.1862153771,0.4742271052,0.5102464141,-576.2081944801,0.1364179691,0.3516925561,0.9753502601,-2.2909212701,-0.9520849174,0.40317002,6.1315385074,-12.0367858008,0.029698251,-0.1666480871,-1.061317862,-0.7778436575,1.6000401074,-0.2701295246,-0.1576969096,0.6434095377,0.1183099052,0.5719127439,-0.5880922121,0.1179888728,-1.4658831663,-1.0592849179,2.8581622383,0.8587407027,-29.7218587139,-278.7684499887,-8.9450645165,1.050425038,-0.9913204557,25.6468224257,2.6834514836,1.7578372133,6.0845211399,24.3153938625,2.2146287901,-2.4427293027,0.0595374149,0.0155419782,-12.7043694375,-0.8053469676,-18.1275292799,9.1751422218,6.0022003309,9.1412073497,1.950289789,1.1030363747,-0.1534258182,0.939240098,0.2096158248,2.0299873345,1.3475079913,-281.0004038797,-1.743227952,0.0720179494,0.0901203863,-7.625665426,3.4250522371,0.4389619934,-6.3269945837,5.2472643365,-0.6542799195,-1.2673990166,0.3160808555,0.1702281513,0.3285787473,0.8055941958,-4.5022946803,12.3671286999,1.1356462671,1.1771772646,0.2856356658,0.9607637955,2.6546562187,-0.2585162973,0.3447553516,-1.19363725,2.582390446,-380.4992924849,-7.6325013943,0.2987354955,1.5857279907,0.4715424683,12.1909770164,1.4433428583,-17.6924512205,16.6203145063,-3.4036130903,-0.4972317676,-0.2841976114,0.8441425462,3.4718093852,1.6589162312,-0.1145715233,-20.0952910336,-14.804486307,5.8524953534,0.6955936398,0.2510269912,-0.7898042101,0.7738007301,28.9363955533,-4.5860585314,86.245352062,2504.11836991,7.4971053396,-1.1878080325,3.9347607537,-17.9594736802,1.0228306518,-1.4592827193,26.1829631627,64.9816459857,-6.9762410492,5.3737240942,2.7378315763,3.4696281608,-11.7142644498,7.0442020863,-1.5132513958,-15.5924965613,28.5390568269,-4.2007038273,-2.053333252,-4.9286610282,0.3874036619,0.5984712934,-1.0549317545,-0.8103810954,-5.4290471434,262.6485000356,1.994031643,0.3436220954,0.3267294603,2.7191882939,19.5817259655,0.506096346,1.4820780585,19.6073844942,-0.1846316627,-0.1492127709,-0.2376385894,0.4520876339,-7.4019651471,0.7597897956,0.8528350044,-15.3781572865,6.1334700445,8.0920946126,-0.5806439931,1.4399139885,3.6575361066,0.9006264524,-0.6091684792,0.4873711955,2.1914092148,437.1890392002,2.8164197482,0.0593918881,-8.9010626216,8.8997667378,-8.699203472,0.0787294691,0.1959723976,3.9756131329,0.8636282293,2.9709041138,0.6240393655,0.913573705,-0.0979611461,-0.5190373169,7.0497737654,-2.7875962747,-5.9985363124,-0.8426413769,0.4605073773,-0.3576678785,1.5999656884,1.4933797852,-1.7687205219,-1.531788856,-1.4376236357,771.3899344428,-7.15736993,0.472075455,-3.1083329107,-4.0884021618,6.9001027853,0.2739806806,0.1421897062,5.1334654634,1.701150759,0.5632783813,0.3880527503,0.419525295,-1.2454837558,0.3295566666,5.4263197349,3.8888073844,5.1164343918,-3.3354213925,0.3306092351,-0.2177310229,3.3545008076,20.766844922,4.2742974047,8.2049728592,-81.0752347873,1841.4787138452,1.8224980757,1.0954744916,2.3507555031,-40.58847059,-68.9462144394,1.5173064796,22.9276420829,-3.5416570994,-18.4005724493,1.8595489705,0.5090632832,-2.2911004998,-1.2786660936,1.9273555809,11.6019627574,7.3497531644,49.0234138225,29.2052348668,0.7872353237,-4.3891442838,2.1060692659,0.4334399672,1.8538015444,0.4696628712,1.4077688125,-73.7154283107,2.8075358367,-0.1170399413,2.9461500397,-3.9515159069,-7.5903382029,0.4164763399,-1.2879494878,6.8980033583,0.6917706456,0.3280408627,-0.6852928852,-1.120128128,1.1761148626,-1.2416219812,-2.2675861954,-10.0148367824,11.9034903656,2.260087388,-0.6410288469,0.1302603625,-1.0576443279,-0.1736948939,-0.1420831044,1.0601248773,-9.3756910393,489.8262196659,2.0294267086,-0.1061536139,-1.2215890879,3.5618882498,-1.4068024524,-1.5604080356,-4.4436096249,11.415718068,3.7178682992,1.3837922758,-1.268456353,-0.1716351668,1.8485577688,0.4331704961,6.382386405,-6.1402284178,-1.8725148048,-0.7489372123,-2.4117290307,0.6900181447,-2.2850834132,0.7578220478,0.2008850445,-0.5689912051,-13.5292608958,38.2003109133,2.4678276622,0.6581045939,-0.137166837,0.1700756707,6.7840622906,-0.0944887224,-2.1658650737,-1.0009825396,0.7379732391,0.3054302132,0.5586202201,0.1026990509,-0.4990659,-0.081506536,1.9471425004,5.2731664642,12.9910368352,1.7212388857,-0.8300494777,-0.1021569943,-0.1663824229,-0.7095190065,-1.2623568574,1.1137163653,-6.5541362081,-195.6740403265,-0.376088326,0.704515755,0.8879508189,-4.0886154201,0.5742654018,0.749556267,-0.1509592534,-0.1767973907,1.3217805063,-0.3847198403,-0.7434965249,-0.0979111171,0.32561538,0.0830300671,-1.7049172667,-2.6958210018,-1.3574094242,0.4234435813,0.3652096911,-1.6324353389,-0.2928023711,1.7847222083,0.0755109239,2.0526464765,23.576728414,245.2786542741,-0.6980968245,1.3861521345,5.1847600276,7.455892391,5.8767771682,2.8735651743,-0.0250757055,-2.3665612776,-2.3195659165,-1.1881650917,2.4258240906,0.1227279278,3.3229227774,-0.3909074119,7.082377132,39.7469603544,16.9876510334,3.7181286895,1.1914055297,2.433971756,1.3805515993,-0.3694429692,0.9047987755,0.4804335976,1.2575502341,60.4408432685,1.1056998725,-0.1591301551,0.6951833923,2.2209435808,5.9890227675,0.2838653831,4.0331889568,-2.0989634561,0.8082288486,0.2834691313,-0.3503854345,-0.629588748,-0.4023143976,-0.6042524586,-3.8954351178,12.9316981275,-8.0334232362,3.4252392378,0.1355526103,-0.1390807863,-2.1126606997,1.0722552372,-0.5521369244,2.8942737159,-11.7147998974,-51.0022624448,-0.7665551706,0.5766299252,0.5301119334,-6.5865052821,-1.4611812661,0.1274861651,0.2412571376,-2.6487439805,-0.473636409,0.7227258858,0.3959656917,0.8024028184,0.7481573777,-0.0154765954,2.8341075505,7.4925294393,-2.5010219498,4.1820060124,-0.3469058452,-0.8534732074,1.6189604672,1.4707652475,0.2714297249,0.5104538724,1.512619135,-1086.5079927922,2.2882783109,0.0674786732,-1.4555830301,-2.7617833496,0.4188728715,0.5005674795,7.6971053948,20.2238512099,2.9472448961,2.4200226087,1.3532076074,0.6828634544,-0.6158130401,0.4493222735,0.7741703849,34.1244718505,1.1580109486,4.237440298,-1.1477539339
biasActivation=0,1,1,1
[BASIC:ACTIVATION]
"org.encog.engine.network.activation.ActivationTANH"
"org.encog.engine.network.activation.ActivationTANH"
"org.encog.engine.network.activation.ActivationTANH"
"org.encog.engine.network.activation.ActivationLinear"
