encog,BasicNetwork,java,3.2.0,1,1430047112644
[BASIC]
[BASIC:PARAMS]
[BASIC:NETWORK]
beginTraining=0
connectionLimit=0
contextTargetOffset=0,0,0
contextTargetSize=0,0,0
endTraining=2
hasContext=f
inputCount=57
layerCounts=4,86,58
layerFeedCounts=4,85,57
layerContextCount=0,0,0
layerIndex=0,4,90
output=0,0,0,0,0,0,0,0,0,0,0,0,0,0,0,0,0,0,0,0,0,0,0,0,0,0,0,0,0,0,0,0,0,0,0,0,0,0,0,0,0,0,0,0,0,0,0,0,0,0,0,0,0,0,0,0,0,0,0,0,0,0,0,0,0,0,0,0,0,0,0,0,0,0,0,0,0,0,0,0,0,0,0,0,0,0,0,0,0,1,0,0,0,0,0,0,0,0,0,0,0,0,0,0,0,0,0,0,0,0,0,0,0,0,0,0,0,0,0,0,0,0,0,0,0,0,0,0,0,0,0,0,0,0,0,0,0,0,0,0,0,0,0,0,0,0,0,1
outputCount=4
weightIndex=0,344,5274
weights=##0
##double#5274
   0.5943141878,0.4296607674,0.3321941297,0.4281948383,0.6759954388,0.3670737674,-0.1591861232,0.1852218641,0.4267996364,0.3815701124,0.4279952013,0.6618438471,0.1707316274,0.1736129295,0.1775930448,0.3855538679,0.5497642828,0.1426321269,-0.024211879,0.211395446,-0.000199139,0.2734731435,0.1374225059,0.6067252729,-0.0953826739,0.4762786401,0.527978027,-0.0404645661,-0.2613156784,0.3263797803,0.5526658694,0.0366639225,-0.0634045894,-0.0724829346,0.7785388489,-0.254814009,0.6467093117,0.0786866908,0.2041458785,0.4779865072,-0.0148620475,0.0849399418,0.3749111219,-0.1323403085,0.0883738394,-0.3326013329,0.3490699522,0.7563965801,-1.6356600751,0.468613921,0.2787479908,0.029040325,0.5408425334,0.5803952361,0.0919090962,0.5181836996,0.5256517421,0.6035399179,0.1318275454,0.2919450345,0.5986901344,0.2279250786,0.0126087291,0.3253033054,0.2655410805,-0.3713257291,0.0039913743,0.2521720179,0.0223424246,0.5326470157,0.4853533855,0.2327060139,0.5071163522,0.4950136881,-1.3668964076,0.0269902497,0.2537600859,-1.4118849064,0.2441324584,0.4514207808,0.6772021185,0.7646170722,0.5924043782,-0.3441793696,0.7334036784,-0.5116916907,0.3677292779,0.4080874631,0.533785598,0.1777447674,-0.1615672198,0.3832711339,1.2158463211,-0.3106171113,0.5242190653,0.3244131589,0.3910783608,-0.2387175514,0.621788661,-0.2785086901,0.1261071998,0.1906324996,0.8697780445,0.2928667061,0.6745241143,0.150481736,-0.0187227147,0.0897929587,0.2608288903,0.3991267149,0.5580861645,-0.2625269007,-0.8926748444,0.3008234133,-1.0807947252,0.0769763775,-0.3045722406,-0.1683607107,0.2097123662,-0.32916807,-0.5128594044,-0.2981614419,0.1462278619,0.5603988113,0.8141613517,0.6265341746,0.0856601488,0.5370855074,0.0700777167,0.2478169675,-0.2731065612,0.9400222819,-0.0535793062,0.044775382,0.0207386778,0.314493295,0.7705008153,0.3427037096,0.0122453936,-0.014742668,0.1356337066,-0.5316743356,-0.7009430208,0.5762383406,0.8858740411,0.4874177927,-1.0958907002,0.431152664,0.5028565549,-0.3788060555,0.4972945394,0.1111947685,0.6690178048,0.6323149533,0.0795777745,0.3608684541,0.3611487969,0.7560903157,-0.3568455004,0.5659691279,0.0880440293,0.677212654,0.1201431643,0.1263284888,-0.7914494767,0.3052320834,-0.1848538618,-0.2037695171,0.3688232678,-0.0477739033,0.2546019727,-0.0154555757,-0.2301192778,0.2073240962,0.2176653714,0.2330347319,-0.4272690228,-0.3308646126,0.5996326594,0.3563003224,-0.2094713383,1.047167417,-0.0390048981,-0.206080616,0.8167582646,0.4811751395,-1.4388684887,-0.8783853271,0.3361422047,0.5925276264,-1.2974412804,-0.3393283541,0.0590391113,0.828727809,-0.0359831974,0.6786225617,0.3542540852,-0.0886004774,0.4774285109,-0.0408357817,-0.5205945357,0.6279421149,-0.0804061103,0.2203228986,0.6455673399,0.3164178685,-0.0840895478,0.1662574669,-0.1496519999,-0.0876848173,0.9300295852,0.3485753157,0.5822129308,-0.1176511476,-0.5121098348,0.1435409314,0.0886566385,0.025032992,0.2119107069,-0.0057588354,0.022055026,0.0282586486,-1.1943406632,0.2384216416,0.4636931823,-0.349623697,0.5488912001,1.3561493885,-0.1747982851,0.2498149068,0.1276665555,0.0175201958,0.157270495,-0.2719101192,0.1072911358,0.001911166,0.5059164543,0.267744241,-0.2388318903,0.666588851,0.7638493766,0.3838267421,0.4282436413,0.4102012872,-0.099967161,-0.1841458704,0.1806976193,-0.0675239269,-0.3252507202,0.2785354851,0.2374108588,0.5223362026,0.4645161232,-0.0605447933,-0.1498403901,0.1885639618,0.0429723534,-0.3964400535,-0.5551173604,-0.1547774486,0.4766145083,0.4101665264,-0.5509560503,-0.0166779407,0.1362240123,0.3750192901,-0.0289351397,0.6968587115,-0.0793363525,-0.1776599171,-0.959347967,0.679672893,-0.2544188425,0.3641758794,0.6985283914,0.4659409894,-0.0838293844,0.2474741675,1.0274731872,0.9232454595,0.7215340345,0.3741306941,0.160801293,-0.3262752306,0.7605659481,0.4236872853,-0.2909800429,0.3765736191,0.1755074728,-0.4153056634,0.39953433,0.7417751587,0.1798586724,-0.4183782825,-0.4445948924,0.0704944661,-0.3359101834,0.1193144604,0.5473466345,-0.3184137592,-0.6750695043,-0.7246822502,0.7691779846,-0.3495609856,-0.75450406,-0.711112118,-0.2071873498,0.435814917,0.0723539557,-1.147265409,0.9880896027,-0.041405326,0.2538239765,0.5524937929,0.3302546863,-0.1206104053,0.004817102,-0.0325903459,0.3287220079,-0.3489217835,1.0290289478,0.70370135,0.589728457,0.420574929,-0.3777624615,0.3709949863,0.1603456484,0.188145456,1.2325885312,0.7247442173,-0.5369176914,0.7517567994,0.0629356422,-0.2973494592,0.0582631686,0.1291480099,0.2728579315,0.1860494569,-0.1424473446,0.4144520331,-0.5586090535,0.6174386841,0.3964190211,0.1067654022,0.732783211,0.535558689,0.309250112,-5.1310976899,1.0193497714,-0.7802245223,-0.8142869729,-0.4517865599,-0.3916127374,0.2362151678,-0.5202701775,-0.5220083678,-0.3456806971,-0.1844738639,0.0081979961,0.1609759757,-0.2407631716,0.2528326984,0.0961767432,0.0883077689,-1.6889213723,9.5218791433,5.9526835486,-1.253788376,0.220582174,-0.2331503532,-3.2785976105,-1.0067746992,-2.8548043062,0.0020799122,1.4887846942,0.9433590023,1.6101658913,-1.4984867059,0.8822479998,1.1825121707,4.0811900985,-1.3729074813,-3.3588035073,1.5489617683,-0.0650904363,2.9206866313,0.0038167236,0.7106849873,0.4648327577,-1.5848920177,-0.0904266679,-0.0860812683,0.1753291517,-0.6219369237,-0.7448677432,0.3298795321,1.1203728865,-0.6226289179,6.3185021654,5.2730527286,-0.7221008047,-0.2890605402,0.6585576049,-4.1341024781,0.4298581827,-1.5259492914,0.8397368176,-4.0638872405,17.4800747512,0.4832671232,-11.6309203993,-1.9674484215,0.1069582797,0.086088714,-0.7492337978,1.9431298258,-1.5022434668,0.8867946667,0.1188917915,-0.1871872782,0.1534996241,-1.5759470365,8.3591811158,-1.4097684248,4.3794597898,-0.0607866238,-0.9749394077,1.4737760333,1.2201052143,0.7905360187,-1.4674491969,2.4353566164,0.3302162676,15.5075455315,2.5252471111,0.1740665738,0.3123920451,-5.4072283083,-0.6057366717,0.5153091539,0.4357865618,0.4461711632,0.5929366406,1.6020389718,0.2971516498,0.51730143,0.3552114508,-2.5614169254,-0.5964219953,-0.7434906494,-7.230793897,0.3912942372,1.1610378056,0.1407472275,0.7644543209,-16.4708601778,14.376695009,6.8714906582,-9.5365909626,2.3000569367,0.8244708442,-0.3917759964,0.0840765411,-0.5814008537,0.0564748741,0.0329195911,3.1416622958,0.2878300262,0.8607582394,-8.9589313063,-0.6981360083,-0.4180368043,0.1830372542,-0.5902570465,-0.4575963062,0.415051684,0.1414567462,-2.9628963822,-15.2661249428,-0.8598440011,0.7173529846,-5.1451736252,0.3371424244,-0.1063653446,-0.1433489491,0.253108515,-0.3557929378,0.1614361492,0.0693516955,0.1407585218,0.0713240661,1.4877718316,0.9383194681,0.4755072666,0.6561420144,0.659941381,0.2729032947,0.2182145116,0.1396836111,0.8197319177,0.7709865194,0.6285284772,0.5787269858,0.205156098,0.3812165538,0.1245381802,-4.4132404763,-7.9137947351,-3.1686426857,-0.4161719405,0.6763509878,0.584585951,0.7926324688,0.3135734276,2.1024108254,0.2160843601,-1.9477701601,-0.0169082046,3.5031711423,-0.0407686321,-2.4779550377,0.3845099676,14.9365983416,-1.3166718226,0.7445486791,0.3012337021,-0.1159877019,0.6526493251,-0.5780374817,-0.1161257948,0.8504433216,-1.6881308273,-4.0581609647,-0.6192178955,1.4875983512,-5.0913240675,-14.4867479904,-0.4622877408,5.9185867561,7.43376378,-0.662508439,-1.7720385213,0.2318210048,0.3869288092,0.3313588006,1.5823653539,-4.1472404763,-0.8014256933,1.5303554764,3.0134176444,-0.1936304822,1.3465519743,2.7115226324,1.17370183,0.9802350951,-0.6824791098,0.5949485721,0.792054803,0.6087395516,0.2502105164,0.1842201949,0.4503476676,1.556363898,0.830541907,-12.3191987462,-5.1614541344,-32.3977311803,-0.0068222211,-1.4551583102,0.2088104478,1.3872078877,-1.2270712417,1.3208836648,-0.790150611,0.2373871106,-0.1389211799,-1.1186014903,1.7102951749,-0.6951661398,1.1947552432,3.6681068149,0.0732974175,-0.3682603052,-0.1746551921,1.4261347133,0.120069283,0.2667285765,0.0854615787,1.8190665096,0.465837646,0.3285206712,3.7017622172,-0.8456453032,0.339903915,0.5430402764,1.4160913511,-2.0279522319,-1.4032388977,1.9658828435,2.390291905,0.9046943196,1.0692064318,0.5859779775,0.2167870544,1.5677879008,0.6560307301,0.8157631291,2.3110448091,1.9045940529,-0.2425931288,-0.5876606861,-0.7686577014,3.3413701189,0.8816904954,1.9576378188,1.1091664801,0.6866910297,0.8117512208,1.9739985067,0.2753519313,3.5100824675,-1.4449816214,0.0519431029,0.2877993244,0.2475405679,0.6160150362,1.4903865753,0.4027482486,0.6316634813,0.1631064548,7.3423416578,-0.3460039482,2.0860504955,0.5821406222,6.2827361451,8.2786798484,-2.1547531444,-7.853789004,-23.3491841384,-1.3682287677,25.7947369419,0.4047050426,-14.9717315998,-0.7116852901,-0.8363127508,-0.366558716,-1.0278484114,-12.5109822815,-3.5236435335,-1.9092565462,0.5122279834,-3.9505543456,-5.5252089766,-3.2962051612,-0.6521353754,3.9318032209,6.9648832054,1.0948084951,-0.0804932718,0.4262581395,-2.452242899,-0.6079581109,-0.8333710914,0.528234375,-1.3901522702,0.3917362375,-1.663129063,-3.2600530339,-0.006197946,5.5175889008,-0.28506231,0.5438424464,0.4586001672,-0.8053618217,3.2587731749,0.8451573486,0.5403951112,4.6810155906,0.4590549552,0.3441876709,-0.9712522252,-3.4700931821,-6.7701065797,-4.0975362832,0.2050137013,-0.4099280397,1.3205372799,-2.1519882244,-2.5799466405,-0.4864333604,-14.3952435167,0.6276684998,-1.3690213465,2.8694567482,-0.5377215345,2.5238533875,-2.0017341735,0.6968574348,0.3088482696,-0.3918794164,0.1447509315,1.0677999779,1.7439829389,1.0763349415,1.2379739446,0.2360320508,1.0360681287,0.2076909082,3.7299838519,0.189420445,0.4461381546,0.8183935617,-1.3129445384,-36.4512881693,5.4582486853,0.2086898049,0.9907109873,9.574547854,3.7418172765,0.7951999457,-2.5616401792,3.4864817125,-2.4091424893,1.4739698055,1.5804018425,-1.1101849188,-0.5533795528,0.4306736473,1.3773098288,-0.7933623539,-0.2470999767,-0.2008315762,0.5333695997,1.9421102449,-0.09423226,-0.4382766761,0.4503514733,-1.2307208513,0.3410318562,1.0528762049,0.2068550048,0.3345764555,-0.1226564885,-0.3737799722,-0.5883343339,1.7459424133,-2.5173004795,0.3905086987,0.238714922,-1.5019230467,0.1764217941,-2.5652822915,5.1607559526,-1.1501945639,7.8096913453,-1.9114671269,5.7532203837,5.2295571242,-0.2695060271,-1.3188605707,-0.684341971,0.3823060464,-26.5047216662,0.2565699245,-0.6917251619,0.2669080317,0.1008534166,-3.6641782966,-1.5754077894,0.3317030736,18.6581643082,3.1061043441,1.0858361852,-5.1090483987,0.135886452,0.8978667459,9.5660659616,0.7439485757,0.964531659,1.6692012373,-2.4649817124,-2.1923228967,2.4168538588,0.6652113242,-0.0782298838,0.8850736936,-0.0585569781,0.7237429232,0.803515942,0.0652837597,0.31718357,0.1026749088,0.848443314,-4.4179257635,-0.0016740172,3.5492888154,-1.4314297963,0.036011518,-0.7347644131,0.4284129492,0.702478676,-1.3244242468,0.2986293118,0.9631134852,1.8395016375,-2.8712725831,1.5733242936,0.2310040119,-2.2480811265,1.1431664774,0.936816715,-2.7462175686,6.0120823597,-1.3585754102,0.5644820123,0.2223589756,1.3533551794,-2.3967836862,3.4285047513,-1.3325803146,-8.6039965329,-7.4804745774,1.6350629027,0.3925641115,-9.0116418833,-7.2989412713,-23.6737782059,-2.9137877087,2.2944518808,3.4868567125,-0.3866978553,0.3233700985,-0.2139841134,-2.0171003909,-0.2072712896,3.4737852753,0.6321916378,-0.2119045605,0.3719730633,13.0984227071,2.398857936,0.2654086183,-0.2150851206,-2.3590849032,1.2763492991,0.6005275521,0.3326330697,0.7444065776,0.4405825251,-3.3992139662,-0.1618713321,0.7814084571,-0.9090790009,-2.1426886739,-0.9310819531,-1.785237649,-1.5953374836,-2.5831663252,1.3198399065,-1.2435825127,0.3969826242,8.9306533216,-1.8037911836,-1.2480561838,0.1606951861,0.6908027376,1.903983824,-0.0999874822,-0.5664910732,4.3975986265,1.4511780466,-0.9180361788,0.6650406691,1.0319439836,0.540776937,-1.142911222,-1.2369969445,-1.3510414428,-1.0214253638,-1.3121619503,-2.3975630692,0.039512538,0.8617810158,-4.1011159621,-4.0976067438,-0.1240410048,4.9779401353,0.2796057649,-6.0715180614,0.3069923703,-5.5893082631,-0.7679588926,0.1891501719,-3.5889840731,-2.2616209658,-3.1190568914,2.1415999434,0.5051243836,-0.5348226927,0.0155214797,0.5170044299,1.0452085158,-0.5017114345,0.7496394164,0.2661240186,0.9463109053,0.5898678487,0.399178233,0.322747059,-0.0142849371,0.2535223184,0.1201662951,-13.4530969673,-4.8585639247,-12.7185946552,-0.0217427188,0.3552724337,0.0109684236,1.2916494342,-2.5174249093,1.1238457817,0.6118671317,-0.2210713227,-0.1557312886,0.3767734907,0.1136316928,-0.3472991277,0.2456924467,5.5951358,-14.2718083973,-0.131484237,0.5161920271,3.301086303,-0.0100016424,-4.8807813471,-2.2711965625,-8.9659949217,-0.0394472918,-0.3279506048,0.7376384048,0.1472016722,-2.0005815382,-1.553593079,9.2686354017,1.5185145831,8.4634742681,-1.1640878899,1.4276880885,-1.0235942806,-0.365531393,0.0518156698,-0.1819064739,0.5741211829,0.6617357839,0.3141842601,-7.0860710018,0.7920593889,0.3055787535,-0.2656282269,0.3457650868,-1.385427309,0.4247825443,0.1419139012,1.1248001554,-1.4074110574,0.3535071787,-0.1446552936,0.4122553621,-6.5344586919,-1.0797579273,-3.1966377331,-0.2459265423,0.2164787183,0.3343865636,-1.4589077382,2.2404636717,-3.278711536,-0.3404477604,0.6180113511,2.2319280875,-0.2864790953,-0.1858191822,2.7998314534,-15.7205937936,1.0700403605,0.7073457498,5.4691932144,-1.0604722996,-1.6053410474,2.1505385662,-13.2052077343,-0.1027111328,-1.5940586334,-1.1120201082,-0.3524074601,1.3689058671,0.5052411625,-0.3078275071,-0.7084406777,0.3636508242,-0.1817847028,0.7749945068,-4.4222050792,20.4449257613,1.159202724,-1.1501809187,1.7615520422,-0.6487605985,-0.0910922926,-1.4060037244,2.611015715,-0.2406159782,-2.7055649354,1.3436840411,-3.1975804048,0.4232781244,1.9021121844,0.8769824126,2.9897195306,-0.2204618237,0.4199466913,0.0740504927,0.4861816703,0.4197684327,1.684039023,-3.1436205953,1.5726748926,-1.135969324,0.5421025073,0.2596230066,1.3445998518,-0.41337527,-1.0853933147,-2.0137071036,1.149862065,2.8046115841,1.5871500405,-4.3523205283,2.2525390524,0.0211049103,0.6128452632,0.3716930227,0.1071680248,1.5626238688,0.4430489714,0.1500327302,0.9298064891,0.2715902253,0.5177694637,0.8964264943,0.3649139709,0.5631577246,-0.1080204852,0.5271335276,0.1156176959,1.0912106582,0.2535300975,-0.3406819705,0.7674508313,-3.2309001176,1.8306261537,-1.5910049824,0.9568308284,-0.9857311871,0.8563825903,0.6479175635,1.0121076674,0.2789881949,0.1149726616,0.7730257767,-0.7485160006,-0.2365292685,2.4672237211,0.4125340525,-0.2569881925,-1.1283991225,0.6594463838,0.530462901,-0.4301188629,0.3598221356,-0.3515308072,0.8144383971,-0.10107442,0.7995526188,-0.0789263717,-0.9164472484,0.3384719636,0.5727876183,0.1827251141,-0.6875440543,0.6988912791,0.3975818263,-0.3793278199,0.6023588994,-1.654603542,-1.2925226515,1.634038611,0.3321475911,-0.6238258395,-0.4039041546,0.6498144126,0.5937010269,5.0569218482,0.4119501521,0.3431106456,-0.5340153526,-0.6098210089,3.0273828141,1.7997046108,0.1511166749,18.2982560111,1.3942057742,1.1138427734,-0.1076403958,-0.4702178965,1.1537914305,1.0263954497,0.7384171628,-3.4830342377,-6.6020442312,-0.0478327102,2.3814053618,0.8660484283,0.6969902675,1.6074333814,1.1215063123,0.3566458986,1.6264108039,0.7030257252,-0.0236097181,1.467049168,-0.0548014432,0.164126096,0.319448497,0.8382954971,-0.9320779505,-0.115834348,-0.1483110846,0.3060847237,-0.1507156909,-0.1610059375,0.4462178836,0.0412772773,2.4216006811,1.9647441257,2.7768947125,9.7802666117,0.1068853327,0.4367914241,0.2064027593,-0.1958095599,1.1392804296,0.0446898377,-0.4897606141,0.3298735449,-0.0876092008,-0.0114859792,-1.9434392321,1.5269683221,12.0214344525,0.8891862045,0.7953340581,0.4525574263,0.5305607015,1.940081247,0.3930570425,0.3601077031,-0.0982028223,0.6171019624,5.3512107579,2.9816240145,0.7514464994,0.190435367,1.1092809927,2.4271503822,0.4085874625,4.8203324268,-4.167412453,1.395289818,-5.1972864199,1.5903464834,2.7136523989,-0.2309158211,1.0044751622,0.792196695,0.220908116,-1.1199337257,0.7095297449,0.8572174013,0.6221712987,0.5149770775,0.1845426951,0.2523640303,0.8565798496,-0.0228297462,-0.5951111963,-0.0561593835,0.2114209169,0.635890367,-0.5454222775,-2.2959108199,-0.0336355459,3.3317525581,-2.6785693249,0.5584291354,0.1507990642,0.4052811846,0.2815191514,0.6421951793,-6.0577205087,1.7395098297,-0.0178258488,-2.6852670889,0.002502594,-1.1330179732,-2.4681251841,1.0563989912,7.3989254586,3.0958035025,0.8975522532,-3.9725693085,-0.6793747873,0.3103936959,1.0088783611,1.4603903504,0.6286065317,0.3455592123,1.0027628872,-0.0158482384,-0.1441442981,0.75653022,0.2258606177,0.5021274884,-0.2323971232,-7.1558310544,0.3746168096,7.8533492921,0.4571897706,0.5049033367,0.8368148529,0.7579708338,0.3087247266,-0.2398072775,0.8059585274,-0.7005725524,0.5039761091,0.7029379383,-0.295211155,0.2409978636,-0.5953028787,-0.3363154455,0.3171389679,0.5890405544,-0.0072471102,0.425817447,-0.3313665835,0.7276847061,0.0821231562,1.411111527,0.4005766505,0.4101138685,1.0239886641,-0.2299777587,0.3588427413,-0.0445640059,-0.0127250471,0.2446025058,-7.7216635824,0.262106208,-0.6192906807,-1.822838525,0.0716641019,0.9817636814,-0.9582473578,0.640906149,-1.2352482939,-0.8825749671,-0.1631001059,12.3580876238,0.3659801694,-2.0465845022,-4.4727924188,-4.5159130923,-1.4477092894,-0.6734461816,-6.0514694286,-0.2514700018,0.9374275431,0.5612061772,-7.5247638189,-5.9735157583,0.4357470195,0.3206381195,0.1363143462,0.3926006634,0.355315716,-0.8430643216,-0.0731056127,0.301410571,-0.0846388789,-0.1737880086,-0.2253879144,-11.2516874209,0.1943871494,0.1769991944,-9.6680880397,1.0705067335,0.8978608498,0.8022324251,0.2690959658,0.7264251304,0.4450229303,0.1486790835,0.830543207,0.0038413468,0.1489603268,-0.0992632188,0.7374618865,-3.2030233523,-7.2963395672,-0.9291166225,0.7629333316,0.5629297513,-0.3548335142,0.4963277,0.0987092609,0.96989296,-0.6088135268,0.3715343016,-0.0894242881,-0.1648550625,-1.662026093,-1.233604314,3.6719737089,-0.8139185921,0.6325210181,-0.1396417243,0.4297561762,-0.1463651601,0.6209701615,0.7637648529,0.6288000418,0.1848292464,0.3741050732,1.2307062507,0.0513651086,-0.4421400473,15.776580338,5.7702287128,0.7357879901,-11.3443206941,0.2445124268,3.4086325899,-1.3173341972,0.5628572334,0.1713871435,-0.5710274766,0.3717436406,0.3191092722,0.5580375886,0.3684759701,-0.9755301044,0.2272216223,0.0292523266,-0.3435914635,-0.1772108596,-1.3821591713,0.8035943676,0.2341010842,-0.8155937992,-0.0493107323,0.5454498718,-0.1719723323,-0.6168150911,-1.211370016,0.2100996572,14.9568900957,0.4408282415,6.3781915198,0.6570714551,0.1135568706,0.2937111038,0.4715256468,6.5517256283,0.6201063598,-1.8418081114,2.3789445184,0.3629037727,2.0077455755,0.736966501,0.3025464024,1.6161615732,-1.6063797386,0.4834996499,0.1409712065,0.49537175,0.6406227472,0.19380175,0.9361356449,1.4100599754,0.6453079165,0.4681549829,-0.6170123358,-0.945825831,-1.4995135735,2.6910582487,4.3863022339,-0.0861868324,-0.8331710676,-0.2900096514,0.6264374304,-1.5097947097,1.0445443555,0.7216216879,0.3896918119,0.3440139333,0.1688372459,0.0611888411,-0.047105159,1.7295680667,0.9408204128,0.5444888597,0.1876840727,-1.7806904007,0.5457767694,0.4302688136,0.7194509007,0.3229621682,-0.2344142661,-0.0822108878,-0.0954916724,-0.0950075711,-0.1402298192,0.7841586987,13.986546578,1.4504721699,1.0111689323,0.0977664917,0.1676084767,0.0561063622,0.8278324197,5.1585818833,1.7185191917,-0.4696980206,-3.411438999,-0.5276267291,-0.2993960534,3.0898390573,-0.4388806698,5.3750352731,6.6501865845,0.7302136691,2.0447524875,0.1125170053,2.7316839979,0.6772276868,0.7379706387,0.7158821665,2.8676929077,0.5327474181,0.8454762756,3.4217203874,0.1864714237,-0.1375022727,0.5371944699,2.9300273252,-7.9702134743,-4.6963618597,-2.4120167284,5.5471552237,-0.7263387483,2.1850652518,0.326627409,0.6231689273,0.6274031336,0.9155359957,0.2425045363,3.0231686124,6.4926903461,0.6890281525,0.1566013748,0.3461438757,-0.5100303457,1.132823898,0.2976691968,1.6456447259,0.2224600386,-0.6861072544,0.8246306163,0.5785785543,0.1926454643,-0.7134268756,0.7604851082,0.868147922,0.3324982793,1.2286381508,0.2857341061,-0.2554734989,0.3635337044,2.5099889531,2.3401040379,0.4088208241,1.1088130978,-0.0535232344,-0.6077980457,-3.4383273815,0.2167464809,5.3554848006,-0.8057562452,0.9078062593,1.280500977,-1.23068293,0.4707464611,0.7189783645,0.4072644131,0.0757965734,0.8006604825,1.0127841529,1.2546951717,7.3345980294,6.769318652,1.0395777162,-6.8363607018,0.4746212538,-2.6967932518,-1.6883372989,-5.5481175415,2.6357437737,0.8416828588,1.8197643143,0.4666123169,0.4188787103,0.9436070768,-4.7381519848,-1.575476295,1.9522551185,0.803125466,0.0666323577,-0.461376857,0.2755436498,-0.5796738214,-2.4482565304,-1.9218047075,-1.3944606163,-0.4693009419,-0.4909037888,0.6043139738,-2.1951212739,0.0122763776,-1.0796145266,1.5348086157,2.6537774814,0.4172620353,0.7963520629,2.1769654003,-0.9429877534,1.3259228949,-2.6583238947,-1.4124131068,0.129070169,1.5073358066,-0.3684486925,0.710799934,0.0154772172,-0.9678142415,6.0528689748,0.1890996695,0.9106380423,0.5925480242,0.1626544384,0.6184570003,0.3128593258,0.0736837218,0.0585394769,0.482689761,0.8455616,0.7175863652,-1.3226829416,1.1976464497,1.8607772345,-1.4515411261,4.0114443667,-0.8692147949,0.1855001746,5.0690783621,-2.4654798606,0.8991219589,0.4014771416,0.4542074075,0.0791908979,0.1348420066,0.2443458298,-0.0783101989,2.0074235483,-1.6329074944,0.6065655228,-0.1171281675,-0.6536634155,-0.1781344557,0.468907163,0.2102899993,0.1612658707,-0.2374199013,0.3397705019,0.1185829423,0.1356857078,0.0812879136,1.5478152481,1.640269823,1.0032376221,1.0390929376,-0.3868140287,0.101881048,0.0201309273,0.192600066,1.0599402658,-0.2064823609,0.6397608723,3.1037321221,-0.6145379272,0.7741861406,-0.3012724988,7.8497065726,-2.4558402244,0.3381667027,-0.1370943048,1.897842943,0.5743472457,2.7852042954,-16.5087624488,-22.0166046101,-12.2956394025,-1.7046339328,0.3073018467,0.5285605314,-10.8174063992,-0.3258070883,-33.2172475664,-94.8866334634,0.755721753,-10.4933253422,2.970492174,3.5537635236,-2.3379715493,-11.4378056606,0.20999922,-1.9905410202,-0.745224651,-0.6222089929,-1.3535936361,0.2472093312,0.4385076711,0.1400180539,0.238856685,1.037967746,-4.9399768015,0.2732209445,0.8326863091,0.7101537588,7.8688971792,2.3310714187,3.5784723413,0.6019657642,-6.6572014611,0.4360276513,-0.5321663221,-10.9093932644,-38.3089015458,-1.2605354319,0.5442312113,1.5182456595,0.1833930042,0.6122421305,0.4695689114,0.8924235674,0.4385597227,0.024926115,0.4577596958,0.6759753858,-0.4862098935,-0.4496272823,3.5131296261,2.0646935446,0.7819369234,-0.6331891419,-0.2645321675,0.2383621171,0.1416124951,0.105280191,0.169205647,0.2096459079,0.9806001694,2.8919051647,0.1791391679,0.8332774371,3.2730488907,1.0591659603,0.3866396384,-1.5019449445,-9.0220355038,3.2938592717,-2.8290105144,1.3633070183,0.9633154856,0.537231855,0.4243886143,0.7986783632,0.9415922913,0.2505162664,-0.413084142,-1.0200806339,0.4732737028,0.3347704098,-0.3288741512,-0.0906894522,0.1542347751,0.2284110965,-0.2476578351,0.0520421735,-1.3908225519,0.7292044106,-0.0233633637,-1.2378431551,-0.1186349006,0.101228146,1.1044726282,0.8399447468,-0.0802098421,0.153697585,0.7208137611,0.6813565295,-2.2607965499,-0.5673197974,0.5163484215,0.1434757543,-0.0619912004,1.1531842259,3.1375881065,-2.1767211807,2.1028685825,4.0240755334,0.4189341606,-1.6381283343,2.0452271495,-0.5202624152,0.8523249024,0.5875166482,0.2847640369,-1.0111534749,-5.5982910658,6.3261211566,1.1730143611,2.4624385606,1.2022454429,-0.6780706589,3.5050255588,-7.3783798771,-8.0690902217,-0.0799566276,2.6795714911,1.5301790277,2.2752500359,0.2319514471,0.2133037408,-0.5160735234,0.6596275075,1.9806229733,0.9134567158,5.0471028701,0.1477264579,0.3253544059,0.0374429282,-0.5233224062,-1.3214413932,-1.8072675087,-0.3937947385,0.014134354,-0.4935088393,-2.2540348459,-0.6842216191,-0.3143904995,-0.3633042487,0.9529870052,1.2840801783,3.3221222195,0.7107763823,0.4851379251,-0.0574872265,0.1746206674,18.4233377312,0.7583402218,0.5944767326,0.2213274471,-0.3297521101,-0.2972138084,-2.9036114953,-2.4867414274,-0.8565627522,4.3834709971,0.6245840938,-2.0023113329,0.7396366824,-2.4254165007,0.4508245821,-0.0725538165,0.4892813689,0.9421776247,0.6725545093,0.549761542,0.7303110954,-14.9574241552,-0.2310821565,0.6007210542,-0.6711084673,-4.8826175108,-8.3726120452,-7.1869370527,-6.8561440178,-0.1031343697,-0.8433640938,0.8644462688,1.7959574623,3.3843405857,2.5859717053,2.2400161498,-1.5174331816,-13.8282938586,0.7722704978,0.2344704247,-2.6682432964,2.7388424519,0.6435966874,2.7116303896,-3.220709171,1.0511252493,-4.4301018813,2.7438465948,-4.1254264777,0.2508898154,-0.1002556061,-0.1554886075,0.3222392116,0.5208252845,5.607314463,-0.6485219545,2.1575225765,0.0830596054,2.4415247589,-1.0288326192,-22.4936197045,-3.8356979975,0.8515328413,0.82337973,0.069712186,1.3766760963,4.9598473779,-2.7960827463,0.6113298571,-1.3260985356,0.2021127392,0.1065020569,0.2804775444,0.5263849925,0.344229818,0.5847290855,0.7530268001,0.7701898945,0.5002147025,-1.0349218529,0.9564547435,2.9334826354,0.7807939933,-2.9974845861,-1.2911634109,3.2352604248,-0.1434960446,0.3463031391,-0.0145982963,0.6217039433,0.4620384588,0.1155891716,0.1789350961,0.8270370557,-0.3048973591,0.8760313644,0.2765486188,0.2712330736,-2.2527262834,-0.3317558783,0.254303745,0.942871344,0.3272834695,0.1509870149,-1.5002086314,1.8546695137,-0.440223935,-0.5470233816,-0.2677770617,1.4804856074,0.6425868914,2.4427067727,0.0705601454,0.2081492394,0.8224605059,-0.0639952422,1.4569944914,-0.2837286728,-0.0640550501,2.735552828,-0.1090033709,1.4159200184,-5.8717565737,1.1131571656,-0.7677798506,-13.7711027363,0.2166863902,-0.5539434215,10.4497498461,2.7847457368,0.4637282378,0.5363509715,1.6073788061,0.4530976155,0.0498887154,0.58205058,-0.5109742331,-5.5874647199,0.5857592469,0.4358548479,-8.2128377563,11.4294021343,12.1339470369,-7.5486666522,16.6347170926,0.518621038,5.4932021287,0.604026106,0.4488600937,6.0438749573,1.3206916467,-0.6489040672,-11.2685133175,6.2179171675,6.2846529305,4.4623885536,2.0030078434,-1.717671105,2.8825958246,3.114245156,0.4811414021,-0.5962696839,1.8100198501,1.9305238493,1.1603910953,1.1296629507,2.0812140888,3.5159383102,0.1523907058,0.583099606,-1.3307583841,-0.2344129707,-0.19793808,0.6991752367,0.9607828747,3.4931790899,0.9875951668,-3.5852355933,0.714795237,0.7944988286,2.8368121866,0.1846175308,0.2280949375,2.0442567253,0.5140349881,0.9953355506,-0.0372336322,0.0439224943,0.4525961939,0.6534530461,0.2187501205,0.4740049748,0.0072893458,0.7875365364,-0.6966867172,0.1255617107,0.2063780542,-0.2200239774,1.1365487039,2.6722661936,2.9133974423,2.6556245792,-0.5380311111,0.3602898322,0.4737996428,1.1841696397,0.9983673574,0.3861509623,0.3673264933,0.8511689745,0.8923210438,0.3120217357,0.3162059848,0.0365839226,0.6177899551,1.0901558063,-0.5469624812,0.2177661544,0.3469314409,0.0741754835,-0.8651027617,0.3058638405,1.1071347287,1.3496442919,-1.5144913349,0.3045595787,0.0618257821,0.6545092555,-3.3876420735,-0.2589522025,0.3979179003,-0.6650731431,1.3581889396,-0.2695556592,0.0163508099,0.2824289291,-0.136826263,2.5066082475,0.0266409901,1.8433352416,4.168615046,0.4898139346,1.5281581807,-0.2281322609,-0.6283543409,-0.3699271378,0.7040389329,1.3171332443,3.7106339078,0.6529459107,3.381418988,-0.1438520257,0.3288527922,-0.499918711,1.4145688271,7.4971351291,-0.736874623,-8.1891559186,0.8026373126
   -3.1373332401,-2.6320405846,4.5704022624,1.006048385,0.4440771443,0.4863096884,0.5999312831,0.595229065,1.742856688,0.0475801352,4.944891174,0.23189667,-1.3512837182,-0.1937474332,-0.1997990125,0.2594570439,-0.6444323678,-0.3009716329,0.412944742,-0.2997002077,0.1452139701,0.3717981753,-0.0016495861,-0.860093255,8.973448521,7.9136510934,1.1458598875,0.7009044224,-0.641846832,-0.665569648,-0.47681405,1.1519248707,0.4069674345,-0.2844414774,1.6631343105,-0.179858626,0.6795597965,0.0613361876,1.9459498635,1.8591815163,3.5750201458,0.1032057353,0.3001103556,-1.7828826256,-1.9552116772,0.3314479686,0.5873675368,0.3624302852,0.4573181852,0.0145530654,0.2183579103,0.8357381776,4.4813638767,0.414648485,0.4569451541,0.8639248979,3.910225113,-2.9170059863,7.2594157071,-7.3135512177,0.6040720512,-3.2684300471,0.1970915475,0.5747460404,0.8020093963,0.0823465228,0.4986927445,-0.5537282151,2.148690134,0.8815218393,0.3079162606,0.0428493661,3.9375531817,0.7887526904,0.3613382153,0.5981492871,-0.5243892862,0.7543844891,1.5441623674,-1.4601683038,3.4519424026,1.5827894913,0.5451730713,0.0093783591,-0.0147946742,2.8398936886,0.6817740817,2.8918356083,0.3270900511,0.8205494639,2.9523038011,-1.2552036055,0.4594302728,0.2505452152,0.8980440156,-3.5322250018,1.0789578734,-2.1288141289,5.257710486,-2.6557097512,0.7285899967,-0.5739577219,-0.0995393985,1.9143257037,0.8172103897,1.4473593908,2.3465900629,1.4057450411,0.4217702804,0.7848346494,3.8935011558,-2.7170190161,11.9488708968,-0.2878833226,-5.1830488124,-5.5442882877,-5.5310166338,0.2499128663,0.9975763136,0.0567100796,1.0410316806,0.5535955222,0.7515421015,1.0826203779,-2.7634723607,-7.8422145598,11.2488478924,0.2696141882,0.1528675079,-0.1522194696,-0.1797659359,0.1283473376,0.4675917548,-0.635029025,-0.5946034314,0.586451169,0.3558760724,-1.8885894365,0.0443514009,4.4192762261,-2.3228280377,2.0048550759,1.6438491987,0.2822522236,-0.2905119206,-1.2748889696,-0.2857674719,16.4739742471,-2.4121408352,2.445756308,4.7157135285,-1.3016005263,2.0898883847,-3.4043719695,2.4279765706,-0.0417589895,0.3785640729,-0.4914582087,4.1446870667,0.0253778195,-0.4904507577,0.8600200922,-1.4480706746,-2.6575284981,-7.0295632794,-0.9122596978,-0.5239665898,-0.0294067752,6.5251096209,0.0392669789,0.6449330692,3.8401456676,12.4346393159,2.0499008656,3.0665401704,-2.3656126061,0.445501466,-11.7474055653,-0.4173147031,-1.0505750683,-1.7424158446,-0.1576475852,-0.0081552875,1.1739429893,0.5521591127,0.6210703133,0.4884028305,-0.0271925264,-5.7448532054,0.7316991099,-0.1417533392,-1.4499020201,0.6463286063,0.9190201397,-0.5287167958,0.0642766571,1.0329398121,-2.9517732924,0.187273327,-0.0580865625,-0.2777261061,0.1805213008,1.1948094167,0.1396459816,0.2709393975,10.6182041409,-4.1837252709,3.9408941957,1.129425894,0.6874813982,0.3894670554,1.8257580576,-0.2079197347,2.4924401275,-2.9229461026,0.225106584,0.0822045666,0.1740017393,0.8531339012,1.0387395207,1.0588496035,4.0851821774,1.0353160828,0.7225650459,0.6590117382,-0.2912710357,-1.2183045544,-3.7127012783,0.8410507779,1.821893671,3.1039693394,-0.8977768845,-3.9967065464,-0.2951363058,1.1138172685,0.0304418043,0.1897110443,0.4280885611,0.3507639129,0.4278817237,-0.7967772226,-1.3741546894,4.206947639,-0.0484697008,-0.0134250318,0.5771046152,0.6624375828,0.9294099067,0.4234428792,-0.283973796,0.0314645361,0.4536402271,0.3047464042,0.7457444332,0.3901347169,-2.0229834872,-6.0428077456,0.2612027526,-0.2050677086,0.1355431677,0.4786110693,0.5750439256,0.5244500059,4.2351499614,1.7583092771,-0.0536254045,-1.6428437847,-0.911598954,1.0476472994,0.5663046858,1.2484659258,0.4516718262,0.0376823299,-0.1620783159,0.1629453502,4.6063970916,-0.5125447347,-0.094328035,0.1076521788,0.6349671547,0.2492523783,0.2532116192,0.0768152912,0.6438307867,1.8274838318,-0.0758517494,-0.1295497084,0.0655567227,-1.5951603834,4.7073636585,-2.5934894434,6.2278525533,0.2234990809,0.3648987097,0.5092112187,0.4369985012,-0.2072933913,0.7804649545,0.6369615255,0.9821611351,-1.6922059106,0.2187117947,0.6382940436,1.5490934365,1.9197111011,-1.4984514778,1.0307120859,-0.3174863098,1.3380846863,-0.1743439953,0.5185084242,1.0396862899,-0.0574633917,1.5761609529,0.02408588,0.1572188701,0.0215524078,-0.0342701041,-0.8762778819,0.3436194833,0.985250833,3.3479522413,-3.2331599837,0.0892645992,-0.6197480597,0.3078857244,1.8678046081,-0.4278575618,0.8208628398,-0.6324938265,1.897555496,0.8456063696,-0.4227325706,1.7891865515,1.0790094534,0.8524454442,0.1019618823,-0.1448554376,0.0427749222,1.5778031176,0.2727649766,0.0342482515,0.7775634423,0.1612252117,0.8204599428,-0.9682894501,-4.1722832405,0.868908351,-2.2215235603,3.2894440033,-0.5482504762,1.6819968526,-0.4111828848,-0.4338746535,-1.2634017063,1.4858707133,0.3907091675,-2.7576446932,2.8389657973,0.730547672,0.0967648889,0.0143820399,-3.0059762506,-0.0675846417,0.2239852437,0.2763295173,-0.0947030271,-0.8334047683,-0.1872491004,-0.8084603423,1.4630767254,0.45308669,0.4749080768,0.5634475799,0.2471868555,0.0378909864,0.9030233402,1.3645662437,-0.436705833,-1.3831585457,3.5859147289,2.2239852231,-4.6608393048,-0.3639791838,1.3378650815,-0.8738660476,0.2188448364,0.6486797333,-4.1480669547,0.2109437422,0.8701883747,-2.407760608,1.794055367,-0.0215831968,0.2816144499,0.3891974226,0.5777208937,0.2426415926,0.3937424109,1.9460050723,3.1133123768,0.1055197297,0.004209201,2.1628966842,1.466691772,9.277644111,1.1858203106,-5.0972536808,0.1692874188,-0.0380100037,0.3535678091,0.0836715314,0.0445950158,0.0225881535,0.3607027683,3.4085472362,-0.0725940247,0.3618124715,0.6817610595,1.0513836185,10.25310809,1.176784171,0.3559292917,0.551980838,1.3408730269,-1.2141810549,-0.1323203414,-0.5919650461,-0.6757961897,2.1165513633,0.0868259744,0.6664479552,0.154338482,1.4323919497,0.3054585135,0.4528772389,0.995039202,1.5534032341,5.1876448711,2.5450653865,0.1051731937,-0.003728629,0.0299854437,0.7998869285,2.0704870062,-0.4695479916,-7.9313228809,0.6793911424,1.1728454702,-1.1602448418,-2.2343933434,0.4387945312,0.369997037,0.4073984743,0.325697192,1.4090007045,0.6837155463,-3.5994473438,-2.8635477221,3.5986641142,1.1019089158,1.0520295314,16.4944123363,-13.4294108036,-8.0812433053,27.2437348278,0.8644795807,-0.0428528016,1.728919445,3.7048816918,2.3590288265,2.4831445217,2.408101025,-2.5878342537,-4.6298887621,-1.5528848212,-2.265321628,-0.5131517692,-1.0829798105,1.2724182588,3.7939568495,-0.320170584,-2.1410556641,-0.6483591283,0.2259024913,-4.0375051908,-2.7580095836,-0.5060281105,1.9841427567,1.0223794668,0.5821932391,-0.181620926,2.544403442,-1.4626240296,-0.8211160934,1.9192894618,-0.5879202402,0.3621990482,2.5976590354,0.7506354016,0.4418261372,0.1243433982,-1.1621655287,3.3534738706,0.2566188752,0.8948905599,-1.0707472979,-0.0357135619,0.1303311472,0.5086301479,0.3964573963,0.7944222192,0.5070188304,14.5383866493,2.8870956147,-0.6589429943,0.282614993,1.6157828313,1.4422939735,1.2937258017,4.9792094224,-1.8181129108,2.6234880864,1.2589109494,6.0646132573,-0.7469135833,0.0766767279,0.8653347555,0.7872790206,0.7418996489,0.2538530906,-0.532796255,0.921953088,0.1815691738,0.5382570858,0.1934890845,0.6754422308,0.1096024006,0.2085666124,-0.3171681482,-0.0933256217,0.3182722784,0.529847154,-0.2124355006,0.4563209289,1.0900617747,2.7177686092,27.4537850175,1.2520498202,-0.1146313858,0.4027741733,-0.1923037673,-0.0670228084,-1.8440265216,0.183018159,0.2211841236,1.4734368139,-1.0065623717,0.203089454,2.7021853729,-3.1020669953,1.3531950188,-0.3983889937,0.7001644704,-4.1048635884,0.3375414411,0.3127937512,0.2956222715,0.5490895447,0.8375355267,1.5410014843,0.9034063916,1.7023399109,-0.2084617215,-0.2333649083,1.1261273328,0.6017799652,1.0781191344,1.9982819163,-4.7625382995,4.0727771243,-2.7046657708,0.7171363244,0.0231237708,0.5442948397,0.7149441878,-0.501594424,0.0871133443,-0.1626979138,-1.3310602359,0.0412340659,0.2331104214,0.2142023412,-2.4895684567,-3.1098771618,1.2534429423,0.1054244309,-0.4509664325,0.3884344793,0.6840864766,0.0907290732,0.123084524,-0.0372156137,-0.9241212774,1.0964948813,0.4808845492,-0.1759568173,0.0842452288,0.7001783472,-0.1034933222,0.7098980625,-1.9401474385,-0.7076654645,-0.0267056417,-4.9172319719,-0.3003914666,3.9617733402,-0.2690762521,-0.8941906346,0.1306918901,-5.4644286197,2.0990274195,0.8542091475,-0.5188057917,0.9355264463,-0.8908773081,-4.0166910209,-0.8804680861,-1.0414865185,0.1982330399,-12.1029066234,0.6360824238,-0.1924027549,-3.6285153953,-3.4394997422,3.673209133,1.8991589262,3.7665264516,-2.3867366707,2.1750424743,-4.6322642965,-1.0118907854,0.0576444788,0.1730430527,0.5889283673,0.0708042837,2.39062866,-0.8529504638,-2.5975563884,2.8558217877,0.9257641208,0.7211478033,-0.288801106,2.3260560114,0.5424540693,-0.1782278097,0.2135406607,-0.6618391643,-4.3981556401,-0.3016654747,-0.566864107,-2.1803099051,-1.2874620167,14.5682909625,-2.5128198751,-0.4695263813,1.2246784531,-1.1464975476,0.6346087835,2.5727417506,-2.8875474433,-1.9343653356,0.0594610476,0.6549712654,2.056382173,1.0495461633,-0.0926236234,-1.1048851196,2.9754989732,-0.5717446674,2.7360082498,4.3252421115,3.5856353457,-0.2200559866,-0.2069374523,-0.6257912875,-0.1545943388,0.4429773163,0.7022727624,0.0347495576,14.1967830469,-0.2100217697,-0.329249861,-0.1253466774,0.021604048,26.3501514855,-0.1758492304,2.0632761059,0.2570642327,3.6073142235,-0.0430693241,-1.5986717125,-7.2581643433,0.6412275509,-2.4701004609,0.1150790072,0.1799779877,4.5591091717,8.0868573338,11.7495129515,2.5126709133,-0.9332447383,7.6052682239,6.8054166504,2.9803604407,-0.8387468092,0.3263537702,0.1351835173,1.8667066356,0.9769757121,-0.3075250863,0.4918379863,0.3493214565,-1.3412561274,0.9162410137,-1.1968959055,-2.5683249236,0.6429618,-3.1233845411,-4.9008243643,-0.0213268599,0.5693917648,2.2433655569,-1.7770447373,-2.0317307819,1.0003434264,3.6559630412,0.2991485914,-0.1204811273,-1.3892335231,1.1817380416,0.7968296343,0.7501089768,0.2350122903,0.5772135497,0.2929751713,0.3369488761,0.3831863399,-0.0127523994,0.3157332819,0.2493469172,0.3834062291,4.4211796389,3.1461846453,-0.1063670169,-7.8871062931,0.1640214043,1.3885108505,0.8836328454,0.3658798889,0.5134071266,0.6497460712,0.7427185566,-1.7413169051,2.1207967988,0.1597509076,0.5586940821,1.4702436125,3.0424447493,0.7617456575,-0.0099928974,0.0713470543,0.8598957725,0.9896933844,0.6627610159,-1.3889576682,1.0492648542,1.5277454855,0.5752838137,0.5985906022,0.3403033255,-1.1850333246,0.6956063403,0.646275394,0.6970211836,-1.8064296057,2.2867119564,-0.6819169189,4.1569208499,-0.0780882393,0.7367316973,1.3717830534,-3.2560827939,4.7015891432,4.8582155527,0.7998902248,-2.4868425826,0.0539902588,0.7213308494,0.293282894,0.1827096556,0.3007000695,0.8286485563,1.1541085848,0.2462273419,32.5905686001,7.1462923092,-0.1189150653,0.229559416,4.0093059989,2.3047617226,-1.303373776,2.3726731224,0.9480383385,-1.6604633356,1.2776335864,0.619431034,0.3537367042,0.1873767159,0.0642024101,2.1937868513,2.6962171257,4.245895054,-0.3334194804,0.4837257533,0.6418003195,0.747712863,2.3172556279,1.1893713323,-0.5252326199,1.4159515234,-0.1944565783,0.2873404269,0.0141654709,-1.6640332852,-0.2865922973,-0.3305329008,-2.9781327015,-3.5877835201,1.2586174173,0.4782336801,-0.2962780987,-0.0047683938,0.3149175232,1.6588582325,1.0573607991,-0.7767833261,-1.851004739,0.3542903479,-0.058859726,0.3216300552,1.5992600442,-10.4578722015,-2.5791984258,-0.1623959237,0.0634462879,0.573476548,2.6497616699,2.9833838819,0.9959741377,-0.0422525527,0.7754815843,0.7173189153,0.2118455341,-0.1107289483,1.0198809712,29.036687886,0.4655055392,-8.3346013738,2.3718612635,0.1234130313,-0.9850462894,0.7384076178,1.0688334137,0.3778230101,0.6767580519,0.9138846397,0.8717748251,0.4468554009,-2.9171428628,-0.2116554669,-1.6282291987,-0.2965357525,0.1468319599,0.3531630892,-0.2759029023,0.0735734216,-0.3106414631,-0.3557666412,2.3027675574,-0.290514206,-1.6433485218,-0.3386149226,1.9505366327,0.4587957409,0.6720981603,0.4844858332,0.5503471426,0.381680666,-1.0905393531,-0.3063803155,1.3018244418,-0.0845402805,-0.5240851294,1.7670169731,-0.8934582316,0.7166111348,2.0342643465,0.102658516,0.7797108047,9.0659398957,3.2352517271,-0.3689094165,-4.1730045313,-3.0361022138,0.6447036994,0.9140478578,1.3173341599,0.9868915345,0.6555655764,0.0713395416,-5.626796187,-5.9024771573,2.3640395401,1.0375597004,-5.429460846,5.1469806129,-2.2826196357,6.11566452,-18.5486089182,0.7451523709,-0.7121894072,-0.1304602963,-0.1908401121,2.7159534926,-0.7065355366,0.5251538348,0.4925982229,-1.6597102544,2.7686457598,-0.0991753894,-0.3180642981,0.5258177241,-1.1550060163,1.71894731,0.3744980148,-1.3864086854,1.6304481064,1.6103968956,-3.1238078346,-2.446695887,2.401949157,0.7090240642,0.5138228962,0.8511045278,-5.0490021478,0.8270129985,0.0174648068,0.8726271909,0.9041289867,-1.8656915525,-2.2639206593,5.1875647241,0.2135791096,-2.3028849057,3.5374388452,0.5838112599,-2.2799000795,6.7350786161,0.5094709225,0.4074168813,2.1298594826,1.9953112205,0.79751005,0.4298116287,2.444543736,2.2434775477,2.7684976422,0.7792821512,0.8486971769,-2.856069446,1.2465554453,0.5191246543,0.6004904017,7.6827027893,0.3725224313,3.4699171223,-0.0748935655,0.4245346468,0.5845462165,-0.9881298864,0.5908664956,3.0476875035,1.6388154375,0.1709692158,-1.806690197,-3.381800037,-1.1297224194,0.6739961325,0.4900073966,0.4411971677,-0.5749427992,0.3104194935,0.5367678134,-3.9557683044,0.0827678148,1.2946952661,-1.8395180146,1.0623572994,-1.8437796208,0.9954407366,0.8375686446,3.0175359189,0.3816379097,-0.4005068787,0.4146596135,0.8222484538,-8.1642784314,0.3871331273,-0.5740467409,2.5331819258,0.4185693315,0.6232125868,1.3157837424,1.6728874188,0.6573207887,-6.2738099743,0.5395278034,0.7494983049,0.021761425,1.2367962585,1.202666597,3.8996260954,3.1176655464,8.4052466622,0.7645321922,0.8004566785,1.0864868545,1.5833002268,0.431071,0.3182436811,0.9912902201,4.1645408054,-7.9303758786,0.7651238073,4.8175746883,0.6989833599,0.172481633,0.6006919503,0.6171654204,0.1873606945,1.2800359149,0.4196737617,-4.0227303595,-0.391896847,0.055799421,0.356730305,0.082082921,0.4869347613,-0.7804479117,-1.5943144936,0.4402654352,0.3603423431,0.0708134977,-3.257616683,0.6294917502,0.5292907104,0.0527937393,0.1646310341,0.4088326952,0.2753980186,0.8703411817,-0.7722323907,1.0626698555,0.7666818784,1.560814033,0.2782357754,1.3600991664,0.7241662342,0.3685073896,0.3665649868,0.2634102135,0.1036222917,0.3429386092,-0.1964405,0.0192950677,0.2952413249,0.3018718007,-0.1518800077,0.0202305913,0.441048635,0.2809982369,0.0240175961,0.1103264391,0.1005534216,0.1356779505,2.6849616494,0.4406975379,0.0227423661,0.7243341456,-0.339394125,2.1823563228,-0.3196172494,-1.5072762203,0.002092298,0.5301914687,0.4592248253,0.4021430862,0.6858216962,0.4317887909,0.5034110205,-1.6517744262,0.3711751446,0.2550705745,0.1997982292,0.1339943775,1.5424745046,-0.5076436306,0.4067800572,0.4244292638,0.5145948453,0.1036899776,0.5597571257,0.5915032497,0.9936070558,0.1813620074,0.3883295926,0.3027675348,0.9085296604,-4.0489575573,0.858616428,-0.3117602373,0.1564941434,-0.7516797202,0.5816957994,0.1247873536,0.6705685128,0.4351394107,-0.6285667283,-0.5993890124,-0.5648732768,-2.020981449,9.5004995781,-0.129890841,0.2819787552,-0.446464568,2.8464430544,0.2769107235,0.3504391619,-0.6670818893,-6.9026909379,-0.4053034868,0.0715048065,0.0187393622,-0.4903726965,-2.9418648477,-2.5525071589,0.4885049112,-0.9610264376,1.8789448301,-0.8633484794,-4.9561873426,0.2224506923,0.4954612567,0.6006157224,0.404946129,0.6141039992,0.1895935422,5.4209190606,1.3988302527,-0.0983326811,-0.1302223516,1.0358720177,0.2462747178,0.4586981897,-0.5738868313,0.6269995373,1.2646984621,-0.6457975171,0.5150335382,0.4541832678,-0.8217058911,1.2572418497,-1.4062526288,-2.5188863117,0.5020122461,-0.9808844117,0.7312751287,0.3598325537,-2.0927955865,2.2289737719,6.3822940245,1.1874912046,-1.8233532459,-0.2258299625,0.2687421265,0.9949740205,2.858976867,-0.6369009145,1.9109652329,-2.8386394247,0.9951198394,0.2651892548,0.6056078747,0.4709072946,0.5207218441,0.4129565324,0.5746834543,1.4065901318,0.1698114177,0.1669681269,0.3126129079,0.4252966032,0.6499523278,0.5949703003,0.44039059,3.1153889972,-0.3635134264,1.6895109512,-1.0056995584,-0.8068117786,0.9795134567,1.3849209439,0.7376855825,0.4240971274,1.1430460727,0.6378424251,-1.2811210112,-3.7186792248,0.4336767558,-0.2020500571,-0.5227349476,-0.4279041647,-0.7284573109,0.4946755235,0.5022518014,-1.5076716038,0.4234807233,0.7075133375,0.2918438811,1.0678782848,-0.754047912,0.3946726259,0.624122136,-0.6007285947,0.3783047569,0.5236784885,-0.7943763601,0.7250299045,-1.7750027487,-2.0939422694,-2.6297581825,1.2642841426,-0.421438026,1.5990856444,-1.7492232063,1.3405658585,1.0339904114,-14.2032520993,2.2615839243,0.6104723131,0.6329853064,1.4991834214,0.4809907173,0.8503609386,1.960941395,0.1190568581,1.1383268729,1.7484363907,0.5925969001,1.5309646811,13.1175846059,16.6848999598,1.0577055279,-2.5891955405,-3.0762796868,4.1842910296,0.1178003651,-0.4807923884,0.1584810905,-0.4931339796,-0.2618425909,0.1243372609,0.2775708764,-0.6376282859,-4.3143523647,-0.3184205916,0.1983871833,0.0876387693,0.6522164109,0.9813146517,0.4124789158,0.210092987,-0.1540873098,-0.2162680385,0.4186821892,0.6506165128,-0.7971530526,0.0258590886,2.2272408014,7.664689191,1.6212646473,-2.2066598844,-0.308658519,0.6026127147,-0.2826725864,-0.1309409106,-7.8470869537,0.4785539521,-5.0113854133,-6.6465305323,0.1017176084,-0.4263106256,0.2404657249,-0.2143262126,-7.624951767,-2.2912719906,0.6709276906,0.2983058464,-0.4374256086,0.1052427937,0.8945542212,0.2954739891,2.2397934298,7.7185550167,5.021307756,0.7689928253,3.5549086996,0.0186702022,18.3282513524,2.195418938,0.1616429255,1.9918944718,-0.1786243651,-1.860127113,9.9523033341,-0.006623585,0.2320429089,-0.7649532788,0.4255968049,0.3392489679,0.0923744412,0.4524540043,1.4966102064,-0.9086709286,0.2220753569,0.3556356327,0.4774221403,-0.1725563363,0.1213868089,0.2806623319,0.1072684325,0.0280244299,0.2614669623,0.3864191915,0.2142026631,-0.3716843083,0.4617599783,6.1632209387,1.4235691166,0.6210006703,2.1733254947,0.4834233533,0.279875202,0.3164174971,0.8913194815,0.211334107,0.6036323761,0.5864652984,-0.2548396006,0.1756306955,32.975062986,-3.3365644517,1.8944158203,4.2459765311,1.0758415087,-2.2056813422,0.391134214,1.866819249,-0.4387865202,-0.6341785724,0.3958441718,2.7630096635,0.6657691643,0.9526623648,0.6879237111,-0.6631902881,-2.732509712,-2.1631614137,0.4667627036,2.6463168745,-8.7052083432,-2.3859608607,-13.8552325993,0.2895866126,1.2088343504,0.2475392366,0.6087995651,0.5399801845,3.2294522091,2.0220870935,4.3628639407,12.4208700557,-0.6454002894,-0.2292609806,0.5142358454,0.0606615001,0.3403432565,-0.7668009712,0.1558269744,0.9280490351,-0.3919643716,-1.2283771167,-0.0675046723,-1.0839008818,1.4175801144,-3.189861665,0.5432145838,0.6001282143,1.5940024897,-0.2784377713,-0.036552482,0.6536202651,1.6305367609,-0.609614333,5.037153346,-1.3952781022,0.316398078,1.0388848978,0.7044535968,1.0149787161,-0.3197806117,3.7674350361,0.354756035,2.169513044,0.0955264051,-0.5736175861,-0.0810683638,0.6150185244,0.5888847089,1.0297729352,0.5716783901,0.1901588701,-0.0179314576,0.2720658974,5.6550115424,5.9189829017,3.0262743661,1.6230392194,-0.9914709094,1.5288428673,3.5242781895,0.7154002766,0.6419270544,0.0581960016,0.4346274567,0.4625595867,0.9520509822,0.3961486149,-0.2913619811,-5.0185545746,0.2903002642,-0.4241106238,-0.4842387051,-1.1770825066,0.4849567005,0.4128208358,0.2043830316,0.8680974555,-0.7298724709,0.8350755524,-0.7865955176,-0.1010157945,1.0031947352,6.4252589719,0.7102760508,3.9582685965,-0.0953891024,0.0691015925,0.185074522,-0.1691716264,-7.8366826509,0.6287453535,1.1774983798,7.4454225696,-0.0077388977,0.2753061442,-1.5964973745,0.7343290682,0.1194321273,1.1899727223,0.0830579746,1.3520015072,-0.66456417,-0.1830022728,-0.8611749514,-0.8237711353,-0.7406095565,0.6875115317,-0.4391759369,-0.6025381796,0.4045455743,-6.2961683449,0.1451695837,0.003082012,0.7762655967,-3.5900159459,2.0568576343,-0.9225570416,1.4356961616,0.3623960089,0.9620607874,-1.671481596,0.4807602279,-1.6841635697,-0.6974981248,0.5843557961,0.8356859492,-2.232288107,0.8908015386,0.7065250361,0.1509415273,0.443418443,-0.2430802832,0.9800923525,0.2297802,0.2154116901,-0.1814408524,0.3200814201,-0.8779889002,0.3372254796,0.2991827926,-0.4810287088,-0.0285852868,-0.3221985255,0.6363797443,0.5562437238,-0.8839864509,0.8622149552,-1.5703191005,2.5471144972,-0.2918071942,-2.8030641707,0.181099363,-0.6112362096,-0.4445300155,-0.0909458562,2.5298670638,2.0998761017,0.62307276,0.8151318036,-1.7583587329,0.4043760819,0.4855353376,0.2191673558,0.5684945136,0.3093555167,0.4510597746,0.1772731405,0.2687212247,-5.5427733625,0.7389827829,0.2146512998,-0.4182133952,-0.5621580182,-13.0005029203,-1.2313211063,2.3188804987,0.4222755246,-0.0028686552,0.380507686,0.5438503807,-0.1508832763,0.2265907943,0.2387365387,0.5142434902,-0.5058893041,0.4855988783,1.0087895903,1.5757948096,-0.2834598034,-0.1801778383,1.4322101754,0.7755636556,-0.2094205108,0.2803023415,0.1208473956,0.8263100717,-1.0155248653,-0.4206496851,0.2427499836,0.3204530267,0.5125027515,1.4413594028,0.7274088882,0.4858239516,0.3005293641,-1.7320023361,0.4676864478,-0.7171592243,1.1967422938,-0.2564798559,0.7919314824,-4.2315407302,0.9007433704,-9.431137373,6.4595755497,-3.0032374949,0.6809517458,1.9068788218,-0.1347105255,-3.1299234687,-2.9226313279,-7.5398954689,8.1492603452,-1.0049143247,0.2116417741,0.8078167544,-0.232605142,-1.4985082855,-1.966297668,-0.1050015703,-3.7652502884,3.7283323001,-6.9620345435,12.1865459549,0.7517790836,-0.8687123765,0.4377994494,-0.4456754295,6.7717634025,1.8158301711,1.4633716913,-0.926147693,0.2939552703,1.9690431371,-0.2197440544,0.2028703108,-3.3056747626,-0.0931377406,1.4990935963,0.9646029447,0.4122653187,-0.3831653288,0.0412806841,0.3983902957,3.6644429687,-0.4952374122,-9.8557734307,-4.701679884,4.2888747758,0.7961851006,-0.0862023391,0.4719558818,0.904269664,-2.9983838897,3.2203464079,1.1708482795,0.9560463361,1.3309741632,1.3585753966,-0.5101851341,0.9180387622,0.4905152357,0.1150380973,0.0708619029,1.5254868925,-1.0221250774,0.3263924575,0.1769939675,0.3906371638,1.4054160779,1.7179971222,0.0108296956,0.0016317831,0.3003909535,-2.3207471346,0.1507765643,0.0479151182,-1.7884155993,-0.8263380916,12.7553412687,-0.7981114646,1.6227412243,0.8116478169,0.6130039629,0.6180229045,0.5228709627,1.5032288595,0.717554241,0.2490180601,4.062703365,-1.5782755973,0.8622329829,0.7282034486,0.4839934758,8.3997168626,-1.6273632776,0.0289521807,1.2616470696,1.6445188612,1.4880289469,1.3757038785,0.2475388589,0.3559957654,-0.5914895852,0.7083180628,0.0044174173,0.4165417114,-1.6745817084,1.7427619137,0.5202577661,0.0712630068,3.2453752224,3.8586919573,-0.4874804447,1.2290765779,0.0860290572,1.1296169534,0.4941870174,-0.0040207202,-7.9768861044,0.03132823,-1.0230428985,3.4369982017,0.436192762,1.1853171666,0.2919374046,-0.0672219755,-0.2258721142,-11.4197681509,-1.219592047,-0.8913343712,0.1688023843,-0.2050250765,-0.39657387,-2.493577222,-0.9380453449,1.9336564391,3.2617209802,0.4135989997,0.8377854266,-1.3953854175,-0.2685692091,-0.9275185805,-0.2513813194,-0.5264953147,0.6280893471,0.1079914765,0.6011804952,0.5198342931,0.7683191481,0.2402976594,0.6871918502,0.6074954272,0.8754973054,0.2486340138,0.4212628147,0.616045991,0.5833114019,0.274876782,0.3582216229,0.2674797053,0.4108452299,-1.1173303983,-3.2067560733,-6.0054971827,0.6530757876,0.9822896242,0.8714210523,0.2731694804,0.110713852,1.2832862502,0.5953364549,0.0077285212,1.1674961965,-0.1817046445,2.4753231328,0.3507242032,2.7378123803,5.3526213674,0.3298391615,-0.3846635137,-1.4196805333,-1.6669150075,0.7518427669,0.8249683688,0.9224077029,1.1367414611,0.2593133506,-0.1072783362,0.270294816,-2.1103860891,0.6539510501,0.2169974585,-1.9745879244,6.88413547,-1.9946681278,-0.8082789068,-10.1903946337,0.2686469929,0.8231433367,0.497155114,0.5513747461,-1.3677792734,0.841190815,-0.7256296935,-2.0013373908,1.3253418759,0.6023399065,0.5204361822,0.2617183836,2.6462880375,-0.3557185947,0.0055160607,-0.0024870696,-0.968621052,0.2667438222,1.4421020753,-2.2936736089,2.006941214,-0.786903555,0.0780589832,0.3587127469,-0.1575280549,-0.366324822,0.263181781,-0.6388249404,-0.5205556351,-4.4250723191,1.9582992398,1.1351966963,2.0793341122,0.131939374,1.5865275719,0.1255917653,0.6164751431,0.5767007581,3.230326749,0.1897175021,4.7848554297,0.1196039734,4.8245379487,0.4367487051,-3.591667913,-15.6202738245,-11.6489171755,-2.0382769188,0.642826635,0.2133635037,0.95178353,-5.3179982221,-1.8081531638,1.1965099371,1.6377021818,-0.3806308377,5.9203822588,0.7743939773,-0.5944625952,0.029500733,0.0981057759,1.2249548461,0.1388519702,3.1765773299,-0.0397455095,0.0215760527,0.7778689286,5.4735800877,1.3349335547,0.6334891962,0.6182875561,1.7621889449,0.6449971497,0.1422445396,0.6718664195,0.2713677448,0.2178709749,0.5341777033,0.5407244022,-0.1357740761,-2.9727617348,-0.4190323368,-23.7264644255,0.9150617019,0.3670607506,0.4671697264,0.6757737846,0.3255551648,2.0995943465,0.5760095087,1.1303506971,0.216324911,-0.9750166894,3.223473134,0.7000792233,-0.458082484,2.9664494748,-0.0474774431,-0.7471536745,-0.0936853009,1.2069377144,0.7326569491,0.9648770116,0.9334796198,-1.0290689516,0.3072355361,0.5770639718,0.5025153637,-0.0445208906,0.9975229429,-2.1123999236,0.2416259251,5.4652033361,6.9201484019,7.8926814652,-4.2242580194,1.6975876928,1.9222773983,0.7529424287,1.0729048995,0.9241563868,1.2908682558,0.9017781461,-0.032096143,1.9600423313,-3.1247537831,0.0810614895,0.2575918625,0.0034775911,-1.8706797832,0.519590161,0.1127816795,-0.4188943569,0.2170767023,0.1659849255,0.1442369562,0.485236801,0.0639895833,0.6466712284,1.758528171,0.5233218113,0.046231163,0.1876571709,-0.3882850792,0.2104171466,5.1059608733,-0.2348962358,4.9211353954,1.0426006523,-0.0222370315,2.5742139653,-1.0877801908,-0.2656984433,4.3971329872,5.4878306922,0.2788215704,-0.2008281991,-1.41930704,1.7893977214,0.4622882643,0.2796995139,0.6802926052,-0.0692900191,0.0164328272,0.1648601355,1.7494836156,4.9848594819,0.1000247236,-0.0383849682,-2.2240995096,2.2239665464,-0.6066289279,1.8973026604,-2.42372169,0.5336111674,0.3235696912,0.8166617826,0.7260691535,0.4533578126,0.3310266997,-0.0474478784,-1.6134222008,1.9678804274,0.2930624762,1.3203836661,1.380123577,-2.7278073559,-0.1237549278,1.9751958364,0.1352706194,-0.5785481872,-1.29207704,0.0455055915,0.4607767243,-1.7627871486,3.2328486144,0.0562890516,0.1699448864,-0.0312512305,0.3850848763,0.7593774715,0.3319131243,-0.1617989187,0.1816327671,-0.8759351166,-2.0161715088,1.339545639,0.6729424434,-0.169358854,-0.1874486405,1.7191375565,3.9072628648,-4.2664881239,0.5110536216,0.2785925047,0.0090891994,0.493696842,1.2400991454,1.5587429202,0.8284060327,-0.5410221413,0.5084755283,1.1413023458,0.8532488597,1.5565220621,-2.2988927659,1.6086057832,0.3164827592,4.0020756084,-2.4610105809,-2.1261937552,1.242243545,0.4416371282,0.8727641012,0.6716420924,0.5878660832,0.5113949296,0.3994021475,0.1861120417,-3.0764109704,1.2965885506,0.354740708,0.2847791397,0.0884985321,-6.2076626385,0.5939188486,-0.1515887368,0.6149382328
   -0.4762089141,-0.2922180916,0.1358030497,0.5630786837,-0.0124229058,0.769925419,0.9071202586,0.769958788,0.2290822643,1.0311275323,0.2989379968,0.7677399376,0.2188841324,0.1372384956,-0.8748015482,1.2045666112,0.5099855609,-0.4223055634,1.7075125087,0.1256121517,-0.0751626618,-7.6483185188,-5.877745981,-0.0873638732,4.8206088731,2.1533685321,1.7155772618,0.241501363,0.6651604949,0.0570989207,-1.6093600239,-1.3861094497,-6.1451135427,-1.1217628671,1.4797764542,-10.5375935726,-3.421724493,-1.1535882347,-0.5242816446,11.4928055878,-0.0147614302,3.7682513781,0.7070636138,1.4904516377,0.290896588,1.0964337309,2.4554927271,-1.6355727654,-0.2798051207,0.0733331367,0.3904421156,1.2061716457,0.8345912412,2.4885295191,1.0162589235,-1.2248524048,-3.0318287061,1.3429910623,1.2142694885,1.1195170832,-0.7528443209,1.4392107144,0.4412422534,1.9261491465,-0.8593364074,-0.0267408268,-13.5571059353,-0.7762501223,0.2721933575,0.3995020058,2.7505528242,0.7400058572,-3.0052184257,4.2886624799,0.1806570177,-0.5001125895,1.3289897168,-1.0149962605,0.9338998702,0.2907665931,5.7229007654,0.5464002716,0.7388188999,0.4559429348,-2.0919891524,0.5656728492,0.4713784492,0.8033606391,0.1238142266,0.639788532,0.5844962448,1.1737689383,-3.8801287567,0.5296154468,0.5334668912,5.1460173652,-4.2316855254,0.9973564592,-7.2804986507,3.8037922527,0.5852725152,0.1613311389,0.0152995942,0.345113189,0.1934482046,0.1550781669,-1.5828191545,-0.9344349756,-0.0798240744,0.0944307903,0.0016109192,0.7305868148,0.1135468252,2.1116426418,-0.210539859,0.8828070496,-0.0480262257,-0.281659445,0.2617995132,-0.8635835177,-0.3914565789,-3.9784379443,1.1285612919,0.2718360796,1.3842969277,7.3437380471,1.0084701487,-0.3253267533,0.8737130767,0.9759585894,1.8014632888,1.1515904467,1.4894466042,-0.6687853782,-1.6334744856,-1.2346523346,0.7524875564,0.4984974828,-3.1008443679,0.9188017336,1.0393474727,-0.5611693652,-0.1720572759,0.8420892778,0.7629264712,0.4487701857,0.509154268,0.6368096885,0.4751792537,-0.3632351074,0.5145386696,0.821116588,0.2686308556,0.0670028417,-1.1795796979,-4.4721713211,5.171403191,-3.9843602339,0.4131216871,-0.0790448305,0.3281534664,1.3857277176,-0.3752154246,-0.0601136391,0.0962502478,0.0841217765,-0.1302375307,1.5309740842,0.8583179414,0.2318165443,0.0687335508,1.0188501594,0.2148304532,0.4905886219,-0.0139312668,-0.5624654906,-0.5750911116,-0.000845425,-0.8033355669,0.2442901051,0.7106062005,0.6670920049,0.3402856585,-0.2588219829,0.0094497223,-0.1375561933,-0.5704089977,3.0002310106,-0.6791308634,-0.3654186873,2.2863524014,0.5844226241,-0.3707392889,2.4181175221,0.0058383745,-4.2001566545,0.6547106445,0.5036196995,0.598471066,0.7200576004,0.3527057839,1.133101565,0.6789486003,1.1971976523,0.3721962885,-3.1859329295,1.6363979444,0.5011587436,0.0928397263,-0.8716843306,0.424801213,0.2620968152,-1.5212821807,0.2063080034,-0.2312312879,1.067374011,0.2857246571,-0.492817486,0.9499021169,0.3141477124,1.3356535895,0.1717010812,-0.9062245942,0.0035817443,1.5666369578,0.404270474,-0.0676140171,0.1348937943,0.0222055355,-0.7378358144,-0.2346234785,-0.3934678597,0.1741993118,1.3992083561,0.9517211526,-0.3263914943,-0.363574733,-1.5641187098,0.4339370032,0.8408705566,0.2106927326,0.2566947485,-0.0236440749,0.0381290979,-0.0661290802,-8.7806163853,2.0715328752,-0.3883164614,1.5018737356,-0.1753331779,0.6712281424,1.2800567676,0.5022217147,-8.2232565143,4.2922329614,0.3486168635,1.9863558144,0.136465612,-2.5109672357,0.618674354,0.7462474519,0.5947749358,0.1461585278,13.7754644209,0.5374254853,-2.8973056577,-5.3902331994,-32.9216738399,-20.9063463771,0.1097982739,0.7252278389,4.6747095891,0.9095928467,-5.4138356467,-0.2663427533,0.2974431018,-0.1520192439,-6.4304173281,-7.1354215268,0.9123299449,0.4103192627,0.6301486912,0.3159526253,0.0387386177,0.7311302934,-0.238756893,-1.4611028407,0.1246202207,0.3756939497,-4.96213895,-0.1890664016,-0.0496571094,0.2053450369,0.6935442661,0.3156851783,0.3356867925,-42.5287979182,-14.8906874289,-3.6040607197,0.6655631261,0.3068057504,0.5128019256,0.5234317469,-3.7956709718,-2.9437426648,1.760129907,-4.8290501242,0.42282431,0.4455885649,0.594947645,1.0356417766,-2.8369280222,-6.0731803789,-0.4981413792,3.4521554414,-0.2413845553,1.3718069515,-1.901722908,-2.2938276045,-6.6567670713,-6.340302386,-0.633385371,-5.3426342357,-2.4939803535,0.4525026987,-2.6085233901,-8.6005180124,-1.7890736649,10.6288260422,7.4000324729,-4.89323665,-3.7390829025,0.2981156442,0.476763876,0.5868948854,-0.1783322112,-1.363716395,-0.0893087098,0.1287150961,0.665662049,-1.0065810732,-13.0277738965,-0.2516602843,0.0437822189,1.0302842761,-1.8755894091,0.4225092361,0.5044112167,0.155783659,0.7201263629,0.4875147375,0.2206743973,0.0965203481,-1.7067320159,-0.1693979215,-0.0800148233,-9.1464435819,-1.9126694288,-2.1766534229,-3.5546683566,0.8013650469,-2.7238682562,-1.3174226161,-8.5988857107,-2.2172652595,0.1526160175,-0.7174558577,-0.3053335091,-2.4766284047,5.0397591428,2.2193055046,0.6213722367,0.3047519128,0.5495809614,-0.6278214738,1.1131577324,5.1528000945,1.6959033299,1.4662363704,-0.0608192692,0.4724864705,0.2859694681,1.518060603,2.0182326795,0.4910274454,-3.7467837303,3.5355205236,0.0436611164,0.9294463891,2.181911837,-0.1849778125,0.2972806189,0.4564157056,0.1997576105,0.0588816157,0.6984336034,0.0683239878,-2.0005691419,3.5876223213,1.5457059597,0.5271786177,-0.0490751629,-2.1272230841,0.4784969865,-0.7631817818,0.1392504632,0.0838905448,0.342160609,-0.0775781669,-0.1322612012,0.7640942782,0.5406260377,2.5462897285,0.6042662538,-0.3802399169,-0.6709290523,0.6032949598,-0.0629120651,-0.0850489201,-0.1051571763,0.6970000332,-2.0571105177,3.9155212764,0.3301656958,-6.6100975729,-0.9528336784,-1.3848408165,1.7047674869,-4.6282108177,3.0693178463,2.5028414877,-4.5654937762,-1.8624041905,0.1130759969,0.1253057524,2.6961260385,1.5722387734,-0.0275632717,0.5168521315,0.3892331694,-0.5166534235,0.4523472495,0.1152747194,-1.8206341693,-6.8476448929,-3.7544242731,6.8263476314,2.2176779753,-0.6354880689,-3.0228793417,-2.4576877192,0.4988307929,-0.321365743,1.2260296253,2.5103331529,0.5087069548,2.9222711447,-0.2348359708,0.0402379614,0.707908602,1.5261882807,1.5654375204,1.3300466132,1.1030441797,0.5255479434,0.9696551785,-2.4728259435,1.8957306185,-1.4410999107,0.0045464155,0.7020472801,0.059942694,0.4765028092,0.430904026,1.0583157348,0.3061670072,-0.8918972149,8.9327793756,-5.662997678,-4.8609782018,3.1756962908,-0.0064029007,0.0871346942,2.5527372626,0.7050831323,8.238772689,-2.3866875043,4.5192714377,0.1969698714,-0.2357722102,-0.2070217986,1.126552074,1.4106668474,1.4386959604,2.5124602769,0.1671017758,0.001383975,0.2547269922,-0.2802957671,-0.2640633508,0.8794533675,1.1116671499,-8.6273454445,-3.6453062804,0.0850977266,-0.6543284974,-1.8603458453,-3.3037246209,-0.1114861327,0.4190230372,-0.0477728013,0.9895867581,0.1084691979,0.0487734539,-0.459280371,-0.0317252344,0.0338291907,-0.7820185697,1.0079455959,0.6721774521,0.3741592561,-0.6619796504,-0.4077795202,-0.0506755958,0.2107383017,-0.497870759,-1.0045723722,0.7344767416,0.9793787073,0.4953089963,-1.6700419721,0.7012762176,0.1613730168,0.125638221,0.4846963709,-1.4899047009,-4.4460889893,0.2439053555,2.5093821712,0.4100916958,-0.4959191894,0.0191749184,-0.0754472705,0.5528712306,1.0693554798,0.0616066939,0.2052732104,0.7136113356,1.4399311826,0.0590087206,0.5348035396,0.3036487327,0.1396974865,0.3781113827,0.6355128677,0.066204303,0.378948556,0.2626194682,0.5584683778,0.6635549497,-0.6040372485,-1.0746865993,1.0846576122,-0.9784271627,0.6640760108,0.6799716782,0.1900453015,0.303094701,0.5518912067,0.6840062637,0.0198044725,-0.298172888,1.1537294234,0.2238053077,0.2793235257,0.4061688768,0.255001801,0.6925932067,0.7202989924,0.0608391339,0.0753201811,0.3314628766,0.0644051081,-0.1344560228,0.1520645958,0.4047490221,0.1968059697,0.3605681621,0.1906835575,0.5252075876,0.7926881664,0.7134429713,0.5053545652,0.3564375236,0.1610508418,1.144218921,2.2300419708,0.2539212371,0.1573495835,-0.0996986826,-0.7893994634,0.4444751987,-2.5316522534,0.4655915818,-1.070600061,-0.4679548826,-4.2291308028,0.6114789319,0.0896124807,0.1016721506,-0.1866056364,1.9679273519,0.8363232019,-0.2802315597,-0.7239020165,1.747405384,1.1894634064,2.1833045259,-10.3304107198,-3.5334837476,-13.9177363786,3.1462720532,1.0571502102,0.2650917994,0.1118304117,0.1672764252,0.740423625,1.6893073786,1.8795649246,-1.9073149738,-8.1882726507,-0.4222360977,0.1503890021,-0.605822393,-3.5437440519,0.2695618699,0.3744705728,-2.2353524571,1.2634438317,0.3133169027,0.8270228635,1.0726500832,3.9440298303,1.1371425006,1.033540584,2.5077281399,1.37541101,-0.2329218492,0.5825303211,-0.6588188175,0.4377902696,30.0915109185,-6.8708545927,3.8503329355,-0.567374835,-0.1616859565,1.463512425,-1.7007203888,-3.133959201,-14.5168699639,-3.6764884034,-0.0672423604,1.6813014853,0.7465879102,1.8961302,2.1287255409,0.7001605818,4.354851065,-3.2168224645,-34.5867596664,-3.919597268,0.4055305994,2.5685496749,-22.4375421869,-5.7670724508,4.4606468575,20.3667792353,37.2699069485,8.7141915458,9.839996764,-1.3731788922,1.9551479814,0.1962272323,0.3216111764,0.0567675068,0.6166548905,-0.4140743434,0.5369772014,0.7565816153,-2.2819650652,0.3881320825,2.1551717111,1.9374473623,-0.215616254,0.3067337008,1.2385953532,0.2203224736,2.410885348,0.5930041648,0.5079208542,1.1288461263,-1.0525613839,2.9543408569,-19.950580513,-63.7374555005,0.3644908461,0.0471172439,0.8144844111,0.7923070236,7.2017212624,1.3783358672,-0.4503829501,2.290920988,0.4863312355,0.8613915044,-0.6336233405,-0.1244156537,0.3541753513,0.7885317327,0.1849066212,0.7192725564,-0.0292089078,-0.0957391386,0.096649973,0.6480771622,0.7191972621,0.3021326815,0.2406316394,0.808692251,0.9010564716,-2.9762705711,0.0051837849,0.4183677089,0.0374546587,1.2521246141,-4.1007546145,3.0359594079,-1.4993505956,-0.0761450493,0.414233104,0.1241020912,0.5158659519,0.449436915,0.4294343163,0.2906124326,-0.0438751556,0.695148526,0.8035090617,0.4938121227,0.0327126237,1.7299038947,0.5539746322,0.006159339,0.0674271515,0.0876418667,0.9729415159,0.1751507204,-0.0706043469,0.6272354178,0.2656063656,0.2077824587,-0.1278011551,0.7936279178,0.0644196222,0.9464679903,1.0612852133,0.6471607591,0.4485682695,0.7578052603,-0.7779355551,-1.0305109817,0.1793574584,0.5066939497,-1.8436934142,-0.8228206443,0.9251878596,-3.2128296388,0.3511251739,-0.8905697627,0.0464138197,0.9488543499,0.254123601,0.1963732514,0.4001456153,0.1758145186,0.3144669945,0.5090159834,1.4535915603,-1.7127857467,0.3236199513,0.4311586007,6.5628116294,-1.7790652164,7.7454732113,-3.246228305,6.3837622931,0.1768844559,-0.361888496,0.1868876154,0.5807674809,1.8819080569,1.3441212366,0.5557142057,-1.4469093706,-2.4774044932,0.6026046637,0.0169972205,0.1181850093,-2.77321587,1.6547472886,0.7319648415,0.4519200207,-1.9451709405,-0.0630974114,0.112747938,0.3979299463,2.3469677444,0.6710654621,0.4773473034,0.2203209786,0.8726306462,0.82597533,0.2932665106,0.6344167328,1.2367047798,2.035295781,-0.2961724691,-0.9327517608,2.1712670887,0.3786586341,0.196021944,-1.9834401993,1.4165133429,0.7854871184,7.855248598,0.4084557935,6.415413631,0.8301805131,1.1901005395,-0.4065878654,-0.6531177021,-0.0465767422,-1.7703496869,-0.1914465532,-1.0246579265,0.1164595234,-0.0951524146,0.6384522023,1.7056312821,-8.7348579155,5.396748266,-14.4483185407,0.0677103026,-6.4675682708,0.327267487,1.6365851023,-0.7263502153,-0.0089924204,0.1757088809,-0.0294759964,-1.2971354212,2.3379574839,-0.2102389303,-5.3466000505,0.1917871247,0.567412264,3.3639021156,0.8409079408,0.2733575729,0.7875215365,0.0464744218,-0.1523862857,0.258384321,0.3811257548,-0.4819422283,-5.5155884421,0.6054196938,-0.0825010596,0.7256127595,-11.1575978847,0.1652907925,-0.3508625291,-0.3278778967,2.6382598387,-3.0604340213,-0.6099857453,0.3827872689,0.4364348557,-0.1945748498,0.0995685344,-0.1996692449,-0.4244409037,1.7938106364,0.5082941971,-0.9605405816,0.3227725527,-0.0189502396,0.5094193893,-0.0629371507,0.1649718972,0.4270448101,0.6187247784,0.5887221505,-2.6873521081,-1.9313348243,0.4931896806,0.3773405105,-0.7743584532,-1.5562271897,2.3595679412,-0.1488001897,-5.3435004856,0.3848413796,0.4364738904,0.1536497519,0.6385488997,0.4963778007,0.0928599015,-0.0138231316,1.3570075569,0.0346490427,0.435650182,0.6648936637,2.3468243118,2.2442192546,-0.6076344457,0.1224224679,0.4796942841,0.3549618563,0.4695411448,0.4851537574,0.6885132728,0.3695650342,-0.0378512369,0.7368772177,-0.0680074081,0.2882966831,-0.5190647529,0.4754601405,0.583434232,0.4917693419,0.5988479734,2.6359099542,0.1886215864,0.6119938839,-0.222312411,0.5764108624,0.5900067189,-0.9483871308,0.3130907164,-2.8676727416,0.587138797,-0.6071062547,-1.6822850534,0.9329790974,0.389579979,0.4297236353,-0.0180273593,0.0083808731,0.6362152403,1.024835811,0.9957191691,5.2992504782,0.2250976654,0.4063842319,3.0673870337,1.8223612877,9.9697247223,-1.0264404074,-3.2559447209,0.1128842332,0.0267602884,0.4142959235,0.4487537455,0.7372386882,0.3487727332,0.517047189,-0.3030801355,0.0627363858,0.1619761584,0.8133450687,0.273075289,-4.4659834188,0.7595658898,0.4428841871,0.4156764383,0.5518319638,1.7879708473,0.0129156934,-0.168748951,1.2991544058,1.6910780189,0.655796292,0.3763392286,0.6289709126,1.5698152682,0.0169412019,0.7092493532,0.4361714277,-4.8692897002,-1.001565115,-1.2116686934,3.8991450201,-0.3336179335,1.0380261829,0.3518222646,-0.7974519349,-53.9679822373,0.9176514246,7.4238907603,4.215772747,1.0122859009,2.0394628641,-1.4106523508,-0.3514891065,0.3423147821,-26.9846445684,-4.7307953248,0.1600617123,0.5059769444,0.7868975246,0.1619678792,-4.3926794288,0.559979552,0.5205799657,-4.6522018925,4.3536510495,0.2081309074,-7.263237481,0.380525165,-0.4894696366,-0.533291147,-0.9202971131,0.6377483759,-0.0493477595,6.6346987721,-0.0224089905,0.788260084,0.6464216733,0.4253940029,0.1298793541,0.3277454088,0.7790511207,0.6295095415,0.0252247758,-0.3495109879,0.7066741618,0.8953209991,0.1809401448,0.1648356069,-0.4351302303,-16.8909605229,11.4193501049,0.3200475925,0.8574422638,0.7212816221,0.3810110177,-2.3558405623,0.434982812,0.9808743511,-0.1013634192,0.7994720747,-1.4112082242,-0.5817667895,-1.9247531306,0.5300476372,-4.7001804118,0.2244321858,1.3472254265,0.5406105041,-0.8300779216,0.2245217611,0.1354883319,0.576995775,0.3208957384,-0.0069832256,0.244203381,0.8383634813,3.4076970379,0.2359962736,0.4083866373,3.2491114658,-4.6225431944,2.7807412263,-2.0244102545,-3.2015667575,0.3639416675,-1.3872853574,-0.4829532986,-0.2754744253,-0.9830869619,1.2567825129,0.6397871618,1.4688679542,2.9276223252,0.2777379552,0.2362515148,0.7886351986,0.0651230161,0.5825106035,-0.0838898881,-1.2030692614,0.9401608567,0.2247285362,-0.3772443494,1.7795903317,0.4832866614,-0.3054777514,0.1803289953,0.1657137625,0.1979621482,-0.0117993665,1.0042210645,2.0028506455,-1.109164048,0.6012116422,-1.1458660367,0.9353278805,0.9989099149,0.6101634868,2.1899631844,-1.7624475633,1.0302640172,-1.784080459,4.5535965224,0.4457279679,-3.2438693085,1.3922316223,2.2727927679,-0.2206791842,-1.5297408015,-1.0026872507,-2.909534887,-0.1395782675,0.0914540651,0.0228409044,0.0180807939,-6.2174811434,-2.0960100496,6.2933797344,-9.8626673856,-5.38654428,-5.7691676224,2.4431131971,-2.9827965322,-1.288503051,-0.6281718691,0.341689539,0.5628877772,-0.5950528809,2.4150564943,0.7470554456,-1.5331760059,-0.8309580517,0.6145569134,0.1790244364,-0.0369978446,-0.9906205017,0.3166741292,0.2252930135,0.5969060403,0.1137446413,0.510851877,0.3059937882,0.7679676084,0.66592194,-22.8702515392,-0.2787753973,0.6880511316,0.0730315276,1.2692435043,-0.05525408,0.475286685,0.5493957964,-0.0864124884,-0.9706863999,0.7800414113,-0.3071767232
##end
biasActivation=0,1,1
[BASIC:ACTIVATION]
"org.encog.engine.network.activation.ActivationTANH"
"org.encog.engine.network.activation.ActivationTANH"
"org.encog.engine.network.activation.ActivationLinear"
