encog,BasicNetwork,java,3.2.0,1,1429959248890
[BASIC]
[BASIC:PARAMS]
[BASIC:NETWORK]
beginTraining=0
connectionLimit=0
contextTargetOffset=0,0,0
contextTargetSize=0,0,0
endTraining=2
hasContext=f
inputCount=57
layerCounts=1,86,58
layerFeedCounts=1,85,57
layerContextCount=0,0,0
layerIndex=0,1,87
output=0,0,0,0,0,0,0,0,0,0,0,0,0,0,0,0,0,0,0,0,0,0,0,0,0,0,0,0,0,0,0,0,0,0,0,0,0,0,0,0,0,0,0,0,0,0,0,0,0,0,0,0,0,0,0,0,0,0,0,0,0,0,0,0,0,0,0,0,0,0,0,0,0,0,0,0,0,0,0,0,0,0,0,0,0,0,1,0,0,0,0,0,0,0,0,0,0,0,0,0,0,0,0,0,0,0,0,0,0,0,0,0,0,0,0,0,0,0,0,0,0,0,0,0,0,0,0,0,0,0,0,0,0,0,0,0,0,0,0,0,0,0,0,0,1
outputCount=1
weightIndex=0,86,5016
weights=##0
##double#5016
   -0.7159550876,0.7591371191,-0.4225983801,0.4591707862,0.3561444691,-0.2614308646,0.9097226457,-0.3682145534,0.5132606405,0.5069139557,0.262098603,-0.2360763629,-0.3187764686,-0.4679290055,-0.2861132253,0.6091111822,0.2228378803,0.3497095394,0.3349099559,-0.4626561942,0.8727350137,0.357519751,0.4549790701,0.8987442659,0.441575208,0.5941173728,0.6741383989,0.3400737933,0.3413389525,-0.1842356348,0.1514433228,0.4210476502,-0.3616188137,0.4128558682,-0.9250668492,0.6446077435,-0.624708861,-0.3715394113,0.419795439,-0.4509445744,0.5440772494,0.5200630508,-0.3145893881,0.3174151199,0.4799935152,-0.463319437,0.5876651867,0.5674708026,0.2001682601,0.69218968,-0.7918808025,0.4842021754,-0.2615440182,-0.3655136974,0.4667327974,-0.3512805621,0.1888046832,-0.4084719044,0.4485983927,-0.2847272216,0.6060905813,0.5004650372,-0.5541032314,-0.2326334867,0.680322645,-0.2623988242,-0.5801351007,0.3800043166,0.5921545473,-0.7457018825,0.4528938212,-0.4712751393,-0.402630755,0.9320451432,-0.1939672063,-0.3798913234,-0.5370601709,-0.2990549364,0.2398451121,-0.2099438991,-0.2631769994,0.7433965198,0.2791167037,0.2215053403,0.2974509168,0.7487513457,1.7465642783,0.1643296712,-0.3666807965,0.1301299953,1.1789100301,-19.9834315539,0.7862681078,1.2817881888,0.7075242377,0.1521207573,0.3724070499,-0.0814823339,0.3970127172,0.7202523974,0.4048029642,5.1534596469,-14.6483141374,1.5047687852,0.6255157257,0.2021254565,2.9517945249,0.753362576,-2.5139368265,-1.6814267357,1.5306959704,0.4054096232,-0.4349109112,-1.8204258518,0.8233421273,-0.0736963411,0.3002573867,0.2466426892,0.8227959303,-0.5575274707,0.0705353045,-1.1582871678,0.2378284956,0.2652706088,-0.5226166709,0.2342414459,-0.0143787855,1.241797378,-0.0102380932,-0.3245952644,1.06424228,-1.319498011,1.0722607655,0.7292961831,0.3912906619,0.6411250908,-0.0601775172,0.0535285129,-0.4671339573,1.9260871463,4.1422956727,-0.8610523641,-0.6059297711,-0.5585754435,0.3865716085,2.1445136145,-0.0644509278,-0.7709809924,0.5433408825,-28.7683660852,1.4222381008,-0.949807483,1.2219108223,-2.6295258889,-4.9079565423,-2.5198157479,-0.8925361731,5.2781452602,0.2927401724,-3.0335542908,12.1113727278,0.0226884061,-1.9360410916,0.1153949588,2.2269942205,4.6340382296,-6.5411008926,2.5590314388,0.8995840942,-12.5497602298,3.9836982822,10.3682209654,-7.8682283203,30.6276737616,-3.5991765601,-14.0851637606,0.4381901296,-2.5411389344,0.0575867391,1.063813954,3.676313728,0.7812837235,0.032029947,-1.6983771003,0.2019518945,-0.5464649661,-0.4727561675,1.7124666597,-5.2924185387,-1.9633166518,0.0487036984,2.4779819695,1.0797102223,2.3455280003,0.6707697693,-0.7785351177,-0.5645030742,0.8892834388,-13.5382415022,-9.2303704823,2.4531804808,1.1422639815,0.2880316849,1.0396399486,2.4462304557,-2.5049101042,1.0390142375,30.5238806607,0.837497841,-0.5684059673,0.6306986716,1.2313102036,-0.2142308582,0.0915205766,0.1476981782,17.9471174008,0.0741871162,0.7085619526,165.9723215447,-0.297787402,-0.1768227908,0.4219763642,-1.4211654929,4.4451100913,3.0129906502,-0.6956305069,0.1112367031,-2.0128730396,2.4158440917,-1.2339991456,-2.7890117935,-4.2807274947,-5.193336647,0.258691098,0.8393372345,2.2697432474,0.0575287023,0.1872616558,-2.1746813563,0.282526353,0.4011435548,0.6318622089,-1.0546927247,0.2937260906,0.1598619488,0.6965136773,2.4170195482,1.5989523121,-5.9394006033,-8.9053834219,-0.4499454791,0.7645746315,-0.673550918,-0.9767757839,-0.5536608176,0.6373262681,-9.2118490075,8.8130335304,-3.1063998234,-0.1998141707,1.250949324,1.0435744005,0.9890185344,-0.0345448919,-4.2630472768,22.614457149,0.2363602373,0.8042168268,0.617427045,0.8013765086,0.2178916356,0.7440340213,0.8576140326,-0.3813462041,-2.9264721049,5.5932268822,67.0804079006,0.5339583831,-0.0097396966,-0.9323622738,-5.693025015,9.4935455633,4.5550523789,2.2247647476,-1.4553342588,0.0097352461,-8.2988811032,0.4995033101,13.6243635616,3.1612549197,-0.4533878305,-3.256133085,-4.9390263891,0.216097463,-0.2117862654,-0.217003059,-2.1564822885,0.2513867969,0.2771805541,0.1011613655,1.3069286228,0.7916777828,-0.5496356743,-0.6173285231,1.7092995934,3.2647247082,0.2862237582,11.6490923765,-0.6781650693,-2.6316808508,-0.1845364337,0.0565761499,0.2439845088,0.2489743605,11.9088123931,-3.9997720417,-6.8787656813,0.4266490683,0.7403735651,-0.0015926902,-0.3461358493,-0.5234754653,2.0994707275,17.5861406858,0.6410301274,0.3248740484,0.7867293251,0.648402201,1.5678349221,0.3813342819,0.8980247209,-5.9041484442,-0.2142946754,-18.9939882274,-157.6112930247,-0.528584914,-0.1381063554,-3.1381779151,16.5769946543,-10.1257747352,-7.9449934854,-9.2374660351,7.6357740384,-1.1545692077,0.5884655163,0.0563786952,-1.0614663977,1.8260158387,10.8980717098,0.291430443,-6.3214801942,0.1759932511,-0.1543336854,0.0544397667,3.2528255694,-0.4968713822,0.101303653,0.3547826966,-0.1539893656,0.9113518785,0.2163815423,0.146275001,1.6224154975,0.8070170296,-0.6886454398,0.3469294799,-0.7199248497,-0.2258173409,0.6796665943,-0.2737331748,-0.3070056349,-1.2439558077,-4.3615665105,-3.0370510125,0.3548507179,0.3125797261,-0.1202185763,-1.7103975152,1.2698081868,0.4820572227,1.0454296902,-3.3714429183,0.6196047305,-0.1803683444,1.0726186163,1.7055690336,-0.9744369012,0.2157874581,1.1745614486,-4.6504860568,0.6766873151,3.1271136188,-250.473910204,0.8256899608,1.7711071946,-0.8511253698,35.4094511591,-8.9385555499,-4.343957686,-12.4333659998,3.7674742882,0.4503990834,1.9986157664,12.1825952741,-23.8558338018,-1.4376529436,7.2296791456,3.0549350058,-7.0492954545,0.2399049079,-1.0379645563,-1.6075892394,1.1446920258,0.6848878286,0.0768224639,-0.8795667513,1.2204401084,-0.0079110271,2.1970820242,1.9785206055,0.3762274626,0.2173790048,0.2470374158,8.8584760228,-3.2257386047,2.9083740135,0.0190758434,-0.1879473055,-0.2744391376,0.7796762079,4.9328756728,-10.0991279488,1.4437037213,0.3902497958,1.0688595436,-0.5641438724,0.1450762764,-4.2156755321,-1.2176128143,18.0711018523,0.6286049062,0.432586424,0.9090466097,-0.1175995512,0.0378932345,-0.0077543367,0.074870586,0.106000614,0.5102274843,0.4940772742,-5.374343015,1.918097533,0.661661997,0.3555123907,-4.1439696134,0.7076557058,-1.7788202178,3.5687046038,-2.0026340877,-0.7455389215,0.2922326695,0.9280729046,6.3859945144,-1.3925373198,0.6755054414,2.658339379,-2.8393019544,-0.479256393,-0.112233665,-0.3424519356,0.2754075042,0.0442351039,0.3842707678,0.299366814,-0.0976753201,0.1690911004,-0.2606838334,0.8335215266,0.4655199045,0.3539200243,0.0994438645,-1.8904559025,1.5457325773,-0.2357554237,-0.335089102,-0.1254914317,-0.0216955424,2.3176978151,-0.6991608852,-2.0989651299,1.3210321876,0.7958501123,0.3425054758,0.5660693738,-0.3723168551,2.0949306387,1.6332156492,-31.1715806228,0.5104084027,3.2101550075,0.5765679779,-0.0967132686,1.0641641961,1.2663465241,0.5901983909,7.3427873754,-2.7268294669,71.4945981176,-112.4269012458,0.8524034948,2.1230363598,0.3456599845,-9.6448594887,13.0022095467,-1.2329701341,-16.7031703649,9.167623212,2.9341695029,2.7657859209,1.5921460794,7.5595918933,-8.4231277472,-1.244537936,-0.3714449539,3.9547155411,5.7010863198,-3.2859860896,0.4847520714,3.602884878,0.1305628192,1.5342252818,-0.6896954126,0.8425454385,-1.8767802339,-0.7402816246,1.9712204107,0.4387918421,2.3596003209,-0.7893708113,-1.581814821,-3.2207282158,8.1583536305,-1.2669173957,-0.239306441,1.0518072134,13.1733386257,-25.3602577736,12.0794070016,-3.8441403425,-0.0604830577,0.7462987419,0.5312768026,-1.1005935295,-2.0035723295,1.4410290771,-11.2569469154,0.3159938749,0.8571055879,0.470343935,0.5282327795,0.7866088987,0.6624119632,0.4474921269,-1.3827872756,0.5373905809,7.3019181342,20.8790080706,0.9167566558,0.5240053995,-0.0085132387,-7.373693235,-3.8105707998,-3.3085392542,2.6623310865,-0.417719056,-1.5370249567,-0.6126554045,-0.5831523753,3.1402249783,1.15807245,0.0532155776,-0.6218599527,-3.5893577619,-1.3343425544,0.6245513706,0.2891375217,-6.5152535711,0.1743893545,0.5742140894,0.4972836188,-0.0821214855,0.1563799056,0.452718378,-0.1727551328,0.5900873509,0.0720481871,0.6703840749,0.4050821274,0.0139523384,0.0749110555,0.1932367152,0.4243744905,0.7449736348,6.6294353347,2.5056717082,0.0519334018,-3.6761877487,-0.3356969692,2.1651344805,0.8244482573,2.1628988256,-5.3058733954,7.4047350417,-45.1005071905,-0.317976177,-1.0953274382,-1.1994889052,0.2994687045,0.3755678487,-0.1345687846,0.3517112187,4.4906717714,19.6098998845,-6.6903178929,68.2333682086,1.2296430184,0.7931522709,-0.0837330504,-11.3844366509,0.9189641568,0.8085479652,7.896296568,5.4063308607,0.4500152042,3.025250851,13.3391718418,-12.3082778863,-7.2063113514,0.1605666759,-4.5496871999,26.2438064749,0.1501470068,-0.3224579283,-5.0779869893,-12.9949756307,2.2314580113,0.0693871026,0.827635241,-0.1846376121,-0.8820675911,-0.1652915698,0.5990989946,3.0295290185,1.4181058315,0.8031240589,10.5903048051,2.0020301743,-0.3275347922,0.5539565405,0.1619439332,-0.2634218543,-2.6630343718,4.8200971561,-8.6810693776,-3.3861054098,-1.6791644135,6.0232179238,-9.4631609537,7.1153058329,3.5687016582,14.0479510503,-87.4609951596,2.1890460117,-0.0708722094,0.3261232763,-3.1784427324,-5.9712898712,-6.4470276599,-3.503446739,0.2313848049,-3.250319843,50.5541971998,-44.6332620949,6.4220572479,1.3401041405,0.1091131686,13.0415031564,-16.8407607805,52.0608320478,19.371128287,16.2933217254,16.3437608325,4.9523400345,27.3444083915,21.9092762903,-15.5534345594,51.3085120125,-49.0161758149,-14.8394816272,-0.8762368959,-0.7936189669,0.0129481087,10.1541962553,2.5166919471,-3.8345087154,6.0942462129,-4.5152167737,-4.5356712422,2.321191304,0.2165993383,18.7525535137,-7.5132192742,26.5959256241,5.7713990056,1.4444199976,0.26582106,2.9473618782,-4.1674209694,-1.8721730872,2.7230503878,23.8581030123,-25.6781477881,-12.6622881415,0.6478612883,6.1049482558,2.7500618141,4.0599328883,0.8324475255,2.2384684427,64.9919227339,-2.4086406287,-0.0570728348,-1.062184887,-6.0748550717,1.1213264389,11.1155206685,3.9733159732,-6.1759670923,3.2048152676,103.4744854889,137.536671498,28.880589067,0.6234477175,0.3780024459,-8.0393237973,15.853021867,17.6840222962,60.9882425707,-36.0919388215,-56.3581196499,-66.4652099854,97.886134342,6.7025265597,4.6645861823,45.2635488933,-46.9960531525,-24.5027741478,-3.7315858264,-10.0161309837,-0.6343484559,13.0671282587,0.9688596506,1.3238206252,8.7089901635,3.1225691308,-5.5933607605,-2.6463234162,-7.9034894642,-5.2280805639,-1.4213952957,-0.1203737932,-48.1263612114,1.1874612457,11.5936823309,3.5425533094,-0.5632651455,4.9970300294,1.2953827454,-6.1780467221,-67.1304514827,17.5243078312,-3.2418432354,0.9509595884,4.7861202452,2.3088396403,5.781135966,-0.7848934265,81.2366110117,0.775014926,2.9218748935,0.6097526743,2.1951655465,7.7455993953,0.565922585,2.7154609641,-29.8001497307,14.5785229404,13.110875268,838.7078503338,15.2408880312,3.7704223094,-0.4036699674,5.5043331334,-3.1932383664,16.2466150449,-8.6639837079,-9.042093458,-14.8454274546,-8.391438808,43.3842129773,38.617370078,19.4481574483,-17.7969517271,-28.7949802648,-13.9078497428,-4.7521775091,-1.0120779439,-0.834469592,-0.5434580206,-0.4834368908,-0.3555266843,-4.9448566645,2.2176453047,1.8072866348,1.7510902626,8.6317006082,4.7161805556,-0.9249636292,6.5713354876,6.2415223761,0.0446047217,-5.995653767,0.3703917179,-1.5228590108,2.976074344,23.6551420053,32.7196868111,21.2700379885,19.3993456255,-0.2562679601,0.0714351578,1.3910879205,0.6304533309,4.6413366505,3.5849164302,-3.2721633418,0.3981785484,-0.8034606561,0.6272951119,1.8605862184,0.8013377216,0.4887385287,0.3606504988,14.5456109227,-4.3331649007,-1.4442092261,-110.5745270775,0.8844299111,0.5788342187,-0.0089133962,0.0624575877,-8.6441859787,6.014620552,-2.57535245,3.974752871,-0.1258354504,-2.5226615894,-4.3870725814,-0.2858455296,2.7842154858,3.6902653256,6.5854930689,-3.0393267668,1.4010483619,-0.2840197663,-0.227263782,-0.5136578827,0.0756982205,0.3764710404,0.6510494573,0.9898420609,0.5069678092,0.6034118612,0.1895495968,0.3340393874,1.0005753146,0.801577085,-0.1262752778,0.1454125869,0.5231021204,0.6196412699,0.6847198591,-0.0180840034,0.0159207741,-2.6096023402,-7.1712394242,-0.4772726329,0.627017485,1.0591654178,-1.3716414491,4.0322689801,2.6224100539,4.6856521894,-75.6431917348,0.6499720321,-3.8931880497,0.455636106,1.3929523571,0.348400878,8.259990976,1.9194177726,23.7886904267,38.9324181804,-140.2033210016,133.2876719917,17.4150160435,0.0592949382,2.6979615936,12.6742716158,-23.3110244634,1.3256569948,3.9588497761,-4.4560005584,2.7324338061,7.8960941017,0.2209160525,-28.212407826,11.1402191301,13.6304634522,2.9029943831,-0.1181262395,1.190008445,0.5599306862,0.3148902454,-6.5857018626,0.5506556389,0.5215717049,0.7653279053,-0.8658979409,1.741353587,0.7557311625,1.959592322,3.6302065302,-0.5559307634,0.0657618868,-13.2174131292,0.6759634963,1.6039384472,0.1236528354,0.6073168077,0.8729055144,4.9742788063,15.3057808357,1.7705903658,2.7532365678,-0.1946811772,-0.003184142,0.6657656282,0.3936946979,2.803232504,1.2794241736,-7.9857824672,0.6071492412,0.0220067316,0.3771056409,0.5506463381,0.3943710573,0.2202222473,0.1249545296,-0.0115362929,3.0718589988,19.368661779,-66.9617603485,0.6876136113,0.6827638333,0.3095688337,-0.2572175217,-2.0141527513,2.2792220229,-4.7011816822,1.7410186465,-2.3054738802,3.8237309833,2.2391829861,-2.3887276573,2.8722254,-3.834868031,-6.655644085,3.4905835862,0.4182025247,-0.1097882671,-2.4018203334,4.3332422682,0.0941835949,0.6103347937,0.758548868,0.9908631952,1.1696732614,0.7269921891,1.244223191,0.6355918223,0.6993035148,0.4585889877,2.1327675096,1.3359523295,0.0814528399,-0.2073274745,-0.6123466422,0.1901009691,1.9685512078,-0.389168555,-3.4654277595,3.1917100405,-0.7247482677,8.2860476833,4.5458176666,-0.621859668,-5.9300579026,-8.3137297196,259.7736686286,0.2996483831,8.2067739824,1.326254108,1.0718811907,-0.3503730066,-1.316846308,16.1354786044,-10.9406619439,-31.0161002137,-33.5937661047,93.2354189706,0.3121547801,0.5148960831,-19.129065356,-0.8037063382,-17.0734151676,26.3218825007,16.9123609883,15.5338243956,33.527747793,-8.8082938224,56.0529454797,-9.7995865923,-111.094740329,-11.3545648097,11.4453928043,4.350077463,10.4794931056,-2.3736949557,-37.324217336,-3.0232751014,-0.4802052838,0.1572099772,2.8856320622,5.1157319483,1.8683710674,-3.3998741433,-0.4249140222,12.4682855511,2.8127490351,5.9096052653,67.4811546592,0.8349003136,25.1765785375,8.3344702659,2.3964844211,2.9976146477,10.6704119533,78.4597288231,-22.6000665984,15.193175232,0.3747899549,0.3438006744,0.2347994498,-0.1119134923,4.8029560517,1.4748717072,-29.8379659043,0.6286533177,-0.6027757576,0.2635864348,0.7587390665,-0.893126985,0.8399711189,2.1486983301,-7.5103575799,0.1622286585,72.7598427677,80.6837904354,0.1301734735,0.5928381219,0.0848859469,-13.541683476,13.3525604575,4.183649072,-2.1254297467,-6.5843291561,-0.2819030283,2.4299745012,3.0076025151,0.88120799,2.638573058,1.1882676662,2.1243180344,3.3276232262,-0.1743033885,0.5601545105,0.671217858,1.3920901972,0.1384591668,1.3250397604,-0.2555374193,-1.4043026442,-0.773127939,1.4446937439,1.1689584424,-0.4652414446,2.5648992992,0.7183189519,1.105328554,0.3621336165,0.4411320323,1.2763409481,0.3522342425,0.495895036,-5.3143649442,-11.8384054962,-3.1171448701,0.8736916726,0.0005106654,0.7134721032,-0.5327174896,0.3164899123,-0.1656693912,-3.2389328377,36.3643978377,0.8588492233,0.2197380147,0.748851672,0.219514004,0.2462873389,1.0009958568,0.661270967,-1.6221321811,-8.1966035134,14.5642530142,36.6137461079,-0.4413713459,-0.1655764592,-0.6853282183,5.8815022194,15.2143497515,1.5460432985,-11.9582102992,-4.4288252586,-3.7672987393,7.3814742376,6.7996587885,-6.6754229093,-2.9674046454,1.6351341597,-1.6766158085,2.7610122104,1.2453076363,0.8303113892,0.168766866,-4.0479735619,0.6978011741,-0.6388250328,-0.4816087961,0.0170086714,0.9431135768,0.652197405,-0.3306729465,0.5818884597,0.3579156036,-0.908160754,-9.4278482358,-2.1597542576,0.3927333257,-0.1023899462,-0.5727048089,2.3771061004,3.2993661628,10.8658253515,1.0278366652,-2.4234449911,0.6265585583,2.4234529276,1.7099249032,0.7645377081,-0.6747043037,2.700452675,12.8667675832,0.8090849344,0.97094033,0.7186374927,0.4514689851,0.510039383,0.7708802207,2.0698482293,-1.1176202971,-57.1084720307,58.7269342164,199.8972589711,5.517044763,0.4870237735,-0.254331873,-8.7008838056,5.1461587075,-5.0272679762,10.8232886415,2.0672379121,1.8760971503,1.234222336,-0.5282008394,-5.3494376635,-6.0691188705,13.5227445163,17.9019671722,0.1414902606,2.2050946148,0.3274665392,0.4198968893,1.8108413787,1.0041804502,0.9015224325,-0.2333580669,-0.0401610263,4.9881153829,-0.1012238787,-0.6631162456,0.3437225424,3.1765875008,0.4874000578,-0.6754370655,-0.1946466543,0.3438841658,-0.2294336892,-0.4461480226,-0.7548931225,-5.4089707307,-11.4723716816,-2.9738876211,-2.6959054615,0.4420008048,3.3134357756,0.2599890536,-0.0962969261,2.678032252,0.9894582053,10.5764299276,0.3538275892,0.75134676,0.2768684884,0.7269061723,1.0748584613,0.7414354798,0.2827778282,-0.1562152436,16.0771897594,35.110707447,-105.0568824994,0.3641905466,0.7396348334,0.2571130209,-0.0199641188,2.0897183058,-5.066811425,-5.7690033939,-2.4619232669,-1.3060062607,1.0439910076,-0.5685331553,-5.0172558305,-1.2540825962,-0.9492880999,5.3469291224,4.8642043732,-0.9110968313,-0.5657311618,-0.2886166602,0.0167814149,-0.0856089514,-0.2924199969,-0.6382942975,-0.0885153857,0.9122588517,-0.1420076338,-1.0290957883,1.3876204562,1.4805811272,0.3265604646,5.200807901,1.1404804136,1.8938869535,-0.5690742582,0.3820925409,0.0993992908,1.3784827074,8.3545373219,-4.8771298005,2.1592279842,0.5072401956,-0.7411598771,4.2664478808,0.3131517368,1.3212379453,-0.8053541008,5.7449515846,-0.1472706873,-0.6968925837,0.7763781581,1.8361119605,7.5994559958,-1.5692773429,-1.4334279404,0.7755526114,7.3342476747,-126.116453041,-214.0067788008,-0.2712558292,0.3936246422,0.1251606184,2.8480883026,2.1442626949,11.5068759022,-6.9522829409,2.3578824569,-3.6105236077,1.0098190411,0.1086133342,-6.5074341171,7.1389130214,1.424571689,0.5254092712,5.5946703924,-0.8182884246,0.3194494053,2.261981306,4.9129737185,-0.3856074864,-0.1694288251,0.5311920126,-0.4389640474,-2.8921135752,0.2601065707,4.1205245378,1.3813793286,2.9798543939,2.4982527079,12.0299005092,13.2639940971,-2.0043413802,1.5007690787,0.3340682238,0.357986379,-2.2559931227,-3.3154411314,-11.1397756513,1.6493016958,0.5613028464,1.5943800121,0.7933302771,-0.2897585221,3.9548935951,2.7162573353,-15.7734091603,0.4115178069,-0.1092306466,0.1977352025,-0.2387525587,-0.0559856178,0.5937490726,0.771804343,-2.402034565,-1.2442845451,15.3717767991,123.2522289568,0.488632768,-0.3930120502,0.0023064029,-5.7869226424,-9.2579422028,-12.7212441866,-3.762592602,-2.3024510678,1.7462458908,-2.8048507987,-4.5879753174,-18.7762124551,0.2936442175,5.5051322398,0.456078983,-1.4943427089,0.9178187766,0.1771313432,0.5194027218,-1.3944375179,-0.5441143048,0.3247804346,-0.000621659,1.0640862334,-0.0866209724,0.2801946132,-0.5150547747,0.5553245317,2.0249672047,0.5032215047,0.5059209618,2.0124609112,-1.1608866008,-1.0781067596,0.2177084443,1.9599248886,0.2652328897,5.8319718584,0.7522907116,0.8640562971,0.5790663253,-0.2077021561,0.2131072546,0.8967240482,1.6158524612,-1.3207773536,5.4947260072,0.757304272,0.439890688,0.9798386875,-0.8063962336,0.5742099436,0.7568504551,0.0907344929,-19.1828631,-0.9469326437,33.9930221622,42.7711416158,0.7283118994,0.4556750277,-0.633182395,2.4911473726,-0.1307229016,0.2881359908,-5.1523384412,1.587580599,3.9573245971,2.3146979483,0.0146532565,5.6705874348,2.1368572087,0.7044215371,-1.2361066202,-0.6304945219,0.0543464692,0.4375287505,0.4159544524,-0.5186502742,0.0471491357,0.2567002118,0.1505062591,-0.7278859475,0.9715940749,0.113688144,-1.6578566261,0.2226324541,-1.6369999305,0.4480057539,1.6754385778,0.3008735327,-1.1571825131,0.3090266481,-0.4106643996,-0.1771103056,1.5058501591,-2.7381685115,-0.400320631,6.6909547755,0.7856185611,-4.3460326553,1.8529617788,2.6461480154,8.034733636,16.6552413016,-39.5028589536,-3.0373858905,-2.2220585992,-2.7215175665,4.1683108421,-5.4483917364,8.135875194,3.0226250042,-40.3934494624,124.3090955332,6.794789082,215.6273671368,-0.01560937,0.0073347402,-0.7319028397,-5.8888092238,6.8652533639,13.4978057441,-21.7407355246,15.4264298717,-1.4304833841,-5.4034754557,-36.7717105014,-54.5395755104,19.8638252318,5.8767958008,-18.4833388531,63.3139230249,6.1300336385,-0.686148812,-4.8627361591,-4.491148071,1.5917748061,0.3218681941,-1.6047734762,3.7658992948,-1.6739394825,0.3667707088,-4.2630018857,-5.7242920788,4.6416237247,-0.6476827443,-26.1934043833,0.133692957,2.0317035357,1.3607049178,-1.0587030322,-0.1149137837,-12.940391574,7.5322006493,33.2884733731,-4.7706767403,-3.0326240046,-1.1110356426,0.1345967442,-2.3678199565,-0.4630968064,2.8885944561,-11.4374461008,-0.7634955536,-0.3891896617,-0.8802242781,4.8928719521,1.0422604711,1.144180131,-2.6023730687,-0.374798388,-0.8712699067,10.9589593909,-122.4809517707,-0.1402217889,-0.0616253162,-0.072624597,6.2984594727,7.1138327187,-3.7927194765,-0.8072708159,-2.5284184906,-2.7618687725,1.292699564,10.8894894781,4.4769401928,-0.5558449984,1.8053460041,2.0962489049,-16.0836931785,-0.4268043935,-0.1501195551,0.2765975116,2.8259011876,0.0907340483,0.4389871675,0.0686227718,-2.1910888559,0.6833855509,0.9160644043,1.7317602093,-2.97155641,1.9285758622,0.7901074595,0.1768736389,0.6225926446,-0.5708099649,0.0150726827,-0.05126284,0.7131115074,-1.2575569775,-5.9889141945,-7.4453196802,0.1418528832,-1.4950540473,1.611181021,-0.0743318936,1.9831852167,0.6787698828,-0.3591120515,4.1333309487,1.0042428048,-0.3164437102,0.3416442222,1.6065047597,0.8927270766,-0.7689603591,0.2844517127,0.5402986612,64.7887875722,0.6608540653,-50.6501950794,0.8214810167,0.1936374566,0.4242149745,-1.9401720048,1.5078589784,5.1798766539,7.9035007724,-2.1293578727,2.5173514439,1.520029378,-0.2566243797,6.4794637351,-6.997607265,4.7540748223,5.1601669723,2.3180145141,-1.0540089998,0.0517647332,0.0836568448,0.5683569904,0.3593003862,-0.5078759316,0.4183757857,-0.2435844909,0.5969271339,-0.2210173393,0.0844837485,1.1070929076,-2.0315803854,1.0054175168,-0.7133783138,2.926034496,-0.9254791009,0.2665792263,-0.2016559789,-1.0158381164,1.5483618905,-1.3547701327,-1.5713323522,1.8857269907,0.1597981355,2.1322751239,0.8211359417,-0.7639246316,-1.139770871,-1.4474954232,92.3676949205,0.7585236959,-0.9596556787,0.2094434333,-0.200924752,-0.1013780302,1.733577157,-3.214429438,-16.9903314685,-0.8933249626,90.9198105012,478.7589375534,-3.3933468839,-1.2667033951,0.4010977813,17.0791021631,4.5261926192,5.7178625036,-4.0886978829,25.3801387246,-5.4695577712,-0.1203200132,-1.0226723372,9.0150034718,6.6403613332,-0.0709891703,1.7104358093,-3.0801153235,-0.3256770749,1.2581298842,1.7744017364,-0.0354267002,-0.3085097686,-0.0657395246,1.1485857033,-2.3277936164,0.3918891756,-0.4271902003,0.9505790103,3.9556878282,0.6861461428,0.5795656981,2.7198270833,0.0250434378,5.2794799371,-0.6092915857,0.352717119,-2.1845340583,-3.1210176242,-6.5846574152,6.477519502,8.8519367838,-0.0602442817,1.9109384585,3.1566624853,0.1317298253,2.2480643729,-4.9101041698,-19.9115232188,0.5309635393,-1.0893482703,0.6308744236,-0.2922137397,1.0187970392,4.1745222631,4.565487101,-8.4361459576,1.5066466922,7.7532036631,-18.6119341523,0.62127131,0.2986850225,-1.1079931093,7.2144767207,-23.2444607958,-0.421679697,-1.9299180925,1.2361837707,-4.2415543073,-0.3352682923,-6.0560791221,-3.584432416,-10.2179014993,-15.8280578742,6.8674988536,10.9266901905,1.4607925077,4.6231996519,0.5401212882,2.1525719537,-0.411627954,0.2087998939,-0.6116466148,-1.4614549192,2.1972262739,-0.4820533219,1.6135712454,-3.0780354878,0.4936032814,0.4540247041,-2.2991591286,-3.8498916057,0.3582701718,0.7492299238,0.8867535446,0.7795209686,-2.8028607334,-3.5469875598,25.8872041735,-1.3291068679,-0.4089037189,5.3567229444,-12.2070101552,13.045404479,-20.8517471351,-62.9575930188,382.8187550224,0.1738328851,-5.3703528531,-0.2801555877,-5.8136869708,1.3895808479,-2.326431012,22.0799495779,54.3338143886,-164.5227350432,-186.4633981827,-188.4457012131,-48.1979694303,0.4531534663,-32.1617481421,-16.519671395,-63.4793335258,43.9457579186,159.2932175976,-192.0554138807,-11.3586866743,142.7378968148,-188.0270700152,-79.4428618931,20.9012350454,-66.8347073546,119.1018108188,-96.2517814518,83.8428919646,-0.1449684726,-26.4965308363,-5.0308260276,12.5944826003,12.2048919753,9.5235608012,-3.675410093,-5.3337924129,-5.9026022514,10.1320956501,1.4008740994,3.1313122032,-0.1672507926,124.6337727345,-3.5426044545,68.5770593593,0.6311076638,11.1294495727,-10.8172087345,638.4260369089,-53.1852712224,150.7284635931,10.4713031242,-2.1016461866,2.2681407408,-0.2343286565,-6.3960856881,37.3163805564,-0.0621961634,187.0573396897,1.6544142948,-4.3250974037,1.1368415676,-4.574217051,0.2162083008,9.1850008605,7.5666535287,67.0038003095,20.9237678617,184.4226614886,542.6170112073,-4.1442292614,7.7615320112,0.4070505829,9.6863068487,22.9413492079,-13.4940661495,-21.6380092834,-83.0636121188,-23.0292748918,-2.9701502556,4.0357231669,2.654084796,8.9304949541,-2.6822977365,5.0428804839,22.7238876672,-3.972855563,0.2732750124,-1.7556579946,-1.825606235,-5.6792398924,1.9407014644,-3.8198641427,8.3254902363,16.0244262571,5.1024036079,-3.3501653964,-15.1549939957,-3.6903814842,0.8663964728,57.2599639766,3.1441731146,0.6214210792,-0.8284472334,2.4499096399,1.113735778,34.2038754335,-76.0251874029,-17.2520711986,-9.7860461347,1.4164399026,0.484542737,0.3486622467,0.2860823133,-0.4157895139,-1.0924462151,19.6750912872,0.1971174835,-0.2279058034,0.3155501057,0.9244789469,1.4970447678,0.0818302203,-0.0877125535,-4.4376139619,-0.6800106697,14.9873363802,19.1276203219,-0.8794130076,-0.8216961494,-0.2990261258,8.5320449237,-11.6268399848,-0.8869000432,-0.3670444533,-0.9590892091,1.97507707,2.1462717532,3.4758503579,-2.5027467815,8.9519227807,0.6674402499,-1.7018548571,-1.4825402905,0.0589348864,0.0290862415,0.5518949203,1.3075421931,0.3120037082,-0.0857099444,0.1618640655,0.3375791366,0.8424836985,0.7195828429,0.5581854025,-0.1528833668,0.0082018523,-0.8702642222,-0.2616063431,0.0779789655,0.6091973316,0.2298351046,0.0028367935,0.2653952608,-0.0718856907,-4.9440383048,0.5619073764,0.2333752453,-0.571768335,0.6808576252,4.2217719671,0.2694618309,1.1363615983,-5.794612101,8.6437804281,-0.0063015104,0.1267570737,-0.1744829289,5.7970510514,1.7091431989,-4.9758494664,1.2587623948,1.2219311325,0.3267402147,1.2179431613,-53.2933750459,-2.6992888139,1.007106759,0.5511371578,0.3756356289,10.1101583546,5.0739260997,3.0402925387,9.7965201912,-3.9692789081,13.3766852268,-0.975611181,-13.6468209138,-5.6224877239,1.5963892873,8.3206425731,10.6136771202,1.4729749843,-1.443529004,0.4605203132,24.537903006,-0.7067291679,-0.924328992,0.9616934387,-0.2004395537,-1.9304972577,1.2442357382,-0.1610191393,0.7169298214,0.2114786589,0.2547184493,1.6052131719,0.2593251516,9.0772131177,0.876573733,-0.5645252988,1.3661125978,-15.4712837379,-16.0268631531,20.601078049,-4.6756564059,-0.5692384084,0.6877950429,0.6148602367,-0.1906447317,-3.6141102961,-2.4015075071,-21.2148190255,0.4713309206,0.4942107295,0.7865919854,0.3965343634,0.0182899362,0.7509845844,0.1761099284,-0.3228082582,-2.7361733509,17.8107175667,-88.2214399501,0.2953987502,0.8973278918,0.2560102572,2.3173987737,1.8326321448,1.6074921841,-8.4679583806,-3.6959309637,4.5802678789,-1.3217015922,4.7123409519,4.8472056081,-10.5578692152,8.590149302,0.400922356,-7.2793147077,1.1561266203,6.6787703728,0.9055361007,1.9254553285,0.4204654433,0.5788519342,0.2167901509,-0.0218437341,-0.2811030275,-0.4731009991,-0.0744446193,1.2046995799,-0.4255550904,2.0759547775,-4.448380116
   2.2462135548,7.2635924708,0.2205836139,-0.1082103312,0.0597091794,3.0553473073,-3.7580459523,3.0409691591,1.0553015546,-0.3899147203,0.8541435641,0.517229284,0.2607989806,0.4907930501,1.4727472628,-5.8110784437,0.8381980483,0.6405302196,0.5215714205,0.1344541481,0.4064462514,0.0001638911,0.1795759101,0.048725915,2.8526663936,0.7092958051,8.460178765,0.6902978145,0.6077586916,-0.4624668323,-0.2229878228,-1.4183556726,-7.6883824934,-2.3261497757,-0.480632956,-0.7590214033,-0.3315303753,-4.1356057024,-6.2397649413,1.5980413608,-0.5925990976,0.3058745926,0.3544745284,-1.3666919192,-0.1048018225,0.5404598381,0.6611512977,-0.1446490036,-0.0401264769,-0.0196712943,0.0512966954,1.5047503415,0.5728004151,0.2209995936,-0.1691932954,0.8829168586,0.0014978897,-0.1967230887,-0.4828495152,2.6967915432,-0.16300098,0.464317405,0.1576010676,1.2387699151,1.1295656554,1.3579609926,2.0400315444,-0.4627192742,-0.4226183716,-0.4507964706,0.6925009977,-0.5284118188,4.3489594542,15.0361063183,-0.4013059637,0.9459628741,-0.0432257338,0.6627010173,0.0104410625,0.3830824526,0.2567963698,0.6902654964,0.504723083,-0.9290380246,-6.6888518489,0.3871399839,0.1483272296,-0.2471428338,-4.1187928823,4.1533016272,-4.6671682567,4.433482899,-1.3695295267,-1.5042064564,1.7124552326,0.6132488292,0.2625816081,2.9430043552,0.2581580504,-0.4268809708,0.5478381698,0.2621819645,0.132493911,-0.692571262,-1.5810429596,0.1434676476,0.1134795812,0.0180269728,0.136800669,-0.473994773,0.7326853457,0.5960827771,0.7500569482,-0.16282869,0.4008412574,-0.8440100349,0.0796497209,-1.2789031641,0.2264138313,0.4024418556,0.4979169794,0.1778099395,6.1019009237,2.4394070173,-2.7010310378,-0.7195416902,1.6224296498,-0.2061667117,0.1349034297,5.5798113436,-1.7865672668,6.2706870009,0.6051311611,-0.4289917544,0.3646797585,0.5091933973,0.3529564293,0.3155699365,0.1446304128,0.4173047929,-5.8775201459,0.5197497219,11.2995198452,0.0859232951,0.2634401103,0.3575790009,-0.3700111683,-1.6869400669,1.8268683376,5.2462230483,-1.2426456063,-0.837970894,0.5816205448,-1.5412944369,1.9809934873,-1.9388002072,0.3205446837,0.6175704992,1.6049752783,0.0667924498,0.2720393846,0.7698445062,2.1146121432,-0.1116521179,0.0981336639,-0.0425449029,0.2743960594,0.79879268,-0.1947454399,-0.5168606427,-0.1515009503,-0.1332854611,0.1836239452,2.0610546975,0.1912609698,-0.0229490851,0.5533966882,-0.4740902271,0.5799874557,1.604793994,10.7741376391,-3.7602949311,1.9940051813,0.2229928625,0.8292609379,-1.9201523129,0.1677763377,1.6848670903,-1.0822113427,30.0961012687,0.8961771132,0.1558364375,1.601613172,2.9363643768,3.2297039032,0.3967057604,-0.5118979336,3.1723317711,-15.8932904492,-2.5453745381,86.7407866943,-0.0997875811,-0.3626181572,-0.7870814272,6.2191241233,9.5883628714,-4.5714639812,7.1358856216,1.2100858403,-7.8703768599,-5.4011415269,3.2906690293,1.2581755818,10.5954323144,1.2123535756,25.3616138781,-26.1414335983,0.7814100986,-0.0596518937,0.8404584952,3.387128473,0.2883977209,0.5444007443,2.5782631591,0.3540959112,1.9857175329,-0.4573664019,-0.3511516848,2.346778102,4.2074343248,-0.0596073922,-0.7957121731,-0.5684083432,-0.9409097183,0.9357445458,-3.6171944435,0.0825993471,1.5677483945,-7.5311924108,3.4606841805,-2.1131674268,1.2331529425,0.4343746412,0.5262732455,-0.3880959617,2.1842486509,-1.6411333142,-13.8087436942,0.2637757097,0.7339796897,0.8247485897,0.1759781194,0.4333526685,0.3548457919,0.4230673734,0.511624219,-0.8229731695,-30.2166553683,76.321109736,0.5108863025,0.2864852169,0.5693454277,0.5634739378,-1.4199921736,0.0367210715,7.6779085822,0.7935017422,-4.4162213573,-0.0766599479,6.3566427296,-25.5097654003,1.5546894151,-0.8660255428,-1.7342482187,-0.1390776593,0.3508165432,1.416930275,2.8440205349,0.0016676274,0.5942858487,0.2913946715,0.1182530981,-0.0151956969,-0.6896163992,0.0196924438,0.2112862687,-0.0525995011,-0.3855636239,0.2031768169,-0.0982203199,1.3875769834,-1.8480972635,0.0410083492,-0.7259235628,0.2390818215,-1.0260266039,7.2057322726,-3.5345830914,0.0599495752,0.8899315,0.7343426951,0.0893004249,-0.3847877989,-2.480414332,1.9638450384,28.9962416829,0.8354612301,0.7498092694,0.615022136,0.6580018275,1.3887699826,0.7042487322,0.6711638934,0.0867182145,0.2958008148,-1.5509912006,14.537071541,-0.4625634572,0.2927724919,0.59048658,-4.1186246244,-0.0759183688,4.7190511288,-2.7151135456,-2.3109448015,-0.0881810023,10.0273183893,-3.4546409972,8.9612919637,-0.2116786883,-4.5037737473,0.1946891392,1.329383654,1.9342009684,1.5148899346,0.2429031572,-0.4846729788,0.7017028726,0.6348033835,0.5547347605,2.8044567507,0.7816855595,0.5513825649,-0.8984950336,1.0124596027,0.4975118348,-5.3726303729,-0.9782834855,-0.2460469411,0.7385311715,-0.2574512795,0.6282802447,-0.25077322,-0.157326984,2.508860468,-0.0661818029,-0.9365077997,0.4795524619,2.2153614686,-5.5303389209,0.565101709,1.9545549429,-3.0529566104,-56.9333381757,-1.0182004207,1.104683389,-0.6412874601,-4.7980726517,12.1881652292,-16.6086041301,19.1262449094,-34.7165276535,-6.5602364363,196.4372392883,-287.2663061846,-0.1028292882,0.7500457973,-4.394870784,12.8375140841,-1.5847753063,-18.2364209833,-15.9200812555,-6.5993483078,-10.9537442217,-36.5335760785,-35.7321692917,99.6982597012,29.3296413829,-30.3007674844,10.4217100099,97.9124815304,-0.397388711,1.8594762927,-0.6261752825,2.29286808,-1.8232835113,0.7868201845,1.237133419,1.1531186456,1.3361543626,2.4738069651,0.7008304648,2.4468893278,8.3281771788,0.0134405949,12.460001669,-25.3353617547,-7.1145395556,6.2820466999,-6.6092746775,-0.8225628442,10.6738271363,-8.1267336074,30.6262470318,-4.3393739821,-1.399127759,1.5012404148,1.2340419174,1.3613685923,5.4925195799,0.172705086,-5.621873355,0.4767441584,-0.3209416663,0.79498987,0.5732970824,0.6101905863,-0.03708323,0.0957015894,7.5937017611,9.4735657077,3.2277792993,154.8989079492,0.5508952945,-0.0027856017,0.6390495868,-0.3187084637,-3.9150134939,1.8463973993,-2.034352528,0.9734883106,2.006792479,2.5365055629,-0.5596356395,-23.0462794223,3.7267898338,1.9149426621,0.5351144559,3.1969559785,-0.0516538534,0.2397569499,-0.2909212063,0.1355366935,0.0997768987,-0.3112467191,0.327209091,-0.6368682104,0.4528879423,-0.0035523094,0.031231148,-1.309106384,0.4303170046,-0.0308865154,-4.2644431247,0.2589796276,-0.0242278757,0.2088916951,0.2202724451,-0.0050440004,-0.7026246605,-1.2176644918,-2.0381818931,-3.7333624806,0.4354148186,0.8536040677,0.9009971057,-0.9176020456,2.070986229,-2.116764798,41.7957595847,-0.0480440925,-1.8347994876,-0.4961219496,0.571177862,-3.6175365984,0.9169076224,7.6108067084,17.849708465,73.0792460512,15.3761482603,-18.499775494,5.7260638241,0.1766286101,0.4015826358,17.9661680172,-0.5619787482,2.6258004811,-3.9145150741,3.6891215689,6.5787082868,-28.3794616733,-5.257474616,6.9439680679,58.2126647557,18.7719159529,-0.332674697,-11.1954186334,8.9618288959,0.5770571462,2.5713314963,6.893348716,-0.7883211481,0.6055830134,-1.571020251,0.5598191898,-1.2034377277,1.4728395074,7.9717288948,-0.1770359652,2.8836829914,0.6069200282,-13.7723499942,0.6090993284,1.1570927165,-0.6310101261,1.93217202,0.4543521642,-8.8549858135,0.1511038456,-18.5520771797,-7.7458688885,-1.1422339362,3.2995793988,-0.6385267819,-0.7826856525,-0.7396144909,-1.0823886738,12.4433219524,0.1696757256,-2.2608323042,0.5686495271,2.9474420673,-1.878836761,1.2976979197,3.2937175844,-26.4191704042,60.5961842734,-48.7399834663,125.558897174,-2.9582827804,-2.9747182313,-0.0035584018,11.4247566415,10.8307700876,7.214449694,-6.3174531976,-12.750289254,-0.2228100858,-21.6388793135,-19.2398963884,-17.6299736464,4.2342342095,-2.4192440083,-14.9714078524,-8.9986801586,-0.5788838545,0.4980338001,0.1130460562,-1.7635585922,-0.2944056323,-0.6815808244,-3.4723331478,1.4692243265,-2.559457952,0.6216639293,0.4145901222,3.4013499966,8.5670486801,-0.0824389231,13.6953946421,-0.3010891255,-5.0582819873,1.3169135086,-0.3927994334,-1.5738150303,-11.9901779175,2.8661953063,-1.0839050236,2.3905001313,-0.2656018986,0.265782957,1.4305749341,-0.1815467747,-0.8915525033,1.2595276255,0.8596579622,0.5159875832,0.1193595614,0.8298445904,0.8231677443,-0.2047907405,1.0031422473,1.917101862,-18.3878661793,8.2923491606,31.3665140588,34.4199060828,-0.1281604152,-0.3089059198,0.4360520175,-8.217663499,-1.1955870505,-5.6163863539,-0.8456375326,2.913684346,2.5565887624,2.0981030914,0.3434098154,2.5910697252,-2.8857441134,6.1047977047,4.9184187412,3.7980050323,-0.3868046531,-0.1952219666,0.5112334518,4.2560746753,0.1396799699,-0.3388267869,-0.5218915072,-0.794559986,1.0594026577,-0.407347614,0.7353857079,0.6340200821,2.5545650069,-0.3937959945,3.4068724222,-0.2617560191,-2.9045830208,0.5404810945,0.6533380182,-0.1300125147,-1.8694277347,1.804997353,13.3711613043,0.8213351542,0.5546988966,-0.1601073955,1.1153309529,0.1996205523,0.5526893489,-1.2322361561,-1.5702971885,0.5141863509,0.5601159281,1.0195238663,0.7982933046,0.2302336912,0.5813821661,0.4043300211,4.8733957989,3.6346838547,-0.1432985781,0.1281557798,1.060595224,0.3879647813,0.3819958923,6.7836934273,-0.8413943786,2.2469252293,1.5823949603,-0.968822182,0.198016238,0.1960977581,0.712460752,-4.6257532038,0.857919608,1.656403493,-0.2531884075,2.0560950856,-0.7758088636,-0.3731620338,0.240922322,-2.2909219502,0.3363820728,0.9828651796,-0.1022554125,0.3498802891,-0.3682888594,0.1074872643,-0.289915477,0.0392094913,2.3396693044,0.8555555124,0.4538279594,0.1690500053,0.9484701553,0.4995726508,-0.0301291726,0.0437616308,1.2841708338,-4.0449233329,-6.3109382486,1.2850028214,1.1910284758,-0.1698340429,-1.0366561017,6.5377546194,-1.2619526915,-6.5309985268,-28.6585699831,3.3508298987,0.0887760632,1.9898430411,-3.6610928635,2.6978414389,4.9263299879,-3.7406426826,-0.5114450177,4.7997960738,10.3527784764,213.5438751943,-3.9813847947,0.2071429207,0.9020995166,-18.0047866892,10.3506715139,10.7109913215,19.9370998966,0.4172180551,2.9347053748,-6.3150037382,-3.147432834,-39.2575727736,-4.3332129896,1.2968548287,12.0642480249,-8.6819223247,-0.4566564684,0.0224264363,0.6473578321,-25.5954488371,-0.61173606,0.2979683045,1.5185281482,-0.0226214413,-2.0530579676,-0.3319520714,0.5676615924,2.2431233865,1.0668118441,1.5278394699,3.5796652792,1.1454350777,2.0327705467,0.5430196368,-0.1227815586,0.7589594182,-1.9216601783,-16.8104798069,-3.2793754354,-3.5534482692,3.0337804847,-1.7014573323,0.4656099388,0.3465961085,0.459609676,0.2030006739,-22.6892349153,-0.2373105326,1.1300660716,-0.5451983455,-1.1710267502,0.7439254394,5.4866924102,0.9852327221,6.6080901626,0.5122572295,-143.7081292345,329.7659039005,0.3643249699,0.2247463181,-0.8144854343,1.6824114335,-1.0635144238,-2.7979383002,-0.7864162028,6.5974348234,12.0698223484,0.0128037954,-6.1001180791,-18.6934014287,-1.5908209736,0.8802138039,0.5776332303,7.424276011,-0.359504863,0.2689945877,0.107343109,0.1276157761,0.3836722684,-0.9592720703,0.3985434041,-0.5123188403,0.6832338017,0.2589201357,-0.9207543987,0.6788790023,-3.3466978136,0.4532748128,-0.254505948,0.3230490802,-3.9043132474,-0.910785637,-0.0359158881,-0.3981903538,-0.717243565,12.7882884832,-9.0011902771,3.110143414,-1.3992371997,2.0045352677,6.6346403157,5.2253220787,-19.2292965591,25.1256837336,205.7101336214,0.5711159002,1.9833304505,-0.0322486036,-7.1008113385,5.1378579917,0.3134238698,4.7420573164,76.4079469291,38.2585804172,-726.6322330173,422.1261777383,-32.1718146175,-8.6892120405,-12.828766665,-3.4773323529,-66.3268976416,9.7291430755,-9.2026671543,27.2113710742,-22.5461311091,47.9919730116,-42.0486321666,-15.874149439,34.3023406531,20.2201662875,-1.5770383316,0.887007684,4.15001166,6.0936041192,-0.0613445754,-7.3529084611,3.7374172085,4.3713740243,-0.804144966,8.7311996543,1.6897255796,-2.9538775119,5.071501364,-0.665660842,1.4608686954,0.6681954552,37.7959944344,33.7151985868,70.6402225539,2.3482523802,3.5529310558,-7.8470785869,71.4840781243,-0.4231960867,29.6129072568,-25.256803361,-0.0401815398,0.5503830616,0.2520650593,0.5023266581,0.2473092868,1.4023677543,-9.7179854651,1.0728130215,-0.1642120002,1.078387547,0.5104706594,0.3202953758,-0.6392842078,0.4365705429,0.027691911,-3.1835414414,23.648223813,126.6820088404,-0.0917326457,-0.4593830538,-0.6620122195,6.7501909445,-15.5777482671,-4.7174592869,0.807109374,1.899674233,-4.8195998521,0.0590448493,4.7992892999,1.5619857648,-4.6962091227,0.9504822167,4.9350276254,0.6637099222,0.171753232,-0.0350432589,0.338550116,-0.8146079563,0.2000030154,-0.4302746642,-0.2908912915,-0.271160459,0.8175477313,-0.4764831935,-0.2748918187,0.8540053296,-1.7908011283,0.3918468292,-0.5716873683,0.2005975983,-0.2231177965,0.2232671712,0.1611185744,0.3731036264,-0.3957404386,0.0763748424,1.8756636889,-0.0027929705,0.9374731231,0.9364544198,0.4189010145,0.3564148666,0.777923261,0.3369728601,-0.8960781269,0.3422933387,-0.3884252642,0.1737331924,0.3776247063,0.0328830138,0.0856461832,0.7673146598,-1.8614018228,-0.076245165,-3.5076553167,64.25663822,0.1479685395,-0.1834663286,-0.2708267065,4.4712366787,-2.856645909,-3.5735134381,-4.4220405216,0.2697682942,1.9048665129,4.194748625,0.5252497569,-1.3979323138,-1.2020596216,-3.1445130658,0.0795144322,4.4873782504,-0.129984939,0.3609479056,-0.0450474168,0.5655167464,-0.1960520145,0.2487434177,-0.4537172067,-0.1699190874,0.8107525583,-0.2488778677,-0.0507942589,0.2948416283,0.2702153307,0.1807678523,-2.5609252198,-0.5345660253,0.5709379835,0.3446188445,-0.2628874576,0.0120200997,1.2867926817,0.556551,-2.4296468666,0.3026068134,0.5271101759,1.3259764328,-1.3065644576,-0.717024431,-4.7013544524,-0.2292655804,46.7977761955,-0.1658050845,0.0595353385,0.2348730977,0.9706587129,0.0239179358,0.7956979673,3.0188076648,-2.8838548877,-0.1200147486,0.2241439604,21.7184465684,0.1690773269,0.2481258386,0.5244128285,3.072985589,11.8001132418,7.0865665686,-5.666282941,2.3546716118,0.5916734676,-4.7233835659,-6.6109184935,-4.8743546578,-5.1870955192,3.7141038109,4.3141247747,3.0960752359,-1.8068512483,0.0775803603,0.150177228,-2.8662780333,0.2202529508,-1.3424205453,0.6137084237,-0.2494322598,0.0491449388,0.2398584048,0.7971923878,-1.5777203324,2.2642038228,-0.34831448,-0.0173342133,-0.4198200897,-0.4605717672,0.3863805161,-0.2410466602,1.6507852213,-5.7789455019,1.7861063473,-4.5718672288,-1.1651173605,-1.1057613058,0.6859388459,-0.2662384396,0.3771363091,2.8249546894,17.3166551294,-63.2689064705,-0.3097927861,-3.2198005392,0.2528899921,3.2061601085,4.7388452116,0.5672556033,-5.1047711242,11.9456522719,20.7142863967,0.3155157864,-91.8611390767,0.6283377098,0.4522318585,0.2740375968,-12.221839795,13.0162650159,-11.4495603958,-26.3785523103,0.6189597801,0.0481590026,-6.5405875062,0.0482620611,0.2724960154,-4.5309885126,14.4024396514,6.2511308258,7.3346483618,1.161493902,0.2796404101,-1.2167453528,-5.6669005338,0.595250231,-1.9454208225,0.357211729,0.0974600165,-0.559291791,4.2232950174,3.4086614315,0.2043240136,-0.342799141,0.559319719,-6.4080656459,0.2759786183,1.3663615315,-1.7230002032,0.2557121704,2.2518624445,8.8538744065,5.3721137413,2.8209289202,0.6833516497,-0.8776871207,2.4016488893,1.9250723638,1.1278962154,-0.7112349593,1.4600601645,-6.0975280348,0.9893483179,1.026250301,0.5781198778,0.3906886904,-1.6639043954,0.1342944852,0.655117348,0.0986950692,-0.3925883686,-61.3543884732,320.420548831,4.6841354527,0.1620704254,0.091427821,-12.8353632912,7.5478350296,4.9841550288,0.420847893,-2.2164575049,-3.2332621922,-10.5210327459,0.6319118925,-3.9221398681,8.610519539,26.0982135727,6.8322190617,-9.6100727696,-0.6881127042,-0.110624856,0.2210925289,11.5172766467,0.8351459052,0.2091978659,0.5213637182,0.9814696835,0.9227495269,-1.0793140476,-1.1693729426,-1.3444885404,-1.2250887831,0.6640150498,1.1707687718,-8.7793403344,0.019322531,-0.8247165431,-0.3395659643,0.2628135577,1.7562919978,0.6440626687,-16.0482358186,-6.6584000208,0.590465102,0.9845563114,0.8415960075,1.7789381026,-1.5909216925,1.5582870044,25.2454146897,0.5201978313,0.170845612,0.3525446262,1.1256772614,0.7937336993,1.6542152244,0.7002244284,0.2291515929,-6.2356599685,-1.0962453437,26.0512142465,2.0910436866,0.831306436,0.1308505143,0.6803079314,-1.8849654673,3.2730880423,-3.4118527567,4.0187249831,3.2552830903,0.5929487002,0.6420646924,-8.7082948857,-0.0407270918,4.0861595912,0.0838256656,0.1750141992,-0.4293313092,0.0822831328,0.5871564793,-2.7064158573,-0.4297146488,0.614455806,0.9390232492,-0.2748114408,0.610737412,0.3010846779,0.1009134671,0.1222080461,2.0140565715,0.4274997595,1.5313603354,0.3201977374,-1.2053793216,0.4224851336,-0.2549943574,-0.2853144316,-0.5231881163,-10.0490525511,0.0786312273,0.6091453438,0.8348277017,1.0580806238,0.7898787437,-0.397845703,1.9647547128,-0.356233138,-49.3878443853,0.2824737661,0.1486956341,0.2889528178,-0.6726874044,5.6365790206,1.7027899445,5.1841987707,98.6157976911,-11.4115384339,-170.9548900277,201.5763673936,1.103129784,0.6145480177,0.7005995192,13.7243787855,21.5460893683,-9.2205673392,-17.0230842088,-21.8600520329,-21.0420558068,11.130569903,-1.4185646234,-11.6619844115,-11.664221743,6.7510564476,-2.7455335289,0.3315862613,0.831091119,1.3058892208,1.6907860448,-4.4572393168,0.3514957999,1.3234811011,0.6773968657,-2.7846096002,3.3524740329,0.8019970188,3.8794203553,2.4964462466,4.3538993875,0.7556454427,2.9222258533,0.6453966391,-2.8616337439,1.7629144944,-0.4453006194,-0.3215492562,-2.2313774086,4.8368558834,14.8073162283,-12.5745244236,-1.0277240481,7.1022246526,-1.4864738572,22.9117639254,53.850853882,36.7668477139,-670.8035241103,11.0536515042,12.6129533305,1.4866421453,-10.3574054691,15.4053052809,-1.1652945343,-2.9506537155,-275.1947483043,53.9165899665,3353.7505062665,-1646.3393689433,0.0840262891,74.6413463584,-14.3695732751,-73.1632318814,125.0793554567,128.7565880693,12.0538257403,-103.1758424782,101.1821912278,-6.3491576804,-28.8599892157,-16.0608484073,33.2743429581,-15.3161698847,-62.7830818603,99.1788900509,-69.2911374078,30.8762299336,23.8156503023,43.1757519676,10.0415854395,-7.7634186378,12.0755680325,8.5459996031,1.1588074896,-6.4306005909,-2.716615495,-0.7103785748,-7.5847901406,-1.4164051183,16.5424435891,-0.2686362079,6.48836114,2.6455585364,-5.0685976522,72.4454589517,78.1882184922,-203.8077767679,40.895300763,251.5963629917,0.8485114588,-0.038160262,0.551422883,1.029454773,0.0387789222,-2.1935358494,31.1219915342,0.679788546,0.3623807916,1.0302154579,-0.6028334258,0.791483843,-0.0096201348,-0.076227397,9.856759289,-6.2758252407,-15.6477843213,75.5931797024,0.3819553422,0.7682919856,-0.931592497,4.9402766069,5.2773204051,5.1010068803,-2.2598814255,-11.498174451,-0.6311664187,9.6033123624,-2.2064438508,-2.9516280764,-13.622733247,11.5518318719,3.6143437278,-5.2956977237,5.1381943469,0.5205024305,-0.4550278152,1.292147398,-0.4354110451,0.1247934962,-0.1494798524,-0.004434362,2.5172375204,0.6133539156,0.9120225817,-0.0441084649,-0.3660345083,0.921848304,1.0987832517,-0.6757866106,1.4985838439,-0.0345147281,-1.4143772999,1.8467761044,5.3230450194,-1.4519166105,6.4152446122,9.2204225949,0.0503576483,1.2611926735,0.6133003939,1.0494011887,10.1208583921,-0.744107397,-12.3928939118,0.2475712986,-0.1115650841,0.5390057259,1.7866831083,0.6980240531,0.0829410986,-2.2127448836,-0.2686028096,16.1593588509,4.1751242175,100.4096761014,1.6471219232,1.7074426451,0.5770193032,0.8429313721,3.1311262658,-4.8407630338,12.6826184035,-3.0884554704,4.2130117145,-10.0879955718,-5.996474907,11.6976718538,-3.8738557745,4.1881451221,0.6604098524,0.0672318344,-2.3542249817,0.0486689323,0.4666298179,5.0338154334,0.9391468494,0.0242840936,0.6062970041,0.1654826859,0.3380316284,0.4226433945,-0.0332681687,0.3964145014,0.620784615,0.3792284053,-1.8498550774,0.7920534138,-0.2394375088,-0.3553464326,0.0752385882,-0.0431241906,3.3580310227,-0.6944951977,-7.3847763137,11.7875687213,0.5562277038,6.8365204023,-3.4675004166,2.6780538572,-0.3122680654,2.1833086783,-16.5763223008,0.9177110843,-0.2121652218,0.02370639,-0.206300775,0.3904800722,1.0522439812,6.5834081921,-0.1102810311,-141.7611874644,371.5507548486,-456.884292382,3.3668378574,0.4371563412,-1.3741299869,-18.2919293209,-6.4242982106,-5.2016370395,12.6709064817,-6.2611092779,6.8899116909,3.2773573268,-19.2665187226,-8.6432448645,7.6397413153,1.4832034399,19.2141527866,-19.2702692446,8.0580021161,0.368552861,-4.6318613406,4.4571746244,0.2871814623,4.4797262207,-0.8880789256,-6.1234319966,-1.3627813409,-2.0212874042,-0.6995900511,-0.6160919813,3.8282096852,3.5107527791,5.693845637,-12.5934833186,0.4546560698,-3.6483020961,0.8004997247,-1.8087736597,-0.7962133576,-16.6671731292,8.2730689863,-2.9476192331,0.1104432763,-3.0767750345,8.173290173,3.3551660312,10.9903066895,2.9000875571,-123.3071011193,-3.7702658399,-2.4933334909,-1.7187344251,-0.9022417581,4.0575176491,1.8207639773,6.6107352661,-9.2886690573,206.269074562,-40.9145960586,-209.5729310208,-8.6382290531,3.1905132294,-0.3333491757,16.9660163209,-6.2115425294,-0.3918105927,7.5073916138,4.9669173154,-10.413912263,-0.6301907829,-22.5297679753,63.3059358213,-9.6388868005,-18.8071208086,50.9359299804,52.6423218843,-0.7881170892,-2.675202939,-0.0188713555,0.86562222,-0.1318857619,2.522497839,-1.620348545,5.855077879,-1.6825215086,1.3553760586,3.3065762444,-3.9066647286,2.6327646411,-0.1030255258,6.9032116961,-14.5356832921,3.6447908382,-5.0160566223,-0.2832000137,0.847900411,-0.6604976716,-30.6775244175,5.4361725748,-15.3563584963,-2.2114984598,-1.0126524999,0.52714155,-2.6390229741,-3.1843500519,5.8135008228,35.9333812148,-1.1789056918,1.0292834541,-1.5721460641,6.3914606416,0.8675509264,-3.4695535052,-6.5037085304,-3.0221029697,6.2339650516,16.0619689982,16.6412618086,-4.9297773898,-2.3507837681,-0.1123809722,4.1102899876,-7.3905846338,-6.549270501,-9.1016722691,0.9382642081,-0.714285035,-5.6505356114,-3.6960295439,5.1369823155,0.7350562987,5.6913292254,8.2223988401,12.0420499681,-2.1857801934,0.2432324588,0.054751835,0.0625661419,0.5822278868,-0.3231191776,-2.2905928833,-1.0461287267,-0.1660184108,0.3540196809,0.466148104,3.0991962789,0.9291773963,-1.2016045686,-7.2247805464,0.1356208989,10.5656664355,0.4898793197,-0.1583237209,0.0778057711,7.5150064121,-1.5471063764,6.3369113067,-2.2662524074,-1.4993203565,0.5532334509,0.030841433,-1.0208031555,-0.3929816854,0.4946547089,24.1815124288,0.7273243763,1.01172129,0.775732529,1.2256454013,0.6614891952,0.6629531777,0.4790268449,0.3175387844,-7.3664794079,-19.0755460976,-89.1218442561,-0.3205277143,0.6374581694,-0.2275698116,-9.4986151946,2.2811223788,-1.1628509272,-4.2020540125,1.3949244437,1.3103110057,-6.3023641282,-0.8231419497,-6.4973680435,0.2605783408,-3.9288553646,0.3647265382,0.7935331223,-0.0897031266,0.2508162037,0.285518848,0.1902247455,-0.2990464984,-1.1315750956,-0.4355585506,0.4369174852,0.3371815809,-0.1429698141,0.549529123,0.4477226742,1.184420063,0.1494488544,0.8263394469,-0.2613868621,0.2743944326,-0.0588665923,0.1188999954,0.0769321551,-2.0865312953,6.8679753504,3.5805801379,0.2152600421,0.350638372,2.1457131654,2.1986083632,-2.0901436625,-10.7231120431,3.1033872837,36.6254959773,0.8324291012,0.8987862052,1.4247538566,-1.7192690573,-0.1129902985,0.7372648741,5.4445305791,7.2432864207,-7.8000037665,6.3379672505,-113.9013615563,2.7344102594,0.1792396725,1.4434026495,-0.5666906204,20.5116731754,-7.6116742291,-14.9640826402,5.9974904969,14.8631912444,-5.5821914236,4.462254317,-1.0971940124,12.8130821574,7.8305893776,-4.5375864877,0.7026145436,1.2365094512,0.1804704628,0.6287139404,-1.0883966354,1.5488591191,-3.8958764558,1.6094497351,-1.7260044991,2.9096547977,-2.455184593,-1.5178584695,-2.9672919813,-2.2145111867,1.8247106387,-1.9299955944,-5.9194759557,0.1343815609,-1.3767701452,-2.3639322953,0.5373115083,5.6754119487,-11.9384976834,-0.9477874228,10.3241775724,0.4486930141,1.083874546,-0.4388262426,-0.8685474572,-1.407577479,-2.4154969934,6.1118509265,1.0493474812,-0.5000536485,1.183151879,0.6539427832,1.2617857669,1.074216527,0.0137932302,3.4055966916,11.7897218737,-32.1869663076,-20.4303338113,1.8409520719,-0.35735904,-0.2635308677,2.3872108593,1.8357955918,2.0229592395,-1.8914557746,-0.4158615195,1.0133183206,-4.1041696938,-3.3119847789,1.4400736859,-2.7138860285,-0.5041507963,2.4063884348,1.1746017421,0.325118551,0.1969209644,-0.4551388662,-2.2835681446,-0.3528435525,-0.4251497527,-0.8929352169,-0.1103608056,2.3241921211,-0.4699476749,-1.6036271889,-0.1783010976,-0.2338240783,-0.2641526044,-0.3123645574,-0.1036704985,-0.5161146663,-0.212873011,0.2642375062,0.6191081202,0.092795277,5.8931228238,-1.3937293751,0.9388700785,1.2038914285,1.6375103306,-0.3764240617,0.9156302047,5.1331154825,4.466892101,-98.7550598281,0.57710851,-2.0977401515,1.0201173034,-0.1819141874,0.8715522275,-1.105018892,9.6051560357,-11.7027531278,34.5210276404,89.6892032486,62.3400160945,5.6721914917,11.456410395,0.4017212809,-1.6743695199,-20.8503154315,-67.4633812545,31.8353891995,-13.7301419624,-1.1391983613,17.7505961874,30.4958781633,-63.7751694261,-6.2356618201,14.141431782,-39.6669874754,-51.745213258,13.1103313137,0.4310537833,5.24193208,4.43301213,0.4465224934,-1.011097811,0.4035360713,2.130999593,-0.7080671008,-0.3522272249,-3.6515328722,1.9799858736,4.5170892129,-0.458663856,7.1332330674,-2.7819725175,6.1970152079,-0.7166461228,-5.5615178807,0.3353598065,-4.5092356348,19.9465677544,0.1624558525,0.0321948373,0.6611383955,1.9795895724,0.1296489421,1.8544963277,2.104717854,-1.468192143,1.9701032582,0.4134007761,1.3688033375,0.7646324106,0.0980448826,0.360629504,0.4218452323,0.5159555599,0.4846537579,-0.7759416085,5.3441063119,-29.254759129,0.0469701765,0.5222576328,0.6712058198,-8.689458922,10.6553120955,-2.050729911,12.0918204983,1.5696754844,4.021381195,-0.5155954422,0.8332141096,1.3087125578,-1.9336560333,1.90612493,8.1543499539,-3.9991557624,-0.4228815852,-0.2834687935,-0.4311491858,0.8031194397,0.0620340237,0.4581330428,0.1115453475,-0.0583194121,-0.8698405869,0.1560705707,0.0510000417,0.2156986019,-1.4125024828,0.228804851,0.2770763126,-0.0003939711,0.0917236256,0.49313286,-0.446546419,-0.2168247025,-0.0255553945,0.7166501752,-3.1007965222,-2.1733224472,-0.5131102791,0.5708976707,2.3345575195,-0.1922566999,-1.3952906202,3.4284015896,-74.6332467635,0.2192798419,1.2253319506,0.737574382,0.5030871244,-5.7611511555,0.3341645695,-3.3930110851,-0.7578427947,-0.2551331314,-5.3279502307,-50.889062698,1.4999026633,0.2708500224,-0.0399039665,-5.8369613642,-4.2092990847,-14.0518604073,9.1458359671,-1.2620783717,4.5509808738,-2.5143707319,-0.0924561453,3.4685069372,-6.1460536333,11.9632621671,3.2733007649,-17.1907958232,-3.5620592274,0.2926572669,0.4989419058,19.1309769973,-0.7725986834,-1.7320747878,1.2049706122,-0.2456756769,4.103000178,1.2833544264,-0.5723052039,3.6248921949,2.3353633605,6.5033910731,13.8906598353,-0.0792086618,-0.126724224,-0.5604283841,0.2378758677,0.9237220728,-1.2708283195,4.7612956467,-5.2430347889,-0.9558752283,0.1832372187,0.4497108529,0.0616601319,-0.3568294463,-0.086695406,-3.5571075204,3.5849371364,-0.6743204102,-0.7235974729,-0.1291546264,-0.1060143876,3.5063813752,0.4198094089,1.2362490775,-1.6509006897,39.3948596617,-32.7470507254,-60.5121244474,-1.7363315674,0.0719355712,0.1805097808,0.2559517909,5.6406307553,-2.9064505994,0.9279935245,-11.558305954,-6.3483964228,16.0261459234,14.2080489733,-0.7836570905,-4.3145658261,-29.5486931558,4.5760489014,0.6536950447,0.5723692254,-0.0316745992,4.1416825551,9.8339434285,-0.2868396259,1.2293168753,-1.338278857,-0.244303422,2.762670886,0.048889566,-1.2806040038,-1.1814408383,-0.4326081425,0.4476545749,0.7970271507,-0.0983844221,0.7506902322,-0.83406813,-1.7781956753,0.8896756469,3.5485130412,2.3091826651,2.4197579639,-7.2789850471,-1.5087364456,0.7099364568,1.8572191766,0.0249367618,1.5902208082,0.5352622001,-9.9322169594,0.7828170872,0.2281932849
   0.9256070025,-1.0355856166,0.2231929475,-1.9341405313,0.5938627089,-2.8167735231,0.1670940571,18.2467636771,-42.1883656722,-0.1850673594,0.2127896857,-0.1344211819,6.6624123896,-0.5393790963,2.7656233077,-9.7277290511,-0.630220989,0.9617851483,-2.4282035013,-4.6330472878,3.6523087574,-2.0008691182,-1.6121820793,-1.2491625878,-0.3840552812,0.0635393328,-0.2130502293,0.504509213,0.5333589974,0.0895874846,-0.4564335466,-0.0240107613,-0.662548567,-0.4401280072,0.5541196597,-0.5972742959,2.9534151174,-1.1602956092,0.0283697718,0.7458972699,-0.8501136471,0.4378195997,0.1856299958,0.3440512611,0.2541804424,-3.3736243927,2.4763383491,2.5305384942,-3.6239682787,0.2024962143,3.5420191133,2.0449303257,2.2501419286,8.1953183725,-1.0178834841,-3.6278729699,0.3767791372,0.3524705404,0.3791771447,0.4084027254,-0.78134836,0.0718752897,0.3667653929,0.6170987169,0.7236836354,72.34311377,384.5581675814,1.0244758998,0.6074059413,0.5140328815,0.6753955439,1.9560701812,2.0682698524,-0.2415872395,-6.9717667449,-1.3193330033,-5.5062403736,0.7448206144,8.202413508,-0.9276412569,10.4892947092,8.7598854054,-7.2840164251,-1.800603448,0.0055562753,0.5952539606,6.5539547674,-0.0681838469,0.3062118996,0.914724328,-0.3198760948,0.8357426695,-0.1001025613,-0.5619207184,1.4759250877,0.2457350054,0.6076394718,1.1065550438,0.0663056002,1.2435857034,-0.9408943059,-0.0342533927,1.289677138,0.5091218509,8.3110938411,-32.722092417,-0.2373092289,0.4461191717,1.2026180268,0.6245987968,1.6898937232,2.5436213843,-2.9564610201,-9.3517706665,1.1256587276,0.0491034544,0.9518328936,2.2057581746,0.3228617807,0.5290409225,0.4895069106,-3.838369602,-0.372777804,0.2528450224,-0.0778798535,0.2937623552,0.4965687572,0.1284632502,8.5888654546,-5.5289696135,6.9989863028,-0.2981474615,2.4604653596,5.0384541735,0.1364226113,-0.0713335892,-1.0539056421,0.0594572386,1.5603745989,0.9844710608,-1.2286418002,-0.4044839154,-0.072709395,0.1303701526,0.1544391486,0.3372086135,-0.2080040264,-0.150442285,0.3423438841,0.061376498,-0.155078036,-0.0004364936,0.5283212609,-1.0562041445,0.015360444,1.7101210745,-1.813928504,0.0706991028,-0.1747640202,-0.0323800816,0.163851491,-4.1665399457,3.37940815,-1.2933659157,7.3672950931,-0.3013746066,0.8098104674,1.4178713395,0.6386634394,-2.2197671121,-8.0162779247,-33.8548209462,0.5118849486,-0.088613263,0.5433434811,0.7466210858,0.2912282381,1.3970409282,0.5777485998,5.6705541377,10.4162380351,0.9332965103,-7.8271462369,0.921256746,0.6794363837,0.5898337318,-5.6465766683,0.497343758,9.8337822727,1.3736288021,-1.9484090028,3.5063356429,4.4292072002,0.6706387325,9.744293249,-5.469657178,0.6046226383,-3.3996449982,-4.6152895392,0.7895886416,-0.592593038,0.3670531682,1.1177717683,-0.1189016921,0.2580850631,0.1004480208,0.1555961479,0.1186668651,0.3799545543,0.0400675115,0.3503250332,1.6032453961,0.9439746173,-0.0899510565,-0.0892369691,1.4503317937,0.7061642491,1.5510665621,0.0273383204,1.4449315362,1.0162638886,-10.9451331212,0.1783024996,-0.0492024509,1.7477569965,0.327351317,0.0743485688,1.307431865,-2.9348777245,-1.0401565736,0.8076201225,0.0613773872,0.4370917843,-2.5359057242,0.2360766604,0.4385746906,0.6522362589,-5.4023929559,-0.6963318499,17.5258036513,-36.831569253,0.5571185095,0.2781448554,-0.9778396759,4.1010847742,5.6896414072,-0.917917217,-4.25924728,-2.0191265976,-0.1373094545,-1.0324845659,-10.4619549149,5.6651557546,0.0901428312,3.3669645383,-0.9268756879,-10.3455805138,0.8265005837,0.907783431,-0.1863794482,1.7280191029,-0.1619964643,-0.3814775491,-0.426586006,0.0246133629,0.1880199238,0.0263073352,-0.2653867723,0.1737389141,0.6319989428,0.3163973244,-4.1119886289,-1.163585455,0.1564299442,-0.3350165157,-0.2250209571,-0.076172253,-1.1818300077,-4.4690296557,-0.2408039356,0.4582538461,0.8408939954,3.5096315133,2.1377276631,6.5109532632,2.7658846448,-18.5818207527,85.7211777706,-1.132339994,-3.3051472422,-0.593493323,1.3240847639,-1.3153430409,-2.6961981358,0.2279898787,32.376938424,0.3570981757,398.6601991716,-517.1593826916,-7.6277575185,0.4203928331,0.5716559723,-45.0422095925,30.3947827234,7.6332380974,32.7100677632,37.6764229723,-6.521275652,-11.898287417,59.2927186279,9.1307438794,-3.5167676214,-10.5084521231,3.1923836505,-29.2809231429,12.9900995943,0.4179425284,-35.4685808206,26.9276825762,-0.0131932475,-0.4899582899,10.6597844526,-4.108623573,18.5158030641,-1.4566365083,-5.1989520806,2.9333811163,-2.1332027745,-38.3292656322,-49.2464667817,0.0907947772,59.9704410198,2.0388747842,-0.8336588193,2.0997051594,8.9729784094,189.8115939442,88.2144689049,-15.1802085701,-2.919967394,4.2653135339,2.3631237929,1.1985278263,-2.0904930556,4.8167561802,84.6587605229,0.6736052974,-0.226852165,0.8244655839,-0.3453779148,1.4868997051,0.7398091563,0.1373812797,12.3432638276,42.5420363791,-1.0332071106,193.4015410209,1.3064891299,-0.1374999128,0.581423863,-0.0121143973,5.0892347052,-3.4999293197,-18.4299182175,-3.3792816419,-0.3414395287,3.6807102662,-0.9332077803,-15.1361708915,16.3826973542,-0.0080433737,0.1453559773,2.5141301396,1.7147769947,0.4634134711,0.281714851,-3.3895302084,-0.6925406474,0.9780284968,-0.429849092,0.3034723748,-2.2193127656,1.4636364359,0.2403962713,1.9482098692,5.3294569433,0.1767016546,0.0449836521,-0.4098441065,1.6997344812,-0.4408939563,1.3925783286,-0.4940289883,6.8120879047,-17.8457040846,-23.3169798605,-3.1384163829,0.0590268347,0.9672181441,0.5223242997,-0.3122030181,-0.8902182579,3.5683159681,9.6210743923,0.310655404,-0.9550973619,0.5666101664,1.3583354313,1.1335727476,0.5374451561,0.9441725781,10.7660938975,0.6121417918,21.1272399962,11.446849557,0.8620273492,0.45437599,3.1011288638,-8.87978628,0.6554164054,-1.916383875,-0.9794206676,-6.789210408,-3.4980932642,3.0748607525,3.7149052872,1.0999676517,-4.6910843255,1.4310902095,0.3395528423,11.0108045118,-0.0348912388,-0.0462888012,0.296118804,-2.7003791876,0.325806182,0.3360198739,0.8160045154,0.3455401019,0.3956004589,0.4228340547,-1.1138500545,-0.0483979054,0.889699306,0.3142849596,0.1165805762,0.7182330587,1.5711633329,0.2730608936,0.493588266,0.4211558771,-0.7850892954,-0.0593328579,1.4060817886,-1.1111167328,0.6406723748,1.4058605975,0.9525422378,0.9494091312,-8.8152252338,-1.6599321294,34.363308835,1.3152361551,0.8094405842,1.0952351144,0.4884605885,3.254959175,0.65299916,1.4247400734,-2.7731076597,-1.3213321483,-34.5485445315,13.9511606313,-2.6295210379,-0.4829994826,-0.1713158659,3.6323947827,20.2673671774,-9.3764918841,17.7646692512,5.0190633348,0.1102352724,-3.8090998461,-23.6789235886,8.9682235687,-7.810327632,-2.0163967067,-12.2373170634,-2.175653674,-0.0983892088,-0.7836274497,-4.3421795337,-0.2067169871,0.0771192844,-0.5338240515,1.0333322258,0.0603167789,-0.1812167429,1.2909069878,-0.2616779073,-3.1684582286,-0.4649877674,-4.9454702779,-1.5469185534,-3.4200890692,-0.0253201591,-0.1433106189,0.5718628831,0.5313295189,-2.8036703969,7.1061968106,2.2722428888,3.1570551478,1.1564472964,-0.4049690118,1.343229829,3.3828653503,-5.2878547602,4.2710441698,-61.3277887063,0.8500833734,-1.3012414126,0.7011268296,-0.6581078582,0.2767868435,0.3191200191,0.1896855365,-0.8442727793,-11.5694557467,-63.9053861167,-30.6710993639,0.9727412849,-0.3745564824,0.7136869382,-14.4082978901,10.6938314432,5.6689772593,0.2587741675,-5.657839842,3.6859859416,-16.8605543496,3.4686078734,-4.2696644739,-7.53310631,2.7674912432,-7.3283838357,16.9503797534,0.7538947087,2.9853750574,-1.0474567936,-4.1665903195,1.8088438837,0.4774287426,-0.2868098474,0.2714850004,3.478871308,-0.7835284089,-0.1264992275,1.1182995836,-2.2842865218,4.5995596792,-2.3284529925,1.5377670185,-3.6641171163,0.4038259288,-0.5105585427,-1.4381904768,-18.2249559688,7.6556836414,22.8478437657,-7.1915097354,0.7210053846,1.934903581,0.6595078318,-2.8899470751,2.8357290455,-5.5770890463,37.2329833697,0.4255671232,-1.7884181223,1.1604199489,-1.1716781015,0.2779600941,0.6797475777,4.3495613025,0.5632224296,-0.7184054721,95.9587622464,-17.9369451994,1.8062045515,0.1161333562,-0.1506482242,27.3531540952,-29.7898250916,-8.0553031266,34.8857061022,4.9247533095,-5.972008654,12.2458824457,-0.2883528142,-7.3714253496,-5.9813269137,12.3268581554,1.8131461938,-21.4068671284,0.013510622,-4.11041177,0.3159302132,7.7417690189,0.3107813961,1.1816683126,-1.055282493,0.1008222183,-2.0939838026,-1.540871088,1.0365031098,1.3479692471,0.1292824663,-3.3523222391,-8.4349072419,-0.0187136277,1.5381840655,-0.0908278151,3.0323081697,-0.6593707949,5.5203219553,-13.4442088359,-15.7079228603,-5.8345423633,1.2984556358,-0.5101153933,1.0159597563,3.9396888979,3.8369487573,0.4422813265,7.6158085235,0.2643584023,-1.3466349607,0.7139647552,4.9883622291,0.4322904855,-2.109551819,9.6710859315,6.7964076301,67.1709516781,-34.4184581521,304.7882669898,-1.0231919567,-1.4224869291,-16.607912185,10.62252926,-19.4928332248,-6.0653582068,8.4092966016,24.8654611619,-7.8526199546,20.4830592848,16.1347252561,9.8994774929,-22.8130743582,-6.499282976,-22.6016539123,-6.3873370541,-2.0393290237,0.4540942539,1.0786670531,-11.9291187122,-0.4388444189,-2.2166585508,1.3828630483,1.3749576322,-0.8923994443,1.447093662,-1.2470411065,-1.5344524517,5.7579630835,1.3257359205,-4.7641448053,0.7698914421,3.2928801312,-0.1255581799,-0.575505523,3.6370088226,6.1924135845,-3.0680917435,43.3195127851,16.2702754177,-0.3402268468,1.2219273311,1.0729095564,0.1694958692,-1.3544660386,0.8389568275,4.1658616233,0.5881087296,-0.0266359034,0.540427761,0.5911311,0.4308929618,0.9523608671,0.2899567388,1.3004700103,0.6170158121,-24.2352802074,49.130240223,0.7512480061,0.6579455828,0.0974344555,-2.5332121808,3.5007913138,2.318654288,0.8215469437,2.1428831549,2.3817066402,2.8716152441,1.3417640252,-0.4842308486,-0.1776468538,0.4410848317,-9.284174588,-1.6477823688,-0.2141537316,0.333148404,-0.0025319595,0.1977933527,-0.1886993175,-0.1709542977,0.3375717935,-0.0769613643,0.0366321724,-0.0259787848,0.524011229,-0.2417880361,-0.2169501495,0.4674306848,0.2332280185,0.2932176911,0.062290842,0.0607780763,-0.3505357126,-0.487334136,-2.0051949692,-0.4135639481,-1.5510063017,0.0931484933,-0.3424213208,0.833339438,-0.1139170611,0.2780786706,21.8340358905,8.9284279519,-236.0758180006,3.3383134439,0.8062509286,0.6884583281,1.5380754772,0.1101921259,0.9639025174,12.3613450906,1.0809218882,15.7949301818,17.5523901794,-780.0526773297,0.407046449,0.9325326081,0.5565458801,6.1516906763,0.6193512762,-14.0252447999,5.9101912725,13.2629481442,6.2778419168,-4.8030716488,5.5171420318,9.5433206925,-5.9125132959,-12.709117922,3.1840534475,18.1023950709,3.8855867297,1.9352328959,-2.4014820244,15.179018708,0.1044969141,-2.0132749116,0.7293404893,12.5206374533,0.7291288392,0.8404827115,5.0576809076,-2.4799283693,0.0388691108,5.6951418317,18.0072974797,1.0611784136,-0.6499912751,1.0473219172,-0.6436554406,-1.0772243425,0.8195017653,12.4712199201,12.6060720993,-8.6388554711,-0.0974812295,5.5958437825,8.030785514,15.3120636691,11.7257823854,-18.2905775719,-216.928052137,-0.2874884124,3.1338674076,-0.5625899478,0.2214692772,4.3058060597,15.1004320476,9.2056762974,-3.3700658535,-114.6723790649,679.7779054672,-423.4065996758,1.8138441742,-20.0212224131,9.4445637659,-90.6960462639,-30.5647102969,-38.2755946122,10.2489278624,60.0576234858,23.4041880432,-53.9326992379,1.0792308308,32.5540148305,-39.4371603191,57.1228949268,-24.8077582381,-8.4578148061,9.2413949419,3.3684804394,1.8312590266,4.7960322857,2.2610520597,-3.1433596594,-0.05152386,14.7788703574,-0.7298642343,-0.2190872224,-12.5648080003,-1.8212808714,9.1480487972,33.1508924852,15.4016054923,12.034510104,1.9060650552,-0.5231679816,0.1610504918,4.1572098534,35.4543651457,-21.5043073396,179.6785906102,-13.1109561907,-0.498631404,0.0360232154,0.1174289652,0.6281326567,-0.3008911482,-3.1166461847,57.874815034,0.6621892682,-0.4949007751,0.5597731802,3.007436906,0.2420544586,-0.094268784,-1.1560057566,-0.2911174978,14.3799802322,-19.5792717624,155.3427455547,19.7381985253,1.4593859634,0.799022052,24.0886580416,0.4089112906,-17.0961280273,10.2529542478,-13.0913109569,-4.44135448,15.3037882553,-0.5445348307,-15.0307043519,-12.1974811039,-8.3818868268,16.2026196083,-3.2202143503,-1.2885797901,0.5437668367,7.8478346563,-2.1165636565,-0.1596552603,-0.6547607317,0.0187306889,1.1004118366,0.5340231412,0.0482696665,-1.2652174395,-3.8026785994,0.9860748855,1.3211805445,-24.1031024966,-0.4695050226,-1.3978057356,1.189776563,1.6334533498,0.6982569771,10.8800385754,-1.1525218241,22.6052113447,-7.5880622708,0.5867375327
##end
biasActivation=0,1,1
[BASIC:ACTIVATION]
"org.encog.engine.network.activation.ActivationTANH"
"org.encog.engine.network.activation.ActivationTANH"
"org.encog.engine.network.activation.ActivationLinear"
