encog,BasicNetwork,java,3.2.0,1,1428210722874
[BASIC]
[BASIC:PARAMS]
[BASIC:NETWORK]
beginTraining=0
connectionLimit=0
contextTargetOffset=0,0,0
contextTargetSize=0,0,0
endTraining=2
hasContext=f
inputCount=52
layerCounts=1,79,53
layerFeedCounts=1,78,52
layerContextCount=0,0,0
layerIndex=0,1,80
output=0,0,0,0,0,0,0,0,0,0,0,0,0,0,0,0,0,0,0,0,0,0,0,0,0,0,0,0,0,0,0,0,0,0,0,0,0,0,0,0,0,0,0,0,0,0,0,0,0,0,0,0,0,0,0,0,0,0,0,0,0,0,0,0,0,0,0,0,0,0,0,0,0,0,0,0,0,0,0,1,0,0,0,0,0,0,0,0,0,0,0,0,0,0,0,0,0,0,0,0,0,0,0,0,0,0,0,0,0,0,0,0,0,0,0,0,0,0,0,0,0,0,0,0,0,0,0,0,0,0,0,0,1
outputCount=1
weightIndex=0,79,4213
weights=##0
##double#4213
   0.3200410748,-0.1996808335,0.3837843073,-0.3230721438,-0.350325341,-0.4009413563,0.4238859234,0.3447515939,0.3723458074,0.3128104845,0.5237692234,0.3104751559,0.1616421493,0.2387387872,-0.1522784554,-0.2224367611,-0.6588437518,-0.2497108641,-0.4101775646,-0.9151571342,0.2646257261,-0.7289774072,0.2481745144,0.7138000367,0.3298220161,0.1507467485,0.4418652152,0.5372886422,-0.299361706,0.2338577933,0.4119077211,-0.429955242,0.45150556,-0.2311336717,0.2979233737,0.1841542097,-0.4828509278,0.4408802304,-0.643497678,0.2335596561,-0.4748741219,0.4470842461,0.2288156811,0.2542320642,0.2410321504,-0.4048113608,0.2960111257,0.2439799331,0.2276999091,0.2256326053,0.3739304499,0.5722780883,0.4947739638,0.2955373374,0.5002485764,0.4525232281,0.2965829035,0.2395349751,0.3264834416,-0.6969251404,-0.8981696752,-0.4177689147,-0.6956348836,0.3935297909,-0.8523664062,-0.9678148108,0.3145119049,-0.2806732842,0.5069639222,-0.1920706872,0.5396827164,-0.8074039925,0.1505759597,-0.3429560368,0.544177773,0.7356410932,0.3337062193,-0.524303786,-0.2849162327,-0.6480969177,2.2011008319,-1.1212061061,0.2211822085,-0.23893186,-0.1685137624,0.716650689,2.6081765811,20.806316302,14.5892183924,47.2604536749,57.4035464521,-10.3099698506,-0.1571533853,1.05969622,6.6635325816,-3.9303759566,-5.0285574857,-5.086319022,13.2709397609,8.836567355,2.5695247438,0.5440716757,0.9993807895,-4.3373312258,-18.3644401522,0.3916700092,15.4017196628,-2.6049513582,0.2875655929,1.1039515115,3.4082033245,0.0526855581,0.5797619216,-1.6182296039,1.3470697851,-2.2012226278,-0.7626474458,-0.5481558634,2.8736787844,0.065317012,-3.6554625384,5.9294768485,6.816168292,-2.577617705,-1.3021946129,1.0969008505,1.343631103,0.9240845837,4.9355813032,14.3059603814,-0.7909567058,0.1253697905,-0.0068535419,3.0259547264,-1.0410884309,0.2740815574,12.3551840847,-4.1644811426,-0.2822784759,3.5638635381,156.8064089178,-73.202069,413.1890214353,-727.2690417272,-23.0333007598,-12.2658026197,0.4135135526,-16.7136287014,-0.0619539712,16.4329617685,-15.1079387282,-23.8649480367,24.0175685826,6.7956068082,14.0420171064,-3.0470603641,-8.1139121885,25.5632543683,13.2681297166,-48.3051841138,2.7898824664,2.6710708976,-0.9251786336,14.7343532869,0.915690462,0.341144276,-5.1679239664,-0.4873572976,-0.7691402197,-0.7713642874,-0.6508325218,6.9705939936,4.2438728074,-0.6655826626,15.7634249047,4.3311198523,-0.7924891316,0.3695977066,6.0863053977,2.5509868557,7.4683495555,26.7699814909,15.9309651884,-7.593869687,-0.728165651,-4.1580478186,4.5340026499,0.9768002705,3.2788780409,-2.824875541,12.8952438714,-11.2937925811,1.7993607721,-184.164917358,-53.5893471288,12.5860917793,1157.3968910966,12.3586642801,1.3474638866,4.7726450821,10.3321846431,7.0758667611,5.7369926184,-6.5731015507,-0.4726728737,-5.7578129686,15.6590187208,-44.4369819587,-50.5918441318,23.4135562649,82.0032059343,-42.5367811531,-71.6704647364,6.9236204829,0.1348862488,0.7628647716,-12.7952441834,-0.0444912381,-0.1023639275,-1.7814942925,2.2405213798,0.3537823168,-0.5754449137,2.4933627664,6.1043714819,1.3035902851,20.9281223255,27.9641834786,58.8771707204,-15.0391057739,-1.4476322852,2.6281553167,-3.4628770221,-6.1051066043,9.7299527762,-7.8972014411,-7.241331098,3.1853371625,0.8839203767,0.2537336047,-0.4298279598,1.0706222546,0.5293319166,1.8153798852,2.0953507295,0.3816081856,-17.5082062437,-62.7609135906,333.8161370351,128.2727036223,7.0805695842,0.8994078868,-6.7457910553,0.0803115052,-3.2812324546,-0.1044919003,-5.6470409141,1.4849809629,8.3851747248,4.3648990848,-25.9759134057,23.6479517698,12.0048999678,-14.0367436577,13.1757762046,-7.0566954199,-6.83720582,0.2141775823,21.3595768711,-3.7725461262,-0.4847552607,-0.2252254139,1.855759905,0.8963143036,-1.4767264594,0.4324594987,-4.0185277937,-1.5505354482,0.29960779,3.5672817392,5.7527562194,2.9350392541,14.5721067325,0.6205801262,-0.2353409772,1.9772505979,-2.4999287728,3.7014032058,8.9513205055,0.3884554642,-0.0593607109,2.0158114978,1.1391902125,2.5993157744,-0.1043024395,-2.1997152841,-1.271751553,1.6352319234,7.137006314,80.4175592838,8.9928296486,-118.395840001,163.9765625875,-8.4349874651,0.0489839895,-11.6114142587,-3.5303259462,-1.0032316041,1.8470159275,-3.8880130361,1.5834802737,-5.8718334122,-20.6075379368,34.996671682,7.445587422,-2.6876940642,5.0071040986,0.6748449092,-13.6603857152,0.1910975669,0.9149140965,11.4604300594,-2.0107510254,-0.3729154214,-1.1842591325,0.6087508525,5.2159425148,-7.8368608511,0.3889706417,0.6569027329,1.6974909268,1.8321923438,-4.8984317744,15.6635173376,-3.601643675,21.824153015,-1.3372331309,0.3515996136,2.1201984165,1.766365391,-7.999184373,0.2776232576,-7.2234519948,-1.6558862676,0.9136722088,1.841048482,0.1558663219,-0.0260062873,0.6725509188,-1.5513575303,0.236447558,0.3198225802,10.3967008933,0.5671621024,-151.7220219436,12.3785046051,0.5998595218,-0.3073653895,0.6226499741,-1.984928797,-4.0941277673,0.5854227435,9.0349825733,-6.8202958096,14.86558254,-38.76076138,14.500505735,-4.7449467977,-4.9665577694,9.6932549093,8.6429609845,-0.4503730967,-1.4298034916,-1.5658143286,0.9592044813,10.8509058226,0.6039040481,-0.2648710683,-0.8109172639,2.0268792655,0.035289291,-0.7886984654,1.5330142099,1.8934716085,1.373922173,2.0224385411,0.2216523178,11.4836670749,-0.0915184318,0.9820610467,-0.2504651943,0.5127524284,-0.3722149303,19.055141046,0.0876845145,-2.8408874583,-0.7894688606,1.0875250669,0.7937369949,-0.3015951361,0.2571353755,0.2387717282,1.5717773772,-2.6308334609,2.1670312882,22.857482954,49.2726562045,5.3595566176,-64.737547806,-6.688054665,1.4142708471,0.2213369823,-3.5421191926,7.1792289265,-2.7046671746,7.2656987755,6.9925355816,0.2609478744,3.7535739271,1.0024416378,21.9350848605,-6.6638556112,3.5202824407,0.5278837749,3.5165026013,-0.3294463407,0.4519946816,1.0343250991,6.4414554554,0.0104317064,-0.3970865602,0.0761465828,1.6089508577,-3.5161369025,0.1993597628,0.6408652875,1.7710712518,-1.1526064904,-0.1122107556,8.4838078931,-3.9621409603,-0.6427001232,-0.4320151326,-0.3247158969,1.3038419229,-1.7709084751,5.3159199408,8.4456815113,0.6497897513,-0.0412969891,-0.2465448303,0.8900228871,1.0292981538,1.7382317296,4.0810502125,-1.6841876024,-0.0699111379,-1.2894628973,-2.4320385734,-0.7418574741,15.1250456272,68.352950988,1.1888108351,1.1025707883,0.5698772153,-1.9808789223,-5.1823986574,-12.7795685836,1.8460430718,7.7565464374,-3.692674053,20.1059185625,-20.5258727898,16.5889457842,-11.9423491028,23.4417743948,-14.6531459561,5.4385632721,1.5205329988,0.9697389395,0.5296555697,4.6684872747,-0.9108667892,1.2398780946,-0.3855880713,0.6809438807,2.8217856125,1.7479240812,1.5961784433,-0.8869550787,-0.7054076829,0.2787843029,-13.4348388964,-0.5317759784,1.8986708586,0.0067134436,1.2911783374,0.6372114419,7.4707418634,3.0915721646,21.2884194373,-8.9396580446,2.2465920004,-0.1128388087,-1.9303812928,0.5334702568,0.820044303,0.2508240849,-2.3566399882,-1.644577713,3.5260995506,-0.4218281667,1.6822588508,22.8368289075,113.2712289819,0.5744154603,0.9158976106,2.5623888015,7.6019162352,-1.202057157,1.41596229,-2.8958358257,-10.9721206979,-2.4428278313,5.5472264608,-7.2544467125,-4.6339449692,11.0935823827,-4.9599166146,-4.9932002328,13.8956782887,-9.2398115786,0.2263006033,5.0919839484,13.8662751619,0.6043433951,2.8062416686,0.1617775317,1.922333633,3.8877834027,0.1875109548,-2.805221361,0.0189112517,-2.5584942877,0.3106148544,-0.9027610253,4.479325429,0.2429416255,0.8263687281,0.4477286223,1.051151866,3.7090218355,1.4511033145,-5.848712256,-3.4700842501,0.7393496403,1.1944676912,1.503553106,-2.3666410268,-0.3190529315,3.1806991854,0.6219422308,-0.7694768665,-1.0946114901,-36.6281264989,51.2511117,-84.1453387116,-176.9609508057,12.2719570321,1.8661594546,-0.4915017143,-5.3185044619,-9.445566309,-4.5675328003,-0.9484183438,11.3043464916,1.1281660806,-12.3272667201,18.7799149966,13.675998141,26.9691333415,7.8271589934,-2.8586776838,-28.3651614261,-0.7078666005,1.0106314265,-2.1635415528,5.4252908987,0.2289519566,-0.9918411375,2.7373904804,-1.8162143268,0.3317745884,0.6457422737,0.4734246341,2.442230744,0.4369620131,-1.2951740044,-8.2590047456,-0.122815427,2.0613880353,2.3967594588,2.0500166695,0.7524717958,-1.8757575358,6.7145918831,3.5318001793,-0.3389691318,0.0228621001,0.8120592401,0.9091538994,1.0414360432,1.1681877728,-0.5612924398,-0.1318159074,-0.0683025454,0.1699227212,-3.9535932501,8.2689023361,-45.8654857676,95.470593762,0.771270346,3.6130809358,-0.1385735047,1.7424096992,-4.5809151038,4.4356577742,-3.2298975183,1.0435821353,0.4326607158,-0.6967188709,-1.7724622364,-9.6338093997,4.648351494,10.3300493524,-5.8361150445,5.9193719015,1.5661667238,0.4985393789,0.1432963255,0.5603652381,-0.0692722803,0.7713952103,1.0317032898,0.4042308923,-0.5776285291,0.1788674447,-0.2152550295,-0.3925158228,1.8931756847,0.3871468608,-5.4732184578,-0.1728765197,0.5488805056,0.1016942358,-0.0914150981,0.0883761407,-1.6271407072,7.1268361664,4.6679917103,-2.6108241468,1.2577260067,3.8605225836,0.3947009969,-0.4634100833,1.0059854442,1.7378212108,-1.6407650478,-2.4756032874,0.9904888394,-12.9350622515,-14.3711976571,57.7098007394,5.4027355783,5.5989436197,8.9832187779,-3.21048968,-1.7246903713,5.699336641,2.2751085976,3.5287517304,-0.6937579843,2.9623994316,2.2419778499,0.6123053629,-1.9497655147,-17.501841611,30.1575380167,5.302171572,-14.7519161144,0.3423094186,-1.1984318329,0.9456174692,4.1513863116,0.5104936962,3.1894338585,-3.4736417323,-2.1217994499,3.3362202073,1.3913018854,5.7782848825,-0.2586324465,1.9045200896,-0.5729245986,-3.9995171123,-31.0473428724,6.5654312225,-0.4400786249,-2.9968450244,3.0084366705,6.1758273225,14.7511290184,-14.8655760819,2.1795008314,0.4513190773,-0.3600896065,-1.8568428123,-11.2855222613,0.174636635,0.3658302998,6.5042432978,-3.6137912409,-2.2082072644,0.0749243636,19.7516455766,-687.092554536,1544.0593912226,0.5568474333,-5.7383770562,-3.5713930159,10.5385838572,-24.2714462162,32.9132599195,2.3125379701,-86.6907252885,20.8452810593,-66.5374903938,127.9588877041,-20.399965053,-24.104902291,-56.2499834332,-23.3424553507,-48.871273465,-0.3002154836,2.7002158356,8.7066418527,-13.2675740458,-2.6199342049,-6.4902666694,13.0734576116,23.0316691869,17.0286439768,1.1162761075,-18.9292973124,-10.4961722725,-9.938625019,30.1320197385,22.192101433,4.8208436191,15.1838469617,0.8898352453,6.7372104991,-7.3252389692,10.2157696374,29.311097874,-84.5733980169,-1.7186735806,-0.0919339161,1.1999919351,4.7599921486,-0.5034013917,-0.2165894973,-0.1983371801,3.3010555216,-1.0165729338,-1.4860639302,-1.7063690291,104.0812753525,-291.5799656826,372.5214927856,-5.5638614906,-3.1069670302,14.4115429457,-1.5467405701,1.2894156268,-4.9810129638,3.626140845,20.5624913606,12.9119526641,-31.4606515012,4.0505553544,22.0850182519,11.2880003099,1.5443427077,9.6356731585,-28.1583698312,-7.3242721888,3.3375891978,9.3237969594,-0.802814085,0.2471001113,-0.8615860638,-1.1602166901,2.4261856275,6.3005033917,-0.8546488512,3.4729663973,-1.09347243,-7.32065747,-0.3119764411,0.8405255958,4.7658797386,-26.2340835351,0.4696710453,2.1762836258,1.4967373977,-7.0696097688,11.9107151718,38.6746232663,-5.1442910273,-1.0053921535,-0.4910013133,1.5870990686,0.8080684469,-0.3513287941,-3.5981420163,-0.6448187384,-1.1789750415,0.6678224828,59.005701721,32.3191058985,-22.6044741589,23.4355622106,-30.056423862,5.0068260028,6.6631430098,5.0224732361,1.008647541,-4.3834615924,-5.4669085968,-17.7999043663,-7.3449000994,12.6295235432,0.4204020604,7.589738171,19.1620942868,-38.1163976013,-1.0281384911,22.2162603613,7.7956359366,-0.072988298,1.0598145644,6.5667286343,-2.4262872278,2.4977538082,-1.5214795477,3.0053948878,1.5037626474,2.073279178,-5.4647311345,-0.5959033807,0.8370892583,-59.2250539867,109.6368523658,-5.8707677148,1.2454061448,-0.3712458429,-1.284158237,1.9184611591,46.2898283471,-47.3541941504,-8.858463933,-12.2650898612,-0.3933320327,-2.9937263677,9.1528594499,-7.5645711404,1.9628425122,-0.0966953572,0.2500716485,-2.3730959081,9.873799039,1.6065188724,-4.7797459796,4.937675592,43.2682749674,25.0527641314,1.377878214,4.7370339264,7.8160558582,-20.3255747876,17.8977526709,-1.6054945539,-10.3290138115,-1.533797593,21.9860441707,-35.5008296877,29.5303020195,-14.9579272286,82.0757168578,-80.2770734437,50.3127517767,-2.5051766989,-2.2809034288,0.3953476737,13.1917837472,1.1815785708,-2.5463973283,1.9720305333,-3.0509147,5.0679473118,-2.5226784064,6.6790044355,1.8456318152,-6.0739017138,-4.5862961542,-5.7658466574,-1.3199025677,-3.7720629001,0.11960198,0.3070006675,1.409117338,11.0522310223,15.6391834384,30.4560581126,-11.0388543024,0.9705431232,0.2876814543,0.4957413135,-0.8158530465,0.5815429721,1.1461431364,0.6724426571,-0.1021892498,1.0899975572,-2.4179193466,-31.5841641132,35.3996704869,-59.8988672893,0.1129670377,-0.0346408169,-0.3941286911,-1.4371035041,-2.2503895571,1.3854135011,-0.268678377,-9.6994780392,3.3927704222,-1.8630446477,-11.8205342732,8.4492491334,0.2430170096,-0.1694873012,0.0669521343,-6.8222792221,0.3255370678,-0.9460702886,1.9146118889,3.7172468536,0.4347026339,0.345360255,-0.5206946803,1.638734016,0.7831725388,0.0084154989,-0.3617382526,1.4560911026,-0.1157457075,0.5906575121,4.7476952918,-0.2873522407,0.5520487532,0.1227084263,0.0877760596,0.4889934417,1.9792759582,0.6544451204,-0.6128898171,-0.4029975617,-0.0922585381,1.3599432285,-2.7563597221,-0.2545797577,0.756704486,7.7662958842,-0.3657863811,2.4067581832,-2.2182609574,37.3187002646,0.769409068,35.4275352897,77.8680552867,-1.8766603305,-30.112720127,0.9932307534,23.3143174987,1.6085587923,3.8804443363,-2.6506588532,14.8733380701,4.6172097522,-22.1614225466,7.1509279915,-0.8163375953,11.3320234893,-15.6989175903,5.1094211777,16.2198649621,-3.8382468432,-7.0145110908,-3.3374113939,7.6855782843,-0.2033918127,-1.3621269773,3.0953008158,-1.5497863921,-1.9400744359,0.5630739258,2.3734328072,9.5320537004,-0.2138523388,22.6690091817,11.4932105423,9.4276308497,0.389318199,0.5550734326,1.5978657605,0.9539050704,-5.231929425,-3.960438412,-3.4054738921,15.8910914176,0.2703211991,0.4461321317,-0.1468573845,0.5164158342,0.2122448305,0.9802674979,-0.8305486248,0.8060823804,-0.0444871855,-20.9068982678,24.4365055143,-12.8473129524,109.3898600868,-1.8547783329,-0.3071562382,-0.0488068657,-1.9713651403,-8.7015494804,1.711867022,-5.2501031102,10.5342465792,6.6036823051,7.7841444645,7.9508627933,-5.9699025654,-9.6588796805,3.5504229712,0.4877153787,6.766541452,0.6459668784,-0.1293431614,-0.0023278154,0.9324997373,-0.1762691356,-0.1470542986,-0.1467263994,2.4247200406,1.991956706,0.2246438382,-1.2406826006,0.8571920697,-2.3996363147,0.1062352354,-2.1134920417,0.2091492135,5.0006090144,-0.4998157948,0.2988552015,0.5511051163,5.6312230682,-10.3261811027,14.1282924466,-0.5173709011,-0.748720929,0.3075283123,1.2648645323,0.4219267732,0.3379231256,0.2570207364,1.1697149807,0.0475144898,-2.046445547,0.7053796074,0.1942942736,-13.2974327093,213.3183923231,0.8204205771,0.4012762344,0.9884066852,-0.9765084465,1.1931149662,1.5533394869,0.809474943,3.6960409541,1.8164456396,-2.1890471858,-4.4867433434,3.0518458048,4.4969731379,-0.0846127383,0.5414898013,1.1516628746,1.424852555,0.8837499004,2.0592876088,-4.7489030672,0.0343411758,-0.2662218274,0.2380131382,0.5196543672,0.5089501923,-0.2188579591,0.5713936953,1.1747131082,0.7283308111,0.7770675516,-0.2704102116,2.0499035659,-1.0755398542,-0.2204475874,0.0730074592,0.13928725,-1.5786695376,14.3908250042,-0.1713602747,-0.0626020887,0.6386617092,-1.7270761392,0.2634797893,4.262891324,-0.0367618372,-10.9174146001,0.5572628882,8.6548019759,0.1894902499,43.4318603639,-69.2793220662,118.6804323532,-795.854600433,0.1564469678,-4.3776320709,12.1701545043,9.5620357136,-7.4828630284,10.5605508431,-0.7146364997,11.9892224504,7.2316989376,24.4734958239,-11.9969110704,-12.9659159762,-5.5867896016,-15.2835198327,-5.6702396574,5.2388727045,-3.848929472,1.8251809224,1.0218025253,-10.6049949344,-0.3311055669,0.2264266215,3.3227923617,-0.4428049982,-5.1774186249,0.3375839483,0.1140372696,10.2174654446,-0.2195622851,1.0604731979,-1.0178678516,1.8698279167,1.069239609,-0.3666324667,1.1980555234,1.9022912749,-4.7511705036,-6.7156410274,14.8212263005,-0.7992802129,0.5141670353,0.6763213687,0.6512614955,0.4484901506,0.8324897102,0.3602206397,0.1972096065,-0.2332199519,-0.0771222911,3.2415474174,3.3473895915,16.3325397346,-1.8402889166,1.121889975,0.3986186384,0.6806983207,-2.054638505,2.4901480346,-3.3754988839,-0.4018045093,-5.2196614711,5.9004232433,-9.6181978627,6.385842218,-0.0212246092,-1.6137942505,-1.138042798,0.5788827657,1.7890359658,1.503178241,0.4994451502,4.4143036687,-3.9863607531,0.9104177495,0.3086466371,0.4477500242,0.449924286,0.5173829587,-0.5630139187,0.2069623502,-0.5476903643,0.448219506,1.6180007433,4.012598097,-0.1311362134,-1.7045378688,-0.3603663587,0.1111823168,0.756758584,3.3937372634,-2.9422342933,-2.1492089194,-1.2523777001,0.1028310309,1.7512384056,3.2038899448,0.2784199671,1.5594226572,-5.2435090772,-6.2477545826,0.5460713194,1.6584949872,-72.2733379525,3.3619469869,-392.9616186772,-469.5770144687,-11.0474026155,-5.6996940274,-1.3873886237,-11.4232701462,8.9941209067,5.9320332168,-1.4265364911,57.2818991128,-7.2094799416,54.6541091429,-81.0529062686,86.505277632,11.6124504571,-30.2180388401,1.7109945756,-30.4245373899,-3.1564164138,2.5016006013,8.4576833496,26.9175630021,-0.0755514713,-2.4064617273,-0.9600359327,0.9400644554,-4.6230935102,0.5253342623,3.040167694,-1.9354753891,-4.3600718769,26.0738203103,6.0085580177,34.7293926868,48.2298173337,-0.5798228991,0.1914676178,3.9947851845,-6.36003083,-2.0278376723,1.0111916117,-3.653927601,0.4649864568,0.6400148379,-0.5703673258,1.0765340656,0.3770750939,-0.4027967737,-0.7033958203,0.0657888458,-0.5154321666,0.3817347539,0.2242047693,13.8515201668,44.2429216767,2.8281287315,0.8615116064,0.5539663392,1.6090582224,-0.3730965207,-5.5701276834,0.4001152517,1.4185965047,-0.1886007723,-1.2192695551,0.7908117184,3.7376164912,3.2473100403,1.9709397857,0.2120588475,-4.7215481072,-0.3510946434,1.4828888692,0.2654186458,0.8298289165,0.2170335624,0.0260778641,0.3957255674,0.7871911944,1.3053139299,0.2337980808,0.8727358183,0.4581246975,-0.1824621416,0.3954747258,-3.5120462517,0.1759917525,1.6860854443,0.2035262564,-0.0962913161,0.394713529,-0.2075780777,-7.7153761845,9.0863360048,-0.7084110183,-0.0000293112,-0.4401461134,1.1996989608,-1.1456935742,-0.1601081559,0.8639058541,0.2106845791,1.9396406198,-0.4787278291,19.693251919,36.2211550527,132.9924372105,-133.8627766193,0.4606188591,8.3167806761,0.5170927345,-7.5914529244,5.6237887477,12.9895868695,2.4946882878,-3.6785216703,3.4590708356,1.3657836493,3.2305610383,0.79116747,-1.1913637641,-1.5923299041,-3.1066575078,3.312145631,2.8936263716,0.864068794,-0.4710046627,-3.9512333926,0.088967301,0.069793418,0.4657592272,0.8550971135,1.3159013158,0.5744216489,-1.5232762181,0.1379162735,-0.5167797515,-5.3552816188,-0.0998412758,-28.14921447,0.5095350547,-1.0945058362,0.7052711112,1.7370417593,-0.7987101178,14.1425271665,-17.50253237,4.1686269732,-0.2313264601,1.0228328039,-3.2385691312,1.2636893419,-0.3264780522,3.3374492096,14.1732792059,-1.1478474311,-22.0477948463,-1.5083386586,-265.2838934311,-528.6484965034,-708.4048565379,-4.7705259996,0.747857748,33.9120077794,75.1551251256,7.6961519034,-31.5712649312,28.6580842134,37.4317986528,-23.7090304516,74.6350375976,15.8559317555,-79.8421746876,-10.1681465548,4.4157684706,-26.0769080799,37.1156686696,-10.3175432003,21.8278388203,10.5850504619,17.9076641597,0.9363689244,6.6993628621,-1.4921433394,1.4070712326,9.9950229018,2.7537713913,4.3297138989,6.8949296961,-7.1215661694,-2.9918985917,-24.0126750649,24.4952174557,1.8278670177,2.5152918708,3.5820681933,-2.1924057206,-16.3137819189,-9.4112080868,10.5862250704,3.6053634906,-1.1138107796,-1.0008637611,1.7125190549,-0.2227549824,-0.1340084665,-0.3550237115,5.5460723969,0.0534411095,-7.9878422386,-2.9642423744,-4.9768286921,51.8421440348,28.3339886432,0.1684753326,-0.0311764172,0.5967002218,4.0466365147,0.9156347283,-1.0402121131,1.83596165,0.5205163179,5.1760959537,-30.9029274029,15.1440363967,-15.5975316534,-1.6533127758,11.5476900926,14.996781324,-5.0477746868,-0.3156099426,0.2344324645,-0.3066072999,0.7583406329,-0.3597412907,-0.1053737474,-0.4583053439,0.3548724839,3.0695249538,-0.0888827918,1.3848406954,0.616293352,0.6784151992,0.40155947,2.9799362026,-0.7783987228,3.110242441,0.3138010503,0.325520749,-1.193306586,-2.1342020493,7.3594601812,11.2497544224,-1.292349401,0.0333993933,1.4056692556,1.3833799263,-0.4608969016,0.5842044047,0.5531779911,2.5554637487,0.5871548779,-0.0043036495,0.2568266303,12.749377382,-36.4017875507,-72.5295924838,-1.0137302834,0.2225072959,-0.3208281699,-0.0191639915,1.8584395878,2.6131922159,-0.138920551,4.0397637516,-0.358165924,0.2804387355,2.9762948395,-4.5751084329,-0.2180031721,4.5287001605,-1.8837086249,-2.0350470034,0.1798324945,1.2953894576,0.5193047519,2.0388482575,0.438315408,0.1713082682,-0.0776803094,1.144635047,0.1735143229,-0.0596425896,-0.4269280367,1.9045235904,1.4247719128,0.696389882,2.5074216284,0.7382353727,1.273359839,-0.0054348538,0.2201178598,0.6857522498,-0.550742158,-8.5848215592,-5.1806786616,-0.6461631615,0.1203640008,0.803099444,0.1779372432,-0.2175902337,-0.3017805546,0.1530905138,-0.9967166816,0.853022632,0.166940428,4.0386851251,21.1243883401,-69.7154657942,72.7553079159,6.460856828,1.9055027504,0.593829747,-6.1125448605,7.7731632977,-0.8401471623,12.5702717783,3.3294407769,2.0033257186,-13.5336888786,14.9716083057,2.8153704224,-1.0247451593,3.1019949603,1.0569267893,-4.3821035475,-2.1320062244,-3.5976185623,0.0042484421,4.1838866201,-0.4060008433,0.380729587,1.4739425625,0.3092647822,-2.9958453266,0.9182555675,-0.0041962165,4.1020109707,-0.0239887391,0.4478680306,0.2435548542,2.4795206201,-5.0355925407,0.7178965071,-0.4139670132,-0.1230747805,-6.3637875363,10.3748618676,6.4888957822,3.8879227264,-0.2732212646,0.8456949533,2.8114497762,6.4879252744,0.3688239599,-2.1460873341,0.2075222572,-18.1159988618,20.5073545116,-102.2990940649,-15.8222807659,234.3970489366,-397.0817382112,16.2901919579,7.7653782555,0.0409087328,-23.0581395233,-1.0548348327,11.2844334704,-1.2006224351,10.7014739379,-35.5156685494,12.06228791,60.8210611679,-47.3468230301,-6.9731965615,10.9497391303,-0.9177720325,11.9884360065,-1.8471318689,-2.0508218244,-3.4050167593,65.3623930273,-2.0319191472,2.0967043258,2.5397490559,-2.8833050098,-6.2820198974,-0.0181307785,-0.5642020944,1.4934411206,13.8061344326,0.0963713178,-0.655519049,0.4587129159,-1.8515982638,-4.1408684661,3.3175198368,1.5062187211,-18.6775335965,1.2792145685,66.2902971498,-0.2621401254,0.533208803,0.5494053206,0.0500709034,0.7540588601,1.1660342863,-0.0291297762,-0.6593958605,-0.1694934029,-0.1977856437,0.6634368975,7.1870449459,-48.7825143813,239.5300316503,0.1344398479,1.1439143246,-9.8953077019,-2.6373538227,6.03772373,6.877683359,-0.5194951157,9.0088832716,-1.0119638093,11.4795511621,-0.2085524919,-2.7040870215,-6.3930889334,10.8452102796,-1.0525986333,4.679964915,-0.0718489782,3.259579906,0.497439236,-14.0433060481,-0.3953589876,1.6147953736,0.6045589807,-0.1408916225,1.4344834138,0.6427435487,2.1846141933,0.6092302848,1.5774733168,-0.0651740057,6.8323897822,-1.2696180417,10.5642096303,0.7425218862,-0.0178212063,1.8108435872,-4.8610752608,26.5526726201,2.3297248358,2.4382685397,0.8172369261,-0.1432459329,0.6992449923,-1.1280668531,0.299260887,1.8580676888,0.0448995453,-0.3262507461,0.1939331975,2.3332666352,-12.4853957893,-29.5676174045,34.8405334644,0.6546859894,-1.9702403563,2.0096577154,-4.4233945352,-1.1895079661,4.876659842,-1.7910437063,-8.4601000311,4.8093481132,1.5210616594,-0.6557645368,-8.2093874995,2.4376637621,-3.5166561137,1.4795287767,2.4974089087,-0.3502509434,0.3536820688,0.4023303741,-0.5496448914,-0.0080922411,1.1987209674,0.135880952,-0.6615157543,0.9549106204,-0.1337940779,-1.3587241027,0.5359863981,-0.9589013989,0.5976362856,-5.9444938739,9.3212576064,0.724139185,0.0387573972,0.2935139232,0.7631579742,3.5657888709,4.1479402523,-9.8533833386,1.547148773,-0.4797103834,-0.611224001,1.5517622708,-1.8203258779,-0.4226568924,0.1229649663,0.8840431128,4.8111700081,-2.5619689745,0.3868228084,64.3702625069,105.5117729526,149.9255515481,-10.2165961341,0.488935053,0.4989514619,4.0049736222,-7.081705738,1.1809523083,-0.1739398047,2.7041541519,-5.3488682145,11.6920434954,4.3753843076,6.2628939997,-1.5720528408,12.116326262,7.2846328457,-10.1796037489,0.4301344068,5.1023263933,0.1372311215,-12.0391807509,0.2427646728,-0.7839225094,-0.6969159441,-1.505328081,0.8906601248,-0.2220786224,2.3632164223,1.8856056305,-1.8898423367,0.312799748,5.8742533521,2.7681728646,3.2267621158,-0.8347862964,0.4648280909,0.3628262891,3.8697808269,-1.2149831868,3.6300871299,0.6593370726,-1.2287611644,-5.254959027,0.2334834304,3.453546058,-2.1888765758,-1.199216425,9.1955952322,0.4048780169,1.7910581769,115.5498839682,54.4284356418,123.9148264448,122.3607036156,1.1044900286,-9.5735079738,-9.1127239997,-3.2050394432,5.371304085,13.2733406545,7.9720718078,-22.033548768,8.0079405698,-46.2793442259,18.4486371166,-11.7745261768,21.2927437974,24.1307233797,-7.2284062715,-15.932093858,-3.8584017745,6.9598190797,23.8618735337,-17.0355958547,0.3189259483,-3.3164827386,-2.2163868825,-1.7266225254,6.2795078878,-0.9006641083,4.54865926,-3.8336444363,-3.9442230116,3.1457276588,-3.3114969191,-0.0398444616,25.8148847336,-0.1596914838,-1.304539382,1.3084281427,1.3994358118,-0.3065052779,-3.1382363814,-13.1770230839,-1.429520481,-0.0672411001,-1.6441942249,-0.130653839,-0.0262245541,0.622701931,-0.6413026684,0.4487128435,-2.0561306784,-12.2500454418,0.7710460245,40.0468087127,177.6110216169,2.5813520636,1.107337336,-1.2228572245,-5.3254802772,-8.2850734686,1.0068060077,0.5592670647,11.1859550656,1.8125606621,10.9999767506,13.5372494067,-3.2553076548,-16.5681720743,-1.018321038,-2.1636356098,-2.2294518975,1.9490671805,-0.4030712182,-2.7747763387,0.728856071,0.4739408404,1.3924725204,-1.263826757,0.5805206912,-1.0609832788,-0.8402558417,1.378773665,2.6236089629,0.6455640952,0.1200487147,-2.1582748162,-1.2408733699,-5.9788993002,-0.3242118538,1.2443789563,0.5813473499,-4.942292861,-10.0238791571,10.8881512905,1.4196231667,-1.6773877056,2.4009099706,3.6376516008,5.4923197378,1.98234479,5.132880759,-0.1949192472,0.9334633794,-4.1572356994,114.7779503593,-136.4945102225,452.0269865308,42.6568565798,1.674259335,0.4145526571,0.7433257534,30.8222209179,-1.1963320488,-8.8877361139,-21.0966428082,15.6942748136,-4.0154965851,-2.9286789378,2.9523149272,17.2881976738,-17.7002614776,55.2968081909,13.2684163136,-53.6485042505,1.088348172,6.951068394,0.7503595187,-1.7731812704,-0.8371854074,1.9176959464,0.2421378925,1.2512949508,-2.4248406527,0.8854597547,0.094514078,5.0624303518,4.4501119642,-26.0760948929,-0.692839403,-9.7143552565,4.9942630847,0.7496092691,1.4601255662,-0.6219128084,-17.7606981873,-0.4693643577,0.9198191851,6.7492868895,2.2282470149,-1.1466701468,-0.3243189527,0.1039518307,0.66851198,-0.8866141297,-0.7341094241,-2.3107127806,-0.5145253237,70.6308091846,-22.9750010569,72.4149337796,-57.9481162467,-6.8981796575,-0.1993116465,-3.3174972418,0.5152323256,2.4399438885,2.4099019263,0.1419275504,1.4070532743,4.5101267189,0.2384696925,-12.9769416926,29.1910231727,-2.5521517681,-0.5205570308,-19.0843539416,14.5369862189,1.1118598015,-0.2227974079,0.3273160552,-0.8712130927,-0.5174968844,-1.0706590271,-1.3333604753,-0.3835785466,0.8036777826,0.2800924111,1.7183656291,0.8983506553,-1.5423563414,-2.9352181643,12.9024555745,-5.567344162,7.2556157755,-0.2337854221,0.5167365681,-0.184851902,-1.7841236883,10.4529321431,6.1554168548,-0.8001993264,0.9087340841,-1.2134131757,-1.2447077994,0.910527732,-0.3742122649,0.0057794992,0.4829251027,2.6738761836,0.259547096
   -3.9357949652,-8.4934577547,-85.6092333021,-89.0134797284,-2.5798939612,0.3203254491,0.0247097243,1.4721292302,0.5970591745,-6.5863653516,0.0554466007,-7.0284466558,-0.4733819083,-10.3333630447,27.137526472,-10.5445799346,-4.3991815327,-4.449167462,29.2687755404,-15.4646940035,2.0311019386,-0.152386075,-1.3724749608,-8.5192842777,0.2860178633,-2.2965768476,0.8327243839,0.5359885623,0.8058696437,-0.3781640172,-0.9641991122,3.3104540743,-0.068424926,0.6640938746,10.1063756604,-0.0695634739,-3.0659321091,0.1156848298,-0.1910604458,-0.1287607445,0.1681379044,2.4447850723,4.2956776917,4.5049892557,-1.251857086,-0.3373578477,-0.010459248,0.1197047788,0.1649037322,-0.5449737438,0.5592636771,0.0379926356,0.0854855257,5.6920740238,0.3295013808,-96.6498728426,104.1085594487,-0.3423854771,-0.0037603617,-0.3550336288,0.9974825871,4.1671743916,-0.0090482355,-2.7512612225,2.3532038288,-0.2148527519,4.547078921,7.8519792554,4.4925570213,0.1263781195,1.6346726791,0.4218177788,-1.7124397894,0.6097652101,0.1900904407,0.3682472673,-2.4109805739,-0.4648434153,0.0884172983,-0.4219103206,1.0834304376,0.1946519701,0.8346922471,-0.1183251334,1.1309532323,-0.5753261415,0.3785752133,-0.2793389291,-0.3370317887,0.0865978702,0.2999854321,0.5162641664,0.3189545707,-0.3324445102,8.5426986981,0.6566321844,-0.3999797851,-0.657633559,1.3149989141,-1.7272824189,0.2533770607,0.4759152542,3.319407343,-0.7310122239,3.9771043705,-1.2960626466,-40.603829401,-20.6145236028,-22.2600909006,129.287396145,25.4879709768,49.7677519311,4.5331422492,-39.6527993157,-13.5702200587,-0.1159054719,6.4557395826,-26.8783370993,18.4346398101,-5.0704711724,3.5856404673,-33.9145884768,-3.2214055692,-19.2954135071,9.435325677,6.0629793619,7.149432996,-0.8683813184,-4.6145417669,-14.6761070377,2.246665079,-1.3277873223,-1.6284455137,-1.630525761,6.0183609491,-1.2175526654,4.2276611801,3.4668514483,-4.3695167742,0.6485396865,-72.011606028,-0.8677895795,-18.7989640195,1.3194376069,0.7164886077,1.6995343174,24.0972883199,28.6351218929,1.930633428,1.434502689,0.383024149,3.0951999701,1.8903906616,-2.1871289328,0.0421891361,-0.6454989804,2.754690271,1.4911226613,-4.4853223979,16.033646602,-41.5012875252,-109.2445111388,63.0539394015,-0.4083598773,0.4161600355,-0.3743187666,-4.9560100567,3.2311014861,1.6760419879,0.8679788285,-3.0564929226,1.4581432126,9.5716524585,-9.0085026277,-22.5109004221,7.6166773212,0.0251657326,0.4587837908,19.5599168598,2.8141921239,-0.4673757121,-0.5151120149,2.1640719258,0.1337648239,0.149964145,0.6880269817,0.5145354048,1.6793082248,-0.0954836684,-0.9940478657,2.4604017319,1.767223862,-0.6686668121,1.046092021,0.0727347376,1.4981917745,-0.6976689307,0.9677126504,-0.9723558537,2.2326951274,1.8370178915,0.4621294558,1.9269880744,-1.0597758259,1.7508669844,0.8897608133,1.0564137171,0.2309161735,0.8582438411,0.0450478709,-1.422901542,-0.2869616877,-8.9641061347,-13.6427194192,-109.8984564139,-43.8644500275,-0.6702623627,-1.1086680993,0.1744681009,1.6336830021,-3.6164476168,-1.3914126836,4.1500235957,9.2524178146,12.6480343577,-7.7402886166,-23.3746666779,13.568353022,0.8323660633,9.3007524507,6.3584626458,-7.1248079529,-0.5324329036,0.3893991832,-1.86661352,2.865192137,0.6783745788,-0.1472331691,2.3990889388,0.3438748025,-1.2172083564,-0.0244985138,-0.4926826608,2.6455392917,0.2263450244,0.0105908902,1.2431718516,6.2038190458,0.2861563133,0.1597231386,1.3032763018,2.1725234232,1.5814761544,6.4891053772,-0.108942619,-2.5952736409,0.3504467643,0.989310937,5.4382262492,1.2477322603,0.5825276325,-0.4362767548,6.8910108029,-20.3036824185,14.5258167781,-43.1228195099,105.0773336387,-154.2845471242,155.1556822242,-3.2803660216,-9.9546307187,0.2175366511,-5.8123493052,-22.3118114542,1.4607457853,1.5770920179,-7.9452206638,11.8356913061,11.5001793222,-12.8026287861,15.1411986237,-2.5972453385,-1.7811118235,-20.1873116133,4.9469730149,-1.058409779,2.0807052103,-7.0524699862,-8.9166829573,1.7977403285,-0.484228794,0.502691054,8.6662222923,7.1643588745,0.0024896471,3.8287592778,1.9058024011,-2.8959957577,4.4905316774,-0.6308722346,7.5334757151,2.5053258179,1.6030913514,-1.5584988336,0.8280913678,10.3654877397,15.0949851239,19.6967381932,22.2656309784,1.0063688688,0.6158197248,6.0837642612,-4.2147845433,0.3489187599,-2.3771464042,-0.035226485,-3.1004508678,4.5376361278,35.1442503617,-86.356460776,146.9362024915,-207.165690562,0.443807781,1.569849362,5.7135317059,-4.0723378947,-3.5107308969,2.6358747336,-6.3833147665,-1.3805988887,3.6568083139,-4.9251471483,6.3992249929,84.2844864763,6.8269980866,-2.6097598058,-5.4829291604,-1.4532047346,-0.5051480487,4.370256138,-3.3030137262,12.0195382773,0.4133556694,1.5390520033,4.6138297265,5.4464386755,3.2111467862,0.7679615173,-3.9533240423,0.988184677,-3.4002225797,-2.3166369991,8.8924946192,-0.8441136857,7.1408160649,4.5518398684,-4.228674892,-0.1298319063,0.5128245244,13.3314794338,-10.0558838922,-8.7515924259,-0.7253008986,2.8745798298,-0.9653885212,2.4738595135,1.5292074078,4.1268830797,-27.3739844008,-0.4536432391,3.480724433,-16.4739018651,16.3980274472,-136.5914832867,-421.7751229626,-0.3978693605,-0.0532045111,-1.3188785244,-6.1787640587,2.5182867719,1.6736732435,11.6928054245,-34.3918152865,-12.818501131,-2.8776987525,18.9938223575,48.8980828703,8.5978485148,-19.8336066736,52.6243802954,5.8692412362,0.5476396927,-0.12116824,-1.0256215445,19.7078653504,0.910861714,1.8338710664,-1.8544575456,5.6782766284,-2.1186757247,-1.3487342582,0.6952767149,4.0802425826,2.5016490888,0.5531774444,53.3462777336,-0.6616097518,21.6432021414,-0.537458322,2.447488413,2.0996316624,0.387394077,20.5826831067,-27.641310228,-11.1755611896,1.9187808087,0.3212881172,-1.1832413417,0.9188643637,0.3334074085,4.420798653,0.2037942303,0.4728730767,-2.1711301312,0.161477451,0.1324053751,-42.516485384,184.8348361057,0.4984696304,-1.6460736412,-0.4868520613,-3.7828484018,0.9594618584,-0.1364836027,-2.2782261676,-4.0716308086,0.2694377382,10.4128309677,-16.6166618697,9.6931655884,-3.7999219095,-0.1229260997,3.4086548614,2.9346830497,1.7528637251,-2.6227634264,5.1247391735,2.4052052834,-0.4746261237,0.5309030622,-2.0092383924,-2.775717015,1.8403500488,0.6932596351,2.5333820303,1.6782479894,1.117487911,0.079186233,-3.4112217184,6.5881658336,4.405653897,-0.617348823,1.2906251056,1.6903036279,-0.9798355089,-27.1450529341,-3.5940085566,3.0716392658,-0.4697797981,-0.6511703431,-0.5041884539,-0.3021657436,0.3489790956,-0.6417210025,4.1820151602,1.5546377483,-2.908567989,-8.7532659741,-0.0506719333,54.0109500689,9.8525735418,-1.797208734,-1.9472789133,0.6774313685,-6.2667503512,13.3444571116,6.9266600446,-1.6648649469,-2.0317440225,4.4591191863,6.3096113905,24.5485515537,18.4230377577,4.2914480035,-17.6322933285,-1.3868693456,0.6333584996,-1.3601872995,1.6411454604,-2.0392524911,-14.2793830558,-0.8299491311,0.5237224714,-0.0584312641,1.0079131328,3.079818231,1.3119333045,-2.1179982451,0.6065749247,0.8583535635,0.0371224613,-1.6638344888,6.5647725024,1.6154701252,0.3936522992,1.012998049,2.4670882566,10.9743176855,-1.4501407525,11.7509049827,-3.313593328,-0.8188908722,3.6248922932,1.6319459571,6.377943208,-0.1484290516,-9.8758747729,24.1698826107,0.8012494581,1.5798507913,-23.1182648177,8.2270581441,221.8727974515,1475.733550561,2.9857927623,0.323304315,-0.1631355634,-1.3808089665,-8.6868823743,-15.0090000196,-2.3914941721,-48.1595416865,-13.1472281187,36.0414258991,-38.7044262833,42.1434148836,0.2069810466,18.3118237317,2.8998351395,-21.7325405427,-4.0906995168,0.6701011205,21.4691904832,-32.3937534243,-0.8205278811,-0.6067787916,2.1993149592,7.0851326946,-2.5968981476,-2.3022030912,-0.1193473565,3.0184557188,-3.8860333645,3.0569668603,38.0721511729,19.731928953,-25.3626875376,3.4718228427,-5.4072028625,2.4852437607,30.6006984931,-13.407848887,-5.5209380659,9.6358997714,-0.5068066968,2.8257609452,5.2618687751,-1.8463798816,0.8429880092,5.5604506026,-3.7790081017,5.4483985475,-2.8047209922,39.9892919145,-85.5199838853,113.1880355877,249.5452735344,-4.8877655684,-0.1749111426,0.3564223817,4.2780110529,-1.5180704791,-8.3390500896,11.8517812351,-14.1861787511,38.4372471756,-8.780315203,12.3494047146,-27.118460858,-2.9776585352,-8.7143143862,-5.1488844384,-16.5604726992,3.7000572561,0.2702513355,-2.7069583252,3.6263560851,0.7243125063,0.7995935118,-0.7807085507,-0.7990676298,0.9472262594,0.7952838199,2.1898666541,-0.4424806837,-0.7466982766,6.6480373891,-11.4131267174,1.6640859286,31.1793206666,2.1518101292,-1.8712820937,2.0270383238,-5.7589436876,-13.8487744872,10.1111516303,-2.4944487165,-0.0956338533,-0.5482585738,1.7881624926,0.9656086019,0.368135498,1.3870632632,0.2057861518,0.3856759386,-6.3550540542,16.0268020899,16.7438677509,-13.3717230862,12.0045271997,2.5695386441,1.2232996831,-1.2031710249,12.4120499375,4.4077354187,-1.5729810081,-2.5568694399,10.7232493808,-8.0591133311,-9.9778179944,-4.7050382298,27.6548158197,17.6192883638,-5.2345895767,-6.9672092293,5.2563290959,1.3249121479,0.3363209211,-2.7270470515,2.5044496407,-1.108930638,-0.3585999449,-2.4166529816,1.011229575,1.3962744079,0.4274473412,2.2444278078,3.2185608746,-0.5079932917,1.5531965519,26.277742345,-4.921328944,-5.5999518382,-0.1581719811,2.1403608691,1.3415471281,7.4762614274,53.4815751682,-12.291440092,-13.9628440748,-0.7574448325,2.0591166229,-1.4052738343,1.2582894025,1.0823516465,2.8547801502,0.092907356,0.3889414899,0.0361039891,21.6564124612,-2.0471986637,-28.5817659202,106.7744056575,-3.1632487567,-5.3444276821,2.7293214209,11.0548754205,-0.8131506557,3.2092066034,-5.2167119669,1.2764541264,-4.0020651981,4.5504834195,-0.3971980658,15.5051034446,2.9781890847,-7.4236680389,-4.7129549969,10.5554628805,-0.4317214778,0.6036796391,1.0898192626,-1.4716401472,0.0353334553,-1.1354645597,-0.6936057203,0.8045190082,1.978957741,0.565239298,2.898178381,0.807194608,0.3924875724,-0.0368446266,0.9859606541,6.1033922025,-1.5293950935,0.3644762623,0.4332360071,-0.4541016564,-3.7899304568,-7.381590784,6.243793333,-3.5544079756,-0.2026859046,-1.0578521839,-0.0520632339,0.1058716323,0.9787657361,1.260674794,1.4163077177,1.1026314705,-1.6207570774,14.614794176,-6.6597018506,-1.6994313135,42.7758607859,-0.1546642438,0.4803415091,-0.4654752051,1.5573869325,-2.2848232534,-0.3446942417,0.304467993,9.6422896305,-9.0763226655,29.3483851088,2.1794412928,-12.8781140122,-4.1596990331,13.5619701018,-0.1460384461,-9.4698796999,-0.5090560054,1.5795011584,1.4254053746,-9.2052507103,0.237229083,0.2164298888,-0.3347689588,0.100127723,-0.3817167598,0.2691916836,-0.2007969735,0.6715584023,-0.125392389,-2.6933552344,0.2683810391,-7.714389114,0.0692022988,-0.0040257326,0.4753597247,-0.2764671483,2.8157341946,4.9434910291,3.8814072806,-0.0592428882,1.0413245588,0.3015964409,-0.8969275616,-0.1367509928,-0.3428286327,-0.0332398247,0.491613106,0.7805732256,0.1063517498,11.3926877121,-8.7984972422,-156.3787380995,170.4493781478,0.2527930282,2.0122166016,0.0988135736,-0.3611802857,4.0382250611,-1.571681734,-5.7793523492,-8.4056296884,-1.3109887474,3.3771850385,0.2287021595,-6.9836139549,10.9031179958,-0.7761985618,0.9685588382,-0.7513634969,2.5626089939,0.5887300953,0.5730060908,-2.7258824552,-0.3897147993,1.2223268366,-0.0323195984,1.8503318564,-0.0243420903,1.0595504669,0.6040029252,0.6373594217,0.7873706638,-1.6187253323,1.0407038229,-0.9277383344,-0.6500190408,0.3539767012,0.0603123743,0.4024967711,2.4120852989,2.1274875571,-15.2781127968,-0.2842008395,-1.259412662,0.0349930659,-0.6779865487,-0.0164535463,1.1874838181,2.0124736285,0.5191222945,0.3266018334,2.7388125907,12.8656228544,0.435276791,-31.9806490113,-131.7909924629,1.4887081488,0.9955510974,2.0653114773,8.3583071572,0.0622205298,-0.8110069061,-8.6399071414,-2.7898006703,4.2063740719,0.1423685536,11.3079220779,8.2380608346,0.502321458,-7.2653390381,7.8446437734,-1.5898032101,-2.3930248433,-0.6459914419,0.1854819062,10.0579150919,-0.0429038505,0.2459232679,0.1299860607,0.2830976713,-0.0273773333,0.3597166011,-1.0921109982,5.5073097814,-3.6382023957,0.2899496021,-4.7769345585,1.8884239489,0.8241782741,0.2783695582,1.0785827356,0.2408871118,-2.6348250185,3.8903447874,-1.9883413654,1.1773435383,0.6736635447,-1.9845613928,-0.13622433,-0.6398290233,-0.9214601526,0.4449528258,-0.2454070263,5.7009228881,-2.9917251149,0.0280761435,-13.0339750401,-10.4736927084,6.7501121206,2.4107845682,0.9786026758,-3.1615836279,1.6865095384,4.8466220233,-2.1807152612,0.8762625923,-4.8799760136,-0.396782417,-0.8317171434,3.6369409516,-19.0789737548,15.4781012634,2.1600143356,1.8029300454,9.7344880985,0.4455102182,0.3811923443,0.0034360464,3.3119339152,-0.0582582732,0.5391579835,0.6373039533,1.8251941553,-0.7761383306,0.0947223784,0.2901979891,-1.1951981982,-1.2990682843,0.8738729543,3.6524811651,-1.9278751712,-0.8345918757,-0.2289743736,-0.4961229291,0.0775374504,-0.2376788547,1.7531167763,-2.7908774963,2.0267932848,-0.7652020951,1.9961114007,-0.6629680175,-0.2747630322,-0.1574036822,-0.1630540503,0.4426802507,0.8864828718,0.1604894627,1.5211241933,-1.1826146793,-0.0789110077,-114.3476309891,-2.7016258601,-0.675584231,0.2929516097,-1.4062615857,4.1338450011,0.5446294193,2.1688237646,-24.7439905843,9.0388786007,-28.146938822,-6.4941755167,1.1363904416,5.3943211928,3.676791386,-0.4197677896,8.8119662455,-1.340340219,0.1873947297,0.5545726174,5.9687834824,-0.574379266,0.5862009756,-0.0653287032,-0.4208437468,0.4064163718,0.5827318062,1.0970211683,3.6034576995,-0.3969842821,1.0727914415,17.2079096492,0.9248681665,0.2128200591,-0.5406865564,0.0833686773,0.8451835604,1.3544884187,5.9726469391,-3.0988522928,-0.3354024358,-1.0153531281,3.1876156507,-1.3255398797,-0.8839249218,0.6762780158,-1.0145482524,-3.4743121616,1.5717151956,11.9658836808,81.7066260596,-49.9360842894,56.2622596346,143.0636566046,-33.0510732613,-1.22330304,1.9243150365,-12.6803560283,-11.4480079453,9.1648292764,-8.8024611594,-24.1149379132,1.2681759048,-11.663994706,-5.7805943461,4.3292990231,-11.0337323133,9.6822104142,14.2460409865,19.2352921263,-2.2004425171,0.1024529518,-0.4313757443,3.9061640153,-0.6683717193,0.3008367484,0.5991829998,5.3020789369,0.0445857746,0.0735488112,-2.9433256354,0.3295151455,-3.5541364406,0.0121439607,6.0025629137,36.0763329673,-1.7376828309,-1.6165679339,4.2552076994,1.5347345217,1.7172148843,-12.3679007122,-5.1458316536,3.8433711039,0.1575441817,1.2415866043,0.3538249011,1.4716396275,2.2341552723,5.5568486845,-1.5844170527,2.9995791022,2.9408654653,179.7679178556,291.7623998049,-119.7080185033,42.0556052878,-12.7678299312,3.5776651505,-22.598580609,2.321945394,-0.4110943094,-2.0659626981,-12.9840206034,-6.0972879924,4.4959680082,-7.0359817936,-22.8265096518,31.1189091962,22.8960264914,-9.6379906736,9.2865298884,-5.7062162194,3.6469314919,7.460209993,-2.0169566796,-11.8312942359,-0.7312673244,1.4809697161,-2.2782992048,2.2121747055,-0.4749749119,-0.1122691602,-0.1980280003,-3.6197647642,3.1695894265,-19.5803462711,-15.6705725639,-10.1415903145,9.6957879154,-1.1495739799,1.0088327957,4.8667989701,-1.603165113,-3.1716768875,5.4485875133,-4.3582748461,1.9634831322,0.0794173687,0.2145153145,1.2007126339,1.4332878443,0.0580815596,-0.9714114048,-1.84866542,-0.1126595497,1.0213426405,29.9691747929,-63.0356962617,42.8681832954,0.9016219302,0.7663605404,0.0270797108,-1.2784758074,0.3179178747,0.4711155905,-0.7247694545,-5.0158982977,-5.2803865227,-4.9649411065,1.8816655174,1.6069479986,1.0585745914,14.2197389125,0.3399523538,8.1950698467,-3.579891625,0.4028432525,1.5822077415,0.7207604391,0.3908376821,-1.1002995909,0.932059428,-1.9661138554,2.8935231479,-0.0580501282,-0.3603840259,-0.5359729492,-0.1743224209,1.342246228,1.3208284101,1.7645404864,1.4795598283,0.339542046,1.3824205734,-0.4202207651,4.2741028288,-0.6880663204,-11.1322016036,-1.0224403482,1.349221795,0.1213097795,0.5515107121,0.9266085001,0.7466013832,0.160810257,0.0294857384,-0.2413511781,0.5944327656,-7.2821787433,0.1539105386,17.2744268222,-146.2672853162,1.8904996721,0.5540817076,0.4599003743,3.0639156086,-0.7469830127,1.1774363549,-2.3525774767,1.6940901354,-0.9589319905,1.4623698193,4.4900337425,-3.8341911994,-3.2605711774,6.2025171265,5.0541477258,-0.7489919851,0.5371808755,0.3915958588,0.8833322856,0.9878415745,-0.1485181811,1.2971017585,0.8110978579,0.3025769932,0.4380498422,0.4279383535,0.5430125177,0.1973528984,0.4745950136,0.7300424158,1.5563636182,-0.6960957822,-1.5056998178,0.5262262371,0.4770709839,-0.1273445712,-3.5184579962,3.5332336929,-0.8503763816,-1.1173492607,0.9945071148,0.0763736809,0.405602661,-1.2715693638,0.537251609,0.6196052223,0.8615830286,1.3795175213,1.2775737366,1.0052718525,0.2734327852,-41.0104208776,54.5553677308,1.6066825773,0.0290352131,1.1674674116,-1.7059666084,2.8683057748,-0.2804687153,0.2642231289,1.1239219405,-3.333261809,0.703247001,4.0146185632,5.0414493159,-2.6475692189,4.3863293764,1.5498217738,0.9922617454,1.3366075064,-1.8352216062,-1.0392994644,1.4604728872,0.0370855754,-0.0605786096,0.4506456359,1.3233862743,0.8643738769,-0.039339406,-0.4775757585,0.53087668,-1.0102916036,0.4692435852,-0.359869231,1.3799527011,-0.7871540105,-0.4515643572,0.7081569114,0.612244914,0.8958856016,3.0142932008,-1.9135261915,-0.9681412322,0.2446612252,0.2948423698,0.7284160904,-0.9319289443,-0.3208277235,1.7256949784,-2.6162238582,-0.7666961167,-2.6448940885,-1.3263742649,36.7126251395,30.2515643552,65.7376439163,-1.2123953899,-0.6601687655,0.5610318942,0.0608401437,-2.5791825574,1.6942281863,-2.8654793959,-4.6561046779,0.0074863637,-0.940808868,6.3561522739,1.8233675933,-3.7318328785,13.7296825613,-0.1226104363,26.5182080154,2.0099412056,0.0211789502,0.526034706,9.0047879221,-0.0313871741,-1.2116437942,0.2639238685,2.1837635809,-1.711507181,-0.3593869427,-1.0346782763,-0.041270806,-2.7091635094,5.6242333117,3.6821697606,-6.414233684,16.3208860995,-0.9007433753,1.0530425182,-0.3254029085,2.3247076866,8.5306456409,-0.929143607,0.2892831495,-0.8642812267,1.1620315988,1.1634778724,-0.7522613775,0.3199000801,-0.2750315586,0.0660307637,0.4788646018,0.0806045773,5.5392537633,-0.1542336824,11.1314355045,-75.08661628,0.4433809507,-0.0731496254,0.1510920122,2.7594152417,-2.2436821258,-3.838492283,-0.626619175,-2.1304477018,-1.6554905626,2.4322321215,9.750576306,0.2747167115,4.8070114463,2.2066300262,-1.7641837513,-2.6658209937,0.6298439224,0.0987372862,0.3637825219,-2.1023464898,0.2476002951,0.6341385548,-0.510549284,0.6510751012,-0.608953256,0.2036947646,0.9681384025,1.2857688051,0.3546023516,-0.0667599734,-2.9830601561,0.1828351643,0.5513732177,0.8518618288,0.6175722289,0.0921234535,-0.9724759693,-1.56386169,3.6727206014,0.9954982063,0.1515104699,0.9574857916,0.4972354512,0.30197739,0.9138052501,0.9752683751,-0.3954770779,0.3869520921,-1.4595041865,-9.3184186895,-0.1763965132,-63.064399203,95.0684450598,-3.3063367154,0.4812138988,-0.2111645961,5.835994582,-0.5809116081,-0.0812192157,-3.1147181171,-17.0761596992,6.6893071657,-6.2754875631,4.3768438657,11.3418129461,-5.7664687778,-6.3390714395,3.6509242974,4.1400235953,0.1804041554,0.5444951087,-1.1072909818,0.9133395863,0.6001316194,1.0390334178,0.5299435494,-0.0921290115,1.0351190536,1.465598241,0.9464857756,1.0559807338,-0.9973404158,0.8495408475,0.2778075929,8.722437377,0.5049465713,0.806344387,1.3156605398,-0.4446687712,4.7574825144,-10.8399449564,-5.3821685122,8.1135551573,0.564161938,0.1520231585,0.2581345365,0.3081404156,0.7343146196,-0.6009627631,-1.1080089352,-0.7484897871,0.3727559814,-2.4297061529,3.8511782028,-2.3870856846,-4.8244030448,-0.5743994011,0.2170525829,-0.4552643045,-1.5942611402,1.451807585,-5.7827365122,2.5010663148,1.2416831259,1.7479999341,-0.1305671556,4.4327985038,-0.261383644,0.8925644826,-1.2190933886,2.2046442198,-1.8126456763,-1.0690610729,0.6597605976,1.2573945739,1.699790806,-0.1808199011,0.4661526152,0.4060051687,0.2313160505,0.8566630444,0.788598064,0.9721497405,0.689248986,-0.3655764035,0.2849495591,1.1861052218,-0.1612771992,-0.0017438219,0.4143091156,0.6791125952,0.9432379315,-0.9802710283,-0.1526002615,8.3917229887,0.4407130466,0.1508027896,0.4877038591,-0.0581624078,1.2375513777,0.0167212856,-0.2737492776,-0.5600423398,-0.5010916644,-2.4179456552,-1.6169796199,10.2655647282,33.4895160763,-18.7800075801,-0.8257302152,0.3535235624,-0.0868374568,1.8699050674,-0.9193558382,0.0072703526,-2.9572589021,5.3955081773,-2.7424796255,1.7082033939,5.4681129726,3.400885062,3.5681351333,1.8781873579,-1.6300665727,-0.1904684909,0.0816380812,0.2918412079,0.9237552632,3.9445277279,0.1997732707,-0.0845208509,0.6084322142,1.0082118816,-0.1792543093,0.0195098671,0.0199281713,0.7933592336,0.6555816427,0.342945097,2.5019677434,0.3688940706,0.5081804253,-0.4250482862,0.1511452361,0.8520603851,-1.2378769268,-4.0833865674,1.9903537916,0.1287172014,0.2698452509,0.5105627188,0.6019609351,2.4056600955,1.5556922516,-0.7959288338,-1.6952826209,-4.0088642168,0.4971008681,0.4763425928,-41.8286148704,213.2326618644,-120.2924366048,-1.9400059441,0.1911413844,0.0422074174,-10.2485093592,7.5716596197,-1.9588576576,5.0087757077,21.2358444601,9.537153842,0.8506167213,1.3650811477,-12.8300188197,13.9089477025,3.1711657525,-20.8059808238,26.6155385182,0.6499124618,-0.6308531717,-3.9348336662,29.9171310256,1.4706745745,-0.6455526571,1.3992734867,0.1220552571,-0.3451556647,-0.1108520959,2.0167381387,1.5201752487,2.8153830001,0.5373859262,21.2554259587,0.5346778694,8.7059064488,0.4332327026,1.0850017661,0.7859341251,-1.4962811485,5.4361014436,-9.0968569823,0.6334251093,0.7832573478,-3.6604799255,-3.072602942,-1.4322574232,0.7602998106,-4.7699813521,0.3973189159,5.2567891867,0.8814268637,-60.16640153,72.987684621,131.4084154506,181.6835496366,0.5064627407,-0.4600219819,-9.5398112102,4.914935726,-10.679018195,-11.6049846255,0.523893321,48.812064399,-2.7212331963,40.8269233279,-26.7631551425,11.6892316625,-22.0968567172,-1.4890251269,16.7801896747,-9.3063077557,1.0837794631,-1.2579164251,-0.6409516935,-7.1128175496,0.4503767456,2.5780484183,0.3144959652,1.2432469947,-0.6899080831,0.3193746219,0.4911982534,0.8777120649,-0.6004396593,-9.8523557233,5.7597665367,-8.1816923186,-3.2604480019,1.3057585585,0.0248659167,2.2284574847,9.8276737876,20.1734364908,9.9011932148,0.6415347393,1.2517287043,1.4562919049,-0.342255815,-2.8677180913,0.707439664,0.1108304484,-0.1650366137,1.272711958,0.8155014006,2.4080842702,-8.9890078846,-65.0761528975,225.4919942262,0.1455029298,2.0578640302,-0.2454180141,-6.0075756781,1.5269898262,-2.5686062878,4.3030118077,2.5512001072,1.9118374538,-2.3702089112,2.1415447773,0.8775693281,-4.0196849836,1.0959996445,-1.2940815647,9.363237421,-2.5053918311,0.14578283,-0.8926937358,3.5261012861,-0.0801698034,0.1432962669,-0.6228803952,0.8285056074,0.1227170747,0.0281888123,-1.8727034053,-0.7484816404,0.506920855,0.7568918411,-1.5448304523,-0.4140081525,-4.5135296735,0.039814751,-0.1512052779,2.0322619721,0.4493444752,9.7547558228,-0.0926178922,0.7078080098,-0.6750281553,4.2752556702,-4.0817661193,3.2290097551,0.7571122234,-2.5084803532,10.5031844153,4.0094792021,0.7139941449,66.7526663283,-26.2182405643,-139.7187471115,53.5377228546,-36.1888096403,3.2035047961,0.0362964446,6.6606686335,-13.2140624426,9.0524969233,-9.8071998644,-9.751713017,-35.5969871828,105.9789214414,-38.0533688906,-5.7032358328,9.1825102586,3.2043361216,5.357482025,-25.213999845,1.4835808956,0.8707946818,0.7667361852,-1.8005531469,0.5974668379,-3.4573241097,-1.5552034551,0.5033919021,1.1442497214,0.5636101942,-0.9739179756,5.6018014463,-4.8353147264,-1.3999199102,19.9414456576,33.1295929706,-0.2224514528,-0.8265792216,1.9771018343,-0.6036744347,0.0256012693,5.8439135543,3.6676928087,3.7798383555,0.4277740945,0.1859935459,1.0355045902,0.5930416713,0.9058478453,-0.5938193681,1.4938836637,0.8404726257,0.8026672014,2.3907827048,0.0987516287,2.494786083,-32.7446435727,-0.1959947901,0.6975715559,-0.0797235618,-4.0515100985,3.1882417338,-1.0917751463,2.2290535063,-7.9796538246,-0.4047009485,0.2972046442,5.5302132572,1.7924615079,-2.1609704394,1.4423542443,-1.3625199388,-1.1730817008,1.2156204631,0.3704010057,0.1103163142,-0.7107763583,0.377928069,0.4038871796,0.3888740346,0.3268701803,-0.5902497409,-0.2226165217,-0.3523847699,1.5339647503,1.1983072685,0.2490643167,1.5525225242,1.4986915737,3.7013127198,0.4624622232,0.1988218718,0.6015739635,-0.7439875329,2.8501774639,-3.1488572511,0.2341090909,0.8913604023,0.6785921134,0.1117832694,0.6742825676,0.2194523236,-0.1208230199,-0.3902015298,0.2755571287,0.4508998142,-1.1003570649,-2.8341630877,0.5024343225,-72.6533525026,-0.8636388311,-1.0540564386,-0.1112408425,0.2919190996,0.8311224781,1.0535096483,4.2101232267,-1.111046299,1.9281509093,0.1963711757,0.5263201061,1.1914824688,-2.9609146087,0.9258263405,0.9559164819,-0.4506893687,-0.7151974793,-0.95155373,-0.1079395236,-1.1659242827,0.3692921324,0.3164111646,0.2375966945,-0.0803850324,-0.0434700018,0.6268827564,0.9448789614,1.2803847449,0.3077552832,0.163418021,-1.7051368407,0.0483398295,-0.2627871452,0.6909967527,0.3235745469,0.7508851984,3.3890935327,2.5904913888,-2.2168024984,1.981035642,0.4421777122,1.1761615627,3.1381469868,5.0631229498,0.1645740584,-4.7956723246,-6.9102045285,0.1248529892,9.7667222958,16.6219108443,-111.3496597572,-176.6373696537,-65.2667600155,0.0291267183,-1.0672192805,0.123900556,-22.5812055157,-16.9812778663,29.3041123312,-5.7617884477,12.6901376579,-12.7451395925,0.6356121716,52.5389445272,1.1274753354,4.4164576666,-7.6851626018,22.5170526775,4.9020842718,-2.0478580905,6.1100045151,22.6132139499,5.5796936166,-3.2667288312,-2.1626407131,0.6019816336,2.7652105445,-4.9400268886,3.5377914926,-4.4842530774,2.3295523201,-2.7402160013,1.0331866761,2.1408410515,-2.1299669357,30.2322621052,-0.0759252463,1.9732559121,1.7968713197,6.9833888808,-17.9790270759,7.9768482155,-4.3330517618,0.348838297,1.9371080812,-0.3899178592,3.8409330899,1.3327838169,0.2045592241,0.3420314818,-3.3146370767,7.1027514473,-9.2160010451,27.2651810877,125.0741098604,-456.1598653788,4.3307174206,6.0714353973,0.2485469942,6.231299352,1.0094505372,4.548715324,4.775516801,-9.2590008795,-2.8784853821,-19.3508187328,12.4006467691,19.4495151675,27.976378829,-28.8095425751,1.2415951275,0.4719654445,1.1482095408,0.6320070796,0.5586045663,4.3050358706,0.0339310092,1.4445549701,2.3125162601,-2.7414967579,0.2016170153,-0.5847022274,3.4796287121,7.8805622204,7.8106962836,-8.4372213564,13.6081593055,-10.1893531279,0.1387443659,0.4076896163,-2.2394274286,-1.2174378321,-1.5583070439,-5.7261377795,1.986118414,-9.2120732353,0.7916139961,-0.0921196417,-0.280412608,0.0239616137,-9.4302157511,0.6884418022,0.8577335113,0.6449923276,0.5552303972,0.2926106521,-0.176656393,0.3136088736,-0.4788910501,-0.1165806934,0.5982519573,-0.5869274335,0.4707148266,0.5358913954,-0.4468984664,0.2130625325,-0.1015441696,0.7281158726,0.148007262,1.595129294,4.2646683747,-1.4008920747,-2.087480048,0.9230239719,17.8336287285,-0.7766634178,-0.3966339534,-0.036161372,-0.1166890313,0.34821808,-0.2297924536,0.0661412994,0.5670544031,0.0193983135,-0.149883364,0.0200612468,0.5085145497,-0.0278497229,-0.0840621376,0.3727954163,-0.0380798669,-0.0188079892,0.5014618149,-0.244881338,-0.0025007005,0.3205035174,0.0834452336,0.3560775138,-0.5357639564,-10.3707851242,0.4492270582,-0.7369061083,-0.0752725056,2.2476186831,-0.5622518499,-1.2860808641,0.8172503362,0.5483464991,-5.2899339468,16.6257193858,-31.8600165537,-36.5766506707,-14.4067838291,0.4512562195,0.6140364088,-3.4595118727,0.7872224214,1.9109154624,0.5964007898,2.4406706007,0.0541443574,0.2658456896,5.4836719419,13.1982535519,7.9986202403,-36.4052845056,16.7978659765,4.1936051895,0.069053726,-0.2637792066,-0.2473421547,1.0771644285,0.2863312459,1.37900812,-0.7456244389,0.5314450613,0.5687234975,0.0047101454,0.0962498796,3.4299580845,-1.5496956539,11.1536589085
   7.5165253115,3.1563130847,1.0026823634,-0.3565607515,-0.2240499409,0.6634165113,-0.3126876519,1.6441477703,-16.1059829324,-0.020773704,2.2728042356,-0.4583662198,1.6977222074,-0.738732772,-0.0337961287,3.8151481711,1.0984771799,-0.9500934638,-3.9821321964,25.7157437297,-44.7557022749,-45.0916585299,-102.8408833872,-6.3273456805,-1.6429722515,0.2425161734,-1.7386550576,0.3208074551,6.2451441448,-6.7957700049,3.3039113657,9.243846965,4.2575051113,-9.177153355,5.5363286077,-10.6698467795,0.8043707915,-3.6939445391,9.1071211152,2.5659690174,1.9946450454,-1.1589477211,7.5575546426,0.9697678774,0.4094027958,0.0944466365,1.9281291279,-1.6600177393,-0.7022513457,0.9651331185,3.8030259424,2.7504263863,-0.0195749222,7.7996561459,7.2813975942,-1.1143519932,0.0300730186,-1.1172145595,1.1092824579,2.456445913,8.2338153017,13.3895807896,-1.1599010356,-0.9114296473,0.3024958978,-1.5357879002,1.1545703381,1.1596077964,0.4197803226,1.5862532106,1.2297034369,0.3247550311,-0.1000387947,0.0145781076,127.0766089497,-1.5725316412,3.5000889463,-0.4826581679,2.7889033745,12.7144467442,-4.3363537208,-3.3684120543,-7.3345550282,-5.4361333282,5.0664679195,-2.5468994531,-0.1690830593,-5.5673395796,4.6145272347,-1.7748586336,-1.6416732274,5.6024963797,-2.2879893236,0.270921932,0.0398230169,1.2962005423,0.4841793519,2.1875784106,-1.280062591,0.1653559538,3.2408649091,0.0881329242,1.1555686943,1.0217372004,-0.6277622001,1.1556965965,-0.1261416908,1.8367383451,-6.9851377661,0.6649185883,0.778729534,1.0445842416,-2.8337705207,12.3375603311,2.7641321386,-3.1005834741,1.2221306591
##end
biasActivation=0,1,1
[BASIC:ACTIVATION]
"org.encog.engine.network.activation.ActivationTANH"
"org.encog.engine.network.activation.ActivationTANH"
"org.encog.engine.network.activation.ActivationLinear"
