encog,BasicNetwork,java,3.2.0,1,1428175834924
[BASIC]
[BASIC:PARAMS]
[BASIC:NETWORK]
beginTraining=0
connectionLimit=0
contextTargetOffset=0,0,0
contextTargetSize=0,0,0
endTraining=2
hasContext=f
inputCount=52
layerCounts=1,79,53
layerFeedCounts=1,78,52
layerContextCount=0,0,0
layerIndex=0,1,80
output=0,0,0,0,0,0,0,0,0,0,0,0,0,0,0,0,0,0,0,0,0,0,0,0,0,0,0,0,0,0,0,0,0,0,0,0,0,0,0,0,0,0,0,0,0,0,0,0,0,0,0,0,0,0,0,0,0,0,0,0,0,0,0,0,0,0,0,0,0,0,0,0,0,0,0,0,0,0,0,1,0,0,0,0,0,0,0,0,0,0,0,0,0,0,0,0,0,0,0,0,0,0,0,0,0,0,0,0,0,0,0,0,0,0,0,0,0,0,0,0,0,0,0,0,0,0,0,0,0,0,0,0,1
outputCount=1
weightIndex=0,79,4213
weights=##0
##double#4213
   -0.2444611325,0.3374541474,0.3438938454,0.3387086586,-0.4638755931,-0.4734880142,-0.4322785923,-0.3873189068,-0.2502622546,0.3464747045,0.2042181916,0.4689490472,0.3568976268,0.3926659192,0.5314019576,0.1260289405,-0.5675500451,0.1012677789,-0.3857425273,0.110358005,-0.2308784829,-0.4335340263,-0.1525824216,0.3512255561,-0.2648448326,0.4289970895,-0.237524014,0.2383807407,0.3447909117,0.5919901356,0.5874071517,-0.2393556755,-0.3493010333,0.3403745907,0.2017756116,0.423742394,0.247569204,-0.2044401044,0.347914319,-0.2892321894,-0.1737540843,0.089352925,0.6565472264,0.4054484337,0.2331699266,0.1916020724,0.636278582,-0.2692369111,-0.3116473991,-0.3048913309,0.2456829552,-0.5063132747,0.6388452126,0.4954419384,-0.2835389125,-0.5172448567,0.3543510119,-0.5225005425,-0.275453027,-0.7619643591,0.2953499456,0.4376332499,-0.7557082289,-0.2662571362,0.4011204994,0.4561711379,0.3823508856,-0.31787541,-0.3881207639,-0.2275759496,0.8615592368,0.7952803609,-0.4749813111,0.1539559923,0.4117852592,0.5020946738,-0.5621165274,-0.3585822493,0.2671840854,-1.0929717512,2.7807853592,-3.5336818398,0.5647732364,-7.684070857,-1.643582125,-7.023386431,-1.4276454422,14.3604050849,49.566342362,54.5036639459,462.3596042753,-1.7143503224,0.3094341244,-0.7323175577,-1.5041195182,19.3163947397,-8.3645919457,6.6886635919,-4.0540719328,4.9703660524,-2.4526272277,-10.4998901577,83.0210719998,7.4866052941,-15.2638158989,9.8296375096,1.4179940857,3.2778224079,2.4697553858,0.2630491028,5.6306168472,-0.087447123,0.3583550576,-0.0280388305,1.9344388016,-2.6923151868,0.6763067186,-4.4751598466,4.6859157477,1.768322874,-2.3345434426,0.1980558392,-15.9113075818,30.108524457,1.3163501739,-0.9418926622,-2.4508412721,-4.5807062597,-0.553489338,18.7447899381,-3.549857126,0.9600966688,1.8605626162,-0.5335825409,-4.3701157606,0.1448230548,-2.5397643956,1.1417239315,1.0016700247,-1.5653196851,-4.2966855187,27.0315861439,124.3254328442,-317.786715135,0.6369599376,6.7610577019,0.3512479762,-5.6225738509,1.8271724822,1.592424427,-3.0665477201,-8.4756122153,3.2275408984,-2.5042592699,3.3475518438,7.517764423,3.806429237,1.2434038359,-6.2456658487,-2.0038492225,0.8149537907,0.5424346527,-0.0147671468,-5.5977779821,-0.7230626647,0.4774275306,-1.3071892921,0.961025934,-0.0909722652,0.3680104459,0.2519161399,1.2136141622,1.9691550002,0.3393157271,9.7129513074,-18.4354023254,-2.9429392512,0.4481547879,-0.9085809994,2.3885357866,-3.3359757168,11.2104733162,0.9668941944,3.623097606,0.0869048899,1.0002200103,0.8120467231,2.2252580337,0.6348554015,-0.0106551399,-0.6223771934,0.3723805666,3.1973004496,19.9250689621,-76.2319972042,280.6797105321,-138.4518571422,2.6411515016,0.8374817318,6.1715349185,-0.6011915836,1.2958976625,-1.7626408031,1.8777716893,-4.2201316134,-8.2913494878,11.2450342594,5.8471378491,4.0803490479,-4.1996268436,-0.0199350045,-7.8290631972,14.8935624322,2.2781196755,0.5016702935,0.1354552027,-0.7550769306,-0.2382398256,1.1764323666,-0.5760594889,-0.5065949554,0.7795931995,-0.5360249417,0.3775429723,2.0203512638,0.4089966806,-0.4407988307,2.2312412312,3.5768198214,4.1615922374,1.8853249239,-0.2200615636,-0.1622409247,-4.0545539222,-10.2743709029,2.4267356329,-13.948444414,-0.4969019035,0.1411936904,0.9970102432,0.2206963525,0.3571787443,1.7249527914,0.3762844194,0.4890757962,0.1620944506,-7.3024277975,-2.344874869,-60.4730431576,44.3802982783,-0.2341894533,-0.0822632562,-0.4216024066,-6.9267864119,-4.9296074756,4.3407862609,-1.5457417345,-10.960998009,1.6578536464,10.556176563,0.4191992025,-9.8351060206,-11.062136923,5.3685590875,-2.0417329769,1.3020056134,-0.0480637473,0.0672040954,-0.1048242565,2.9835272658,0.3772798393,0.7275170732,0.5289433544,0.4168219178,0.6158679935,0.2109790263,-0.7962798286,-0.4588389598,0.0687505808,0.5538518814,8.517353828,0.3429894943,-0.1585760201,-0.1541530403,-0.0930505553,0.9563003714,0.4370453682,-1.6157905883,-8.856540626,-1.0400645861,-0.4125378656,0.6379229765,0.8550499582,1.2080615735,-0.1881817496,1.4762703969,0.5254930266,0.60863589,0.7906351896,-15.2624748648,-28.4844816821,9.4771454676,-20.6535864252,0.842136681,0.0179699148,-1.3704700315,-6.3523800752,-0.1481092866,-9.1647206213,-3.1962351475,4.9999349524,7.4297745434,-4.952764815,-5.960737265,0.1594812893,-1.0926140459,1.3498626331,4.4489594947,-2.1490935926,-1.7242882065,0.1454492495,0.0821893023,5.0933761276,-0.7029931648,-0.0904046147,0.3821019551,1.106062484,1.615690827,0.8797691567,0.4869275051,-0.564036065,-0.9117421544,0.8820010379,4.7424461662,-0.9546668511,-0.6432334597,1.1455402769,0.5678243413,0.4384301993,2.9496243875,7.555947267,7.2359329761,0.5919999612,-0.1478559254,0.4144831106,0.495413083,0.0939480481,0.5376925734,0.0849173931,0.7765737766,0.4623033838,-0.4547462241,20.8280332856,31.255437942,-40.0934839833,67.8161650144,-9.9553797708,1.7115757477,-1.9314283309,-3.4781687638,3.6777511225,-3.0375343763,-1.4826189497,6.7286640415,1.1216578618,-0.4119093994,1.3814584506,-1.3719327966,-2.3909812564,-2.1734803433,0.7680176432,6.9001525287,0.7712330905,1.1019015434,0.8358291918,1.9779735995,-0.0530873938,0.0058890703,0.0524989013,-0.7427997325,-0.3899646827,0.6564036984,1.0831761352,0.2365007284,-0.3006238457,0.0698507016,19.0917263856,-4.5375998037,7.147233897,0.6971337018,-0.5658410407,0.8350864743,-4.9718666491,-1.6864887722,-3.07427642,-4.0205008203,-0.5416634534,0.0518603554,0.2373441885,1.4151280078,-0.0352471643,-0.1427053252,0.2397967659,0.1954972367,0.9620582308,-1.4678750451,4.0085226451,11.2279286933,-12.7230646958,0.3670077409,1.3223642745,-0.8332167948,-1.4684181401,-4.4019325286,-0.964927051,2.4154304995,-3.7226781075,-4.8031273801,9.7980536646,13.4455970468,-0.6784017903,4.11274514,-17.650240885,2.2722563693,4.9961535374,1.171550608,0.7780497219,0.9551337257,1.0223371626,0.1535525517,0.528355313,-0.5411224356,0.3865726356,1.0718273047,0.8528539637,0.1119503549,1.0955763905,0.8572182022,0.5971378727,3.9826995614,-0.651985262,3.150607509,0.3388111782,0.5018107594,-0.5907969581,3.4274799732,4.0672670536,5.5998454444,-5.9090019301,-0.6697082537,0.2754914764,-0.4629761513,-1.6500270163,0.2541163652,0.7545858695,0.0638949286,0.9047599991,0.5151742093,11.1002966762,-41.6159242961,-33.0130328783,89.8983051172,-2.2067593704,-0.710357107,0.0628089767,0.5000683034,4.3850334223,10.9261379167,-4.8701418466,41.3279229914,-2.5691351661,6.1618142567,0.6329878809,-9.1608679281,-1.2385728397,-1.9495850416,-0.3661072559,0.4739031358,0.1290076439,0.5864882583,0.1577786047,4.2688072726,-0.1582016775,0.0304912963,-0.073094105,-0.6337618927,-0.4228925412,1.1010321218,1.5470200322,0.1442160108,0.996098094,1.6567284045,2.8482970285,5.6362168765,-4.6882554067,0.3921933108,1.570177557,-0.2473359811,-10.4014529692,1.0190729424,9.0368427512,1.4521459674,-0.8188258119,1.4106199113,-0.1918647382,-0.4009942725,0.5762904428,1.6547501847,1.8891292449,0.3254502902,-2.7766715414,-4.1665971055,1.6560122752,20.6243964963,-117.3530027764,-0.2555335286,0.5579708676,2.0813779959,14.9333979993,6.5514855006,6.7264956265,-5.4527663844,7.8754733311,-0.0987947857,-4.3218343023,-1.6858202776,-0.037338002,3.3313261679,2.9275300358,4.8372171237,3.4670719154,0.1248076652,0.0184833279,5.1199940868,12.523402126,1.123678697,0.1923043904,3.2334035707,-0.083256259,-1.8437587032,0.6929942501,-0.4759982398,1.6097721597,1.5829238087,0.0376651431,8.4750641145,3.106053912,4.6702552683,-1.2278437031,0.2218440285,-1.2193157264,-3.1369885953,-10.8245989372,-33.3334771845,-2.3107587928,0.7840325477,4.602869111,2.7055286974,1.2159944591,2.2473780453,2.2025155543,1.5739248583,-4.5874767893,-2.7701941167,-35.0522487287,-47.1723474368,-108.6908206057,26.8500284039,-1.3669852611,-1.1685674934,-5.6831358998,-15.7115170114,2.9557975646,10.6066976031,-7.0573874777,16.1576330256,-1.1562227121,13.0189846129,-7.082700483,-4.9135252924,27.705089107,-2.5766273577,-36.5423804894,-15.1383537133,1.3798044238,-0.6628921176,4.8267544023,-9.0274767356,0.0038345391,-0.1662380936,1.904068375,0.9094333298,-8.914370071,-1.0785934765,-1.474611631,-3.1535181047,1.1806527695,1.7112394222,10.1982354958,-0.3241692235,-5.7770374931,-0.8319735079,1.4365706756,-0.8757578143,0.358725162,4.2515590154,4.9247178935,4.9787120242,2.1436171029,-0.1500543692,-1.1981350913,2.2474834146,1.5484456144,5.9065204186,-1.1813607122,2.702220054,-2.057266719,3.7487608926,-17.0991169654,-30.4010428157,110.1142364777,-0.8932180848,0.3652289207,-6.0732163429,6.2819287082,-6.9300155802,-24.2587319017,0.9330565634,31.646114419,8.095309271,-28.4930463332,27.965452703,-18.2770158125,0.366297256,15.0095426151,-45.8547989194,-11.1114067562,-2.0278064327,0.17043749,3.7063824962,5.2674283203,-0.7511320741,0.4668501025,-0.2542289582,-6.7328536356,-1.6672019488,0.8296575555,1.5945770828,11.4561690924,-2.5333252816,-0.1336148784,-8.9477518464,0.7415486668,0.804083184,3.0960201418,-1.1272243364,1.719020135,-13.0829056698,20.5155494804,6.2894373382,1.9079659829,1.524248311,-0.2128841318,1.0850037257,-0.2055355424,0.6473938516,-0.7015431132,0.5666373089,0.8656820407,2.4544765291,16.5734182438,28.7250980212,14.0363437211,43.2406575253,0.6505974985,0.7303761762,0.5220975048,-1.1866565252,2.5922179417,-0.307410252,3.9653096829,2.1603400054,-12.7041404826,6.7120890011,-0.6458563016,-5.5712175083,-1.027358184,7.7146920281,4.4421996,0.4547255208,0.7990624024,0.1475203141,0.4260106551,-0.107796292,-0.0643039204,0.4759083753,0.0928560966,0.4150698149,3.3387147843,-0.1717621276,-0.6299062987,1.3649063435,-0.1054416251,-1.2025340997,1.5865250637,-15.0517559583,11.916355816,0.2308218937,0.5276537942,-0.9771942618,0.2127925593,6.7448364827,12.1571071192,0.644319961,-0.5511912781,0.5936410079,-0.5405419651,1.3106341161,0.6328508647,0.6948005669,2.2065399978,-0.3974998258,0.0391396345,-0.4039776499,49.9944228566,-222.4457926479,-30.9153469791,-1.0632901968,-0.4813306895,-5.6614211208,-0.3806929381,-6.6189284793,8.272103465,2.7012989539,27.3612734483,8.8611947169,-14.9068856239,2.1897746379,19.4485299436,-2.0438154937,0.7478800792,0.9988217797,-13.2723535698,-3.7944625274,-0.7268988145,2.908982166,-1.6692037639,0.9182492231,-0.7911843436,0.7243731167,0.7879834994,0.2071263121,0.101229785,-1.8491854719,0.4326500227,2.1219561208,-1.5030684199,1.8385434645,-0.8351561487,28.1765563058,1.4956335286,1.9926062376,1.5176127006,-1.2500425815,21.5238793933,3.5523777082,-13.0675360077,-0.1292178894,1.4805855694,-0.1137852283,1.3249627213,-0.3083802095,1.8657787624,0.2066410526,-0.7602046179,5.4479790995,9.3384565063,44.7439804323,-100.9194668878,406.8338368147,-3.0951433588,0.4457885333,-2.0474019058,-7.3726314155,2.5508656824,10.506139679,1.4981004175,-7.259377084,0.9486445264,-20.2919537275,-0.5749662506,30.8145793396,-1.7856515961,-1.1003686635,-1.5231060853,2.4651614094,0.7312308043,-0.5910620175,0.0200388631,-1.0275772765,-0.7145806293,0.7599554194,0.5217729565,3.3403913421,-0.3165717785,0.029790445,-0.2911691755,0.0135657512,1.9201279029,0.1498426515,19.653187783,0.3712987671,0.5266315991,-0.1419903847,-0.8264117945,0.7625762808,-2.0727457984,0.4736025073,7.6824532471,-1.1531508156,-0.9898962145,0.2104766514,0.6759461944,0.3635733428,0.329638863,0.819625113,0.1043837611,0.3275964254,0.1136737554,0.4009822365,-0.7838201718,-12.5473903302,-25.5815472459,0.1316871347,0.5098750591,0.3473875041,1.9264353519,-0.9441773053,-10.4751422468,-0.6194616815,1.2064059932,8.8758997114,-13.8222083425,1.0819573176,10.7727247525,3.567454851,0.5902611016,-4.9787344507,-0.0578312041,-0.1610496692,1.2646530741,1.4062961319,0.9559262065,-1.1257938633,0.0753225513,0.2820572977,0.4248636922,0.0086376414,0.4875586005,-0.448001094,0.4643369717,0.0564709817,0.0229950058,-7.546905645,0.4012362317,-2.225768633,0.7104751606,0.2394377384,0.5905424698,4.876573904,3.5789793194,0.9992957627,0.5266220666,-0.6597789875,27.9058108078,13.6367563219,4.9816234256,5.3007069678,-11.1014190079,17.4947493825,-29.6811776995,-28.7450359566,-493.0572562301,-48.290037375,-826.7300477944,3544.7075357993,-3.7036559238,4.6653097351,1.7036543158,9.0643230387,-19.1895738751,3.3534746811,20.7311214141,144.0292039062,-1.1619803548,-49.4162845039,-5.8210249729,-9.2369103366,-138.8804490148,80.1643963406,170.4289553205,30.8745526819,40.5506559288,-7.6960748263,-45.4059300987,-214.3541996856,5.6947297067,-20.235873322,-14.9263860623,-7.5556001434,-14.6773586414,-6.1661632161,5.5832583798,-1.1922742357,7.7091826766,7.9752303557,-20.1713767457,206.1195377516,82.750787017,4.2332708762,-2.9672746653,-9.0792298344,36.9178999126,-105.3045006256,4.8096746736,-62.5438165855,3.6330589811,0.2440358539,0.6740221372,0.4368041376,0.7545867276,0.7878831749,1.3814489699,0.8001199724,0.110396881,-3.5395990358,3.6492118465,49.9900100416,9.6271197024,0.4525872915,1.7799738505,0.439828597,0.0644979039,-6.2348123409,-2.6465916521,-2.1900386677,-1.6478883879,-4.3465092934,0.3779642802,2.3946393114,1.0779785403,-0.5629900253,-0.0057498677,0.3471713423,1.5586076859,-0.4678635835,-0.0747099124,-0.2812666678,0.140166375,-0.2387088569,0.9022508022,-0.8135221598,0.7257027595,-1.5674060962,-0.0657367371,0.012738075,0.6861729504,1.4968904562,1.1630606708,2.9065615061,-1.0397354908,2.593712413,1.0297444915,0.1302126965,0.2348300504,-2.2828228964,8.9787569724,0.1971931002,0.2073251056,-0.1067957234,22.1353473834,17.6893638563,28.1134630742,-0.584524285,6.6178240848,-28.4748106962,-35.2258169664,35.4012037529,204.434825533,253.4294793342,5886.105184333,-2518.8845492328,-30.1634148551,8.9901971116,-400.388562902,-312.0562149776,608.2893315694,-45.5500856041,-322.3996152436,932.1985788052,-61.1297252235,-161.9792239326,29.5526184087,261.2449901213,-124.7225566076,222.7414315634,29.7615223479,-51.7159559857,-19.3587184258,211.2625748678,-14.0322603614,-140.6081357774,-2.2715434689,0.2957694272,75.0605599975,7.9088011854,24.7850038999,19.79942664,-0.1673624126,-63.4773233621,18.5825169053,-29.3652497945,58.2582274265,296.5087349137,-49.3270226533,31.4094326669,16.2806693127,17.0908624988,-463.1572176304,-148.3565858546,182.1264014843,123.6926900584,-4.6365436142,0.2345017816,0.8352237015,-0.6660768319,0.2934365348,0.8339124091,0.8480873669,-0.4103467771,-1.5521095566,0.193756555,1.1946249195,8.3712684369,58.8645957433,0.4134986251,1.9299514054,0.3775981421,-3.2624056666,-3.164448077,0.5212761952,-0.1489026188,-10.8112120543,1.7028023229,-3.2195315862,0.7836811813,17.567909798,-4.8264333857,-3.0670118979,0.737687173,4.1761038255,0.9723284752,0.7433200748,-0.4061937444,3.938508237,0.0291563265,0.4603019321,-0.2693629632,-0.2076455498,0.1879472294,0.111143865,-0.1275587112,0.3656001748,0.6774190221,0.2520590826,4.7017699576,-1.3567765749,0.7334343514,0.5610749599,-0.0830023727,0.2214212796,11.2198941101,-9.4183409856,-6.2124109878,-3.9323573331,0.3236340455,5.4207706771,11.0195571721,-9.6189774642,3.8093626628,7.5435874538,29.2645165553,-38.9038324349,6.3170654693,166.8047472578,1608.6243486544,910.7347857163,-574.1365599632,-8.4719448096,7.4605122182,-66.9633420216,-354.4489044468,100.0718472709,82.4493954016,-24.2892348389,410.8054167333,214.4943924376,-36.9923057838,-169.2077318806,79.1824526084,-50.007897859,-37.1572480262,73.2686156122,89.0049750808,-5.7582670871,172.5191243206,-83.0934590143,-6.2625826949,21.1946115363,9.3730115683,-45.653416509,4.7741134965,51.0579207839,-14.0077110948,12.5246785348,-16.1702165078,28.0789415915,-7.0124729528,-21.1026545845,-67.6689423413,81.5843145053,-2.901345907,28.9050401332,-4.1585758411,-74.026625401,113.9392322968,226.4330753009,-27.3272490766,10.2237403776,-0.6759421812,5.0146715489,0.4926831598,-0.4480245672,0.1860964363,-1.214093406,-5.2711688,-0.2909048647,-3.5934992101,1.055437169,193.2745706892,-63.9418858417,-1.4879175157,-11.2047957949,-2.1411070218,-2.6301351205,0.353992759,10.1616325576,1.3688429217,10.5292331783,1.9385301558,-14.3552351394,13.9282520677,2.7040595255,23.597976813,-30.9787001714,-10.0187077295,7.7224024057,-2.2771737294,0.2140098902,12.2220705914,-2.6869445664,-0.3203307654,-1.3577569608,2.4314940983,1.0821680147,2.4207783992,0.4348835875,-0.6472492417,-1.4004857048,2.9011592142,8.7062877244,6.4111609018,0.5583306167,4.2340024769,0.8177891195,0.8094944067,-1.0053045969,2.4360594045,-8.2449273083,-5.0833266214,-3.2554523775,-0.0980372258,0.5763714683,0.8039668505,-0.5524536334,-0.1067808858,-0.2651098114,0.519423474,1.0703463843,0.776300087,3.1540843647,-0.1254474913,-8.4977647479,-151.4138369949,-0.0951378924,0.2845593797,-0.4471358327,-7.0853668323,6.5446956654,-0.6350421013,-0.105503336,-13.2483606435,-3.2052149544,1.7811096818,2.7777531714,3.4306193465,-3.2738110654,2.6447053049,0.9363038198,-0.5936721421,0.3497248103,1.4571392935,-0.5533629877,1.7631032633,0.1097366148,1.3105308292,0.7765851421,1.656075813,-0.945303133,0.3509249041,0.9763815433,1.9663889457,1.5019170607,0.9140065767,4.4028113097,-0.4452819995,1.0404499528,1.0039435911,0.6380631932,-0.2409317772,-2.1052883819,-0.9317464567,-2.030497308,3.7880143676,-0.5498124587,1.7966626128,11.5456345086,3.1463278361,2.1574307991,11.3415323562,-11.7798460153,0.0890251986,9.928239057,168.2199162501,60.7650897311,-182.5797921922,1730.8154265179,50.5627028039,0.1521370887,-18.2176218811,13.225942746,19.8106069272,-38.7068451175,0.6974768765,-55.675143091,-7.4584237207,-26.7957146453,14.6548748959,-12.81114803,44.4567000022,-31.1746941224,-75.3192728566,-10.6311838471,4.0487081142,2.2117316421,-2.2757556433,-15.9288494311,1.6733382802,3.5155493354,-1.631041841,9.0272092774,1.9856024461,-1.5783164998,-1.0384492434,-11.8360316039,-0.3041768527,0.0025903602,-90.1826544204,-6.8825194939,3.2919720486,3.282740418,-6.3801282509,2.325260919,15.1848948228,20.7763820618,5.6143436121,24.0506114466,2.4936212245,0.7782303099,0.5200485401,0.2395530644,0.5684896027,0.1594856602,-0.0951548796,0.8579505668,0.7392516947,21.0412875726,6.4716590289,-52.0721245574,-62.2074160806,-0.0515296925,-4.0962459353,1.6168737569,5.2329208292,2.3630009495,-3.8405381801,-1.8174825605,-8.0009353737,-9.4492792608,0.1898474022,-3.990647261,2.1415142619,-4.940409634,6.9920702572,0.9892560615,0.8305926406,-0.2202038427,0.3709423291,0.2393299976,-1.9718940258,-0.2498720928,0.9008505142,-0.0689725199,0.2703343837,-0.3419012326,0.4304141231,0.1127352895,0.6747398596,2.2940712681,-0.0310757361,-0.4231343279,1.9686118252,-1.9139432364,-0.3854843611,0.7794357268,0.6904700029,1.0373120748,-5.1509051576,-5.7306877087,0.3241016307,0.6432290944,3.1696731183,-1.8591768315,-4.9247815488,1.0367367885,-3.2602038676,-2.5961357079,0.4458898743,-0.0582335503,-5.9653849695,-23.4958073459,6.7235908133,-92.8952679,-1.5314505308,0.6929501352,3.4360919121,-2.902086878,-3.981159242,1.655679886,1.2622827624,19.5616933647,6.3397320333,-1.2393770138,4.1667629572,-10.4494575609,-14.7574424963,7.6746159183,22.8694002403,18.3126971362,0.6219345196,0.9091680209,0.0271107519,-6.5530477086,0.3784169379,0.1663112551,-0.0203781067,-0.4763226815,-3.17492455,-0.7891437431,0.8397519269,3.7695451381,1.6629891977,0.5849995971,24.7793020229,2.0843406763,2.6944789615,0.7915886173,-0.0593052298,2.6377092971,-5.0896916186,8.6130585651,2.8125580585,-3.803922613,0.7328617015,0.4608726475,1.0695194931,0.8104478968,-0.1987897861,0.2062685825,0.6551156374,0.0471562166,0.155699374,-0.3984127337,-0.671345038,-29.5910099709,-26.8435387306,-3.9548635105,0.1838496352,0.4396614651,0.0396838071,-5.1181098843,-0.6710837555,13.6784183746,1.3430863166,1.6478760214,4.5923379198,0.3065215245,-4.6205280072,5.4241699809,3.80694044,2.6358536976,6.8822838149,1.3058455436,-0.0429900715,1.3733726526,0.5360478366,-0.0088644006,0.6020122106,0.0808015598,1.6036297621,0.8805976521,0.6876568286,0.4383198113,-0.113730513,-0.1563446004,0.7641889903,14.0638501547,2.9981733236,-3.6572001274,0.4130435918,-0.7779709664,0.1773944613,3.2533287366,10.9047019487,3.9758505973,2.8394765017,-0.3761090272,0.8279594185,-1.4717114405,2.3310833552,1.3564910587,7.7580429995,0.1616228117,-1.5029544108,-6.4531715101,-5.2166373511,-53.6888359167,3.2275101159,887.628487727,-2.2412492041,0.083580082,-3.709754511,17.2577063684,3.2320550685,-1.5955839235,5.9066421903,42.745553082,5.254083088,-25.0344373565,76.3056692714,-15.5538936795,-7.3067130013,2.842904416,8.3780514085,-26.9821710978,-3.2005546196,2.265423718,7.6278201414,6.7079699642,0.4756765368,0.5524503536,2.8401075648,1.4415876022,2.524722648,0.384342397,1.8743780704,2.9247932718,-2.6824790078,1.149161379,48.8214617658,3.9277984759,-18.6232371983,0.3774120818,-1.8892236367,0.9238830118,-8.0432986618,29.2848701578,-9.8765662838,-3.7087184781,1.6294332122,1.1726499546,1.0172394614,1.2586900684,1.0724339127,0.1343015897,-0.3285387131,0.5035816211,-0.306991567,-3.8353459412,-5.3025659123,-17.7275903442,78.4663582533,0.5582537638,0.2817151825,-3.1264263507,5.3334213911,-0.1838136845,-14.842822007,4.2531236048,31.8228165009,9.3962967737,-18.8803995343,-1.577781203,7.5740335123,-0.250165844,0.238831724,-5.2560052271,11.6007667861,5.3957934388,0.5807523826,1.9930367074,2.5378050007,-0.2982153198,0.1235597757,-0.5847873668,0.4470986572,-0.2240546029,1.3132932286,-0.2299378611,-2.6272066868,-0.783164306,0.3807783985,-6.1033842959,0.2875348059,-2.4803887156,-0.3816489149,0.6976463082,-0.4889212242,-6.8083839411,-3.6482907485,1.5288146079,-2.6053280072,0.2241255382,0.7832380331,-0.5508709907,-0.0593317816,0.0569736075,-1.6325645329,0.0891398799,0.7769352979,-0.3077694745,1.4338597335,52.3497171348,-212.9866485164,-84.2092866734,-0.4767947567,0.1910059432,-3.767845292,-0.6473422594,-3.2401910613,-3.3973716505,3.5401178375,-5.1733360373,-3.4126793279,6.9580403068,0.7247705654,6.8988297059,4.7053665691,-0.713876412,3.0244650738,-6.0922557648,-0.6777028478,0.4584762232,0.5258638509,0.3532686295,-0.014428844,0.0086713187,0.2781888102,0.2978111588,-1.431569104,0.2881239996,-0.8505561829,2.9906329406,0.5927740205,0.0767396932,-0.2260353448,0.896414453,21.7796202162,-0.0194503864,1.1577581726,0.6625979259,1.9498227889,10.0122321213,-2.8636439558,-7.5604968724,0.0684407765,-0.7591348764,-1.4485328848,-1.2366360692,1.8124563539,-2.8700158861,1.3050002473,0.3585944773,-1.0058814435,-7.4088866433,-1.8676049013,16.6773006781,-30.0461350313,-0.3186048561,0.8338196423,2.8063064112,1.9080849299,1.2144230803,0.3494718971,-0.3399133881,-5.4232057824,-13.7821643989,31.5239601285,14.457549665,-0.7132692784,-30.6211483511,23.4901579772,-2.5308816754,-14.0444249167,-1.8645393915,-1.2520803364,-2.940652469,4.8633161693,0.8984785996,1.1749349558,-0.1250087983,-0.8001222667,-2.7700486669,-1.1924272697,-1.1211226994,2.1282118914,0.6664904471,1.8027186789,-0.4664633917,0.2090616192,-0.1717219432,1.3545943583,-0.9339710837,-0.149047186,-0.8251921837,-1.9712858768,-3.2763209784,-0.2004676889,1.838716732,0.0224236384,-0.5015380239,0.4308848543,-0.438031076,0.4771009222,0.4182192235,0.6518668884,1.2891945751,-2.4850883112,-6.1827186726,1.3481814008,-2.330061969,-0.8648348275,-0.5065397302,-0.6369270693,2.5573880651,-3.8086610681,-1.7913157694,0.7965876843,-7.2428490598,8.076544988,-6.4058519206,-10.3580325458,0.5856539881,3.9825894359,0.462479253,-5.2425328788,4.16287487,-0.5117654944,-1.0648075666,-0.1064186893,-0.6020115735,-0.1300686343,-0.5871189546,1.3275784282,0.4900782606,0.7044631931,0.6775533175,0.0819211006,0.654724274,0.3466273532,-0.3779411736,1.8738459556,0.4054040742,-2.7995293774,0.2984735849,1.3101870493,0.4202669437,0.3114109549,0.2545587527,4.7525374182,-2.2286903918,-1.1972837447,0.7563990529,0.6629895484,-1.3054714725,0.9110652017,-0.1654387893,1.5854558444,0.6669024625,-0.0355639234,1.2270590055,-26.5593466599,-47.6313477703,-31.3214139872,0.4911882249,0.1476588171,-0.7679736169,17.5819515002,7.1867032952,-15.1897941205,6.5136861712,-7.1876990298,-1.2692649363,1.0855007387,-3.851204622,-5.0365632764,5.2945362398,-3.363700472,-2.1999414748,0.082606347,2.2762662381,0.5798403163,0.1421187192,-4.0464797942,0.1766590447,1.731886073,0.009406336,1.2738301037,-1.8743511266,-0.3512462553,-1.3080643304,1.2051318853,2.3912171003,3.0616081733,7.9267785192,0.5550954484,-2.2536825507,-0.3477004846,-0.1178571257,0.7764168451,-6.5491990478,2.8012976752,0.510558518,2.0216101965,0.1090547802,3.3129216003,1.0503074095,4.1614628927,1.7331797973,1.7661975233,-0.0543526912,3.7179773188,1.1928618255,-6.6874089008,7.2408150284,14.679244678,339.5857071069,2.9572886771,1.890938223,0.9940092685,8.1696260097,4.9073214529,-3.2721041785,-7.794903044,2.9609092547,2.7095060446,9.6110463473,-8.7311377802,6.564252184,1.3408210982,-15.7804020759,10.3200268175,3.3989547449,2.5524177052,0.3308054405,-0.2768353853,-2.9933753331,0.1332544332,-0.3833131005,0.0432531676,-1.8578999861,-1.3411122498,-0.4924307963,0.1517054369,5.7676459072,-0.8885677708,0.850058366,10.7361910002,-4.5613940684,8.3444654345,-0.0168478664,-2.1780087893,0.8366762172,-1.4677548323,7.4566129306,-4.186602904,-1.9786154303,1.3260980708,0.1238130456,0.9809978005,-0.9625194593,0.4715814419,-2.5275091389,0.0689547935,1.1929805727,0.6438381624,15.7737279747,-7.7428923118,-0.9900180593,7.3964132973,-0.0765301796,0.0306033747,1.0742706045,8.6221925566,-4.5217281711,4.5513530471,-3.135296033,-3.265713886,-3.9367473459,3.8790424973,12.013882756,6.0248674449,-5.7593269463,-12.2861626187,9.2597645199,1.7132248131,-0.8851541589,-3.2613162551,0.5620497855,4.4544385631,0.0375623428,-0.3324662936,1.3072790654,-0.8434934692,-0.5682959106,1.16634542,2.0056242092,0.950433985,0.2284206027,-1.4829674638,-6.9981242381,-0.5018218587,-0.5736985866,-0.1116592723,0.1797986236,1.3722971499,7.2345056605,1.7704757266,-8.9132098544,6.0122871284,0.6862511642,-0.9382055434,4.3746044845,1.6244088149,0.9888296118,0.7477943747,1.0510524721,0.5133553948,-3.871978422,-95.9596610705,149.4004208281,-5.4178768597,-179.6547002305,-0.4998372989,-0.3919882944,-6.4718748992,15.1947001666,30.1272244034,6.0296389217,-13.9080213677,-20.0440784444,-7.5591241885,-5.9352299966,51.1928038996,-18.3816416577,34.7734490356,-10.5101462368,-63.2621673092,-4.1807440323,-8.8837417399,-0.022110222,13.4598879347,-10.7091474327,0.743010101,1.1574012018,1.0271336863,0.1530268941,-2.0098165639,-0.1940065165,0.0323116032,7.051531953,-0.9934570959,5.457198562,29.2392142381,0.7623837159,9.2694310008,3.9316115361,-0.4296768393,-0.7972677879,-4.2125734866,35.7527439243,4.9011376567,5.1888706589,1.0649385739,0.6236859857,0.3737896735,1.7539630457,0.522042565,0.4688036691,2.3996066263,0.5603002881,-0.5794362091,0.0276905168,-35.9851384606,1.1576779571,140.9090777211,0.4360576943,0.9860698124,-0.1242877467,-4.9573755658,2.3323435061,-3.0118954772,-3.04580309,10.6580515575,-2.2330041513,11.6917051205,0.8942811301,-0.252766515,-3.0512105825,0.8005712426,-0.0601400487,-0.2858610908,0.2245715618,0.2014240783,0.2959227906,2.9494178358,0.4405574603,0.9917377991,0.1388177058,0.4638637848,-0.0718460792,0.3644005157,0.7416884402,0.2461879423,1.2381463364,-0.3651251631,1.9011328203,-2.8006056505,-1.2485661925,0.3941477286,0.2962075687,-0.6298122073,2.1739608313,1.8595172853,15.4755561874,0.210998399,-0.6581213131,0.1316190691,0.0267623296,-0.0518849651,0.5720606529,2.7494391525,0.4208072983,1.1873333494,2.6397347857,42.6011807551,42.2271443454,-39.2933443968,-167.8813728333,4.0721124911,-1.3039167682,-1.6316972041,-4.0868169349,1.351524381,0.7680348972,-1.6109563575,-9.9713990826,-15.2248835971,22.3068485422,0.5152192202,-3.4082316334,2.9556806281,-0.996109525,-14.7641870976,3.8240332412,1.9335449359,0.7222303435,6.8766454729,-2.4566799389,-0.0759361159,0.0941456861,-1.2425391213,-1.2564905744,-3.9609720879,0.3570758121,1.1416109475,1.9901748142,-0.9798475592,-0.0399399741,-29.8762394949,31.6077560006,-3.9550881107,0.3912420279,-0.1463154814,1.3479782372,3.3097515612,7.3893876752,-7.269468055,-5.6434469578,0.2030448671,1.3098797766,1.3855433717,0.3866135709,-0.024343554,1.39238961,1.0172949029,-0.4613133877,0.6707964566
   2.2262572432,2.0992979027,132.1397416564,27.0758705334,0.5849890788,0.9489417172,1.1558894974,1.3940754492,-2.6944625571,3.2136848205,4.2396669448,-7.5654421557,13.2666227863,-56.1381114273,-0.4251480382,7.9090770496,3.6326026913,2.0598900806,1.2133777794,-4.3344921944,-1.0640705037,0.776353771,-5.3393214932,0.2499644482,-0.4308132166,-1.0885180323,0.8878790504,-0.8367289826,0.3200982824,1.5035675443,-0.4221592239,0.6089065444,2.3576412175,-1.0257040878,-0.258656173,-7.7304728126,1.316124925,-0.8861690176,1.1454684141,0.5066306466,8.6549795689,33.9471832027,-13.7392965332,8.5211629625,0.6318360367,1.1340888847,-1.3052237373,0.3827434712,0.5777306947,0.4659396612,1.2236665156,0.3042341425,-1.2886411303,31.0353735393,13.0083674363,-147.5140964993,657.9570063774,1.6510608647,-0.1827777118,-5.3648880796,-2.0215032889,7.0179345035,8.6889032345,5.1394433867,4.0994223658,-2.0437811536,9.8860211002,11.5562940251,5.1982426736,-16.062789863,10.4759511167,0.5563700127,-8.7277636572,0.4433160389,4.5401473725,1.6818229713,-9.0316224621,0.2339285536,0.3971895364,0.9564019943,-2.4174944555,1.7430289694,0.3703715004,2.4547039801,2.5884469966,2.1767831449,0.4771749383,0.2505131758,-2.7092596539,9.8635665488,-0.3387205334,-0.3890492608,-1.0654226721,2.6736395723,7.6850712387,7.1369080034,4.5715604071,-0.2724330654,-0.3247634087,-2.3930658746,-0.2728871615,1.7558284931,-2.1047221481,4.7061483332,0.9692261323,-0.8452993711,-0.079557552,0.9941756795,-70.5174495342,246.7975241368,31.7812323381,1.5122713309,0.8288432248,-8.2958496145,-1.4745316138,3.9641480342,-4.6665579389,8.7150704463,7.5755388319,6.1995725335,-10.622828958,5.6536774397,-11.4371477656,-5.7172333889,24.940639408,1.191338037,3.0064622093,-1.1027503245,-2.761344424,16.0443104913,-0.8622159099,0.0171627699,-1.0472225128,-0.8996862551,1.5216002427,0.5189486912,-2.401941168,3.1241669595,3.0695230037,-30.1757665645,-3.4058799092,-2.831344951,-3.2317420429,0.468514394,-0.2943549743,-0.2156454482,-3.0025678713,17.5537898585,0.8129810992,-7.6971392587,1.350981246,5.1041536773,1.7417036824,-3.7837234363,1.412072732,0.4603476113,1.6115942847,0.9101053861,15.7700401189,-6.91757963,-58.4803920731,6.9458009122,393.5892558914,0.8479517521,-3.7242815696,0.5231776377,1.9798363582,16.1335535476,2.0819999508,-9.4130186702,-70.0687422938,11.1668692349,43.1249347806,-104.5263447012,-0.0544247881,-26.635328671,13.1987574644,-27.7982089018,9.7451223271,-1.5777150972,-13.0424455824,-1.7712777039,19.1258258358,-0.3526032801,1.1190237125,-1.3919724575,3.9635969873,-2.1485257022,1.5146997085,-6.5116731209,2.2766304524,11.9380710544,-0.0669422903,-1.5965589723,-0.0886043787,-4.4418605661,-1.4460964162,0.677257133,-0.4664412999,13.9881825451,-22.7483132313,4.4008576036,9.8824215563,2.6890267519,-6.2329512842,-10.7886788689,9.2992171253,0.1991729019,32.7125579639,6.1723440468,22.0153740018,-15.7918751455,40.2572309712,1400.0819901322,-82.1678759593,-801.6256147363,42.4160734391,32.5276163688,-121.856262956,117.4336111864,172.4853311921,-85.8405758917,29.901051,-241.7654676194,123.905278622,24.38697544,57.513508288,-48.5488750675,279.6843946898,2.7977174784,-439.163839118,92.4379429049,-34.3256036713,26.0384368344,50.2077542859,-71.1215693488,9.3601599214,3.8081526948,24.6841723607,10.4750937247,37.2919065052,1.9716961277,5.442582398,-41.9744900861,-6.7751697913,0.5315521259,146.7791004184,-14.6214091642,-39.5588781005,-3.5797233859,18.7683276762,-1.8319315496,-6.8581616273,2.8667319227,109.4095349549,158.6565556123,-0.8381299442,0.3026111898,0.3887743476,0.3931499581,0.5154589176,0.5247437811,0.5892774154,0.248729664,1.6061662276,-0.7268533775,-12.7125413391,11.9475706934,-139.9638928063,0.691942453,-1.8790527738,0.4369358539,3.074900236,-1.4066606278,-8.904577194,4.1451700026,-9.7442135891,-3.1677248187,3.4902578998,0.1620712473,0.1259665469,-0.0648853014,0.1313035144,1.5408306344,-0.1726841211,0.02498828,0.0138910966,0.8880663246,1.4467811527,-0.5398449658,-0.0827834797,0.4366247063,0.5413502103,0.0049638753,1.0598462831,0.6267605398,0.7222364254,0.159660409,1.7006452259,1.3182664213,11.5654089875,0.3439981303,0.5097950519,0.4300516092,0.5652091932,1.0775783743,2.3130629342,4.1808178796,3.0826131045,-0.3877228412,0.9370977677,3.0765608022,-0.673206097,1.5529280776,1.6422454272,0.1926463013,-0.1877628789,-3.2842975494,-36.7055636629,-27.7473981577,121.1809425141,-13.0420801576,-0.6009847248,-9.2194229468,0.2871576715,0.0851092073,2.7473770556,-8.2542563173,-4.4870001313,19.9214098796,-2.5141292978,7.5950722752,-7.445298848,-4.8775002124,4.8937539639,-8.6919437209,3.2040371224,2.1636365231,0.39546394,-2.1097773068,-0.4543086472,-3.7510310669,0.0498035207,-0.9669671517,0.0048682742,-1.3014220013,0.1267371913,-0.3876704841,0.9717446335,-2.4997967527,-0.586669092,5.3757451,20.6527128885,6.3610469685,2.0272616628,0.0803896323,0.7143623396,-0.2344016236,-0.2584099233,-4.5617269977,-1.5647627936,-0.6303047415,1.5258809625,1.3486806506,1.19181435,0.6690744438,0.6309319069,0.2943614723,0.5265460601,0.7200963202,0.5232388183,-15.0845323778,8.6941196134,82.6749289505,-129.6439042101,-10.2793880884,-0.0220544307,0.979511826,-8.4727013425,15.5826036431,15.2151662589,1.7128321213,36.91698088,-17.2158211574,26.8222638436,6.3778720364,7.7951508123,-1.9709136321,5.9654051759,-2.5457598174,0.0374504494,2.2100119419,0.7254650693,0.953106504,7.8322457868,1.0983123485,1.8997221236,-0.412677478,0.0579591745,1.4517737159,-0.6301011288,0.9345028154,1.0070063478,1.2837576084,2.5388565415,21.733000651,1.4538593918,1.1833315726,0.62134206,-0.9984191162,0.1605648978,4.7403065514,-3.6113884713,-21.737450331,12.4750048592,-0.1451098608,-11.7494072349,-5.5427156567,-1.6141173414,-5.8172540856,-3.1354535532,2.4420562095,3.0812277369,1.9845990591,252.3274267127,388.9692506991,573.5783332363,618.0998367103,47.415430002,1.3334895032,-24.0462141858,-11.6372534094,25.6457508235,-0.8454118852,-42.7387342832,-62.0852001661,-129.5527820599,141.3698187784,-173.5536078755,34.0718257767,-84.2425441775,-55.1664766038,170.0137257061,54.836227979,-28.3289683839,1.4423847753,-1.2074433709,22.6793160636,-1.2992975152,8.5613166347,-16.5728445389,11.5346329717,-0.5176275115,8.0449203172,-9.0023026839,4.2561237389,5.124328691,-82.3095739804,-14.4785897085,-123.6905969273,-0.0739956799,1.614068235,-9.298530501,14.505462238,-8.800232138,37.7263187263,-38.8462621964,-4.5104710361,-4.3153331705,0.5201438523,-0.1874167394,-1.2566105433,0.5214548278,0.6385643677,0.6014350284,0.754729081,0.5164090889,-1.1581179333,-2.3145304249,-40.2867868747,22.1458781311,3.8022776125,0.7962262181,-0.1208562302,-1.8208630411,2.2687999153,3.2502881848,-3.9192051083,25.1746655034,0.2174898429,4.4699792595,-2.6059885604,-0.1927718457,-2.9760211689,-1.3192368031,1.0806674835,0.5647024642,0.381384717,0.3476841833,3.6192401948,0.5647043977,0.0287459987,0.3019294987,0.1064337859,0.1074894151,0.7498545057,0.6791767575,-0.1547881293,-0.613915284,0.6620374262,0.3557666083,-8.1690440591,-1.9941521739,-0.4160932249,0.6748834891,0.561402078,-0.1569510362,-2.76747063,-3.2649072561,7.5016730416,-0.7547775992,-0.7007397438,-1.6756202479,-3.8233197537,-0.1498106805,0.5664148053,6.4733185427,-5.7175113836,1.0993330326,-1.1946471975,-1.4155359006,58.870786125,-32.8662920728,445.9676138737,-15.2717351959,8.3879601509,-9.8834486148,-0.6428393385,3.4007921595,-0.1557391499,2.6762317141,4.7462082295,2.9173515072,2.8120790094,-4.9441888086,13.721825402,-3.9489038518,2.8462484494,12.9076567673,-38.2639337181,9.1941167816,0.5362342066,-10.9005714426,-22.9635521155,1.2774886471,2.0264136281,1.373752573,1.3106789354,-0.0674337932,-0.5012836047,0.3875455126,-3.303764222,5.5742017105,-7.8834325479,14.748248012,6.3639669566,4.639898331,-1.3748673976,0.3354397102,4.3448795491,3.3916551382,-23.2607480019,-23.89150777,12.2241196291,0.3449293597,1.5557626437,1.6490339582,1.6687247562,1.0463884139,1.8621454128,1.8833532214,-6.2834431111,0.0680827543,1.9961432713,4.6650772927,-14.7588693321,-91.5789927183,-5.0214313652,0.7061162642,0.5627518533,3.3278117521,2.3155092317,-11.8599937631,4.0277438341,-0.5773873262,3.1744930387,-7.5538588254,-3.7720136876,1.7393102357,-0.982542169,6.3541467982,10.707971819,18.2869120975,-0.970501449,0.137537167,0.4072136743,4.5041420923,-0.2971308626,0.9665909061,1.0347625583,0.4634535088,0.1773237398,0.5000376595,0.1458005015,-0.8926938738,0.087201726,0.04486489,7.0968713594,-3.5272012228,0.3262388485,0.165881034,-0.1590910984,0.7933634601,0.3560364748,-4.5397317737,-0.3401368662,0.5056450334,0.7249638816,-0.6674854931,1.9373783534,0.4741201581,0.3366408742,-1.9525253198,1.1842023428,2.6078846653,3.4343337882,10.4800041103,-2.9215745449,24.933357577,-203.10193606,0.6012822855,0.3436159312,1.3552738537,6.2509795441,-3.5930732778,-4.910915859,7.0461286955,7.2349045357,-3.7741600491,14.552901519,12.0050163865,-8.9334567147,-2.8755271748,-0.4484906926,-3.5354237628,-19.8138392142,1.0605832661,1.17350096,-0.3105777274,-3.5677337351,0.3270325712,0.6566295165,1.4215164966,-0.8773618641,-0.5802507557,0.1548182204,-1.4920613234,0.0498605923,-3.1770345655,-2.2572630366,-0.4770275719,-3.1791422066,-0.55888956,0.3794581243,1.1245247435,0.1108127135,-4.5002524173,4.3394981125,-4.6274999123,-0.08225482,-0.3342602756,2.1314066821,0.4951200607,0.6399312393,0.940393528,2.7004614516,2.7581144035,0.6896872894,-0.2264536705,3.9954887053,1.3756936666,17.1230889534,10.6202958702,1.0643254126,0.6366510738,-0.8300072342,17.9691305265,0.2540873447,3.1575779969,-6.7977111269,7.142966784,6.9488673049,1.7734858677,-14.9705595114,1.0083276686,8.8214149115,-0.1516273962,-8.0426614293,2.3387740311,0.9274632052,-3.0774456116,3.8543006606,15.1062547538,0.5822976305,1.0674383702,1.1672181425,-1.3943963249,0.3627894286,0.6340578335,1.7978075409,1.6023089222,-0.1368032678,0.777288982,7.0852264049,-1.6116982669,0.357098771,0.4515328817,0.7366437749,-0.977769551,-0.8488458571,-23.5241873549,-7.215693622,-1.961197222,1.0193909381,0.9209613894,0.2324145318,0.3976111289,-0.0700281557,0.5619192448,-0.9540568835,0.2625887107,0.5611717352,2.0551754276,7.5484530791,-24.0725460752,29.8208396702,-0.1315936704,0.8966111767,0.4681953081,-6.361386863,3.822635681,1.5914043308,4.9765914453,-2.9031879503,1.6092979311,2.4628380378,4.7647555376,1.0742884406,1.3280690123,0.4731149787,4.5626818137,0.4253494929,-0.5107532905,0.7570106587,2.1758080233,-0.6157720941,0.3109758411,0.4000337181,-0.1053686224,-0.4673043731,0.9974047242,-0.075248148,0.3651317856,0.2048409269,0.1120495568,-0.4194589149,0.2106786217,-1.4429592938,-0.60932827,0.0442502445,0.2637987758,1.0176114886,-0.0895182206,-3.1154183089,-0.0049783647,7.5815183506,-0.095642251,0.9282637087,1.1219189984,-0.1057962825,0.2809373732,-4.1585727475,-1.6770883301,-0.176128724,-0.8259598837,-0.7431384777,4.0038149734,-2.1328126824,65.1333579023,-1.2774722767,-2.4755244224,-0.4633132431,-4.4896997014,1.3286732394,3.9346526139,0.8884236281,6.0679080729,0.9116327286,4.3551687697,8.9505319701,-10.7040440405,-9.5697229306,-7.5531691504,22.5076764549,-10.6479717011,-0.288605588,0.28930272,0.9714852517,-3.6715141425,0.022841192,0.0123653522,0.2921758493,1.1318615385,1.5452984,-0.2208661573,-0.4611447355,-0.0500764062,1.0389119815,0.6852746698,0.6172391639,4.3255510158,1.04248774,0.1916629479,0.8349962324,0.6024272698,-0.0547069093,-0.3147630557,-0.4122760183,-2.6316149483,0.6998903799,-0.4686083056,-0.5576802219,0.2628462937,0.6368940306,-0.1279006597,0.128423564,0.645265178,1.0340758872,0.1819098244,0.3395116695,-1.3198287686,-94.9296645435,0.3778658739,0.06189547,-0.4724808811,2.9315224733,2.5428119117,-3.0136722858,-2.717915137,-5.5923974331,0.6685464541,0.7411812861,-1.2084370958,2.1475077192,1.64198893,1.1725333426,-3.7767303387,0.5149158774,0.551923254,0.1451489046,0.0309959769,1.7761812888,-0.2214219987,0.1665434075,0.2768953083,1.9520696744,0.0446385381,0.3394463372,-0.2317194815,-0.6868173158,0.2838854341,0.584731495,6.5898103027,-4.283708289,3.0489395336,-0.3011099295,-0.2125245723,1.4225807518,-0.223036559,0.5722070355,-8.7989218055,-0.2644773874,0.5304971877,2.8339986656,0.0608453364,0.5583636959,0.2573782391,-0.1237320908,0.7735046866,1.265316689,1.5050128923,14.006562347,-115.4425125366,277.158337121,-236.2851210515,15.1005591276,0.6741931011,0.2994646073,5.1970974933,-1.1990375514,-3.2927253053,-6.1476367191,-15.4548655332,-3.6357970844,5.7041313616,-2.3064930246,9.0185613823,-12.189095865,2.6559062393,26.6562844563,3.5948183197,-0.1464489517,1.9022097991,0.0029186744,1.2620499448,-0.9923205504,-0.592485825,0.5301582495,-0.8827100309,1.9599200682,0.8274757518,0.089102328,0.7727262416,-2.9211679368,-0.1494267627,-23.7555144111,0.0921321596,-0.0625498633,0.1561595561,-0.676752748,-0.7306136817,2.9878940144,-11.5121429186,11.7387265601,5.1611986937,0.2487458207,0.4782434532,-0.1283281567,0.5732764834,0.6881005632,0.5297087067,0.0626049621,0.0695199965,-0.0392113147,0.8282362186,1.9374084026,32.9070310947,-24.6128927202,0.8875193336,2.3098606084,1.3408064647,-3.2347634789,5.6174645116,0.6961224132,4.7539158558,5.2746112737,0.0675430004,4.0055041926,14.1712259296,-0.2835195164,-5.9601659691,-0.1998944612,-6.2777143484,0.7168060786,0.0887763325,-2.1501763232,-2.6999385777,8.8327509776,0.9623297272,0.977041555,-0.722723269,0.11325433,1.2600815266,0.0059744024,0.3354500149,-1.0831834166,1.079249034,0.2964557697,5.1254140769,-5.3556542135,5.3185454267,0.8531955783,0.5895059187,1.234753559,-0.2985966573,12.8147834574,0.3894974202,-10.5627863676,-0.628487528,3.4415579027,1.0616765749,4.8486557284,1.366126394,3.2202609311,1.4669792673,0.6706073874,0.9983197635,-1.2419535697,0.6404755307,47.4547054818,469.7566872507,-2.000546081,0.6015643016,0.4488988894,5.2006773005,1.1384377197,-3.3142747862,-3.6536122473,-3.7977561347,8.0228589126,-0.8145993403,-24.5897329781,29.600451849,-2.726442785,1.2365850177,3.0986619101,-8.7775839488,-0.8907369615,-0.0207380816,-0.1185370944,4.3776933254,-0.5922930728,-0.6103845853,-1.1338738347,0.1790603721,0.3381946234,0.030053462,-0.6908382938,2.2388094035,-0.5700809177,1.2737524794,18.0815915069,6.595699512,0.6135340596,0.0382775873,1.4416234976,-0.7557574115,-0.1284335608,3.9819627542,-1.3078752167,1.4852674968,1.1711197738,0.3265333828,0.6524817734,0.9314822534,0.4819072361,0.5838311232,1.2107276497,1.5181301721,0.3901304129,15.7204304056,15.1904731264,-29.9102108961,-70.41101913,0.638937936,0.54242276,-0.1559520978,1.0834621768,1.3252151305,-11.0403925002,12.9757337646,-3.4743906519,0.5561362385,1.6162042039,0.6100566962,2.2452508365,2.5157478101,-0.5308390648,-0.4023705698,0.255274463,0.8672938038,0.4383455205,0.2417096767,1.8209796311,-0.4169921269,0.7327867205,0.2497111324,0.0886368916,-0.2868614332,0.1009204704,0.7321912037,1.2186683864,-0.5674375873,0.8379463671,-4.9435238099,0.3954632826,0.9332201919,0.5126552009,-0.0030462575,0.4981225932,5.6624333151,-0.330850333,8.3373832812,-0.7041939613,-0.3708630747,0.2323537898,-1.3382907172,0.0743284373,1.052804593,-1.3057011818,0.0424384548,4.8424585708,1.1339414908,15.0313719724,30.211700569,11.2983413884,240.7753892636,0.0998298918,-0.0572643428,0.2252957495,5.8344833951,10.4608024397,2.4946136062,-5.2685462439,-3.3736150438,-4.7492256366,-2.0871177461,23.9581030834,-0.2995993883,1.7478846886,3.4535716951,-0.0065426062,-9.2563372569,-2.096708434,0.3306028048,-1.6756006173,0.2572657889,0.1231669362,0.5669283156,-1.0876499954,-1.4389722083,2.3810027119,0.5061649894,1.279561147,1.5248323483,-0.6416790509,-3.8687305624,0.0493521444,-0.0240585851,0.4378208676,-0.0150811313,1.4175248128,-0.5178720795,2.4179052164,3.3347951669,23.0723655095,-1.7069625972,0.39591031,-0.0429144621,0.2919914731,-0.444218581,0.0451843801,0.338496725,0.0167873966,0.7872781003,0.3441418527,0.1915367957,1.7427467477,-55.1821790598,-15.9933823299,0.4094879421,0.2140735919,0.5874524171,-2.1382340358,2.2929257719,2.2402675011,-0.4096402463,-3.9678960414,0.235555555,-0.5139159205,0.5467173656,0.2237934334,1.5728012449,3.1847324748,0.8013712905,-3.3404372509,0.2584270638,0.4946724945,-0.0514312524,0.0864005003,-0.1784061542,0.1152849014,0.1353992718,0.1002271581,0.4476075684,0.3662502354,0.9264110148,-0.1519114144,-0.2072848475,0.2610505417,-0.551605474,0.3506458156,0.3662750697,-0.0266934828,0.1780707541,0.137600218,1.5118446298,6.4550111195,3.6669166432,1.208310624,0.5179071365,-0.2541552565,1.1725244698,1.1561179399,0.5017893458,-0.3445875989,0.4932748837,0.3704021895,0.3917519051,-3.7911738049,0.794819803,-7.6980194026,252.0879489869,0.7777467669,0.0404380953,-5.1397804043,-1.055807492,1.7256271569,-2.2767186275,4.5807048279,-14.1879727935,2.849758483,-10.2122014533,1.4862653268,-0.4300914555,-3.9979032756,2.4106875301,0.2716299897,-0.8286708682,-0.6436052106,-0.0231540975,0.4291157019,-1.9868719474,0.4614150603,0.2229268944,-0.118162187,0.267073982,-0.4793438064,0.3967480364,0.8503291745,0.524748956,-0.0967072322,3.1318576915,2.6992323645,1.9087742174,2.8921951147,1.1804836544,-0.9311421066,-0.274128392,1.8662615037,15.687284758,0.9934611332,8.2510550836,-0.1795884762,8.882510395,-4.3499358512,-1.7163772001,1.9676626174,-14.3656116668,-6.1787913685,-6.2466969048,-8.3743412835,32.7524120063,54.5775663806,101.101854974,371.57823783,6.4099689393,-0.7819458927,1.0476375823,13.7448245322,-19.9256051052,10.240431835,1.175974164,-3.5859761261,-26.7638577943,38.7607419217,37.7258181036,-66.8912191019,-18.1038584605,-29.1547633642,-33.4980044031,35.508980359,4.1395910792,-1.9235709416,-3.1478735751,-33.9997887987,0.5013097419,0.4201056448,-5.3371768166,6.6705470891,-3.9370569103,0.193032825,-7.0220994527,-2.170363563,-2.5406768013,-5.2215553535,-22.3241266246,-23.1953534497,4.8950211034,1.1394086171,2.7221692973,-5.5857807542,-1.2096255171,4.1472994271,13.0485981432,3.7484378473,1.9113426372,0.5209379245,0.1613730912,0.4407993108,0.2724028637,0.3163766332,0.6776803657,0.2403853241,0.3154454272,1.8611146462,0.3856288122,0.3758938235,35.6922298352,-0.1885804941,-0.0518323516,-0.0260372243,3.753334613,1.0289514463,-3.9822980837,-4.9967597908,8.6166604071,-0.501206593,0.7793876653,-5.9825156291,0.9322458893,2.7915359151,-0.4170428244,-2.3227889758,-0.5347746629,0.1985030518,0.3616532404,-0.3150763877,0.0399916485,-0.1519699203,0.2175707474,-0.1549675904,-0.2749001803,-0.0386112927,0.3203572245,0.0416652873,-0.1771724931,0.6167279478,0.3917852035,0.7313890348,0.7339298896,0.0665456062,0.142859471,0.7965395523,0.0921676213,-1.7330572886,-6.1934485397,0.6638164072,-0.2725264801,0.2489700912,-3.751072542,-3.7095415366,1.9045018843,2.2069569577,0.8034791969,-0.1772530644,-4.2594430096,1.2028547304,2.7229767092,31.0489924616,194.9034949494,54.0923581714,1.990345135,8.0667036032,4.8111259795,16.0271513204,14.3832333688,-7.1759872773,-0.6583956301,-40.4837834218,6.4953005457,4.8674415217,-14.7143035568,0.2324956564,5.6947245885,-31.6551095178,55.6498200373,-19.1190411658,-2.5951703142,2.2452012138,1.638484279,43.683446903,-0.4260562956,1.7497766912,-0.8140777099,7.052187671,0.7325770502,0.8826352235,-4.2165458886,2.6540116745,-0.7233113891,-16.1369490196,-12.6067723565,1.1704323218,-28.5040937698,-2.1881052512,1.755346842,-1.7071778818,-4.4785814319,6.446669867,11.5405946948,0.6593121027,1.3664694051,0.5863647259,0.6774490283,-0.9051217702,0.5390580945,1.0466022086,1.5836996589,0.1676415979,0.4428841159,16.8563398798,-15.0513137265,-37.852073,4.5885998013,0.8392500669,0.7024792814,0.1347705531,-8.1239221716,17.4163183811,5.9367354848,-2.6014392932,-12.4812271504,-4.3323271993,9.5739849095,1.8951832548,3.5728864599,2.486583711,-2.5669099278,-1.4689968985,-3.1093065258,1.6343800652,0.7790065249,0.2567463908,2.4898608458,0.7302343733,1.5696257957,0.2245730916,0.574133616,0.5664216193,0.3996766757,3.1604223719,0.8674536144,-0.2111687051,0.2224972955,5.5760518649,-0.46545039,-2.7885424916,0.0282745368,0.3812865456,0.2831792193,-4.9768348018,2.925102209,-1.027230884,-1.9310474563,-0.7620423423,-0.3378395168,1.4934461502,-0.0908159061,1.3539128935,-0.4546351103,-5.2805113449,4.079898514,-0.4081055707,1.3178388854,3.7951961654,-32.0679984798,-71.3568456562,0.389233699,0.1465269024,2.1215132329,1.5896580366,6.6503655492,-6.6540658169,3.2121711841,14.9266086859,-1.4618326436,3.371265343,-4.0733261913,7.6026205361,2.1616365255,1.0521772814,6.4580809263,-0.2455561485,1.6906624965,0.2647180224,0.0146253479,-0.3871583666,-0.5915755937,0.9170663391,-0.1657770952,-0.2721756151,1.9500415295,0.4182347004,-2.0754624352,-0.240573802,0.6454408302,0.1423285049,-8.4263616606,1.2883001191,0.7867579291,-0.5771833001,0.0616388281,0.3446511313,-3.2515490554,16.8849230034,13.1345121615,0.3417396917,1.063294713,1.8481741389,0.6471068581,0.6996989621,0.655288227,0.4556997924,0.7619340536,0.470393758,0.7405760621,0.1828762052,8.9272693065,20.4816413158,5.4222605278,2.5633410634,8.559275241,0.3862944255,6.7212616915,4.340864697,-9.290434649,-3.7608628428,2.1769070218,0.6799703889,1.4390623902,-1.6771007935,-4.4272791529,0.4398169931,1.8483750032,7.1763154633,-1.5225013289,0.0252252047,-0.2995798065,0.3729704013,-0.9699273559,-0.08668212,0.5068391494,1.2990558346,-0.3713070023,0.4622374557,0.5640745938,-0.6632572806,0.6473364242,-0.1692205393,-3.9235055572,-5.8805011903,-1.8364868949,6.8318975511,0.2946493465,0.4456382987,-0.3224861714,3.042878177,-3.0568277822,6.5661928568,-4.2519609016,0.437244388,-2.1507829148,-0.4026658315,-0.3198218276,1.3559792758,2.55323394,0.3705413431,-4.3265198577,-7.9796489617,-5.0306185282,108.5213251477,-165.6602897855,160.2449514035,-14.9000416425,-0.2778375307,1.2652108629,-1.8174637531,-1.4625461004,-4.4259154727,7.5665749775,20.1657159603,-23.3338005749,35.678217127,44.4222867749,18.6486604942,-5.8136658428,-7.3712430863,-8.3052708478,-51.7551775793,-3.4690427964,2.698854603,3.4062832355,3.2881388105,-1.0153049237,-1.1114970415,-1.9925536775,0.2927521396,3.0552101184,0.3936221791,0.4203798782,3.1354562128,1.4725836493,2.616228424,13.5223709757,-7.5268023341,24.5178464334,0.0582392101,-0.3939988861,0.044556373,-3.2096388334,27.774366001,-9.6603114989,1.9936263646,0.9481397022,1.3152815249,-0.0142486458,0.2423194569,0.0651279662,2.6778978989,0.4979980042,2.131276616,0.9240407395,-46.170534064,-13.2095779246,74.5133725151,-71.9885859616,1.1262888223,-0.9679928572,-0.1304531046,11.9481771934,1.9784312913,-1.8515607884,-10.1996435762,20.3316956566,-6.7810220889,13.9775210644,1.538190964,-10.7048312759,-3.2915536094,7.7179963825,-8.3331560476,-7.6349547277,-0.0992642525,-0.1168674536,-0.1539570706,-0.0480317928,0.3791854828,1.5918318355,0.4617516391,0.7827144432,0.3619738149,0.434478174,-0.4625106271,0.294047314,-0.3473042874,4.633459229,-5.3911558122,10.2202533744,-5.544486321,0.652603249,-0.5866654163,0.6744833832,5.9700728656,1.0619214439,-5.2480894692,0.468990858,0.4023286681,0.4213096156,2.4713837791,2.3563845436,0.6736250769,-0.0010469573,0.6366812618,0.831762265,8.7375563555,8.4061028712,11.0506330442,-69.6729188533,-113.9454670846,0.6185997694,1.1462215075,2.6294149019,3.9857633264,-12.3161097149,2.3005211645,3.7046064169,-11.2942882715,11.0985350682,-2.6462736391,-6.1897507876,-7.5880396507,-11.8887667817,-15.6209375284,-2.0117769096,-6.4261566204,0.1452853087,3.3921115464,-0.26701606,-14.2062841883,-0.0189046085,-0.290054669,-1.0457862247,2.9914028834,1.7580412543,0.6303844122,0.9797112274,-4.8621894118,3.1748207295,0.1492683494,-0.4138094492,-0.8392372194,-5.4467240528,1.0356094104,-0.4344691131,-0.2712004157,2.8905612281,-3.1380112256,-10.9803714225,-6.28674874,0.4572785756,-0.463106215,-0.8695489755,0.5670391488,-0.5153603969,2.0442742418,0.0625916606,-0.9686424765,-0.4988975576,14.237834661,14.2424625064,-7.3720773097,-13.6591283701,0.87379071,-5.7605168732,0.3176233395,0.1748479304,-2.7196608522,0.7152968728,0.2467416789,-5.329408101,-4.0608953528,4.3485968159,3.8744261601,-2.609790258,-2.8537581429,11.1269538205,10.6821571247,-0.1134622795,0.4140550003,1.2069871814,2.2365810958,1.772990284,0.2432884307,-0.2057214691,-1.0359159202,0.4119270467,-0.0829047095,-0.0622717691,0.5933358249,-0.2809797249,0.4075898055,1.1020019782,-3.1605501244,3.0335352431,-0.8644787401,-0.6450028844,-0.3118321256,-0.3313344993,-0.5718831622,-5.1574447639,-6.1833513348,2.4870322499,-1.3579168733,-0.5391312816,0.0613031495,0.206604705,0.2172273438,2.7516415543,1.2450030255,0.2509928668,-0.0341380228,0.460678404,-17.8879271789,29.6353258545,-60.7427456929,-0.0087637856,0.0553884044,0.8087908487,-0.2359390711,1.1476136155,-2.5696430687,2.023032594,1.1620112656,-1.4771778588,3.6423513248,0.2788358269,-1.8341783488,-2.0705652059,5.7538801802,0.5730760079,-4.265177523,-0.7519988149,-0.4061370461,-0.2758551094,-1.0549647685,0.0037122346,0.2332815608,0.3406037296,0.097036008,-0.3343422079,-0.6322989687,-0.917685525,-0.8628931807,2.0824635635,-0.3276468366,5.5075182051,-0.3045305502,0.0623067721,-0.5434691166,0.8688019877,1.050375655,0.1548754215,5.9814653887,1.1760345584,-0.5392202396,-0.7162700148,0.3075819438,-1.257904847,0.4386216132,0.2960451579,1.0166416621,2.3467487506,0.6405731445,0.2270584182,1.8902903616,2.4166652269,10.6414624202,-153.85007467,0.1337798786,0.037719279,1.5816581041,-0.9387875858,3.9977767336,0.3579980207,-1.1984851127,-3.2056134695,2.177358875,0.7850815426,0.9862123751,-0.3217409887,-1.0545683154,1.7069753342,-2.3395875444,-1.3452934314,-1.4461036435,-1.064489545,0.2720652871,3.2213766638,0.0059844058,-0.3295838437,1.5430490536,-0.7144548368,0.2732573031,-0.1186446465,0.1942200026,-0.3867540585,-0.3885732083,0.3363908098,6.410684754,-6.928214977,1.1712730611,0.4389220794,0.7900603532,0.6476167634,1.5817408758,3.3321068995,2.6337940185,-0.398979218,-0.0729573003,2.0900587132,4.0786714744,0.1284678259,0.1451581904,2.172548995,0.9136867789,0.2109431507,2.6455436738,23.0997687751,-215.1700604178,244.2490724573,420.3591911864,2.7929471192,23.0656841072,-1.8523964287,-6.5107105549,-17.7154674412,-13.4057501189,-12.615949581,14.8179106785,-2.6484604479,1.9549326109,7.2121654916,-4.2817130272,7.258894735,-2.2185534152,0.041582855,25.1687910692,-10.9419053217,-7.8914028753,26.8410146522,8.6853901846,-0.0661112733,1.0231394348,-1.8235472705,0.4209025775,-2.963049478,-1.2820422726,1.0061305552,-0.400363245,-1.4111678219,-4.3984796943,55.0959810186,-0.4664749687,7.800748071,2.328081993,2.1268837894,3.885700976,42.3538471155,24.4835571067,-24.5857688723,-10.8274558768,0.710846472,0.5250311148,-0.7336555877,0.4316275358,0.4325571444,2.1484482984,1.6322652814,0.6530498049,-0.0996468875,5.3679819376,3.6937498164,19.9379255545,-39.5083556729,0.8252891947,0.5994972749,-1.6159442031,0.2138973529,10.3795580141,-2.2369547307,-3.2796735577,-7.5498651718,0.6436596793,11.9134728345,0.2343248271,5.2713267097,-6.5274349025,-3.3444382745,-1.100824463,-8.386544986,0.6129211829,-3.0784299139,-1.0918281977,-0.8756659454,0.2791677227,1.3213912215,-0.2039983934,0.0482053415,1.0153095901,0.5470181509,0.8227999935,0.0009118295,0.7110543164,0.3451867085,0.1498088046,0.7420934807,1.5750587609,0.9131651445,0.593188188,1.1230078693,2.3459060808,-11.4499260948,-6.5512358981,-2.9687101684,-0.1428323731,0.3251078523,-0.374635356,-0.9897926216,0.416704179,0.5513875023,-0.4030597695,1.1743347209,-0.3017118839,-7.4492170973,-0.0714509674,-5.2586989103,-2.8705637655,6.0004445742,1.2472329086,-0.0146588544,3.921522707,1.5560153413,1.2837174023,0.7402500552,6.9297471533,-0.6399400567,0.853178316,1.9896467817,-0.4031429061,-0.4429758217,-4.0403677078,-0.8621374456,0.7383656475,0.2666988227,0.0807951856,-0.0547391554,4.4554670011,0.5417914255,0.8501772877,0.0980257188,0.0553760049,0.3395191489,-0.0425270387,0.1569238148,-1.1135598613,0.661202701,0.1004108131
   0.3348962661,-6.2532973439,0.6804996665,0.626556169,-0.3563555678,0.0308907798,-2.0455014314,-6.7478358083,-3.9653968177,1.3238431819,0.5047350024,0.1189931093,1.1789728268,0.3013495339,0.0718238752,0.490086609,0.876478489,0.7661747501,1.5989908705,15.4547160152,7.8308764731,-75.648087424,68.7553122608,0.5214667918,0.3903394478,1.5448867428,3.1291742076,-0.1236530903,-2.6416839234,7.2046451501,13.4749913477,-0.2850544765,-5.8519682775,-0.1318162335,-0.127125545,8.7064531612,1.0431226531,1.6847765449,0.2771162818,0.7309459839,0.5148656636,-0.8050776737,-0.971325745,-0.0258050371,0.1348626595,0.8155374245,0.1950522698,0.1175861962,0.6385677746,0.22806048,2.4678395525,0.8984688702,-0.4161577364,-10.8616121351,0.3501859341,1.0982887972,-0.088225568,0.286834203,0.3638621948,3.2402028299,10.6065255392,3.2022817938,-0.5303846374,-0.4081640037,-0.0100359459,-0.9560786138,-0.1466060788,0.8408090163,-4.0040268982,0.0725477781,1.7870208594,0.686671119,0.259148765,-0.2863019009,-60.5272195543,-189.898477322,-2.913455677,-0.2571377966,0.4087440912,-7.954797708,-2.7742179711,6.2076736296,3.3817009546,3.2644704816,-0.6797475092,0.5342820425,12.4982323938,1.0375218602,-8.2270991603,8.6321169046,0.6128660412,-5.500513438,-2.1637724458,0.0167920419,0.0495416702,6.4765068631,0.6946417698,0.3835953496,0.2484824995,1.0236877659,0.079549358,-0.251958222,-0.2470151891,-0.0094704081,0.4524495007,2.0585282744,0.8076645944,4.1124362312,-8.2058795457,1.6461248699,0.5476607407,-0.2081183904,-0.3600067848,16.5248356146,-5.0468372182,-1.0289251417,0.2679471308
##end
biasActivation=0,1,1
[BASIC:ACTIVATION]
"org.encog.engine.network.activation.ActivationTANH"
"org.encog.engine.network.activation.ActivationTANH"
"org.encog.engine.network.activation.ActivationLinear"
