encog,BasicNetwork,java,3.2.0,1,1431919024827
[BASIC]
[BASIC:PARAMS]
[BASIC:NETWORK]
beginTraining=0
connectionLimit=0
contextTargetOffset=0,0,0
contextTargetSize=0,0,0
endTraining=2
hasContext=f
inputCount=72
layerCounts=1,109,73
layerFeedCounts=1,108,72
layerContextCount=0,0,0
layerIndex=0,1,110
output=0,0,0,0,0,0,0,0,0,0,0,0,0,0,0,0,0,0,0,0,0,0,0,0,0,0,0,0,0,0,0,0,0,0,0,0,0,0,0,0,0,0,0,0,0,0,0,0,0,0,0,0,0,0,0,0,0,0,0,0,0,0,0,0,0,0,0,0,0,0,0,0,0,0,0,0,0,0,0,0,0,0,0,0,0,0,0,0,0,0,0,0,0,0,0,0,0,0,0,0,0,0,0,0,0,0,0,0,0,1,0,0,0,0,0,0,0,0,0,0,0,0,0,0,0,0,0,0,0,0,0,0,0,0,0,0,0,0,0,0,0,0,0,0,0,0,0,0,0,0,0,0,0,0,0,0,0,0,0,0,0,0,0,0,0,0,0,0,0,0,0,0,0,0,0,0,0,0,0,0,0,0,1
outputCount=1
weightIndex=0,109,7993
weights=##0
##double#7993
   0.4261155153,0.7485052573,0.5783810069,0.4078492887,-0.5421897248,-0.9240530417,0.8332512939,0.5300845508,-0.5371902098,0.4101100945,-0.4126904961,0.8077219446,0.8504992831,0.7681228599,0.6339819904,-0.7003895729,-0.6002152085,-0.5944901169,0.187601641,0.7266139601,0.5408059517,0.8809086637,0.581755816,0.5597321658,0.5288770909,0.6843469573,0.3780353705,0.3064025737,-0.4898921589,0.6528313928,0.6086079398,0.8080608956,-0.6158670709,0.3814553421,0.7777652756,0.4255643017,-0.3871290915,0.6349398709,0.6202426443,0.5941570085,0.5609881212,-1.0158435139,0.7186309241,0.4914328898,0.6263786553,0.5267169374,0.525542148,0.4828702071,-0.4245714861,0.5291924621,0.5920230364,0.4980653093,0.5661374527,0.4473883668,0.8429898431,0.3538883997,0.6398067697,0.4584332045,0.7105552385,0.4906429353,-0.3947066068,0.4809991734,0.511823361,0.6932077805,0.7308777688,0.4204708571,0.8617215483,0.5041552394,0.3757764909,0.4585885053,0.4586497055,0.5407038755,0.7954590296,0.6921919511,-0.4474781198,0.7480763017,0.4180595208,-0.6515187063,0.4261509152,0.4870960067,0.5103809681,0.6258584559,0.6917595066,-1.6127535287,0.5321323954,0.4910636825,0.4746677236,0.3674812283,0.5647261607,0.6126881597,0.7146805716,0.5859049622,0.4054965176,0.4254673036,0.427140531,0.5124914212,0.3014539156,0.6649752204,0.3926748384,-0.5001380373,-0.5889202201,0.4907932363,0.550562483,0.4779315611,-0.4236982698,0.3171584307,0.6697803664,-0.5065016801,0.3178090824,-9.4991358878,12.7077517954,154.4954891698,58.4868562917,301.9138310088,-0.3536972017,16.7635349022,39.4060139155,-69.0257147333,5.2707019186,-1.4412562266,-3.2248590625,11.4566457286,12.8626726596,42.95631243,-1262.8668785917,845.6385759811,8323.4060665915,-5.9012684192,-16.2680137027,-2.8310858341,-0.6159006342,-0.5625322288,-0.3320595896,3.5078188011,6.4162744544,2.7180401736,-645.4475809274,-36.2616371178,-72.0817362479,246.7864703503,44.6381583378,-18.3992058538,-23.4635367596,-14.5032764373,30.3989180195,-28.2753301522,-16.2115714027,-78.6098291546,-208.413897838,-82.4391513768,-196.3432561566,1.0044228379,-0.1567399586,-32.7907900186,-3.3063640464,0.5955802294,0.5218908233,-21.8796785501,-6.2753105896,1.6326352833,-21.9839022041,35.2097201539,3.2014362021,-24.4916796124,1.1564098933,-4.3877425255,16.1900732274,38.595111451,10.7908591669,56.3089715051,44.0957192566,5.4505028898,10.3349242462,-28.9862546975,0.0392938015,55.7910243819,-33.8735396365,8.9987420031,50.4543276693,-2.2781266098,25.3077797916,-0.8617214298,-3.2348317724,32.5538162149,-323.3645447074,22.7862011776,30.0654859815,4.4614441807,6.6786269455,19.0024686342,52.5805959127,12.0087678272,1.0737117354,0.698905749,1.7872399921,-9.7368522944,18.3569713217,539.9500311327,791.3413223936,707.5212782461,-9.1712263494,-0.0751403877,-0.2528529628,-0.6852163737,-0.4566660426,-0.4086342125,0.5005721324,-1.1162572351,0.9452900561,12.8100116266,-159.6424410464,88.3688242642,17.33023523,9.213238282,2.1605029634,-0.4814872486,-9.9529435853,-41.3613615982,-251.6136837291,-143.0399387316,-58.6234715825,94.7091598513,127.3771060149,-6.4883552113,1.0915547849,-1.163221314,0.2457934338,-2.817307982,0.0227368979,0.3195417049,-10.2089911351,-5.7425520773,2.9817548977,-5.7327185556,3.9293055356,36.5873284502,0.6822181332,0.0830524292,3.2885842336,16.3758167548,0.676072528,6.4143783123,19.494937529,5.7001688639,-0.5345713958,-14.824432122,-12.916121584,-0.9433276522,62.2301491175,73.2072233206,93.9373793342,-17.3698237338,-1.1686879051,0.7007517947,-1.095622204,5.2416856026,-2.0454272144,-120.5191729363,-52.6431128772,14.5449878304,3.0030926143,2.7356847877,1.0087106593,-22.5603387086,-5.593234462,2.7540303805,0.0911154448,1.0029655888,-0.1585012469,-7.4338105087,-377.9923518435,99.3799614087,-163.5451762092,0.77304184,0.7053207393,0.3545215968,1.0651145669,1.0807852433,1.0263663704,0.3133897042,0.147055693,-1.1592285067,-80.2571986954,-14.9637785338,17.4098256908,-0.9194523797,29.2273810092,0.3960696981,7.2516948919,15.1007843129,9.9666972305,53.8974851327,16.9292440401,15.3368088512,-48.5381631064,12.4252892001,0.2479912239,-0.7008283549,0.1304429735,-0.3412449464,-1.367951483,0.707701243,0.0339851184,1.7500084826,-12.4939775378,-30.785770617,1.3595053294,-3.3764401286,-14.9392334364,0.0755683068,-0.0190729399,-4.0285726246,-4.5393832013,-0.127152795,-1.0342454979,-1.7810528122,18.6106941941,-0.0342758799,-10.7123755651,-0.1242022058,-0.0786458716,10.6484006496,-32.1570370195,-41.9856899718,-2.5348536754,2.3454449564,0.136283486,1.0567917906,8.5576297001,5.2926694046,-204.1706520925,202.2867737924,-65.2437847688,45.4844448786,8.1784791206,7.4953712797,47.9061909345,-12.5486475821,-19.068904567,1.4379134117,9.6183244864,-13.7485214136,-0.3195013848,-5166.8317041059,5266.9114830159,-1799.8832439083,5.0135124026,2.53573607,0.2964047522,0.1549717804,-0.2771155467,-0.0582898356,18.6298676929,-1.3930995291,1.5427927047,-76.439996732,119.4304531057,-12.0893415418,-51.9617331224,-167.7850372832,-54.416425712,1.5775146849,9.2382936776,11.8911018655,-210.2975928232,-74.9848285295,0.1683457158,393.7018334234,-59.7508576791,-5.6628561741,-16.7721643322,-0.9635591064,-1.9767430911,-12.6401247498,0.6946482531,0.6563016423,-0.0239428509,15.6166605224,210.1594884854,13.2722222769,6.6379279164,48.4578307363,8.8695844776,1.7370158768,17.5978053117,-1.4308427895,5.1344153478,8.9409342461,80.0415644682,-1.4853448997,7.133215311,121.2087974312,9.2911855402,41.1554527934,11.5613329039,30.0380344389,-2.0515806588,17.0854377592,27.5316375355,14.7532885362,-0.8232592332,2.0799357513,-11.9301419251,86.2793928195,-193.716099101,137.2557539988,-2.4099265651,4.5943884225,1.9016324524,-43.7592455511,9.4045723208,7.0628217808,-1.121306803,-35.6822377435,16.2324619195,40.4417906253,-1828.6881062873,-3509.0596968375,-6476.1975385932,2.0944114555,4.1512074116,2.5325410745,4.5029185249,2.3955701797,14.0923680169,13.5007376623,4.5618253495,-1.3320082594,182.8826244214,622.7764137695,35.6556821816,-30.5185239216,25.3316890915,35.0069525327,-5.9787891842,1.8623950778,3.5312316959,-2.786131863,-6.3900163828,-12.542455127,-28.1097623804,-6.6116231578,-53.0962644336,18.2620275391,-0.6231705167,0.7695010437,-2.988143786,0.1760978845,0.6039333686,16.0969848068,13.0731033634,5.1946433556,23.9608588129,8.6038004696,6.0318239284,-7.6151129762,0.703521876,-4.7594689662,-8.6785020168,6.559698909,1.2553579519,12.6768163804,-2.3804647357,22.7366094765,11.186510527,-6.6923909946,12.6153455278,28.1956373337,2.4219954429,-3.1887789497,-35.7982059478,-10.7555418163,-2.1341555747,2.3797534083,1.4975478434,-0.4920881542,-3.0101024218,0.4060549203,10.7301322319,0.414373962,0.2355815447,0.6030169061,0.3572288132,-0.4402979518,0.4851732246,0.5767553056,0.529631774,-0.1760480727,-0.2375974977,0.2615251669,133.5556295703,-170.2610280224,0.2876189987,0.2539912276,-0.0424157264,0.4287256676,0.6417578734,0.4254929806,-0.5609700257,0.5955347909,0.1782374543,6.6113404715,2.1785839758,-0.7568451032,1.2425575491,-0.0950330437,0.2356366849,0.5495413832,0.3049305273,-0.3058474305,-0.313973862,2.3027987299,1.0843206622,-10.2122897926,0.852030464,0.5895557774,-0.2814772856,-0.3381085347,-0.0618380649,0.2442448226,0.2765036505,0.5142487912,-0.0071944092,0.5417674784,0.8671172739,-0.0435606132,0.3750704608,0.7546751145,-1.0184933206,0.6093956448,-0.3362635807,0.1445278133,-0.7493342388,0.5144330373,-1.0155650501,-1.7962504981,-0.2241729137,1.0449821281,-0.1477072528,1.56974261,-0.2195999712,0.6793053699,0.3107400285,-0.0692249056,-0.0702567586,0.3615257476,-0.5589344908,0.1504675098,-0.3011261228,8.6922870359,3.4897341564,-10.6213621706,-0.1389209875,-1.317403802,1.8479630557,-0.1315012148,0.6153148453,0.3479896859,0.251161884,-3.4726143293,1.4429869688,0.7059646536,-182.6776423412,32.9159079728,44.7921315297,0.6617313577,0.3059930801,0.6592671772,0.7406016767,1.2892540808,0.8374799447,1.1826817993,0.6211446179,0.2306265403,8.7462692473,-2.4831574554,-1.7310064864,10.7992940028,-3.0080764883,1.5291206952,-2.6195396987,0.9289928952,3.8717416348,1.3999413054,4.7674111854,2.956169725,8.6948384668,0.988869734,0.4200978229,-0.2623225294,0.4645581548,-0.0549761919,-1.2360479123,0.4960240672,0.5998048209,0.5775186824,-0.8628967734,-0.0991010361,-0.6890834637,0.4188667546,0.6919676908,1.0860310899,0.4099044045,0.3555877861,0.1673628206,0.8355109648,-0.1306375737,-0.2250602359,1.9259778489,0.6315799516,3.8867641117,-3.1140860667,0.2657375041,-3.1926396943,0.3151483851,0.1663143473,-2.0797224174,0.1525898027,1.6134885617,1.1880149866,-19.133449554,-39.0234264751,321.4508498362,103.9440314511,55.0322230434,-7.8162453628,-0.986913658,3.5708763615,-53.5025676314,-1.4717761649,-5.254244144,-6.7992409047,0.5084770371,1.3961012924,-15.0833753841,-457.3617471135,-4512.2132541339,-1471.0331470871,6.8002940598,0.398154215,0.7171195306,0.5451406817,0.8809555902,0.4505317941,15.2970063899,-0.2235909903,-20.6038416188,-19.1173024228,37.0261029615,-36.2581103614,-11.45645673,-67.1642270121,-17.4959777641,15.2778971081,1.1123232252,14.459080715,-17.5478288243,-35.2723606648,40.6072422014,-1.3093611707,-188.183580327,3.0084022716,0.6044293038,0.6094032874,0.0333845856,0.2068410433,0.5469120774,0.0404139285,-14.2508659988,1.2315195604,-61.1796249565,-1.9801570221,-1.0106199055,-49.3346579086,34.2763136426,2.457456491,-135.4102615753,-1.6411571399,-2.6989209537,0.4102986057,-66.6240979254,-14.7212952899,-21.2412802766,-330.7051619879,18.1306815342,2.3587242705,3.1857040949,-1.4074636832,-9.171706928,-45.8712393227,4.3056888292,34.188582092,-0.0587989769,0.7592080927,-0.3987437397,-21.7041667544,8.6859936932,-7.6668736046,1.7289048088,1.0734301215,0.3431611692,2.2731811608,0.8664181122,1.3745057463,0.2104825758,-0.0501525301,2.2298488605,-0.9206975291,-125.6369263199,-130.6720871362,-1934.0106011578,0.1276684163,-0.4050742506,0.75002891,0.2831656976,0.5383369833,0.1261432448,0.8682450624,0.8230565269,-0.5631502118,4.4197644963,6.8228257597,0.8254430397,9.6656036162,7.218437124,0.8838191335,0.4635005149,1.7568492177,1.5445008302,-12.3563360168,-6.0618534789,1.3580459081,-0.1674233199,3.7005236637,9.695682886,-0.2536751919,0.1225554404,0.4884138308,1.3653709947,0.4421836828,0.2404602223,-1.3828632338,-0.472941261,1.2922082489,1.1536918793,-0.0532699454,2.3398850124,-0.3418505261,1.1851479167,-0.0364983393,-0.310087466,-0.5777225864,0.1705278091,2.7699238467,0.0067880373,2.5439208468,-0.675653585,-0.2843220339,-2.9223329474,-2.0022619468,-0.1214570458,0.2520409491,-8.0675166994,1.4817137623,1.4931565427,-0.0922670773,-6.8870391315,7.1692405993,116.151786418,101.0619810065,-56.5895638304,0.8846725364,-0.0172930661,9.6725557971,20.6937531134,-1.2747994033,1.9199053193,2.2390363374,9.0019197679,-32.7963312297,-3.8504246145,-974.6781142793,-2195.3033076607,493.6063536612,0.0026357216,5.0811650267,4.9645741996,3.3548768479,3.3517491222,3.2363731525,0.6341568244,-0.9361955745,-0.5146375678,101.5560315763,26.4582992708,16.7732403536,127.3748149309,-8.4779108348,26.7554057854,34.7922645655,-1.2806566034,7.858800925,-23.6864435464,-2.2016119368,39.4765718722,4.8094500333,-12.6315906318,46.0105481178,1.9056909073,0.7279962285,-4.5837327644,1.4305544521,0.419424739,0.3653680159,6.4028377033,2.1436698005,0.9720814685,0.8629405827,-3.1852164058,0.1767744523,0.3070001351,8.7971407651,1.2676654107,3.7547592198,6.9486811178,-0.0193350446,-17.6953008835,7.3553223509,1.1823942391,32.773929725,11.6072418818,23.410093293,-4.6940328493,-1.519226166,7.0779803015,-2.5565249364,7.0785167514,1.1551845824,6.3879846681,22.5701939901,4.0571676256,-72.6562510489,104.5676845526,-38.987701097,-4.7786720853,-7.0242254466,15.7229483801,-33.3773871333,15.2002896136,23.1505302152,-0.2764071799,53.8388268251,19.144461496,35.6992642107,5072.6518167952,1803.6388553799,-1325.9436188069,-13.6405021284,4.7834297912,5.873326635,7.1386178514,1.2911993083,1.787390116,-8.2675517906,8.9875019184,-5.820505921,100.5059668608,38.9945568424,63.7206478159,63.4484978464,-14.8042530566,5.1419551606,0.4573064153,1.2520203721,1.1734268938,69.8580712083,7.3858830116,16.2030418108,30.3602848987,15.4067754656,33.8848263812,-21.4092713134,-9.9605999845,-8.7620358671,6.995886389,0.2133593947,0.3430811225,-15.4092582373,35.5218669452,11.3074182408,0.1020728523,0.3777267236,-9.0809933975,9.3859544265,7.8114824327,-0.2419085231,-10.263411421,9.3556444147,2.9404350438,37.0889336498,-21.9325899883,-2.1918155606,-8.902917834,-25.453747601,-7.3395953791,3.5007824347,22.7373283067,0.2261803917,12.8983468347,0.8906539446,17.7485438388,1.4522753036,-10.4175965847,17.7984489885,-35.4520934182,-42.6400725918,-11.0898982544,-0.7876355502,-0.0584628609,2.0064837938,-47.7270728911,4.0225843513,0.7854973487,0.8963537421,11.5512845561,10.6227471361,1.7416350849,-4112.719593683,-30.0025798452,1388.6233752662,1.0535770504,0.1394911837,0.086851265,0.0588732353,0.2516131663,0.0332087453,1.3822068764,0.7367155924,2.8806526658,-37.3765310355,87.2196118885,44.9959562986,0.9657744552,10.3583416729,1.1193726727,-21.9782047567,-128.5835098182,-10.2744332344,-246.8626033538,-8.6064403424,27.9790039256,-141.6543234573,7.3020802879,58.4763855843,-0.0236060781,0.2821080369,0.3020644888,-5.0715865438,0.1633029981,0.142253365,-8.5115470778,35.7378915534,12.8140019757,-1.1348016269,21.6424844772,-0.9331082752,0.7817429934,1.5565985943,4.8304416956,2.2324818713,1.0333693928,0.8874803789,-40.1046447711,-3.1524491381,0.1273463467,4.03992377,21.0001951486,-4.79188397,3.7358690295,22.6603770491,18.766378431,12.3711522721,1.2610444049,1.386881984,-1.0781352239,0.1738855746,-3.9580225897,-0.8762991513,4.2345453364,-2.6202323592,-1.6424925166,1.4818448727,1.0018935682,-0.1544869513,0.7858918316,0.9264835563,-0.0141319537,0.5481289795,-1.0256348833,0.1156075585,282.7187172869,127.870246007,33.4678809009,0.3750900713,-0.0058859646,0.0462150933,0.4982511777,0.5228826014,0.3676975472,0.2943116959,-3.8814515972,0.3042939039,2.6833246245,2.7229668695,-2.3177152479,-3.7619672895,0.4797910008,-0.7565909149,0.6753890639,1.0723485438,0.7832629615,-1.3366617533,-5.3548763537,1.9886994615,6.0640608992,0.4525074547,10.8524742307,-0.6046829047,-0.9605881788,-0.6659129978,0.1117304113,0.2157488992,0.0300509193,-2.684754441,-0.1710140767,-0.9796615506,-1.3299599967,0.1155624806,-2.7352230775,0.396576545,-1.1086542123,0.6587447789,-4.1646452854,2.3769270414,0.120340636,4.0311309649,-0.3716882568,-1.1206883781,-13.3833057234,1.5437289013,-0.7347036987,-2.8142294053,-3.6456566801,-1.5185062171,-0.7733817705,0.2759220058,-2.6480164482,0.4263195701,-0.1541769175,0.6916166018,0.719208347,0.3998764691,0.2482641895,0.2635879192,0.9467303747,2.3830819584,1.0824481317,0.4623496249,0.4666531834,0.2951748554,0.2522537002,1.1410266424,0.4820362135,0.3457631607,0.6251892634,-0.0306871702,-0.7107571433,-1.5139521821,-5.4406387136,-5.107469548,-4.8738159599,-5.0334179669,0.4936123705,0.6034419482,0.3387119215,0.5022476068,1.2010412525,0.6640238163,0.4218943008,0.0650902904,0.1213266531,-0.5496937235,-2.2867655186,-0.1661232998,-0.43731359,-1.1185068791,0.4336105997,-1.0713781278,-0.3917299655,-4.2216692828,0.8190254133,0.4479432105,-1.1411380437,0.1590547792,0.4412512976,0.5135447796,0.5911366561,0.0029905309,0.890443759,0.3753884569,0.8740111734,0.3704569919,0.5266193399,0.4356000648,0.3618136864,1.0624776246,0.0635267486,0.0698035752,0.870722363,0.3132135283,0.4013634638,1.2251803071,0.310331743,-0.8452358844,0.380494972,0.940379121,0.8459387263,0.7410202199,0.5891423101,0.1407541093,-12.1011176859,16.5288701197,-2.5133272867,-303.8923073014,109.9444608314,-103.0716206176,-7.1595442613,-1.0615705691,1.8192704143,-77.2157192161,-0.8995532124,1.7803295602,0.1429955859,-13.9467821577,3.9804255596,-6.1334778744,14730.1273573297,-1992.8190722917,-1630.1763888273,36.37830538,6.4574330206,2.0872610525,7.1897805861,4.8190894019,4.0695959737,-3.4759561518,1.0526658691,-3.7925182929,-7.7560077003,-38.9089343391,-8.6400670081,-11.4518142083,-4.0364843478,-6.8434493686,-1.8263857736,60.3091693192,5.5378412928,36.2187639818,73.5890045832,7.6244850303,20.2499990027,41.2344991817,1.9856970309,-2.3937043997,-0.7236332521,-1.5149990792,-10.5193788369,0.7092211638,0.1416276702,-18.252739728,18.5047869316,-8.9618145839,1.8353395974,-0.1882553285,-2.4115650457,-0.8116942737,1.5819334742,-2.2003397563,16.6979772409,-13.7030445859,-0.1152709407,1.103936159,-0.3433057656,-1.8545174295,4.2276420077,-16.504504674,2.6895388018,9.533045984,-10.3555213568,-125.866038243,-225.8674122963,5.569615314,-63.6495044927,3.9930930555,0.899991967,-0.492784672,6.0226002142,39.4299809154,-18.7260983836,1.1262626254,2.3939637789,9.2983951801,5.4744356956,3.2826353825,0.9027672699,1.1602796001,-1.3493337412,9.0815657633,4.1781545202,269.7452160149,-267.101924168,-1037.7142946098,2.3976188408,-1.0408890759,0.7786692258,0.724074879,0.485987816,0.7856095619,8.345060375,-0.4990091916,0.1997098263,13.63469203,13.56668362,-6.5532280885,0.1836866639,-2.7805341251,5.6709334433,-0.9590425084,4.0792727926,-0.4405604801,-1.6068629581,3.4875585698,20.9940262106,49.3430832575,0.8163430795,-8.1025166268,0.229624515,-1.931760324,-1.2589722817,1.1671812565,0.5514201694,0.5503624119,-2.2653277637,-3.0203168136,3.0157035164,1.0585009394,-1.4575227476,0.748502399,3.6464218301,0.8936064297,0.0948543809,1.0670165255,-1.4478918475,-4.4859765795,4.8137131323,5.4773662913,-0.569685782,5.8458274752,4.1306096148,-2.5326626847,9.006239526,-0.402565414,-0.5859782857,0.2027115737,2.1074402437,-0.509595732,0.138775898,1.2003976609,1.1293694741,16.4682989825,0.697364168,9.0687287998,-0.4573037839,-0.3593233363,0.2098073667,1.2773073373,-0.3395757827,3.4991862007,-0.5198114425,-1.1922479715,3.0170000744,1.6196554929,672.7153698566,-515.9602408245,485.4907027776,0.6515061867,-0.1906682786,0.28010033,0.7505147316,0.6255340628,0.7059159711,0.8813329014,0.1139787361,1.1646063503,-4.2782003848,-0.2908700007,3.2857673167,-9.6401506306,-9.9681297373,2.6245148525,0.7557578753,-0.1808579936,0.5885201825,1.5677862274,-1.8578401841,1.1092670061,11.7752117758,1.6347799564,1.4095222856,-6.0882520761,0.425199072,0.4988519675,-0.6007386938,0.4344449014,0.7004682117,-0.0199092865,0.0690602038,0.2529038407,1.9166398393,0.431929159,-0.4063613133,-0.5098011482,0.7256210493,1.2538393087,2.8136994504,1.5758972762,0.0805624666,-1.1700826292,-0.442643204,0.3083323996,0.776604979,-2.1889146857,-0.2810375533,5.1173184465,0.1764622595,0.8226872636,6.2953239377,1.9541834947,-0.5304826008,-0.6518544769,-11.2812035933,-6.2847105745,-88.1761146787,-67.9052085072,252.9974876048,10.4015180437,6.5001553072,10.2303333609,25.6228985273,4.1910495205,-1.5944023211,1.162714912,32.144831268,15.1700206399,-1.238561453,-56.9653312501,-368.5139174558,887.1430242054,-7.5837172192,2.7738476542,-0.1837046022,0.8117863875,0.7573405035,0.5736778725,0.7885928313,1.2759041817,0.027969957,58.4411668484,3.5573074246,41.9920610861,-88.8356329473,10.6824739413,-19.7830516186,7.2564980951,6.8200920718,5.0606020921,-20.8423677901,-1.5734645885,29.5862524076,38.0430475232,28.5415832894,77.5163614651,14.6217231416,-2.7089022422,-0.126173869,-5.3866635994,0.0296020001,0.7365528792,-1.430959781,-0.2772058326,3.3710065869,8.8092247975,2.92148427,-6.0125945342,-3.4367383875,7.378627248,1.6969970452,-0.3155837382,4.4456640868,-2.6952415985,21.872471354,20.4014199591,-9.9265495548,30.2372800101,-6.8135497047,0.249590226,12.4484937488,3.0963783747,0.3936182572,8.8900237008,1.6284029649,3.0953473118,0.8761241628,703.407781759,1.0444462466,-1038.5812954168,64.7252088914,-305.3212399719,2.8624613335,-1.603167209,-17.1558732079,133.5457848763,6.5315209001,-0.4989576631,-3.4085699476,0.2849895988,0.9909546353,0.5699392156,318.0838629004,13795.2082648839,149.0103081951,-0.8113393671,19.1780234918,1.0006095908,0.5858211138,0.8734570652,0.9156195078,0.1787376913,-0.022035454,1.3438957528,14.3084665742,-61.3187529162,99.345606261,-9.0335137847,0.6935456661,0.8900595395,67.8205081855,7.7850573401,1.7581687467,-117.7338879582,-26.4684379358,16.1299294635,96.6720883286,134.1664204514,68.1312307071,-1.3602151442,0.5272711915,0.3658399185,1.232731364,0.1058105734,0.3664700714,11.6658170155,-2.1818135024,0.4768294566,13.362124898,0.5285184993,37.2893862299,-0.0477618658,0.2828626993,1.5234560987,-0.0692655503,4.2240632016,-0.0491221897,-4.5297646688,-0.2492383787,4.3052687759,32.3448553671,76.4985392577,42.2804676325,65.3155420113,2.111539723,0.201151957,-10.874626159,0.1779549262,6.8329118225,-0.0290636899,-0.8166537887,0.9434187575,-3.6560067776,-2.1624896886,-8.1816766251,0.2638520959,-0.1587412658,0.7762887748,1.7897689008,0.757271593,0.3648772255,-0.2448803233,4.6568655077,0.4481587838,0.4130919798,-648.2901542443,0.8472992098,40.7464049057,0.2458773954,0.3853579832,-0.0022672363,0.1273080005,-0.125131747,-0.1824653825,0.2942743548,0.7653527128,0.1343240082,-0.7453735408,-4.8050889998,-1.9300932538,-1.5518443318,2.3442185254,3.3196345411,-2.4741150281,-5.730051945,0.9045285874,-7.9721366767,2.9982383729,-11.3041997464,-38.8504381611,0.0615431042,-0.060677336,0.4151196521,0.1679603487,-0.4068185443,2.8257224173,0.6981876364,0.2994417953,-1.2512534799,1.2339700537,0.250972638,0.4487936773,-0.096633255,0.7983033744,0.2990052958,0.4956213659,0.4266413867,2.3153110708,-0.1555947139,-0.1986686044,-0.507698817,0.2399011434,0.4353260133,0.2531347297,-0.7103719365,0.3759248162,-3.5312911622,13.1131197306,0.5321662172,0.1714001815,1.192449658,-0.6712792363,-0.7427262066,-0.529535691,5.6706596266,-39.9614519548,3.9656060561,-1.3088924565,-0.3432880277,1.3632389899,0.9931228344,-18.6578604954,2.4506663975,-1.4755208051,0.0502299184,-1.1972233524,-0.452876377,13.3747531073,1048.6738393101,387.8607816788,261.4631482289,-4.4987209445,-6.6921531513,-2.1306793117,-0.3142451949,-0.2141994722,-0.5341207748,0.5220400194,-1.1432199488,2.4650795537,-6.1201875771,14.3615230748,-25.4823832697,21.2930526145,6.7360657615,-2.7605396317,-2.9844768605,-6.4142901846,6.564965366,-7.7579885193,-9.7668598075,-50.0700407853,-24.4411190437,-2.9588963777,-70.2524222552,0.2408449622,0.6391972195,0.0341148024,0.1760997908,0.4668561669,0.1915352008,-2.2939141954,2.1312846058,1.1538905859,13.9177698402,2.635851765,-0.2829297427,1.9078920901,-0.2899306203,1.8155934231,-0.8558581326,0.2911415556,6.2365083581,3.4192991773,-15.7890469836,0.8297691159,-2.8090584972,32.6113145575,0.8839864322,7.1539831201,34.7976137625,16.4179880559,-1.1160851479,0.4827411689,1.081000534,-1.2547055891,-0.1019796587,0.928548406,15.3799307025,13.3679190463,-17.6155988657,2.4583786386,1.2419432954,-0.4532169845,5.408817818,-2.387539012,0.9775151623,0.8568775823,-0.9266216698,-1.0248464303,-1.8387765879,-278.7687250542,-111.5466366515,-122.7141970252,0.1139676688,0.973261584,0.8879502045,0.595830657,1.0642468739,0.9493517115,0.2623542884,0.2612861279,0.3032605315,-3.9183673698,7.0971815037,0.2622490884,-6.0734500747,3.1644831943,0.1980336759,0.3023406499,1.6173711058,1.4630101918,15.2662055251,0.4660579054,4.6507319605,1.2919936341,-2.1642762821,19.2829900247,-4.7939588442,-0.0896729829,-0.2513849333,-1.1032695167,0.3286912058,0.0252740926,0.6243151213,-2.0241262523,-1.7907583175,1.2228323558,-5.1695282226,1.0143696458,0.4310843371,0.4902255618,0.2389213215,-2.8957268526,0.0729069895,-1.0142673961,-2.9694180791,-6.2030041482,-0.2856133066,0.1370979306,1.6811803801,-5.6216443062,-2.0286018386,-13.2366338826,-2.7594665173,6.5333359338,0.9569653638,1.1538533591,0.5058778849,-1.2444489427,0.611321573,37.1335698065,19.6732846724,-9.4962853643,-0.4477507969,0.7650364012,-0.5497414614,-2.0951641126,1.4826752015,0.6331173421,-0.7345141215,-0.8591900518,0.6619018994,0.2143853168,1136.6564914744,-21.3234453709,-389.6253411274,0.1216441413,0.1080089749,0.7107206893,0.4482559074,0.478539557,0.7563144657,-0.4604569696,-0.4297917805,0.829874838,3.5052629116,5.8793975399,8.1312959551,5.2899337791,2.0669386859,3.8886108466,1.0621608219,0.4120737024,1.0576605046,0.5106906256,-1.5753664779,0.7592310472,5.1601949524,-0.7675586579,1.0250217256,-0.078306992,0.2266243206,0.0645676751,-2.3019825923,0.4985099546,0.1907472248,1.0433541397,1.1145690374,0.0054121003,1.1467089048,0.7611433762,-0.0508735443,0.1917998,0.1508442012,0.6876713294,1.1403101075,0.1809921153,-0.0800245295,8.4851470747,3.1041837374,0.3817421254,2.6097902969,0.8629199756,-1.4400191553,2.4703497114,0.6346665035,0.3459249279,0.0759852555,-0.3762151118,0.0318923172,0.4536897189,0.2450836573,0.1522482662,3.4006240704,1.5220641478,105.6689499608,-1.9794919245,3.0883492567,3.0788300903,-18.6379743387,3.612842166,-0.06816567,-0.2568716966,-6.8368175175,46.6327721682,6.8248910469,1564.0517522131,-565.5094525849,809.6825127905,2.5227634193,3.6481671764,-0.053852512,1.6810907531,1.4803988163,0.9006259897,-2.1825427681,0.1101629245,1.4537487639,29.2626049612,19.7886408798,7.9617830513,12.4778233081,4.7476539059,3.5329478727,-0.5474175184,2.8191513443,1.5439347133,-0.536139244,20.0082720781,2.8747050284,-22.8756676703,13.1989499721,0.6264228303,-9.8693796234,-2.1459554461,-4.0767814131,3.7583874273,0.2807878917,0.1425835204,1.419834785,2.5292146083,-0.0760355753,-3.0706795495,-4.8976672125,-2.7433774771,-1.9439625878,0.8580637918,0.1109133035,-1.5373398281,-1.6169206389,0.4030316788,-16.1360158872,0.3033258802,1.5099374988,26.7030483051,-0.2788054758,-3.1705594185,12.7036412726,7.6309902861,2.1718873988,7.831604158,1.8003950101,-2.6012146922,0.6280165457,0.062893393,0.1855886229,31.6351201941,-14.8604535198,-9.2143634995,0.314084676,6.9636927895,-0.6607524453,-3.7181644433,1.6126038053,0.6140224097,2.3180806234,12.9987505876,-0.0078264378,-0.7791641853,1024.9621421351,-253.1826609041,1745.9156764916,2.9560409492,1.4051374028,0.7859570102,0.8434093635,0.7290093505,0.4012312755,0.4036680353,1.0857694806,0.41170427,1.748637542,12.6073238448,-0.9442467546,1.0911063594,7.84549991,-0.040846332,0.8995750716,1.4868232862,3.686070954,-2.1644027697,0.3771534871,1.2606440327,1.0822210524,8.074797356,8.6264471139,2.9198707717,2.0865286212,1.1543664703,0.6017482217,0.4830324897,0.5116085312,1.1834217165,1.3089724079,0.8252693302,2.5169428538,-0.963086449,1.1018505327,0.2040779833,1.2640733235,0.6458145629,0.8475527323,0.7503399833,0.2396950133,8.5322329192,0.811794509,0.0629885232,2.9836985591,3.7323947455,-1.5978669132,-1.1271032832,-0.2522864621,-0.0536352882,1.7481969038,-0.9771578868,2.0063545479,0.8077733256,3.4043876709,-0.2810962096,20.3505888528,-14.6872216857,38.9567635807,3.3669151685,0.5828543218,2.4369388677,6.899443832,-1.7561788141,3.8203102133,-1.9301752396,5.9474467372,-0.3348125963,8.3426128748,243.7700900156,-735.9111622311,1440.4427654658,-2.7161260568,0.1367384599,0.0615708719,0.6756741599,0.3237558114,0.5961184356,0.3304616484,1.3600515197,0.3440468286,-11.6163802797,2.4960193971,-2.3521308978,-0.2732385403,-14.5588021541,-0.9872185931,1.0516777447,-0.8663562029,-2.4504390737,8.2867462918,-10.8731333954,-3.6026436196,-7.3579950535,8.0847470192,4.5233252356,-5.2752262467,0.3489555142,-2.5668040255,5.0535429309,0.3955207201,0.0199808939,-0.5689118154,-0.1240089354,1.6596215192,-1.1149588351,2.9512079643,1.2717541368,0.0207851491,0.6373346881,1.7645421298,1.5247478291,10.4900701361,6.1851931607,4.1987082942,-5.3281298707,-10.8781403703,23.4498162332,0.1556680711,3.1820926114,1.3096595206,3.7760235284,4.5054262572,-0.5377736578,1.9064714795,-0.0986864668,-0.1531219398,7.6970976757,7.8894026768,1157.9454927409,-211.7095531716,543.2973824597,47.5718115408,19.8297860743,19.2680662863,-84.8987723175,-4.2366245121,0.8795219918,10.7498409154,83.7826350859,18.8673957804,23.0379862916,-520.5259450567,-1273.9519970087,10228.0106876937,-2.2543796824,-19.0412548638,5.9563448168,3.5173423874,5.7295777894,1.8891077807,0.7211136343,41.605977806,22.3646296605,611.0370492635,260.7208903243,-42.9238460182,-0.1752346228,41.1975311551,40.0571288117,-2.4006179868,-12.3839596534,5.6274858085,-0.9153036605,64.6142457011,61.0554703168,191.8601841973,70.5805369782
   -39.5781495333,-7.544353471,2.7837405291,6.9792782164,-15.3266752249,0.2591791305,0.4863510842,92.3215577846,-11.4822624209,-10.4684661696,3.6207177872,-28.0855656048,-14.4008344955,-9.4836956598,8.0898133395,0.7103491686,30.8783491158,-2.9147620241,-9.6744884534,-6.7390564908,23.2528783468,4.5253426704,123.3302366615,41.8760021537,-9.249758526,82.3274193717,18.0412313564,36.724200153,10.9927365661,45.5684323768,-4.8062062229,0.912653126,-23.2845205033,-7.5210609162,-109.0220968901,-36.8546532847,29.7444844906,-1.1522457835,5.4940666288,-5.1356774887,88.325845621,-23.1318090586,22.0275533595,-18.2734155155,2.9864146205,10.1400459547,1.3981721825,3411.3073395871,-522.6934214382,-217.8884938836,56.0435882946,60.0744992933,22.2701514232,3.305548612,3.4222460283,3.0592376094,-5.9638666422,25.0235654908,0.0180158005,4.7874319108,23.3597401518,34.7482887815,11.1650346197,45.6696013056,1.6722543588,1.7317202842,5.9011886007,1.7432052793,1248.6794161369,47.4638191029,14.03317072,24.6750495459,1.6827480226,14.6611863105,-6.326533338,0.7053177817,0.4246303336,-3.0153809761,0.458378797,0.5667126816,9.1547258292,3.8452540401,0.9604374832,34.7242118251,-15.5952181247,4.1570213235,-5.8694187658,9.251786582,0.2717140468,-10.4021506772,-0.3294717985,-0.7345681361,13.6282663293,-6.4677869247,-0.4139985833,-10.8295746122,-5.4860298858,-0.8599415566,-0.9871363714,1.3466388564,-26.7832857899,-9.4284857142,-1.1920659924,25.20399211,-1.0613194415,5.9708986414,4.8195919493,-44.6549707655,-182.0349789933,5.9803933968,-148.1949826997,13.4809917376,6.2340297421,78.7934739079,2.6240204826,29.2657782533,-2.3139958325,-1.0385985079,14.9604928262,71.2582082992,-1237.1468915174,-42954.5120054039,-7863.3306817597,-3.5509665776,15.5939468622,0.4418986567,14.6476585621,3.0449613739,3.7086528689,1.3454061192,17.2001718358,27.4249776749,-44.6504644986,-398.8690839117,2.906444892,45.1285971916,-30.7958896284,-29.1534869822,-3.3037467602,1.9885558126,4.7925105948,-28.7361122775,49.1349894583,6.7984705713,509.683313915,18.8082050658,-10.1794891436,36.859885344,239.5584021474,18.3786478776,-37.5560488067,0.3501439322,0.0793262101,38.0794205773,13.9209509224,-6.5630796683,7.4072162595,6.8659216839,12.2762923884,4.5818257212,18.055932606,9.0029243398,2.2004543794,13.4182783721,22.1683253486,-93.038967349,171.7997313576,459.9452985486,16.1902460667,-18.7305823242,3.0095784672,68.7456434299,6.8417048988,-12.6845733003,-11.6134145491,-5.3429248791,4.5708193162,1.411627476,0.1916088406,0.5342979838,0.8884320572,0.6728175826,0.6115360811,0.6547265971,0.6543687138,2.2019964679,0.7270079165,0.6477384742,0.3193957927,0.5424019286,0.4878218676,0.3965516525,1.3904593451,0.6594907661,0.1635118649,0.1125475413,0.0884903521,-0.129323494,-1.9166425609,-5.3348056876,-5.6242936946,-5.1189713259,0.4064009638,0.3277976258,0.5139462979,0.7817987418,0.3044658776,0.2963018377,0.4877206465,0.6628152003,-0.1437282405,-2.2389824881,-0.6935723855,0.6399294653,-1.4104666169,0.2705453623,-0.3183162516,-0.1988820213,-0.7171835508,-0.4737056384,0.2882592822,0.5577900511,0.240688741,0.0922287015,0.6304580285,0.0301346223,0.4244469597,0.6940487127,0.1364470342,0.3444415793,0.8964426666,0.2789999838,0.6774150675,1.0177053923,0.4143740395,0.8807437511,0.316315618,-0.4420359193,1.033599757,0.6724640107,0.2656302554,0.4771682166,0.1984523462,-0.1248473608,0.9969274019,0.8774885329,0.9534725435,0.1581695506,0.6757433423,0.1822473414,-13.4793304346,-6.2232430316,7.6159503063,27.2799825753,68.5073032344,-84.3556712703,34.3298502912,1.2839627962,5.4790835748,62.926983144,1.9475244038,0.1109784903,-1.1760263812,0.5747724225,-137.0352942773,3.4753097452,3043.269085363,-1590.3972971497,-6972.5900732297,-0.5044429556,0.8039569442,3.3572802234,7.5179887715,4.7591398167,3.3791195911,0.0627247099,-52.3729474057,-0.6575617876,72.3293340141,16.4821568663,25.6028225297,-0.1801926025,-1.7453660984,4.5560912051,39.4470213519,8.8027131672,31.2192944335,111.2707735197,63.0158985824,15.0636383011,-261.2656888138,538.8133281757,20.0897633542,-3.547838866,-1.1181944505,0.0525912968,-6.8862922261,0.5709288711,0.7436186221,3.6945397193,-58.9089207864,-1.4559234206,10.4458822855,-1.0601356485,1.7652847926,0.6786598368,-53.9226905884,-1.1109184829,-25.8630068379,0.009727428,0.4751039323,5.277700719,47.1802981503,0.2963299122,2.0170155441,33.4984714656,3.6236105258,8.3283563032,44.4779348873,-15.6391038465,15.6670502205,-26.1396571887,-0.8083054597,9.3315770026,-8.2802331968,-15.7269870694,228.4841542574,-90.270261173,-97.4492095348,0.2274990189,-0.099078206,0.9799738172,-47.3691323754,3.7419580055,0.2290490086,0.551532771,0.8195689843,-1.0804985345,0.6903673176,-3.8304264291,223.223010906,1596.4982215416,-0.6828481395,-2.8750645708,-8.1735350352,-2.3145627863,-4.3298274448,-3.6189892041,0.7703264039,0.0440202007,20.6620814263,31.5352601264,44.2339972238,-23.7486240244,47.0422169093,-10.4291223047,-38.2178365422,-3.7819111011,-24.7820033127,-23.1278769309,-364.2723239696,-138.9873217698,-125.0361059343,-34.2952116739,-19.0989404797,-435.9414828701,0.680576591,0.0980315926,-0.9010999427,19.4852050651,0.5408133604,0.1351395839,2.406132634,25.3305203482,-0.2670265156,28.0046493313,0.5000948997,2.4090371462,5.4787263999,-0.0069101164,2.3567328431,1.3346782817,0.0792078634,0.0369764685,65.4500419841,-8.0429021878,-5.7123635764,-0.3109464002,63.79618348,0.4517310679,36.2620027443,-0.7125524287,-3.4668747854,29.6888411333,0.1732127202,3.9877582249,-3.4988437247,0.0090965681,3.6770434266,22.547501609,14.3455007079,-4.1227924152,0.763339461,2.3959953367,-1.0057395621,-2.1897929103,-0.9099905889,1.0303894405,-0.4133657554,-0.8553457733,0.0964623779,0.272518927,58.895053384,41.885855017,-366.4341288989,0.9276542118,0.2245748404,0.3096242515,0.0984994241,0.7501553397,0.2311582071,-0.5884133298,0.5955581297,0.798647811,9.3515726195,-5.5588767062,-1.0241485179,13.0946214286,-1.7589865308,-3.8124670524,1.0833588167,0.517395424,0.5418241298,2.5721177218,2.2330174386,-2.0448097902,-8.7960513833,0.3237837118,-0.3208429281,-0.2390021771,0.1132406457,-0.3467219989,-0.0126524022,0.5665742612,0.270313532,-1.2670859227,0.8282638012,1.4912076491,0.6711215167,-0.0313166498,0.8795995646,-2.2755706228,0.5294580818,0.9644314426,1.9905273544,0.7500903628,0.5909601576,1.4540053633,0.6667570627,-1.956183486,0.3363390125,2.1022663362,1.5319870259,-0.6810686333,0.169884667,1.6974064029,-0.2401166242,-0.4316386104,1.1151393548,0.3364566445,4.30947605,3.7071514881,-570.8816234753,203.0016128802,-152.2889089918,4.1808050036,-5.7352653274,-10.9183525795,40.9833045379,16.0314336694,21.0269478836,26.2539493251,230.2334136959,69.353628701,-12.006317031,-711.7869185288,-3519.9060811206,1197.8220322919,-1.8835528557,2.4013613199,0.8671140226,0.5037283199,0.0182878044,0.2070955458,-19.0401807336,8.181484152,5.4733988043,-168.622305254,-36.7278835793,-72.7745468764,90.0163733704,92.2690931124,17.7971989564,-5.8699011429,1.6361612032,5.8462201305,64.9908336331,200.9870262462,44.7601499507,168.0139568948,23.9980027733,12.9355265054,-5.2009328188,16.3670083079,45.3625848531,0.7177070209,0.2620651983,0.1759588208,-19.1692250241,-15.9526685807,32.5603978862,17.4964477036,7.7691498194,-4.1727626243,-23.2647133596,-12.6716212285,16.5309328819,14.5867983013,38.7207808606,3.8664185274,5.382610532,22.6726590824,-4.4268126191,-152.4669658737,4.763595218,-5.3839833194,-1.2820500943,20.5631651926,0.9480327159,-24.0020732486,-14.4604051088,18.0640013763,0.5641011667,22.9590671888,0.9116730719,-92.9437004248,-50.7601676188,-138.5050348612,0.1587655907,1.4522180704,-0.3179014532,60.4958721548,12.2165218988,0.2701833623,-0.3771114622,-10.867749519,-0.3805460773,-1.2194791379,-1.3193654328,9377.5849318872,160.5253538761,1.4383925486,3.6216540527,1.079495899,2.0396950312,1.728433605,1.5758118086,-1.6889082432,-0.237718134,0.408596513,-29.8229487595,178.3737331502,-90.7084924131,20.9515204698,-9.0773966065,-0.8236161687,18.7327530807,44.1134431278,50.2303995171,13.5750796101,307.8108048445,161.8264219322,9.1725678378,453.5794614008,324.318905586,-0.6948966791,0.3599932514,-0.6937254812,-1.7446148207,0.07731412,0.3661472348,3.4055023915,-5.4475505095,-0.5331124747,-8.9112587834,0.3249426995,-0.5842440156,-0.0617893715,-0.0134121363,0.7120544803,-2.5395122628,-2.0735340307,-1.466312765,-0.0259991185,-74.1378564109,-0.0805455373,-125.8071029938,-5.3214032481,0.3520073548,-26.6355486512,-25.7151859837,-6.0683470055,-1.7725528363,-0.1660390279,-0.1432702817,0.8839018202,42.7927222688,-4.7194960397,-376.8008313771,143.0620331404,84.7244220739,0.9071550289,-3.174190891,28.858603605,-85.4678677986,-90.2849770006,0.9919403074,0.0985873494,-5.5462262877,0.3187526564,0.2830935179,2141.2542179631,7.2398311176,-217.6747922068,22.6005620925,5.2662823701,2.5038676994,2.9581735932,3.461215071,2.8013805146,-6.6723170536,0.3005963059,1.0029761672,168.4546817274,85.2477484924,139.0004670687,-94.3605433527,101.0539105259,-4.6093553881,51.9571610091,79.3634975627,44.3444775251,62.9562476663,281.2969779544,27.7108386837,-583.5113051914,109.9150945623,428.585491249,0.7545598694,0.1104049846,0.1118959882,-5.5446132044,0.2634193818,0.0345698677,-3.8547207314,2.1913090124,-0.2969350836,-21.4688638948,0.969962126,-0.1494447874,1.4719822526,0.4072601185,0.3336756816,0.3082540038,0.6928104206,0.4281624063,-12.2656554157,-0.8160221559,-1.2280182157,0.4297183106,8.097450559,-0.5471787203,-24.9318454608,-114.3661239415,-46.3473612403,8.0824704286,-0.1953537427,-0.0236074536,3.2292262042,-10.1581610672,20.4195137116,-568.6486591113,14.7781315249,-191.7050906093,3.3030547597,0.4958413898,6.0469371011,45.2250968651,33.3658890632,-4.4193918823,2.4732803249,4.5670411217,-26.5132522269,18.1533620325,1480.507064627,-13163.59208824,8426.5397467737,8.8513050311,18.5162253749,-5.6946659774,0.3065145953,0.6464064119,0.4164967529,1.2136349641,0.4064026324,2.2752960282,60.6979043351,-56.4034015293,166.4669127144,20.1603180788,-11.7617154747,-4.1957237051,-0.3529527792,3.0943429023,9.4781491786,-19.0010385054,18.1350115853,10.7896983567,-44.3632735235,242.7902431096,-82.0417178838,-30.9050959374,-5.9309500784,2.6470834756,6.6519227104,0.6956456924,0.0669266496,4.8574933481,16.8519892946,8.0292720876,35.788630931,-1.130052092,-0.3454387885,40.6217682266,-3.3122857737,0.8863614727,-4.0978782472,-3.5598081578,-7.8917791239,-6.6758851739,103.861190947,-0.3491699048,18.8258228766,7.6031309322,9.8412997305,34.6596848902,3.3354005432,4.8740517643,-0.6121434456,-3.8484866721,35.6138793865,0.8046573575,5.4316001988,12.4983097642,-4.764787415,-13.6518825606,-53.9369604133,31.8545378881,1.3363546153,5.4742492313,26.8129823596,-1.55317671,16.5516171061,-1.7019740849,62.5567012643,0.4391353817,-16.4233704183,1462.9539103821,-94.6581126929,-2012.6304932786,0.7081321255,0.4162326911,0.2155202271,0.416355826,0.7484064416,0.9730506465,3.8312693097,2.3828843116,0.110944966,20.5632069292,-20.048176782,24.6092949062,5.5401386207,1.2272404543,-12.4767233252,14.0587487056,5.1549871029,-3.7446997664,-1.2231845442,101.4774985164,16.2784858187,0.2671570311,54.0736292204,29.1506050132,0.1065691449,-0.0619215166,-0.0226236328,-24.0863452909,0.563431887,0.6605193298,0.4630443544,14.3211255602,5.5822694505,6.7603723582,1.6204134591,3.0948172971,8.555984906,5.5481382364,-0.3333756781,-0.8484736271,-1.3019205145,-0.2309552252,15.7380608292,-25.9865171726,0.456378375,119.6883598301,-89.4340329403,-5.9713876605,-0.0115155298,-7.1686036606,-18.9925199017,-45.4101477109,4.2598618824,-14.4267315959,0.368991895,-1.7417327752,18.9201680675,21.3892163569,-0.4686979897,54.7597508238,3.4434293731,-13.3926883871,9.2459135211,-77.789355595,10.4841454935,-5.1228499511,5.2652744122,-7.9760260682,70.2007458478,5.4885591746,13601.258947208,1941.256579435,-2976.8404644016,-0.9687047619,-1.6518779047,-2.053003576,-4.8187786929,-4.819475844,-7.1024688828,-1.9614662759,15.6172244199,0.3740688554,-1.5133551824,3.2591160972,2.6847621106,46.2663730057,-2.5299031196,8.3497916188,-3.0391831211,-5.1416352405,-8.9629612448,-16.7525220235,108.9238872807,-26.3292200059,-47.6775831779,38.6997209813,6.1227389603,-8.6050134234,-21.4079700194,-19.9643701128,3.0973544723,0.5507696121,0.3627490094,-14.5333475945,16.6652457847,8.003694233,0.9377737011,13.4933225176,4.9894000592,-3.6325165597,61.4926542598,3.253537878,-20.6662140223,9.9767322823,26.7037112184,-16.0236365331,-16.4168698861,-11.2873814966,-14.7068583247,0.3540357832,16.4952945763,35.8784537819,-7.8748537456,49.3475410441,1.5874628706,7.7221383859,24.1151536244,-2.3265564352,1.5135918223,3.5848772256,-10.7243545328,-3.4472428767,-7.9710178622,1.7255105839,0.2124690612,-0.8169519022,2.0357977857,4.1062912905,0.3356412005,-0.7900577253,0.343415166,0.891037498,0.7524429227,-869.208574046,-1163.6526790054,397.527913194,1.2320690555,1.051808507,0.3201694222,0.7053140359,0.1982069406,0.7392993975,-0.3397786035,0.0498008425,0.7590986281,-3.055480088,7.0687318465,3.0523037182,7.1465497523,2.0486229248,-1.5218872429,0.0612694323,0.6335801737,0.0353934123,8.6163995598,-10.7531238861,1.3564677088,3.0938735309,2.2708446455,1.7133448446,3.8324966098,2.06398935,0.2873881282,-0.9442062634,0.3121540651,0.6368821806,0.6680002032,-2.0005209727,1.8509404355,-0.8494603882,0.2771057141,1.1219232464,2.3636917113,0.5497104786,0.4777019916,0.1874995089,1.3503690514,-0.4322257406,8.727505147,2.6751344472,3.4501071939,0.8612075147,-1.854866633,-0.9328014001,-0.6644782424,0.4642594617,1.3722036438,2.4721826323,2.7156511338,0.385818292,-0.183756962,-0.7814286985,1.0240327639,1.5330115632,0.8795993412,0.599238866,-0.0635087285,0.7024446175,1.5454112705,-0.0322001217,-0.3596878846,0.1320935796,-0.0973921325,0.3073286554,0.7482013886,0.1502609241,0.5573897709,0.166726713,0.1646889298,-0.2300024569,-5.0222842519,-8.680973079,-3.2924669309,-3.1361748422,-2.6980529659,0.6587781504,0.7286007427,0.3368074553,1.049370095,-0.0001457829,0.4746056808,0.1691952807,0.6737389544,0.4710906158,-3.9510395626,-0.9554742387,-0.7355584614,-0.002742198,0.282561042,0.2926725871,0.6126907763,-0.9250166037,-1.1697103221,0.4788565046,0.5308998696,-0.5685294338,0.1435404467,0.43439656,0.7213323612,0.5270925515,0.4322660201,0.0157484537,0.2019802236,0.1481139137,0.0888143456,0.0579321328,0.5187160735,0.1959849527,0.8579951436,0.5198016814,0.257981022,0.4615466618,0.1185204451,-0.1249476663,0.3607967259,0.5745034982,-0.8323659652,0.6078204675,0.9947734044,0.5744644899,0.5974315291,0.7883907437,0.3925780072,-9.6358287364,0.628075064,0.2691455746,11.688172901,-14.8634204933,-8.7396747242,0.2746548742,0.5507435121,1.5923881696,-5.8413705711,0.4851161991,-0.0021947674,-0.3404121492,-0.5975932636,0.6155472202,0.9788171591,-86.7245135456,59.1920264081,111.4138312717,1.140191757,-0.2838256182,-0.2624259168,0.7390133115,0.6623005909,0.1753205854,1.9687398017,-0.2659842997,0.7960765611,-3.7902629355,4.5056104976,0.5625105096,-3.2998093734,-0.2731532169,0.0857882149,0.6429358051,0.1491779198,-0.1101301102,0.5822952365,3.6566833504,2.5030222254,0.9932071489,6.6828123231,-4.2015915175,-1.5637155213,0.7516759727,-0.1193492878,0.2231262899,0.5136552937,0.6564537226,2.1350054868,0.2457292956,0.5501464679,-1.0722669308,0.51824619,-2.0559902949,0.7481820784,0.8169540822,0.5376324261,1.5222893827,1.3004574475,-0.3988470111,0.6545683476,-0.2127821058,0.6559997926,-0.7615050203,0.0583015788,-1.8866181034,1.7349681393,3.4806203204,0.2162016749,4.3427527609,0.6563324493,0.1191439309,0.4378717091,1.0990338132,2.0940551339,30.4381514957,-8.0593075781,7.2946692149,-1.5917608746,0.1971310143,1.3251041134,-0.4934594185,-1.2550369071,0.9520355805,0.3028213648,0.0982891827,1.7970657385,2.2042003151,15.9247352459,145.439463202,48.1496219966,2.3653284261,0.0932971295,-0.5212610298,0.0076399108,0.5531136993,0.4044941266,0.3351304549,0.9544792792,0.6425928005,-3.9250943035,0.1793270875,1.1653236495,1.2175484731,1.0104279061,1.6569900286,-5.7855852725,-1.9432588117,0.4882439916,2.8209573589,-11.0297937299,-6.6319358968,16.9541010122,2.736339107,4.8347232727,0.0898122655,-1.3929197785,-0.2702383907,2.1722822651,0.5637112495,0.6918278638,1.6873585357,-1.085218533,0.4414235042,1.126948854,0.3105144219,-0.5308033197,0.217988745,0.5621541076,1.0240926254,0.5644204509,0.7277821693,-0.1944470454,-0.9897145736,2.7444562333,1.0855864289,-0.7749624309,0.1549540921,-0.4091200481,0.1335027118,6.7176119049,5.3277066212,2.1656237788,-1.5298992429,0.5159627265,0.1753046797,5.5728039707,-30.3746596233,81.3542155277,9.6937246142,38.0417244209,12.1955744358,35.3773136716,4.9126833824,-105.912208308,4.9761752096,3.0796195474,0.3674996379,1.7861525544,13.9490197117,46.8272900124,1618.6284963001,18.2286665364,171.5249640717,2.0119603238,2.7541584076,13.1030020237,1.7609630203,1.928237545,1.9917688441,11.7362979847,2.8716276772,0.5139032261,-198.8770876658,86.8454150113,19.5607805304,7.9456793738,1.7516671526,-5.5575497958,16.5649222492,25.5051193616,-5.5285680856,529.9385635732,147.8994602513,13.0882055359,122.9433406111,210.680451783,1.5169280146,-31.4052151696,7.3431175867,0.0865985063,-93.0456548125,0.6805005852,0.1973967477,2.1298927078,-1.921861725,-35.5278388057,12.320703319,-21.766451714,-4.3503272319,12.8130995249,9.0454289936,0.2618619869,-65.6763151378,-1.5393249333,0.8307639553,-189.6563143341,5.980223783,0.2668982139,-38.8860265808,0.1236812374,0.526453666,-48.3223483239,-80.9165273773,-154.6634180064,14.1681942806,1.4991109432,-19.8941153677,1.7794338851,-0.9529649716,1.276125497,0.4423538078,1.0334567571,0.5930245916,0.5612056316,0.7186668907,1.5761974095,0.2834595702,0.6811056468,0.6773634345,0.0946879412,0.3578747171,0.7148954625,0.6861167495,0.5667302228,0.0490936614,0.5632250294,-0.2908181168,-1.9455707616,-2.3365457554,-5.1833311043,-5.379240709,-5.4893836678,0.1167237141,0.5929628929,0.2806379854,0.7493587642,0.1925541435,0.0567209237,0.8654728762,0.1192000783,0.4925575773,-2.6588507815,-0.2022108212,0.348320576,0.5097177439,-0.3137589063,0.3627880081,-0.6022663987,-1.1993466789,-0.1469473718,0.724410065,0.4430088504,-0.0769332935,-0.1119715948,0.5017424196,0.4536355561,0.6765002305,0.642876942,0.5462355194,-0.1316279229,0.3641340782,0.4615967763,0.25542909,0.888982985,0.3680360202,0.8950544959,0.3559350425,-0.2730518519,0.5665211555,0.3396942265,0.1394776554,0.1071157628,0.3132877442,-0.489758046,1.5209881971,0.8253966398,0.7261659819,0.4998285984,0.713481056,0.7221947009,-11.7362753881,13.0253123188,-0.2857252702,62.2044447355,20.4284439672,-13.1781072356,-11.5223812859,-1.511868168,4.1734635383,11.3987798845,4.1737432521,-0.7205605965,-1.9199134152,-3.4285794328,-4.2410377741,-1.3273204529,1348.2753991789,6777.7071166387,-326.6895172536,0.9590591426,-0.0475102283,0.5383109432,0.0696911396,-0.0064372415,0.5695110171,-0.9801125587,2.1519753039,-0.1781667944,-45.5851033843,16.0802461232,0.2456539479,-9.6087121606,-10.0802060081,-2.5782291309,-3.8446187837,-1.7740477932,-8.5376051863,14.0688732049,27.2064123905,-20.5467774329,23.7706495179,41.4743287001,20.2973593765,7.6614422789,2.882391292,6.2936625477,-4.2875754217,0.1841139132,0.0091658983,0.4740140142,4.718812008,-0.826038519,-5.196568373,6.1438737643,-0.8817798127,-1.2896999727,2.3830537754,0.5339929326,3.5620526359,0.2147333922,0.3539962169,25.9998543483,-3.6368313208,3.1583155377,8.9038271502,1.6361957732,5.0597608469,2.9487232986,18.501446665,6.749724997,8.1433297743,1.2468563607,2.3009487069,-0.383243605,-8.1576940442,13.1043382679,99.7263058526,-9.6844625897,11.9334927343,18.1942636693,0.0734457216,2.5489481938,-55.1056634989,34.349093418,-2.8521696298,-0.9594289854,0.3824406632,1.3916455294,-69.5533368951,-342.9593245005,401.1011784125,-0.6532273728,1.9060219003,0.8148692554,0.7130383595,0.7444250199,0.3098158576,0.7582649971,-0.2101577331,0.7848966602,-0.6578999174,-86.3207854118,51.8916538595,85.2876972586,7.0475625415,-1.8478311184,-80.58391199,2.5298203191,1.0402005318,-11.9858212136,-87.98954577,36.3141169341,101.1218918056,-155.405415033,51.9317953438,96.994418851,10.8946411732,-117.8446771693,-0.3395657898,-8.4491475514,0.0394036871,0.5630261747,1.7575697637,-0.0683016962,-4.3751641854,0.7691156121,-11.4065074614,0.6131842182,0.3420232638,0.6412102427,-0.4963350876,0.5189744912,-301.3943213868,-8.8527320003,-59.2585528055,-89.310678304,14.9143632156,3.2002548818,-37.1413251987,-0.6896792936,-10.4394848062,-11.2947622059,-24.7787384089,-43.3360256291,2.483243204,-24.5380246783,-0.3285165223,4.8689112951,-17.6086733716,85.6632944524,140.4820504389,-118.3731346068,0.1248713515,8.434303569,-16.9914562139,-81.019301989,-39.877338316,5.6953265277,0.6143740287,0.2463893949,0.7475618288,0.7323188548,-253.8694275546,-1285.712286187,-388.0149444969,21.6190033826,3.7457422064,2.7390811114,1.3059868894,1.5352920224,1.1740834591,-19.2378363966,-0.0200390258,2.7577751906,46.3687917203,68.4217077729,81.0306180385,-99.0474855474,3.7788221068,2.5715896227,40.156344414,40.9523948274,-24.5614987779,173.261282188,1431.6988599958,-12.4779993082,618.4187509027,735.5839012098,95.3040108193,5.7797600824,0.5391175106,0.093913577,-26.8450694588,0.5051148459,0.544919391,-0.1012116035,-23.6895764792,-1.9090478967,4.2595163238,-0.4415677076,-5.3564459996,-22.0301390575,0.544511442,-0.0429064081,14.0159001511,0.1839426501,7.9411517301,-92.0732379336,-5.5665733403,0.096061999,60.6791554159,-13.1667374592,-0.591448273,-80.1222191131,-81.8539096811,-63.2157188368,17.6203444278,0.2499670295,-12.170497886,0.8618608738,29.5660851266,152.1877685286,112.8455949514,61.0051968418,-333.5531247545,11.3272288159,0.0161398027,11.4691526913,64.4711962442,-3.533744439,1.9647813287,1.2187832489,23.3956053709,-3.7142057091,-4.5333347977,9552.5056860062,3779.9281281122,-9514.8566861253,-9.2130637164,0.6537061379,1.8075049768,0.7191747878,0.6463019681,0.337564722,1.2131778373,4.5848776713,-2.3649702096,-103.4364957756,1.6148159246,-48.6160162478,24.7331985191,-0.6219267441,-40.9228138133,8.6143010427,-2.7077089133,43.310510721,-22.9145769605,163.3118477159,30.0471509033,86.5823059264,155.9274281794,16.6966758366,-6.5394512342,54.1639933103,0.0628910824,24.5283606858,0.3530767545,0.729131027,25.3134392844,-3.8120221358,37.5047898748,-7.3108141901,24.2803722025,11.596224824,9.4029529657,61.0387471136,-1.6955874686,1.4663553413,-4.3457338673,-3.0367173271,1.9324560466,21.5226321635,37.1196310672,19.0895240275,35.063740558,-16.0800343696,26.4510818398,46.3110272273,-4.0316134769,46.4878151164,0.5320710968,-68.9288118277,0.0844607297,0.5997387781,-3.4324632562,83.97193783,-62.1807281012,-110.4967247323,-0.7990451657,3.845187298,4.64326965,-91.457549068,-9.8719755877,8.0600269922,-0.0614648996,-23.1813947697,112.11232993,-2.8982915283,7031.8133232134,8303.9198111918,-2325.4543921524,7.3057153847,1.4702008726,3.3534542003,3.3715182684,2.3996446652,2.7574803937,-11.1867879318,0.6068304668,34.0220147245,132.1123086484,-41.1066341187,14.0374823139,-8.2171599686,16.9273723478,24.6696346916,37.5700470674,41.8868379059,15.3900933087,373.1356259639,747.4055237923,191.3505455902,-331.7993276593,-9.4392946376,295.0088421691,-3.9802453799,-0.3766672624,-7.2397816006,-21.5826347376,0.1579194342,0.6296741632,-1.5777868243,3.9058216576,1.3783580362,-0.2242490007,-1.6056588237,1.2471230242,-11.4740361243,0.6664822651,6.8220067128,38.5535982644,2.2610006414,-10.1816434193,-1.1300421409,-10.0444676163,-4.4348912237,-86.3838366836,4.539185587,-0.4240034324,-9.5830779775,5.0045432021,-6.3421288103,-5.9624868561,1.5171079189,-25.9195558402,2.2747351329,0.9427756938,-8.1938272461,164.7857108036,22.4154121533,24.4568430666,1.3908355125,16.1505029681,6.8903582109,-68.234751009,-4.2595376695,1.8495672427,11.6365561153,0.5688162689,7.6279284831,1.4358320168,-2295.6190736229,-172.3464680765,-3770.1773945191,2.6450655525,16.2126438406,2.1755953861,4.2857543088,2.1240949595,2.3135282461,6.2968863269,0.3700420242,-35.2243978711,-89.9491986483,80.0816178791,21.7128964577,-20.9301150933,-15.2842331636,-1.3006125694,5.8404199024,17.8133136984,28.3935478638,58.2746173715,34.3205488146,29.9886423966,-390.5335468508,-12.36313974,15.0116920862,1.5092248315,-0.0797645892,-3.2705418138,-26.2686105966,0.715594878,0.2503362524,0.1258043072,15.4944912561,-10.8220256567,8.9637066557,0.11345253,-13.6699146228,9.5548392176,0.5518729741,-2.5444196846,0.092048946,-1.1225457609,-1.5732001279,47.0169507483,-101.714182436,-60.4907177212,-86.1429464073,0.1988121987,-25.5196789345,26.0059996806,-21.2948692828,-35.9118451547,54.4804849137,-9.8761072871,-36.1970644919,1.9362242376,31.3049993801,-48.1455619449,178.8904729161,-36.583260359,-350.3942329917,3.8633203136,5.9294970171,-3.1948270375,86.1865450303,-4.1064858588,12.0747645278,1.5119543913,-13.6571791092,-15.6022893948,-7.3457320276,3550.6399981753,2030.2829712269,-4118.5465985992,2.3439403837,-4.5828290894,11.9796637056,2.680223483,2.6517765321,7.1582111704,1.3455124907,-1.1404573148,1.2314562327,-105.4656350624,53.82940675,26.9632319323,-103.0130789183,-40.5056372425,8.9740425211,4.8299961864,29.9008358827,-1.2455286845,-145.2616060685,-22.6309473218,175.4887556549,1019.884709928,59.8259398108,-89.0413339727,20.9325193766,-49.3673592021,-21.8706003267,-6.5298533416,0.4862964472,0.2330181715,68.4659171244,-171.0558282952,31.8449336276,16.4769576801,-9.1465356726,2.6838079734,3.9335118095,-0.5207087198,54.9820546398,-7.0953440234,-19.644589107,-6.3862923977,-236.1453419515,-130.8046169316,28.7365751334,-11.6591928516,-15.9765742065,-19.8280895945,87.4564045246,-3.448390522,-10.6761440493,-96.2936527232,-5.6702247877,4.2615031169,2.5084356947,10.7863349857,-6.8320908247,-3.2206231439,36.9768909293,155.7825670819,-10.5911819508,3.2122994483,-0.8209692827,-36.1764920384,1.1394055659,3.0733417413,0.1002011173,0.2809140072,-96.6130033361,-3.1052479698,566.163984169,-7766.522546756,-5.1431130489,3.3384559464,0.2291932507,1.8001201945,0.8343099659,0.6703958912,1.0741024707,0.191918725,-2.1435929151,-0.1884529115,1.5944576997,11.1414030354,-22.3966457417,4.4172710238,-7.1009852003,0.0519711677,5.7739473359,0.5202645192,15.8243888193,176.0081961139,-4.3542410925,39.9621659277,307.0775942149,0.6711652789,58.0705709739,-3.4460617356,-1.0149929872,-0.3001994956,-15.6030889384,0.3130427243,0.268450411,3.0527209206,-3.5055772331,-92.2978129241,-0.6717507202,-53.0414289903,-34.0453077238,-0.1329523735,-3.4853150794,-0.6625947894,6.1154339064,-0.0592234419,-2.261293112,-20.4787440646,-20.458602127,-0.5899572437,-57.9343036635,-0.1166840386,-15.0619188299,1.549652367,-24.6470262771,-43.4643047101,-22.9476246572,-5.6879420992,2.0550129319,0.5155162252,-1.7681150635,-22.9191823994,-63.601629806,-285.4593898582,-103.277715938,-3.2688295686,12.474148622,14.8254365688,55.510316694,-8.7403855433,5.4085787925,-2.4684885472,2.1369344245,-23.5738287352,-0.0815717862,1463.4107939614,7767.4949631156,9521.0523463505,-0.9088385282,10.2774244797,7.7803840853,3.5080825756,2.0728479205,1.9002551099,-1.4597901062,-9.7887504607,32.0650041929,57.5332160922,243.5302137072,-105.1604209387,-67.4836152827,73.2939885589,-31.4456205681,3.2989393649,4.972658668,5.331172832,-22.9704090786,8.6378206633,7.1236713852,-66.7088581634,82.3574497599,-110.9353063718,-2.0141757398,-1.1100454864,6.2903630577,9.7503635395,0.6437810548,0.292738906,-25.0132890679,-4.9585845928,23.7861437643,-11.1426616967,-6.4643835094,10.9636375215,-3.7472441956,17.1737349769,-5.0986154281,-2.7873417182,-6.6916151748,-0.4197512903,107.7780700971,4.113683463,-20.7383640766,18.8590360228,18.7819174551,13.8932462966,33.761811488,14.8902157157,6.0190649017,-3.0525133904,-8.1965890025,12.2670698016,1.876447826,0.1217128391,1.0150056773,34.0080116397,-5.1477776572,-18.820193445,-0.2683611298,0.7988117985,1.2712775308,-9.1998156489,0.4203628395,1.7536008977,-1.2848052408,1.805432901,2.4636941765,2.0991523521,270.470768479,-723.3075964575,186.8653407277,1.280474422,1.2474267521,0.6788430942,0.6478877572,0.7319249694,0.6795040012,0.7118963465,1.3972803118,0.8461058265,7.2909550692,9.3717401957,3.6805140765,5.6347843823,-2.4567360129,3.5860912161,-1.9528870901,0.8898014454,-1.0477067742,13.8436947664,4.9938331539,0.744257945,-3.7139146165,-3.1562557743,-5.7055011735,0.1686925198,-1.7242649608,1.62971285
   0.2515715509,0.4380550108,0.3132137034,1.1917584674,1.8120993718,0.6257144748,-1.0569350719,0.7237671049,-0.8055439379,2.7393501829,0.8010026257,0.1966175675,0.3341352554,-0.6350497723,-0.9049082744,-0.5535599257,0.5141365961,0.5328892263,-0.2501853034,1.5583512712,-2.7753676798,2.35932941,2.5667625999,2.1255321774,-0.7839481596,-3.2389788527,1.5842914162,0.3920429484,-1.3940148645,0.5488059143,5.560146611,0.3397996207,0.5178457096,-0.0565681808,0.335607387,1.3105958274,-0.0245133714,0.5093766383,0.5978440278,0.1314053124,0.1095126632,-0.6709504369,0.3119954078,-0.0465279931,0.4996036562,0.0302864882,0.0194173225,-0.6077915713,-2.28004585,-5.6670270102,-5.4597061807,-5.6095866794,0.6147752059,0.6788261215,0.5173863049,-0.9828064219,0.5579266699,0.4186248147,0.0118376783,-0.2045346426,0.4645476123,-3.6786312399,0.255327868,0.3881544273,-0.467013706,0.1258159171,0.0320653509,0.1876637252,-1.1513475162,-1.8416488648,0.4050748519,0.0210941079,-0.7252227538,-0.0691636434,0.5988787426,0.266721677,0.4557132169,-0.5571464677,0.3294853802,0.1718232457,0.7353036284,0.0245765422,0.4932937377,0.5193894579,0.0639840709,0.6774151353,0.1666868479,-0.1228463805,0.3385309397,0.2618484101,0.208250953,0.1270527277,0.1163330631,-1.5475388994,0.5588352749,1.3317591437,0.2975399231,0.2253370183,0.4792959324,-0.0772162993,-11.4006194704,-0.7087780713,0.0604890635,0.6373870704,0.9507356968,0.2439623733,0.2360516135,0.997368545,1.2391795901,0.0508626351,0.0123609141,0.4528578383,0.076050282,0.4631575486,0.9330372633,0.4243169798,0.5022445255,-0.0579014976,-0.2294653246,0.0506917832,-0.3790011442,-4.7568117209,-5.0417410993,-4.6481528651,-4.5424919698,0.3473390546,0.6304233573,0.1963221025,0.3005562395,0.6500980862,0.566520827,0.5572708135,0.5292356028,0.1241508302,-0.7704182193,-0.2495544875,0.2224086933,-0.2542511459,-1.2784519618,-0.3771464125,-0.3553236591,0.0221559215,-0.3863157768,0.0031666201,0.5101163323,-0.2083143651,-0.2153067569,0.4601961789,0.6764559456,0.3273421906,0.0032189254,0.5511657625,0.1133603623,0.4456231464,0.1853118766,0.485657233,0.6697877324,0.1894536855,1.0260248987,0.5164264338,0.1293282439,0.4749377362,0.167142519,-0.1957806846,-0.0112624742,0.3366776828,-0.0463916791,0.4873635362,1.2675126583,0.8618750203,0.1579457142,0.6060172608,0.0454787057,-14.239163615,-1.3226315273,1.863684178,-67.1528796835,-140.6059273742,-81.0544343099,-14.939743221,29.0817266729,1.5269140883,-51.6996010351,1.1199930044,-24.9966613289,4.3495777753,-10.9820717877,-9.4517153719,22.6327356586,-826.9586523961,4.5566979448,2225.8056894498,3.3602737586,0.3550882226,0.3955043816,0.0293513853,0.2515166654,0.2943270515,-2.2941294601,-8.5650260408,1.6531762004,-8.3719892006,53.5138384824,-11.5524847689,34.1307097016,-142.1587434694,-1.3770013189,0.2521789267,3.1593328362,8.5160827935,410.6659137514,24.2308882747,8.4203133397,456.7255931785,15.7668393033,10.6437285169,-5.2621925672,0.2696698514,-1.2785061771,-36.0499733447,0.3657382807,0.1977704345,16.246491901,-33.1867813768,-269.2881302485,11.503637008,-13.7958923508,-3.2170522116,-1.2943618459,-1.44841052,6.071511691,-12.3447846318,-10.483803168,0.095247183,-5.7601379247,-110.8468798268,2.0016598444,-204.7120863338,9.97659692,0.1412328653,24.4577480818,-63.6363040818,-1.3807260474,-2.9121374759,25.0208675121,-2.7515332461,-0.2767344368,1.777969312,2.9166586039,3.3939249147,25.9233927627,-3.6661399228,0.8451159314,0.665514552,0.8891677177,4.1330187196,-0.8565988154,0.4269811419,1.0973122693,-5.7876039219,-2.5329149636,-2.4002476505,1051.9608035962,-671.7049351543,937.4348086425,-0.5535618367,0.3018771576,0.1102069577,-0.0852270733,-0.1006856596,-0.1647487364,-1.2781825158,-1.9893863367,0.3529477569,9.780109863,0.0732695572,-2.0750984102,-3.3803975376,-0.8724546169,-4.6928232001,-0.1268713572,-1.4351750602,0.504098951,-10.2792879523,-6.3217882616,-19.920707835,-1.9561373678,3.5509628763,8.3677333337,3.4447306075,0.6071502846,1.3196521301,2.9225176374,0.2326302231,0.5456956797,-1.3633802311,-2.678437618,0.5402089119,-0.3154030291,0.2960002028,-0.1541932234,0.8009895676,-0.0406188921,0.3665462439,2.5855267045,1.601461515,0.3697431498,5.4301600509,7.1973759264,4.931445987,-4.185413814,0.4281021339,-2.5600593765,3.3619122672,3.4367374246,8.2616976783,3.8936341991,-0.3197134555,0.5781077948,-0.9877031704,4.8929931524,5.0831653654,140.1011810255,-60.4432502724,-43.4068910103,-16.8616844753,16.1127096892,-2.5084506588,-16.693205929,2.4128118649,1.917280345,2.2392711938,0.4874821299,-0.1446386046,2.9029563377,2455.1576999733,2476.9541298863,128.6756047008,-0.007971694,0.6791098481,-0.1780877812,0.7410847289,1.0138704851,0.9156651346,0.1120964181,-0.3364501994,-0.6089229235,78.844073911,-22.7272980442,16.666811205,-1.387606007,1.9784039315,7.4821743131,3.2834592841,2.1344060998,-8.0423591078,-24.6270328471,-32.5092790072,32.2553402955,59.4754734939,-24.6179592982,1.4465299483,1.0991203724,45.1941684023,1.6303061476,1.6203974551,0.6734152273,0.5819294231,0.9389993307,4.6578073888,-3.2099753843,4.2517232708,21.413341221,-1.2085230454,0.203455812,-1.1966988388,-1.3963710746,3.153666467,27.2267093483,30.2112088681,-1.8792654324,38.0755243125,3.6273710507,30.7093712053,84.6194587795,8.1428742785,7.8473262855,2.1470120371,-0.4995822306,24.9094436871,-42.6854000902,46.4625012918,0.4084051114,9.3314900173,-35.1692865318,214.1488496597,-145.4837480599,-422.2075489901,12.5106072533,8.1351016028,54.87660487,72.3340615073,6.7817560851,2.8819535107,-1.8309519803,-96.2777211535,77.4719652525,22.6890723057,239.7714551116,2910.9541338291,-1184.9284622372,-12.5118833484,27.8578909904,-1.1660336225,0.6711483027,1.6854819042,1.1809827437,-15.2573285454,-3.3271544482,11.9290012743,89.6825385229,-112.7335068624,-56.1075134399,-118.4218566737,1.3549877167,15.6510452169,31.5484719427,0.4353978965,14.6861309781,-89.3789233428,19.389965295,20.0872168435,-47.7714669168,-55.3667991555,240.5541918137,19.5696310882,31.0061540635,-15.8159806617,-0.1338235261,0.5359535397,0.1777741723,10.9177354896,21.0200013359,11.7436969306,2.2677458267,1.1314326874,-2.262370148,8.5014090547,43.4662647961,-1.0240592045,2.2081399818,1.4470269172,-3.4606251947,-13.5757103677,15.4949384225,4.9678730669,42.2046920181,47.0518041291,-10.1420608361,22.3787625878,26.9893950812,26.4945534934,23.6572699776,22.5971445932,11.1256365758,0.5754998963,4.2780420272,-0.8327286923,-123.9344336899,90.7729718318,2.6588095729,0.7017797617,0.1911353125,-0.5317277538,22.8211797299,-1.0976499105,3.0323251256,1.5402529804,58.0479578076,-37.5875904642,-1.158610107,-3275.3431631489,-718.6420630862,1107.6112406753,7.8939919126,2.8470975612,12.6780179841,1.1916874814,0.6332060225,1.1566144416,-15.3783116147,10.711065921,-2.6786421764,72.5454072811,40.4883325291,7.7841516451,7.4605897874,29.2651994035,17.1161989095,0.5537178723,0.2851630461,-2.038467119,-18.8271536499,-13.5880528393,12.9245526738,-83.4526867515,-10.693036202,103.54453573,-3.5257645893,22.2876308302,-21.9495540111,1.0720945134,0.4380481412,0.0244480044,-8.9994210852,-0.0542793305,2.6715661877,-18.8183990275,3.557106204,-2.6500059771,-1.1140537559,7.7527537139,-0.3989618211,0.0570727037,1.5669374912,3.4829741114,-3.7993462473,21.0649130405,-1.7273480773,23.5679258617,-6.6809416144,-7.641168632,2.1414121812,-1.7187635844,0.2165379196,5.1297713575,-2.6290297214,-1.1557067152,1.320418347,-14.5838586768,15.2525485157,-73.653469926,-147.9885613674,83.8915730106,-18.4320512483,3.5065935114,-6.4866722844,88.8696474289,34.6883272775,-7.0982612064,2.5121134864,16.5509197931,-18.8550372581,5.4675088582,8874.5818070507,-1257.1465526209,-2249.5266675134,-7.575569303,-1.2942119761,-1.0040164464,-0.699515684,-0.4678692158,-0.6840809952,8.3002682496,-10.9124355537,23.6408961396,-38.8515479181,-60.3115767854,12.274243609,38.219802192,15.9261566833,9.302588339,11.9148753987,-7.0299315326,7.5813648021,-190.1075559697,-25.9225218247,-39.5619857054,-154.4530034327,-178.643726369,-22.3387299118,10.7140839248,-7.706089408,2.2442016329,62.6532846061,0.5680156604,0.0433825339,-15.9776833956,-22.6057793357,59.3589120973,45.0927859009,1.9502435521,79.5361369711,4.6196899575,-1.924895876,2.5766592579,-0.4115056605,13.6502669834,-9.5214554572,128.8673599711,33.4722686396,-20.8836769972,276.9144833907,-2.951004712,-4.019910488,30.0406076753,16.8329082218,21.6583837018,32.518159827,-7.1662668156,-0.9356649767,-1.5265358828,0.0495876658,-0.805780149,-19.421423742,-2.9639426015,12.0464344842,0.0630145752,1.2053558221,3.1627369421,2.3613784127,1.1301065101,0.4083239276,1.9677118691,-1.831377397,-0.4717975949,0.2390660943,581.5979882555,329.8161800034,-103.6297615111,-1.3032877013,-0.0576394321,0.3522334582,0.4111494619,0.2516306766,0.6940527828,1.5191780494,0.4213952966,0.1750690895,10.2624026717,-1.4572784554,-3.2888020713,0.2690478238,-0.7653430022,0.2594828723,0.7227843847,0.6243621957,1.2534744712,5.9217657829,0.2094323801,6.3252461973,-2.8441269482,2.6025539821,-0.2753160063,0.5326459878,0.0725377509,-0.5180006986,-1.8769811765,0.2723747889,0.2480525496,-0.2617529241,0.5716582911,-0.0036416369,0.278730898,0.5085926768,-1.9783926939,3.5062030065,0.7501496957,0.3367518379,1.1439407305,-0.1408326338,-1.3640094954,3.597091889,-3.0145249841,0.1685861708,4.0868863232,-0.3007215376,-0.247836375,1.8064513512,0.3722711862,0.4194458623,0.6185683264,-0.9910140961,0.1715407491,-0.6042073042,-0.2660881773,-4.008364101,19.2780253936,1.1085258825,-2.3844672871,-0.0769720789,0.3020887255,2.1361587185,-1.9086723635,2.430332711,1.3831844689,0.4947054447,-12.7901582604,0.6540931843,-2.1730267659,-86.4851289201,2.2923247056,-170.0477386757,0.6868082363,0.3177850554,0.7806522253,0.6473848234,1.0032107817,1.1005167029,3.2620357115,0.1639112839,0.5641451415,-10.2921151517,3.9826731335,2.5218892821,-1.7810266538,-1.7624064364,0.1243665338,0.2390523289,3.5960206045,0.5042414231,0.9575563805,-10.9960195504,-2.4091671174,12.7001360632,-4.8376856863,16.0781473152,0.7656268293,0.4801269395,0.1692638822,-2.6146409307,0.2106057657,0.6594245877,1.1970671417,-0.5882542511,-0.6853355984,0.9007605632,1.1700056137,-1.6228759518,1.7536540151,-0.1649785897,0.1365608903,-4.5353264815,0.5668931673,-1.6655192168,-3.7250581401,2.4462694915,-0.798451217,-3.9744325483,2.6153432577,0.4416576622,-4.3750734089,0.7788533677,-0.5615778249,-1.4960939929,0.8573874639,-0.2964397982,1.1183291963,4.6471611722,6.4613966154,39.7010788802,-17.6530841555,-20.8976676402,17.1932905897,14.1111952319,15.2585972732,40.6412037782,6.6271260238,11.2448364999,-10.9695553582,5.4950595573,-104.5910268674,-59.690954704,1195.6623153262,-15345.500164494,2702.897469908,-9.2602345515,9.0660000491,0.6603214479,0.4965287685,0.5669888699,0.4055011904,1.3280936638,-1.4787435317,-66.7081736345,259.0206668176,-84.3622760524,50.4011124099,90.8174416122,16.7664774249,-48.0369890333,-0.5218601509,-4.9772222503,2.1883167117,43.9740320563,105.9508122163,83.4175847435,70.0375389104,-84.0292195281,3.0291871671,5.1765644708,4.8038147203,-0.336388299,12.4596296452,0.1475141775,0.6455889595,10.8362382121,19.1333255267,2.5574390433,34.9115272249,2.9535844548,-13.1226600858,8.0549840674,-0.1106192955,-11.3835484289,2.7503914088,15.0916666065,-2.0530126523,5.542108861,11.9947872072,-12.5620217277,7.9975477996,-15.9173126942,0.7295143274,1.3290004696,1.1747366064,-9.3992148663,1.1278603045,-4.0393227787,5.87359878,0.8902025901,0.036796576,1.06600345,4.2477811731,4.4807832288,-3.0284105701,0.3369364781,0.2389380989,1.8767841645,0.9088450608,0.2680473865,0.1297776945,0.6233120267,0.4702605479,-3.919493688,3.0168476469,-205.8859575515,-198.6801126584,46.7674509757,0.8516212151,0.5605208078,-0.0721214047,0.5545447079,0.6288693112,0.578787227,0.1918737554,2.1266399503,0.5533822961,-1.2186165835,-0.1453640364,8.9302539561,0.3318130699,4.8249540775,-1.4838533121,0.3246560351,-1.7243805728,0.5916411258,3.8779601287,0.6207785781,1.8227529471,-1.0770213992,0.5584946667,-0.9266889628,2.6219032911,0.5478926617,0.2465713194,-0.2661042094,0.5475915816,0.4587886582,0.2119521439,0.7161997252,0.1013978549,-0.5967560192,-0.4737536423,-0.2780147194,-0.3055162637,3.376266192,1.3719735685,0.1818070649,0.7994875148,0.3424549472,-2.5982989029,1.4610282236,-0.7722902129,0.3746764414,-0.1577033767,-0.2723927996,3.1009107886,0.7176380542,0.5807781916,0.0410600944,0.6428807054,0.6592270649,-0.39131523,1.3376179233,2.8871910704,9.5618679994,12.5643730449,-56.2540920822,1.0105031577,-36.7059176523,4.4907331426,2.8807664828,6.3727809634,1.2516401016,-0.3577068072,3.0612922022,0.5424723739,0.6369542852,1084.0595448223,380.1621498112,-533.6588650003,2.4173004805,1.369891416,0.7143456377,0.4781582839,0.2514729645,0.3768335853,-0.8545949794,0.2838014163,1.9639217364,4.5970713917,18.2564085815,7.6915284996,10.5697566203,2.3972166578,9.1339601851,0.5291882659,0.0734861108,1.1359708993,-10.1465758165,0.0182743226,0.2561423371,19.3147073544,14.6674502103,2.7356121967,0.9480439612,0.6140481505,-1.88100813,0.9338163532,0.4293875091,0.1569073195,2.6806894645,-0.1229850026,1.261133974,-2.8957172045,2.4839541871,2.462873817,-0.2615387394,-0.4860330988,1.0347063267,0.2543060854,0.6707569784,0.1009224236,-0.5752084039,5.5170392777,-4.4973307611,3.644322912,0.8845757004,1.5174051539,1.4973965111,-7.8959444731,0.9764525824,11.5930344861,1.2964515372,1.5333925047,0.3716790479,6.895205543,22.2998481225,26.3562532158,-472.6057497715,170.7118544266,10.8897568446,6.1189558928,2.5696254647,-41.1827139138,34.5144387359,4.9193665946,-12.9663602378,-8.0306030503,42.9403401152,4.1456367112,-23419.5184658074,-7802.2973413304,-318.1730563769,13.7331600798,17.338856784,2.044704945,0.9193866762,0.3868437534,0.3576550503,0.5082420362,9.8518061508,0.3846893158,-220.9339730745,-17.2790305806,68.7240302351,-168.0471397303,30.0637050855,0.2808262433,-0.6149557555,2.1929545156,17.8854621261,11.9960424761,19.4640173711,-3.7960120153,-238.1758489993,15.2652867219,-3.4918900338,9.0546606618,2.345412771,-3.2717465005,-6.3052509399,0.379316667,0.0802211701,-6.7981983793,72.3507056786,-12.4327609921,4.8650068403,0.6306392759,-0.4917930435,1.6686413957,-0.5051096794,0.1327283534,109.5196277061,1.9005105063,-3.4412732417,42.2003171391,-58.2873908259,2.970984892,9.0973220894,21.8726794881,-8.4868978585,72.0371383914,84.6742054468,1.0150658133,215.1601193032,-0.0834381023,3.2592384476,0.1460298548,4.5733315066,-1.8875061461,552.6207320056,-97.8454810823,76.5521474858,6.2480455558,-0.9317470375,4.2783206647,-111.1432046357,22.9735226078,91.7518982182,-9.3751840933,17.0760950471,5.6423579716,18.5237673827,-1546.134522693,-1881.8004377192,2263.7089444097,-9.5645588772,4.383286641,-0.7948112218,-1.8621898098,-1.436368229,-2.0050665871,-7.2656429842,2.5224119747,10.7090636068,23.2926701675,2.414470906,59.6046983317,73.6385449328,80.7313912399,-14.0819249664,0.1896244246,5.5367493736,2.2691854613,22.6619777024,-132.2237198233,72.5601422991,-129.2484289643,23.0955637365,-104.0751571014,345.1890890584,19.1422920574,-1.9425106407,52.8001352653,0.0848581616,0.3407701074,11.7953052918,3.2402264269,39.6485796483,42.9185696078,0.4266152519,23.9334091508,2.5949170253,56.9928117051,0.6165515343,-1.0089628826,31.0031912223,-6.0953180055,272.7783479208,-25.7745486829,47.8941260643,64.1118901462,24.6843559774,-0.2783892726,23.8256033941,11.3012364597,21.7356511232,67.0681731604,18.4300256092,13.007004001,-2.8038928251,0.7726543793,6.8712469547,-2.9782007634,14.9050035589,-4.6163028142,4.2181611592,2.2186736642,2.7475523186,3.5018656752,-0.3779276126,-2.405616077,2.3938128636,0.1697282023,1.4340077772,-1.5181421459,-751.3505060614,1156.1384359712,-372.1699734285,4.0707146582,0.5628642229,2.1673528823,4.5413532546,4.6282826482,4.2479205178,-0.0046564147,0.7436789759,-1.1754632734,-1.7046533353,0.8696714898,3.7332921512,-0.3708919102,-5.2591336573,7.7598455987,2.7554860677,0.7949027619,0.7598785662,-21.7936564876,-5.194415634,10.0967286706,33.2812517583,-4.3902936073,-1.6900065097,0.5316718055,-0.1405298243,-0.262494943,-0.1655098845,0.2264959832,0.3722698855,0.6753448367,0.1508861729,0.0374160938,-1.6125807161,1.1848054725,-1.0419950753,-1.4609944482,0.3575226275,0.0430864006,0.3945374267,0.7376034398,-0.0270262683,11.5127798587,-2.4191107404,0.388807322,17.0379010857,0.3191281189,-0.2542139707,0.5272101926,-1.3565345434,-3.3871757707,6.8432363024,1.2696821438,-0.0385495163,-3.9871813466,-1.870827801,-5.4438290655,190.9338911689,-107.2491343958,-275.1806525556,1.1172058309,0.1940948273,2.859707952,-62.7233358191,1.6149811176,0.525847189,0.1166294687,-8.4884827616,6.0632952572,-2.8360428223,-3659.4851523337,-869.6283034543,-49.7022074121,4.6205540825,0.6446407022,0.6206030951,4.7470781859,4.0662691277,4.0213636626,-2.6832016509,0.4444360087,-9.9837839616,-131.5253176357,-10.5823343229,69.1282032975,-27.8354816399,-8.3777630216,2.652185968,9.8843612103,44.1259986529,2.0371750063,-3.0815239781,485.8009300981,14.0885098241,-382.7164283986,89.8722380791,63.2337311168,1.5267283381,0.1379606363,0.6493250423,-21.8414707195,0.3919327255,0.5272039978,-41.9271510169,-51.9494162184,-5.9870049095,54.1374260247,-9.8287681617,-7.3034681119,0.9022104527,-0.5197755678,-8.2227051628,13.7745074883,-1.6133006611,-0.2840914903,36.0035242548,-72.3759505597,0.3539676042,1.0627125215,-13.4783086876,13.7529893889,4.7526600027,-69.7414092206,-47.2204430817,21.4641682504,3.1898969685,-1.3068879996,9.8357566541,-10.7427548244,-6.3728589988,-201.8053238522,32.9433159932,-33.258078362,6.5897651098,2.4218793403,9.441441661,33.6578207048,0.7160972245,1.0500159159,0.2668376749,111.7532102078,6.888758941,-2.6262688945,-1333.3428810612,1397.633410454,-6006.0343698942,20.462996148,2.2419388578,4.5190249193,1.9323650427,1.4850135363,1.7088692466,-0.0871949841,0.2636230402,1.4277010162,144.2337450873,-57.998966986,-7.2441503242,0.4792316866,14.951541091,2.820884883,30.2737937466,-1.1349749121,3.2369313794,-245.0611297111,211.704533322,153.5682082895,-57.8774298811,17.5798543283,120.4681563854,0.1558366617,0.1656186603,-3.7222460939,-2.5482579357,0.3343089852,0.2170348843,-3.7602430374,-1.1784445359,-15.6720920826,8.5387888022,-2.3078157238,-11.3342016924,-0.4192642248,0.658912123,0.943477026,-44.6481142728,-0.9550465132,-0.618239177,6.2940931676,9.5189447983,0.038815101,-0.7928431543,60.2020156465,-8.865049593,5.3470268432,11.3796257234,-6.5204376977,-11.7917942389,0.2555983145,-1.8645982391,1.8290743241,-0.9123556759,-0.9007218984,13.8336150955,-3.0381211336,-21.1038495164,-24.2963931133,2.9846878035,0.4744046371,-4.9019196549,-1.8262606366,0.4412677562,2.2578038168,-1.1603619705,0.9345010306,-1.276757434,68.8572772732,229.262489695,-1249.4181612948,1.4378747223,0.1890486284,0.2298071089,0.2022176816,0.3644533257,0.4757245584,-4.0542564825,0.3977619204,0.1783475493,-13.9799991206,-3.5124206413,0.8250196677,-6.7628277517,-24.4476117701,-2.3943672177,0.3005536992,1.1059562292,0.1305804412,-16.7654780856,-10.7292248745,2.7358420779,-17.7699303478,-23.71651417,-14.8396702062,6.8463275734,-1.1213297965,10.7265081541,4.2382247926,0.3017507018,0.2100075087,-4.939120418,0.1790866901,0.9012695662,0.9974854219,-0.2077346266,-1.5693570618,-1.2891399681,0.512809616,1.9010422382,-1.6307959433,18.668611993,2.2068804736,-2.672599753,-4.2513622713,-22.4466678251,5.6682193638,18.8981267116,0.6498093043,7.0154355211,3.344625924,0.7820588114,0.3626054562,5.7951730397,4.8406032518,-0.267898978,1.7663472433,-19.4870451093,-88.0365802204,-164.0703491616,345.0294746718,-0.5984690919,14.7432343479,11.4022801188,-52.2303964342,19.0521952853,11.1708250455,-4.0126903536,6.0181631688,-0.0314781866,-6.3555272834,17470.1278546974,-9561.2592226688,-6858.4577181129,31.5878206426,1.1699566985,10.1770803558,3.7165452811,1.7905462436,1.8137134575,-0.3356747803,10.5587744873,-0.1613994139,511.2821378163,-1.2911574057,392.9111692809,46.4019210914,162.5400227366,21.7501439823,1.3800829892,3.1496310209,16.8859946535,62.3632053009,36.9626541868,130.77924636,-311.1363538829,-10.7758082301,-19.5840443752,-9.8268061713,-10.5658334496,8.097546433,1.1179601657,0.1082381608,0.2482000867,10.5160520952,15.7562109877,14.9011119753,2.8078043068,6.6145207817,53.4909893273,-0.9667777126,7.5322850505,4.9631856525,13.0418964058,-3.9272393028,6.498328171,-12.6893060371,-43.1548703759,52.2768269886,0.9812905187,18.5181587461,2.7625682146,15.3045501247,2.6194454752,4.0941989404,-111.8758173349,-5.2522170064,-8.5410195709,1.1519380447,0.7168133592,1.6950132034,-13.0898774011,-0.5248528015,15.1300318,1.9224496385,0.339356619,1.4491863964,1.0407798531,1.1291552528,0.7447613839,0.8130197781,0.7095249925,3.1544826681,0.6044662671,-50.4490401821,9.0345128209,-46.6321690647,0.2529718063,0.3029552588,0.6010983225,0.2085929434,0.2917215486,0.0417898613,0.2593105715,1.4221447998,0.347125959,7.9842418485,-2.4008665318,-0.1471493624,0.3957691987,4.1210939321,1.5894620418,0.1898804144,0.5329286244,0.5713238683,2.5469347306,0.2938149709,0.965591178,-0.5222334567,0.4619937605,-0.1466309767,0.2644048089,0.5370326822,-0.4307751698,-0.1465439957,0.0901395924,0.3407128213,1.9043333078,-0.5202168799,0.0598049091,0.5596095075,0.4893294239,-0.0423396418,0.3354126231,1.2467223279,0.5572810753,0.6429088137,0.0614187609,-0.2919086376,-0.8971690871,-0.4820594333,1.1741140734,0.3565267564,-0.0313886615,-0.0458445913,-1.2841428689,-0.1499724052,0.6055137097,-0.2163166486,0.2442586437,0.7451119849,-0.2074236361,-28.8482655031,-30.5660710049,-82.3825968265,-15.458675117,-27.0166693745,7.3716406767,4.7820509806,18.0691643398,76.1326802683,-0.4949262756,-0.6112171277,-0.4999737268,0.3147660947,-17.394022124,4.9226734664,-1896.0601884022,-9.1168282506,-635.7732572465,1.2108994855,0.9260890662,17.5450332241,1.2363383852,1.4724869747,1.5706974563,-0.0384220653,-9.2447351573,6.3494103758,-37.4563323886,-10.2275513424,-81.1371822941,-5.0153726404,-0.0851691936,5.9122779915,11.4038927427,9.3228316186,-4.9459096237,66.9223795611,162.4321366327,201.0579390876,-159.0764945441,200.1426359918,8.6726449069,-37.2315450585,-1.2839535302,-0.1663087274,-0.2589460069,0.3061117023,0.0873755241,56.2278636188,-18.5722549273,-2.7261372961,38.9322822297,-120.1142697054,0.1633927442,0.6330197279,-2.9327267508,6.9154547052,-21.3957054224,-25.924966859,-2.7561773073,-157.5423652382,-3.2834744672,-0.3545609107,-17.4697898394,15.6701287109,0.9365268269,-4.8666118043,-263.399210042,-55.8083786119,-102.6682184181,-24.981548156,0.9590164955,1.463520873,0.105332155,-0.9204318061,1.6684870176,23.0785942044,-14.5442884063,1.4012607628,1.0752335297,-0.5541272729,1.9557188465,0.4149623252,0.0682545724,0.9021703729,0.2468942592,-0.876488044,0.4634261503,240.7540678956,1.1987885387,-1014.7335330835,2.0499741568,-0.5893063747,-0.92999634,-0.1811401509,0.2500242359,0.2334690772,-0.0543688235,0.0019405746,-0.3206955106,-3.879636775,3.2919415385,-3.630567602,-3.5060735917,-6.0405806427,4.9443422095,-0.5965611623,-0.1332973906,-2.7451539125,-0.0750640591,-9.2644843815,3.3823164716,16.0114448211,-1.2396667535,6.5839966874,1.1288485885,1.4869112003,0.4229883428,0.1669712057,0.2114438254,0.0276950981,0.277959982,0.3460175889,0.3713141753,0.0276870647,0.3073370344,-0.4529237992,0.4085189721,0.023849477,0.2518583031,0.6913097639,1.2124191828,1.309496087,0.205641088,-3.7829571677,1.5512522222,0.188254356,-1.5477971996,2.9563267057,1.7755432656,1.3231669925,0.7222830514,3.9689712757,-0.2267006509,0.9659951465,0.3921641547,-9.7609312932,16.5303335229,348.5235664024,-78.1570560969,-64.1882846102,0.0194187033,15.0595621705,14.5548306224,-69.9035122997,-2.18871105,1.6692478985,6.5461660717,0.3017782281,0.2204303123,0.1505599867,719.9086200427,3362.7826277127,2441.0972180461,80.232017148,13.498953062,19.4473305081,11.663309861,4.8933412365,4.5051677874,-2.7850095963,-0.2072346541,10.0856574328,-68.6640579742,93.2319446799,25.7959088965,-36.531360128,63.1059728737,39.383103954,0.7924769993,26.0147938387,5.9130112649,60.3619034256,211.9347576184,5.7030825671,-94.7714114117,10.9407528734,69.8067620745,20.5138697337,11.172471642,22.7057521945,-17.2059639449,0.603922022,0.3781836326,6.5315194919,21.992342864,0.735857799,3.3783799816,2.195296594,5.3814255837,3.3710941424,-0.0220482728,2.3094097715,2.6703465511,4.8162575095,-0.8096162648,7.4444890419,-8.0721605031,20.2471112321,1.3892310119,-27.0121273964,-29.4874469623,1.516670515,24.8763771046,-22.5688525338,-24.1361737121,6.6887909301,17.5968511646,5.0627226402,-3.2843808018,26.9875222114,-783.5797295977,-95.9298316523,-191.5892896012,82.3739952632,-4.9954678847,-4.5730406124,84.8638805017,-3.0435910856,14.5883826448,17.1117434971,56.2541436486,-31.0107801776,-18.0647377742,-5779.1984548694,-69869.1437368364,28972.8854070026,-0.5245005996,0.2515425579,0.4574645991,0.7125996159,0.442501616,0.3047957015,1.3325564633,-2.1546039166,-7.1066740684,-126.078535125,55.3440873345,-36.0646933082,-73.1239644977,142.1284860405,0.2962873953,1.478362495,9.1962781745,19.6884919336,-104.286655404,-144.2391599081,11.0699265293,-314.2512258303,3.2626737022,193.3816892345,7.2227614163,2.0208670082,0.6020657871,-6.0501239927,0.1487337999,0.7465071386,18.0829835359,2.7083925564,-95.2506575672,6.1575326266,3.3403317719,-399.1587832336,18.4959280472,-0.7424009861,-7.4473832814,-3.3255978519,-16.1915626236,-0.8207419209,-392.1162678121,-66.6332713338,106.8581840981,52.513435091,0.6316421183,1.41868978,6.3851271942,-184.479627461,4.5035636067,20.6440144167,-147.4332805749,5.0594111324,-0.1826526466,12.5538966846,12.4298671163,-185.7073118397,153.4393640793,73.252296731,29.0220170803,4.7778547152,5.8093317123,73.8738775194,-1.7787009392,-1.7303583785,13.7454422983,-36.4524358452,-2.5558653629,10.981926425,29047.8806497919,342.7201013935,-1948.3019627614,6.3100566282,8.1555159917,23.0571904827,4.8394250031,10.9635702597,5.1260217193,2.4697006585,-14.2582075393,6.7453618811,51.6946255036,103.2158491931,30.8062517047,0.0755446023,17.0642606135,-8.9802781279,-1.7054196545,32.266423651,-0.0785888764,695.5647954469,-28.3274599774,109.714411447,-256.19737434,-19.0689371931,147.7844245219,-0.109891687,-1.7145032218,0.0779762927,-25.8648016012,0.2003901949,0.5434757256,11.5136469216,18.4652911725,-10.5834924952,34.3817391089,-6.550573036,2.3439541134,-9.7953382465,-9.5648138709,1.7471521034,2.1714713156,-1.1523092367,1.539626434,-42.7311242796,45.8325950409,4.4757445397,-3.841237447,7.5308650875,-16.4120041313,-6.706035239,-27.8936526051,4.3336222685,0.3102496593,-11.3870420723,13.9447541602,6.7490338936,-0.7071026095,0.7283001078,1.3476354442,1.2047213982,0.54182121,0.1363959158,0.6765861099,1.12687762,0.2127391944,0.713516817,-0.5289723927,-0.0091562788,0.6366917385,1.2138389358,0.8413559161,0.4812417698,0.8948229662,-0.066785505,-0.4885177215,-1.6458910709,-4.6461522834,-4.8284559734,-4.494819083,-5.1786940019,0.7182824584,1.2987677252,0.6458100162,0.8245359521,0.2095134476,0.6058093429,0.1992567686,0.0417524917,0.3453492209,-2.2517440947,-0.7254920641,0.332334312,0.2803458528,0.2955987587,0.2369530124,0.4518739951,-3.3764138269,-0.205070308,0.6451333927,-0.0003001194,-0.1373714543,0.1521655409,0.3363474624,0.7219716737,0.7680685084,0.6229277761,0.3550575363,0.5214990237,0.2453064237,0.7590749941,0.1063105801,0.7976947341,0.1072524507,1.0335064272,0.5096953747,-0.0638887223,0.778300831,0.5476495464,0.1094738711,0.5268412076,0.2522233779,-0.3612393015,0.6802936613,0.9709857703,0.9824081218,0.5251150821,0.469844288,0.5764839846,-11.1674321932,0.6692705535,12.9379875474,23.2999007041,13.9656574882,46.6422557254,-17.8369124118,-4.2305699805,10.1612992233,76.7149214033,1.7882705358,-8.9621271533,5.1454832087,-11.4944232375,-4.1516806747,7.9945818192,-6617.744393416,-2031.7363340268,4749.4191278172,-0.5345101297,-9.2387822362,-0.5536894335,-0.2544148166,-0.3691117103,-0.3066964429,1.2302589669,-31.2831171309,11.681650822,134.2596133472,-48.0159872639,4.2734547017,-1.9546186055,-22.0691045345,38.2564706136,-17.0601497685,-15.3716939793,-3.9775098229,-12.4466160098,124.8559359004,-48.0272514398,60.364272139,38.4741132111,34.3016403879,74.2428765539,3.312604679,0.5779463358,11.2128254799,0.1963097781,0.0127357561,14.4053823186
