encog,BasicNetwork,java,3.2.0,1,1430059886720
[BASIC]
[BASIC:PARAMS]
[BASIC:NETWORK]
beginTraining=0
connectionLimit=0
contextTargetOffset=0,0,0
contextTargetSize=0,0,0
endTraining=2
hasContext=f
inputCount=57
layerCounts=2,86,58
layerFeedCounts=2,85,57
layerContextCount=0,0,0
layerIndex=0,2,88
output=0,0,0,0,0,0,0,0,0,0,0,0,0,0,0,0,0,0,0,0,0,0,0,0,0,0,0,0,0,0,0,0,0,0,0,0,0,0,0,0,0,0,0,0,0,0,0,0,0,0,0,0,0,0,0,0,0,0,0,0,0,0,0,0,0,0,0,0,0,0,0,0,0,0,0,0,0,0,0,0,0,0,0,0,0,0,0,1,0,0,0,0,0,0,0,0,0,0,0,0,0,0,0,0,0,0,0,0,0,0,0,0,0,0,0,0,0,0,0,0,0,0,0,0,0,0,0,0,0,0,0,0,0,0,0,0,0,0,0,0,0,0,0,0,0,1
outputCount=2
weightIndex=0,172,5102
weights=##0
##double#5102
   0.4466405756,0.5371542877,0.4521047112,0.4452350152,0.5937855692,-0.1005789662,0.0939436304,-0.0934724152,0.5435174969,-0.1375133462,0.6795135665,-0.384051713,0.7081711983,0.2866932439,-0.3125347062,0.2940071302,0.6674545417,0.4562578677,0.1947124998,0.2940223787,0.1654575032,0.1024378812,-0.8944794498,0.2298434974,0.575203346,-0.0983805986,-0.5015577689,0.5543813717,0.3313368378,-1.1542326606,-0.837048421,0.6017370255,-0.8127121618,0.1592460044,-0.3293632265,0.0714229561,0.0304216449,0.0865247193,0.5833941424,-0.0173707089,-0.2649185839,-0.0174075825,0.0601220858,0.6274588025,0.4752168439,0.3000552685,-0.3382787611,0.702978031,0.0046053662,-0.2173554073,-0.2375718166,0.4680712182,0.0798212138,-0.3815725106,-0.1038659567,0.3849679048,-0.6755883585,0.5511732934,0.882472285,0.2959476065,0.2018413989,0.3517023439,-0.4160453832,0.2505574866,-0.1640080959,0.5309840783,-0.3966016579,0.7204327754,0.5505720972,0.4409151363,0.3634961728,-0.7956494882,0.0760550396,0.0907646128,0.097488196,0.4545314675,-0.6910817973,-0.3104030912,0.736149782,-0.4349297421,0.1410406124,0.3653060252,-0.7227212994,0.4081824074,-0.1661015329,0.0904951006,-0.1186186766,0.4762297277,0.0826764779,0.1614008801,0.3438146473,0.613000043,-0.4273989591,0.5324230172,0.6070295926,-1.2429471988,0.017498345,1.1668119686,-0.2042224998,0.7115529488,-0.134066353,0.1513875762,0.1611198056,1.0007208906,0.2392198517,0.0740452418,-0.7660121346,0.4391335526,-0.2557239448,0.237041735,0.325617841,0.5231901678,-0.4120942497,0.6710554491,0.9811256364,-1.042259676,0.4262115105,0.2995923155,-0.5271088802,0.268184095,0.2120979643,1.1565915993,-0.7215784588,0.8366991235,-0.0826780873,0.3144559081,0.4118545177,1.0878198424,0.332561748,0.9007895434,-0.6647986793,-0.3033012043,-0.9178937618,-0.2917405832,0.7977943326,-0.5945503233,0.1629899174,-0.5240247541,0.6385591296,-0.9376551155,0.4579342543,-0.2728156929,0.5572094602,0.5597893704,-0.1285061272,-0.5891032523,-2.9441195773,0.4231807319,-0.8988547651,-0.5558695977,0.7787206425,0.5497916949,-0.3820705883,0.3279653224,-0.8816581843,-1.104072889,-0.2396138224,0.2038421032,0.708565542,-0.3206670069,-0.5831380434,0.6362225829,-0.6408256382,-0.650993018,-0.1130489629,0.4480928654,-1.0319009675,0.2635515527,0.3372925617,-0.1483777077,-0.6858726863,-1.3760846411,1.3210086313,-0.1899703244,-1.7929499453,-5.1664492955,-0.7671741466,6.8385685479,0.2562775633,1.325050796,1.5745716769,1.1583787423,0.3632380406,-0.3841335065,-0.2707198915,0.3761564302,0.6761215962,27.2435936975,5.1483158077,-0.4972629123,-3.9665332074,-0.4066868287,-8.0422277705,-0.7167698523,-2.5831984343,-11.3176386713,-0.2462543171,-0.9811667739,0.2601301659,0.2692756492,-1.4909448507,-0.5335063093,0.5900520042,-0.1033772057,0.3033610688,1.4473344176,-0.0552692566,0.882544252,1.7316979662,1.3066033434,3.5162301139,2.6552856132,1.9353648579,0.9680951207,-1.6066572577,-7.0243327359,0.9898597788,1.9448057613,0.3923258217,-0.5516824479,3.8177525105,2.1241986704,-0.1540555302,4.4256363649,0.9977202825,0.0419039803,-14.5474885433,-1.4079635948,-6.0099140579,1.3402708212,0.0525112591,-0.3395830199,0.0633909543,0.931696848,4.9931536564,1.9665164112,0.5132218669,0.267991198,0.0991941914,0.808568565,1.3781085634,1.5416442333,1.5473298674,1.6827335056,1.1555386388,-0.3911591043,-0.1935049687,0.68669512,3.8460172853,0.4567645767,0.2232087748,-2.8328796607,1.445395499,0.7076738019,0.7561426819,0.545625124,1.3054229877,2.7902228462,0.7674798655,1.1235741951,0.581265936,0.2332791439,0.262818877,0.1554212629,-0.0095068303,0.1197114367,-0.0882412148,0.5838998099,0.0241367767,0.2063571688,0.095119588,-0.0112733996,0.2389126783,0.446053684,0.1018823323,-1.2479018999,1.4679696255,0.5917925338,8.9774397966,-0.3435533657,0.2272613773,1.2274989187,-0.5176371644,0.3983143829,-1.3391760377,2.1593692027,0.6635127946,-0.9097854027,-0.3547339242,0.3200084108,0.4142006325,0.8415494314,0.0579106709,1.0935256297,0.3226438763,-0.6585446587,0.0553864847,0.8447895975,0.7013404253,2.7890289829,0.70340444,1.5017952459,2.9378358745,-2.7101321642,-0.1830567778,2.132291425,2.4655198888,0.3352667571,0.1894660526,0.140069551,0.900383859,-0.6575298361,1.1090934434,0.7692758022,0.5255140536,-2.238810706,0.4804370703,-0.6203663049,0.911735397,0.2693872216,0.4948059839,0.0182039848,-0.0485202791,0.278901231,0.2319702154,0.6657253328,0.5585542427,-0.4275011454,-0.0689992039,0.1260600973,0.3620760044,0.2883491712,-0.342728342,0.6533507787,2.3293769999,5.5447199815,1.3309684817,0.226394276,0.1753308764,0.820456894,0.1829748294,0.4707104197,-1.306162767,0.4980050671,-0.3951473376,-0.2400846728,-0.040108032,-4.3430460271,-8.5279584795,-0.3657125773,-0.5359522953,-0.4084582322,0.6180843087,10.07210768,4.110483977,-1.3113731065,0.0455955912,-1.098585073,-0.7920885969,-1.8818064014,0.1342712007,-0.3326721948,0.080954887,-0.0607015504,0.3297340923,1.0588945239,1.2385670254,37.4462960057,0.5224462043,-2.3196097405,-0.5712939115,0.4409381338,0.6972431398,0.4626429522,-0.1748578426,-0.3330111257,-0.917314303,0.0126682608,2.8581304285,-0.1839774947,0.3297917121,-0.3478555612,-0.4970656302,-1.5980542981,3.0045303999,4.2305868071,0.31468538,0.3021544478,0.311404064,1.3987274847,-0.0583254573,0.1198298895,-2.1640233417,0.6809621812,-0.4747138401,-1.2081508109,1.247628762,3.694266825,-0.2216849883,-0.3425440453,0.4891720105,0.4272728801,-1.2445747983,1.6801250201,1.2382798394,0.6079245995,-0.147108286,1.6375306091,0.0917814997,2.244202508,0.4281769749,0.3881697642,0.1730363374,0.7957637448,1.5253568919,1.8418992311,2.1937724051,0.8489313174,0.6912130539,0.5523309047,-0.1215237792,0.8682430441,-0.479551289,0.1575227692,0.1748543482,0.1449469055,3.9507687076,-0.4151476504,2.8577529391,0.1000420346,0.2254918263,0.7615797618,0.0116048337,0.284938276,0.6233398153,-0.2253369935,0.5202137364,0.6445617703,-0.2899110373,0.2366875595,-0.0089863761,1.0517113939,-0.1020238948,0.4150376485,-0.2112240971,0.2891783092,0.7316524118,0.5438579894,-0.0631607172,-0.3284397179,3.7117224549,7.5322396602,0.3371279901,0.4726836298,0.6048037244,0.2822578456,0.0123693148,0.4557392852,-1.468773092,0.58379047,1.1981097538,-0.5019296675,1.6538584984,1.7057564829,-0.6952799612,-0.8663632756,-11.5128805902,-0.5343608257,0.2971157832,-0.3424614662,-0.7504671035,0.8262616943,0.7774837479,0.2482180598,0.585968033,-0.6867786795,0.303569246,1.8750118698,0.3618906263,-0.4893545539,-2.837692808,8.0154660027,-1.0993336911,9.9013139775,9.1921078165,6.5098492806,-6.539413918,0.1108901949,0.3814175109,0.3467371579,-1.0850889958,0.1290239416,-2.2134353539,0.5909823746,-5.1374695139,-1.1477842465,-4.456682741,-4.6225997773,0.8049152533,-0.2202597916,-1.8950984849,-0.9425090711,0.0271925672,-0.0775711297,4.2876170252,0.2953028732,0.6780041298,-0.8420384991,0.131760516,-3.4981400555,6.2066041585,1.2278008762,0.567839065,2.6147814176,-0.8505417761,-23.5891678722,-1.3612712721,0.5972635629,-1.75853096,0.8227301891,0.5127142107,-1.6504709372,2.1582654961,-0.0078334002,1.2367300091,-0.2314175046,0.259633412,-2.3377582436,8.4163605318,1.0989485002,0.7577206403,0.4735830003,1.4362098067,0.7557403969,5.129015508,1.8708032143,-0.038681541,-0.0521367708,0.2380415384,0.770341694,0.7373041779,15.2047553514,0.2714398532,-1.4593203442,0.2861993915,0.4967141444,-0.2408796579,-0.3727616467,-3.7291887034,0.106660075,0.201876019,2.8606342302,0.8352344389,0.3648406368,0.7002378225,0.1020912872,-1.2120571566,-0.3268828849,-1.3986349129,3.8860160678,-0.4719641704,0.6806420598,0.017550485,-2.7842358903,-0.5481595226,0.2138001215,0.1736626725,-0.1446299934,0.676211719,5.4639800537,-1.0468351635,11.7487606076,5.9808817153,0.6434796415,7.1431692792,-4.5353687668,0.6116134917,1.107653546,-0.4399257182,-1.0381887619,-6.4222843593,0.8148188687,12.6065434853,1.3000801626,0.6997995689,-0.7221830009,-1.4914939076,0.6822612281,0.0745137598,1.1187260579,3.1622199298,1.66543837,2.1528248977,0.7006613376,0.289641978,-0.1676416879,0.675603248,0.8197584678,3.9326443455,-18.4729124699,-1.3827045909,15.7454862932,-0.8137126064,0.7141571778,0.0961559122,0.6175608324,2.4602120828,0.4267648321,-2.258187306,0.3684013406,-1.7861952104,0.0850502279,-0.1701679506,-2.1732681814,-1.2492915385,1.3929759298,-0.0173081916,0.1246500528,-0.4862600789,0.4349856302,-0.4099976616,0.4326647243,-1.7215782272,-2.7056752109,0.0725841452,0.4643697639,0.8040251371,0.9532821406,-0.7961486833,1.3718414413,-0.1620423792,10.1965520411,-0.3748048666,-1.0593429932,0.6548046451,-0.4014652357,-0.3068926873,2.04049009,0.0837091583,-0.1625014095,0.8071251259,1.1712866366,0.4734912105,-0.2193624899,0.3096797758,0.8050108414,0.9229341635,0.9212509318,0.518846865,0.9458506003,0.2614648349,-0.0209862283,0.9137937602,1.4941268933,0.4095535425,0.4484411661,0.6451399051,-1.3841882863,1.0568292486,0.5726809805,0.1068433932,0.6039364519,0.2946691823,0.189167463,0.3577613717,0.271924853,0.4979474469,0.4401326528,0.3293803959,0.5782465496,-0.1170954666,0.0232727056,0.6286677284,0.477155941,-0.1273815995,0.2682252377,0.3797454476,0.4022705086,0.5386116973,0.2767591185,-0.1605479963,-0.1828482454,0.60562084,1.066078904,0.1201779427,0.2439303467,0.0593768081,-0.1118794466,0.1072430728,0.1806156348,0.1922916786,0.3589591922,0.1050994231,-0.3161368269,0.2643211185,-0.8412199521,1.2870531287,0.5119779984,-3.173542809,0.8782218814,0.0125754513,0.3420621491,0.4811758644,1.511672517,0.9346717941,0.9581650914,1.142362499,0.616945003,0.9013737601,0.2602393346,1.3614906782,-0.7392135856,-3.1222211091,0.8002798115,-1.4638319517,-3.6003055919,0.9422987982,0.4265895427,1.0147066144,-0.0263880244,-0.7212703154,0.8506631912,0.4704367995,-0.0067884702,-0.4607444703,0.0150665716,0.8968609928,0.4169104312,0.2012286877,-0.3148076542,-0.3338329729,-0.7223868185,0.1227643507,0.2476328237,-0.13775682,-0.5243858472,0.1137221901,2.0489377692,-4.4308240232,0.2902265884,0.7061755943,0.4375416257,0.5929312553,0.7879845835,0.0347942685,-0.1670446523,-0.0903688779,-1.2862133958,0.6034525147,0.8788159847,-2.1546883519,-0.4683044263,-0.0133006241,-7.9182521196,-0.8668807093,0.0765539617,-7.5754793528,0.298615926,-0.2777338104,0.7440662508,0.5811894105,0.0296826002,-0.0974260768,-0.5446799697,-0.8223944613,-0.2188315298,0.3209928626,0.6193509993,-0.35961959,-4.6619919834,-29.0704705041,0.767211259,-0.9638286661,0.1063671419,-2.0989883676,-0.4835384007,0.61220682,0.3789527528,0.1044431409,1.3259510342,0.0002325576,-7.4564907424,0.1561142871,-0.1177800718,-0.1323353107,0.2833824615,0.325613657,-0.3314914412,-0.0665877111,-0.1025072302,0.659481474,1.0557580156,0.4713088034,-0.0145445719,-0.091336842,-0.1932221277,-0.3611515384,-1.3418390266,-4.8952164761,0.3958541216,0.6313744363,0.711347712,1.9707153346,2.5066542104,0.6197991595,-0.6848249986,2.2770331787,-0.6039444557,7.9744472553,-0.532119912,1.73405425,-11.8993503386,0.0229787757,-0.4798616253,0.8263937817,0.6253565655,-0.6989405058,0.1785956206,-0.9746756785,0.7846223364,0.3571533078,0.7948600093,-0.1301364347,-0.0506999121,0.7109976159,0.1596826845,1.3222005776,0.1104434755,0.2594253681,0.2271257021,2.7500733091,-0.2720101347,-1.5280564992,-9.990158569,0.5156027215,-0.1893380122,0.198539722,1.1429759476,0.7320117649,0.0107626372,-0.3319676394,2.3772038017,0.5989449297,-0.0405408111,0.0506731568,0.1833505276,0.2192210742,0.9347611656,0.4053647057,0.5305161038,-0.2686532397,-0.0153665685,0.4555561892,1.5314250992,0.0008985851,-0.2068211511,-0.3841294048,0.3999535744,0.4742969906,0.8912220266,0.5871955261,0.2895273397,-0.2009446643,-0.2678723931,0.2942193992,1.6968068812,0.9701436906,-0.2089342774,1.0845234253,0.3108456698,1.4194495904,0.7534318764,0.5831404832,1.2511213236,-1.2243534965,-0.3667900372,-0.1516614562,1.0783626149,1.1709448106,1.4720605927,-0.9032326002,0.5281799898,0.6958419463,-1.8014960532,0.1776854191,0.3126349786,0.8183990527,-1.7793722438,1.1269088466,-1.3209710137,4.4341962827,6.2959880138,0.75935861,1.5400742353,0.5215060508,2.9206422792,1.1790140118,0.431272958,-0.093442659,-0.9476703217,4.828903917,-0.3263035716,-1.5811742461,-0.434851262,-0.5499478555,-0.793836555,-0.4149572666,-0.3751420412,-0.5334524217,-0.4081393261,0.2231013168,-0.213584092,0.1704593834,0.0012329031,1.0021680259,0.2758663041,-1.7586975534,-1.8445265983,-1.0742245349,-0.8565841829,-0.6508832238,-1.0212135866,0.2875501575,0.0659785804,-8.1876907679,0.4881885123,0.8869171953,0.11629037,0.5277224941,0.7138125399,-6.4523889286,0.9886346835,-0.0066071733,0.4027222871,1.8656576293,0.3134538932,0.3588198865,0.5582350177,2.6220171969,1.4171802658,0.9717826412,5.8282322713,0.6798286839,0.7085661001,2.0894950044,2.6050728959,0.0111412389,0.0300320828,0.7114492442,-0.4151929074,2.7274961938,-0.1004336303,0.0128235715,0.4031517686,0.1805473875,-0.0667125781,0.4938069772,-9.7137437614,-1.1663283346,0.3540107354,40.3945694457,5.6198021374,3.0689048427,0.7490659524,0.8796048453,-0.7484590702,0.6328538013,0.9155122819,0.5112069307,1.0728839893,1.8327374482,2.2238816601,3.9564968448,0.407257462,2.477367216,11.5790770084,0.4105087462,18.8259239802,3.8690124845,2.9053638165,1.1590284806,0.8544087989,21.8975808472,0.5288570697,-0.2362637612,-2.6199599256,-0.4753827782,-2.6307704555,-12.6560465469,-0.4790777375,0.4876402371,3.0521783279,1.7318230355,-0.1070166603,-0.3363159967,-0.1658252119,-0.959546274,0.3511432331,-0.4464332298,-0.8982118604,-0.3390192809,-1.7666297205,-0.9540740373,-2.4947002972,-4.9555002501,-0.4408519903,-7.8181628332,-1.7747904424,0.0198290036,0.0475446858,0.5350058941,0.5088548165,-0.3163518274,0.5561620707,1.6232483453,5.2852814012,-1.5050527177,-0.9094823189,-8.6382363748,12.5522112256,-7.2163922297,0.4425130886,58.4767877388,9.2028153129,-0.1061106895,0.3098137145,0.3947507458,-5.0203778444,-0.8095468959,-0.3872161,-1.4195981686,-4.353263049,0.2772480777,0.4455735011,0.2584116299,1.3378029091,2.474698426,-3.7058130691,0.1195566533,-2.7446372464,7.435943078,0.8777405475,0.2474685233,-1.2142127601,-0.5848181063,0.2391072748,-4.1053168735,0.4922219859,3.2243127732,-0.2042295922,-0.201391187,0.7897812216,-0.6153887507,1.8558134407,1.0021576703,0.8775266868,-3.3487520011,0.1343020508,0.2416926188,0.7546371231,2.7042024518,0.8139629383,-0.1398743232,0.6380115493,-0.6391579008,-0.821419348,0.8301048232,0.4982784566,-0.0375828142,-0.3290944605,-0.5648164956,-0.2945109686,0.3795248434,0.3004379163,0.7446868026,-0.2155639808,-0.0311026991,-0.1299149938,0.0314921203,0.203477485,0.4467795493,-0.373005065,0.3829148171,0.7439134609,-0.1492605184,0.3720073315,0.2506066139,0.124365472,10.3353312898,3.1921103828,-2.0937831687,0.2257263628,-0.2025775442,-0.2251933965,-0.0634603773,3.6348870204,-0.1240787422,-0.0674423005,1.0121416844,-0.2022936446,2.932395549,-2.3833669895,1.1056003005,0.3848228849,-22.9503468529,0.3202192548,-0.2533278362,2.6713430652,0.7191807961,1.1225409796,0.6268595847,0.8425429775,-4.5540242916,0.6466093639,0.2647598777,-0.7349811851,0.4379700748,0.4433288944,0.7533584454,-0.5217900084,13.3189389522,0.3592840428,-0.1173756051,12.0437228341,0.8408029088,-0.7015355499,0.7255138061,0.8316238681,-0.2976771061,0.5423419042,8.5275413893,-3.0357167957,-3.5464883875,-4.3084736429,-4.6719026813,-0.7742510753,-0.3326725949,-3.4575842282,0.8250487901,-1.9402366898,2.0417567598,-0.5252024786,-1.7701430107,-0.354635507,-2.2287628103,-1.2168672011,0.0660064791,0.6192401809,-0.5985523515,0.7236400653,-2.4353140713,0.4504349452,-3.3278056307,0.709667764,-0.1880234797,0.9070006516,-8.5521626494,-0.5635721883,-2.9982809717,2.4150548305,-0.1517197229,0.4078154699,-11.8209950779,0.5958629151,5.1646532108,0.8132687163,0.6246745728,-0.4879188167,-0.5352782205,-0.533496394,-0.1079017646,-0.4399779064,0.2108088915,0.6234949269,-0.2294267643,-5.719315733,-1.8506297305,0.835636846,0.3907413782,-2.8603715744,1.5065091198,-1.6392664756,-0.4123486958,0.2017144229,0.2869929241,-0.226967266,-0.6908067409,0.5509325966,-0.4098407911,0.402887985,1.2208917747,0.4129685564,0.1468179724,-0.9786981179,-0.3808801731,1.4349092692,-0.9676814203,0.5845350557,0.2784171417,2.0932862779,1.6073635968,1.0942040475,-1.0393573675,0.8926005427,-1.4801007284,-1.0415382945,-0.0877082138,0.8781204713,0.4988078239,0.5642352541,0.6580549868,-2.9026566402,0.5913944326,-0.5020958664,-0.4383712964,0.4497620294,0.8279096998,-0.0209216368,0.715104002,0.8466580572,-0.8402760518,2.9559530508,0.3796217865,-0.0595596826,0.3111496598,0.7049380277,0.9435945699,0.3773556604,4.1888532335,0.922783616,0.1044112445,0.0978325523,0.1356821055,8.0547079972,-0.8473279162,-1.2031702382,-2.0270171629,-0.9653997838,1.3201598241,3.0933473212,0.6678185114,0.4077440494,0.2005105579,0.0451207727,0.5233616519,0.8555483099,0.973596719,0.849807437,0.1331149589,0.2473605606,-0.0782389527,0.3907495938,-0.2672719536,0.0973238888,-0.1506727918,-0.4360756148,0.3114814746,0.1828494369,0.6551386047,0.6297744255,-0.8174073486,-2.3188300355,2.5181234274,3.8578744822,0.355179438,0.583448148,0.3379431153,-0.358040592,-0.2357555923,-2.1205628227,0.3043038557,0.4184784546,0.4992935161,-0.1414703453,0.136212822,-2.247269771,-2.1355400513,0.253839745,-5.6431619514,1.737936244,0.4097182268,0.0565484886,0.1471530235,0.8779801529,0.9279413702,0.790892776,0.9851041475,5.7679576381,-15.8766953379,0.8219203924,-0.03122128,1.3154559858,2.4796118311,0.7536623459,0.1271782973,-0.7385878607,0.592466778,0.1124774659,1.5566782854,0.6569900862,4.821876691,15.9392708448,0.3176573883,1.1283801242,-1.4427577738,0.2450602837,0.3825314767,0.1070974995,-0.969886669,-0.2936224478,-0.2800232373,0.5651418299,-0.1078542675,-0.1355725196,-0.1705441089,-0.181542796,0.5724162251,0.0509975087,-0.0924077308,-1.269104764,1.2490308274,29.2667071935,1.5497395013,1.0854419969,-1.8557534963,0.1912360164,0.0984446942,-1.2626176128,0.2649231367,0.1118731931,0.2583017575,-1.0939022135,0.0729292945,0.0440611716,0.2856300487,0.7798658431,0.3894705928,-0.3757094396,-0.5655278467,-0.2625225358,-2.3010820689,1.1231770272,1.0739531966,0.6765644045,1.4051357691,1.2128900387,0.3233541472,0.4819029311,0.6220518976,0.4565199578,0.9522403381,0.3614425684,-2.3613229347,0.0189119383,-2.0024463557,2.2366822907,1.3218523708,0.8834945797,1.159336633,1.07968107,1.0841640062,1.0827893658,0.9909195406,0.4501209954,0.2461651933,-1.0866430431,-0.0897150075,-0.2912288413,-0.0916945495,-0.2119705481,-1.4173758672,0.0462952505,0.3956110513,0.3167240222,-0.62438382,0.1106079171,-0.0145375879,0.4097864303,0.5279044733,2.8227021591,0.7193710471,0.5460415814,0.301141223,-0.2292818192,-0.2558493072,-1.9465601537,0.0617922144,0.425597931,-0.3671142931,-0.0096670557,2.6181873899,-4.9101066968,0.4512395121,0.2290913783,-9.5860514242,0.6208495281,2.0918220763,-0.4637708961,-1.1354055055,0.3985149323,0.5586786712,0.1086765345,-0.0717175775,0.1907040879,1.5583760797,0.5953973944,0.2875611498,0.7378846404,0.8130228215,0.4990466868,-0.9188948522,8.4842383372,0.6191040283,-4.2102361183,0.8008614492,0.3115084728,1.0837517657,3.4469035977,0.3266551437,0.1305001175,-4.1735196991,-0.3567972763,-0.2680031933,-0.1995500876,0.0347138288,-0.2276907083,-0.8788788571,-0.9914787905,1.3419128055,-2.0806358436,-0.2529063723,-0.1357939269,-0.0300392418,0.6618179258,2.6001249416,-10.8184890348,1.1296406349,0.2417254438,1.6612364748,0.0334435406,0.0205395655,-0.0466579198,-0.2458450457,0.8040693213,-1.5689292722,0.4551079902,0.3880577218,-0.3817402959,0.3618917358,0.6123037358,0.756158341,0.7684702124,11.1402034044,0.5321504471,-0.2434580198,1.3389761822,0.0017118183,2.6014146425,1.5757549903,1.1282259793,-0.8205157903,0.2027889659,2.949144617,-0.3738499056,0.8533167942,0.1882764502,0.5797672395,0.0493413188,-1.213728802,-1.1167713714,0.1525227414,-1.482879969,0.6992853065,0.8505287399,0.5571325218,0.4545942993,0.9768028167,1.109709676,1.0253301166,0.6358527158,-1.010554991,-0.2395749589,0.1954890587,-0.1774566178,2.5432578688,-1.425800108,0.2560517605,0.5665759423,0.0130230188,0.2078242424,0.7556024548,0.5304198043,0.8829846607,0.0083204908,0.6426955051,0.465303938,1.2004620699,0.3746214527,0.2628198551,0.2118900603,-0.0299624085,-6.6073098986,0.1511078088,-0.9833543515,-1.4116208301,-0.1611933911,3.0683092511,-3.3435560426,1.1064763761,-2.1074727291,0.3215133269,-3.466989116,-1.4530958545,-5.3771832297,-5.8131488492,0.4349597715,0.3847905883,2.5607175861,0.0368149558,2.1588917038,8.2744511671,-0.1838029644,0.5890827408,0.843200424,-0.7873085776,-39.1264004494,0.7210960448,0.3747363536,3.6033902006,0.4323808927,0.602440532,0.1699366758,0.4398255414,1.1069647727,1.612832027,6.4862872053,0.5849069859,-15.3540130736,0.9344475038,-6.1627704141,-2.0321943905,-1.5427185295,-1.5376802533,0.0739180565,-2.7537262986,-0.9911375056,8.8393390349,0.2861513442,0.0669332321,0.3621466703,-0.2519713498,1.3056516662,0.8891116729,-0.3042863636,0.5059034716,-1.0063524629,-7.0997739023,-39.0133047464,-0.7260263006,0.2811798316,-0.2758311102,0.8538745118,0.4906839251,0.5221363039,1.6702412971,-0.6581010002,-1.0091844383,-0.1247603567,-3.3821830454,0.235890509,0.8022716433,-2.9955323592,1.581729291,-0.0748176637,-0.0377350967,0.5263382503,0.7727456582,0.3055437085,0.7447087077,1.2428900797,-0.0133849127,-1.381570478,0.1834988923,-3.2755483898,-0.2149611014,-4.0432247943,-1.630737482,-4.831975798,0.2988549245,0.5816687347,0.4071727954,0.186563033,0.1381128177,0.8443830886,0.0812064584,-2.5223745523,0.4831182935,0.6754115083,-0.4430252839,-0.2634493671,1.2624889395,0.9637220294,0.4148063614,0.1667780688,-0.0961631822,0.1727859404,1.0404358425,0.0669567361,-1.6354461754,2.4582784954,-1.4760163071,0.2289872434,0.1107489706,0.9971653319,0.3426099494,0.5581922708,0.1592842929,0.7968835477,-0.1829911489,0.3493764883,-7.0179631824,-0.5535944866,-0.463138238,1.7502344931,-1.1989342306,0.2518302755,3.7235309172,0.8959136784,0.985218312,-1.2998966292,0.7967930126,0.1720934203,-0.3990960613,0.4507460311,0.8970572021,0.8929657246,0.9782773838,0.4936755628,0.3731052269,0.3167524148,0.9032972838,0.719554738,2.464221392,-2.860644747,-0.4620177245,-3.4833251189,0.7674617557,-0.0071038335,1.0835040001,0.5368444612,0.5557833912,0.0245969301,-0.5234260989,2.2748776016,0.4173156557,-0.1196103063,-0.0382438888,0.1333241944,-0.2889008999,-0.0984297733,-0.20852739,1.3217970092,0.4332371172,-0.1817286061,-1.0808153651,-0.7636649644,-3.6320719529,0.0737703704,0.3172975281,0.7032328264,0.1885899888,0.4022621609,0.6520295608,0.5308746825,-0.4544879294,3.6088330585,0.0842890724,-4.0202030835,-0.6398054114,0.5864618116,1.6214497329,-0.0753143923,-0.4977202646,1.4180628683,-21.4998541045,2.0740778367,1.5799836115,-1.5638649957,-0.8334120116,0.1197250834,0.0763463143,-0.3826358318,0.842768048,-0.1505695775,-10.9256475738,0.944931952,-0.0148824062,0.9961633685,1.0673677814,2.7423506242,-9.5078037087,3.352646679,-2.327341392,-2.0070117699,0.7795818954,0.3872821994,0.5877137176,0.1701320073,-0.7621475969,-0.0217946881,1.0034883431,-11.0569541217,-12.3054096239,0.116397737,-0.2782437558,-0.1407638206,5.3579402389,0.2176671468,2.367574153,1.0318374151,-0.4638003595,-0.5973410853,1.1623173237,1.9568182005,-0.2223419606,-0.5203323235,1.2417588769,0.8759501659,-0.0434039226,1.1147398868,0.419872724,15.1028020188,-2.9948841592,0.2619665242,-2.6311723078,0.4949023913,3.1043814803,-0.4415452256,-1.8477462609,5.0715974312,-2.3527994781,0.9829673489,-1.5069330065,0.8078568737,0.1190910546,0.1994661199,0.2508125882,1.0817818929,1.015365289,0.9882922653,1.5026071006,1.7397635212,0.8496642696,-0.0835488365,0.2803220728,1.5000342798,19.62119665,-13.9758223433,-0.131173006,0.4541434508,6.8414772814,0.5430406501,-7.1565202851,0.7488390771,1.1595301017,0.9523618464,0.6603137067,0.8679815198,-0.8207459616,0.5881703563,-0.2681218024,0.211635861,-0.2644012288,0.3397767567,0.1607287348,0.2917174572,-0.3068892973,-0.5154681288,-0.1215731169,0.6319451871,-0.2799430363,0.9387282744,0.5803715121,1.2402631559,2.0562165728,14.5953063785,0.3891294918,0.3591536924,-0.4447753256,-1.225653059,-1.509438249,0.8491924834,-0.1517886876,-0.3026429248,0.4212477213,-0.6235375361,-1.0983267615,0.8866467707,0.6339986441,0.1268367606,0.6140608565,1.0049970251,-0.3673008851,0.3045898192,-2.1377554163,0.491045225,0.3864715961,0.8786044773,1.0847340438,2.7594935209,0.2629369524,-0.073438038,0.1477621602,0.662603736,1.3712530878,0.1945203653,0.0726858946,0.7019748117,12.0319142991,0.5075709717,1.7693790874,0.3446879397,0.074313527,0.1184653058,0.1216168211,-0.3079747301,0.9306977748,0.6906179592,0.3003232192,-0.0291444687,0.6846590802,-0.1431120979,-0.0543688927,0.0298134189,0.0113677962,1.2688196725,0.0001930843,0.2922200608,0.0530417094,0.8092043252,0.9221929577,-0.4166141992,1.0102224043,0.902872971,1.0454105191,0.4658047807,-0.2027821342,0.310679329,0.1713607688,1.1381409963,-0.0503885828,0.2005157513,4.3954982449,-0.8929359504,-0.3079129761,-2.0386759862,0.9809738136,3.8078991727,-0.4808276756,0.4808874601,3.183781374,-0.3720257653,-0.2103252997,1.0741477892,0.7426054894,0.4010809411,0.3479006599,0.5671716918,0.7698209981,0.4455595377,0.2953772655,0.5002866317,0.5097947026,0.6028146038,-3.0948295308,-0.9013816733,4.2691336702,-4.1679253036,0.6996502902,0.091293502,-0.3366754102,0.0160526611,3.2558603905,2.3901422146,0.6343836863,0.3414197822,0.3420524531,-1.151537754,-1.2969998961,0.5492848734,1.4729330424,0.1761280315,0.3203377659,0.2584943287,-0.0258077764,0.1428388594,0.5134144542,-0.1815448141,0.0456530987,0.834257571,0.5489893474,0.5426810605,1.2882779348,0.0676812663,-0.2241011531,-1.1129038415,0.0592139977,0.8466454685,0.1889685319,0.5274250068,-0.0473429711,0.022485141,0.7200342634,0.2530845994,0.4919529168,0.555533738,9.0179978975,0.7846722459,-0.2718081995,-5.4620416984,-5.9318431314,0.7666969287,0.7793849763,-0.0162957055,1.1785072079,0.8398607867,0.6644300602,-0.5988847179,0.463625345,0.1683836887,-1.144900936,0.213748461,6.0463159485,-10.3140112159,-1.9386935667,2.0870459818,0.5361129776,0.28317125,1.0012243542,1.6311829159,1.5175241432,4.404947392,8.6183366266,4.4328295412,5.2163607599,-1.2321390477,-0.8748103313,-1.7731313085,-1.1799992403,-2.1932470564,-4.5812649252,-0.082415414,0.6257403796,0.8426046797,-2.813369194,0.5057734435,-0.8515988411,2.86454126,0.6981865289,0.8638254882,0.3877917926,1.4279318283,-4.422894483,-0.838439221,0.6339323721,0.8236696238,-0.071896196,-1.2417406102,0.0793585983,-0.4569369151,-1.0674949319,0.8782623443,-0.2643851292,-1.8963233629,3.7122747829,0.9055644451,-0.3749444817,-0.2697010243,0.2859995811,-0.4861495624,0.9028238692,1.1122902647,2.1371960206,0.8901662613,0.7063316425,0.6037221994,-0.6661024592,-0.0880588246,0.2539742712,-1.2059731971,-5.384745564,7.1263225097,-0.5100467813,-14.2336725172,0.3903599578,0.6327641515,0.7521175799,1.4410052998,0.3925211838,0.0338635355,0.9349790793,-3.6335248202,-1.6019944154,-0.6395128275,-0.8372879642,-0.5027153113,1.6783994928,0.203928639,-1.3100934291,1.3965061359,-0.3031990231,-0.9243263835,-0.5000805822,-0.9998808225,-1.2955076773,1.1848896549,-0.0956392011,0.5210348194,0.5887036065,0.259608288,1.2472587979,0.1717566319,-3.5135873982,-0.8180457751,0.0725947538,-0.1322732479,0.6494278648,-0.3055822865,1.9455123031,1.9262295133,-0.3895150643,0.5039733963,2.8824997383,0.1375382221,-0.0850540201,0.2465157687,0.5829796154,0.2272261219,0.0201952637,-0.0708126473,0.4513328976,3.7476537586,0.7254390552,0.9865731078,-3.2654688415,1.4416465536,2.9417775796,-0.0710046165
   -2.5337086671,0.1304327006,-2.3469266607,-1.6912999851,0.942470993,1.3980552696,1.2480404654,0.5968404986,1.2881233091,0.4494751898,0.2310394209,0.0718318861,2.2666403462,2.8219753458,0.2486638361,-0.1882640455,0.0575828922,-0.6904907461,0.4581942525,0.7150831418,1.9424172392,0.2317054648,3.1469922074,2.1392619881,1.5188641434,0.2785074031,0.7919041581,0.5699888124,0.9313164194,-2.6491365231,0.3280113507,0.766336975,0.9222374711,1.9345806252,3.7661908078,3.3641409038,1.5411631743,-0.0046619836,-1.8972859055,-4.0827742442,-0.2723514907,-1.0301076311,-0.1617953715,0.4224700051,0.3447649066,1.0877259934,-1.4964368176,0.4982521803,0.2897681459,0.1938765137,0.0142386588,-0.192510277,1.1112592634,0.6002265649,16.697866206,-0.1271901098,0.6138591185,2.1695935562,2.5464849836,2.7743440339,-4.4917141959,-3.0699603419,-0.1854422466,1.5630131224,0.3470483152,0.320717228,0.4392861644,0.9855883415,-1.9357033022,0.2200435702,2.0719538606,0.9272180134,0.7836484109,0.2588956821,-5.6126214919,-0.6051741956,-0.014267528,-1.699238202,4.9240358795,1.3620036808,-3.7794523996,5.121424052,3.4586510201,-2.5909364457,0.3484891406,-0.0020176262,0.8641201975,2.0644990799,0.2492204703,0.5346774379,0.8513157628,6.6955922771,7.0011340031,0.8297371257,-0.6076581128,-0.0543502171,2.1380296427,1.4058094957,-0.4299155974,-1.1827126958,-10.7160251974,-0.8248064931,0.680025512,1.9770616783,16.690946259,2.0354278639,0.2185089175,-0.6653296885,0.7096724348,-0.30681761,0.8984866987,0.5656771195,-2.1524295173,0.3602499097,-0.5338293147,0.3576297172,7.9934797374,-8.1805542796,-3.1794607722,-0.3256921918,0.4428107889,-3.1855067893,-0.6569892089,-0.8843964282,-0.958526833,-1.2501454966,1.3585410755,4.4532207842,-11.8076711615,2.1320826638,0.4327360645,0.0727321708,0.1904370111,1.2617613065,9.6501356788,0.6319686301,0.8314095149,-0.3079431836,0.0748250755,0.8576011531,-0.9292088486,2.9438400663,-0.2898655464,-0.2545148819,1.4241921483,1.0876248911,1.1977226729,2.4197797746,-0.759206497,0.6692751703,-0.187035062,2.3035963718,0.9468247431,2.4068830637,-1.0923231819,-0.6641601134,0.4861683435,0.6130652094,1.6799438978,0.7292901824,0.6835182096,-0.3664298604,0.2430215426,-1.1693831919,0.21497532,0.5861923945,0.5383079383,0.650410026,0.395595479,0.2095179281,0.3818502695,0.4612134096,-2.0774600151,0.2745482292,0.6141425368,-0.4272830041,0.9636516552,1.9526063189,0.7928093649,0.5358841121,-0.0082381427,0.288005739,0.1762953927,-2.3392649798,-5.8929378435,-0.0682710495,2.6650894481,-0.0768406002,-0.6170625559,-0.217506967,0.6389759227,-0.6293804612,0.1334789436,0.3010618603,0.4388315578,0.8082274294,0.2139914111,2.3454390018,-0.035064187,0.0736979444,0.319606646,0.1874554779,0.2381765346,0.0553945445,0.2114992446,3.3937155426,0.1139549096,1.4153136028,-0.0233008123,0.3448821873,0.3295322002,-0.9535137244,0.7067623093,1.1763505983,-1.9610375881,-1.3694479195,-11.800921718,0.8097371043,2.1706294339,0.6325219571,1.9619517555,0.2814795215,0.6612414637,0.6082372636,0.3509822304,0.9025150005,-0.9263557211,0.7649709325,11.6016563734,-0.4450118729,-1.7998539109,0.9768166695,-3.3290787067,0.3946476979,-0.0157056619,5.628921517,0.5030383437,0.6749738259,0.1078897518,0.6185624656,0.5252198792,0.8102754588,0.6880910658,0.2600501491,1.690169452,0.0680274373,0.4379565225,-1.2955004535,-1.7415553449,-0.7027468546,0.0392927002,-0.4174269385,0.0929762686,0.3032049346,-1.0397078361,0.2651762657,-0.8351046249,0.1406236796,1.90155058,0.9883614409,-1.6716498548,1.8712600174,0.6213817071,-0.0592804444,0.1262101012,7.2594152692,5.4904425291,-1.5616752464,1.824580763,-0.1073934837,0.6142244044,1.9355469673,0.2215996154,2.200834814,-1.6687182696,1.1936035888,0.3819788109,0.0391627866,0.4243649683,0.8443503204,0.7164314326,0.5071910699,2.8934066385,0.5040626884,1.0623894969,-0.0011066363,0.5688355252,0.7514220398,-0.0588146575,0.3607767951,0.1673780974,0.1285126352,3.2002684754,-1.5857850335,1.0470689681,0.2700860876,0.4888016106,0.4733943833,0.5872415881,0.5349529683,0.9977907004,1.1309139827,0.1747488999,0.3089508014,0.4398352028,-0.2184574016,0.5151549146,0.1245789863,0.1905767966,0.1338256452,0.0681672298,0.1315107156,0.084660503,0.3184592266,0.340190531,-0.0596197875,0.4015922203,0.8578692931,0.4331099561,0.4677224682,-0.1145367832,-0.2519273678,0.2113732769,0.8174544157,-0.3837936883,0.1698634695,-1.4643090331,-0.6152735897,-3.3417379592,-4.2698905757,5.6385838703,-0.4747437647,41.8194801638,-1.6681250209,2.3017723754,2.4193933437,0.6804679856,0.0908982908,2.4418389128,-2.094885661,-0.981488454,-0.9430455117,-11.9514919106,0.1249657765,-1.2685836133,-0.4003771659,-0.9551419463,4.1813467801,9.6249146959,-0.322008789,0.9308294905,0.040192556,0.3853304597,-0.3430374582,0.2877870285,-0.3013832472,-0.0184025288,-0.5774890985,2.4757766089,0.3650028155,2.4577188789,0.2255618907,0.1373084683,0.0729204541,1.3151722658,0.8860234988,1.9711097513,1.2105525417,0.0308066267,0.4289071969,1.5341384434,-4.734863221,-0.4252458813,-0.2014062003,-3.1720410311,-1.6190895679,0.8449893751,-3.4417093221,-0.3836970645,5.7757065583,1.9265563874,0.5750014456,-0.2194070761,1.5216620231,0.0601218435,0.5956850233,0.8995723022,1.7826329645,-0.0999185802,0.0687010642,16.0650522466,0.8616708107,1.6908797104,-0.0925467519,0.1118688442,0.9566617182,1.1054638744,1.219735962,1.0468065166,0.3179107289,0.1204752799,0.3623212335,-0.1124465022,0.5458470247,0.4171564263,0.0499900593,-0.0333219514,1.2943832497,1.8327977922,3.4679316405,-0.1380449447,0.1668911489,0.1035389695,-0.5235854719,-0.3508349008,-0.2869266081,1.3770330164,2.6361960476,-0.2464372796,0.0575527601,0.2489154555,0.293032945,0.3283592816,-0.5304873461,0.3749766804,0.053889705,-0.0814894958,0.9351917543,-0.5214078846,0.2340813002,0.2772265581,0.0286652294,-0.4386200967,0.8379603479,0.6738654623,0.2167996413,0.7822131725,0.0984235996,-0.0313389152,-1.9374439888,-0.1115337129,0.5142511784,-0.289603696,-0.8135388009,-0.2061674916,-4.1956336871,4.5014657297,-0.6445980986,2.5865386431,0.4841940413,4.5009179452,0.5089892657,-1.4814702395,0.7614692731,0.7034183902,1.2729516218,1.1359608677,0.6726130721,-0.0688996912,10.0912978778,1.913776921,1.334324066,1.0181343504,-0.8315024365,0.9944580083,4.0002583631,-7.7235936251,1.539296535,0.5811189563,1.4951612118,0.5066571041,0.7401744818,-0.9109792427,0.5885344798,-0.4753555657,-1.9308811451,-5.2777532879,0.5881100871,0.5773211707,-1.0628409831,1.2775697426,-0.2995615495,0.9878231996,-0.3482142897,0.0954918077,0.2978511141,0.191621755,1.1098831167,0.2774357028,1.4365624566,-0.1897496526,0.4427724307,0.3672233271,2.3000449062,-0.0979675105,0.2213217209,1.6834498351,-6.3098010762,5.943752436,-1.5127725597,-2.8784121131,-0.5262691011,0.4903299369,0.6887393901,-0.0049133766,0.4789872716,-0.4694567958,-2.1984172885,1.2039935818,12.9987221683,-0.7236823683,-0.8829207507,-0.0127250784,0.3217365234,-0.2127450749,0.1430930343,0.5927400758,0.8303062553,-0.1401933333,0.4532185974,0.8855068221,0.3465286771,-2.367867122,7.5068340164,-2.6567322057,2.3149099721,0.4589808635,-0.0159339561,0.0423275919,-0.3416898391,-0.6764972105,0.0716478375,0.4555501743,1.4962952568,-0.7887196048,0.0449849721,0.8502464886,-0.1065126056,-0.158804009,-0.4439478988,-0.1604297452,2.7520899876,0.2288364846,1.8273861319,0.4227277273,-0.5475154328,-0.6388587856,1.9897775123,1.1081312299,0.8230510932,0.3104486191,0.6456208018,0.227323219,1.0167977805,1.2412054897,0.2579759514,-0.9518710009,0.5715686963,0.5757567147,1.7275179899,5.4720587424,-0.711141446,-4.4645099833,1.7521948828,-2.0922306718,0.7615586865,1.4928735169,0.6808169753,1.2478757033,1.2660269268,1.0693093176,0.2416291707,0.3702735168,0.8060886916,6.5243347141,0.4719016633,2.3869438915,0.3396734932,12.0108974215,15.4905108687,-2.117341097,1.346594905,2.2308103489,-1.1848399433,0.9907519001,0.8035103483,0.4407862406,0.8347932358,0.5778324322,0.2113880356,-1.4177405102,-0.8352472598,-0.9997651117,16.8466666138,-0.0035881537,-0.0365342758,-0.2137105543,-0.1054886468,0.1893126449,-0.1002538255,0.4636812452,0.2531945837,0.4506614345,-0.6296765793,-1.2025161013,-1.7949137941,0.2818240717,0.9604775454,5.7902540894,0.9676949623,-0.1385792354,1.1950608863,0.646661988,-13.2487559724,-0.2599518617,1.5451085618,-0.9958302792,-0.8422393344,0.9050612826,1.5939677836,4.2863187501,0.0111107831,-4.1050454064,0.2023109887,0.1073739974,-0.6794995612,1.5058470054,1.6676956791,1.0124668478,0.6274190895,0.3819442913,0.318699324,0.5404377512,0.7358043569,-1.5631127312,-1.1961078682,-1.8798143714,1.0456858187,6.6291166571,-7.2215672903,0.5265948073,-1.6313111946,0.6041150639,0.0597862699,0.3524740116,0.3925105611,0.1182241023,0.5174061126,1.1755019919,0.7114243141,2.6660067042,0.0768268604,0.3959797802,1.3737712653,3.8078078764,-0.1249092203,1.2454357422,0.2305959099,0.8634679907,11.3115414706,0.0583629621,1.0106107749,0.5474333034,-0.0338266239,-1.7297232192,0.3547182491,0.3765742849,0.6267686803,0.3203463955,-0.0973744434,0.217359087,0.3482982404,0.8280677964,-0.5807566038,-0.008021142,0.4351936498,-0.3062977023,-2.8252925875,-2.8136488024,-0.0566242853,0.3433744809,0.5002737419,2.1765403327,1.2951983027,3.9237823184,0.0386336922,0.0636858004,-0.5901432901,0.7220010947,0.6113018983,2.4098743306,2.967946159,-0.5939880262,0.0363479684,0.7668569272,5.7499504681,-6.4863836549,13.2441172489,-0.8441508437,-9.9896500053,0.3384396063,0.1239785245,0.2841344958,0.6445843211,0.5472819496,0.4399809472,-2.5951836699,-8.0031456372,-1.5606061238,-1.2741508814,0.7211987841,0.1604180831,0.1316350717,-1.0317618982,7.4795393526,2.7433687332,-0.1770008325,0.8871719488,1.0096985224,-1.2453562873,2.9216661151,0.7171559657,-0.6152820828,0.4810152917,4.499621418,13.5062105199,0.3594562825,12.0695849747,4.0064835976,0.5624970458,0.0963266866,-1.3076663927,1.6808940819,0.7840265179,-0.023781076,2.3272809566,-1.3558394594,0.433052679,-0.1355427741,-0.1869537993,0.6698770494,0.6824953978,0.6150368472,0.2357962034,0.0577540436,0.2919812148,0.6634054416,1.0453726399,4.1503584214,-0.4784736596,-1.369553318,0.4636854907,0.4346857456,0.758260711,3.3361795654,4.275245573,-10.2787614714,3.842212565,0.0764028704,1.0634987731,0.6734865449,0.2239838607,0.2436798051,0.2585992446,-0.7422805525,-20.8796135308,-13.9281619029,-0.3720324836,-0.729601802,-0.4364338027,11.471041136,2.4182451947,-0.5473307899,-0.028258948,0.3603583054,0.4236149828,1.620353978,-0.3338133803,2.8019506788,-0.0335527196,-0.0593777272,0.6359684426,1.2820242417,-1.0726443828,0.8565998425,0.6806948586,-0.2280253904,1.4222573735,-0.0842061746,1.334254533,0.8236208526,0.4709204178,0.6754627441,-2.4169710649,1.1252335209,1.047796167,7.0560613369,0.2570578342,-1.2645229813,-0.204246921,0.9623989601,1.1250420965,1.0546852059,0.4057101251,-0.2237570955,0.4599486597,0.8487411392,0.3880198543,0.7503290406,0.2957267759,0.7485743808,0.807113203,0.5674523293,1.0404657419,0.0698624665,-0.5958731999,0.3416149408,0.1671734848,-0.5980007533,-1.7578197544,-0.1919267096,0.7816931883,0.8526843028,-0.9512423182,0.7109462932,0.1603880353,0.5806569209,0.0903435428,0.6710639067,0.178575495,-4.0651933246,0.3243152682,1.1161912671,1.0292755425,2.1197079152,1.3049552593,1.8149065031,0.5956210274,0.7603107742,0.4753690667,0.4753668733,0.1396615567,0.6078929772,-0.2313738377,-0.1196701359,0.5476698954,0.5343777874,0.7320438046,-1.7275354764,0.4329109308,0.1116538252,-1.1675065886,1.5395045536,-0.4365372111,1.7517919783,0.0738709752,1.7817120081,-0.0771944186,-2.127022879,0.2074557251,0.8122931462,1.0019361184,0.5551467273,0.7857571159,1.1814356737,-0.558505944,-1.4962266902,0.3884245802,1.317018198,0.0701561267,-0.7508479755,3.3146105817,-6.1311361838,-11.6687873197,0.4513307333,-0.7386561212,0.3037152851,0.1466632364,0.0371696408,0.753129979,1.437639203,0.8464439683,0.3074357938,-9.1160671304,-1.7637678776,-0.585090956,-1.1587557649,0.1737295467,0.7985329223,1.1232152953,-0.1021162495,-0.1916783689,-0.25997748,0.7794489131,-1.7102090879,0.8261576594,1.255197727,0.1586785661,-0.2297263976,-0.0490607565,0.1464462843,-0.8811528684,-2.1816174449,-3.9047031265,-0.0939909395,-3.1021755433,-2.475569521,-0.560442127,0.8118241095,-0.7978782325,0.0737592149,2.46487083,1.6150054109,1.134679356,0.6693427791,0.1860262674,-0.2136844427,0.6469406019,1.2730007231,5.4567576974,3.1295363662,0.6996639649,0.268011687,0.02066898,0.0993685009,0.6984441658,1.1604067377,0.2351894238,2.1077595643,-9.6202147402,-8.1513247423,-0.167616034,0.3161544532,0.5045690388,-0.8924388354,-0.7432785491,0.9847965247,-0.9827330628,-11.297506113,1.850011386,6.9345083049,0.7483961207,2.3948375278,0.2959350069,-0.7910260128,0.7733200361,-0.2326661234,0.5179202341,0.4400195531,-0.2468620984,0.4408736961,4.2345258986,-0.7823997093,-1.2575246612,0.8345290276,0.9186936985,0.408086981,-0.2119860478,0.121183053,1.1514307511,8.3884673961,-1.1731634158,-0.2448127345,1.149793912,0.071704244,0.118957671,-1.8734043675,1.4367483449,0.3209850724,1.679480432,-17.8653584779,0.5122406367,3.7043760535,0.2784771659,-11.1236734469,0.9557895751,0.8107915601,0.1909996217,-1.3179935549,5.009695525,0.6619361197,0.7433819204,-0.0439137931,10.3719520842,9.2765083868,0.7295376856,8.2083958362,-1.4245650577,0.2562170054,-0.2604488576,3.7060675459,0.5476721108,0.2001315478,-0.4022956696,0.1098862173,1.2000653416,0.9107385051,-1.3281163861,5.172392526,0.6784176543,0.0920963724,0.6413074294,2.4027777291,0.5974837145,0.6011075523,-1.6573719838,0.2410269958,1.2511266578,0.2079493924,0.2642973284,-0.2151864722,2.9107696013,16.0657085955,2.5871425473,0.7041207573,0.6522556073,0.0599733448,0.5570894968,0.470907875,2.5636862279,0.2532525271,0.3064350202,1.0867256407,0.5473503986,0.8031408146,5.6238433437,2.9226615367,0.2252715161,-12.4303910055,0.7316885171,5.1014804031,1.0191295823,1.7367873973,6.0126315751,5.7641626998,0.0558945062,-0.7750365927,0.2232830238,0.4638117039,-2.7863772781,1.9709560998,-1.9830391474,0.7815879597,0.5373031326,-3.0856201091,-11.5550506184,5.4517004254,2.7551572691,0.3579085466,2.057262443,0.6815520198,2.4666954701,12.8460359058,2.5242239898,6.8212579245,2.1068857595,6.3359642226,0.5399305618,-0.305943927,0.0642975531,0.8672090885,-2.2028374349,0.1060945104,0.1448896224,0.9204342992,-2.3138430551,-0.9306385413,-1.1480724324,1.5085606355,-0.0331988141,0.0956865897,0.9089036001,0.6973960183,0.2437822774,0.4120985957,2.0534289222,-0.7238438625,-2.0198521123,5.7632263129,-6.9276176659,0.4785735538,-0.6516969722,-0.0666299265,1.7728365306,-2.8897682989,0.4249984361,-2.0210231481,-0.3008717105,0.2465383804,1.2186038977,7.4587989252,0.1753658288,0.1050676119,-0.6309471093,-0.4487261657,0.0999171643,0.3909598915,2.4546429315,0.4982686483,0.5654049879,0.2559218149,-2.1118404973,-0.320000554,-2.7933084147,1.7395228619,2.394863155,0.1605606021,0.1037406394,0.3403642992,-0.3733676894,-0.7310115028,-0.9090672457,-3.297259517,-0.4620086323,1.2189078369,0.8902433845,0.673167762,0.8985551339,0.4640244232,0.8337300601,-0.3085585233,0.909236397,0.9658657935,-0.1460852082,0.4462152806,-0.3317448271,0.2057532194,1.2551988931,0.7829368244,0.3108723612,0.3356320776,7.1873708385,0.8152711868,1.4957583579,4.2048978808,-0.0417940219,3.5353824662,0.1806231506,0.0810167059,1.9701597475,-0.3675460793,8.8632817565,3.9873997772,0.274267158,-10.7433921641,0.4459737925,0.5478102378,0.575136282,-0.4597257921,0.8577460533,-1.5720852881,-0.4860955924,0.5064146936,0.667039466,0.6372724308,0.1361900035,2.3995052025,-1.0519728769,-3.2835162947,0.6688592205,9.9121896469,-0.6526704832,0.8926074364,-5.7249671314,0.3825487258,-0.3161532023,0.8175045288,0.7648061643,0.3972518574,0.417318251,3.4285120183,2.0538835664,0.6173166568,-0.1635221626,1.2389481074,0.5089065945,-1.1504848726,10.8072855944,0.2527346211,1.4456935451,-0.2881967105,-0.9598514468,1.4182593007,1.209004045,-0.2399624002,-2.9647779059,-3.6609404158,0.7220414983,-0.30058721,0.5833233622,0.3304883861,-0.1571939624,0.3888604432,-0.8078787908,0.6719614006,0.7906465855,0.3836530145,0.1256839466,0.2474869066,3.1838041156,-0.5056562435,-3.4252532903,-2.874468138,-3.0361530156,-0.5652802697,-1.4146234041,-1.0596293936,1.1391322509,0.7798747708,1.7104864533,4.9598453002,0.6085698155,0.5335634391,0.4806563903,0.542025385,-1.871503601,0.6969735559,0.3483871403,4.0339299454,3.488251759,1.224319792,-1.298946699,0.5080873704,0.4265427031,0.9019846047,0.2635881497,0.9235613192,0.1348213926,-0.4586384789,-2.2939655412,-5.1452467969,-0.6035460613,-1.3642092793,-0.2451587343,-0.9837565914,0.4212556767,-1.2125806425,-0.1698923525,0.1272898435,-0.1312159417,1.3963036539,0.1335430016,-0.5686275692,-0.1371252036,0.6516331468,-0.2945128701,0.5881618032,-0.085694559,-0.5467924592,-1.7291126994,-2.6945292489,0.6265698441,-2.6670141441,1.0749524408,0.2167011197,-0.012687251,1.3622155463,1.6943864424,1.2321694674,2.8760794203,8.8700498297,0.8125464389,0.5507847756,0.0889287634,-2.2128208915,0.6038977565,0.8401844622,0.6053861087,1.769531692,0.5667955388,0.8740389632,0.560183298,-0.0318092176,0.6129763212,1.2110865931,0.4507635687,0.8911853812,-1.6054090422,3.094175899,-0.4818069591,0.980485783,0.2697220065,-0.1789922035,0.1594154262,0.3381127199,-0.8266137413,-4.6761229515,0.018052587,0.4479433917,-0.0794131529,-0.339626385,-0.5542817773,0.0190595471,-0.0658982538,-0.1845445003,0.1689419211,0.2231175112,-0.1166106505,0.5461504521,-0.3134114698,-1.267936399,0.4227062771,0.4273933946,0.8618956939,0.3717218221,0.1069621715,-3.4095744292,-0.0479467892,-0.2030205515,0.2132454248,0.1690591924,0.8428679202,1.7067196824,-0.31168308,0.6356232977,-3.5121520761,-0.0752799855,1.332113332,-0.0573602722,0.5320983812,0.3929752674,0.3848512749,2.2789231681,0.2327272132,0.3514464214,0.3114852566,1.0086009865,1.7733044949,2.3641742529,0.5595301224,2.1020707428,2.5777014989,0.2971005892,1.0720055127,0.817379419,7.2073754864,-1.8442865831,2.5739245382,0.638817041,4.2844576274,0.4920616797,0.4450554004,0.2048448851,0.6404193309,2.2604572463,0.4760694156,0.3198951227,0.1220816745,-1.5073449192,-2.3062499461,-4.6448434893,0.7866364578,0.5202760309,0.2732632929,0.290484411,0.8339053164,0.247925321,0.7288121574,0.0795069344,-0.3931348387,2.8255752554,2.1481223467,16.1798554964,0.5812298544,0.5107784618,0.3587285497,0.1235370646,3.6399872267,-0.561366716,0.5774238089,2.1196746975,-0.2752473745,0.1092134598,0.2736301003,0.9807114101,0.7900121981,-4.261349182,0.6570988952,2.0982516161,-0.819385532,-0.086395615,0.870991817,-2.0183906328,0.2301269522,3.4114864082,0.8056603247,0.2194826772,0.980199169,1.3938063443,-0.8048315702,8.8416458415,0.6192998799,0.513550111,-2.3696107327,0.4437251184,-0.1419348397,1.4739333657,0.3988576344,0.6289790454,0.6483301357,2.086231908,0.5443525906,0.5852116818,0.3774701839,0.7002885979,0.183209293,-0.1435076965,-0.3418763178,-0.6717382308,0.3029494216,-0.4858076964,0.2063764531,0.3405573279,-0.0644570302,0.0575459054,-0.1344050412,-1.3454944093,-0.7079335988,1.5758978586,4.0358873113,0.3517954347,2.8189193919,-0.2005419734,3.1257455686,-0.250005245,0.5904286789,-0.2578524544,-0.3984805546,0.2642829119,-0.9843701039,-0.2412546534,1.3980815923,-0.7134797999,0.6911736652,-7.7558212787,0.5069874719,-0.1650988892,-0.0822231058,-0.3184795869,0.6501280058,0.6374935288,-0.7885774557,0.9174132834,-0.770730511,1.1786647716,-0.264876482,-0.2356881379,1.0728425343,-1.2276561712,0.189664396,-2.0026355416,-1.8063271144,-1.087864853,-2.2755916568,0.6125029094,0.5581897051,0.4942500644,0.653751656,1.3224506192,1.3849880621,0.168142115,0.5979657151,0.3504372963,0.538910887,0.0070831871,0.4746354299,-0.1893000478,1.5789545741,0.32504394,-0.2125281436,-0.0071675272,0.4338964387,1.1073620994,-0.0745481925,0.1417993462,-0.2844903566,-0.6440727129,-0.2212318904,-0.6452107753,-0.8473251776,0.0649636722,-0.1718401056,0.1392557607,-1.9568822611,-0.3063897677,0.225446315,0.0587279371,-0.5482769006,-0.5981436651,-4.942313636,1.1094851691,-0.6774017653,1.3673719409,0.5927629999,3.7085633643,11.2677860772,-2.8563037731,0.4666463105,-0.0411990668,-3.1624064836,-1.67601827,-0.0107320752,-17.1062050262,0.4518281205,-0.2847580717,0.5431157159,0.3937682328,1.4487073477,-0.648063968,-2.8192072813,-0.4712304246,1.0885558708,0.3561942001,-0.5875717808,-0.0307215296,-8.1797688427,1.3437182689,-1.4474605577,1.158367038,0.422938431,0.1629187358,0.2691953891,-2.8828427222,-0.8214470379,-0.384263082,-0.4233785652,3.097719738,3.629754066,0.2423159351,-0.026529515,0.6102624628,0.3008584136,0.0718217878,-0.1888601268,-0.3715830603,-0.5118869896,-2.4791799826,0.6236985665,-2.0195912586,9.2264151148,0.7134868003,0.6862060264,0.9193496038,0.5675307924,-3.3636472727,1.0777378633,-0.0272289535,0.4518084212,0.1388331945,-0.3871937066,-6.7957085861,0.0459384843,1.8066967335,0.5247301491,-0.403834566,0.4207303031,0.2753619358,0.2239698016,-1.1081824309,0.3847354405,0.6115000797,0.5278480419,0.0028534047,1.3828267812,-0.4346175637,1.2804870957,-0.5530077297,3.7638146993,-0.0513382349,-0.3805846106,-0.0870021688,1.0800066264,0.581925594,0.4094518655,0.1405512311,0.3609184619,-0.2976296142,-0.1963486143,1.3883236174,0.6171905712,1.4554677956,1.3842953678,1.5391417319,-2.3938572166,1.5071982327,0.3173169309,-0.2033622851,-0.1443184283,-1.5368725076,1.3431816349,1.5044479487,-1.7434574713,0.4062900134,0.5666509936,0.8404344466,1.5492336381,1.4243701961,-0.1215123775,1.0122347873,-0.0477833225,5.6563189759,0.305782304,-0.899131712,0.8882874655,0.6594465611,0.299943514,0.0078786549,-1.1378772377,0.0264139562,3.827466556,0.097110448,0.0091111716,0.350471639,1.1653953941,1.1656757714,0.4880423114,1.1736421137,0.5420951073,0.7043217697,0.6508088967,0.5608516055,1.235759745,1.5449646196,0.4624857878,0.5803361732,0.2776914014,0.4389807391,0.1212741801,1.1770245648,0.4858535125,0.1252905183,-0.0964704113,0.3652727784,-0.1454336911,0.5858588204,0.382525239,-0.4303996762,0.0626144217,-0.2862235498,-0.1264466783,0.0747951108,-0.1091389728,0.523349503,-0.1079651217,-0.1720084744,-0.1466662988,-0.1254463053,0.3173402367,-0.7829979669,0.1751056959,0.8240390433,1.2910508652,0.6580114487,0.303269525,-0.0658551948,0.2331731848,0.12617254,1.0297579928,-0.287614035,-0.0147568354,-0.0877493508,-0.8437489385,-0.0521644613,0.3186234754,2.2873763244,4.4374494108,1.452612074,0.281685056,0.3993418562,0.57448694,-0.1298720298,0.5376989303,0.6759986967,1.3782217434,1.5374377851,1.0597690484,0.558013232,0.14262047,0.1349177175,1.3048195717,3.1456980132,-0.1855111371,0.2902937446,-0.5600269555,1.5723607204,-1.954934382,3.1338184709,0.0256682703,0.1132101285,0.8435722238,0.2724039282,0.6616628173,0.9458062086,0.0334956527,-1.4691024327,-0.0993596928,0.1448490405,0.089088327,-0.0218668205,0.9147583102,0.0603552557,-0.1637348766,-0.7044610949,0.5034145398,1.0280928515,0.3461253878,0.1568278368,0.7600455132,-3.4687429691,-1.0945725196,0.6206763017,0.6420875301,0.486312926,0.29666025,-0.0634935126,1.9312265713,0.1716059513,0.0332744404,1.2598284615,-0.1245611755,0.4007195925,-2.1214991942,-2.7847544304,0.4910918385,-18.3160325037,0.9079396554,-2.5102601468,0.5385314139,-1.2290811369,0.8454970164,0.6397193847,0.4535918251,0.339353552,0.39556738,2.2720441092,0.3681653214,5.0602700303,0.3486455357,2.0791010684,2.7227886468,4.7397215599,-2.9203217714,2.7298431296,-13.7411980564,0.4569382922,0.9299255499,0.7418947613,0.4841690131,2.1841720431,0.4635324939,0.6742187098,0.7183426553,1.0482047527,-0.189788786,0.0064945991,-0.0343319524,-1.3235403705,3.0433449759,-0.3613321197,0.5598715361,0.6674438908,0.5880108397,0.5867099506,-0.5198439568,0.5560180192,1.3740936348,0.825785002,1.093448011,1.2815811973,1.4474603732,0.1653263188,-0.1435447854,0.0798994977,-13.2316081385,-0.0322621041,2.2684102875,-0.1645508589,-0.7939135608,0.0598667097,0.0799884307,4.1780595287,1.3371653543,-1.6244948502,0.3499705226,0.3946129438,0.2083728757,0.5624833166,0.4460824371,0.0867089248,0.6093535767,0.7529794952,0.8150808604,0.6448628786,0.8220182269,-5.5794461495,-0.3378172479,-0.1426896698,17.4731444219,1.5233157674,-1.7157317978,-3.2780852992,-4.6402435677,0.868429833,1.0241110158,0.5922040396,0.9176546531,0.0605359462,0.1806772609,0.4576612773,-8.4766711852,-4.9664472396,2.9419237465,18.6639251122,31.5122929867,-0.4141536343,2.5534300499,-0.3549955708,0.280117963,-0.3208323259,4.9643643718,1.3858375273,-0.5209322509,-0.2147073335,1.4589226342,-2.8041830099,1.2014182253,3.1960581374,1.5685676639,0.0788319013,0.7434041015,-1.6175113339,-8.3548872588,1.3831452721,-4.1825989838,4.295529135,0.0002093989,-0.9329963477,2.086499725,0.4500958065,-0.0972645219,1.0097317311,0.8973313528,-0.3244427664,0.2767268978,0.1095542778,0.3507624906,0.940190129,0.2352826576,0.7551636082,0.4471593825,0.9235112983,0.0987429067,-0.0307411371,1.6024027503,1.042479908,3.0899709113,-2.6918258984,4.6574376499,3.0090632872,-2.2484415678,-1.212439401,0.3611641082,-0.1365516666,0.1165232788,0.7167948022,-0.303406814,-3.4412112705,-1.5557825715,-0.7102928382,0.2055435571,0.3208617042,0.0952540283,-0.0438954584,0.1942455782,0.2054034929,0.0892932429,0.898618998,0.5488506679,1.0001996933,0.083119373,0.4896877687,0.9666148732,1.6611392176,0.8059275556,0.0480071703,0.7276756539,-0.0670399537,-0.1192637569,0.1465794161,1.8637678037,-0.2650015917,0.4755548315,1.6306253879,-0.7110834972,0.7614205237,2.2813789904,0.209653397,0.4139429785,-2.3183431411,0.6014302422,1.533636775,-1.2608150718,-2.2332550415,0.9398842263,0.5789824587,0.735130659,1.1553926195,-1.1469427609,0.4023826356,0.1969331368,0.721089097,1.1074949096,0.68242485,0.7223121579,-1.3889499205,-2.8729726257,-0.5534336626,-1.0512897233,0.677435254,0.5147622684,1.6589021287,0.9490413497,1.0910305412,1.8014004386,1.0793787937,0.9793386132,0.8079292986,0.4242472955,-0.0504425803,-0.4607978633,-0.1778449581,-0.2491530776,0.7268854586,-0.5366878347,-0.2026028209,0.1115040467,0.5689922734,0.0074942367,0.1519157312,-0.521157966,1.0230063461,0.3608394001,0.8006370266,0.4897474082,-0.10108297,-0.065498509,-0.0184598313,0.6811552568,-0.0238601977,0.1625421813,0.0174051409,-0.7041241214,0.1221931487,-0.3244278507,-1.2079676801,4.8080145607,-0.1153419454,0.7595590878,0.604350925,0.1795269729,-0.0474518547,0.4777140484,0.3987038854,0.6130965175,3.6150049178,1.5997944006,1.1799959519,-0.3895583872,0.3138805939,0.9452582837,0.8032534974,0.3801099352,0.5516552424,0.7162345203,7.3382490787,-0.1996726852,0.8142198473,0.5568861319,0.7120952947,0.8216461264,0.4712357244,0.6002756522,0.7913559599,1.5444777892,0.4216873129,0.5467082025,0.4202175917,-0.2077444375,0.6274221372,0.548230463,0.040019226,0.4383642969,-0.2756615594,-0.7359115035,-0.2872288549,-0.2760408007,-0.1123661878,1.3601379306,-0.0043888209,0.4698838906,0.5810733567,0.4609947811,0.3567828177,0.3194133788,0.1127850771,5.288962338,0.1412855342,0.0922654099,6.6891828196,0.7685550337,0.6573367811,-1.739146608,-1.1727331318,-0.1198966622,2.4301847208,0.4537997188,0.8307195963,0.6091148144,1.5180700903,0.1593904081,0.2492078302,0.2733949683,0.8197379061,0.2231001002,0.5465613339,0.3272331957,0.4208600156,0.4448697961,0.9120007632,0.488011971,-2.2542680153,0.730253151,1.6769007647,-10.6166050766,1.296601589,0.6421270863,0.5508608753,0.3878173464,0.4874940934,0.4583745,-2.3214861299,-0.637330641,0.8628298837,0.1793390778,-0.1249530674,-3.0390018868,-1.2302828789,-1.1837127228
   0.0313382673,0.2023498275,0.1654715818,-2.0471034086,-0.6567631809,1.0392145594,-2.6057285341,-2.6207535893,1.3412159791,0.1439859408,-0.4138032807,1.286127762,0.4322347891,0.4645353184,0.5813325182,0.3638522175,-3.0354822367,0.142886278,-2.6759743405,0.219447879,-1.8881380456,3.8136651103,-4.7213803082,0.5557813064,-0.5448527082,0.8420297193,-0.3329194618,-0.0159873113,2.7099924893,0.5363654308,0.2728359184,0.8397246791,0.4268024853,0.2202503387,0.4930946685,0.3887921251,-0.8495446312,0.5331277486,1.1999463367,1.2061359078,-2.2215858994,-3.360569234,0.6511560898,-2.0557608968,0.6409528071,0.5310343543,0.1400894452,1.0723962739,0.8706606741,1.271096536,0.3782774142,0.6468861634,2.1016598765,0.4164609435,-0.7296486662,-1.0695648689,-2.390268554,1.1998156679,-0.1045015259,-0.7059510889,0.0802893462,-0.8743400633,1.3195481516,-3.7272837701,-1.2564139898,0.1516385547,0.7257029219,0.8300357518,0.1415482204,0.7929471475,-0.3231577676,0.1307031057,-0.2184566546,-3.1650566096,-0.916353615,-3.3421458078,-1.7641577704,0.5597580607,1.2151987536,0.8943571562,1.3125688271,0.151244599,13.2985926199,-0.0231169815,0.7537527744,0.1611078459,-0.1698730956,1.2835374547,0.7171904363,0.3721322282,2.6535092814,0.1330303478,0.7343941409,0.4945672444,0.1239297867,0.2194548491,0.5003095712,0.426822065,-1.4414994663,-0.5099495605,0.5717747284,-3.0657265421,-0.5512078419,0.3951188245,-0.0057322618,0.3823214611,0.3309965641,-0.3280835444,-2.7625287887,-2.5018622257,0.8942496996,0.4553221119,0.2257864031,-0.1753639181,0.273888725,0.7681797605,-1.15320132,-0.0648486727,4.3413867602,-0.2220382503,0.9609671728,-0.1449703375,4.1459703314,1.609300694,0.0581445217,-0.2985835048,0.1291489248,0.2327714215,-0.1255408538,0.586200472,0.3434954865,-2.9657343157,-0.2119581332,0.3716851731,-0.2997395189,0.8666060969,1.6472449095,1.1122044789,1.719456894,2.8357149028,1.4901385084,0.1913765991,1.2679536524,0.2294678222,0.267736011,0.9509371095,0.355975603,1.3029719018,0.6611730471,0.8152794136,-3.5432419525,0.4500392315,0.7734415709,-0.6362201099,-1.8049990925,-10.3806533677,0.4981114421,-0.3150999918,7.1473226688,-0.5663883555,0.6813872615,0.4666350111,1.0103054473,0.106538053,0.7859602594,0.5040979573,2.3262243021,0.2874712777,7.0956457038,0.7570129989,-0.1245847667,0.4862591519,2.2065467953,-0.2116994836,0.6241934408,-0.1464072108,0.1530684959,0.4666704686,-1.4189282916,-0.2188108006,-0.0347149567,-0.3676895803,-0.8358540278,0.2897979228,-1.1380348225,0.6413558996,0.3683063596,0.1097330772,-0.0354186686,3.8317294242,-0.0142879174,0.5987243668,-2.9040468209,-0.3253458174,-0.2561202412,4.9904806259,1.4734524802,0.4439443375,-22.0119266738,0.6000398768,0.0211248641,1.1647070324,1.3687520674,0.9587172762,0.5844368877,0.5878494806,0.8477237994,0.2313382421,0.2145432554,1.2148364596,-2.6646629952,0.1572545395,0.3397806417,0.5543366014,5.0935775025,3.0466735319,3.0470051388,-0.1929544847,1.0690219365,1.343496993,0.7189496225,0.6659625387,1.5136898646,0.9445304942,2.8353517313,2.1791734206,1.8954297195,0.7618247834,0.1785314398,-0.1354298448,-0.7726311316,0.6970170496,0.1536899674,0.4626959837,0.5482451452,1.6762510334,-0.1442280937,0.7554408324,0.5317208723,0.0498170458,0.0750047921,-0.857721737,-0.1736034776,1.2305488334,0.2307513942,0.2231272127,-0.0800652462,6.4625130356,2.6830681342,0.7828308273,-8.1425583327,-0.1144107319,1.2090542098,-0.0121335971,0.2305410991,1.0553416893,4.1568964444,-1.1817042436,-0.0221368384,-0.0634938322,-5.5139680322,0.8734868686,0.8287470429,0.6075223847,3.3499966398,0.4121240522,0.4781295855,0.7051632955,0.5922720647,1.0570064244,0.8498036322,0.3577782974,0.6935568775,0.1447640797,0.858898461,0.1511013606,1.382635295,0.5512727766,0.5863661724,0.9712023482,0.8322262222,-2.9484891124,0.7999676392,0.3459313613,1.4783347452,0.3554735815,0.1029625715,-0.0206715555,-0.187381238,-0.3388720861,-0.0855131918,-0.3452358512,-0.0060328161,-0.1792405398,0.3324392647,0.0347263841,0.0331240906,-0.7200265088,0.3804621188,0.8444801855,0.3196962191,0.507125323,-0.2328014306,1.789402433,-0.244650023,1.2202129906,0.1388877822,-0.1623667369,0.3038335173,-0.5896432273,1.7587929506,0.4275328878,-0.6888025978,5.1230309908,0.5392482351,1.5024367461,-0.0405782621,0.3070506911,-0.0751698803,0.8163285645,0.6567432476,-0.1825031253,-0.375429073,0.7630621867,0.4747904219,0.3231428323,1.532370411,0.3081290783,-0.302455599,1.9542763581,-0.1810535214,2.7059462303,1.6423351548,0.7005299041,1.4001276911,0.856656046,0.5055711119,0.0086681276,0.0280913781,0.6608974441,0.5050932874,0.8246508078,3.2517350031,0.2683569511,0.7579249439,0.1127195373,0.0992673409,0.4789564423,0.0201391738,0.2095040149,0.2913333927,0.4473048952,0.4716483376,0.3441194214,-0.1884533764,-0.1036131786,1.771717679,-0.6649756636,1.2037162132,1.7143766918,-0.0353140762,-0.2388536698,0.2798601035,6.4356190478,0.4608945299,2.3101608235,0.5568489387,-0.8291276469,0.8854441297,-2.5263510477,-0.6797161446,0.3798974719,-2.9242331404,-0.1676843965,-4.6211869045,5.5117020237,-1.1809701809,2.941287655,0.6310033853,0.4001500235,-0.3748795134,0.0384938733,0.2918678054,1.1491478844,0.3204711319,0.9819884427,1.2117387973,0.5919883301,-5.5840596972,10.8028062174,-8.2588548581,-3.2255692629,0.1377010935,-0.204329423,0.2107674169,-0.3726819894,-0.9226800663,-0.1832533829,1.0983635113,-3.6103734531,2.1860451961,-0.0757017816,0.0822787176,0.4390962892,0.228192843,0.4477384855,0.7236446982,-0.8882426856,0.0769910832,0.3918000923,1.6441375658,-1.9200358684,0.565114289,0.8914019567,0.6288191031,0.0204197575,0.4496169657,-0.3689101112,-0.0359365206,1.5268342508,1.1847628467,3.1490445034,-2.0523766815,-0.8363139093,1.1825744554,1.3819749,0.6677439357,-0.7029002262,0.7486270474,0.3614511726,-0.5333466892,0.8532998911,0.9749977676,1.9291306238,-2.0520585973,0.734268362,0.632863858,1.2034872538,0.3631497791,-0.8774865149,0.5825421546,-0.1607811182,0.4814501656,-0.7582712866,3.0674426139,0.5515233785,1.0907158042,5.3993231584,1.0238619894,3.8986767048,1.0592054231,0.1998066362,-0.3221486741,-0.1423146178,0.3983595904,-0.5476977131,3.1328036971,0.6812462791,0.200262649,-1.1858544137,-0.1070238151,-0.0363098333,-0.4017731676,-0.3331681318,-0.6481996371,0.5887819789,-0.3429121428,-0.443747619,-2.2512984573,-0.2337258211,-0.8905587245,-0.3554637292,3.4096044448,0.6097141503,0.4181769084,0.1912419748,0.1230532365,-0.930521177,-0.4861492008,0.897406115,-1.8049393168,-0.1212043206,0.5712797264,-0.5979215658,0.515324797,-1.2106976921,1.0523187552,0.8839351675,-2.1000450159,0.6256058307,1.7029604753,0.2473180232,0.3176216626,0.0547626684,0.7021004632,0.3639545871,0.5154058294,1.1704820945,3.1127208791,-0.0250688009,0.1335831791,2.0591029592,-0.4049230149,3.5981321399,-1.6878521471,-3.9292576509,-0.4182345525,6.3352257457,0.3497225547,3.2784302123,1.1645321929,0.1913412101,0.5019594406,0.1897551309,0.1898800299,0.4742711538,-1.4731049159,0.17426422,-0.5910644362,-1.0943645442,-3.9624622554,-0.3284493529,0.2341527185,0.2627717484,-0.0421405741,0.5122156845,0.7384333492,0.121084795,-0.329158118,-0.0931943141,0.4683714656,0.2934704268,3.9540963528,-0.0451684856,0.4905188263,0.2626015697,0.2148062716,-3.7271124715,-0.9384322657,0.0034888436,4.557535179,0.1944673503,2.5546259978,-1.5554396793,-5.9286285839,3.7229907625,-12.9361631791,4.201773314,1.749366234,5.2522976807,5.8342458182,0.1561826977,-0.4336511087,0.1100100491,-0.245012204,1.0641095152,0.7728894309,1.2539626011,1.5936182309,1.5743068231,0.8877169843,2.5578771159,-0.8909870753,8.9141825982,-0.6833896865,6.2242529955,0.1605209132,2.9751162637,-0.7396901455,-1.0096268139,0.0683417419,-1.1384269499,1.4427906502,-5.6708962267,1.6588023612,0.5171924398,0.2493296868,0.7347012122,0.7195138551,0.2524892326,0.582302486,6.7349849643,0.6602183508,0.514511571,1.1736127142,0.5347792232,1.2417044065,0.4753123241,0.6026325446,0.1847600121,0.366354382,4.2195668919,0.5291793078,10.3896951181,-0.1558528925,-0.0561542231,0.6613105739,-0.2569255713,0.5548014617,0.4189933438,0.2715632297,-0.0074976799,0.9220148022,-0.7466223737,-0.2344158071,0.5708085552,0.9517185708,0.5629344737,0.4914169223,0.1825090873,0.2820079909,0.7735928001,0.7731544525,1.6297793531,0.4386741956,0.0697746358,4.5742920688,1.6085374751,1.6128509253,-0.6460436154,-0.5537044139,0.031443025,-1.1474763288,0.9296578841,0.3422979108,0.4269806607,0.1290620071,0.1006601325,0.8101884202,0.485356473,0.254670304,0.5348062741,0.2517764405,0.2619515908,-0.063210564,-0.8502213499,-1.3572356767,0.1422185263,0.2530874702,0.2017100191,0.3141519197,0.5113488445,0.499678621,0.0238386171,-2.0281511059,0.191255645,1.7075822197,0.7114057808,-3.0140184611,0.0368723275,0.4909617904,0.4728098562,-0.0839746728,1.6084393902,1.0245117839,0.4429002425,-1.1480649168,0.4634731633,1.729128918,-2.9537864217,-4.4818290234,0.7121315008,-10.7278822051,0.4100492394,2.4599108926,-0.3052866947,-0.8320151358,0.3306276643,0.3027921195,-0.2948382211,0.4426029073,0.5226012655,0.8612634812,-0.7385776319,0.0705018623,0.4378223117,0.5812304853,-0.9324363521,-1.0638555347,34.0863345057,-8.896685719,0.8215862631,0.62041293,0.0472481841,-0.3796760566,0.5443376579,0.5424577821,0.5391028531,-0.4920594293,-0.109640279,-3.1813931526,0.0221115526,0.6888383439,-2.3705157011,-2.8277236938,1.8189849213,0.2594153408,0.5619898306,-0.1215502346,0.4716156222,5.1656214438,0.1945720576,-0.451035685,6.3827039751,0.2664635418,0.4397132559,1.7572118511,0.2926180493,-0.5258528401,0.562153381,-0.3480006344,-0.9444970162,1.1867467656,0.4310151323,5.0267360263,-1.3520627675,0.7492597181,-2.0121691738,1.7354788511,1.397347978,0.1452693084,0.862635397,0.305739582,-0.0818550133,0.0303251461,1.8748125315,4.3959139204,1.3604843746,1.6953189216,0.2601184137,0.3260253181,0.3606413323,-0.0361863952,0.2478221897,-2.4824703443,0.5582921471,3.4040051167,-3.5930851816,7.0361263242,-7.6562677367,-0.4271476231,0.8853063526,0.997528993,1.1032821012,0.4252863703,4.3244000676,0.3675662734,0.1604579341,-1.4406159811,0.3266043841,0.4202389868,-0.2841606583,-2.0099980994,3.1319980114,1.0055153851,0.1338971677,-0.5480128131,0.8829733483,4.5146281103,-0.0920541193,0.2603557285,0.4952227955,1.0560844878,0.5574875876,0.6573630835,-0.9910149172,-0.8721525616,-0.3106918961,0.0487759732,-1.133404246,-0.7200650656,0.2309017331,-1.6264210486,-0.2886251263,1.5173061783,-16.8680201532,2.4789363884,1.898271648,-0.4199649491,0.5389279853,1.4443662471,1.5565324825,1.3281682181,-0.1344187463,0.043129879,0.0083323538,0.2696459016,0.1384382159,0.9416816058,-0.3202091053,0.9495005495,0.3301005283,3.9536377986,-3.9018614342,2.3838198766,0.0545252689,-8.8981040193,7.4969486904,1.1535760467,-0.2882419857,0.0073586602,0.3203177478,0.4087707982,1.2841484184,0.3964649718,0.6319084271,0.9939956766,-0.4479125214,-0.4399285775,-2.4424191095,-3.1027830028,-0.4379032641,0.9914624634,-0.5085858006,0.0028171561,0.2592765522,1.5803317177,0.5681635584,1.0987551491,-7.3851078614,1.3545155007,0.9182513262,1.0019224391,0.5283468916,-0.1256664393,0.4342146482,0.5103301825,0.4570303219,-4.5753769982,-1.2313496012,0.579181332,-0.2316562775,-0.2826809424,1.3705291458,-0.9164272098,0.890104195,25.8131481934,1.2265925017,-0.2402474308,-0.5097232706,2.9329935361,0.661296802,0.4706586132,0.5288216154,4.5351795921,0.7801650332,0.1158586049,0.6213518938,1.7528073814,0.7964038315,0.9914574655,0.2929994878,1.3845514615,3.6560326108,3.3657881077,1.9532660151,1.4853563992,-0.6691701282,-3.3100215078,0.6000148701,1.2102694071,3.0799222185,2.4308876095,7.2987829274,3.6795015318,-0.0484624419,-0.1854943773,0.4712510876,0.6561427717,-12.3222043134,0.2372577053,-0.3653822986,-0.357445829,-0.2373750915,-3.8592006754,-1.61948633,-1.5126860715,-4.2332834116,1.1965345522,0.5864515267,-1.0491957426,0.7944287858,-0.5960046674,-0.7543919156,-0.3331542774,3.7373727756,-0.1413095364,-1.5828906833,2.8438026502,-2.2279448882,-2.4265376256,4.1965354934,2.9953707767,-0.37758428,-5.8220489339,0.3504873788,-1.5361652564,-1.8021859451,-3.2581703286,0.1664297353,0.7515356133,0.7415218897,-0.7298951739,0.9477270579,0.9421424648,0.7014102639,0.325914371,1.6465518142,0.7861345174,2.0714905189,-1.1031284615,14.1038732548,4.1009308668,13.0814165202,0.7644275789,0.7593855991,0.9087390275,0.6037887144,0.1088169843,0.6776079013,-5.1802978403,-0.4388945342,3.867437643,-4.1278491476,-1.0823485086,-0.5044221772,-0.4581547496,-0.4958031355,1.5243223765,-0.0723300613,-0.3289908941,1.4017044842,-2.1671531064,0.1202487291,-0.644824097,0.7057785957,1.5032878588,0.4442894272,0.9823971904,0.7435161222,0.0775881655,-0.3161279582,-1.5038265235,1.7100500873,0.0819994155,1.5627134925,-0.7506581664,0.3736707378,1.8600523349,3.906814288,-0.5023869927,2.9388458748,-9.1363790312,5.7039665021,0.3745084182,0.7291563372,-2.262470677,-0.0877563552,-0.2992847008,1.5290910745,0.8164911724,0.3767474887,0.780719131,0.7300251451,0.1283028322,0.0391580251,-1.1588077268,1.3601453735,4.2113561529,7.2187715788,1.1030016748,0.5915809346,0.584984016,1.343040893,3.5297675543,-0.4877817054,0.106124471,-0.7756805953,0.6100187353,-12.7820426649,0.6111346126,-0.5352365983,1.44482952,2.7724694637,0.0160841695,0.2526903545,1.6154942314,-3.6266047164,0.817054434,0.6169192509,1.8177726987,0.3304181483,0.1864331393,-2.5811711135,-0.127347286,0.252357296,0.3751957035,2.2042919542,3.1018673665,-5.4715018168,0.8564983551,-1.3009896582,0.9675169013,-3.5893210739,7.9823189299,0.2365813562
##end
biasActivation=0,1,1
[BASIC:ACTIVATION]
"org.encog.engine.network.activation.ActivationTANH"
"org.encog.engine.network.activation.ActivationTANH"
"org.encog.engine.network.activation.ActivationLinear"
