FANN_FLO_2.1
num_layers=4
learning_rate=0.700000
connection_rate=1.000000
network_type=0
learning_momentum=0.000000
training_algorithm=2
train_error_function=1
train_stop_function=0
cascade_output_change_fraction=0.010000
quickprop_decay=-0.000100
quickprop_mu=1.750000
rprop_increase_factor=1.200000
rprop_decrease_factor=0.500000
rprop_delta_min=0.000000
rprop_delta_max=50.000000
rprop_delta_zero=0.100000
cascade_output_stagnation_epochs=12
cascade_candidate_change_fraction=0.010000
cascade_candidate_stagnation_epochs=12
cascade_max_out_epochs=150
cascade_max_cand_epochs=150
cascade_num_candidate_groups=2
bit_fail_limit=3.49999999999999980000e-001
cascade_candidate_limit=1.00000000000000000000e+003
cascade_weight_multiplier=4.00000000000000020000e-001
cascade_activation_functions_count=10
cascade_activation_functions=3 5 7 8 10 11 14 15 16 17 
cascade_activation_steepnesses_count=4
cascade_activation_steepnesses=2.50000000000000000000e-001 5.00000000000000000000e-001 7.50000000000000000000e-001 1.00000000000000000000e+000 
layer_sizes=9 17 9 2 
scale_included=0
neurons (num_inputs, activation_function, activation_steepness)=(0, 0, 0.00000000000000000000e+000) (0, 0, 0.00000000000000000000e+000) (0, 0, 0.00000000000000000000e+000) (0, 0, 0.00000000000000000000e+000) (0, 0, 0.00000000000000000000e+000) (0, 0, 0.00000000000000000000e+000) (0, 0, 0.00000000000000000000e+000) (0, 0, 0.00000000000000000000e+000) (0, 0, 0.00000000000000000000e+000) (9, 6, 5.00000000000000000000e-001) (9, 6, 5.00000000000000000000e-001) (9, 6, 5.00000000000000000000e-001) (9, 6, 5.00000000000000000000e-001) (9, 6, 5.00000000000000000000e-001) (9, 6, 5.00000000000000000000e-001) (9, 6, 5.00000000000000000000e-001) (9, 6, 5.00000000000000000000e-001) (9, 6, 5.00000000000000000000e-001) (9, 6, 5.00000000000000000000e-001) (9, 6, 5.00000000000000000000e-001) (9, 6, 5.00000000000000000000e-001) (9, 6, 5.00000000000000000000e-001) (9, 6, 5.00000000000000000000e-001) (9, 6, 5.00000000000000000000e-001) (9, 6, 5.00000000000000000000e-001) (0, 6, 0.00000000000000000000e+000) (17, 6, 5.00000000000000000000e-001) (17, 6, 5.00000000000000000000e-001) (17, 6, 5.00000000000000000000e-001) (17, 6, 5.00000000000000000000e-001) (17, 6, 5.00000000000000000000e-001) (17, 6, 5.00000000000000000000e-001) (17, 6, 5.00000000000000000000e-001) (17, 6, 5.00000000000000000000e-001) (0, 6, 0.00000000000000000000e+000) (9, 6, 5.00000000000000000000e-001) (0, 6, 0.00000000000000000000e+000) 
connections (connected_to_neuron, weight)=(0, -1.03892028449078440000e-001) (1, 1.89837902515263920000e-001) (2, -2.75567189800938310000e-001) (3, -1.78114634362855960000e-001) (4, -6.96671709509485700000e-002) (5, -4.33476756582445390000e-001) (6, -3.84941275592835420000e-001) (7, 9.38807106810885250000e-002) (8, -7.07446979430614960000e-001) (0, -3.43898430540587610000e-001) (1, -1.05110356075616060000e-001) (2, 6.76807467472799300000e-001) (3, -5.98882254174088470000e-001) (4, 6.04877646259849190000e-001) (5, 5.07121554086296440000e-001) (6, -2.18259318042058440000e-002) (7, -1.66583789653835130000e-001) (8, 4.23013716775323070000e-001) (0, -4.06689706148161520000e-001) (1, -3.56372561191789730000e-001) (2, -1.23634525475038240000e-001) (3, 5.39349613572561950000e-001) (4, 4.38882955911067570000e-001) (5, 5.35119227576464240000e-001) (6, 2.77241857422780620000e-001) (7, 2.04065909661556470000e-001) (8, 4.55480185909035160000e-001) (0, -1.84637364547743490000e-001) (1, 3.91653822012812350000e-001) (2, 4.87645505840472390000e-001) (3, 3.28094372937121010000e-001) (4, -4.12044695894376150000e-001) (5, -4.87875515293140550000e-001) (6, -3.55000175219655540000e-001) (7, 4.87859811182164200000e-001) (8, 3.55980268159832080000e-001) (0, -5.47473438790907370000e-001) (1, 2.46598770142666150000e-001) (2, 4.47585103232841200000e-003) (3, -5.55932665094769130000e-001) (4, 1.74493465268698360000e-001) (5, -6.90120750558141150000e-001) (6, 3.04446975937563420000e-001) (7, -2.92365638160092810000e-001) (8, -4.83286310707225940000e-001) (0, -2.41046590204768480000e-001) (1, 1.26475589549376930000e-001) (2, 1.86853036028320600000e-001) (3, 2.62044725445401250000e-001) (4, 3.41881256355697550000e-001) (5, -2.11323996039332110000e-001) (6, 9.94724841643194470000e-002) (7, -1.11287528321447130000e-001) (8, -4.32778129893162060000e-001) (0, 2.32956214026222190000e-002) (1, 4.05220217354919640000e-001) (2, -4.07163197343816120000e-001) (3, 1.68074063005498320000e-001) (4, 4.24733553600562970000e-001) (5, 1.07279684515041680000e-002) (6, 9.07700958881722110000e-002) (7, -2.30743055536429130000e-001) (8, -1.10253288575261790000e-001) (0, -6.50060499090402090000e-001) (1, -6.03399477596496040000e-001) (2, -5.45763351121851370000e-001) (3, -8.92812595545727920000e-002) (4, 6.24031429638184700000e-001) (5, 5.43980858703092870000e-001) (6, -2.29496955303143980000e-001) (7, 1.84360762319897560000e-001) (8, 5.86055817198302020000e-001) (0, 3.49907682988748360000e-001) (1, -5.98665640772279130000e-001) (2, 1.08512210023436280000e-001) (3, -1.85185637938012790000e-001) (4, 3.81345405480619400000e-001) (5, 1.86187785293517230000e-001) (6, 3.68938526334786580000e-001) (7, 6.60873766571218440000e-001) (8, -5.21007689046499740000e-001) (0, 6.41241919576472250000e-001) (1, 5.39455821178025490000e-001) (2, 1.50598790991461890000e-001) (3, -3.61648467946293130000e-001) (4, -1.39547292172801870000e-001) (5, -2.71849734272008700000e-001) (6, -8.15093235124902530000e-002) (7, 2.13000505708034300000e-002) (8, -6.06899702899095120000e-001) (0, -8.27795025355723830000e-002) (1, -3.73522936061796480000e-001) (2, -6.18784748883736470000e-001) (3, -1.01825967441279040000e-001) (4, 6.90578462172289460000e-001) (5, 2.26392252900573630000e-001) (6, 5.83775250549292470000e-001) (7, -4.60386704396583300000e-001) (8, -2.23660116894763980000e-001) (0, -4.29813933531383810000e-001) (1, -4.21511885326078690000e-001) (2, -4.14198770443289840000e-001) (3, 3.26945514933115240000e-001) (4, 5.91730116448101030000e-001) (5, 6.60861971506135790000e-001) (6, 5.76392221809057360000e-001) (7, 6.11318514254972860000e-001) (8, -1.46774503933986250000e-001) (0, -2.29394594126875880000e-001) (1, 6.72366941140823400000e-001) (2, -3.38276868414795650000e-001) (3, 6.13261075950064290000e-001) (4, -9.64502734063034940000e-002) (5, 1.62700816035927790000e-001) (6, 3.06805867769540050000e-001) (7, 6.24745491264168900000e-001) (8, 1.92115697057163110000e-001) (0, -6.33396862366137900000e-001) (1, -5.24561538762359340000e-001) (2, -4.01695902436426220000e-001) (3, 3.31426427082180450000e-001) (4, -5.18110964416695020000e-001) (5, 4.21177623108939190000e-001) (6, 9.26192964848241150000e-002) (7, -2.35333850920686290000e-001) (8, -4.35032933660519980000e-001) (0, 3.13521347179706200000e-001) (1, 1.54503443687305450000e-001) (2, -2.11302331480534400000e-001) (3, 2.78632291815627540000e-001) (4, -5.85591874353023960000e-001) (5, -2.44900564810312610000e-001) (6, 4.71496041186634630000e-001) (7, -5.34802068120978190000e-001) (8, 1.53565303838489930000e-001) (0, -6.89363078137749440000e-001) (1, 4.68264838307879790000e-001) (2, -4.55030187850375470000e-001) (3, -7.31922423249766200000e-001) (4, -2.13006459013050100000e-001) (5, 1.67171687282882260000e-001) (6, -3.45103523082199100000e-001) (7, 1.64201933960899600000e-001) (8, -5.27363026767189380000e-001) (9, -2.86924580367098670000e-001) (10, -5.61547708968965440000e-001) (11, 6.08176773628729350000e-001) (12, 2.13387601458737280000e-001) (13, 3.95139735689530170000e-002) (14, -2.62455643652820700000e-001) (15, 1.30328063506757300000e-001) (16, 5.99596386562856330000e-002) (17, 3.80279386252107000000e-001) (18, -6.00444862916081790000e-001) (19, -5.84660573548406950000e-001) (20, -5.30930351094209830000e-001) (21, 5.11485698415200860000e-001) (22, -2.15762788719496640000e-001) (23, 3.00897484191504740000e-002) (24, -8.81613334656455860000e-002) (25, 6.51517432232252560000e-001) (9, -3.62858759295907330000e-001) (10, -3.23436399931503470000e-001) (11, 2.82164272120443930000e-001) (12, -6.44002621721389670000e-001) (13, 2.44359866000674970000e-001) (14, 2.62715228740306890000e-001) (15, -5.15943176654731880000e-001) (16, 3.17844515582677290000e-001) (17, 5.58875133238474710000e-001) (18, -6.27942538981154820000e-001) (19, -8.07854467061059660000e-003) (20, 4.65842657562783650000e-001) (21, -4.90129235818034800000e-001) (22, -4.67393068273852300000e-001) (23, -4.28241724975050810000e-001) (24, -4.34437278427980130000e-001) (25, -5.36259470898444830000e-001) (9, 3.14147768045868410000e-001) (10, -2.43366703165392250000e-001) (11, -1.94960298790599260000e-001) (12, -4.21123738526898940000e-001) (13, 6.67833147107702700000e-001) (14, 5.44377156008876370000e-001) (15, 6.04755521852808270000e-002) (16, 7.34095745401580760000e-002) (17, 2.66544135898674820000e-001) (18, -6.70988753927353350000e-001) (19, 9.69460846193269670000e-002) (20, -5.53742801481869190000e-003) (21, 5.93116303934854370000e-001) (22, 3.55463409616530950000e-001) (23, -4.06262120619490850000e-001) (24, 1.66035888976589330000e-001) (25, 2.74808269703106340000e-001) (9, -5.26951005608990330000e-001) (10, -1.47253157169053960000e-001) (11, -2.60934894107228420000e-001) (12, -5.97065495443442340000e-001) (13, -3.82341351230167160000e-001) (14, 6.69032337678823090000e-001) (15, -2.79205776244282610000e-001) (16, 8.80907521605062140000e-002) (17, 3.49360121577311500000e-001) (18, 2.48558336898210860000e-002) (19, -6.05578033719442740000e-001) (20, 3.02537350904590000000e-001) (21, 2.34335160202425810000e-001) (22, 1.00577927506476890000e-001) (23, 5.99319481818357880000e-002) (24, -1.01085244387731230000e-001) (25, -4.38532592578360410000e-001) (9, 6.07734969034385620000e-001) (10, -3.55249614518345290000e-002) (11, -4.17906889720181750000e-001) (12, 3.49815956411968390000e-001) (13, 4.15614193253590450000e-001) (14, -5.34139415942517240000e-002) (15, -5.12614684491012220000e-001) (16, 5.77786865470705240000e-001) (17, 3.34728603087058820000e-001) (18, 6.50143924917994000000e-001) (19, -5.06016081137624970000e-001) (20, -4.54745397105479340000e-001) (21, 4.46053539792933340000e-003) (22, 5.67541554498941950000e-001) (23, -2.57199611092056860000e-001) (24, -5.34092736074375460000e-001) (25, 6.70791204480788990000e-001) (9, -5.80696386649447120000e-001) (10, -8.17086280804572710000e-002) (11, -1.62661326350108830000e-001) (12, 5.04747139099806170000e-001) (13, 6.87432295313645140000e-001) (14, -5.88711336089075110000e-001) (15, 9.11056406510492130000e-003) (16, 3.75223161559382570000e-001) (17, -2.56421170535140850000e-001) (18, 4.01395279969250280000e-001) (19, -5.18157614318542570000e-001) (20, 3.64734343095780400000e-001) (21, 2.62093535455787560000e-001) (22, 2.59306241557848040000e-001) (23, 2.91948810001460560000e-001) (24, 6.54589149200610900000e-002) (25, 2.18108138091615080000e-001) (9, 4.58868240981366250000e-001) (10, 1.58995546125037940000e-001) (11, -3.49455774002799760000e-001) (12, -7.16898780683188690000e-001) (13, -4.81984318501683550000e-001) (14, 6.52372130707994380000e-001) (15, -5.71287332116784290000e-001) (16, 5.66961087854605750000e-001) (17, -6.27484270521885820000e-001) (18, -1.97578462159009430000e-001) (19, -5.56708998939547280000e-001) (20, -1.37683290630898920000e-004) (21, -4.09269192147179220000e-001) (22, 1.07032323202422810000e-001) (23, -5.02420054840831080000e-001) (24, 7.36879804417101550000e-001) (25, -3.85020346689326000000e-001) (9, 8.90351372614444500000e-002) (10, 7.97288126904484480000e-003) (11, 3.20420684449869990000e-001) (12, -9.04445398710529700000e-002) (13, 2.44875290958611460000e-001) (14, 6.04583200730116950000e-001) (15, 5.12843136905875800000e-001) (16, 1.36398953073572080000e-001) (17, -2.33348511790133630000e-001) (18, -7.17888210600787110000e-001) (19, -5.79146386549038380000e-001) (20, -6.10979023953219240000e-001) (21, -2.55504329720781240000e-001) (22, 3.01770328362763020000e-001) (23, -4.12461042625503430000e-001) (24, -6.68916030497603730000e-001) (25, -5.10987961987811160000e-001) (26, 2.48822765518190440000e-001) (27, 1.88863942054947800000e-001) (28, -4.56715254690356130000e-002) (29, 4.96441109155470070000e-001) (30, 3.19309302660362500000e-001) (31, -2.86383532798273170000e-001) (32, -6.17550072310959710000e-001) (33, 5.48478112083493950000e-001) (34, -8.65787736540667980000e-002) 
