FANN_FLO_2.1
num_layers=4
learning_rate=0.700000
connection_rate=1.000000
network_type=0
learning_momentum=0.000000
training_algorithm=2
train_error_function=1
train_stop_function=0
cascade_output_change_fraction=0.010000
quickprop_decay=-0.000100
quickprop_mu=1.750000
rprop_increase_factor=1.200000
rprop_decrease_factor=0.500000
rprop_delta_min=0.000000
rprop_delta_max=50.000000
rprop_delta_zero=0.100000
cascade_output_stagnation_epochs=12
cascade_candidate_change_fraction=0.010000
cascade_candidate_stagnation_epochs=12
cascade_max_out_epochs=150
cascade_max_cand_epochs=150
cascade_num_candidate_groups=2
bit_fail_limit=3.49999999999999980000e-001
cascade_candidate_limit=1.00000000000000000000e+003
cascade_weight_multiplier=4.00000000000000020000e-001
cascade_activation_functions_count=10
cascade_activation_functions=3 5 7 8 10 11 14 15 16 17 
cascade_activation_steepnesses_count=4
cascade_activation_steepnesses=2.50000000000000000000e-001 5.00000000000000000000e-001 7.50000000000000000000e-001 1.00000000000000000000e+000 
layer_sizes=9 17 9 2 
scale_included=0
neurons (num_inputs, activation_function, activation_steepness)=(0, 0, 0.00000000000000000000e+000) (0, 0, 0.00000000000000000000e+000) (0, 0, 0.00000000000000000000e+000) (0, 0, 0.00000000000000000000e+000) (0, 0, 0.00000000000000000000e+000) (0, 0, 0.00000000000000000000e+000) (0, 0, 0.00000000000000000000e+000) (0, 0, 0.00000000000000000000e+000) (0, 0, 0.00000000000000000000e+000) (9, 6, 5.00000000000000000000e-001) (9, 6, 5.00000000000000000000e-001) (9, 6, 5.00000000000000000000e-001) (9, 6, 5.00000000000000000000e-001) (9, 6, 5.00000000000000000000e-001) (9, 6, 5.00000000000000000000e-001) (9, 6, 5.00000000000000000000e-001) (9, 6, 5.00000000000000000000e-001) (9, 6, 5.00000000000000000000e-001) (9, 6, 5.00000000000000000000e-001) (9, 6, 5.00000000000000000000e-001) (9, 6, 5.00000000000000000000e-001) (9, 6, 5.00000000000000000000e-001) (9, 6, 5.00000000000000000000e-001) (9, 6, 5.00000000000000000000e-001) (9, 6, 5.00000000000000000000e-001) (0, 6, 0.00000000000000000000e+000) (17, 6, 5.00000000000000000000e-001) (17, 6, 5.00000000000000000000e-001) (17, 6, 5.00000000000000000000e-001) (17, 6, 5.00000000000000000000e-001) (17, 6, 5.00000000000000000000e-001) (17, 6, 5.00000000000000000000e-001) (17, 6, 5.00000000000000000000e-001) (17, 6, 5.00000000000000000000e-001) (0, 6, 0.00000000000000000000e+000) (9, 6, 5.00000000000000000000e-001) (0, 6, 0.00000000000000000000e+000) 
connections (connected_to_neuron, weight)=(0, 5.36112798635651200000e-001) (1, 3.77857371710896450000e-001) (2, -3.07023239858386980000e-001) (3, -4.34792800907046920000e-001) (4, 4.41296755919749040000e-001) (5, -1.60852916027231260000e-001) (6, -2.28487045229004320000e-001) (7, -6.79817983522925880000e-001) (8, -2.86632866369767310000e-001) (0, -3.10028173167250560000e-001) (1, -6.67435576749215830000e-001) (2, 2.32487679397975790000e-001) (3, 1.90722498096208030000e-001) (4, 6.53516846897266750000e-001) (5, 6.47761113581473810000e-001) (6, -1.83685739913278860000e-001) (7, -4.14059174816793220000e-002) (8, -4.78885193995286620000e-001) (0, 3.45837805475518120000e-001) (1, 1.23966818335044070000e-001) (2, -5.43822200582366080000e-001) (3, -3.45897297280531650000e-001) (4, 2.25394503846240350000e-001) (5, 8.82084322722828250000e-002) (6, -5.34737747325247150000e-001) (7, -3.02491374781227280000e-001) (8, 6.08809072790073350000e-001) (0, -5.41451590756617080000e-001) (1, 6.12854047426505400000e-001) (2, 2.05344412654914600000e-001) (3, 3.26524825183079290000e-001) (4, -2.17730880410899160000e-001) (5, -6.23176484570670990000e-001) (6, -3.02791046941675130000e-001) (7, 6.97838666797981480000e-002) (8, -5.86962613540947920000e-001) (0, -9.24794185032527800000e-002) (1, 4.57032741227920040000e-001) (2, -6.38294021823813560000e-001) (3, 6.29761801439697840000e-001) (4, 6.01583442217747730000e-001) (5, -2.03879380706373960000e-001) (6, -4.88553152124081680000e-001) (7, 2.79457538287052720000e-001) (8, -4.01860900014287930000e-001) (0, 3.66972158946843260000e-001) (1, 3.67034390516166460000e-002) (2, -5.89134746878214950000e-002) (3, 6.66072906747405380000e-001) (4, -4.89455021734499120000e-001) (5, -6.95940073023357810000e-001) (6, -5.40381777712279240000e-001) (7, -6.06225855343180080000e-001) (8, 5.74516214017289470000e-001) (0, -5.48716891742914380000e-001) (1, -4.65562351650497750000e-001) (2, -6.87974966692228240000e-001) (3, 2.75001285644584040000e-001) (4, 4.05557985446610290000e-002) (5, -4.72451539951330100000e-001) (6, 6.81539397470032890000e-001) (7, -2.50178726170509510000e-001) (8, -1.51508048667512630000e-002) (0, -5.16522459269301510000e-001) (1, -1.00842819270133980000e-001) (2, -6.81407058322598820000e-002) (3, 3.11022956909058680000e-001) (4, -3.79371736341070740000e-001) (5, -3.20694526343860250000e-001) (6, -1.80843508646808570000e-001) (7, -3.48261121987068990000e-001) (8, 6.96170238398364120000e-001) (0, -2.02112535178205990000e-001) (1, 2.03965087880455060000e-001) (2, 2.44974146022067130000e-001) (3, -2.61333114041002850000e-001) (4, 2.65530565823231530000e-001) (5, 5.79450480354342100000e-001) (6, 5.70317012955051990000e-001) (7, 1.16888773419312500000e-001) (8, -6.56790723348348200000e-001) (0, -2.03867187959177780000e-002) (1, -2.74087218815974980000e-001) (2, -6.10275344774323440000e-001) (3, 5.46904886962655710000e-001) (4, -2.63857703765755790000e-001) (5, -4.29004880442563630000e-001) (6, -5.32229224615887180000e-001) (7, -5.36861803059646040000e-001) (8, 4.01758334960358900000e-001) (0, -2.83759985718101790000e-001) (1, -4.67182878033669480000e-001) (2, 6.66018501445756140000e-001) (3, 5.64042843539455220000e-001) (4, 1.16674000869321230000e-001) (5, -6.92873765591988320000e-001) (6, -1.33629845329997080000e-001) (7, -1.73219854513626760000e-001) (8, 5.67360848918028630000e-001) (0, 4.31789705670144260000e-002) (1, -6.90149419382091840000e-001) (2, -4.51115593186000970000e-001) (3, 2.33332446928163630000e-001) (4, -2.96229977021845780000e-001) (5, -1.67561589247100490000e-001) (6, -6.18024040357901930000e-001) (7, -4.86299847517992270000e-001) (8, -6.48214029025246940000e-001) (0, 3.28163828894622870000e-001) (1, 1.00111273281145930000e-001) (2, 4.53418338729124400000e-001) (3, 2.93954747224381640000e-001) (4, -6.81562812611454350000e-001) (5, -4.38748282085490100000e-001) (6, 6.15315699517742900000e-001) (7, 5.70881374274103790000e-001) (8, 6.57769928914162530000e-002) (0, 5.15162441928905700000e-001) (1, -7.01421433169734040000e-001) (2, -1.20934359797548810000e-001) (3, 2.97156027406175920000e-001) (4, 5.76738411961627890000e-001) (5, -9.89920839460036310000e-002) (6, 3.06933553511111460000e-001) (7, -1.85972664150278830000e-001) (8, -3.72092368454005120000e-001) (0, 2.45151688893507520000e-001) (1, -3.90474178795166600000e-001) (2, -6.46133789507050830000e-002) (3, -6.93092837843904850000e-001) (4, 7.17225419423940110000e-002) (5, 6.90520200137586860000e-001) (6, 5.19190170779922130000e-001) (7, 5.03729562573009050000e-001) (8, 3.78932591736338920000e-001) (0, 2.22921870742454950000e-001) (1, 4.45231235817239500000e-001) (2, -1.64194868921811450000e-001) (3, -2.46792286255952780000e-002) (4, 4.55152039758360620000e-002) (5, 1.65721024808817980000e-001) (6, -2.61063106833838430000e-001) (7, 4.95212636726206630000e-001) (8, -9.77171660308688160000e-002) (9, -1.49959124459991100000e-001) (10, -5.13332682821589500000e-001) (11, -9.34017920014466460000e-002) (12, -3.67448819453235990000e-001) (13, 7.60541189982353370000e-003) (14, -1.72114246844514460000e-001) (15, -1.39351810259305380000e-001) (16, 2.31050861050660610000e-001) (17, -5.14547755640194730000e-001) (18, -2.58654733840276650000e-001) (19, -1.15279640979545950000e-001) (20, 1.01284261278084830000e-001) (21, -5.18359921712411080000e-001) (22, 8.29330505580970490000e-002) (23, -4.52531893891751470000e-001) (24, 2.92577132297675010000e-001) (25, 6.62187302293499200000e-001) (9, -4.55876509945293220000e-001) (10, -2.59487831939865240000e-001) (11, 3.88493620716880260000e-001) (12, 1.36869103932617340000e-001) (13, -1.29468837412882450000e-001) (14, 4.40908486653944780000e-001) (15, 9.19173661248314090000e-002) (16, 1.57948696129038800000e-002) (17, -2.42831951351236170000e-001) (18, 3.95257005499705830000e-001) (19, 1.94509420262732410000e-001) (20, -5.88756934476605930000e-001) (21, -5.46610599954725830000e-001) (22, -2.21358874868007070000e-001) (23, -6.91238684252512450000e-001) (24, 2.19105525347150800000e-001) (25, -4.81861989375443780000e-001) (9, 2.08292827795010740000e-001) (10, 3.35089840295670130000e-001) (11, 3.75856707320904810000e-001) (12, -6.65743356948224170000e-001) (13, -6.02593012402267150000e-001) (14, -4.18537590607254040000e-001) (15, 3.66365400911962960000e-001) (16, -5.20236892955943890000e-001) (17, -5.99356395795698880000e-001) (18, 1.69008523524388170000e-001) (19, 4.11566906319219490000e-001) (20, 1.72799074950373360000e-001) (21, -1.96194090034880310000e-001) (22, -6.70133599532900860000e-001) (23, 5.01352507829614380000e-002) (24, 2.13184367470037270000e-001) (25, -4.87122362548484070000e-001) (9, -4.11195780656991030000e-001) (10, -6.86501765997273810000e-003) (11, -3.83247551460567050000e-001) (12, 4.93617627946040420000e-001) (13, -5.23845831025041010000e-001) (14, -2.18416207925753060000e-001) (15, -1.44399884786211970000e-002) (16, -1.65535325093802910000e-002) (17, -2.33000306150287380000e-001) (18, -1.11766401582777380000e-001) (19, -2.26557402005800820000e-001) (20, -1.65687305669092320000e-001) (21, -2.31683740743135440000e-001) (22, -2.44469617473798250000e-001) (23, 6.05562056035078400000e-001) (24, 2.47999226539073640000e-001) (25, -1.54758174721002030000e-001) (9, 5.73531432793267460000e-001) (10, -1.60472474643530340000e-001) (11, -1.78377649004908520000e-001) (12, 5.98801853036571300000e-001) (13, 6.69480073568951450000e-001) (14, -7.59954009460588750000e-002) (15, -7.53993815549304920000e-002) (16, 5.82380603820369160000e-001) (17, -6.49376458293061400000e-002) (18, -1.37177546734633170000e-001) (19, -4.28528550113360220000e-001) (20, -7.41006425539135480000e-002) (21, 2.14744484371364400000e-001) (22, -5.93951723533049810000e-001) (23, -1.02079099824146970000e-001) (24, 3.63209404348582400000e-001) (25, -2.04182400489751670000e-001) (9, -5.30257310308063890000e-001) (10, 2.88600571796323040000e-001) (11, -5.06667717865110560000e-001) (12, -3.61872737962321780000e-001) (13, -1.35929918965698780000e-001) (14, -2.84458955472159380000e-001) (15, 3.65808299160726710000e-001) (16, -5.74847086225172830000e-002) (17, 3.81922836712568210000e-001) (18, 5.51097074101672190000e-001) (19, 6.89573361320389600000e-001) (20, 6.13039164766779330000e-001) (21, -5.68456860542960520000e-001) (22, 6.16310371529309790000e-001) (23, -4.41529154181055370000e-001) (24, -6.81865744136636590000e-001) (25, 1.91986912506200040000e-002) (9, 1.30260090409734800000e-001) (10, -1.32406494312598060000e-002) (11, -4.08324990192558410000e-001) (12, -3.66691912605555670000e-001) (13, 5.27232925257701270000e-001) (14, 3.20783516630737120000e-001) (15, 2.12464260850744550000e-001) (16, -4.35261075136946440000e-002) (17, -4.82442114437755880000e-002) (18, 5.02054458500928780000e-001) (19, 4.76236712760671030000e-001) (20, -6.21780638082200410000e-001) (21, 9.75137630386867380000e-002) (22, -6.12156705009079480000e-001) (23, 3.18498471236108720000e-002) (24, -2.72900340893235840000e-001) (25, 6.48106700478050520000e-001) (9, -6.74396658029332910000e-001) (10, -5.50165508267182140000e-001) (11, -4.93979123984893690000e-002) (12, -4.40752894437160310000e-001) (13, -3.69341987733707580000e-001) (14, 6.31277663616987700000e-002) (15, 1.77166866004383440000e-001) (16, 2.02067303625946550000e-002) (17, -4.02951966730762170000e-001) (18, -6.21739543624284300000e-001) (19, -4.68012628277277460000e-001) (20, -5.28708249338696760000e-001) (21, -1.59503945374156080000e-001) (22, 2.30133944101336220000e-001) (23, 4.71318224481708790000e-001) (24, 2.77593302247556520000e-001) (25, -5.12195606419883260000e-001) (26, 5.48087658841424850000e-001) (27, -1.37864934680650450000e-001) (28, 6.35976019305835250000e-001) (29, -1.59141026637534430000e-001) (30, 1.29585983565051080000e-001) (31, 2.35696235148922320000e-001) (32, 3.00261264821808760000e-001) (33, 3.63187560919613680000e-001) (34, 1.89695736013677230000e-001) 
