FANN_FLO_2.1
num_layers=4
learning_rate=0.700000
connection_rate=1.000000
network_type=0
learning_momentum=0.000000
training_algorithm=0
train_error_function=0
train_stop_function=0
cascade_output_change_fraction=0.010000
quickprop_decay=-0.000100
quickprop_mu=1.750000
rprop_increase_factor=1.200000
rprop_decrease_factor=0.500000
rprop_delta_min=0.000000
rprop_delta_max=50.000000
rprop_delta_zero=0.100000
cascade_output_stagnation_epochs=12
cascade_candidate_change_fraction=0.010000
cascade_candidate_stagnation_epochs=12
cascade_max_out_epochs=150
cascade_max_cand_epochs=150
cascade_num_candidate_groups=2
bit_fail_limit=3.49999994039535520000e-001
cascade_candidate_limit=1.00000000000000000000e+003
cascade_weight_multiplier=4.00000005960464480000e-001
cascade_activation_functions_count=10
cascade_activation_functions=3 5 7 8 10 11 14 15 16 17 
cascade_activation_steepnesses_count=4
cascade_activation_steepnesses=2.50000000000000000000e-001 5.00000000000000000000e-001 7.50000000000000000000e-001 1.00000000000000000000e+000 
layer_sizes=12 13 14 2 
scale_included=0
neurons (num_inputs, activation_function, activation_steepness)=(0, 0, 0.00000000000000000000e+000) (0, 0, 0.00000000000000000000e+000) (0, 0, 0.00000000000000000000e+000) (0, 0, 0.00000000000000000000e+000) (0, 0, 0.00000000000000000000e+000) (0, 0, 0.00000000000000000000e+000) (0, 0, 0.00000000000000000000e+000) (0, 0, 0.00000000000000000000e+000) (0, 0, 0.00000000000000000000e+000) (0, 0, 0.00000000000000000000e+000) (0, 0, 0.00000000000000000000e+000) (0, 0, 0.00000000000000000000e+000) (12, 5, 5.00000000000000000000e-001) (12, 5, 5.00000000000000000000e-001) (12, 5, 5.00000000000000000000e-001) (12, 5, 5.00000000000000000000e-001) (12, 5, 5.00000000000000000000e-001) (12, 5, 5.00000000000000000000e-001) (12, 5, 5.00000000000000000000e-001) (12, 5, 5.00000000000000000000e-001) (12, 5, 5.00000000000000000000e-001) (12, 5, 5.00000000000000000000e-001) (12, 5, 5.00000000000000000000e-001) (12, 5, 5.00000000000000000000e-001) (0, 5, 5.00000000000000000000e-001) (13, 5, 5.00000000000000000000e-001) (13, 5, 5.00000000000000000000e-001) (13, 5, 5.00000000000000000000e-001) (13, 5, 5.00000000000000000000e-001) (13, 5, 5.00000000000000000000e-001) (13, 5, 5.00000000000000000000e-001) (13, 5, 5.00000000000000000000e-001) (13, 5, 5.00000000000000000000e-001) (13, 5, 5.00000000000000000000e-001) (13, 5, 5.00000000000000000000e-001) (13, 5, 5.00000000000000000000e-001) (13, 5, 5.00000000000000000000e-001) (13, 5, 5.00000000000000000000e-001) (0, 5, 5.00000000000000000000e-001) (14, 5, 5.00000000000000000000e-001) (0, 5, 5.00000000000000000000e-001) 
connections (connected_to_neuron, weight)=(0, -3.95345538854599000000e-002) (1, 3.23612056672573090000e-002) (2, 4.66455658897757530000e-003) (3, -3.91398929059505460000e-003) (4, -1.97273809462785720000e-002) (5, -4.60815429687500000000e-003) (6, -1.72119382768869400000e-002) (7, 1.76269728690385820000e-002) (8, -9.68020502477884290000e-003) (9, -6.41906782984733580000e-002) (10, -7.70385786890983580000e-002) (11, -5.24434521794319150000e-002) (0, 4.46961149573326110000e-002) (1, -4.74987439811229710000e-002) (2, -6.35820627212524410000e-003) (3, -1.17339454591274260000e-002) (4, -8.37973505258560180000e-002) (5, -9.86999496817588810000e-002) (6, 2.52868700772523880000e-002) (7, -4.24560569226741790000e-002) (8, -7.58361816406250000000e-002) (9, 5.89598994702100750000e-003) (10, -9.93896499276161190000e-002) (11, 4.27679009735584260000e-002) (0, 9.92335304617881770000e-002) (1, 9.41276699304580690000e-002) (2, 7.35513046383857730000e-002) (3, -3.10385804623365400000e-002) (4, -9.43404138088226320000e-002) (5, -3.63891609013080600000e-002) (6, 9.80957150459289550000e-002) (7, -6.08398579061031340000e-002) (8, 4.12964001297950740000e-002) (9, 8.22204574942588810000e-002) (10, -5.25634735822677610000e-002) (11, -2.10728426463902000000e-003) (0, -2.20286138355731960000e-002) (1, -6.61586076021194460000e-002) (2, 6.38808961957693100000e-003) (3, -1.69547703117132190000e-002) (4, -7.39279389381408690000e-002) (5, 1.09069822356104850000e-002) (6, -8.34167525172233580000e-002) (7, -8.68652388453483580000e-002) (8, 9.94140654802322390000e-002) (9, -3.72924804687500000000e-002) (10, -4.32800315320491790000e-002) (11, -2.78754886239767070000e-002) (0, -1.56465061008930210000e-002) (1, -9.95436459779739380000e-002) (2, -6.17739632725715640000e-002) (3, -5.56090585887432100000e-002) (4, 5.11303879320621490000e-002) (5, -2.42309574969112870000e-003) (6, -9.85719040036201480000e-002) (7, 6.57837763428688050000e-002) (8, 9.45250093936920170000e-002) (9, 9.43726226687431340000e-002) (10, -1.77736189216375350000e-002) (11, -8.05331096053123470000e-002) (0, 1.49207469075918200000e-002) (1, -2.42551360279321670000e-002) (2, -5.08439168334007260000e-002) (3, -2.03862413763999940000e-002) (4, -1.72203965485095980000e-002) (5, -3.60839851200580600000e-002) (6, -2.65014041215181350000e-002) (7, 9.40550118684768680000e-003) (8, -3.49609144032001500000e-002) (9, 3.61022651195526120000e-002) (10, -7.50793367624282840000e-002) (11, -9.53181609511375430000e-002) (0, 7.13091865181922910000e-002) (1, 3.36160324513912200000e-002) (2, -2.97025926411151890000e-002) (3, 2.25348062813282010000e-002) (4, -2.93680187314748760000e-002) (5, 6.05468750000000000000e-002) (6, -4.46042641997337340000e-002) (7, -4.73512187600135800000e-002) (8, -4.43906746804714200000e-002) (9, -5.78614883124828340000e-002) (10, -4.24498021602630620000e-002) (11, 2.75103258900344370000e-003) (0, 4.34644185006618500000e-002) (1, -6.80774226784706120000e-002) (2, 7.86176845431327820000e-002) (3, -7.60778784751892090000e-002) (4, 8.22180360555648800000e-002) (5, 6.15844735875725750000e-003) (6, 7.33887031674385070000e-002) (7, -3.02550755441188810000e-002) (8, 8.44848752021789550000e-002) (9, -6.50146901607513430000e-002) (10, 8.08593779802322390000e-002) (11, 6.36182958260178570000e-003) (0, 7.36050158739089970000e-002) (1, 3.71630825102329250000e-002) (2, 5.33944070339202880000e-002) (3, -3.11213769018650050000e-002) (4, -2.32901014387607570000e-002) (5, 4.71252463757991790000e-002) (6, -4.65271025896072390000e-002) (7, -1.27319125458598140000e-002) (8, 5.81298843026161190000e-002) (9, -6.34643584489822390000e-002) (10, -9.47814956307411190000e-002) (11, 5.68648986518383030000e-002) (0, -7.98805952072143550000e-002) (1, -1.67465361300855880000e-003) (2, -1.87732912600040440000e-002) (3, 4.63122082874178890000e-003) (4, 5.07425777614116670000e-002) (5, -1.21215824037790300000e-002) (6, 5.35276299342513080000e-003) (7, 7.30593642219901080000e-003) (8, 7.68737792968750000000e-002) (9, 2.61840764433145520000e-002) (10, 5.13732992112636570000e-002) (11, 1.49312373250722890000e-002) (0, -6.87565505504608150000e-002) (1, 8.79355370998382570000e-002) (2, 2.23410148173570630000e-002) (3, -5.62912821769714360000e-002) (4, 9.05294269323349000000e-002) (5, -3.93371582031250000000e-002) (6, -1.19873303920030590000e-002) (7, -1.44042773172259330000e-002) (8, 7.53173828125000000000e-002) (9, 9.45617705583572390000e-002) (10, 6.40869140625000000000e-002) (11, 9.63170975446701050000e-002) (0, 8.90731718391180040000e-003) (1, 4.13634963333606720000e-002) (2, -8.67713168263435360000e-002) (3, 1.63660738617181780000e-002) (4, -2.49990895390510560000e-002) (5, -9.64172407984733580000e-002) (6, 5.07200993597507480000e-002) (7, 8.36060121655464170000e-002) (8, 4.12474684417247770000e-002) (9, 6.18164762854576110000e-002) (10, 3.24523411691188810000e-002) (11, -1.49320121854543690000e-002) (12, -5.19518293440341950000e-002) (13, 4.83419485390186310000e-002) (14, -8.92874673008918760000e-002) (15, -8.06621983647346500000e-002) (16, -6.82538822293281560000e-002) (17, 1.49714900180697440000e-002) (18, 4.25753854215145110000e-002) (19, -8.59041064977645870000e-002) (20, -4.33323681354522710000e-002) (21, 2.99340523779392240000e-002) (22, 1.11317336559295650000e-002) (23, -5.30846826732158660000e-002) (24, -3.30025367438793180000e-002) (12, -9.83959883451461790000e-002) (13, -2.92166918516159060000e-002) (14, 6.20872490108013150000e-002) (15, -6.87040155753493310000e-003) (16, -4.22433689236640930000e-002) (17, -1.22555028647184370000e-002) (18, 9.13840532302856450000e-002) (19, 7.02548772096633910000e-003) (20, 3.14331054687500000000e-002) (21, 3.33967693150043490000e-002) (22, -3.87048609554767610000e-002) (23, -9.44117922335863110000e-003) (24, -6.27497062087059020000e-002) (12, 4.09871116280555730000e-002) (13, 4.78475987911224370000e-002) (14, -6.81087970733642580000e-002) (15, 6.44187927246093750000e-002) (16, -8.69575664401054380000e-002) (17, -6.91970884799957280000e-002) (18, -9.78072546422481540000e-003) (19, -3.63391973078250890000e-002) (20, 1.39262592419981960000e-002) (21, -1.78225152194499970000e-002) (22, -6.71178400516510010000e-002) (23, -2.47608516365289690000e-002) (24, 8.51749256253242490000e-002) (12, -2.29762010276317600000e-002) (13, -6.29078298807144170000e-002) (14, -4.96509522199630740000e-002) (15, -7.42093101143836980000e-002) (16, -3.30754667520523070000e-002) (17, 1.93071714602410790000e-003) (18, -5.97190037369728090000e-002) (19, -6.10247738659381870000e-002) (20, -3.06043010205030440000e-002) (21, 9.50336009263992310000e-002) (22, 7.82129764556884770000e-002) (23, -8.40907469391822810000e-002) (24, -6.14674091339111330000e-002) (12, 7.14200064539909360000e-002) (13, -4.78476658463478090000e-002) (14, -5.42700029909610750000e-002) (15, -3.22830677032470700000e-002) (16, 8.76120403409004210000e-002) (17, 7.25290328264236450000e-002) (18, 1.79682895541191100000e-002) (19, -2.38573718816041950000e-002) (20, -3.86153534054756160000e-002) (21, -4.75334301590919490000e-002) (22, 3.22349369525909420000e-002) (23, 6.15204013884067540000e-002) (24, -3.21086458861827850000e-002) (12, 4.43377008195966480000e-004) (13, -4.65090870857238770000e-002) (14, -8.36588442325592040000e-002) (15, -3.60996872186660770000e-002) (16, -9.02726426720619200000e-002) (17, 1.40653336420655250000e-002) (18, -5.40792532265186310000e-002) (19, -9.55149158835411070000e-002) (20, 3.91879817470908160000e-003) (21, -3.81404422223567960000e-002) (22, 7.07076936960220340000e-002) (23, 4.29616160690784450000e-002) (24, -1.27884512767195700000e-002) (12, 3.36893997155129910000e-003) (13, 1.13508356735110280000e-002) (14, -1.00317493081092830000e-001) (15, -5.69233596324920650000e-002) (16, 4.23496477305889130000e-002) (17, 9.86000299453735350000e-002) (18, 6.45852163434028630000e-002) (19, 7.26103112101554870000e-002) (20, 8.82984846830368040000e-002) (21, -3.38146463036537170000e-002) (22, -6.38499706983566280000e-002) (23, -2.32678558677434920000e-002) (24, 2.64192391186952590000e-002) (12, -1.93335767835378650000e-002) (13, 5.22832497954368590000e-002) (14, 7.04280147328972820000e-003) (15, 9.59179643541574480000e-003) (16, -2.43670903146266940000e-002) (17, -6.68080896139144900000e-002) (18, 6.03048205375671390000e-002) (19, 7.89566934108734130000e-002) (20, -7.36844763159751890000e-002) (21, 6.23060427606105800000e-002) (22, -4.53032590448856350000e-002) (23, 7.31648653745651250000e-002) (24, -6.01872988045215610000e-002) (12, -5.21573349833488460000e-002) (13, -2.81175114214420320000e-002) (14, 1.73751655966043470000e-002) (15, 7.31991650536656380000e-003) (16, 9.26763191819190980000e-002) (17, 8.57295989990234380000e-002) (18, 8.43299850821495060000e-002) (19, 8.28851908445358280000e-002) (20, -1.21567454189062120000e-002) (21, 6.98269903659820560000e-002) (22, 6.93380460143089290000e-002) (23, -8.27259793877601620000e-002) (24, 4.93758218362927440000e-003) (12, -5.04269776865839960000e-003) (13, -8.83825570344924930000e-002) (14, 6.68356046080589290000e-002) (15, 4.94943857192993160000e-002) (16, -4.86538074910640720000e-002) (17, 2.08769161254167560000e-002) (18, 4.69635128974914550000e-002) (19, 8.64400714635849000000e-002) (20, 3.32899950444698330000e-002) (21, 6.60235434770584110000e-002) (22, 5.63977733254432680000e-002) (23, -1.02345040068030360000e-002) (24, 7.52057880163192750000e-002) (12, 4.52313423156738280000e-002) (13, 9.67998355627059940000e-002) (14, 2.07696352154016490000e-002) (15, -2.40673851221799850000e-002) (16, -8.69441032409667970000e-002) (17, 5.98770231008529660000e-002) (18, 1.28026101738214490000e-002) (19, 7.32479691505432130000e-002) (20, -9.54551696777343750000e-002) (21, 1.09881293028593060000e-002) (22, -9.26462337374687190000e-002) (23, 1.23316906392574310000e-002) (24, -8.92080292105674740000e-002) (12, 5.01164086163043980000e-002) (13, -8.21300409734249110000e-003) (14, -2.25608775508590040000e-004) (15, 3.00418701954185960000e-003) (16, 2.14078072458505630000e-002) (17, 6.06169030070304870000e-002) (18, 5.29034473001956940000e-002) (19, 6.82702586054801940000e-002) (20, -3.44165042042732240000e-002) (21, 4.71611786633729930000e-003) (22, -7.59445130825042720000e-002) (23, 6.21118657290935520000e-002) (24, 4.92878668010234830000e-002) (12, 9.74739640951156620000e-002) (13, -2.77178660035133360000e-002) (14, 2.73346174508333210000e-002) (15, 6.35247752070426940000e-002) (16, -9.73667353391647340000e-002) (17, 5.98548306152224540000e-003) (18, 1.40504948794841770000e-002) (19, -1.44158245529979470000e-003) (20, -4.41367086023092270000e-003) (21, -2.43262536823749540000e-002) (22, -1.26602584496140480000e-002) (23, -9.16967727243900300000e-003) (24, -9.73980426788330080000e-002) (25, -5.41985966265201570000e-002) (26, -6.71622827649116520000e-002) (27, -1.22947804629802700000e-002) (28, -2.34626396559178830000e-003) (29, 7.12610557675361630000e-002) (30, 9.59576014429330830000e-003) (31, -3.01402974873781200000e-002) (32, 3.18819168023765090000e-003) (33, -8.47898349165916440000e-002) (34, -4.03843037784099580000e-002) (35, -8.04670974612236020000e-002) (36, -3.51266078650951390000e-002) (37, -8.52463394403457640000e-002) (38, -6.98288530111312870000e-003) 
