FANN_FLO_2.1
num_layers=3
learning_rate=0.700000
connection_rate=1.000000
network_type=0
learning_momentum=0.000000
training_algorithm=2
train_error_function=0
train_stop_function=0
cascade_output_change_fraction=0.010000
quickprop_decay=-0.000100
quickprop_mu=1.750000
rprop_increase_factor=1.200000
rprop_decrease_factor=0.500000
rprop_delta_min=0.000000
rprop_delta_max=50.000000
rprop_delta_zero=0.100000
cascade_output_stagnation_epochs=12
cascade_candidate_change_fraction=0.010000
cascade_candidate_stagnation_epochs=12
cascade_max_out_epochs=150
cascade_max_cand_epochs=150
cascade_num_candidate_groups=2
bit_fail_limit=3.49999994039535520000e-001
cascade_candidate_limit=1.00000000000000000000e+003
cascade_weight_multiplier=4.00000005960464480000e-001
cascade_activation_functions_count=10
cascade_activation_functions=3 5 7 8 10 11 14 15 16 17 
cascade_activation_steepnesses_count=4
cascade_activation_steepnesses=2.50000000000000000000e-001 5.00000000000000000000e-001 7.50000000000000000000e-001 1.00000000000000000000e+000 
layer_sizes=12 22 2 
scale_included=0
neurons (num_inputs, activation_function, activation_steepness)=(0, 0, 0.00000000000000000000e+000) (0, 0, 0.00000000000000000000e+000) (0, 0, 0.00000000000000000000e+000) (0, 0, 0.00000000000000000000e+000) (0, 0, 0.00000000000000000000e+000) (0, 0, 0.00000000000000000000e+000) (0, 0, 0.00000000000000000000e+000) (0, 0, 0.00000000000000000000e+000) (0, 0, 0.00000000000000000000e+000) (0, 0, 0.00000000000000000000e+000) (0, 0, 0.00000000000000000000e+000) (0, 0, 0.00000000000000000000e+000) (12, 7, 5.00000000000000000000e-001) (12, 7, 5.00000000000000000000e-001) (12, 7, 5.00000000000000000000e-001) (12, 7, 5.00000000000000000000e-001) (12, 7, 5.00000000000000000000e-001) (12, 7, 5.00000000000000000000e-001) (12, 7, 5.00000000000000000000e-001) (12, 7, 5.00000000000000000000e-001) (12, 7, 5.00000000000000000000e-001) (12, 7, 5.00000000000000000000e-001) (12, 7, 5.00000000000000000000e-001) (12, 7, 5.00000000000000000000e-001) (12, 7, 5.00000000000000000000e-001) (12, 7, 5.00000000000000000000e-001) (12, 7, 5.00000000000000000000e-001) (12, 7, 5.00000000000000000000e-001) (12, 7, 5.00000000000000000000e-001) (12, 7, 5.00000000000000000000e-001) (12, 7, 5.00000000000000000000e-001) (12, 7, 5.00000000000000000000e-001) (12, 7, 5.00000000000000000000e-001) (0, 7, 5.00000000000000000000e-001) (22, 5, 5.00000000000000000000e-001) (0, 5, 5.00000000000000000000e-001) 
connections (connected_to_neuron, weight)=(0, -2.23864841461181640000e+000) (1, -2.57442891597747800000e-001) (2, 1.73787479400634770000e+001) (3, -6.33666515350341800000e+000) (4, 2.17362403869628910000e+000) (5, 2.29507751464843750000e+001) (6, -6.99753761291503910000e+000) (7, -1.08231840133666990000e+001) (8, -8.86083960533142090000e-001) (9, -2.15724802017211910000e+000) (10, 1.28644123077392580000e+001) (11, -4.18204784393310550000e-001) (0, 6.70419573783874510000e-001) (1, -3.78879237174987790000e+000) (2, 1.52717761993408200000e+001) (3, 1.18196620941162110000e+001) (4, -2.96087646484375000000e+001) (5, 4.69766159057617190000e+001) (6, 1.94448318481445310000e+001) (7, -2.74269733428955080000e+001) (8, 4.79744958877563480000e+000) (9, -2.41862945556640630000e+001) (10, -3.70589518547058110000e+000) (11, -6.55350208282470700000e+000) (0, -4.50376600027084350000e-001) (1, 1.41146874427795410000e+000) (2, 6.77121543884277340000e+000) (3, 3.63819837570190430000e+000) (4, 8.94551944732666020000e+000) (5, 2.85389494895935060000e+000) (6, 5.18595516681671140000e-001) (7, -1.01396155357360840000e+000) (8, 3.92546939849853520000e+000) (9, -7.37866830825805660000e+000) (10, 4.37562048435211180000e-001) (11, 3.63129973411560060000e+000) (0, 2.28040289878845210000e+000) (1, -8.21877212524414060000e+001) (2, -3.55170326232910160000e+001) (3, -4.47523736953735350000e+000) (4, -4.85900726318359380000e+001) (5, -1.01307518005371090000e+002) (6, 5.83980989456176760000e+000) (7, 4.71739273071289060000e+001) (8, 5.06267833709716800000e+000) (9, 1.85114479064941410000e+001) (10, 6.04894943237304690000e+001) (11, -1.11548709869384770000e+001) (0, -4.56742346286773680000e-001) (1, 3.60511869192123410000e-001) (2, 2.54333610534667970000e+001) (3, 5.59933185577392580000e+000) (4, -1.11552381515502930000e+001) (5, 1.25149173736572270000e+001) (6, 6.71988821029663090000e+000) (7, -2.66406135559082030000e+001) (8, 8.28148841857910160000e+000) (9, 2.17224550247192380000e+000) (10, -2.01674575805664060000e+001) (11, 1.91544139385223390000e+000) (0, -1.53189206123352050000e+000) (1, -1.30055651068687440000e-001) (2, 1.64907875061035160000e+001) (3, -9.81667327880859380000e+000) (4, 4.38810682296752930000e+000) (5, 2.21615486145019530000e+001) (6, -1.38163995742797850000e+001) (7, -3.95287179946899410000e+000) (8, -6.99454903602600100000e-001) (9, -4.82242059707641600000e+000) (10, 1.92510108947753910000e+001) (11, -8.61737608909606930000e-001) (0, 8.30024814605712890000e+000) (1, 6.72646284103393550000e+000) (2, -1.01803808212280270000e+001) (3, 1.53589439392089840000e+001) (4, -7.02266931533813480000e-001) (5, -7.67594814300537110000e+000) (6, 1.81857019662857060000e-001) (7, 5.52032470703125000000e+000) (8, -7.20972061157226560000e+000) (9, 3.65260601043701170000e+000) (10, 1.02063226699829100000e+001) (11, 3.34910964965820310000e+000) (0, 8.64433288574218750000e+000) (1, 5.12637329101562500000e+000) (2, 1.22809478759765620000e+002) (3, 3.13783435821533200000e+001) (4, 8.57716083526611330000e+000) (5, 1.30046892166137700000e+000) (6, -1.50211669921875000000e+002) (7, -7.05716228485107420000e+000) (8, -4.39103622436523440000e+001) (9, -1.76935520172119140000e+001) (10, 2.50538879394531250000e+002) (11, -1.50880517959594730000e+001) (0, 7.94473290443420410000e-001) (1, -2.20014715194702150000e+000) (2, -1.41565933227539060000e+001) (3, -4.70255231857299800000e+000) (4, -9.98996925354003910000e+000) (5, -6.50523757934570310000e+000) (6, 3.99903565645217900000e-001) (7, 5.10420227050781250000e+000) (8, -6.84667730331420900000e+000) (9, 9.75337600708007810000e+000) (10, 1.18295550346374510000e+000) (11, -4.35062646865844730000e+000) (0, 6.26429498195648190000e-001) (1, 8.55889201164245610000e-001) (2, 5.12232542037963870000e+000) (3, -1.00658738613128660000e+000) (4, -4.64941740036010740000e+000) (5, -7.71092081069946290000e+000) (6, -1.82691688537597660000e+001) (7, 6.90929937362670900000e+000) (8, 2.57821440696716310000e+000) (9, 2.26700568199157710000e+000) (10, 6.33334112167358400000e+000) (11, 8.45947802066802980000e-001) (0, 2.48805122375488280000e+001) (1, 2.10720491409301760000e+000) (2, -3.37054023742675780000e+001) (3, 3.54906501770019530000e+001) (4, 2.86164379119873050000e+001) (5, -3.08370018005371090000e+001) (6, -5.62267417907714840000e+001) (7, 1.43507995605468750000e+002) (8, -9.08485336303710940000e+001) (9, 6.85965194702148440000e+001) (10, 4.94021759033203130000e+001) (11, -1.31703078746795650000e-001) (0, -1.92950572967529300000e+001) (1, -7.82300615310668950000e+000) (2, -8.12691421508789060000e+001) (3, 1.50356950759887700000e+001) (4, 6.60215377807617190000e+001) (5, -1.24656822204589840000e+002) (6, 1.56235504150390620000e+002) (7, -1.74835586547851560000e+001) (8, -9.89229106903076170000e+000) (9, 1.32117630004882810000e+002) (10, -1.00118888854980470000e+002) (11, 1.27961759567260740000e+001) (0, -7.02382028102874760000e-001) (1, 1.57571196556091310000e+000) (2, 9.60748577117919920000e+000) (3, 2.98213672637939450000e+000) (4, -1.11484127044677730000e+001) (5, 8.39637184143066410000e+000) (6, 2.52275085449218750000e+000) (7, -4.84778690338134770000e+000) (8, 3.12446904182434080000e+000) (9, -1.01155138015747070000e+000) (10, -3.91271185874938960000e+000) (11, 5.65465092658996580000e-001) (0, -6.10064697265625000000e+000) (1, -9.04125595092773440000e+000) (2, 4.96713333129882810000e+001) (3, 2.67266025543212890000e+001) (4, 9.90459060668945310000e+001) (5, -5.27414703369140630000e+001) (6, 6.03648948669433590000e+001) (7, 3.14674854278564450000e+000) (8, -8.00779953002929690000e+001) (9, 1.88803291320800780000e+001) (10, -2.23062973022460940000e+001) (11, -4.06776189804077150000e+000) (0, 4.25927591323852540000e+000) (1, 6.11269283294677730000e+000) (2, -4.77155075073242190000e+001) (3, -2.98496170043945310000e+001) (4, -1.54671087265014650000e+001) (5, 5.69558219909667970000e+001) (6, 4.22211885452270510000e-001) (7, 1.09347605705261230000e+000) (8, -1.24363489151000980000e+001) (9, -4.72859323024749760000e-001) (10, -4.39535140991210940000e+000) (11, 1.64182877540588380000e+000) (0, -5.32620697021484370000e+001) (1, -1.42716312408447270000e+001) (2, -5.61275367736816410000e+001) (3, 1.85740184783935550000e+001) (4, -1.14999399185180660000e+001) (5, -1.67750015258789060000e+002) (6, -4.60369911193847660000e+001) (7, 1.83381820678710940000e+002) (8, 7.73250961303710940000e+001) (9, 9.68126373291015630000e+001) (10, -5.46016836166381840000e+000) (11, 9.02202963829040530000e-001) (0, 3.86926651000976560000e+000) (1, 2.87255439758300780000e+001) (2, -9.73525047302246090000e+000) (3, -4.79483795166015630000e+001) (4, 8.01064586639404300000e+000) (5, -1.12445135116577150000e+001) (6, -1.37102270126342770000e+001) (7, 4.10841293334960940000e+001) (8, 1.23037368059158330000e-001) (9, -1.78733787536621090000e+001) (10, 2.11398925781250000000e+001) (11, 5.52802324295043950000e+000) (0, 9.49858486652374270000e-001) (1, 4.10767972469329830000e-001) (2, -1.22622957229614260000e+001) (3, -7.80803298950195310000e+000) (4, 1.29777584075927730000e+001) (5, 2.29654922485351560000e+001) (6, -3.36108922958374020000e+000) (7, -1.20210132598876950000e+001) (8, 2.24143524169921870000e+001) (9, -7.72848844528198240000e+000) (10, -8.26466655731201170000e+000) (11, 2.26604294776916500000e+000) (0, 3.20438423156738280000e+001) (1, 4.40574312210083010000e+000) (2, -8.40120162963867190000e+001) (3, 1.47487859725952150000e+001) (4, 1.23757209777832030000e+001) (5, 1.85619873046875000000e+002) (6, 6.17125854492187500000e+001) (7, 1.89596450805664060000e+002) (8, 1.26652770996093750000e+002) (9, -3.62424163818359380000e+001) (10, -9.25896072387695310000e+001) (11, 1.13806438446044920000e+001) (0, 8.55237579345703120000e+000) (1, 2.92289280891418460000e+000) (2, -5.03478164672851560000e+001) (3, 3.29450378417968750000e+001) (4, 1.74993553161621090000e+001) (5, -4.22112197875976560000e+001) (6, -1.08778600692749020000e+001) (7, 2.33424339294433590000e+001) (8, 1.82136976718902590000e+000) (9, 1.50741701126098630000e+001) (10, 1.88497352600097660000e+001) (11, 3.21517181396484370000e+000) (0, 1.56733655929565430000e+001) (1, 2.92338562011718750000e+001) (2, -1.73457046508789060000e+002) (3, -1.01215065002441410000e+002) (4, 1.18605871200561520000e+001) (5, -1.80825500488281250000e+002) (6, -2.34800155639648440000e+002) (7, 2.01626846313476560000e+002) (8, -1.48363485336303710000e+001) (9, 6.45101776123046880000e+001) (10, 1.98896621704101560000e+002) (11, 1.27904176712036130000e+001) (12, 5.82547307014465330000e-001) (13, -2.39588171243667600000e-001) (14, -1.32339012622833250000e+000) (15, 2.35979199409484860000e+000) (16, 1.55648812651634220000e-001) (17, -5.47693192958831790000e-001) (18, -7.17115402221679690000e+000) (19, -1.18420615792274480000e-001) (20, 9.32058036327362060000e-001) (21, -1.36021971702575680000e-001) (22, -1.76563724875450130000e-001) (23, -9.06471461057662960000e-002) (24, 1.89755067229270940000e-001) (25, 1.80824413895606990000e-001) (26, -1.16686329245567320000e-001) (27, 2.47960865497589110000e-001) (28, 7.13887834548950200000e+000) (29, -9.57860946655273440000e-002) (30, -1.82022795081138610000e-001) (31, 2.23474577069282530000e-001) (32, 3.03463041782379150000e-001) (33, -4.63269203901290890000e-002) 
