FANN_FLO_2.1
num_layers=4
learning_rate=0.700000
connection_rate=1.000000
network_type=0
learning_momentum=0.000000
training_algorithm=2
train_error_function=1
train_stop_function=0
cascade_output_change_fraction=0.010000
quickprop_decay=-0.000100
quickprop_mu=1.750000
rprop_increase_factor=1.200000
rprop_decrease_factor=0.500000
rprop_delta_min=0.000000
rprop_delta_max=50.000000
rprop_delta_zero=0.500000
cascade_output_stagnation_epochs=12
cascade_candidate_change_fraction=0.010000
cascade_candidate_stagnation_epochs=12
cascade_max_out_epochs=150
cascade_max_cand_epochs=150
cascade_num_candidate_groups=2
bit_fail_limit=3.49999999999999980000e-001
cascade_candidate_limit=1.00000000000000000000e+003
cascade_weight_multiplier=4.00000000000000020000e-001
cascade_activation_functions_count=8
cascade_activation_functions=3 5 7 8 10 11 14 15 
cascade_activation_steepnesses_count=4
cascade_activation_steepnesses=2.50000000000000000000e-001 5.00000000000000000000e-001 7.50000000000000000000e-001 1.00000000000000000000e+000 
layer_sizes=12 24 2 3 
scale_included=0
neurons (num_inputs, activation_function, activation_steepness)=(0, 0, 0.00000000000000000000e+000) (0, 0, 0.00000000000000000000e+000) (0, 0, 0.00000000000000000000e+000) (0, 0, 0.00000000000000000000e+000) (0, 0, 0.00000000000000000000e+000) (0, 0, 0.00000000000000000000e+000) (0, 0, 0.00000000000000000000e+000) (0, 0, 0.00000000000000000000e+000) (0, 0, 0.00000000000000000000e+000) (0, 0, 0.00000000000000000000e+000) (0, 0, 0.00000000000000000000e+000) (0, 0, 0.00000000000000000000e+000) (12, 6, 5.00000000000000000000e-001) (12, 4, 5.00000000000000000000e-001) (12, 4, 5.00000000000000000000e-001) (12, 4, 5.00000000000000000000e-001) (12, 4, 5.00000000000000000000e-001) (12, 4, 5.00000000000000000000e-001) (12, 4, 5.00000000000000000000e-001) (12, 4, 5.00000000000000000000e-001) (12, 4, 5.00000000000000000000e-001) (12, 4, 5.00000000000000000000e-001) (12, 4, 5.00000000000000000000e-001) (12, 4, 5.00000000000000000000e-001) (12, 4, 5.00000000000000000000e-001) (12, 4, 5.00000000000000000000e-001) (12, 4, 5.00000000000000000000e-001) (12, 4, 5.00000000000000000000e-001) (12, 4, 5.00000000000000000000e-001) (12, 4, 5.00000000000000000000e-001) (12, 4, 5.00000000000000000000e-001) (12, 4, 5.00000000000000000000e-001) (12, 4, 5.00000000000000000000e-001) (12, 4, 5.00000000000000000000e-001) (12, 4, 5.00000000000000000000e-001) (0, 0, 0.00000000000000000000e+000) (24, 6, 5.00000000000000000000e-001) (0, 0, 0.00000000000000000000e+000) (2, 6, 5.00000000000000000000e-001) (2, 4, 5.00000000000000000000e-001) (0, 0, 0.00000000000000000000e+000) 
connections (connected_to_neuron, weight)=(0, 4.92675788591441230000e-002) (1, -2.91503910593746700000e-002) (2, -9.59411635390097220000e-002) (3, -1.99829104540185650000e-002) (4, -8.28918469383097540000e-002) (5, -6.41601572060608310000e-002) (6, -8.51135266589153620000e-002) (7, -3.83911138533221670000e-003) (8, 2.47497562281751020000e-002) (9, 3.88671880791662260000e-002) (10, 4.55688483352787440000e-002) (11, -6.78955088242219060000e-002) (0, 9.11682142491372360000e-002) (1, 4.22119146915065360000e-002) (2, -4.84558112689228440000e-002) (3, 9.46411146915124850000e-002) (4, 7.65808116880180020000e-002) (5, -7.64587413736990130000e-002) (6, 2.49267581839376360000e-002) (7, 3.21716313387696570000e-002) (8, 6.16516122468055980000e-002) (9, -3.67675786728796080000e-002) (10, -4.25231939930199590000e-002) (11, -2.93151859837053050000e-002) (0, -3.54003911525069270000e-002) (1, -8.19519055180535360000e-002) (2, 4.46289069150225260000e-002) (3, 2.66723636786991850000e-002) (4, -7.25341807683435040000e-002) (5, -1.26464845634473020000e-002) (6, -8.81713880326060460000e-002) (7, -4.67590338998888910000e-002) (8, -9.72473159022229080000e-002) (9, -2.18078616530874570000e-002) (10, 4.42871100349293560000e-002) (11, 7.56774913620574810000e-002) (0, 7.17102061466903250000e-002) (1, -2.45727542724125670000e-002) (2, 1.59912111757876120000e-003) (3, -2.72644047031462830000e-002) (4, 2.55187992083847350000e-002) (5, -7.68066417695081330000e-002) (6, 9.83093276367981160000e-002) (7, -4.01428228637996650000e-002) (8, -5.93994149476202440000e-002) (9, 2.39685062165335690000e-002) (10, 3.17687993015169920000e-002) (11, -6.93786631431976280000e-002) (0, 7.93212902444793140000e-002) (1, -3.85620122933687530000e-002) (2, 3.85375982305049550000e-002) (3, 1.25793458905718580000e-002) (4, 4.73571784400519390000e-002) (5, 5.34423836088535610000e-002) (6, 6.04736337136273510000e-002) (7, -6.09741220023352070000e-003) (8, -6.10717782537903990000e-002) (9, -5.87219247031498530000e-002) (10, -9.80651870081601370000e-002) (11, -2.31201175320165930000e-002) (0, 1.14746095459850040000e-003) (1, -7.84545910128144900000e-002) (2, 5.91552743189822650000e-002) (3, 1.46728517811425260000e-002) (4, -5.11535652153725100000e-002) (5, -7.31689464028022480000e-002) (6, 3.21044926658942130000e-003) (7, -1.24755861234007170000e-002) (8, -3.90502935506447100000e-002) (9, 6.14929208381909120000e-002) (10, -2.29492190919700080000e-003) (11, 7.46337901746301210000e-002) (0, 8.97644056344688580000e-002) (1, 9.87304702211986300000e-002) (2, 3.24951176717149790000e-002) (3, 7.80334484284139760000e-002) (4, -8.55285657275999260000e-002) (5, 4.52819830966291190000e-002) (6, -4.53430182537886140000e-002) (7, -4.53674323166524120000e-002) (8, -3.00903324796308880000e-002) (9, -2.00927737369056560000e-002) (10, -2.20092776717137890000e-002) (11, 1.27197267520386960000e-002) (0, -1.79138186263116950000e-002) (1, 7.19909678696240010000e-002) (2, 5.22888191385391110000e-002) (3, -7.08129893364457530000e-002) (4, 4.14978033527404480000e-002) (5, -1.35864259837035210000e-002) (6, 7.36206065657825090000e-002) (7, 4.37011725261982060000e-002) (8, -5.43151863562343350000e-002) (9, -1.89392092665912060000e-002) (10, 1.68395998603045880000e-002) (11, 8.60412610477396810000e-002) (0, 4.21020514086194450000e-002) (1, -9.68566908964021420000e-002) (2, -2.83081058905736430000e-002) (3, -7.04956065192163810000e-003) (4, 2.64282230500612060000e-003) (5, -9.43603529685788090000e-003) (6, -3.63891606984907410000e-002) (7, -2.93396000465691030000e-002) (8, 6.10961923166541960000e-002) (9, 8.46618664959351010000e-002) (10, -5.94360360419159410000e-002) (11, 5.93322762747448000000e-002) (0, -5.53222664493659980000e-002) (1, -3.95080572293409200000e-002) (2, 7.16552745052467800000e-003) (3, -4.42138678463379620000e-002) (4, 3.10241703841711570000e-002) (5, -1.90368655180463970000e-002) (6, 8.72802747380774240000e-002) (7, -4.94018562048950120000e-002) (8, -3.82263189289915320000e-002) (9, -1.89636233294550040000e-002) (10, 9.64477553434335280000e-002) (11, -6.40319833760258920000e-002) (0, 4.40429694062913770000e-002) (1, -1.17431642374867810000e-002) (2, 5.24292000000059490000e-003) (3, -5.95336922933711320000e-002) (4, 7.10937510593794290000e-002) (5, 8.58703626076930960000e-002) (6, 7.49755870547232920000e-002) (7, -5.29235847729978560000e-002) (8, 9.33044447497195510000e-002) (9, 2.47558597438910510000e-002) (10, 4.68566901513440830000e-002) (11, 5.06042488009370570000e-002) (0, -2.91259769965108720000e-002) (1, 9.04357923632233000000e-002) (2, -3.40332036321342460000e-002) (3, -8.91418470314420120000e-002) (4, 3.93554693364421840000e-002) (5, 3.14331059371397710000e-002) (6, 2.11975100814925100000e-002) (7, -4.22912603958138790000e-002) (8, -8.06518566705562990000e-002) (9, -4.47998053550691110000e-002) (10, 8.25073254482049380000e-002) (11, -9.55505385331889560000e-002) (0, 1.57470705471496330000e-003) (1, -2.14843753201421350000e-003) (2, -8.33374035855740660000e-002) (3, 2.55004886612368860000e-002) (4, 3.86230474505282470000e-002) (5, 7.39868175087394770000e-002) (6, -3.72802739930193640000e-002) (7, -4.50927741094346860000e-002) (8, -2.54516605355092910000e-002) (9, -8.71215833294627370000e-002) (10, 4.86145026775375300000e-002) (11, 6.17553720139767390000e-002) (0, 4.36218268218908630000e-002) (1, 8.71948255180541310000e-002) (2, -7.01049815133956140000e-002) (3, -4.12353521769546210000e-002) (4, 6.94885264260847180000e-002) (5, 4.05395513853363810000e-002) (6, 3.20739750873144660000e-002) (7, 3.78417974388867150000e-004) (8, -4.04052740395854930000e-003) (9, 2.01293948312013530000e-002) (10, 7.76672374854570080000e-002) (11, -7.34741221885997220000e-002) (0, -1.93481448195598200000e-002) (1, -7.92663586030357690000e-002) (2, -2.06787112456368050000e-002) (3, -9.16259779278334460000e-002) (4, 8.28613293597300070000e-002) (5, -5.37414558789350850000e-002) (6, 8.01574718975643920000e-002) (7, -4.77783210244524530000e-002) (8, 7.67272960652007900000e-002) (9, 9.50683607916289470000e-002) (10, -7.73864757625233320000e-002) (11, -8.20739758323725250000e-002) (0, 2.10815432828894700000e-002) (1, -2.45056155995371230000e-002) (2, 2.71362308731113440000e-002) (3, -9.20593275436658590000e-002) (4, -8.27697766239907650000e-002) (5, -4.24072271944169190000e-002) (6, 6.17919931082724360000e-002) (7, 8.34045422584495100000e-002) (8, 8.57849133876698030000e-002) (9, -3.25012211874309290000e-002) (10, 8.41918957858069920000e-002) (11, 6.33483896158395510000e-002) (0, -6.04248055878997550000e-003) (1, -6.93725596274816780000e-002) (2, 3.69567876600740420000e-002) (3, -3.65966802328330230000e-002) (4, -3.55285649825418660000e-002) (5, -3.00659184167670900000e-002) (6, -2.21313479860327790000e-002) (7, 3.02185063096658270000e-002) (8, 9.73449721536781000000e-002) (9, -3.44970708265464050000e-002) (10, 2.61230472642637320000e-002) (11, -7.22229014668300810000e-002) (0, 3.58642583469190870000e-002) (1, -1.82556155064048650000e-002) (2, -9.41894545285322240000e-002) (3, 3.19824223515752240000e-002) (4, -9.21081556693934540000e-002) (5, -3.16284184400501540000e-002) (6, 6.78955088242219060000e-002) (7, -1.03454591385343520000e-002) (8, 7.38525401629885890000e-002) (9, 4.14794928055925990000e-002) (10, 7.19726573224761520000e-002) (11, 9.82421889639226720000e-002) (0, 1.25793458905718580000e-002) (1, -4.90356452619380430000e-002) (2, 9.07592786961686220000e-003) (3, -3.75122075902254440000e-002) (4, -2.36511233993041970000e-002) (5, 4.05151373224725830000e-002) (6, 4.67041022584453460000e-002) (7, -1.56921389057060880000e-002) (8, -5.37536629103669840000e-002) (9, -9.36035170198010750000e-002) (10, 7.73742687310914330000e-002) (11, -5.79162606286445230000e-002) (0, -8.07678234691593390000e-002) (1, 6.13769540395878720000e-002) (2, -4.80346686845223300000e-002) (3, 1.57287600000017850000e-002) (4, 5.80322274272475620000e-002) (5, 9.93042006984978800000e-003) (6, 7.90344250058296890000e-002) (7, -8.63769544121169020000e-002) (8, -6.47644052619398280000e-002) (9, 4.10217291268963890000e-002) (10, 7.14477549709044980000e-002) (11, 5.78247078929052800000e-002) (0, 2.74658207217726160000e-003) (1, -5.52368172293427050000e-002) (2, 2.14843753201421350000e-002) (3, 8.36975110128150850000e-002) (4, -8.21289074738160710000e-002) (5, -4.09118658440092990000e-002) (6, 8.57482922933741070000e-002) (7, 1.02233888242153630000e-002) (8, 5.73120125727655250000e-002) (9, -4.71923835157213030000e-002) (10, -3.89709478463373670000e-002) (11, -6.26647958556532100000e-002) (0, 5.03112800465714830000e-002) (1, -4.87976081490160140000e-002) (2, -6.74865732712532920000e-002) (3, 2.63793949243336100000e-002) (4, 6.21459970197975050000e-002) (5, 1.04736329685692910000e-002) (6, 7.54516612805673500000e-002) (7, 2.00561526426099590000e-002) (8, 5.93078622118810020000e-002) (9, -5.27465828172353210000e-002) (10, 9.16076673806855980000e-002) (11, 5.81054696158389560000e-002) (0, -1.24389650291050200000e-002) (1, -7.05505381606599260000e-002) (2, -3.82690435390031780000e-002) (3, 4.48669440279445550000e-002) (4, 9.41101088242248810000e-002) (5, 3.46801762980248900000e-002) (6, 9.52697768102552800000e-002) (7, -7.48779308032681000000e-002) (8, -7.47985850989607570000e-002) (9, -1.75048830733430800000e-002) (10, -4.13574224912736100000e-002) (11, -7.56774913620574810000e-002) (12, 3.03466801397007660000e-002) (13, -5.32653816530910260000e-002) (14, 6.32385263329524610000e-002) (15, -9.04296888475073500000e-002) (16, -9.55810561117687030000e-002) (17, 5.41809090104834470000e-002) (18, 9.44519057043180510000e-002) (19, -7.24670420954680590000e-002) (20, -1.05590821885925830000e-003) (21, 7.57873546449445710000e-002) (22, 6.29638681257347340000e-002) (23, 7.55493175320225420000e-002) (24, -6.63024912223590950000e-002) (25, -8.32641613969826720000e-002) (26, 5.95581063562349300000e-002) (27, -3.77807622817272200000e-002) (28, -5.99609383934875950000e-002) (29, 1.15844728288720940000e-002) (30, 9.47082533643879290000e-002) (31, -8.63464368335371550000e-002) (32, 6.70471201397049300000e-002) (33, 3.07617192083853300000e-002) (34, 4.14428717112969030000e-003) (35, -1.82800295692686630000e-002) (36, -1.81274416763699260000e-002) (37, 4.55932623981425420000e-003) (36, -9.82604995110705200000e-002) (37, -8.95202650058308790000e-002) 
