FANN_FLO_2.1
num_layers=4
learning_rate=0.700000
connection_rate=1.000000
network_type=0
learning_momentum=0.000000
training_algorithm=2
train_error_function=1
train_stop_function=0
cascade_output_change_fraction=0.010000
quickprop_decay=-0.000100
quickprop_mu=1.750000
rprop_increase_factor=1.200000
rprop_decrease_factor=0.500000
rprop_delta_min=0.000000
rprop_delta_max=50.000000
rprop_delta_zero=0.500000
cascade_output_stagnation_epochs=12
cascade_candidate_change_fraction=0.010000
cascade_candidate_stagnation_epochs=12
cascade_max_out_epochs=150
cascade_max_cand_epochs=150
cascade_num_candidate_groups=2
bit_fail_limit=3.49999999999999980000e-001
cascade_candidate_limit=1.00000000000000000000e+003
cascade_weight_multiplier=4.00000000000000020000e-001
cascade_activation_functions_count=8
cascade_activation_functions=3 5 7 8 10 11 14 15 
cascade_activation_steepnesses_count=4
cascade_activation_steepnesses=2.50000000000000000000e-001 5.00000000000000000000e-001 7.50000000000000000000e-001 1.00000000000000000000e+000 
layer_sizes=10 18 2 3 
scale_included=0
neurons (num_inputs, activation_function, activation_steepness)=(0, 0, 0.00000000000000000000e+000) (0, 0, 0.00000000000000000000e+000) (0, 0, 0.00000000000000000000e+000) (0, 0, 0.00000000000000000000e+000) (0, 0, 0.00000000000000000000e+000) (0, 0, 0.00000000000000000000e+000) (0, 0, 0.00000000000000000000e+000) (0, 0, 0.00000000000000000000e+000) (0, 0, 0.00000000000000000000e+000) (0, 0, 0.00000000000000000000e+000) (10, 6, 5.00000000000000000000e-001) (10, 4, 5.00000000000000000000e-001) (10, 4, 5.00000000000000000000e-001) (10, 4, 5.00000000000000000000e-001) (10, 4, 5.00000000000000000000e-001) (10, 4, 5.00000000000000000000e-001) (10, 4, 5.00000000000000000000e-001) (10, 4, 5.00000000000000000000e-001) (10, 4, 5.00000000000000000000e-001) (10, 4, 5.00000000000000000000e-001) (10, 4, 5.00000000000000000000e-001) (10, 4, 5.00000000000000000000e-001) (10, 4, 5.00000000000000000000e-001) (10, 4, 5.00000000000000000000e-001) (10, 4, 5.00000000000000000000e-001) (10, 4, 5.00000000000000000000e-001) (10, 4, 5.00000000000000000000e-001) (0, 0, 0.00000000000000000000e+000) (18, 6, 5.00000000000000000000e-001) (0, 0, 0.00000000000000000000e+000) (2, 6, 5.00000000000000000000e-001) (2, 4, 5.00000000000000000000e-001) (0, 0, 0.00000000000000000000e+000) 
connections (connected_to_neuron, weight)=(0, 3.03222660768369680000e-002) (1, 7.28332530384250280000e-002) (2, 2.62878421885943680000e-002) (3, -6.19201669383073750000e-002) (4, -5.91430672875503660000e-002) (5, 5.42724617462226890000e-002) (6, 4.00878912223561200000e-002) (7, -6.94396983003571220000e-002) (8, -6.28356942956997950000e-002) (9, -8.20617688009406270000e-002) (0, -3.01635746682222820000e-002) (1, -5.65185555296920940000e-002) (2, -1.47705080325977180000e-003) (3, -8.64257825378444980000e-002) (4, 3.55834966239854110000e-003) (5, -9.88342299883697710000e-002) (6, -1.31713869150189570000e-002) (7, 5.09094245867345310000e-002) (8, 2.57934574156024610000e-002) (9, -9.13391126891838210000e-002) (0, 1.08520509429581580000e-002) (1, 3.18603520372562340000e-002) (2, -5.38391121303902760000e-002) (3, 9.11315931548415390000e-002) (4, 3.31115727590258760000e-002) (5, 5.49072273806814340000e-002) (6, 1.10839845401642380000e-002) (7, 8.36120617927917920000e-002) (8, -7.44506847031516370000e-002) (9, 7.30590831199151580000e-002) (0, -4.49951178579794940000e-002) (1, 2.42309573923193970000e-003) (2, 8.03100597904631290000e-002) (3, -1.34582521536685820000e-002) (4, -5.27343757858034220000e-002) (5, 2.94738773923199910000e-002) (6, -1.81701662863815730000e-002) (7, -4.84802253317866420000e-002) (8, -9.03930677532116530000e-003) (9, 4.07104498253829660000e-002) (0, 4.65209967869668620000e-002) (1, 8.60595715948875290000e-002) (2, -6.99829111990766250000e-002) (3, 9.94873061699763640000e-003) (4, -6.37512216530922160000e-002) (5, -4.53369147380726640000e-002) (6, -7.93273937601952640000e-002) (7, 1.93298342724119720000e-002) (8, 5.19226081955821430000e-002) (9, -8.75244153667154020000e-002) (0, -7.62939464493683770000e-002) (1, 7.71484386496013030000e-003) (2, 1.34155275436569350000e-002) (3, 9.06250013504177330000e-002) (4, 7.36083995343506100000e-002) (5, 8.81591810011741470000e-002) (6, 3.20373539930187690000e-002) (7, -9.62707533876709930000e-002) (8, 8.09265148777740250000e-002) (9, -3.41735844936010840000e-002) (0, -1.81518557392337240000e-002) (1, 6.09497079394714090000e-002) (2, -7.59094249592635610000e-002) (3, 8.75244153667154020000e-002) (4, 7.60437023050144490000e-002) (5, -3.81530767404001380000e-002) (6, -1.30249025378361690000e-002) (7, 5.41137703376080030000e-002) (8, -4.53125006752088670000e-002) (9, 5.81970223515781980000e-002) (0, 9.83154311525140660000e-002) (1, -7.28881846798685730000e-002) (2, 9.00146497788227860000e-002) (3, 6.31042489872015720000e-002) (4, 2.94433598137402440000e-002) (5, -3.93920904307378810000e-002) (6, -8.44665539930247180000e-002) (7, -1.13647462630979130000e-002) (8, -9.36096205355170240000e-002) (9, -1.01135255413282720000e-002) (0, -1.47583010011658190000e-002) (1, 9.31762709196846120000e-002) (2, 9.27246107567043510000e-002) (3, 7.91625988358646280000e-003) (4, -3.08227543655448240000e-002) (5, -8.01208508032686950000e-002) (6, -6.34765634458744900000e-004) (7, -3.90258794877809120000e-002) (8, -8.50219739231761200000e-003) (9, -9.27063002095565030000e-002) (0, -2.24609378346940500000e-002) (1, 9.46594252386603330000e-002) (2, -8.25683606053644330000e-002) (3, -4.64355475669435690000e-002) (4, -4.87365729918565190000e-002) (5, 8.15795910593806180000e-002) (6, 9.53063979045509770000e-002) (7, 1.53930666356245640000e-002) (8, -5.45349129220085160000e-002) (9, 6.18652352968638300000e-002) (0, -4.01306158323677660000e-002) (1, -7.70202648195663640000e-002) (2, -3.38867192549514580000e-002) (3, 2.78991703376050280000e-002) (4, 3.24096684516916870000e-003) (5, 9.22790541094400400000e-002) (6, -1.15112306402807010000e-002) (7, 8.43750012572854760000e-002) (8, -8.03649914319066740000e-002) (9, -8.42651379743983850000e-002) (0, -9.00146497788227860000e-002) (1, 1.50268556926675960000e-002) (2, 3.02062992782339280000e-002) (3, -8.72070325494860300000e-002) (4, 2.35229495692692580000e-002) (5, 8.72436536437817270000e-002) (6, -5.79833993015199670000e-003) (7, 2.14294436786985900000e-002) (8, 6.80053721071089970000e-002) (9, -7.41699229802179620000e-002) (0, -8.72985852852252720000e-002) (1, -8.80554212340030060000e-002) (2, 1.19201661932493150000e-002) (3, -1.28479005820736350000e-002) (4, 3.11767582770698940000e-002) (5, -9.57214369732355410000e-002) (6, 2.64099125029133570000e-002) (7, 6.49108896391226150000e-002) (8, -5.28747566472702600000e-002) (9, -2.99194340395843030000e-002) (0, 4.04052740395854930000e-003) (1, -4.11743170197951260000e-002) (2, -7.09350596507647420000e-002) (3, 8.05664074505330060000e-004) (4, 7.95532238416853940000e-002) (5, -6.25366220256182710000e-002) (6, 5.30395515716008960000e-002) (7, 2.30529788591411490000e-002) (8, -9.12353529220126800000e-002) (9, -7.35839854714868120000e-002) (0, -3.69506841443580920000e-002) (1, -5.75378426542556550000e-002) (2, -3.80371099417970980000e-002) (3, 5.31982429802155820000e-002) (4, -3.85375982305049550000e-002) (5, 9.73449721536781000000e-002) (6, -1.19873048661247590000e-002) (7, 7.99255383003583120000e-002) (8, 3.57971196740436430000e-002) (9, 3.32641606519246120000e-003) (0, -9.46411146915124850000e-002) (1, -4.47509772293415150000e-002) (2, -7.18750010710209610000e-002) (3, -2.97363285681058190000e-002) (4, 7.63000499650843270000e-002) (5, 1.66015627473825590000e-002) (6, 5.32104500116474810000e-002) (7, -2.72949222817260310000e-002) (8, 2.06726077299208550000e-002) (9, 7.40966807916265680000e-002) (0, -2.82043461234025020000e-002) (1, 5.50659187892961200000e-002) (2, -7.47558604889491110000e-002) (3, -9.26513685681129570000e-002) (4, 2.52075199068713120000e-002) (5, 5.28503425844064620000e-002) (6, 5.09033210710185810000e-003) (7, 6.42700204889479210000e-003) (8, 3.75183111059413930000e-002) (9, -8.88671888242242860000e-002) (10, 7.31262217927906020000e-002) (11, 8.81530774854581980000e-002) (12, 9.15405287078101540000e-002) (13, -1.84387209778833490000e-002) (14, -2.58911136670576520000e-002) (15, 1.90917971594899430000e-002) (16, 8.49243176717209280000e-002) (17, -2.08862307799790870000e-002) (18, 3.93798833993059820000e-002) (19, 7.64404308265511650000e-002) (20, 7.25402842840594530000e-002) (21, -2.01232913154854030000e-002) (22, 1.85058596507587940000e-002) (23, -2.20153811874297390000e-002) (24, -9.85107436554244490000e-002) (25, -5.89050301746283370000e-002) (26, 4.41650397206103660000e-002) (27, 1.25366212805602120000e-002) (28, -5.50964363678758670000e-002) (29, -7.52746593248048160000e-002) (28, 8.64440930849923460000e-002) (29, -9.80529799767282380000e-002) 
