FANN_FLO_2.1
num_layers=3
learning_rate=0.700000
connection_rate=1.000000
network_type=0
learning_momentum=0.000000
training_algorithm=2
train_error_function=1
train_stop_function=0
cascade_output_change_fraction=0.010000
quickprop_decay=-0.000100
quickprop_mu=1.750000
rprop_increase_factor=1.200000
rprop_decrease_factor=0.500000
rprop_delta_min=0.000000
rprop_delta_max=50.000000
rprop_delta_zero=0.500000
cascade_output_stagnation_epochs=12
cascade_candidate_change_fraction=0.010000
cascade_candidate_stagnation_epochs=12
cascade_max_out_epochs=150
cascade_max_cand_epochs=150
cascade_num_candidate_groups=2
bit_fail_limit=3.49999999999999980000e-001
cascade_candidate_limit=1.00000000000000000000e+003
cascade_weight_multiplier=4.00000000000000020000e-001
cascade_activation_functions_count=8
cascade_activation_functions=3 5 7 8 10 11 14 15 
cascade_activation_steepnesses_count=4
cascade_activation_steepnesses=2.50000000000000000000e-001 5.00000000000000000000e-001 7.50000000000000000000e-001 1.00000000000000000000e+000 
layer_sizes=25 48 2 
scale_included=0
neurons (num_inputs, activation_function, activation_steepness)=(0, 0, 0.00000000000000000000e+000) (0, 0, 0.00000000000000000000e+000) (0, 0, 0.00000000000000000000e+000) (0, 0, 0.00000000000000000000e+000) (0, 0, 0.00000000000000000000e+000) (0, 0, 0.00000000000000000000e+000) (0, 0, 0.00000000000000000000e+000) (0, 0, 0.00000000000000000000e+000) (0, 0, 0.00000000000000000000e+000) (0, 0, 0.00000000000000000000e+000) (0, 0, 0.00000000000000000000e+000) (0, 0, 0.00000000000000000000e+000) (0, 0, 0.00000000000000000000e+000) (0, 0, 0.00000000000000000000e+000) (0, 0, 0.00000000000000000000e+000) (0, 0, 0.00000000000000000000e+000) (0, 0, 0.00000000000000000000e+000) (0, 0, 0.00000000000000000000e+000) (0, 0, 0.00000000000000000000e+000) (0, 0, 0.00000000000000000000e+000) (0, 0, 0.00000000000000000000e+000) (0, 0, 0.00000000000000000000e+000) (0, 0, 0.00000000000000000000e+000) (0, 0, 0.00000000000000000000e+000) (0, 0, 0.00000000000000000000e+000) (25, 4, 5.00000000000000000000e-001) (25, 4, 5.00000000000000000000e-001) (25, 4, 5.00000000000000000000e-001) (25, 4, 5.00000000000000000000e-001) (25, 4, 5.00000000000000000000e-001) (25, 4, 5.00000000000000000000e-001) (25, 4, 5.00000000000000000000e-001) (25, 4, 5.00000000000000000000e-001) (25, 4, 5.00000000000000000000e-001) (25, 4, 5.00000000000000000000e-001) (25, 4, 5.00000000000000000000e-001) (25, 4, 5.00000000000000000000e-001) (25, 4, 5.00000000000000000000e-001) (25, 4, 5.00000000000000000000e-001) (25, 4, 5.00000000000000000000e-001) (25, 4, 5.00000000000000000000e-001) (25, 4, 5.00000000000000000000e-001) (25, 4, 5.00000000000000000000e-001) (25, 4, 5.00000000000000000000e-001) (25, 4, 5.00000000000000000000e-001) (25, 4, 5.00000000000000000000e-001) (25, 4, 5.00000000000000000000e-001) (25, 4, 5.00000000000000000000e-001) (25, 4, 5.00000000000000000000e-001) (25, 4, 5.00000000000000000000e-001) (25, 4, 5.00000000000000000000e-001) (25, 4, 5.00000000000000000000e-001) (25, 4, 5.00000000000000000000e-001) (25, 4, 5.00000000000000000000e-001) (25, 4, 5.00000000000000000000e-001) (25, 4, 5.00000000000000000000e-001) (25, 4, 5.00000000000000000000e-001) (25, 4, 5.00000000000000000000e-001) (25, 4, 5.00000000000000000000e-001) (25, 4, 5.00000000000000000000e-001) (25, 4, 5.00000000000000000000e-001) (25, 4, 5.00000000000000000000e-001) (25, 4, 5.00000000000000000000e-001) (25, 4, 5.00000000000000000000e-001) (25, 4, 5.00000000000000000000e-001) (25, 4, 5.00000000000000000000e-001) (25, 4, 5.00000000000000000000e-001) (25, 4, 5.00000000000000000000e-001) (25, 4, 5.00000000000000000000e-001) (25, 4, 5.00000000000000000000e-001) (25, 4, 5.00000000000000000000e-001) (25, 4, 5.00000000000000000000e-001) (0, 0, 0.00000000000000000000e+000) (48, 4, 5.00000000000000000000e-001) (0, 0, 0.00000000000000000000e+000) 
connections (connected_to_neuron, weight)=(0, -4.64050299883638220000e-002) (1, 8.04992687776575620000e-002) (2, 8.52050793946546040000e-003) (3, -3.74145513387702520000e-002) (4, -7.04956065192163810000e-003) (5, 3.37524419092005700000e-003) (6, 2.99438481024481010000e-002) (7, -1.04736329685692910000e-002) (8, 5.45654305005882630000e-002) (9, -5.67932137369098200000e-002) (10, -1.94213870081512140000e-002) (11, -5.20019538998894860000e-003) (12, -3.55712895925535120000e-002) (13, -5.52307137136267560000e-002) (14, 5.78369149243371790000e-002) (15, 9.10034193248066000000e-002) (16, -2.96020512223549300000e-002) (17, 7.55004894062949460000e-003) (18, -6.59362802794021260000e-002) (19, -5.13244636554190950000e-002) (20, 9.80896010710239350000e-002) (21, 4.30847174388873100000e-002) (22, 9.53979506402902190000e-003) (23, 6.24084481955833330000e-002) (24, 7.74658214668306750000e-002) (0, -7.98217785331871710000e-002) (1, 1.71508791618180110000e-003) (2, 8.03833019790545220000e-003) (3, 9.63562026076942860000e-002) (4, 2.93396000465691030000e-002) (5, -2.28881839348105130000e-002) (6, -2.79541019790485730000e-002) (7, -6.27685556228243510000e-002) (8, 9.74853530151449380000e-002) (9, 3.20007328987230720000e-002) (10, -6.55151376950016130000e-002) (11, -4.66308600698539520000e-002) (12, 8.43994153201492740000e-002) (13, -7.18505870081571630000e-002) (14, -1.33056642607698450000e-002) (15, 4.07775884982584100000e-002) (16, 9.20104994179382630000e-002) (17, 8.99414075902313930000e-002) (18, -3.49914555995383130000e-002) (19, 6.20300302211944650000e-002) (20, -8.21472180209639190000e-002) (21, 6.90307627473885080000e-002) (22, 8.17504894994272040000e-002) (23, 7.83325206984955000000e-002) (24, -1.61254885215385000000e-002) (0, 8.28491223282981080000e-002) (1, -6.53015146449433810000e-002) (2, 4.60144049825430560000e-002) (3, 7.19360362281804560000e-002) (4, -6.67968759953510020000e-002) (5, -2.36206058207244500000e-002) (6, -6.62170420023358020000e-002) (7, -2.84423832363245310000e-003) (8, -8.88610853085083360000e-002) (9, 2.43408206752064870000e-002) (10, -8.31726086612434300000e-002) (11, 5.04272468451745230000e-002) (12, -5.52368172293427050000e-003) (13, 9.36828627241084180000e-002) (14, 4.24194342258488180000e-003) (15, -5.86914071245701050000e-002) (16, -5.59082039580971470000e-002) (17, -6.68701181839423950000e-002) (18, -4.41894537834741640000e-002) (19, 7.25646983469232510000e-002) (20, 5.31005867287603910000e-003) (21, -5.41503914319036990000e-002) (22, 4.45556647264311320000e-002) (23, 7.75878917811496650000e-002) (24, 2.06359866356251590000e-002) (0, 7.62939464493683770000e-002) (1, -7.88024914086236090000e-002) (2, 5.19531257741618900000e-002) (3, 6.00585946449427870000e-002) (4, -5.56945809080389150000e-002) (5, -6.31530771129291680000e-002) (6, 1.04064942956938470000e-002) (7, -2.48474124796302930000e-002) (8, 7.74536144353987770000e-003) (9, -1.98730471711314750000e-002) (10, 4.39453131548361850000e-004) (11, -1.66992189988377500000e-002) (12, 3.48815923166512220000e-002) (13, -1.49719240512240500000e-002) (14, 3.79028325960462100000e-003) (15, 8.82141126426176920000e-002) (16, 6.77673349941869670000e-002) (17, -3.43200688707838710000e-002) (18, 5.70678719441275460000e-002) (19, 4.30725104074554110000e-002) (20, -4.20410162514599510000e-002) (21, -6.56433115250365520000e-002) (22, -7.72277843539086460000e-002) (23, 6.24145517112992820000e-002) (24, 5.56457527823113200000e-002) (0, -4.10888677997718330000e-002) (1, -5.80444344586794610000e-002) (2, -1.08032228172305620000e-002) (3, -6.63635263795185890000e-002) (4, -8.40576184400561030000e-002) (5, -2.19726565774180930000e-004) (6, -7.68859874738154760000e-002) (7, -7.26806651455262910000e-002) (8, -4.11987310826589240000e-003) (9, 3.51989751338805950000e-002) (10, 1.65222170430752160000e-002) (11, -2.81127933876632600000e-002) (12, -8.36975110128150850000e-002) (13, 2.60559085913882880000e-002) (14, 4.42199713620539110000e-002) (15, -8.19335949709056880000e-002) (16, 9.96887221886026960000e-002) (17, 8.07922375320231370000e-002) (18, 5.32348640745112790000e-002) (19, 7.68432628638038300000e-003) (20, -2.81188969033792090000e-002) (21, -3.19274907101316780000e-002) (22, 9.90112319441323050000e-002) (23, 9.01367200931417760000e-002) (24, 3.74938970430775950000e-002) (0, -8.44726575087406670000e-002) (1, -2.58789066356257540000e-002) (2, 6.12060555995412870000e-002) (3, 8.85620130384268120000e-002) (4, 8.91113294528622650000e-003) (5, -6.41418466589129820000e-002) (6, -9.46044935972167880000e-002) (7, 2.56347660069877750000e-003) (8, 2.28881839348105130000e-002) (9, -6.11511239580977420000e-002) (10, 2.29614261234019070000e-002) (11, 8.62365735506500640000e-002) (12, 1.46972658440063240000e-002) (13, -2.09472659371385820000e-002) (14, 2.30346683119933000000e-002) (15, 2.12890628172317520000e-002) (16, -8.80126966239913600000e-002) (17, 5.52734383236384020000e-002) (18, 6.39526376717185490000e-002) (19, -3.16833500814937000000e-002) (20, 2.60009769499447430000e-002) (21, -4.54345709895278560000e-002) (22, -7.78442394412195430000e-002) (23, 8.52233899418024520000e-002) (24, -7.85583507799856310000e-002) (0, -3.23242192316683940000e-002) (1, 7.08190928521617020000e-002) (2, 1.62597658672893890000e-002) (3, -2.57812503841705620000e-002) (4, -5.91674813504141640000e-002) (5, -5.05126960651978150000e-002) (6, 8.10546887078089640000e-003) (7, 4.83032233760241070000e-002) (8, -2.99133305238683530000e-002) (9, -9.39819349941899420000e-002) (10, 9.10034193248066000000e-003) (11, 2.30163577648454520000e-002) (12, -5.54626473108328360000e-002) (13, -7.99560558789380590000e-003) (14, 7.91625988358646280000e-003) (15, 1.93481448195598200000e-003) (16, 4.45495612107151830000e-002) (17, 9.29748549010582790000e-002) (18, -3.20068364144390220000e-002) (19, -6.53015146449433810000e-002) (20, 1.39770509895242870000e-003) (21, -2.53906253783497960000e-002) (22, 1.38732912223531460000e-002) (23, 8.29467785797533000000e-002) (24, 2.43896488009340830000e-002) (0, -7.37854014901131450000e-002) (1, 2.57507328055908150000e-002) (2, 6.16516122468055980000e-002) (3, 1.92871096624003260000e-003) (4, -1.72485354132732030000e-002) (5, 9.84863295925606510000e-002) (6, 8.70910657508829900000e-002) (7, 8.25195324796368370000e-002) (8, 6.55517587892973100000e-003) (9, 2.13378909429593480000e-002) (10, -3.72802739930193640000e-002) (11, 4.22424322700862830000e-002) (12, 1.01379396041920700000e-002) (13, 3.45886235622856470000e-002) (14, 3.41613774621691850000e-002) (15, -5.52978523865022000000e-002) (16, 1.23291017462179300000e-003) (17, 1.94458010710150120000e-002) (18, 4.46228033993065760000e-002) (19, 9.98352065657854840000e-002) (20, -6.86584482887155900000e-002) (21, -2.26440433061725340000e-002) (22, -7.80822765541415720000e-002) (23, 2.78320316647295840000e-002) (24, 2.90710453550673260000e-002) (0, -4.49951178579794940000e-002) (1, 2.83813480791650360000e-002) (2, 3.43322759022157700000e-002) (3, 9.94750991385444650000e-002) (4, 7.13378916880174070000e-002) (5, -9.50378432130492000000e-002) (6, -9.67651381606629000000e-002) (7, 7.06481944121151170000e-002) (8, 2.70385746216561530000e-003) (9, 4.06738287310872690000e-002) (10, -8.66821301979143750000e-002) (11, -3.11462406984901460000e-002) (12, -1.74926760419111820000e-002) (13, 9.86755385797550840000e-002) (14, 8.49304211874368780000e-002) (15, 3.42407231664765280000e-003) (16, 7.15454112223596890000e-002) (17, -6.97082529918588990000e-002) (18, 6.30676278929058750000e-002) (19, -5.73547371827771710000e-002) (20, -4.47265631664777170000e-002) (21, 8.11767590221279530000e-003) (22, -5.70739754598434960000e-002) (23, 6.19323739697392740000e-002) (24, 2.43530277066383860000e-002) (0, 9.53369154831307240000e-003) (1, 4.43786627706685980000e-002) (2, 4.55200202095511490000e-002) (3, -5.47485359720667470000e-003) (4, -1.80908205820742300000e-002) (5, -5.85205086845235200000e-002) (6, -7.70935070081577580000e-002) (7, 2.23205569732272120000e-002) (8, 2.05932620256135120000e-002) (9, -4.66918952270134470000e-002) (10, 2.13195803958114990000e-002) (11, -2.73559574388855250000e-002) (12, 9.11682142491372360000e-002) (13, 2.39868167636814180000e-003) (14, 1.54541017927840580000e-002) (15, -5.45043953434287690000e-003) (16, -7.30163585099035120000e-002) (17, 4.69787604656630720000e-002) (18, 5.57067879394708140000e-002) (19, 6.15539559953504070000e-002) (20, 3.34045415133914500000e-002) (21, -6.68334970896466980000e-003) (22, 5.62011727124627210000e-002) (23, 3.25439457974425750000e-002) (24, -7.00744639348158670000e-002) (0, 9.43603529685788090000e-002) (1, -7.61901866821972360000e-002) (2, 8.97460950873210090000e-002) (3, 6.14196786495995180000e-002) (4, -5.90148934575154270000e-002) (5, 9.46044935972167880000e-003) (6, -9.02099622817331690000e-002) (7, -9.02160657974491190000e-002) (8, 5.20385749941851830000e-002) (9, -3.70849614901089810000e-002) (10, 2.43164066123426890000e-002) (11, -6.27685556228243510000e-002) (12, -3.04809574854516540000e-002) (13, 7.23754893597288170000e-002) (14, -7.37548839115333980000e-002) (15, 9.24499525494866250000e-002) (16, 6.50024423748618570000e-002) (17, 7.00744639348158670000e-002) (18, -2.20153811874297390000e-002) (19, -8.90502942957027700000e-002) (20, -3.62792974156036510000e-002) (21, 8.50952161117675130000e-002) (22, 7.78930675669471380000e-002) (23, -5.92529305704374560000e-002) (24, -7.57446300349329250000e-003) (0, -7.52014171362134220000e-002) (1, -5.88684090803326400000e-002) (2, -7.52868663562367150000e-002) (3, -4.26635748544867970000e-002) (4, -3.40942387892937400000e-002) (5, -4.87243659604246200000e-002) (6, 7.08435069150255000000e-002) (7, 5.84472664959321260000e-002) (8, 3.66943364842882150000e-002) (9, 3.88305669848705290000e-002) (10, 4.15893560884796900000e-002) (11, 4.63500983469202770000e-002) (12, -2.86010746449392170000e-002) (13, -5.69946297555361530000e-002) (14, -6.33544931315555000000e-003) (15, 2.79541019790485730000e-002) (16, 1.81396487078018250000e-002) (17, -8.71215833294627370000e-002) (18, 9.94567885913966170000e-002) (19, 2.72399906402824850000e-002) (20, -1.83654787892919560000e-002) (21, 4.32128912689222490000e-003) (22, 8.12988293364469430000e-002) (23, -9.26391615366810580000e-002) (24, 8.19152844237578390000e-002) (0, 2.88269047264293480000e-002) (1, -1.00585938998847270000e-002) (2, -3.96972662165353540000e-002) (3, 1.02905274970908070000e-002) (4, -8.93981946915118900000e-002) (5, -4.16198736670594370000e-002) (6, -2.96020512223549300000e-002) (7, -3.61267095227049140000e-002) (8, -9.19799818393585160000e-002) (9, -3.76892095459879780000e-002) (10, 5.78979500814966740000e-002) (11, -6.01867684749777250000e-002) (12, 5.58959969266652480000e-002) (13, -8.14758312922094770000e-002) (14, -9.11193861234096400000e-002) (15, 7.05993662863875220000e-002) (16, 8.46069348544915560000e-002) (17, -4.76257331315537160000e-002) (18, 9.77355971594988660000e-002) (19, 8.15917980908125170000e-002) (20, -2.75207523632161610000e-002) (21, -3.42834477764881740000e-002) (22, -9.15100111292304060000e-002) (23, 5.20690925727649300000e-002) (24, -1.24023439348093230000e-002) (0, -6.35925302444775300000e-002) (1, -3.88244634691545800000e-002) (2, -3.89160162048938220000e-002) (3, -2.46520999767199100000e-002) (4, 8.07434094062955410000e-002) (5, 4.95727546449415970000e-002) (6, -7.26318370197986950000e-004) (7, -5.21240242142084750000e-002) (8, -8.99719251688111400000e-002) (9, 9.64904799534451740000e-002) (10, -7.19970713853399500000e-002) (11, -6.82250986728831780000e-002) (12, -8.74511731781240090000e-002) (13, 3.29040532246835940000e-002) (14, 6.69311533411018900000e-002) (15, -6.97692881490183940000e-002) (16, 9.21386732479732020000e-002) (17, -9.28466810710233400000e-002) (18, -8.53881848661330880000e-003) (19, -4.41589362048944170000e-002) (20, 9.46960463329560300000e-002) (21, 3.04748539697357050000e-002) (22, -7.89123546915107000000e-002) (23, -9.58862318975661760000e-003) (24, -4.62036139697374890000e-002) (0, 6.51184091734648970000e-002) (1, 8.01208508032686950000e-002) (2, 2.79541019790485730000e-002) (3, -1.32629396507581990000e-002) (4, 6.12792977881326810000e-002) (5, 1.18164064260781740000e-002) (6, 5.71228035855710910000e-002) (7, 7.21557627939546360000e-002) (8, -5.08911140395866820000e-002) (9, -7.26318370197986950000e-002) (10, -6.06201180908101380000e-002) (11, 4.06372076367915720000e-002) (12, 9.20776380908137070000e-002) (13, 7.08435069150255000000e-002) (14, 3.90808111292244580000e-002) (15, 9.34448256111863880000e-003) (16, 7.87963878929076600000e-003) (17, -1.85607912922023390000e-002) (18, -3.82080083818436830000e-002) (19, -7.83081066356317020000e-003) (20, 6.31958017229408140000e-002) (21, 3.42163091036127300000e-002) (22, 5.70373543655477990000e-002) (23, 1.63879396973243270000e-002) (24, 4.85168464260823380000e-002) (0, -5.93933114319042940000e-002) (1, 4.17785650756741230000e-002) (2, 7.73315441210797870000e-002) (3, 3.93066412107145880000e-002) (4, -1.00341798370209290000e-002) (5, 8.17871105937229000000e-004) (6, -3.78906255646143110000e-002) (7, 4.97253425378403340000e-002) (8, -8.66699231664824770000e-002) (9, -7.95959484516970410000e-002) (10, 7.37548839115333980000e-002) (11, 8.51989758789386540000e-002) (12, -4.92431647962803250000e-002) (13, 1.13342286845181660000e-002) (14, 8.70239270780075460000e-002) (15, -9.99267593015247260000e-002) (16, 3.38745122235195590000e-003) (17, -2.22961429103634150000e-002) (18, -3.29223637718314420000e-002) (19, 6.65588388824289720000e-002) (20, 5.15380867054773260000e-002) (21, 8.76464856810343920000e-002) (22, -1.77185061234013120000e-002) (23, 6.13159188824283770000e-002) (24, -7.99316418160742610000e-002) (0, 2.24609378346940500000e-003) (1, 4.24072271944169190000e-002) (2, -2.42248538766034470000e-002) (3, -2.77832035390019880000e-002) (4, 1.89514162980231050000e-002) (5, -6.48193369033833730000e-003) (6, -4.33471686146731370000e-002) (7, 1.32934572293379460000e-002) (8, 8.56384290104870160000e-002) (9, 6.71386728754441720000e-004) (10, -1.73156740861486470000e-002) (11, -1.47155763911541730000e-002) (12, 4.16564947613551340000e-002) (13, 4.98229987892955250000e-002) (14, 8.40148938300444570000e-002) (15, -6.61987314551879540000e-002) (16, 4.20776373457556470000e-002) (17, -9.99328628172406750000e-002) (18, 1.03759767171140990000e-002) (19, 2.85095219091999750000e-002) (20, 2.13867190686869440000e-002) (21, -8.24096691967497460000e-002) (22, 5.43457039348140820000e-002) (23, -8.17016613736996080000e-002) (24, -4.71130378114139600000e-002) (0, -7.75634777182858670000e-002) (1, 3.59680181140902280000e-002) (2, 2.55737308498282800000e-003) (3, -3.99719244237530800000e-002) (4, 7.94616711059461520000e-002) (5, -4.51110846565825340000e-002) (6, 9.95971694528634540000e-002) (7, 3.60107427241018740000e-002) (8, -3.53210454481995840000e-002) (9, -8.36059582770758420000e-002) (10, 9.36828627241084180000e-002) (11, 2.77404789289903420000e-002) (12, 3.82202154132755820000e-002) (13, 3.74511724330659490000e-002) (14, 4.17846685913900730000e-002) (15, 4.05883795110639770000e-002) (16, 5.51940926193310590000e-002) (17, -6.08337411408683690000e-002) (18, -7.86438000000089230000e-002) (19, -7.99865734575178070000e-002) (20, 4.56970221653136830000e-002) (21, -6.82861338300426720000e-002) (22, -9.96215835157272520000e-002) (23, -3.35388188591423390000e-002) (24, -4.78515632130438460000e-003) (0, 9.81811538067631770000e-002) (1, -8.90625013271346690000e-002) (2, -6.03271493364445630000e-002) (3, 5.66650399068748810000e-002) (4, -1.65344240745071150000e-002) (5, 7.50122081490189880000e-003) (6, -9.12902845634562250000e-002) (7, 2.52990726426105540000e-002) (8, 9.44824232828977980000e-002) (9, 9.13208021420359730000e-002) (10, 3.93676763678740830000e-003) (11, -9.22241224679964940000e-002) (12, -8.20495617695087280000e-002) (13, 8.19946301280651820000e-002) (14, 2.71911625145548900000e-002) (15, -8.33435071012900150000e-002) (16, 6.20483407683423140000e-002) (17, -8.23974621653178470000e-002) (18, -2.35717776949968540000e-002) (19, -7.85583507799856310000e-002) (20, 2.80883793247994620000e-002) (21, 6.46057138533251420000e-002) (22, 4.10522467054761360000e-002) (23, 8.76159681024546440000e-002) (24, 1.85729983236342380000e-002) (0, -8.12683117578671950000e-002) (1, -7.57873546449445710000e-002) (2, -6.52587900349317350000e-002) (3, 8.77868665425012300000e-002) (4, -2.18505862630991030000e-002) (5, 4.82788093131603090000e-002) (6, -5.50048836321366250000e-002) (7, 4.12475592083865190000e-002) (8, -2.98400883352769600000e-002) (9, 9.98291030500695340000e-002) (10, -4.66674811641496490000e-002) (11, -9.78393569266700070000e-003) (12, 1.26403810477313530000e-002) (13, 7.02331553434305530000e-002) (14, 5.05249030966297140000e-002) (15, -3.24523930617033330000e-002) (16, -8.48999036088571300000e-003) (17, 4.83215339231719550000e-002) (18, 3.03649906868486140000e-002) (19, -8.89038099185199830000e-002) (20, 3.54675298253823710000e-002) (21, -7.88513195343512050000e-002) (22, -8.77563489639214820000e-002) (23, 2.09960940628661770000e-002) (24, 6.92260752502988910000e-002) (0, 3.92700201164188910000e-002) (1, -2.96203617695027790000e-002) (2, -3.03344731082688670000e-003) (3, -7.34619151571678230000e-002) (4, 2.70385746216561530000e-003) (5, 9.21630873108370000000e-004) (6, -3.80310064260811490000e-002) (7, 4.22363287543703340000e-003) (8, 2.38342288707826810000e-002) (9, 5.82153328987260470000e-002) (10, -2.15332034458697310000e-002) (11, -6.15539559953504070000e-002) (12, 2.35290530849852080000e-002) (13, -8.56323254947710670000e-003) (14, -3.65478521071054270000e-002) (15, 8.45520032130480100000e-002) (16, -8.32519543655507730000e-002) (17, 1.29028322235171800000e-002) (18, -9.13696302677635690000e-002) (19, 8.16223156693922650000e-002) (20, 4.37500006519258020000e-002) (21, 2.92175297322501140000e-002) (22, 1.18530275203738710000e-002) (23, 8.30627453783563400000e-002) (24, 3.38745122235195590000e-003) (0, -3.33923344819595510000e-002) (1, 2.61718753899913280000e-002) (2, -6.55151376950016130000e-002) (3, 4.45007330849875870000e-002) (4, 2.16186526658930230000e-002) (5, 3.27392583003529580000e-002) (6, 8.00415050989613520000e-002) (7, 7.18017588824295670000e-002) (8, 6.84814463329530550000e-002) (9, -5.62622078696222160000e-002) (10, 7.86071789057132260000e-002) (11, 2.24731448661259490000e-002) (12, -4.56604010710179860000e-002) (13, -5.83312996973290860000e-002) (14, -8.91174329685782140000e-002) (15, 6.97082529918588990000e-002) (16, -8.63708508964009520000e-002) (17, -3.87878423748588830000e-002) (18, -4.11376959254994290000e-002) (19, 9.44824232828977980000e-003) (20, 3.28430180675240990000e-002) (21, 1.99218752968590710000e-002) (22, 3.87329107334153380000e-002) (23, 8.65722669150272850000e-002) (24, -3.03955082654283610000e-003) (0, -9.60083022118851660000e-002) (1, -3.14086918742759740000e-002) (2, 1.68090822817248410000e-002) (3, 4.87304694761405700000e-002) (4, 1.53320314784650690000e-002) (5, 5.21606453085041720000e-002) (6, 6.05957040279463400000e-002) (7, -7.86743175785886710000e-003) (8, 8.62731946449457610000e-002) (9, -4.02465826309708060000e-002) (10, -9.48974623515823620000e-002) (11, -2.88146976949974490000e-002) (12, -3.19702153201433250000e-002) (13, -1.22009279161829910000e-002) (14, 1.07727052386508150000e-002) (15, 5.54443367636849870000e-002) (16, -6.83593760186340660000e-004) (17, -2.19177249359745470000e-002) (18, -2.14721682887102360000e-002) (19, -3.66516118742765680000e-002) (20, -3.87695318277110350000e-002) (21, 7.80212413969820770000e-002) (22, -6.07910165308567230000e-003) (23, -4.52575690337653210000e-002) (24, -7.52502452619410180000e-002) (0, 2.32299808149036830000e-002) (1, -9.54895033760294610000e-002) (2, 2.37426761350434390000e-002) (3, -2.96630863795144250000e-003) (4, -7.64343273108352150000e-002) (5, -1.33056642607698450000e-002) (6, 2.33154300349269760000e-002) (7, 7.28332530384250280000e-002) (8, 3.39538579278269030000e-002) (9, -4.17846685913900730000e-002) (10, 5.26733406286439280000e-002) (11, -2.81372074505270580000e-003) (12, 9.12292494062967310000e-002) (13, 9.26452650523970080000e-002) (14, -6.11633309895296410000e-002) (15, 4.57397467753253300000e-002) (16, 9.82421889639226720000e-002) (17, -7.93457043073431120000e-003) (18, -5.63781746682252560000e-002) (19, -7.11303721536751250000e-002) (20, -6.35070810244542370000e-002) (21, 7.42126475902296080000e-002) (22, -7.27844249126974320000e-002) (23, 2.58605960884779050000e-002) (24, 8.84948743655513680000e-002) (0, -6.97082529918588990000e-002) (1, 9.96826186728867470000e-002) (2, 5.54809578579806840000e-002) (3, 5.11901863096682060000e-002) (4, 9.79614272409889960000e-003) (5, -8.43505871944216780000e-003) (6, 8.90502942957027700000e-002) (7, -7.83569347613592980000e-002) (8, -1.15356447031444990000e-002) (9, -2.50610355296885250000e-002) (10, -8.75854505238748970000e-002) (11, -6.38244638416836100000e-002) (12, 7.57629405820807730000e-002) (13, -3.39477544121109530000e-002) (14, 4.29321295459885730000e-002) (15, 4.43603522235207490000e-002) (16, 1.80114748777668860000e-002) (17, 4.08874517811455010000e-002) (18, 7.84301769499506920000e-003) (19, 9.89563003026887600000e-002) (20, 5.34912117345811570000e-002) (21, -5.15136726426135280000e-003) (22, -9.82055678696269750000e-003) (23, -5.68359383469214660000e-002) (24, -2.42431644237512960000e-002) (0, -2.21618655646125260000e-002) (1, 4.85046393946504390000e-002) (2, -2.36389163678722980000e-002) (3, -3.86169439348122980000e-002) (4, 3.59985356926699750000e-002) (5, 1.67785647031450940000e-002) (6, 7.96142589988448890000e-002) (7, -8.15551769965168210000e-002) (8, 9.13085951106040740000e-002) (9, 9.04724134575189960000e-002) (10, 8.22021496624074640000e-002) (11, 1.19140626775333660000e-002) (12, -9.64355483120016290000e-003) (13, 5.33447273573983690000e-003) (14, 5.04394538766064220000e-002) (15, -7.77038585797527050000e-002) (16, -4.65332038183987610000e-002) (17, 1.49353029569283540000e-002) (18, -2.00683596740418580000e-002) (19, 9.36706556926765190000e-002) (20, 5.54870613736966330000e-002) (21, -2.66723636786991850000e-002) (22, -2.72949222817260310000e-002) (23, -7.25036631897637560000e-002) (24, 6.94885264260847180000e-002) (0, -7.10021983236401870000e-002) (1, 8.02673351804514820000e-002) (2, -2.16552737601887200000e-002) (3, -9.54528822817337640000e-002) (4, -6.35742196973296810000e-002) (5, 9.39758314784739920000e-002) (6, -9.22180189522805450000e-002) (7, -3.10058598370233090000e-002) (8, 9.14428724563549620000e-002) (9, 6.39038095459909530000e-002) (10, 5.28015144586788670000e-002) (11, 9.02282728288810180000e-002) (12, 9.67224135506512540000e-002) (13, 2.74719242374885650000e-002) (14, -3.50952153667094540000e-002) (15, -7.75329601397061200000e-002) (16, -3.64746099185140340000e-002) (17, -7.08862315250371470000e-002) (18, -2.38891605122262260000e-002) (19, 7.36328135972144080000e-002) (20, -4.39331061234042860000e-002) (21, 1.21948244004670410000e-002) (22, -5.17700203026834060000e-002) (23, 8.26171887310920280000e-002) (24, -1.52709963213055740000e-002) (0, 6.44470224447104560000e-002) (1, 6.15478524796344570000e-002) (2, 7.81921398370286620000e-002) (3, -4.56970221653136830000e-002) (4, -1.86157229336458840000e-003) (5, -7.75146495925582710000e-004) (6, 5.08178718509952890000e-002) (7, 7.35900889872027620000e-002) (8, -5.36499031431958430000e-002) (9, -1.63513186030286310000e-002) (10, -3.14208989057078720000e-002) (11, 3.25805668917382720000e-002) (12, -4.36035162747430150000e-002) (13, 2.10021975785821270000e-002) (14, 6.85180674272487520000e-002) (15, 5.34362800931376110000e-002) (16, 6.18591317811478800000e-002) (17, 1.02416993713632110000e-002) (18, -4.53918463795162100000e-002) (19, -7.83874523399390450000e-002) (20, 1.43371584167653050000e-002) (21, 7.28454600698569270000e-002) (22, 3.36242680791656310000e-002) (23, 3.19824223515752240000e-003) (24, 5.62255867753265190000e-002) (0, -4.05395513853363810000e-002) (1, -7.98583996274828680000e-002) (2, -4.50256354365592410000e-002) (3, 1.57653810942974810000e-002) (4, 8.97644056344688580000e-002) (5, -5.80749520372592090000e-002) (6, -6.68273935739307490000e-002) (7, -9.44091810943064050000e-002) (8, 8.17993176251547990000e-002) (9, -2.30102542491295030000e-002) (10, 7.39135753201480840000e-003) (11, -9.39270033527463970000e-002) (12, -7.30102549941875620000e-002) (13, -4.65087897555349630000e-002) (14, -1.41906740395825180000e-002) (15, -8.53637708032692900000e-002) (16, 6.71264658440122730000e-002) (17, 4.38232428405171960000e-002) (18, -4.20166021885961530000e-002) (19, -5.76171883585629980000e-002) (20, -7.04711924563525830000e-002) (21, 8.40698254714880020000e-002) (22, -3.85131841676411570000e-002) (23, -6.07727059837088750000e-002) (24, -2.32849124563472290000e-002) (0, 5.00915534807973020000e-002) (1, 7.85949718742813270000e-002) (2, -7.12585459837100640000e-002) (3, 2.66967777415629830000e-002) (4, -7.84790050756782880000e-002) (5, -3.06823735040779870000e-002) (6, 3.41003423050096900000e-002) (7, -9.97009292200345950000e-002) (8, -3.51013188824254030000e-002) (9, -5.29724128987254520000e-002) (10, 7.62268077764929330000e-002) (11, -4.83703620488995510000e-002) (12, -3.28063969732284020000e-002) (13, 2.89306644936004890000e-003) (14, -7.45117198603111320000e-002) (15, -6.19384774854552230000e-002) (16, 5.09521491967461770000e-002) (17, 8.53698743189852390000e-002) (18, 8.81408704540262990000e-002) (19, -1.41601564610027710000e-002) (20, 2.34985355064054600000e-003) (21, 4.10888677997718330000e-002) (22, -9.11987318277169830000e-002) (23, -9.22851576251559890000e-002) (24, -5.65856942025675380000e-002) (0, -7.67578136437805370000e-002) (1, 7.01538096391232100000e-002) (2, 2.87292484749741560000e-002) (3, 7.95654308731172930000e-002) (4, 7.38464366472726400000e-002) (5, -2.87536625378379540000e-002) (6, -2.35107425378373590000e-002) (7, -4.61364752968620450000e-002) (8, 8.60839856577513270000e-002) (9, 6.54602060535580680000e-002) (10, -7.87353527357481650000e-003) (11, -6.08703622351640660000e-002) (12, 5.29357918044297550000e-002) (13, -6.04614266821954520000e-002) (14, 1.81945803492453710000e-002) (15, -8.30078137369127940000e-004) (16, 8.44726575087406670000e-003) (17, 1.49230959254964550000e-002) (18, -8.01818859604281900000e-002) (19, 5.04577644237542700000e-002) (20, -3.22326664959291520000e-002) (21, 5.25085457043132920000e-002) (22, 9.52331557159595830000e-002) (23, -4.45983893364427790000e-002) (24, 7.22839366239895750000e-002) (0, -5.77392586728819880000e-002) (1, 3.20800786030304150000e-002) (2, 7.85095226542580350000e-002) (3, 4.61303717811460960000e-002) (4, -4.12231451455227220000e-002) (5, 6.56311044936046530000e-002) (6, 3.67370610942998610000e-002) (7, 7.01904307334189070000e-002) (8, -3.58276372526233900000e-002) (9, 9.52087416530957850000e-002) (10, -2.48291019324824450000e-002) (11, 8.00170910360975540000e-002) (12, -6.05834969965144410000e-002) (13, -8.49121106402890290000e-002) (14, -6.16455087310896490000e-004) (15, -6.26220712456415640000e-003) (16, -7.44873057974473340000e-002) (17, -8.39416516414530630000e-002) (18, 9.56726088475079450000e-002) (19, 7.63793956693916700000e-002) (20, -4.43969733178164460000e-002) (21, 1.39892580209561860000e-002) (22, -2.95410160651954360000e-002) (23, -5.32958992316707740000e-002) (24, 5.94360360419159410000e-002) (0, -3.84399419790497630000e-002) (1, -5.99914559720673420000e-002) (2, 3.29162602561154930000e-002) (3, -7.87353527357481650000e-002) (4, 9.94445815599647180000e-002) (5, -9.80896010710239350000e-002) (6, -1.65954592316666090000e-002) (7, 7.25708018626392000000e-002) (8, -9.67468276135150520000e-002) (9, -8.06823742491360460000e-002) (10, 3.88610845634502770000e-002) (11, 7.50732433061784830000e-004) (12, -1.76757815133896660000e-002) (13, 4.94262702677588090000e-002) (14, 7.19299327124645060000e-002) (15, 5.51452644936034630000e-002) (16, 8.68347180908131120000e-002) (17, -5.26977546915077260000e-002) (18, -9.92553725727702840000e-002) (19, -6.85180674272487520000e-002) (20, -2.07275393713644010000e-002) (21, 7.63427745750959730000e-002) (22, -1.75415041676387770000e-002) (23, 1.61743166472660960000e-002) (24, -7.33276378114169350000e-002) (0, 5.66406258440110830000e-002) (1, 9.32006849825484100000e-002) (2, -2.84057621420288340000e-002) (3, 6.97570811175864950000e-002) (4, -1.74804690104792830000e-002) (5, -9.94812026542604140000e-002) (6, 4.36096197904589640000e-002) (7, 2.53417972526222000000e-002) (8, 4.03869634924376440000e-002) (9, 3.47229009080365360000e-002) (10, 7.26318370197986950000e-002) (11, -2.18933108731107500000e-002) (12, 5.83007821187493390000e-002) (13, -3.47290044237524850000e-002) (14, 8.94714368801032830000e-002) (15, 1.81579592549496740000e-002) (16, -8.16223156693922650000e-002) (17, 8.84765638184035200000e-002) (18, 7.71545421653172530000e-002) (19, -1.95007327124585570000e-002) (20, 6.33667001629873990000e-002) (21, -6.71936045168877170000e-002) (22, -1.99645999068707170000e-002) (23, -5.72875985099017270000e-002) (24, 2.86254887078030150000e-002) (0, 8.80371106868551580000e-002) (1, -5.85693368102511160000e-002) (2, 3.70605474272451830000e-002) (3, 3.06823735040779870000e-002) (4, -3.55834966239854110000e-002) (5, 5.09765632596099750000e-002) (6, -6.66137705238725180000e-002) (7, -5.62438973224743680000e-002) (8, -1.17797853317824770000e-002) (9, -1.69250490803278810000e-002) (10, 4.88342292433117110000e-002) (11, 9.53735365774264210000e-002) (12, -6.01440438649660790000e-002) (13, 7.52563487776569670000e-003) (14, 4.08996588125774000000e-002) (15, 1.23840333876614750000e-002) (16, 4.08142095925541070000e-002) (17, -4.62768561583288830000e-002) (18, 3.98437505937181410000e-002) (19, -5.13549812339988420000e-002) (20, 9.56665053317919960000e-002) (21, 9.61914076833636500000e-003) (22, -2.31506351105963400000e-002) (23, -7.44567882188675870000e-002) (24, 9.54101576717221180000e-002) (0, -6.33361825844076520000e-002) (1, 6.41174325960491840000e-002) (2, -8.33007824912783690000e-002) (3, -1.15844728288720940000e-002) (4, -1.79382326891754930000e-002) (5, -1.67968752502929420000e-002) (6, -9.19433607450628190000e-002) (7, 2.51464847497118170000e-002) (8, 6.95068369732325660000e-002) (9, 3.77258306402836750000e-002) (10, 6.46118173690410910000e-002) (11, -1.69921877532033250000e-002) (12, -5.03051765308555330000e-002) (13, 2.68737796973255170000e-002) (14, -6.50024423748618570000e-002) (15, 7.74963390454104230000e-002) (16, 9.18518080093235770000e-002) (17, 9.57946791618269340000e-002) (18, -7.47253429103693630000e-002) (19, 6.59423837951180760000e-002) (20, -2.47192386495953540000e-003) (21, -8.07739269848752880000e-002) (22, -2.69531254016328600000e-002) (23, -4.99328620721826160000e-002) (24, -8.20861828638044240000e-002) (0, 7.45605479860387280000e-002) (1, 5.32653816530910260000e-002) (2, -1.63757326658924280000e-002) (3, 5.59082039580971470000e-002) (4, -3.93859869150219310000e-002) (5, 4.69177253085035770000e-002) (6, -8.63647473806850030000e-003) (7, 3.42163091036127300000e-002) (8, -8.16223156693922650000e-002) (9, 3.79638677532057050000e-003) (10, -9.43969740628745060000e-002) (11, -8.93127454714885970000e-002) (12, -9.00817884516982300000e-002) (13, -6.92321787660148400000e-002) (14, -7.34252940628721260000e-002) (15, -7.77832042840600480000e-002) (16, 1.17797853317824770000e-002) (17, -6.34277353201468940000e-002) (18, 1.28967287078012300000e-002) (19, 3.83544927590264710000e-002) (20, 7.90588390686934870000e-002) (21, 6.45935068218932430000e-002) (22, -9.16442884749812950000e-002) (23, -9.40246596042015880000e-002) (24, 3.64685064027980840000e-002) (0, 4.47326666821936670000e-002) (1, 1.12487794644948740000e-002) (2, 6.62048349709039030000e-002) (3, -4.74487311757911810000e-002) (4, 9.56542983003600970000e-002) (5, 9.26086439581013110000e-002) (6, 2.48229984167664950000e-002) (7, -4.66064460069901540000e-002) (8, 8.74023450523964130000e-003) (9, -3.05786137369068460000e-002) (10, 5.75012215599599590000e-002) (11, -6.79809580442451990000e-002) (12, 4.48547369965126560000e-002) (13, -6.07360848894131780000e-002) (14, -6.90124522002406590000e-002) (15, -9.02587904074607650000e-002) (16, 7.52990733876686140000e-002) (17, 8.24584973224773420000e-002) (18, 2.16186526658930230000e-002) (19, 5.72509774156060300000e-003) (20, 9.81628432596153290000e-002) (21, 3.80676275203768450000e-002) (22, 1.22863771362062830000e-002) (23, 7.09899912922082880000e-002) (24, -3.87390142491312870000e-002) (0, -4.00085455180487770000e-002) (1, 4.92187507334165280000e-002) (2, -5.68786629569331130000e-002) (3, 2.30224612805614020000e-002) (4, 5.93505868218926480000e-002) (5, -6.02417001164212710000e-002) (6, -2.20581057974413850000e-002) (7, -1.74987795576271310000e-002) (8, 3.94958501979090220000e-002) (9, 7.23876963911607160000e-002) (10, 1.43615724796291030000e-002) (11, 9.75341811408725330000e-003) (12, 2.98095707566972120000e-002) (13, 4.03137213038462510000e-002) (14, 2.87353519906901060000e-002) (15, 7.87963878929076600000e-003) (16, -7.54028331548397550000e-002) (17, 4.97802741792838790000e-002) (18, 3.48449712223555250000e-002) (19, -6.20422372526263640000e-002) (20, -6.66931162281798610000e-002) (21, 9.44152846100223540000e-002) (22, 8.59008801862728430000e-002) (23, 3.80981450989565930000e-002) (24, 4.83337409546038540000e-002) (0, -2.31750491734601380000e-002) (1, -6.52709970663636340000e-002) (2, 6.79138193713697550000e-002) (3, 3.66394048428446690000e-002) (4, -4.12719732712503170000e-002) (5, 8.37402356228267310000e-003) (6, 9.62524428405231450000e-003) (7, 6.14440927124633160000e-002) (8, -7.91687023515805780000e-002) (9, 5.34790047031492580000e-002) (10, -4.29870611874321180000e-002) (11, -5.96984872177017680000e-002) (12, 1.37512209080341560000e-002) (13, -9.14611830035028110000e-002) (14, 2.36022952735766010000e-002) (15, -5.43457039348140820000e-002) (16, 8.11645519906960540000e-002) (17, -4.06005865424958760000e-002) (18, 1.14135743888255090000e-003) (19, -4.56909186495977340000e-002) (20, 3.65051274970937810000e-002) (21, -6.57653818393555410000e-002) (22, -2.31933597206079870000e-004) (23, 5.19348152270140420000e-002) (24, 7.44140636088559400000e-002) (0, -5.84716805587959240000e-003) (1, 1.08032228172305620000e-003) (2, -1.06811525029115730000e-003) (3, 9.81811538067631770000e-002) (4, -2.41760257508758510000e-002) (5, -4.46838385564660710000e-002) (6, 6.38244638416836100000e-002) (7, 4.45190436321354350000e-002) (8, -5.77087410943022410000e-002) (9, -4.60571295925547020000e-002) (10, 3.05297856111792500000e-002) (11, 8.67736829336536180000e-002) (12, 9.82055678696269750000e-002) (13, -9.11376966705574890000e-002) (14, 8.56750501047827130000e-002) (15, -2.04467776484307250000e-003) (16, 2.58117679627503090000e-002) (17, 6.95495615832442130000e-002) (18, -7.72705089639202920000e-003) (19, 5.47668465192145960000e-002) (20, 9.78393569266700070000e-002) (21, 9.28955091967509360000e-003) (22, 5.59387215366768940000e-002) (23, -3.61206060069889650000e-002) (24, 2.36450198835882470000e-002) (0, 1.18469240046579220000e-002) (1, 8.99719251688111400000e-002) (2, -8.22143566938393630000e-003) (3, -1.52221681955779790000e-002) (4, 8.97155775087412620000e-002) (5, 8.54675305704404310000e-002) (6, -2.07153323399325020000e-002) (7, -8.37646496856905290000e-002) (8, -3.46740727823089400000e-002) (9, -7.17163096624062750000e-003) (10, 2.22106936903401220000e-002) (11, -1.02844239813748570000e-002) (12, 4.63500983469202770000e-002) (13, -7.92236339930241230000e-002) (14, 9.91577163213150930000e-002) (15, 5.50292976950004230000e-002) (16, -7.35961925029187110000e-002) (17, -4.07531744353946120000e-002) (18, 2.79174808847528770000e-002) (19, 9.59960951804532670000e-002) (20, 4.24194342258488180000e-002) (21, -6.76696787427317760000e-002) (22, 3.16223149243342050000e-002) (23, 5.70312508498318490000e-002) (24, 1.98486331082676770000e-002) (0, 8.75793470081589480000e-002) (1, 9.58557143189864290000e-002) (2, 9.66735854249236580000e-002) (3, -6.29272470314390380000e-002) (4, 2.78259281490136350000e-002) (5, -1.87988284051243680000e-003) (6, 2.43347171594905380000e-002) (7, 4.01733404423794130000e-002) (8, 9.19311537136309200000e-002) (9, -9.26513685681129570000e-003) (10, -2.34924319906895110000e-002) (11, -6.06933602794015310000e-002) (12, 9.04785169732349460000e-002) (13, 1.85607912922023390000e-002) (14, 8.86413587427341550000e-002) (15, 1.80480959720625830000e-002) (16, 2.93579105937169520000e-003) (17, 5.26855476600758270000e-002) (18, 1.90185549708985490000e-002) (19, 8.68225110593812130000e-002) (20, -5.77148446100181900000e-002) (21, 2.14538577415623880000e-002) (22, 8.07983410477390860000e-002) (23, 1.17248536903389320000e-002) (24, -6.45751962747453940000e-003) (0, -8.00903332246889480000e-002) (1, 3.85192876833571060000e-002) (2, -5.00061042607740090000e-002) (3, 3.23242192316683940000e-002) (4, -2.08984378114109860000e-002) (5, -7.46765147846417680000e-002) (6, -7.66052257508818000000e-002) (7, -7.02209483119986540000e-002) (8, 7.63305675436640740000e-002) (9, -6.28723153899954920000e-002) (10, -3.92822271478507900000e-002) (11, 5.00427253550697060000e-002) (12, 6.77185068684593720000e-002) (13, -4.00390630966285240000e-002) (14, -5.93505868218926480000e-002) (15, 4.65576178812625590000e-002) (16, 2.42614749708991440000e-002) (17, -1.31774904307349060000e-002) (18, -3.36425786263134800000e-002) (19, 6.35009775087382880000e-002) (20, 5.26306160186322810000e-002) (21, -1.98242190454038790000e-002) (22, 2.85644535506435200000e-003) (23, -5.15625007683411240000e-002) (24, 8.20495617695087280000e-002) (0, 3.64501958556502360000e-002) (1, 8.63037122235255080000e-003) (2, -1.73095705704326970000e-002) (3, 9.83764663096735600000e-002) (4, 8.70971692665989390000e-003) (5, 9.25598158323737150000e-002) (6, -6.45874033061772930000e-002) (7, 6.74438486612416450000e-003) (8, 4.37866217462214990000e-002) (9, -7.24670420954680590000e-002) (10, -5.21850593713679700000e-002) (11, 3.91845708963955990000e-003) (12, -9.88769545983814170000e-003) (13, -4.80773932945339770000e-002) (14, 5.36987312689234390000e-002) (15, 4.17419439813784270000e-002) (16, -6.74743662398213930000e-002) (17, -9.77783217695105120000e-003) (18, 4.25415045401678070000e-002) (19, 6.27685556228243510000e-002) (20, 1.02539064027951100000e-002) (21, 2.40783694994206600000e-002) (22, 7.14904795809161440000e-002) (23, -1.05407716414447350000e-002) (24, -2.56408695227037240000e-002) (0, -5.50659187892961200000e-002) (1, -6.76879892898796240000e-002) (2, -5.18554695227066990000e-002) (3, 4.08813482654295510000e-002) (4, 1.95922854481977990000e-002) (5, -2.02148440512246450000e-002) (6, -9.10339369033863480000e-002) (7, 9.59655776018735200000e-002) (8, 9.99023452386609280000e-002) (9, 2.76000980675235040000e-002) (10, 2.31384280791644410000e-002) (11, 9.13085951106040740000e-003) (12, -9.21630873108370000000e-002) (13, 1.81213381606539770000e-002) (14, 3.86596685448239440000e-002) (15, -8.89343274970997300000e-002) (16, 2.72338871245665360000e-002) (17, -2.77893070547179380000e-002) (18, 7.58605968335359650000e-002) (19, -7.93457043073431120000e-003) (20, -6.66015634924406190000e-002) (21, 2.53906253783497960000e-002) (22, -5.60974129452915800000e-002) (23, 7.74536144353987770000e-002) (24, 9.18518080093235770000e-002) (0, 5.65612801397037400000e-002) (1, 7.96081554831289400000e-002) (2, -6.38000497788198120000e-002) (3, 5.74951180442440090000e-002) (4, -8.44055188358652230000e-002) (5, 8.97155775087412620000e-002) (6, -2.09899905471502280000e-002) (7, 5.37109383003553380000e-003) (8, -4.40490729220073260000e-002) (9, -2.19909671245659410000e-002) (10, -9.79431166938411480000e-002) (11, 2.43713382537862340000e-002) (12, 7.86560070314408220000e-002) (13, 3.83850103376062180000e-002) (14, -6.72424326426153130000e-002) (15, 5.02319343422641400000e-003) (16, -6.15234384167706590000e-003) (17, 9.51965346216638860000e-002) (18, 3.36669926891772770000e-002) (19, 5.27160652386555740000e-002) (20, -9.38415541327231040000e-002) (21, 7.21557627939546360000e-002) (22, -7.91259777415689310000e-002) (23, 5.75500496856875540000e-002) (24, -6.98303233061778880000e-002) (25, -2.90588383236354280000e-002) (26, 5.31066902444763400000e-002) (27, -4.79431159487830880000e-002) (28, 4.21752935972108390000e-002) (29, 4.08691412339976520000e-002) (30, 4.77294928987248570000e-002) (31, 8.81164563911625010000e-002) (32, 7.45666515017546770000e-002) (33, 2.08190921071036430000e-002) (34, 8.00415050989613520000e-002) (35, 6.41845712689246280000e-002) (36, -4.09973150640325910000e-002) (37, 3.46374516880132430000e-002) (38, -7.80822765541415720000e-002) (39, 3.42346196507605780000e-002) (40, -7.52990733876686140000e-002) (41, 2.13745120372550450000e-002) (42, -2.37426761350434390000e-002) (43, 2.95349125494794860000e-002) (44, 5.79956063329518660000e-002) (45, 8.14758312922094770000e-002) (46, -3.67065435157201140000e-002) (47, -7.53784190919759570000e-002) (48, -7.04650889406366330000e-002) (49, 2.02697756926681900000e-002) (50, 1.51794435855663320000e-002) (51, -2.13867190686869440000e-002) (52, 9.52819838416871790000e-002) (53, 6.99707041676447260000e-002) (54, 3.49853520838223630000e-002) (55, -1.68334963445886390000e-002) (56, -2.24060061932505050000e-002) (57, 7.14355479394725990000e-002) (58, 7.64099132479714170000e-002) (59, -5.16174324097846690000e-002) (60, -6.73889170197981000000e-002) (61, 9.69421401164254350000e-002) (62, 4.45556647264311320000e-004) (63, -4.22180182072224850000e-002) (64, 1.02722169499429580000e-002) (65, -4.76074225844058670000e-003) (66, -3.47412114551843840000e-002) (67, -7.63000499650843270000e-002) (68, 1.30920412107116140000e-002) (69, 4.00939947380720700000e-002) (70, 5.48095711292262420000e-003) (71, 7.43469249359804960000e-002) (72, -3.99047857508776360000e-002) 
