FANN_FLO_2.1
num_layers=4
learning_rate=0.500000
connection_rate=1.000000
network_type=0
learning_momentum=0.000000
training_algorithm=2
train_error_function=1
train_stop_function=0
cascade_output_change_fraction=0.010000
quickprop_decay=-0.000100
quickprop_mu=1.750000
rprop_increase_factor=1.200000
rprop_decrease_factor=0.500000
rprop_delta_min=0.000000
rprop_delta_max=50.000000
rprop_delta_zero=0.100000
cascade_output_stagnation_epochs=12
cascade_candidate_change_fraction=0.010000
cascade_candidate_stagnation_epochs=12
cascade_max_out_epochs=150
cascade_max_cand_epochs=150
cascade_num_candidate_groups=2
bit_fail_limit=3.49999999999999980000e-001
cascade_candidate_limit=1.00000000000000000000e+003
cascade_weight_multiplier=4.00000000000000020000e-001
cascade_activation_functions_count=10
cascade_activation_functions=3 5 7 8 10 11 14 15 16 17 
cascade_activation_steepnesses_count=4
cascade_activation_steepnesses=2.50000000000000000000e-001 5.00000000000000000000e-001 7.50000000000000000000e-001 1.00000000000000000000e+000 
layer_sizes=2 4 5 2 
scale_included=0
neurons (num_inputs, activation_function, activation_steepness)=(0, 0, 0.00000000000000000000e+000) (0, 0, 0.00000000000000000000e+000) (2, 5, 5.00000000000000000000e-001) (2, 5, 5.00000000000000000000e-001) (2, 5, 5.00000000000000000000e-001) (0, 5, 5.00000000000000000000e-001) (4, 5, 5.00000000000000000000e-001) (4, 5, 5.00000000000000000000e-001) (4, 5, 5.00000000000000000000e-001) (4, 5, 5.00000000000000000000e-001) (0, 5, 5.00000000000000000000e-001) (5, 5, 5.00000000000000000000e-001) (0, 5, 5.00000000000000000000e-001) 
connections (connected_to_neuron, weight)=(0, 5.63791707321815490000e+000) (1, 3.29896663159619630000e-001) (0, 8.94342564914535030000e+000) (1, -7.79697858868484590000e+000) (0, 6.44214180160079050000e+000) (1, -1.59950443494924550000e+000) (2, 2.97111300453855790000e+000) (3, 5.83171462753610200000e+000) (4, 3.61363208402244180000e+000) (5, -1.62551979877230090000e+000) (2, 5.45176353694862040000e+000) (3, 6.82946938900922710000e+000) (4, 2.76013898026529290000e+000) (5, 2.48267315889787410000e+000) (2, 2.91459079254542890000e+000) (3, -5.50796952948349540000e+000) (4, -1.80914018963247300000e-001) (5, -9.30889555819678030000e-001) (2, 3.17935720374753530000e+000) (3, 1.69299970447263930000e+000) (4, 5.49122045178603630000e+000) (5, 3.41660373799968920000e+000) (6, 3.29060410494436130000e+000) (7, -3.90899930260292550000e+000) (8, 2.66370411742507860000e+000) (9, 2.91941072036608550000e+000) (10, -1.69263135772463280000e+000) 
