FANN_FLO_2.1
num_layers=4
learning_rate=0.700000
connection_rate=1.000000
network_type=0
learning_momentum=0.000000
training_algorithm=2
train_error_function=1
train_stop_function=0
cascade_output_change_fraction=0.010000
quickprop_decay=-0.000100
quickprop_mu=1.750000
rprop_increase_factor=1.200000
rprop_decrease_factor=0.500000
rprop_delta_min=0.000000
rprop_delta_max=50.000000
rprop_delta_zero=0.100000
cascade_output_stagnation_epochs=12
cascade_candidate_change_fraction=0.010000
cascade_candidate_stagnation_epochs=12
cascade_max_out_epochs=150
cascade_max_cand_epochs=150
cascade_num_candidate_groups=2
bit_fail_limit=3.49999999999999980000e-001
cascade_candidate_limit=1.00000000000000000000e+003
cascade_weight_multiplier=4.00000000000000020000e-001
cascade_activation_functions_count=10
cascade_activation_functions=3 5 7 8 10 11 14 15 16 17 
cascade_activation_steepnesses_count=4
cascade_activation_steepnesses=2.50000000000000000000e-001 5.00000000000000000000e-001 7.50000000000000000000e-001 1.00000000000000000000e+000 
layer_sizes=31 31 17 2 
scale_included=0
neurons (num_inputs, activation_function, activation_steepness)=(0, 0, 0.00000000000000000000e+000) (0, 0, 0.00000000000000000000e+000) (0, 0, 0.00000000000000000000e+000) (0, 0, 0.00000000000000000000e+000) (0, 0, 0.00000000000000000000e+000) (0, 0, 0.00000000000000000000e+000) (0, 0, 0.00000000000000000000e+000) (0, 0, 0.00000000000000000000e+000) (0, 0, 0.00000000000000000000e+000) (0, 0, 0.00000000000000000000e+000) (0, 0, 0.00000000000000000000e+000) (0, 0, 0.00000000000000000000e+000) (0, 0, 0.00000000000000000000e+000) (0, 0, 0.00000000000000000000e+000) (0, 0, 0.00000000000000000000e+000) (0, 0, 0.00000000000000000000e+000) (0, 0, 0.00000000000000000000e+000) (0, 0, 0.00000000000000000000e+000) (0, 0, 0.00000000000000000000e+000) (0, 0, 0.00000000000000000000e+000) (0, 0, 0.00000000000000000000e+000) (0, 0, 0.00000000000000000000e+000) (0, 0, 0.00000000000000000000e+000) (0, 0, 0.00000000000000000000e+000) (0, 0, 0.00000000000000000000e+000) (0, 0, 0.00000000000000000000e+000) (0, 0, 0.00000000000000000000e+000) (0, 0, 0.00000000000000000000e+000) (0, 0, 0.00000000000000000000e+000) (0, 0, 0.00000000000000000000e+000) (0, 0, 0.00000000000000000000e+000) (31, 6, 5.00000000000000000000e-001) (31, 6, 5.00000000000000000000e-001) (31, 6, 5.00000000000000000000e-001) (31, 6, 5.00000000000000000000e-001) (31, 6, 5.00000000000000000000e-001) (31, 6, 5.00000000000000000000e-001) (31, 6, 5.00000000000000000000e-001) (31, 6, 5.00000000000000000000e-001) (31, 6, 5.00000000000000000000e-001) (31, 6, 5.00000000000000000000e-001) (31, 6, 5.00000000000000000000e-001) (31, 6, 5.00000000000000000000e-001) (31, 6, 5.00000000000000000000e-001) (31, 6, 5.00000000000000000000e-001) (31, 6, 5.00000000000000000000e-001) (31, 6, 5.00000000000000000000e-001) (31, 6, 5.00000000000000000000e-001) (31, 6, 5.00000000000000000000e-001) (31, 6, 5.00000000000000000000e-001) (31, 6, 5.00000000000000000000e-001) (31, 6, 5.00000000000000000000e-001) (31, 6, 5.00000000000000000000e-001) (31, 6, 5.00000000000000000000e-001) (31, 6, 5.00000000000000000000e-001) (31, 6, 5.00000000000000000000e-001) (31, 6, 5.00000000000000000000e-001) (31, 6, 5.00000000000000000000e-001) (31, 6, 5.00000000000000000000e-001) (31, 6, 5.00000000000000000000e-001) (31, 6, 5.00000000000000000000e-001) (0, 6, 0.00000000000000000000e+000) (31, 6, 5.00000000000000000000e-001) (31, 6, 5.00000000000000000000e-001) (31, 6, 5.00000000000000000000e-001) (31, 6, 5.00000000000000000000e-001) (31, 6, 5.00000000000000000000e-001) (31, 6, 5.00000000000000000000e-001) (31, 6, 5.00000000000000000000e-001) (31, 6, 5.00000000000000000000e-001) (31, 6, 5.00000000000000000000e-001) (31, 6, 5.00000000000000000000e-001) (31, 6, 5.00000000000000000000e-001) (31, 6, 5.00000000000000000000e-001) (31, 6, 5.00000000000000000000e-001) (31, 6, 5.00000000000000000000e-001) (31, 6, 5.00000000000000000000e-001) (31, 6, 5.00000000000000000000e-001) (0, 6, 0.00000000000000000000e+000) (17, 6, 5.00000000000000000000e-001) (0, 6, 0.00000000000000000000e+000) 
connections (connected_to_neuron, weight)=(0, 2.62548832037282410000e-001) (1, 3.99902349709009290000e-001) (2, -9.58496108032704800000e-002) (3, -3.84423833853361430000e-001) (4, 2.89599613690370460000e-001) (5, -1.99951174854504640000e-001) (6, -2.00976565494784150000e-001) (7, 2.80029301047761690000e-002) (8, -3.87084966705515400000e-001) (9, -6.29882821885985320000e-003) (10, 3.91259771455224840000e-001) (11, -2.60571292945314780000e-001) (12, 1.90820315343444240000e-001) (13, 1.93847659138555170000e-001) (14, 3.78295904074548160000e-001) (15, -3.51416020861506690000e-001) (16, -4.59960944353952070000e-002) (17, 3.27539067380712370000e-001) (18, 2.16064456344611240000e-002) (19, 4.33837897089688340000e-002) (20, 2.20703128288732840000e-002) (21, 2.86352543329485340000e-001) (22, -1.04785157811420500000e-001) (23, -3.44824223888281270000e-001) (24, 4.03076177881303010000e-002) (25, -3.84008794784676870000e-001) (26, -8.28857434225938050000e-002) (27, 2.64819339883615610000e-001) (28, 6.19140634225914250000e-002) (29, -3.01025395110627870000e-002) (30, -3.11645512456379950000e-001) (0, 1.85156252759043130000e-001) (1, -1.99682620163002870000e-001) (2, 2.51855472502938940000e-001) (3, -3.49365239580947670000e-002) (4, 3.45068364516919250000e-001) (5, 7.70019542724185160000e-002) (6, 3.72851568055921230000e-001) (7, -1.11791993853330500000e-001) (8, -9.97802749243419380000e-002) (9, -3.10498051501781450000e-001) (10, 3.46752934854521300000e-001) (11, 1.96166995110615970000e-001) (12, 2.95117191897588780000e-001) (13, -2.75048832223546920000e-001) (14, 2.50244144353928280000e-001) (15, -1.54785158556478560000e-001) (16, 3.02026371688043580000e-001) (17, -2.56445316321332940000e-001) (18, -2.28222659650782590000e-001) (19, 2.62695316414465200000e-001) (20, 1.61206057089657410000e-001) (21, 2.57739261653114230000e-001) (22, -3.25561528288744740000e-001) (23, -1.41943361490120880000e-001) (24, -2.52197269383032110000e-001) (25, -6.85791025844082470000e-002) (26, -1.01831056204900960000e-001) (27, 2.16699221979069990000e-001) (28, 9.04052747846435520000e-002) (29, 3.24658207962784220000e-001) (30, -1.74316408847516870000e-001) (0, 2.01635745192106700000e-001) (1, 3.65966802328330230000e-001) (2, 2.08520510919697700000e-001) (3, 2.37817386356255160000e-001) (4, 1.87963869988379880000e-001) (5, -3.03613285774190440000e-001) (6, 2.75463871292231490000e-001) (7, -3.17285160977917260000e-001) (8, -1.44775392782321430000e-001) (9, -1.28271486286394070000e-001) (10, 2.69799808707830380000e-001) (11, -1.59423830500600160000e-002) (12, -2.37670901979072370000e-001) (13, -7.51464854947698770000e-002) (14, -2.36425784773018680000e-001) (15, 1.34765627008164300000e-002) (16, -2.69335941513418220000e-001) (17, 2.82739262025643260000e-001) (18, -1.97143557625167890000e-001) (19, -3.47924809871983600000e-001) (20, 2.59643558556490460000e-001) (21, 2.19287112642632560000e-001) (22, -1.50878908498270900000e-001) (23, 2.65722660209576130000e-001) (24, 3.90625005820766090000e-004) (25, -6.52343759720679370000e-002) (26, 4.11621099883632270000e-002) (27, -3.80249029103651990000e-001) (28, 3.12011723399336920000e-001) (29, -2.13378909429593480000e-001) (30, 2.12402346915041560000e-003) (0, 3.57543950640319960000e-001) (1, 3.25683598603063730000e-001) (2, -2.80761722933675630000e-003) (3, 2.17016604796299360000e-001) (4, 3.68164067986072040000e-001) (5, -5.81787118044303500000e-002) (6, -2.37304691036115400000e-001) (7, -3.94482427753246160000e-001) (8, 1.68139650942976000000e-001) (9, -2.15356448521561110000e-001) (10, -1.11206056344599350000e-001) (11, 1.14868165774169030000e-001) (12, -3.77783208754408410000e-001) (13, 3.39965825378385490000e-001) (14, -1.21997072130398010000e-001) (15, -4.15527349941839930000e-002) (16, -7.17041026309743760000e-002) (17, -2.99560551338800000000e-001) (18, -6.73828135040821510000e-003) (19, -7.57080089406372280000e-002) (20, -8.69140637951204550000e-003) (21, 1.43872072456360910000e-001) (22, 2.33398440977907740000e-002) (23, 3.79223638463372480000e-001) (24, -8.88427747613604880000e-002) (25, -2.30688480000026170000e-001) (26, -3.25195317345787770000e-001) (27, -2.06860354644959440000e-001) (28, -9.00878919674141800000e-002) (29, 2.15747073527381870000e-001) (30, 3.15332035948813430000e-001) (0, -3.91430669895271420000e-001) (1, 2.22753909569291860000e-001) (2, 2.88867191804456520000e-001) (3, 1.93896487264282770000e-001) (4, -1.19262697089652650000e-001) (5, -1.21752931501760030000e-001) (6, 1.20556642421433930000e-001) (7, -3.37866215972098870000e-001) (8, 1.12670900116427220000e-001) (9, -1.07421876600710680000e-001) (10, 8.60595715948875290000e-002) (11, -2.77246097881288730000e-001) (12, 1.10913087590233770000e-001) (13, 2.85644535506435200000e-003) (14, -9.57519545518152880000e-002) (15, 2.90283207450556800000e-002) (16, 8.63281262863893060000e-002) (17, 6.44287118975626070000e-002) (18, -2.54638675669411900000e-001) (19, -3.38867192549514580000e-001) (20, -3.74755864959297470000e-001) (21, 3.73046880558831620000e-002) (22, -2.81494144819589560000e-002) (23, -3.95996099650801630000e-001) (24, 3.56054692805628290000e-001) (25, 8.67431653550738700000e-002) (26, -2.63134769546013560000e-001) (27, -1.48266603771844530000e-001) (28, -6.39892587660142450000e-002) (29, 3.22705082933680390000e-001) (30, -1.34375002002343540000e-001) (0, -3.36499028451726190000e-001) (1, -2.16699221979069990000e-001) (2, 1.03466798416775420000e-001) (3, -1.55493166379528700000e-001) (4, 2.96069340349276900000e-001) (5, -2.20483401722958660000e-001) (6, -3.71606450849867540000e-001) (7, -5.68847664726490620000e-002) (8, 3.37915044097826470000e-001) (9, -3.25683598603063730000e-002) (10, -2.55444339743917230000e-001) (11, -1.05981446891746600000e-001) (12, -2.30126956554158820000e-001) (13, 6.90429697788204070000e-002) (14, 2.92578129359753800000e-001) (15, 3.55371099045441950000e-001) (16, -3.22705082933680390000e-001) (17, 4.89501960419147510000e-002) (18, 1.16577150174634880000e-001) (19, 1.81250002700835470000e-001) (20, 1.38891603632146140000e-001) (21, -2.51928714691530330000e-001) (22, -1.37060548917361300000e-001) (23, -2.75000004097819330000e-001) (24, 1.69433596274757290000e-002) (25, 1.26220705005835040000e-002) (26, 2.93457035622850530000e-001) (27, 1.46484377182787280000e-004) (28, 3.74365239953476700000e-001) (29, 1.43408205261948750000e-001) (30, -3.62768560093172710000e-001) (0, -7.56835948777734300000e-002) (1, 4.30175787660118660000e-002) (2, -3.09472660861501940000e-001) (3, 3.06982426449394550000e-001) (4, -1.29125978486626990000e-001) (5, 2.68798832130414670000e-001) (6, 2.18261722002353050000e-001) (7, -2.96020512223549300000e-001) (8, 1.53442385098969680000e-001) (9, -2.41821292665918010000e-001) (10, -1.34716798882436710000e-001) (11, 2.37475589476161990000e-001) (12, 2.68115238370228330000e-001) (13, 2.51440433434254370000e-001) (14, 3.25366215785834360000e-001) (15, -3.17041020349279280000e-001) (16, 3.18554692246834750000e-001) (17, -5.27343757858034220000e-002) (18, -1.26904298766021380000e-001) (19, 2.04467776484307250000e-001) (20, 4.89501960419147510000e-002) (21, -2.95922855972094110000e-001) (22, 6.02050790221255740000e-002) (23, 3.66040044516921630000e-001) (24, 1.09765626635635270000e-001) (25, 1.42822267753217600000e-001) (26, -2.93090824679893560000e-001) (27, -3.42749028544858450000e-001) (28, 1.81176760512244070000e-001) (29, 1.76440432316667280000e-001) (30, -1.86035159022139850000e-001) (0, -1.42382814621669240000e-001) (1, 1.79516604237505820000e-001) (2, -1.09204103189767920000e-001) (3, 2.19555667334134340000e-001) (4, -3.45458989522740010000e-002) (5, -2.86621098020987120000e-002) (6, -9.79248061466933000000e-002) (7, -3.73144536810286810000e-001) (8, 2.15332034458697310000e-001) (9, -1.79492190174642020000e-001) (10, 1.16088868917358920000e-001) (11, -1.73217776018645960000e-001) (12, -9.01367200931417760000e-002) (13, 1.92895510686867060000e-001) (14, -3.86254888568146270000e-001) (15, 1.41040041164160360000e-001) (16, -2.09375003119930620000e-001) (17, -5.60546883352799340000e-002) (18, -2.11669925029127630000e-001) (19, -2.89453129313187670000e-001) (20, 7.28515635855728760000e-002) (21, 3.14257817182806320000e-001) (22, -3.40771489452890820000e-001) (23, 5.39794929918571140000e-002) (24, 6.94824229103687680000e-002) (25, 1.57592775785815320000e-001) (26, -1.12695314179291020000e-001) (27, -7.80273449126980270000e-002) (28, 1.29101564423763190000e-001) (29, 2.27075198696184090000e-001) (30, -3.83203130710171540000e-001) (0, -3.28686528335310870000e-001) (1, -1.87036135599555560000e-001) (2, 3.43920903562320750000e-001) (3, 2.68725589941823270000e-001) (4, -1.54052736670564630000e-002) (5, 2.36181644144380700000e-001) (6, 7.42187511059455570000e-002) (7, -3.89013677671755430000e-001) (8, 1.60156252386514100000e-001) (9, -3.02172856065226370000e-001) (10, 3.38232426915055840000e-001) (11, -1.70190432223535030000e-001) (12, -2.61230472642637320000e-003) (13, 1.25195314365555530000e-001) (14, -2.22070315809105520000e-001) (15, 1.28100587846347480000e-001) (16, 1.02197267147857930000e-001) (17, -1.42822267753217600000e-001) (18, 1.06811525029115730000e-001) (19, -2.50976566239842210000e-002) (20, -1.61987307101298940000e-001) (21, -1.08544923492445380000e-001) (22, -1.31982423841691340000e-001) (23, 3.31884770570468390000e-001) (24, -2.53198245960447820000e-001) (25, -7.88818371129309530000e-002) (26, -3.75048833713663040000e-001) (27, 1.81054690197925080000e-001) (28, -3.34228520605392990000e-001) (29, 8.50097668917442210000e-002) (30, -3.90112310500626340000e-001) (0, -3.20800786030304150000e-001) (1, 1.64062502444721760000e-001) (2, -4.26513678230548980000e-002) (3, 5.52490242607746040000e-002) (4, 6.37695322002400640000e-002) (5, 1.24902345611189960000e-001) (6, 3.01342777927857240000e-001) (7, -3.67211919534383920000e-001) (8, -3.64477544493638560000e-001) (9, -3.01904301373724590000e-001) (10, -8.82080091269017430000e-002) (11, -1.74414065098972060000e-001) (12, -5.74707039813802110000e-002) (13, -1.52368166332962570000e-001) (14, 2.71948246239844590000e-001) (15, 2.57788089778841820000e-001) (16, -1.09252931315495520000e-001) (17, -2.80029301047761690000e-001) (18, -5.08056648195633900000e-002) (19, 7.27539073341176850000e-003) (20, -9.36035170198010750000e-002) (21, -1.42749025564626210000e-001) (22, 2.54980472549505070000e-001) (23, 3.26000981420293100000e-001) (24, 2.74584965029134760000e-001) (25, -3.18945317252655510000e-001) (26, 9.37744154598476600000e-002) (27, -2.06738284330640450000e-001) (28, -2.20263675157184480000e-001) (29, -3.28662114272447070000e-001) (30, -7.40478526658989720000e-002) (0, -2.73291019697353480000e-001) (1, 3.72436528987236670000e-001) (2, -1.34130861373705560000e-001) (3, -3.01025395110627870000e-002) (4, -3.23828129825415090000e-001) (5, -1.21826173690351420000e-002) (6, 3.04785160791652740000e-001) (7, -2.31835940954624680000e-001) (8, 2.54150394412135940000e-002) (9, 4.07714849825424610000e-002) (10, -1.54492189802112990000e-001) (11, 2.42602542677559540000e-001) (12, 3.26489262677569060000e-001) (13, 1.22363283073354980000e-001) (14, -2.26977542444728900000e-001) (15, 1.63574221187445800000e-001) (16, -7.93457043073431120000e-003) (17, 2.29980472176976040000e-002) (18, -1.69506838463348690000e-001) (19, 1.58276369546001660000e-001) (20, 3.70581060209588030000e-001) (21, 7.22656260768417270000e-003) (22, 2.95068363771861190000e-001) (23, -2.16821292293388980000e-001) (24, -3.70922857089681200000e-001) (25, 2.64892582072207010000e-001) (26, 1.24096681536684630000e-001) (27, -1.46728517811425260000e-002) (28, 2.68994144633325050000e-001) (29, 6.40380868917418410000e-002) (30, -3.32031254947651180000e-003) (0, -3.22119145424949240000e-001) (1, -1.00415040558800680000e-001) (2, -6.97265635390067470000e-002) (3, 2.75366215040776300000e-001) (4, 3.54687505285255610000e-001) (5, 2.94409184074538640000e-001) (6, 1.77783205774176170000e-001) (7, 3.13476567171164790000e-001) (8, 2.68896488381869860000e-001) (9, -2.44604495832390970000e-001) (10, -8.32519543655507730000e-002) (11, 3.32299809639152950000e-001) (12, 1.00585938998847270000e-001) (13, -1.90112307520394100000e-001) (14, 2.62500003911554810000e-001) (15, 2.94067387194445470000e-001) (16, 3.85498052619368540000e-002) (17, 6.53076181606593310000e-002) (18, -1.28857423795125210000e-001) (19, 1.94873049778834680000e-001) (20, -1.98950198277088930000e-001) (21, 2.46899417741587970000e-001) (22, 1.26806642514566190000e-001) (23, 2.03173831152525960000e-001) (24, -7.92236339930241230000e-002) (25, 4.30664068917394620000e-002) (26, 1.05297853131560260000e-001) (27, 2.68359378998866300000e-001) (28, -1.81396487078018250000e-001) (29, -2.16430667287568210000e-001) (30, 2.39575198882448600000e-001) (0, 2.47802738067548490000e-002) (1, -2.08203128102468330000e-001) (2, -2.24414065844030120000e-001) (3, -3.88452154225888080000e-001) (4, 2.16186526658930230000e-001) (5, 4.08447271711338540000e-002) (6, -2.77368168195607720000e-001) (7, 1.95581057601884820000e-001) (8, 6.52099619092041390000e-002) (9, -1.39233400512239310000e-001) (10, 5.10742195110651660000e-002) (11, -2.21508792363238170000e-001) (12, -1.86645510593734800000e-001) (13, -2.78881840093163190000e-001) (14, 1.69726565029122870000e-001) (15, -3.18896489126927920000e-001) (16, -3.43750005122274160000e-001) (17, -2.39624027008176200000e-001) (18, 2.87084965215399280000e-001) (19, 2.06494143702002480000e-001) (20, 2.99291996647298220000e-001) (21, -1.80883791757878500000e-001) (22, 2.11450198463353440000e-001) (23, 3.39550786309700920000e-001) (24, 3.58349614714825290000e-001) (25, 1.37475587986045870000e-001) (26, 1.58764650803277620000e-001) (27, 2.23364261140886810000e-001) (28, -1.68823244703162350000e-001) (29, -1.58520510174639640000e-001) (30, 1.93432620069870610000e-001) (0, -2.62963871105966970000e-001) (1, 6.36962900116486710000e-002) (2, 3.43652348870818970000e-001) (3, 1.26806642514566190000e-001) (4, -2.99975590407484560000e-001) (5, -1.63037111804442250000e-001) (6, 3.82470708824257600000e-001) (7, -3.01464848242176230000e-001) (8, -1.71875002561137080000e-001) (9, 3.99267584074550540000e-001) (10, 2.25976565867313180000e-001) (11, 6.57470712922076930000e-002) (12, -3.39599614435428520000e-002) (13, -1.31469728521551590000e-001) (14, 1.64550783701997720000e-001) (15, 2.49755863096652320000e-002) (16, 3.21362309476171500000e-001) (17, 2.30102542491295030000e-001) (18, -3.82470708824257600000e-001) (19, -8.00781261932570490000e-003) (20, 2.52929691268946040000e-002) (21, 1.54833986682206160000e-001) (22, 3.79052740023325900000e-001) (23, -3.56201177182811080000e-002) (24, 1.44873049033776620000e-001) (25, 6.23535165541397870000e-002) (26, 3.28002934575124530000e-001) (27, -3.08007817089674060000e-001) (28, 7.16552745052467800000e-002) (29, -1.45043947473823210000e-001) (30, 3.26782231431934630000e-001) (0, 8.00292980675294530000e-002) (1, -1.87890627799788490000e-001) (2, -2.53613285029132380000e-001) (3, 2.34448245681051050000e-001) (4, -3.49731450523904640000e-001) (5, 3.04492192037287170000e-001) (6, -1.88696291874293820000e-001) (7, 3.58642583469190870000e-001) (8, 2.84814457369066080000e-001) (9, -1.12646486053563420000e-001) (10, -1.20092775227021780000e-001) (11, 2.71777347799798010000e-001) (12, 7.77343761583324520000e-002) (13, -1.55566408568120100000e-001) (14, 2.02758792083841400000e-001) (15, 1.16210939231677910000e-001) (16, 3.19555668824250460000e-001) (17, 3.51391606798642900000e-001) (18, -2.88842777741592730000e-001) (19, 3.23461918882458120000e-001) (20, -3.60424810058248110000e-001) (21, -2.51123050617025000000e-001) (22, 2.97656254435423760000e-001) (23, 7.24853526426159080000e-002) (24, -6.90429697788204070000e-002) (25, 6.71875010011717680000e-002) (26, 3.41943364470353120000e-001) (27, 1.21093751804437490000e-002) (28, 2.83569340163012380000e-001) (29, -2.72338871245665360000e-001) (30, 3.07080082700849740000e-001) (0, -2.76123050989554030000e-002) (1, 3.49829106775359830000e-001) (2, 3.45410161397012420000e-001) (3, -3.69116216437760160000e-001) (4, 3.90136724563490130000e-001) (5, -2.31884769080352270000e-001) (6, -2.41259769220050660000e-001) (7, -2.62109378905734050000e-001) (8, -2.26538089313180540000e-001) (9, -1.30810548824229040000e-001) (10, -1.89868166891756120000e-001) (11, 3.96386724656622390000e-001) (12, 1.30371095692680680000e-001) (13, -1.09643556321316280000e-001) (14, 2.03710940535529520000e-001) (15, 2.45874027101308460000e-001) (16, -1.13525392316660150000e-001) (17, 3.22412114179314810000e-001) (18, -2.35595706635649550000e-001) (19, -8.01269543189846440000e-002) (20, -1.83325198044258290000e-001) (21, 1.44042970896407500000e-002) (22, -3.76513677485490920000e-001) (23, 1.88867190314340410000e-001) (24, -8.40087903143285080000e-002) (25, -3.38696294109468000000e-001) (26, 5.59326180209609450000e-002) (27, -5.11230476367927620000e-002) (28, -6.54785166007059160000e-002) (29, -1.00683595250302460000e-001) (30, -1.06030275017474200000e-001) (0, 7.99072277532104640000e-002) (1, -9.88525405355176190000e-002) (2, 2.34252933178140670000e-001) (3, -1.57348635157177340000e-001) (4, -3.99804693457554090000e-001) (5, -2.38281253550667320000e-001) (6, -1.72656252572778610000e-001) (7, 2.21557620488965770000e-001) (8, -2.59692386682218060000e-001) (9, 5.60546883352799340000e-002) (10, -3.56689458440087040000e-002) (11, 5.83984383702045310000e-002) (12, -3.70605474272451830000e-002) (13, 3.59008794412147840000e-001) (14, -3.68041997671753050000e-001) (15, 5.89111336903442860000e-002) (16, -4.72167975785851010000e-002) (17, -1.89331057508752560000e-001) (18, 2.75146488475002120000e-002) (19, 3.78515630640322340000e-001) (20, -3.98242193434271030000e-001) (21, -3.39379887869654340000e-001) (22, -1.73925783841696100000e-001) (23, -2.79541019790485730000e-001) (24, -1.85351565261953510000e-001) (25, 1.51196291315500280000e-001) (26, 2.30664065937162380000e-001) (27, 2.85473637066388620000e-001) (28, 1.59887697695012320000e-001) (29, -3.35058598742762110000e-001) (30, 3.00781254481989890000e-002) (0, 2.98095707566972120000e-001) (1, 1.90869143469171830000e-001) (2, -3.39111333178152560000e-001) (3, -3.10253910873143470000e-001) (4, 2.34448245681051050000e-001) (5, -3.37695317532052290000e-001) (6, 1.25170900302691730000e-001) (7, 3.00073246658939750000e-001) (8, -3.23242192316683940000e-001) (9, -3.32788090896428910000e-001) (10, 2.60522464819587190000e-001) (11, -3.92065435529730170000e-001) (12, -2.80908207310858420000e-001) (13, -8.11523449592641550000e-002) (14, 3.39916997252657890000e-001) (15, -2.44165042700842600000e-001) (16, -1.49926760046582790000e-001) (17, -1.96630862305028130000e-001) (18, 2.49169925587921170000e-001) (19, 1.53784181979062850000e-001) (20, 2.36938480093158430000e-001) (21, 2.73681644703174240000e-002) (22, 2.43798831757885640000e-001) (23, -2.90869144959287950000e-001) (24, -6.39404306402866500000e-002) (25, -3.13916020302713150000e-001) (26, 2.44702152083846160000e-001) (27, 2.39208987939491640000e-001) (28, 3.55249028731122960000e-001) (29, -2.32177737834717850000e-002) (30, -1.87988284051243680000e-003) (0, 9.16748060535610420000e-002) (1, -3.07446293643806710000e-001) (2, -2.17700198556485700000e-001) (3, -3.75537114970939000000e-001) (4, 1.97753909196762830000e-001) (5, -3.23486332945321920000e-001) (6, -4.97314460535562830000e-002) (7, -3.18554692246834750000e-001) (8, 3.83349615087354320000e-001) (9, -6.69189463096699910000e-002) (10, -1.07788087543667640000e-001) (11, 2.65942386775350310000e-001) (12, 1.62719728987212870000e-001) (13, -2.95922855972094110000e-001) (14, 1.28393556600713050000e-001) (15, -1.19702150221201010000e-001) (16, 2.40332034831226340000e-001) (17, -1.57739260162998110000e-001) (18, 2.51464847497118170000e-003) (19, -1.26953126891748980000e-002) (20, -2.54833988172322280000e-001) (21, 7.81250011641532180000e-003) (22, 1.92163088800953120000e-001) (23, -2.03369143655436350000e-002) (24, -1.76855471385351850000e-001) (25, -8.42285168801026880000e-003) (26, 3.93310552735783860000e-002) (27, -3.11914067147881720000e-001) (28, -1.87866213736924690000e-001) (29, 8.96972669615934140000e-002) (30, 1.26269533131562640000e-001) (0, -2.46240238044265420000e-001) (1, -1.75122072922022200000e-001) (2, -1.45068361536687010000e-001) (3, 1.21606447124577240000e-001) (4, 1.89770510640300930000e-001) (5, -3.52539067753241400000e-002) (6, -2.50512699045430050000e-001) (7, -7.79541027241066330000e-002) (8, 2.56542972572788130000e-001) (9, 3.99243170011686740000e-001) (10, 2.24340823655438730000e-001) (11, -2.86010746449392170000e-001) (12, -2.35595706635649550000e-002) (13, -2.83642582351603780000e-001) (14, 3.50317388032635790000e-001) (15, -2.19213870454041170000e-001) (16, 1.23779298719455260000e-002) (17, -2.11279300023306860000e-001) (18, 1.25463869057057310000e-001) (19, -3.19921879767207430000e-001) (20, 2.35449222258466760000e-001) (21, 1.70629885355083390000e-001) (22, -2.15722659464518070000e-001) (23, 1.66748049359739530000e-002) (24, 1.06713868777660540000e-001) (25, -1.47290041257292610000e-001) (26, 2.33276370663588750000e-001) (27, 3.55224614668259160000e-002) (28, 3.97973638742769250000e-001) (29, -2.00341799860325410000e-001) (30, 3.38183598789328240000e-001) (0, -1.39892580209561860000e-001) (1, -2.23388675203750610000e-001) (2, 9.55566420489049050000e-002) (3, -1.22558595576265360000e-002) (4, -1.98828127962769940000e-001) (5, 1.79589846426097210000e-001) (6, 3.22167973550676830000e-001) (7, -1.40966798975568960000e-001) (8, -3.93310552735783860000e-002) (9, 1.01416017136216400000e-001) (10, 1.94848635715970890000e-001) (11, -3.90673833946493690000e-001) (12, -2.43872073946477030000e-001) (13, 1.21118165867301290000e-001) (14, 2.81542972945317160000e-001) (15, -1.80322268312011150000e-001) (16, -2.09716800000023800000e-001) (17, -2.06591799953457670000e-001) (18, -1.70629885355083390000e-001) (19, -1.85253909010498320000e-001) (20, 9.09667982305109040000e-002) (21, -1.71044924423767950000e-001) (22, 3.24072270454053070000e-001) (23, -1.15454103282900180000e-001) (24, 3.46411137974428130000e-001) (25, -1.11572267287556310000e-001) (26, -1.92651370058229080000e-001) (27, 3.24951176717149790000e-002) (28, 1.60791018020972840000e-001) (29, 3.15942387520408370000e-001) (30, 1.76953127636807040000e-001) (0, -2.24829104912714680000e-001) (1, 1.55102541373707940000e-001) (2, -2.63623050803289520000e-001) (3, -3.05493168614702880000e-001) (4, -8.14697277764935280000e-002) (5, 3.38378911292238630000e-001) (6, 4.18457037485495680000e-002) (7, 1.26416017508745430000e-001) (8, -3.64184575739272990000e-001) (9, -2.25854495552994190000e-001) (10, 2.92065434039614050000e-001) (11, -5.77880867986095840000e-002) (12, 1.71850588498273280000e-001) (13, 3.67309575785839120000e-001) (14, -1.45947267799783730000e-001) (15, -2.04003909289895090000e-001) (16, -3.00878910733445080000e-001) (17, 3.96191412153712010000e-001) (18, 3.05615238929021870000e-001) (19, -2.84399418300381510000e-001) (20, 2.50170902165336880000e-001) (21, -1.84912112130405150000e-001) (22, 2.81494144819589560000e-002) (23, -1.75488283864979170000e-001) (24, 5.17578132712515070000e-002) (25, -2.48120120884777860000e-001) (26, -1.86743166845189990000e-001) (27, 2.17041018859163160000e-002) (28, 1.85498049639136300000e-001) (29, -1.73730471338785720000e-001) (30, -1.91406252852175380000e-001) (0, 4.42138678463379620000e-002) (1, -2.99951176344620760000e-001) (2, -2.87011723026807890000e-001) (3, -2.72192386868482570000e-001) (4, 1.37573244237501060000e-001) (5, 9.98291030500695340000e-002) (6, -2.24414065844030120000e-001) (7, 2.49340824027967760000e-001) (8, -2.41015628591412680000e-001) (9, -2.64526371129250040000e-001) (10, -4.51660162980260790000e-003) (11, -7.05566416763758750000e-002) (12, 1.38403322374870190000e-001) (13, -1.79345705797459230000e-001) (14, 2.11181643771851670000e-002) (15, -4.56542975553020370000e-002) (16, 1.22387697136218780000e-001) (17, 2.00512698300371990000e-001) (18, 3.62719731967445110000e-001) (19, -1.43798830267769520000e-001) (20, -7.43164073574007490000e-002) (21, 1.96728518556483320000e-001) (22, 3.57250981885954390000e-001) (23, -2.81591801071044760000e-001) (24, -1.84179690244491210000e-001) (25, 2.54077152223544540000e-001) (26, 1.28588869103623440000e-001) (27, -5.32226570430793800000e-003) (28, 3.55273442793986760000e-001) (29, -2.86425785518076740000e-001) (30, -2.31933597206079870000e-001) (0, 6.75781260069925340000e-002) (1, 2.66601566472672860000e-002) (2, 3.72070318044279700000e-002) (3, -2.39501956693857210000e-001) (4, 2.70629886845199510000e-001) (5, 6.55517587892973100000e-002) (6, 9.17968763678800310000e-003) (7, -1.19775392409792400000e-001) (8, -3.00073246658939750000e-001) (9, 3.26293950174658680000e-001) (10, 2.38720706682215680000e-001) (11, -2.17333987613528730000e-001) (12, 1.39550783329468690000e-001) (13, 5.51757820721832100000e-003) (14, 2.89575199627506660000e-001) (15, 1.16186525168814110000e-001) (16, -3.73876958696200750000e-001) (17, -1.51586916321321040000e-001) (18, 1.60815432083836640000e-001) (19, 1.79174807357412650000e-001) (20, 3.77416997811451440000e-001) (21, -3.37011723771865950000e-001) (22, -1.55493166379528700000e-001) (23, -2.52587894388852870000e-001) (24, 2.10058596880116970000e-001) (25, -2.33007815972086970000e-001) (26, -1.15332032968581190000e-001) (27, 2.97021488800965020000e-001) (28, 1.71215822863814540000e-001) (29, 1.92675784121092870000e-001) (30, -1.36987306728769910000e-001) (0, -3.52661138067560390000e-001) (1, -9.05517591618263400000e-002) (2, -1.25561525308512500000e-001) (3, 1.36108400465673180000e-001) (4, 4.94140632363269110000e-002) (5, -9.04541029103711480000e-002) (6, 4.42626959720655580000e-002) (7, -2.50878909988387020000e-001) (8, -2.55371097555325830000e-001) (9, -2.83520512037284790000e-001) (10, -3.40185551944159670000e-001) (11, -1.48803713154848080000e-001) (12, 1.87500002793967720000e-002) (13, 7.33642589057126320000e-002) (14, -1.09399415692678300000e-001) (15, -6.26220712456415640000e-002) (16, 1.76196291688029310000e-001) (17, -3.01513676367903830000e-001) (18, -1.13208009499430770000e-001) (19, 2.41918948917373200000e-001) (20, -3.40234380069887270000e-001) (21, 2.26489261187452940000e-001) (22, 5.58349617695057530000e-002) (23, 8.52050793946546040000e-003) (24, -2.59570316367899070000e-001) (25, -3.61523442887119020000e-001) (26, -1.28051759720619880000e-001) (27, 1.61694338346933360000e-001) (28, 2.70996097788156480000e-003) (29, -2.93725590314352300000e-001) (30, 4.34570318975602280000e-002) (0, 1.05126954691513670000e-001) (1, -3.49780278649632240000e-001) (2, -2.24194339278255940000e-001) (3, 6.28173837485519470000e-002) (4, 3.71142583655455380000e-001) (5, -3.43505864493636180000e-001) (6, 1.43066408381855580000e-002) (7, 1.64526369639133920000e-001) (8, 4.71923835157213030000e-002) (9, -2.13793948498278040000e-001) (10, 4.68505866356281330000e-002) (11, 3.15942387520408370000e-001) (12, -9.64111342491378310000e-002) (13, 1.11694337601875300000e-001) (14, 1.06835939091979530000e-001) (15, -3.34277348731120580000e-001) (16, 1.47827150640296170000e-001) (17, 2.49731449033788520000e-001) (18, 2.25512698672901020000e-001) (19, 2.75195316600729710000e-001) (20, -2.69262699324826830000e-001) (21, 3.43750005122274160000e-001) (22, -2.14379886007009190000e-001) (23, 1.57495119534360130000e-001) (24, -2.71215824353930660000e-001) (25, 2.16162112596066440000e-001) (26, 1.63989260256130360000e-001) (27, 2.49658206845197130000e-001) (28, 1.28320314412121660000e-001) (29, -8.38378918742819220000e-002) (30, -1.15966798603039930000e-002) (0, -5.78125008614733820000e-002) (1, -2.63842777369063700000e-001) (2, -3.12158207776519700000e-001) (3, 1.33276369173472630000e-001) (4, 1.91918948172315140000e-001) (5, -2.58276371036117780000e-001) (6, 1.83496096484304870000e-001) (7, -2.03857424912712300000e-002) (8, 4.21875006286427380000e-002) (9, -1.44042970896407500000e-001) (10, 1.47338869383020210000e-001) (11, -3.36132817508769220000e-001) (12, -2.38037112922029340000e-002) (13, 3.51513677112961890000e-001) (14, 3.94531255878973750000e-001) (15, 2.40942386402821280000e-001) (16, 3.27978520512260730000e-001) (17, -2.70239261839378740000e-001) (18, 1.10473634458685410000e-001) (19, -3.13671879674075170000e-001) (20, 1.76318362002348290000e-001) (21, -2.60815433573952760000e-001) (22, -1.04565431245646320000e-001) (23, -1.37963869243321820000e-001) (24, 1.46337892805604500000e-001) (25, 2.70385746216561530000e-001) (26, -2.04833987427264220000e-002) (27, -2.80273441676399670000e-002) (28, 1.44018556833543700000e-001) (29, -1.47265627194428820000e-001) (30, 3.28857426775357450000e-002) (0, -3.68969732060577370000e-001) (1, 2.48461917764871030000e-001) (2, 2.77416996321335320000e-001) (3, 1.96337893550662560000e-001) (4, -1.26538087823064420000e-001) (5, -2.13012698486636510000e-001) (6, -1.27734376903390510000e-001) (7, 1.57153322654266960000e-001) (8, -3.74780279022161270000e-001) (9, -3.81958013504117840000e-001) (10, 3.52905278696198370000e-001) (11, -1.04614259371373920000e-001) (12, -3.46191411408653950000e-002) (13, 2.46948245867315560000e-001) (14, -2.24340823655438730000e-001) (15, -2.74755863469181350000e-001) (16, 1.01708985890581970000e-001) (17, -5.85937508731149140000e-004) (18, -2.83056644842872630000e-001) (19, 5.70068367869680510000e-002) (20, -2.14990237578604140000e-001) (21, 2.77856449452883680000e-001) (22, 4.17480474970943760000e-003) (23, 1.04052735925506570000e-001) (24, 8.79882825611275620000e-002) (25, -2.74340824400496790000e-001) (26, 3.23339848568139130000e-001) (27, -3.96240240279439600000e-002) (28, -3.27246098626346790000e-001) (29, 3.24023442328325470000e-001) (30, -3.71948247729960710000e-001) (0, -3.26611332991888050000e-001) (1, 7.26318370197986950000e-002) (2, 4.68261725727643350000e-002) (3, -1.24804689359734770000e-001) (4, -2.63183597671741150000e-001) (5, 3.12939457788161230000e-001) (6, -1.01806642142037160000e-001) (7, 2.12182620349267380000e-001) (8, -1.70727541606538580000e-001) (9, -4.17480474970943760000e-003) (10, -4.20898443771875460000e-002) (11, 1.40600588032612000000e-001) (12, 2.22778323632155660000e-001) (13, -2.57080081955791680000e-002) (14, 2.59692386682218060000e-001) (15, 1.81689455832383830000e-001) (16, 2.86889652712488900000e-001) (17, -2.59960941373719830000e-001) (18, 3.27099614249164010000e-001) (19, 1.68164065005839800000e-001) (20, 1.12988282933656590000e-001) (21, -1.49316408474987840000e-001) (22, 3.92529302724142330000e-001) (23, -3.12377934342293880000e-001) (24, -3.16162114086182560000e-001) (25, -2.79296879161847760000e-001) (26, -2.76196293178145420000e-001) (27, 2.68554691501776690000e-003) (28, 1.36230470779992170000e-002) (29, -9.82910170896502680000e-002) (30, -1.16381837671724500000e-001) (0, -2.75390629103640090000e-002) (1, -1.16845704866136660000e-001) (2, -2.32910159720631780000e-002) (3, 3.46875005168840290000e-001) (4, -2.99194340395843030000e-001) (5, -2.04541018672898640000e-001) (6, 3.93310552735783860000e-001) (7, -9.92431655413383850000e-002) (8, -3.64111333550681590000e-001) (9, 3.76562505611218510000e-001) (10, 1.61181643026793610000e-001) (11, 5.26367195343482310000e-002) (12, 4.66064460069901540000e-002) (13, -3.53149419324836340000e-001) (14, 3.38403325355102420000e-001) (15, -1.29150392549490790000e-001) (16, -1.99707034225866660000e-001) (17, 3.87426763585608570000e-001) (18, -3.68017583608889250000e-001) (19, 8.31054699883679860000e-002) (20, 1.67211916554151680000e-001) (21, 2.70263675902242540000e-002) (22, 3.74511724330659490000e-002) (23, 2.58007816344616000000e-001) (24, -2.23559573643797190000e-001) (25, -1.25927736251469470000e-001) (26, 4.23828131315531210000e-002) (27, -3.05932621746251240000e-001) (28, 4.84619147846387930000e-002) (29, -2.80859379185130820000e-001) (30, -2.80810551059403220000e-001) (31, 2.41723636414462820000e-001) (32, 2.91503910593746700000e-002) (33, 2.32739261280585200000e-001) (34, 3.17382817229372450000e-002) (35, 8.31298840512317840000e-002) (36, -4.95117194877821020000e-002) (37, -1.66503908731101550000e-002) (38, -1.18774415832376690000e-001) (39, -1.05175782817241270000e-001) (40, -3.57202153760226790000e-001) (41, -9.91943374156107890000e-002) (42, -3.83984380721813070000e-001) (43, 1.80175783934828360000e-002) (44, -7.65869152037339520000e-002) (45, -3.89990240186307350000e-001) (46, 1.30566408195591070000e-001) (47, -3.38134770663600650000e-001) (48, 2.87084965215399280000e-001) (49, 5.99121102677599990000e-002) (50, -1.21533204935985850000e-001) (51, -3.54736333410983210000e-002) (52, 2.22875979883610850000e-001) (53, 7.28027354598452800000e-002) (54, -2.75610355669414280000e-001) (55, 3.37011723771865950000e-001) (56, -1.17456056437731600000e-001) (57, -3.60986333504115460000e-001) (58, 3.60278325681065330000e-001) (59, 3.14770512502946080000e-001) (60, 2.25708011175811410000e-001) (61, -1.82128908963932190000e-002) (31, -1.89477541885935350000e-001) (32, 3.42285161350446290000e-001) (33, -3.37646489406324690000e-002) (34, -3.82397466635666210000e-001) (35, -2.48828128707828000000e-001) (36, 1.15209962654262200000e-001) (37, -1.54418947613521600000e-001) (38, -3.63354497601903860000e-001) (39, 1.68212893131567400000e-001) (40, -9.43603529685788090000e-002) (41, 3.57324224074545780000e-001) (42, -1.71240236926678340000e-001) (43, -1.19970704912702790000e-001) (44, 2.94873051268950800000e-001) (45, 2.48608402142053820000e-001) (46, -3.20361332898755790000e-001) (47, 4.86572272875491760000e-002) (48, 1.39208986449375520000e-001) (49, 3.22778325122271780000e-001) (50, 2.62304691408644430000e-001) (51, 2.05468753061722960000e-001) (52, 1.93408206007006810000e-001) (53, -1.31054689452867020000e-001) (54, 2.48901370896419390000e-001) (55, -8.43994153201492740000e-002) (56, 2.17211917299209740000e-001) (57, -1.57128908591403160000e-001) (58, -3.32080083073378770000e-001) (59, -3.93408208987239050000e-001) (60, 1.89233401257297370000e-001) (61, 1.24462892479641600000e-001) (31, -1.68505861885932970000e-001) (32, 8.60839856577513270000e-002) (33, -1.45751955296873350000e-001) (34, 1.76928713573943240000e-001) (35, 2.58276371036117780000e-001) (36, -1.26489259697336820000e-001) (37, 2.76855472875467970000e-002) (38, 3.23242192316683940000e-002) (39, 2.16455081350432010000e-001) (40, 2.70947269662428880000e-001) (41, -1.16601564237498680000e-001) (42, -2.71093754039611670000e-001) (43, 1.12158204796287460000e-001) (44, -3.02050785750907380000e-001) (45, 4.90478522933699420000e-002) (46, -2.75317386915048700000e-001) (47, -5.19042976484342940000e-002) (48, 1.55029299185116540000e-002) (49, 1.34301759813752140000e-001) (50, -3.87011724516924010000e-001) (51, -3.22387700116451010000e-001) (52, -3.60107427241018740000e-002) (53, -2.83154301094327820000e-001) (54, 6.42089853317884260000e-002) (55, 2.78979496344618380000e-001) (56, 4.02099615366751100000e-002) (57, 2.11303714086170660000e-001) (58, -2.80712894807948030000e-001) (59, -2.49755863096652320000e-002) (60, 3.38574223795149010000e-001) (61, -1.54199221047747410000e-001) (31, -4.02343755995389070000e-002) (32, -3.76904302491311680000e-001) (33, -3.18798832875472730000e-001) (34, -2.84423832363245310000e-002) (35, -3.20654301653121370000e-001) (36, -2.99755863841710380000e-001) (37, -3.77929693131591190000e-002) (38, -2.69921879022149370000e-001) (39, 1.82055666775340800000e-001) (40, -2.91040043399334540000e-001) (41, 3.09814457741595110000e-002) (42, -2.96728520046599440000e-001) (43, -6.80908213271322890000e-002) (44, 2.78076176018657860000e-002) (45, -1.60473635203743470000e-001) (46, 3.71337896158365770000e-001) (47, 7.92236339930241230000e-002) (48, 2.32812503469176590000e-001) (49, -2.10205081257299750000e-002) (50, 3.58886724097828850000e-003) (51, -3.11572270267788550000e-001) (52, 3.13891606239849350000e-001) (53, -2.69995121210740760000e-001) (54, 2.06884768707823240000e-001) (55, -7.54394542491354510000e-003) (56, -3.88330083911569090000e-001) (57, 3.52319341187467220000e-001) (58, -2.43017581746244100000e-001) (59, -2.01269534249149730000e-001) (60, -1.00390626495936890000e-001) (61, -6.15478524796344570000e-002) (31, 1.37768556740411440000e-001) (32, -2.28344729965101580000e-001) (33, 2.36474612898746270000e-001) (34, 1.56250002328306440000e-001) (35, 2.13183596926683090000e-001) (36, 1.16699220488953870000e-001) (37, -3.85937505750916900000e-001) (38, 5.76171883585629980000e-003) (39, 2.57006839767200290000e-001) (40, -2.08959964051246060000e-001) (41, -1.74755861979065230000e-001) (42, 1.14916993899896620000e-001) (43, -3.45458989522740010000e-002) (44, 1.65771486845187610000e-001) (45, -2.22583011129245280000e-001) (46, -1.00512696810255870000e-001) (47, 2.77563480698518110000e-001) (48, -3.35253911245672500000e-001) (49, 7.61230480093217920000e-002) (50, -8.80615247497189560000e-002) (51, 2.85400394877797230000e-002) (52, -9.52880873574031280000e-002) (53, 3.04101567031466400000e-001) (54, -2.95532230966273350000e-001) (55, -3.39404301932518140000e-001) (56, 2.62475589848691020000e-001) (57, -1.79394533923186830000e-001) (58, 3.31005864307371670000e-001) (59, -1.83032229289892710000e-001) (60, -2.06860354644959440000e-001) (61, -2.94042973131581680000e-001) (31, 2.13427737555321070000e-001) (32, -1.56518557019808210000e-001) (33, 2.25170901792807850000e-001) (34, -1.23437501839362080000e-001) (35, -1.03417970291047820000e-001) (36, 2.30712894062889970000e-002) (37, 1.57128908591403160000e-001) (38, 1.95190432596064060000e-001) (39, -3.82373052572802410000e-001) (40, -2.31982425331807460000e-001) (41, -2.19433597019815350000e-001) (42, -3.98535162188636600000e-001) (43, -3.85620122933687530000e-001) (44, 3.95141607450568700000e-001) (45, -1.45068361536687010000e-001) (46, -3.12231449965111100000e-001) (47, -1.02465821839359710000e-001) (48, -9.14306654249230630000e-002) (49, -1.41235353667070740000e-001) (50, 3.45434575459876210000e-001) (51, -1.87792971548333300000e-001) (52, -3.84423833853361430000e-001) (53, -1.57446291408632530000e-001) (54, 3.06298832689208210000e-001) (55, -2.86621098020987120000e-001) (56, -3.99951177834736880000e-001) (57, -2.91918949662431260000e-001) (58, -1.95605471664748620000e-001) (59, 2.80395511990718660000e-001) (60, -3.21069340721805930000e-001) (61, -3.60620122561158500000e-001) (31, -2.16723636041933790000e-001) (32, 1.95727541979067610000e-001) (33, -3.33789067473844630000e-001) (34, 2.10375979697346340000e-001) (35, -3.26782231431934630000e-001) (36, -2.87500004284083840000e-001) (37, 3.70117193015175870000e-001) (38, 2.93774418440079900000e-001) (39, 1.64184572759040750000e-001) (40, -3.63696294481997030000e-001) (41, -5.22949226542550600000e-002) (42, 9.68994155064137890000e-002) (43, 1.98754885774178550000e-001) (44, 4.59716803725314090000e-002) (45, -1.57446291408632530000e-001) (46, 2.48754886519236610000e-001) (47, 2.10620120325984320000e-001) (48, 2.78417972898751030000e-001) (49, -2.69848636833557980000e-001) (50, 2.63867191431927490000e-001) (51, 3.31298833061737240000e-002) (52, -2.97338871618194390000e-001) (53, -3.03857426402828420000e-001) (54, 1.07592775040757260000e-001) (55, 3.03442387334143860000e-001) (56, 7.69042980209633240000e-003) (57, 2.72338871245665360000e-001) (58, 1.88012698114107480000e-001) (59, -2.13281253178138290000e-001) (60, -2.70410160279425330000e-001) (61, 1.55566408568120100000e-001) (31, 2.99414066961617210000e-001) (32, -1.54174806984883620000e-001) (33, 1.42602541187443420000e-001) (34, -1.65673830593732420000e-001) (35, 4.22607428172341320000e-002) (36, -3.18701176624017530000e-001) (37, -3.60571294435430900000e-001) (38, -2.51684574062892350000e-001) (39, -3.55151372479667770000e-001) (40, -3.34960942491306920000e-002) (41, -2.74731449406317550000e-001) (42, -3.94384771501790960000e-001) (43, -2.88623051175818550000e-001) (44, 1.03247071851001240000e-001) (45, -2.48730472456372810000e-001) (46, 2.82861332339962250000e-001) (47, -3.78295904074548160000e-001) (48, 3.22729496996544190000e-001) (49, 3.11865239022154130000e-001) (50, -2.66870121164174630000e-001) (51, 3.07568363958125700000e-001) (52, 2.56591800698515730000e-001) (53, -3.68872075809122180000e-001) (54, 3.26684575180479440000e-001) (55, -6.95068369732325660000e-002) (56, -3.96435552782349990000e-001) (57, -3.36596684703181380000e-001) (58, -1.50488283492450140000e-001) (59, 1.86083987147867450000e-001) (60, -2.83837894854514160000e-001) (61, -1.67333986868470670000e-001) (31, 3.84594732293408010000e-001) (32, -2.39892581699677980000e-001) (33, -2.67089847729948810000e-001) (34, -6.37207040745124690000e-002) (35, 1.01147462444714620000e-001) (36, -1.39086916135056530000e-001) (37, -3.19287114132748680000e-001) (38, -2.62329105471508230000e-001) (39, -2.23413089266614410000e-001) (40, -4.65087897555349630000e-002) (41, 1.72656252572778610000e-001) (42, -2.70263675902242540000e-002) (43, 2.76318363492464410000e-001) (44, -1.79736330803280000000e-001) (45, -7.39257823515799830000e-002) (46, 2.96899418486646030000e-001) (47, -3.83740240093175090000e-001) (48, -3.26831059557662230000e-001) (49, -7.41699229802179620000e-002) (50, -3.07421879580942910000e-001) (51, 2.33325198789316350000e-001) (52, 4.24072271944169190000e-002) (53, 2.58203128847526390000e-001) (54, -3.29516606472680000000e-001) (55, -1.11328126658918340000e-001) (56, 3.66918950780018350000e-001) (57, 3.96484380908077580000e-002) (58, -2.18530276693854830000e-001) (59, 2.86376957392349140000e-002) (60, -3.88891607357436440000e-001) (61, 6.63818369266664380000e-002) (31, 1.68725588451707150000e-001) (32, 2.28662112782330950000e-001) (33, 2.33422855040771540000e-001) (34, 2.08740237485471880000e-001) (35, -1.16040040791631330000e-001) (36, -2.55029300675232660000e-001) (37, -3.68676763306211800000e-001) (38, -2.36572269150201460000e-002) (39, 9.26025404423853620000e-002) (40, 3.98901373131593570000e-001) (41, -1.21337892433075470000e-002) (42, -1.21801759627487630000e-001) (43, 9.29199232596147340000e-002) (44, -1.80615237066376720000e-001) (45, -1.55151369499435530000e-001) (46, 3.34472661234030970000e-003) (47, 7.44384776717197380000e-002) (48, -3.32055669010514980000e-001) (49, -7.24609385797521100000e-002) (50, -1.53295900721786890000e-001) (51, 1.40283205215382620000e-001) (52, 2.71582035296887630000e-001) (53, 1.45922853736919930000e-001) (54, -1.94677737275924300000e-001) (55, -8.14208996507659320000e-002) (56, -1.11474611036101120000e-001) (57, 2.97534184121104770000e-001) (58, 3.69750982072218900000e-001) (59, 2.87890629289904610000e-001) (60, -3.68188482048935840000e-001) (61, -2.03149417089662170000e-001) (31, 2.36010745704334110000e-001) (32, 3.41894536344625520000e-001) (33, 2.75537113480822880000e-001) (34, 1.56250002328306440000e-001) (35, -2.37377933224706790000e-001) (36, -8.21044934109522730000e-002) (37, -3.09082035855681170000e-002) (38, -5.64208992782369020000e-002) (39, -2.01928713946472270000e-001) (40, 1.45507814668235370000e-002) (41, -1.15820314225857150000e-001) (42, 3.41137700395847790000e-001) (43, -9.64111342491378310000e-002) (44, 2.23559573643797190000e-001) (45, -3.80590825983745160000e-001) (46, -1.68579104074524370000e-001) (47, 3.96215826216575810000e-001) (48, -9.94873061699763640000e-002) (49, -2.11865237532038010000e-001) (50, 1.34277345750888340000e-001) (51, 2.37133792596068820000e-001) (52, -2.00268557671734020000e-001) (53, 1.36962892665906110000e-002) (54, 3.20654301653121370000e-001) (55, -9.64355483120016290000e-003) (56, -3.01757816996541810000e-001) (57, 1.57714846100134310000e-001) (58, -3.71997075855688310000e-001) (59, 2.76831058812604170000e-001) (60, -6.63818369266664380000e-002) (61, 2.06079104633317910000e-001) (31, 3.02075199813771180000e-001) (32, 1.48657228777665300000e-001) (33, -1.87255862165329750000e-002) (34, 2.37841800419118950000e-001) (35, -2.09497073434249610000e-001) (36, 2.08764651548335680000e-001) (37, 3.95312505890615280000e-001) (38, -9.80957045867398850000e-002) (39, -3.87329107334153380000e-001) (40, -2.99243168521570620000e-001) (41, -3.61108403818434450000e-001) (42, -3.73632818067562770000e-001) (43, 2.31469730011667710000e-001) (44, 3.94384771501790960000e-001) (45, 1.28393556600713050000e-001) (46, -2.14062503189779820000e-001) (47, -3.48706059883625130000e-001) (48, 9.08203138533281160000e-002) (49, -1.83300783981394490000e-001) (50, 5.20263679627532840000e-002) (51, 2.67773441490135160000e-001) (52, -2.26171878370223570000e-001) (53, -3.59350591292241010000e-001) (54, -4.94873054249183040000e-002) (55, 9.41650404656684260000e-002) (56, 3.06884770197939360000e-002) (57, -4.26757818859186950000e-002) (58, -3.47338872363252450000e-001) (59, 8.89892591385432750000e-002) (60, 3.68920903934849780000e-001) (61, 2.94677738766040420000e-001) (31, -3.76489263422627120000e-001) (32, -2.89379887124596280000e-001) (33, 2.53002933457537440000e-001) (34, 3.40942387892937400000e-001) (35, -2.46679691175813790000e-001) (36, -3.76904302491311680000e-001) (37, 2.86425785518076740000e-001) (38, -3.01586918556495220000e-001) (39, -2.03344729592572550000e-001) (40, -3.21313481350443910000e-001) (41, -3.56689458440087040000e-002) (42, -7.40478526658989720000e-002) (43, 1.44409181839364460000e-001) (44, -9.79736342724208950000e-002) (45, 2.10449221885937730000e-002) (46, -4.12597662398184180000e-003) (47, -4.64355475669435690000e-002) (48, -1.99291995157182100000e-001) (49, 1.98291018579766390000e-001) (50, -1.10375978207230220000e-001) (51, -3.40234380069887270000e-001) (52, -2.72558597811439540000e-001) (53, -3.41455083213077160000e-001) (54, 2.57739261653114230000e-001) (55, 9.78271498952381080000e-002) (56, -3.81054693178157320000e-001) (57, -3.31298833061737240000e-001) (58, 6.87011728987272360000e-002) (59, -3.45190434831238240000e-001) (60, -3.63842778859179820000e-001) (61, -2.20971682980234620000e-001) (31, 1.71972658812592270000e-001) (32, 8.12011730849917510000e-002) (33, -3.68750005494803190000e-001) (34, -7.73681652153754840000e-002) (35, 3.00024418533212160000e-001) (36, -1.53564455413288670000e-002) (37, 3.65942388265466430000e-001) (38, -3.40087895692704480000e-001) (39, -1.65576174342277230000e-001) (40, 2.31713870640305690000e-001) (41, 2.06640628079185260000e-001) (42, -2.06372073387683490000e-001) (43, 2.61108402328318330000e-001) (44, 2.82275394831231100000e-001) (45, -1.79003908917366060000e-001) (46, -2.08984378114109860000e-002) (47, -3.60498052246839510000e-001) (48, 8.18359387194504960000e-002) (49, -1.99023440465680320000e-001) (50, -4.52392584866174730000e-002) (51, 2.10888675017486090000e-001) (52, 1.36596681722949140000e-001) (53, -2.62304691408644430000e-001) (54, -3.81909185378390250000e-001) (55, 2.70751957159518500000e-001) (56, -3.54003911525069270000e-003) (57, -3.27441411129257180000e-001) (58, -2.82470707334141480000e-002) (59, 2.30224612805614020000e-001) (60, -2.29394534668244890000e-001) (61, -3.49829106775359830000e-001) (31, 1.65161135273592660000e-001) (32, 3.91528326146726610000e-001) (33, 1.01196290570442220000e-001) (34, -1.02270509336449320000e-001) (35, -1.43798830267769520000e-001) (36, 3.62597661653126120000e-001) (37, -3.80468755669426170000e-001) (38, -2.44042972386523620000e-001) (39, -2.81542972945317160000e-001) (40, 3.55957036554173100000e-002) (41, -2.89624027753234260000e-001) (42, 2.86572269895259520000e-001) (43, -2.81445316693861970000e-001) (44, 5.47119148777710510000e-002) (45, -3.91113287078042050000e-001) (46, -1.18505861140874910000e-001) (47, -1.09619142258452480000e-002) (48, 9.77294936437829160000e-002) (49, -3.44677739511098480000e-001) (50, -2.01611331129242900000e-001) (51, -7.86621105471567720000e-002) (52, 9.70703139464603740000e-002) (53, -2.67309574295723000000e-001) (54, 1.47949220954615160000e-001) (55, 3.04174809220057800000e-001) (56, 3.24414067334146240000e-001) (57, 3.12231449965111100000e-001) (58, 5.75439461699716050000e-002) (59, 1.32275392596056920000e-001) (60, -1.35278322328304060000e-001) (61, 3.31518559627511420000e-001) (31, 1.36718752037268130000e-001) (32, 1.10327150081502620000e-001) (33, -1.95678713853340010000e-001) (34, 1.30566408195591070000e-001) (35, 1.68896486891753740000e-001) (36, -3.22656254807952790000e-001) (37, 2.57788089778841820000e-001) (38, -3.29345708032633410000e-001) (39, -2.44946292712484140000e-001) (40, 3.76293950919716740000e-001) (41, -4.08447271711338540000e-002) (42, 2.60986332013999340000e-001) (43, -3.66479497648469990000e-001) (44, -6.00585946449427870000e-003) (45, 3.42089848847535900000e-001) (46, 1.82128908963932190000e-002) (47, 2.01708987380698090000e-001) (48, -1.03588868731094410000e-001) (49, -3.65917974202602640000e-001) (50, 8.35937512456439440000e-002) (51, -2.35742191012832340000e-001) (52, 3.84179693224723450000e-001) (53, -3.10205082747415870000e-001) (54, -1.76733401071032860000e-001) (55, 2.32617190966266210000e-001) (56, 9.35791029569372770000e-002) (57, -1.11596681350420110000e-001) (58, -3.64013677299226400000e-001) (59, -3.98535162188636600000e-001) (60, -1.32397462910375910000e-001) (61, 2.00683596740418580000e-002) (62, -6.03027352735807650000e-003) (63, -2.73583988451719050000e-001) (64, -7.74902355296944730000e-002) (65, 8.63037122235255080000e-002) (66, 1.41381838044253530000e-001) (67, -7.14843760652001950000e-002) (68, 3.34692387799805150000e-001) (69, -2.60327152316676800000e-001) (70, 2.75708011920869470000e-001) (71, 1.50146486612356970000e-001) (72, 7.27050792083900890000e-002) (73, -3.12695317159523260000e-001) (74, 2.36840823841703240000e-001) (75, 1.87500002793967720000e-001) (76, -2.00195315483142620000e-001) (77, -2.16406253224704410000e-001) (78, 1.29150392549490790000e-001) 
